'use strict';

const weights = {"haggle/preprocess/kernel:0": [[0.43145623803138733, 0.7120512127876282, -0.11526898294687271, -0.22475199401378632, -0.19444724917411804, 0.5226797461509705, -0.1205497533082962, -0.23178152740001678, -0.3908338248729706, 0.30334314703941345, 0.0557580292224884, -0.2450428009033203, 0.2695625424385071, 0.22822123765945435, -0.41729044914245605, 0.22565758228302002, -0.28573811054229736, -0.010950863361358643, 0.2862045168876648, 0.14025799930095673, 0.12580884993076324, 0.22074130177497864, -0.009223301894962788, 0.6619153022766113, 0.1388886570930481, -0.006709590554237366, 0.3461821973323822, 0.601223349571228, 0.4281913638114929, 0.28018906712532043, 0.3684171438217163, -0.14115342497825623, -0.42911407351493835, -0.1679377555847168, -0.3349830210208893, -0.285957396030426, -0.5949567556381226, -0.6854791641235352, 0.019074955955147743, -0.03693028539419174, -0.39471179246902466, 0.17510247230529785, -0.5225565433502197, -0.2897086441516876, -0.772392749786377, -0.16896650195121765, -0.004078658763319254, 0.22993052005767822, 0.4033712148666382, -0.06148184835910797, -0.3480495810508728, -0.5218719244003296, -0.3046318292617798, 0.3017582297325134, -0.5967960357666016, -0.42084041237831116, 0.2800326347351074, -0.4287780821323395, 0.5053182244300842, -0.6058672666549683, -0.016963176429271698, 0.05954838916659355, -0.3900008499622345, 0.2602578103542328], [0.2749312222003937, 0.006626313552260399, 0.4431714713573456, 0.12559489905834198, -0.160623699426651, 0.25755763053894043, -0.550398588180542, -0.23323525488376617, -0.6174249053001404, -0.12644734978675842, -0.13611958920955658, -0.1650335192680359, 0.40040671825408936, 0.09421153366565704, 0.3207034766674042, -0.2220495343208313, 0.07657869905233383, -0.1715804636478424, 0.41836437582969666, 0.13627119362354279, 0.18580453097820282, -0.18484331667423248, 0.33525630831718445, -0.057672321796417236, 0.12239526957273483, -0.2587539553642273, -0.3668491542339325, -0.12707877159118652, 0.09918589890003204, 0.5278165936470032, 0.2700757384300232, -0.3106926679611206, 0.16673840582370758, 0.06625807285308838, 0.08621004968881607, -0.33126360177993774, -0.3420652449131012, -0.7762283682823181, -0.09154510498046875, 0.27681678533554077, -1.1611641645431519, -0.0832495167851448, 0.6027016043663025, 0.23931114375591278, -0.10407232493162155, -0.18091820180416107, 0.018385816365480423, -0.41828176379203796, -0.13825386762619019, 0.0013259242987260222, 0.31975236535072327, 0.28983646631240845, 0.3323791027069092, 0.10550427436828613, 0.40868085622787476, -0.6815390586853027, 0.14689014852046967, 0.3058543801307678, -0.201948344707489, 0.13857050240039825, 0.13999883830547333, 0.1832892894744873, -0.5308896899223328, -0.05397045239806175], [-0.6812591552734375, -0.05962496995925903, 0.46541133522987366, 0.44503527879714966, -0.510962188243866, 0.35667815804481506, -0.038712579756975174, 0.43942931294441223, -0.12661251425743103, 0.08827519416809082, -0.5705776810646057, 0.030561024323105812, 0.07561762630939484, -0.47070226073265076, 0.313093900680542, 0.2788468897342682, -0.10306695848703384, -0.22524911165237427, 0.006054680794477463, 0.4202441871166229, 0.12196363508701324, -0.660342276096344, -0.24678555130958557, 0.03088235855102539, -0.3818524181842804, 0.19292587041854858, -0.19415283203125, -0.04260750114917755, 0.1911836564540863, 0.1423640102148056, 0.04796414449810982, -0.2254031002521515, 0.12708155810832977, -0.13608649373054504, -0.35117411613464355, 0.14215949177742004, 0.34452024102211, 0.14602169394493103, 0.07504608482122421, 0.315048485994339, 0.3419665992259979, -0.039299868047237396, -0.27989551424980164, -0.6344767212867737, 0.08226773142814636, -0.5434386730194092, -0.16207166016101837, -0.36703410744667053, -0.32845398783683777, 0.5376548171043396, 0.345773845911026, 0.16654695570468903, 0.06651610881090164, -0.8294258713722229, 0.373247891664505, -0.035077840089797974, 0.389303982257843, -0.604636013507843, 0.06843267381191254, 0.10713625699281693, -0.5042615532875061, 0.3657306730747223, -0.4073423445224762, 0.1886938363313675], [-0.22051353752613068, 0.11133123189210892, 0.23039928078651428, 0.16867054998874664, -0.44863757491111755, 0.3303113877773285, -0.21049678325653076, 0.0024795187637209892, -0.02768179215490818, -1.2084347009658813, -0.14294247329235077, 0.4700363874435425, 0.22486577928066254, -0.2168584018945694, -0.2531663775444031, 0.30894750356674194, 0.24871478974819183, 0.38628074526786804, -0.3188019394874573, 0.2280655950307846, 0.1773168444633484, -0.07023636251688004, -1.0115246772766113, 0.1691068410873413, 0.35741499066352844, -0.8883048892021179, 0.032973527908325195, 0.04152785986661911, 0.34748896956443787, 0.06073473393917084, 0.33914878964424133, -0.1353999525308609, -0.7197670936584473, -0.022597774863243103, 0.13931986689567566, -0.5676773190498352, 0.22821441292762756, -0.0486980639398098, -0.23278121650218964, -0.9450085759162903, 0.07554254680871964, -0.24865765869617462, -0.12922340631484985, 0.04605184122920036, -0.09146106243133545, -0.012379488907754421, 0.19733451306819916, 0.13600455224514008, 0.17142224311828613, -0.24892978370189667, 0.17259299755096436, 0.2002614587545395, -0.04350000619888306, 0.047328751534223557, 0.020204078406095505, -0.16466300189495087, 0.35502657294273376, -0.22774465382099152, 0.1663419008255005, -0.17609241604804993, 0.3188824951648712, -0.49803587794303894, 0.04968687891960144, -0.39583295583724976], [-0.147795170545578, -0.010178729891777039, 0.15046370029449463, -0.2114008665084839, -0.17185881733894348, -0.13791529834270477, -0.056036680936813354, 0.24471375346183777, -0.10731559991836548, -0.11449569463729858, -0.2074298858642578, 0.18979093432426453, 0.212412029504776, -0.22848346829414368, 0.12168967723846436, 0.21157151460647583, 0.13793256878852844, 0.14694738388061523, -0.1755909025669098, 0.10781297087669373, 0.18925300240516663, -0.17568007111549377, -0.093831866979599, -0.011060953140258789, -0.12113934755325317, -0.2344251275062561, -0.06125548481941223, -0.13498760759830475, 0.06494250893592834, 0.15370571613311768, -0.2056708186864853, -0.19935138523578644, 0.2285468578338623, 0.02187061309814453, -0.09976449608802795, 0.016666531562805176, 0.12890657782554626, 0.13552170991897583, 0.20478948950767517, -0.17892339825630188, 0.12815701961517334, 0.04812014102935791, 0.21235474944114685, 0.17426037788391113, 0.03288862109184265, -0.15118379890918732, -0.23683950304985046, -0.24693560600280762, 0.213840514421463, -0.09290368854999542, 0.18363764882087708, 0.10099279880523682, 0.14598745107650757, 0.15630009770393372, -0.029194697737693787, 0.2103024423122406, -0.18301349878311157, 0.05837938189506531, 0.20716145634651184, 0.14032763242721558, 0.13557696342468262, -0.16102224588394165, -0.07059243321418762, 0.06847086548805237], [-0.1307850480079651, -0.01931154727935791, -0.07331269979476929, -0.09285444021224976, -0.23172302544116974, 0.11544904112815857, 0.05079016089439392, 0.042394816875457764, 0.019512325525283813, -0.08118753135204315, -0.0034955888986587524, 0.07145035266876221, -0.15435127913951874, -0.1100703626871109, 0.06127968430519104, -0.12776395678520203, -0.032481417059898376, 0.2450881004333496, -0.0029198378324508667, 0.16761448979377747, 0.07354769110679626, -0.014247551560401917, -0.21049466729164124, -0.1970299929380417, -0.18277855217456818, -0.1582777351140976, -0.24451470375061035, -0.18696659803390503, 0.24771782755851746, -0.16999436914920807, -0.14786532521247864, 0.22217488288879395, 0.007083386182785034, 0.12100860476493835, 0.14949896931648254, -0.21715617179870605, 0.06602534651756287, -0.0625075250864029, 0.10822507739067078, 0.10832884907722473, -0.17467913031578064, -0.04589107632637024, 0.10745376348495483, -0.08731471002101898, 0.022094517946243286, 0.08723309636116028, 0.032198548316955566, -0.12582886219024658, -0.011581093072891235, 0.2062329649925232, -0.24786588549613953, -0.24079208076000214, -0.1392247974872589, 0.12786120176315308, 0.0899030864238739, -0.16457673907279968, -0.07258230447769165, 0.13871005177497864, -0.08693081140518188, -0.03575429320335388, -0.0506729781627655, 0.19834092259407043, 0.19786733388900757, -0.07801879942417145], [-0.07207156717777252, 0.13939687609672546, -0.14530031383037567, -0.167873352766037, -0.182143896818161, -0.04575344920158386, 0.14166691899299622, 0.07207900285720825, 0.19713342189788818, -0.08031746745109558, -0.18209345638751984, -0.09913061559200287, 0.1152067482471466, -0.24486534297466278, 0.007485151290893555, -0.0407315194606781, 0.05516451597213745, -0.1390848308801651, 0.10850346088409424, 0.12098193168640137, -0.031088516116142273, 0.15205475687980652, -0.009877339005470276, -0.05798645317554474, -0.15759329497814178, 0.039687514305114746, -0.007452726364135742, 0.0968981683254242, -0.21322588622570038, 0.16253116726875305, -0.14070960879325867, -0.09877525269985199, -0.038267165422439575, 0.05269801616668701, 0.11682659387588501, -0.13701312243938446, -0.02308964729309082, 0.08265161514282227, -0.10341568291187286, -0.07301317155361176, 0.11527395248413086, -0.042565181851387024, -0.10792705416679382, 0.22442081570625305, 0.05981603264808655, 0.14663785696029663, 0.01345670223236084, -0.02110433578491211, 0.24524864554405212, -0.24220901727676392, -0.12629938125610352, -0.1087653636932373, 0.2035847306251526, -0.18597964942455292, -0.23978948593139648, 0.23205652832984924, -0.09125009179115295, -0.12704817950725555, -0.04985503852367401, 0.15701228380203247, 0.16981682181358337, -0.0015851855278015137, -0.15165205299854279, 0.2502969801425934], [0.2255304753780365, 0.13983649015426636, 0.16870242357254028, -0.022635579109191895, -0.15219825506210327, 0.14118272066116333, 0.12882563471794128, -0.15334370732307434, -0.08771717548370361, 0.09389209747314453, 0.12291541695594788, -0.177229642868042, 0.18449801206588745, -0.07810866832733154, -0.19813907146453857, -0.2327752411365509, -0.03661626577377319, 0.19203495979309082, 0.12935391068458557, 0.19622290134429932, 0.1600114405155182, -0.20066878199577332, -0.0866999477148056, -0.10624192655086517, -0.04800988733768463, -0.05974341928958893, -0.21660128235816956, 0.1622925102710724, 0.15375420451164246, -0.02695097029209137, 0.17201435565948486, -0.24104636907577515, -0.17343991994857788, 0.13905486464500427, -0.03893369436264038, 0.14264464378356934, 0.009701967239379883, -0.08841677010059357, 0.21048730611801147, 0.08874085545539856, -0.07197305560112, 0.15213266015052795, -0.16806089878082275, 0.023572146892547607, 0.1287229359149933, -0.24147874116897583, -0.13455908000469208, 0.08993124961853027, -0.07432273030281067, 0.09999158978462219, 0.14472928643226624, -0.04209476709365845, 0.11771026253700256, 0.16363075375556946, -0.09857231378555298, -0.2461279183626175, 0.1579013466835022, -0.2144838571548462, 0.030498862266540527, -0.22863446176052094, 0.24925938248634338, 0.022940337657928467, 0.012684851884841919, 0.10566851496696472], [0.21493196487426758, -0.022155046463012695, -0.1658165603876114, -0.17547208070755005, -0.057944923639297485, 0.1056196391582489, -0.23950164020061493, -0.24610090255737305, 0.04666173458099365, -0.05712093412876129, -0.22152896225452423, 0.13189902901649475, -0.17967452108860016, -0.06243245303630829, 0.12936285138130188, 0.20208734273910522, -0.2201099842786789, 0.04474768042564392, -0.07313473522663116, -0.12459108233451843, 0.05544605851173401, -0.05051419138908386, 0.02607390284538269, -0.013977020978927612, -0.10427226126194, 0.20486924052238464, -0.16193971037864685, 0.04229506850242615, 0.10923576354980469, -0.1975620687007904, 0.11608213186264038, -0.018846705555915833, 0.17589649558067322, 0.08198282122612, -0.17099103331565857, -0.06071677803993225, -0.11660701036453247, 0.03288424015045166, -0.018319547176361084, 0.19144922494888306, -0.24938629567623138, -0.10035671293735504, -0.21777307987213135, -0.11488360166549683, 0.0021170079708099365, 0.24468529224395752, -0.16400980949401855, 0.1503068506717682, -0.21197935938835144, -0.18844202160835266, -0.07096925377845764, -0.021718725562095642, 0.24369347095489502, 0.17864742875099182, 0.13959437608718872, 0.15369391441345215, -0.1369069516658783, -0.19559742510318756, 0.05912506580352783, -0.13813184201717377, 0.21275943517684937, 0.07981106638908386, -0.1814192533493042, 0.18142589926719666], [0.16807299852371216, 0.18632248044013977, 0.04801192879676819, 0.08894044160842896, 0.12354916334152222, 0.16608572006225586, 0.045228272676467896, -0.0670371800661087, 0.19802236557006836, -0.08947210013866425, -0.15663084387779236, -0.042240843176841736, 0.08786594867706299, 0.12931618094444275, 0.22084727883338928, 0.21156305074691772, -0.19626185297966003, 0.015779584646224976, 0.16022330522537231, -0.22432458400726318, -0.13841554522514343, 0.23832091689109802, 0.10853832960128784, 0.08162164688110352, -0.2320381999015808, 0.11243298649787903, -0.2070339471101761, -0.140104740858078, -0.1690634787082672, 0.09492352604866028, -0.07319489121437073, 0.15498477220535278, -0.23145148158073425, 0.18381860852241516, 0.023293405771255493, 0.23859903216362, 0.21836304664611816, -0.20263180136680603, -0.19101355969905853, 0.09175112843513489, -0.02727380394935608, 0.022774308919906616, -0.08328591287136078, -0.24905405938625336, -0.05060671269893646, 0.06576129794120789, -0.21600323915481567, -0.2276105284690857, -0.010826081037521362, 0.19263875484466553, -0.05533072352409363, -0.15594418346881866, -0.03223419189453125, 0.20774972438812256, -0.18075303733348846, 0.020045101642608643, -0.2350669652223587, 0.13558965921401978, 0.24172067642211914, -0.06897340714931488, 0.05303996801376343, -0.21439115703105927, -0.057397156953811646, -0.23291610181331635], [-0.04176773130893707, -0.09432558715343475, 0.07116913795471191, -0.09122569859027863, -0.16128787398338318, 0.0645652711391449, -0.2479545623064041, -0.1285276710987091, -0.008686482906341553, -0.11812220513820648, -0.2246866077184677, -0.24534480273723602, -0.16767220199108124, 0.0900750458240509, 0.008091151714324951, -0.24135608971118927, -0.17227692902088165, -0.22201471030712128, -0.15372693538665771, -0.18687540292739868, -0.17986974120140076, 0.06951984763145447, -0.17917223274707794, -0.03250502049922943, 0.16175803542137146, 0.03258490562438965, 0.036491334438323975, 0.0030603408813476562, -0.22220860421657562, -0.1654854565858841, -0.23921026289463043, 0.1646425426006317, 0.09633398056030273, -0.03345777094364166, -0.0715099573135376, 0.0025669336318969727, -0.07705718278884888, 0.017230063676834106, 0.07593882083892822, -0.10503429174423218, 0.1714480221271515, -0.06688462197780609, -0.0016592293977737427, 0.05699959397315979, 0.02014338970184326, -0.1673465520143509, -0.18305537104606628, 0.23023390769958496, -0.033455610275268555, 0.2249203622341156, -0.1759565770626068, 0.1995072364807129, -0.2395293265581131, 0.17966938018798828, 0.0011815130710601807, -0.15095168352127075, -0.032224372029304504, -0.01789155602455139, 0.1721731424331665, -0.1141044944524765, -0.11671718955039978, 0.15979617834091187, 0.05778765678405762, -0.13076114654541016], [0.018567614257335663, -0.1236766129732132, 0.2271060347557068, -0.019846314564347267, -0.09011007100343704, -0.03385007753968239, 0.199847012758255, -0.08771825581789017, 0.1476612389087677, -0.04683540016412735, -0.046504441648721695, -0.20388029515743256, 0.09570933133363724, -0.3974325656890869, 0.14479300379753113, -0.33383482694625854, -0.07488758116960526, -0.27216678857803345, 0.2507447600364685, -0.116011843085289, -0.291024386882782, -0.012450837530195713, -0.025560395792126656, 0.11413714289665222, 0.0011370491702109575, -0.030519109219312668, -0.0014717301819473505, -0.11359038203954697, 0.03819626569747925, 0.11731664091348648, 0.2092076987028122, -0.07177361100912094, -0.04795544594526291, -0.15483224391937256, 0.122120700776577, 0.012135676108300686, 0.043426450341939926, 0.15953508019447327, -0.00711882533505559, -0.06266910582780838, 0.08189696818590164, 0.03571068495512009, 0.10080946236848831, 0.12703128159046173, 0.15434299409389496, -0.06694617122411728, 0.00976784247905016, 0.054883118718862534, 0.17895887792110443, -0.09568901360034943, 0.108238086104393, 0.024628743529319763, 0.025237586349248886, -0.1944243609905243, 0.07856214791536331, 0.2060057818889618, 0.07750170677900314, -0.05081405118107796, -0.1665756106376648, 0.011669831350445747, -0.14935608208179474, 0.08545555919408798, 0.12389481067657471, -0.10453138500452042], [0.09843258559703827, 0.1505778282880783, 0.020537342876195908, 0.2018253207206726, 0.15742306411266327, 0.028457026928663254, -0.07837992161512375, 0.14930520951747894, 0.023621657863259315, -0.03431606665253639, 0.053337257355451584, -0.07601455599069595, 0.14196394383907318, -0.016983648762106895, 0.1227664202451706, 0.08327862620353699, 0.0336727574467659, -0.1117178201675415, -0.07940366864204407, 0.01834927499294281, 0.11120492219924927, -0.0049788327887654305, 0.09157221764326096, 0.05623656511306763, -0.3808976113796234, -0.03310857713222504, -0.05869932845234871, -0.039463192224502563, 0.1331019252538681, 0.18143725395202637, -0.09843770414590836, 0.14706242084503174, -0.09122734516859055, 0.04039567708969116, -0.2665952742099762, 0.05574245750904083, -0.0043739755637943745, -0.07297438383102417, 0.06999877095222473, -0.27414825558662415, 0.029228458181023598, -0.20353487133979797, -0.07599788904190063, 0.10912061482667923, -0.05990678071975708, 0.1414036601781845, -0.19715650379657745, 0.0899503082036972, 0.07106049358844757, 0.25989243388175964, 0.03310660272836685, 0.11188356578350067, -0.17460118234157562, 0.18434590101242065, 0.05831294506788254, -0.008118235506117344, 0.0800710991024971, 0.1293184608221054, 0.03238504379987717, 0.1922491043806076, 0.09978891164064407, 0.1502375304698944, 0.07128381729125977, -0.10747871547937393], [0.04285524785518646, 0.10788333415985107, 0.03494662791490555, 0.1000833660364151, 0.2068246603012085, -0.012209417298436165, 0.04681821167469025, 0.03435371816158295, 0.029316527768969536, 0.06630458682775497, 0.06715674698352814, 0.19167792797088623, 0.1522980034351349, 0.05792801454663277, 0.14538629353046417, -0.02602735161781311, 0.16020168364048004, 0.17799359560012817, -0.09829645603895187, 0.0876108705997467, 0.009022298268973827, -0.02739209122955799, 0.13507530093193054, 0.06051994860172272, 0.010289792902767658, 0.12064405530691147, -0.015446823090314865, -0.1731346696615219, 0.17220795154571533, 0.20180685818195343, 0.08720198273658752, 0.17120176553726196, -0.007450253702700138, -0.19065693020820618, 0.19695165753364563, 0.07507825642824173, 0.09002060443162918, 0.027263205498456955, -0.23154965043067932, 0.10950784385204315, -0.0015573696000501513, -0.1525944322347641, 0.02144601009786129, -0.26599687337875366, -0.1027817651629448, -0.0175454244017601, -0.19661185145378113, 0.06674977391958237, -0.07147583365440369, -0.17285968363285065, 0.03710665553808212, 0.14039255678653717, -0.06394694745540619, -0.04872158542275429, 0.1425641030073166, -0.0029628665652126074, 0.056080084294080734, 0.08611630648374557, 0.1097145676612854, 0.16368423402309418, -0.1231425553560257, -0.31087374687194824, -0.01705448143184185, 0.007211966440081596], [-0.23761220276355743, 0.12586313486099243, 0.213852196931839, 0.23300069570541382, -0.012209638953208923, -0.11763477325439453, 0.12120634317398071, 0.16290870308876038, 0.014947563409805298, -0.14719641208648682, -0.11204051971435547, -0.1874387562274933, 0.17303434014320374, -0.02657139301300049, -0.17653369903564453, 0.09780296683311462, 0.05014246702194214, 0.24407640099525452, -0.012515395879745483, -0.21515211462974548, -0.1948150247335434, -0.14960214495658875, -0.22854158282279968, 0.03550863265991211, 0.1738383173942566, -0.23623637855052948, -0.06558746099472046, 0.12377992272377014, -0.22662997245788574, 0.23004791140556335, -0.17650866508483887, 0.0758887231349945, -0.13399112224578857, -0.019459471106529236, -0.22028854489326477, 0.048436373472213745, 0.11483883857727051, 0.08507102727890015, -0.000254899263381958, -0.20852841436862946, -0.03514774143695831, 0.04338064789772034, 0.19387367367744446, -0.003909796476364136, 0.15152627229690552, 0.16142868995666504, -0.04753491282463074, -0.2396201640367508, 0.23240399360656738, 0.20808395743370056, -0.2340151071548462, -0.20115327835083008, -0.01813650131225586, -0.07342103123664856, -0.12029948830604553, 0.12264183163642883, -0.1773153841495514, 0.009324431419372559, -0.05759134888648987, -0.0735713541507721, -0.04523749649524689, 0.09261661767959595, 0.17130202054977417, -0.2014651596546173], [-0.0250605046749115, 0.028961092233657837, -0.01463305950164795, 0.06726905703544617, -0.1523798108100891, -0.15879085659980774, 0.07691818475723267, 0.03594657778739929, 0.06361427903175354, -0.1100015789270401, -0.1817300021648407, -0.063092440366745, 0.10366594791412354, -0.20382104814052582, 0.04909437894821167, -0.0008737146854400635, 0.05109545588493347, -0.19422435760498047, 0.07687634229660034, -0.19564363360404968, 0.013278871774673462, -0.04607124626636505, 0.017343193292617798, 0.1437561810016632, -0.03959794342517853, 0.07159605622291565, -0.23354290425777435, 0.09249481558799744, -0.014421552419662476, -0.14064449071884155, -0.04314248263835907, -0.045903295278549194, 0.04603692889213562, -0.11321273446083069, 0.09138891100883484, 0.19542080163955688, 0.13758647441864014, 0.22437995672225952, 0.16209986805915833, -0.016156643629074097, -0.21075326204299927, -0.03725540637969971, 0.03502875566482544, 0.15670910477638245, -0.08594097197055817, -0.22287578880786896, 0.141754150390625, 0.16740179061889648, 0.021931618452072144, -0.24695321917533875, -0.07447203993797302, -0.060468897223472595, -0.07162374258041382, -0.0428282767534256, -0.019852831959724426, 0.10302400588989258, -0.11331412196159363, -0.21232184767723083, -0.06195557117462158, -0.15843093395233154, -0.06058453023433685, 0.19017544388771057, 0.04706582427024841, -0.2346048802137375], [-0.11390137672424316, -0.2039620280265808, -0.15428537130355835, -0.14661023020744324, 0.040543198585510254, -0.07319375872612, 0.10055163502693176, 0.10076618194580078, 0.022610127925872803, 0.15421095490455627, -0.08846068382263184, -0.060008540749549866, -0.12116391956806183, 0.032680511474609375, 0.07932919263839722, 0.24671140313148499, -0.22529177367687225, -0.20449967682361603, -0.053957536816596985, -0.06352342665195465, 0.06524911522865295, -0.03214719891548157, 0.20386448502540588, -0.22009453177452087, 0.04095423221588135, -0.07660828530788422, 0.156448632478714, 0.07141253352165222, 0.23209643363952637, -0.039456889033317566, 0.012237787246704102, -0.21276229619979858, 0.01644587516784668, -0.2399679720401764, 0.23639348149299622, -0.20106975734233856, 0.11379086971282959, -0.172845721244812, 0.017406582832336426, 0.15477806329727173, -0.12696273624897003, 0.09665584564208984, -0.21881103515625, 0.08442986011505127, -0.12126955389976501, -0.12954363226890564, -0.05365411937236786, 0.10999870300292969, -0.03950865566730499, -0.07566487789154053, -0.0038900226354599, -0.24925071001052856, -0.18331493437290192, 0.12173044681549072, 0.06933265924453735, -0.11477197706699371, 0.16540953516960144, -0.04072055220603943, -0.12657028436660767, 0.08725988864898682, 0.04419979453086853, -0.0642731785774231, -0.07814396917819977, 0.12827354669570923], [-0.13899794220924377, 0.21076178550720215, 0.09983333945274353, 0.17020383477210999, -0.0030112117528915405, 0.14396169781684875, 0.20682838559150696, 0.06725114583969116, -0.14743828773498535, -0.0772528201341629, 0.09122174978256226, 0.2465030550956726, 0.18278586864471436, -0.14393803477287292, 0.1483527421951294, -0.24361875653266907, -0.08528786897659302, 0.0707198977470398, 0.0762278139591217, -0.18594178557395935, 0.2326492965221405, 0.11743751168251038, -0.22034037113189697, 0.20548346638679504, -0.04388120770454407, -0.0623597651720047, -0.10159927606582642, 0.15623190999031067, -0.23357975482940674, -0.010688573122024536, -0.2442282885313034, -0.013253703713417053, -0.24769242107868195, -0.026832208037376404, 0.16543182730674744, -0.06428252160549164, 0.07143303751945496, 0.2244943380355835, 0.04976469278335571, -0.22344914078712463, -0.19828550517559052, 0.1443479359149933, 0.1403520405292511, -0.06630821526050568, -0.06689541041851044, -0.16942329704761505, 0.22018608450889587, 0.23667097091674805, 0.17349720001220703, 0.210048645734787, 0.11107674241065979, -0.15848252177238464, -0.03344140946865082, -0.19922512769699097, 0.047807008028030396, -0.2495732456445694, -0.1953677088022232, 0.03796488046646118, 0.0704464316368103, -0.045578911900520325, -0.005345240235328674, 0.14114519953727722, -0.00200064480304718, -0.14395803213119507], [-0.21230477094650269, 0.20431649684906006, -0.21110492944717407, -0.1469390094280243, -0.12070530652999878, 0.22488710284233093, -0.14632844924926758, -0.2303999960422516, -0.16600355505943298, -0.18759603798389435, -0.12075743079185486, 0.14151760935783386, 0.022389262914657593, -0.11874312162399292, -0.02916605770587921, 0.1247137188911438, -0.09151671826839447, 0.03736978769302368, 0.05549454689025879, -0.05526570975780487, 0.1314898133277893, 0.06342601776123047, 0.18311235308647156, 0.171580970287323, 0.06318226456642151, -0.2205633819103241, 0.16442736983299255, 0.03176391124725342, 0.10182857513427734, 0.12398064136505127, -0.05259273946285248, 0.14803308248519897, 0.0753144919872284, 0.10332921147346497, 0.0533694326877594, 0.10963314771652222, 0.18174737691879272, -0.07120636105537415, -0.048757776618003845, 0.17925816774368286, 0.2148655354976654, -0.016256824135780334, -0.05590149760246277, -0.17000587284564972, -0.25068050622940063, -0.14895972609519958, -0.059648677706718445, -0.22899924218654633, -0.11400389671325684, -0.06657916307449341, -0.05819718539714813, 0.21112734079360962, -0.06595662236213684, 0.07949468493461609, 0.14887121319770813, -0.06925094127655029, 0.20555296540260315, 0.23188719153404236, 0.10279577970504761, -0.03555607795715332, -0.18214552104473114, 0.10510081052780151, 0.22763779759407043, -0.11079663038253784], [-0.07473418116569519, 0.22054997086524963, -0.1881042718887329, 0.14059218764305115, 0.024305492639541626, -0.07541322708129883, 0.07873719930648804, -0.22367022931575775, 0.17729920148849487, 0.1294724941253662, 0.11867296695709229, -0.2509241998195648, 0.10688060522079468, 0.11941492557525635, 0.11786618828773499, -0.010235831141471863, 0.20582014322280884, -0.10104002058506012, 0.057325512170791626, 0.19004085659980774, -0.04230974614620209, 0.18681573867797852, 0.1887001395225525, 0.06680378317832947, -0.005560293793678284, 0.09896847605705261, -0.14550194144248962, -0.20205707848072052, -0.012488678097724915, -0.01288112998008728, -0.07690450549125671, -0.058812886476516724, -0.07554323971271515, -0.0949571281671524, 0.025799721479415894, 0.13638237118721008, 0.017365306615829468, 0.23033198714256287, 0.19005835056304932, 0.1618989109992981, -0.1910652071237564, 0.034966498613357544, 0.1928848922252655, -0.1415591835975647, -0.17782673239707947, -0.19635292887687683, 0.08084571361541748, 0.05207785964012146, 0.07277068495750427, -0.027225330471992493, 0.1256340742111206, 0.06505995988845825, 0.20343667268753052, 0.01303049921989441, -0.08031795918941498, 0.01841139793395996, 0.14578181505203247, 0.004373133182525635, -0.0774003267288208, 0.14046227931976318, 0.027364224195480347, -0.07969056069850922, 0.17099091410636902, -0.02710789442062378], [0.13496866822242737, 0.21130996942520142, 0.04627832770347595, -0.05621635913848877, 0.0644446611404419, 0.07452577352523804, 0.14758718013763428, -0.01062127947807312, -0.05066236853599548, -0.23821760714054108, -0.0831349790096283, -0.1457526981830597, 0.1996140480041504, 0.020643144845962524, -0.10322573781013489, -0.13269701600074768, 0.03960177302360535, -0.19542306661605835, 0.01786261796951294, -0.2349781095981598, 0.05053916573524475, 0.23211178183555603, -0.2254611700773239, 0.060077518224716187, -0.16326239705085754, -0.24279865622520447, -0.003182634711265564, 0.1934419572353363, -0.18502900004386902, -0.0023410916328430176, -0.06438115239143372, 0.059894174337387085, 0.18165457248687744, -0.06119455397129059, -0.2214321345090866, -0.008223861455917358, -0.14065419137477875, -0.12129974365234375, -0.14469927549362183, -0.2222803235054016, 0.19328495860099792, 0.04575201869010925, -0.22145789861679077, -0.24301598966121674, 0.058314621448516846, -0.050599098205566406, 0.13277125358581543, 0.21020233631134033, 0.005229592323303223, -0.08780668675899506, -0.22455310821533203, -0.06855015456676483, -0.01998405158519745, 0.03728637099266052, 0.10130143165588379, 0.2478189766407013, 0.1493406891822815, -0.1134042888879776, 0.12323376536369324, -0.13809332251548767, -0.08320771157741547, -0.19838353991508484, -0.08668532967567444, -0.0722857117652893], [-0.02072337456047535, -0.15234774351119995, -0.2528629004955292, 0.09059561789035797, -0.07421446591615677, 0.00475243479013443, 0.30081260204315186, 0.11900094896554947, 0.13161200284957886, 0.0023339237086474895, 0.17222480475902557, -0.15239457786083221, -0.2552145719528198, 0.17323163151741028, -0.19672530889511108, 0.19058719277381897, 0.16631856560707092, 0.2334684282541275, -0.1227341890335083, -0.0724232867360115, -0.04883905127644539, 0.1334371268749237, -0.01134234294295311, -0.06361141800880432, 0.16415244340896606, 0.08326706290245056, 0.18453043699264526, 0.2521282434463501, -0.2698121666908264, -0.35326501727104187, -0.1505240947008133, -0.0229687187820673, 0.12673014402389526, -0.23297494649887085, -0.14683805406093597, 0.29626139998435974, 0.4026032090187073, 0.28101372718811035, -0.23036476969718933, 0.045549821108579636, 0.0260147787630558, -0.18439561128616333, -0.4059480130672455, 0.1678188592195511, 0.3406180143356323, 0.18952831625938416, -0.23804470896720886, -0.038832712918519974, 0.1032882034778595, -0.09772777557373047, -0.2213631272315979, -0.21053119003772736, -0.02447493188083172, -0.09846271574497223, -0.033073026686906815, -0.03423348814249039, 0.04262217879295349, -0.09951239079236984, -0.04064033180475235, 0.09140750765800476, -0.031996674835681915, -0.1896590292453766, 0.15062345564365387, 0.08278371393680573], [-0.06599602848291397, 0.04032391309738159, 0.15243354439735413, -0.43949708342552185, 0.3145274519920349, -0.10671129077672958, -0.10115694254636765, -0.2824041247367859, 0.11733774095773697, 0.1997644454240799, 0.229535773396492, 0.030971331521868706, -0.19673535227775574, -0.1699341982603073, -0.005866173189133406, 0.07065083831548691, -0.12596453726291656, -0.026557978242635727, -0.20721985399723053, -0.2754330337047577, 0.13312283158302307, 0.008044561371207237, 0.17266254127025604, -0.0167661365121603, 0.04137073829770088, 0.03739509359002113, 0.21287555992603302, 0.3441389799118042, -0.15430814027786255, -0.09752928465604782, -0.10792364925146103, 0.2792004644870758, 0.23269154131412506, -0.1543561816215515, -0.0031521746423095465, -0.0885055884718895, -0.19192831218242645, -0.08689670264720917, 0.046281423419713974, -0.18443863093852997, 0.14769695699214935, -0.13005587458610535, 0.2816218435764313, -0.06994090229272842, 0.05695478618144989, 0.10303250700235367, -0.24138018488883972, 0.22777119278907776, 0.24362565577030182, -0.10763842612504959, -0.09172234684228897, 0.021509142592549324, 0.2006065994501114, 0.06455159932374954, -0.2515943944454193, 0.17945678532123566, -0.3578650653362274, 0.019869159907102585, 0.06905678659677505, 0.01515465509146452, 0.19928491115570068, -0.2631673514842987, 0.18871721625328064, 0.08075069636106491], [-0.0982588604092598, -0.20921266078948975, -0.13107477128505707, -0.1781323254108429, 0.3205641806125641, -0.2439546287059784, 0.1766209453344345, -0.08386091142892838, 0.00918497983366251, -0.053173087537288666, 0.14731299877166748, 0.07483323663473129, 0.09625635296106339, 0.049396198242902756, 0.19845858216285706, -0.13186950981616974, -0.1655673086643219, -0.3366970121860504, -0.02329428680241108, 0.1411958783864975, -0.05394623801112175, 0.20224516093730927, -0.06613962352275848, -0.1714138686656952, 0.04709251970052719, 0.2266605943441391, 0.16481705009937286, 0.17303438484668732, -0.1926792412996292, -0.06341073662042618, -0.13006040453910828, 0.04532499238848686, 0.10128499567508698, -0.17456680536270142, 0.0485934279859066, 0.18233589828014374, 0.2163480967283249, 0.03997529670596123, -0.17217101156711578, -0.0897931233048439, 0.03264044225215912, -0.28231117129325867, 0.13931222259998322, 0.15517619252204895, 0.002425380516797304, 0.12749938666820526, -0.09575100243091583, -0.02745005302131176, -0.12586885690689087, -0.059213392436504364, 0.05052901804447174, 0.0646575540304184, -0.026579827070236206, -0.015336968004703522, 0.18151764571666718, 0.21272186934947968, -0.23315182328224182, 0.2582058906555176, -0.0510500930249691, 0.10233550518751144, -0.10584290325641632, 0.19913387298583984, 0.052861299365758896, -0.22635510563850403], [-0.16067562997341156, -0.17328664660453796, 0.19464623928070068, 0.19670093059539795, 0.038348108530044556, -0.03495630621910095, 0.030207127332687378, 0.03758502006530762, 0.12301746010780334, 0.17948469519615173, -0.04969662427902222, -0.1072506457567215, 0.23724180459976196, -0.16209766268730164, -0.11702385544776917, 0.20745959877967834, -0.18633776903152466, -0.12118206918239594, -0.10755784809589386, -0.007936909794807434, -0.01843811571598053, -0.23064720630645752, 0.1296512484550476, -0.21637041866779327, -0.005653217434883118, -0.16756662726402283, 0.0034145116806030273, 0.2408316433429718, 0.21784505248069763, -0.11266383528709412, 0.03700008988380432, -0.01830671727657318, -0.06460241973400116, -0.1302873194217682, 0.18720227479934692, -0.0016588717699050903, 0.06630823016166687, -0.04687929153442383, 0.23944580554962158, -0.10740140080451965, 0.022008836269378662, 0.14346790313720703, -0.0031638294458389282, -0.245324969291687, -0.20338845252990723, -0.24385955929756165, 0.12874341011047363, 0.009956270456314087, 0.12383097410202026, 0.17162656784057617, -0.21000094711780548, -0.15206919610500336, -0.1370219886302948, -0.20197828114032745, -0.10233297944068909, -0.04875160753726959, -0.05475197732448578, -0.16717931628227234, 0.24560430645942688, -0.05331048369407654, 0.12092956900596619, -0.041110023856163025, 0.1885567605495453, -0.10752692818641663], [-0.1595025658607483, 0.13556167483329773, -0.2343580722808838, -0.23354056477546692, 0.09450450539588928, 0.19420260190963745, -0.05817177891731262, -0.14938980340957642, -0.14889627695083618, -0.21752017736434937, -0.22942578792572021, 0.13736963272094727, 0.029107630252838135, -0.09576660394668579, 0.10914698243141174, 0.015018761157989502, -0.19526812434196472, 0.014481276273727417, -0.034612804651260376, 0.11365264654159546, -0.02388601005077362, -0.04691477119922638, -0.21514126658439636, 0.16539576649665833, -0.08182667195796967, 0.007041633129119873, 0.1733914017677307, 0.1900780200958252, 0.23558399081230164, -0.05059574544429779, -0.08985419571399689, 0.07924094796180725, 0.21579411625862122, -0.01103237271308899, 0.19329580664634705, 0.20618683099746704, 0.09119638800621033, 0.1056661307811737, -0.17391172051429749, 0.05537673830986023, 0.07807058095932007, 0.02378523349761963, 0.15899232029914856, 0.07820749282836914, -0.08846201002597809, 0.002422511577606201, -0.006933063268661499, -0.08287787437438965, -0.08564840257167816, 0.12787270545959473, 0.16746214032173157, -0.04140271246433258, -0.21515972912311554, -0.07170283794403076, -0.08304227888584137, 0.1306467056274414, 0.2030596137046814, -0.11688238382339478, 0.057376861572265625, -0.17359504103660583, 0.13613706827163696, 0.13024622201919556, 0.22498151659965515, 0.2269090712070465], [-0.21430349349975586, -0.014859423041343689, 0.24239858984947205, 0.06667700409889221, -0.19647887349128723, -0.16099193692207336, 0.14699652791023254, -0.1750372052192688, 0.21431872248649597, -0.08853845298290253, -0.09085415303707123, -0.17374160885810852, -0.21582745015621185, -0.08815924823284149, -0.14970821142196655, 0.13476362824440002, -0.13001301884651184, -0.13557516038417816, 0.23824673891067505, -0.23999764025211334, 0.09809350967407227, -0.14022770524024963, -0.02449764311313629, 0.14972689747810364, -0.08540399372577667, -0.23988163471221924, -0.0862421840429306, -0.04509633779525757, -0.12453943490982056, -0.21864327788352966, 0.07277780771255493, -0.09687885642051697, 0.08129832148551941, 0.13200870156288147, 0.0017021894454956055, 0.08722460269927979, 0.22614124417304993, -0.18654215335845947, 0.23557788133621216, -0.0535600483417511, -0.009466424584388733, 0.17100128531455994, -0.23407000303268433, -0.17074860632419586, -0.04038675129413605, -0.11613018810749054, -0.02240574359893799, 0.09175160527229309, 0.1666809320449829, -0.18571901321411133, -0.07652175426483154, 0.04919120669364929, 0.12479078769683838, 0.10580843687057495, 0.11925327777862549, 0.12343749403953552, -0.21611648797988892, 0.1814810335636139, 0.24595284461975098, -0.10669855773448944, -0.06322623789310455, -0.23312552273273468, -0.14583459496498108, -0.0631633847951889], [-0.16977620124816895, 0.012444764375686646, -0.225002259016037, 0.055576860904693604, 0.04364398121833801, 0.008550465106964111, -0.1830708384513855, -0.03625711798667908, -0.12820962071418762, 0.14916115999221802, 0.24688678979873657, 0.13176774978637695, 0.19028621912002563, 0.11762428283691406, -0.03499896824359894, -0.0616949200630188, 0.06977730989456177, 0.07689210772514343, -0.09855817258358002, 0.16729706525802612, -0.034577563405036926, -0.15106335282325745, 0.13816317915916443, 0.039100199937820435, -0.20070049166679382, -0.03580324351787567, -0.10122941434383392, -0.14687949419021606, -0.21471285820007324, -0.1485588103532791, 0.24357891082763672, 0.17867490649223328, 0.2155282199382782, 0.0973484218120575, -0.09482386708259583, 0.08552628755569458, -0.17479059100151062, 0.07449588179588318, 0.08294880390167236, 0.222774475812912, 0.1724228858947754, 0.19324475526809692, -0.21253323554992676, 0.16262787580490112, 0.24827685952186584, -0.13861015439033508, 0.08843156695365906, -0.12414109706878662, -0.19503192603588104, 0.1791965663433075, -0.10516749322414398, 0.1607147455215454, 0.19943514466285706, 0.04186239838600159, 0.1543194055557251, -0.0651404857635498, -0.0697285532951355, 0.1900862753391266, -0.030870050191879272, -0.20774169266223907, 0.08413243293762207, -0.1323251724243164, -0.1352081596851349, 0.12208610773086548], [0.22272735834121704, 0.166141539812088, -0.14960862696170807, 0.1877654790878296, 0.16825717687606812, -0.09462709724903107, 0.11470738053321838, -0.19260652363300323, 0.11227467656135559, 0.034860849380493164, -0.1109481006860733, -0.17212359607219696, -0.033922016620635986, -0.06963644921779633, -0.10436771810054779, 0.010463625192642212, -0.14830410480499268, 0.02163231372833252, 0.029573559761047363, 0.20613157749176025, 0.07197305560112, -0.11694152653217316, 0.0038353800773620605, 0.11600333452224731, -0.15890075266361237, -0.0038142353296279907, 0.09067031741142273, -0.08417502045631409, 0.078523188829422, -0.044839099049568176, -0.09018205106258392, 0.14393946528434753, -0.18299023807048798, -0.011767208576202393, -0.1405501663684845, -0.04844410717487335, -0.022499457001686096, 0.1666458249092102, 0.0017598867416381836, 0.0037147104740142822, -0.12467065453529358, 0.06233108043670654, 0.1571895182132721, 0.19678020477294922, 0.19183340668678284, 0.19016283750534058, -0.04567274451255798, -0.14689232409000397, -0.14015178382396698, 0.0424959659576416, 0.23693129420280457, 0.14752492308616638, -0.0718553215265274, 0.2289397418498993, 0.19909515976905823, -0.149417906999588, -0.1316128671169281, -0.15066108107566833, 0.040405452251434326, -0.14722265303134918, -0.06511969864368439, 0.028090059757232666, -0.09657807648181915, -0.18024379014968872], [0.07459408044815063, -0.0027098357677459717, -0.14211899042129517, -0.16982433199882507, -0.07422217726707458, 0.21149420738220215, -0.24392631649971008, 0.1016061007976532, 0.22953441739082336, 0.10122275352478027, 0.12914809584617615, 0.14122915267944336, 0.20135506987571716, -0.12021398544311523, -0.10291039943695068, 0.151799738407135, 0.09888705611228943, 0.039314061403274536, 0.16882765293121338, -0.14753709733486176, -0.053766220808029175, 0.14095988869667053, 0.1390092670917511, 0.010426193475723267, -0.2426060289144516, -0.22021107375621796, 0.13366013765335083, -0.0718311220407486, 0.24659636616706848, -0.08437018096446991, 0.11708137392997742, 0.12398356199264526, -0.11780506372451782, -0.13770073652267456, 0.12910166382789612, 0.07763442397117615, 0.17518800497055054, 0.16716864705085754, 0.12520906329154968, -0.18285314738750458, 0.10543730854988098, 0.10960835218429565, 0.20634782314300537, -0.17603890597820282, 0.2180117964744568, -0.19569748640060425, 0.20135533809661865, 0.24295085668563843, 0.16376760601997375, -0.10403367877006531, 0.08076348900794983, 0.01724383234977722, 0.06124758720397949, -0.14625899493694305, 0.22482869029045105, -0.148451566696167, -0.21404939889907837, -0.2488233745098114, -0.012111544609069824, 0.16591620445251465, -0.2178264707326889, 0.1255280077457428, 0.13266730308532715, 0.005233496427536011], [0.028831660747528076, 0.2137671709060669, 0.17101681232452393, -0.06959733366966248, -0.13155385851860046, 0.17356738448143005, -0.18679487705230713, -0.06262317299842834, 0.16734451055526733, -0.13005730509757996, -0.017496943473815918, -0.24662217497825623, 0.15993955731391907, 0.029444843530654907, -0.09456771612167358, 0.10933774709701538, 0.0011809766292572021, -0.07842384278774261, -0.13174834847450256, 0.11686387658119202, 0.01473972201347351, -0.08478079736232758, 0.051341891288757324, -0.22342073917388916, 0.009802520275115967, -0.1790931522846222, 0.10385468602180481, -0.13175463676452637, 0.13974818587303162, -0.04806980490684509, 0.10039392113685608, -0.009453907608985901, 0.0831235945224762, 0.09192559123039246, -0.03731723129749298, 0.013488441705703735, 0.24721595644950867, 0.24796965718269348, -0.11645554006099701, -0.0055124759674072266, -0.02876916527748108, 0.04296800494194031, 0.24303916096687317, 0.14626654982566833, 0.06782281398773193, -0.10251212120056152, -0.2249419242143631, -0.021045848727226257, -0.1226707249879837, 0.020841777324676514, -0.25069519877433777, 0.0905320942401886, 0.06260639429092407, -0.23551766574382782, 0.008939683437347412, -0.05246715247631073, -0.05000711977481842, -0.045891255140304565, -0.24472200870513916, -0.14639124274253845, -0.1703539341688156, 0.06152644753456116, -0.23993562161922455, -0.22654135525226593]], "haggle/preprocess/bias:0": [0.0610702782869339, -0.03180933743715286, -0.0845951959490776, -0.03182443603873253, 0.24109509587287903, -0.08550310134887695, 0.08110365271568298, 0.008139915764331818, 0.12358137220144272, 0.053343117237091064, 0.05637849494814873, -0.056340184062719345, -0.16155654191970825, 0.03675870597362518, -0.08797495067119598, -0.13535542786121368, 0.0017750432016327977, -0.055385760962963104, -0.17632251977920532, -0.052050359547138214, -0.15371310710906982, 0.11849474161863327, 0.08545996993780136, -0.03494162857532501, -0.08578550070524216, 0.19046828150749207, -0.020066361874341965, 0.08146186918020248, -0.14457905292510986, -0.09600812196731567, -0.09103942662477493, 0.07051372528076172, 0.13231487572193146, 0.0, -0.04823935776948929, 0.06177224963903427, 0.12818622589111328, 0.14664754271507263, 0.0018518504220992327, 0.043138232082128525, 0.1415511816740036, -0.04950433596968651, -0.050137750804424286, 0.017637912184000015, 0.103976309299469, 0.08596712350845337, -0.0639471784234047, -0.032209962606430054, 0.0324920229613781, -0.007149701006710529, 0.05932442471385002, -0.01535011176019907, -0.05368155241012573, 0.06486594676971436, 0.011939055286347866, 0.05063842609524727, -0.18823835253715515, 0.08395618945360184, -0.14331714808940887, 0.055345162749290466, 0.08751241862773895, -0.06121395528316498, 0.2352786511182785, -0.07020121067762375], "haggle/lstm/kernel:0": [[-0.06649679690599442, 0.0034888386726379395, 0.26584476232528687, -0.1292877197265625, 0.22757680714130402, -0.008842486888170242, -0.06278073787689209, -0.2557840645313263, -0.09737392514944077, -0.06247412785887718, -0.1698731631040573, -0.018622172996401787, 0.20700155198574066, -0.07591427117586136, 0.22017927467823029, 0.2976251542568207, -0.2479270100593567, 0.0916994959115982, 0.011574478819966316, 0.12455779314041138, -0.05476227030158043, 0.3727460205554962, -0.023234492167830467, 0.11018117517232895, -0.06544167548418045, 0.1525414139032364, -0.0471978560090065, -0.2219727635383606, 0.023379778489470482, -0.17491942644119263, -0.0033353876788169146, 0.01923004724085331, -0.01793648675084114, 0.16109523177146912, -0.13484598696231842, 0.02527543343603611, 0.041644953191280365, 0.21768119931221008, -0.09804975241422653, -0.08890344947576523, 0.18379630148410797, -0.04343728348612785, -0.1041112095117569, 0.23015481233596802, -0.0959535539150238, 0.03513005003333092, 0.12280750274658203, 0.048534095287323, -0.07706618309020996, -0.08738426864147186, -0.09115338325500488, 0.17610380053520203, -0.06547745317220688, -0.0664423331618309, -0.0727335587143898, 0.00894859991967678, -0.05163960158824921, 0.06348073482513428, 0.05565827339887619, -0.10080710053443909, -0.3339318335056305, -0.16228623688220978, 0.20785824954509735, 0.012886710464954376, -0.12120072543621063, -0.11225499957799911, 0.06462813168764114, -0.1447957307100296, 0.04634962975978851, -0.03934367373585701, 0.10523496568202972, 0.08129327744245529, 0.013598736375570297, 0.06349536031484604, -0.062438689172267914, 0.1499900370836258, -0.01608656346797943, -0.008347993716597557, 0.04853234067559242, -0.11177938431501389, 0.33986690640449524, -0.20631417632102966, 0.06914118677377701, -0.18909533321857452, 0.1618119180202484, -0.013887154869735241, 0.44344186782836914, -0.12597686052322388, -0.1396702229976654, 0.04054228216409683, 0.0952090173959732, 0.17243050038814545, 0.025437388569116592, -0.09002583473920822, 0.024184588342905045, 0.1231282576918602, 0.053128644824028015, 0.06005961820483208, 0.0017273835837841034, 0.004061633720993996, -0.056192025542259216, 0.23064681887626648, -0.13779670000076294, -0.012614899314939976, 0.006093812175095081, -0.015350562520325184, -0.050062477588653564, 0.028071071952581406, 0.003652336774393916, -0.14861024916172028, 0.052801039069890976, -0.18789924681186676, 0.14186018705368042, -0.09364327043294907, 0.069182850420475, -0.03778340294957161, -0.13286006450653076, -0.01672220788896084, 0.1788533627986908, 0.12465319782495499, 0.04688272625207901, 0.09402421861886978, 0.016755666583776474, -0.25094351172447205, 0.10513600707054138, -0.058855488896369934, 0.007696618791669607, -0.14174194633960724, -0.1026928722858429, -0.06886406987905502, 0.2287605106830597, 0.07547938078641891, 0.3036292493343353, 0.012295515276491642, -0.022148236632347107, 0.0529349222779274, 0.00015439312846865505, -0.01595335453748703, 0.11729072779417038, 0.22848942875862122, -0.13555409014225006, 0.09553450345993042, 0.20285245776176453, -0.14397864043712616, -0.355133980512619, -0.10029390454292297, -0.05262068286538124, 0.04171007126569748, 0.11393813043832779, 0.28327420353889465, -0.09611928462982178, -0.08844634145498276, 0.010098583064973354, 0.07351867109537125, -0.05714261159300804, -0.00981566309928894, 0.05499820411205292, 0.01800077222287655, -0.010072825476527214, 0.16603359580039978, -0.08282840251922607, 0.03688281401991844, -0.04003332182765007, -0.011773551814258099, 0.11868437379598618, -0.23262539505958557, -0.03198663890361786, 0.015742899850010872, 0.005180880427360535, -0.04845818877220154, 0.3481372594833374, -0.06479735672473907, 0.06694632768630981, 0.19965814054012299, -0.13576991856098175, 0.05324127525091171, 0.05823442339897156, -0.1158587709069252, -0.027228761464357376, -0.13694092631340027, -0.10074035823345184, -0.1034507006406784, -0.09567759931087494, 0.0016383216716349125, -0.09876672178506851, -0.1303376704454422, 0.1424858719110489, 0.02702612243592739, 0.029542338103055954, 0.10415187478065491, -0.2431280016899109, 0.013985984027385712, 0.003885270096361637, 0.09315769374370575, 0.18371650576591492, -0.1557077318429947, 0.14880932867527008, -0.08650682866573334, -0.1082518920302391, -0.1937173306941986, -0.1511336863040924, -0.10546808689832687, 0.056113436818122864, -0.21277675032615662, 0.009795786812901497, -0.01063006091862917, 0.05172809958457947, -0.13818809390068054, 0.3651968240737915, -0.06435937434434891, 0.1368606686592102, 0.09487167000770569, 0.17759190499782562, 0.09982313960790634, 0.19953151047229767, -0.01993178389966488, 0.17866449058055878, -0.04452122375369072, -0.16041246056556702, -0.14761461317539215, 0.039093080908060074, -0.004720982164144516, 0.3382016122341156, 0.11770008504390717, -0.1767372339963913, -0.035488635301589966, -0.07239467650651932, 0.06730421632528305, 0.11735489219427109, 0.13261641561985016, 0.08039213716983795, -0.15896715223789215, 0.009433337487280369, -0.009422005154192448, -0.02157817780971527, -0.06679560244083405, -0.15178647637367249, -0.09122680127620697, 0.08044033497571945, 0.11709943413734436, -0.18332171440124512, -0.06970202177762985, -0.3418585956096649, -0.006573963910341263, 0.008301764726638794, -0.10027891397476196, -0.02263307012617588, 0.0526917465031147, 0.029627269133925438, 0.06733617931604385, -0.17378419637680054, -0.08153937757015228, -0.20260152220726013, 0.07039179652929306, -0.0698869600892067, 0.008653777651488781, 0.06092897430062294, 0.02562781609594822, 0.01051372941583395, -0.04697210341691971, -0.01766912452876568, -0.0424225777387619, -0.07349901646375656, -0.13347360491752625, -0.011029225774109364, -0.09548864513635635, -0.018931938335299492, -0.20309054851531982, 0.2108786255121231, -0.01654382422566414, 0.09422173351049423, 0.2634771168231964, -0.10941940546035767, 0.012728327885270119, 0.010406163521111012, 0.07233153283596039, -0.08570129424333572, 0.2370641976594925, -0.10972221940755844, -0.030822347849607468, -0.07259199768304825, -0.015491676516830921, 0.11004292964935303, -0.2322789877653122, -0.005347039084881544, -0.00960477814078331, 0.08523919433355331, -0.06717950105667114, -0.026220450177788734, 0.08356007933616638, -0.044279951602220535, 0.014353776350617409, 0.09634707868099213, -0.16044016182422638, -0.11983095854520798, 0.07778604328632355, 0.0397491417825222, -0.07224462181329727, -0.12342233210802078, 0.08532743155956268, -0.20644095540046692, 0.18091394007205963, 0.12545274198055267, -0.08403630554676056, 0.022560859099030495, -0.09536353498697281, 0.04291781410574913, -0.09788098186254501, 0.10933227092027664, -0.12934018671512604, -0.13670982420444489, 0.1023273766040802, -0.01032511331140995, 0.06895548105239868, 0.03472325578331947, -0.05798487365245819, -0.13100972771644592, -0.0251686442643404, 0.1421028971672058, 0.07887592166662216, 0.04169053956866264, -0.0609271377325058, 0.08128649741411209, -0.05500822514295578, 0.18935677409172058, 0.102706179022789, 0.0649949312210083, 0.08795690536499023, -0.03489664942026138, 0.07096657156944275, 0.13029135763645172, 0.005488825496286154, 0.11674486100673676, 0.023551322519779205, -0.2615441083908081, -0.10819382965564728, -0.10139963030815125, -0.012872808612883091, 0.1968277394771576, -0.10648181289434433, 0.03715059533715248, -0.04144110158085823, 0.3798646926879883, -0.24382509291172028, -0.18306605517864227, 0.1865026354789734, 0.11634893715381622, 0.006881321780383587, 0.1444229781627655, -0.05225079506635666, -0.17512719333171844, -0.1508537232875824, -0.08846354484558105, 0.06225041672587395, 0.14490047097206116, -0.08163440227508545, -0.014743025414645672, -0.030192729085683823, 0.024916529655456543, -0.025031678378582, -0.010755596682429314, 0.040713150054216385, -0.013748472556471825, -0.13785240054130554, 0.08410795778036118, -0.05938360095024109, 0.013546214438974857, 0.025303035974502563, -0.19301798939704895, -0.0038035837933421135, -0.36803919076919556, 0.18694624304771423, 0.0356614924967289, 0.06478909403085709, 0.06990043818950653, -0.002650811104103923, 0.07493419945240021, -0.04779206961393356, 0.011885947547852993, -0.06034274399280548, -0.02780015394091606, -0.17628434300422668, 0.018903888761997223, -0.0683709979057312, -0.03466547653079033, -0.01110848132520914, 0.12298061698675156, -0.11722531914710999, 0.10138130187988281, 0.12477104365825653, -0.3625618517398834, -0.3521137237548828, 0.06186380237340927, -0.06702890992164612, -0.11717420816421509, -0.11905886232852936, 0.10253200680017471, 0.0817742720246315, 0.005026490893214941, 0.2850899398326874, 0.06810981035232544, -0.033451929688453674, 0.042023178189992905, 0.03859039023518562, -0.09780187159776688, 0.20521000027656555, -0.044006653130054474, 0.021259626373648643, -0.08450914174318314, 0.01619347371160984, -0.06418976932764053, -0.19989976286888123, 0.03631158173084259, 0.06784725189208984, 0.03090067394077778, -0.06326504051685333, -0.038839712738990784, 0.2523028254508972, -0.01238687988370657, -0.11007707566022873, 0.15063588321208954, 0.0005972742801532149, -0.08268185704946518, -0.047172341495752335, 0.12518475949764252, -0.007896850816905499, 0.07617074251174927, 0.2328498214483261, -0.1983979344367981, 0.15237730741500854, 0.08830741047859192, 0.05471990257501602, 0.004081395920366049, -0.13372914493083954, -0.08429490774869919, 0.14587382972240448, -0.01902991719543934, -0.15361294150352478, 0.012131176888942719, 0.07584790885448456, 0.0681527704000473, 0.005054300185292959, 0.07099489122629166, -0.04190956428647041, -0.19946637749671936, -0.09211220592260361, 0.2100592851638794, 0.004394504241645336, 0.03099898248910904, -0.02156754583120346, 0.04620436578989029, -0.11515384167432785, -0.03699831664562225, 0.08796504139900208, 0.25113725662231445, 0.22882038354873657, 0.004590446595102549, 0.12274861335754395, -0.04676005244255066, 0.03712370619177818, 0.014100559987127781, 0.03507569059729576, -0.04987045004963875, -0.2609725296497345, 0.13409993052482605, -0.2079934924840927, 0.10193285346031189, -0.059511661529541016, 0.15220385789871216, 0.054063282907009125, 0.07745424658060074, -0.14434760808944702, -0.20015759766101837, 0.014821955934166908, 0.17993763089179993, 0.1736029088497162, 0.06644492596387863, -0.09905713051557541, -0.030057262629270554, -0.02869586832821369, 0.03039184771478176, 0.1246289610862732, 0.013070620596408844, -0.07976856827735901, -0.16781584918498993, 0.02825193852186203, -0.21617604792118073, 0.07555355131626129, 0.11299453675746918, 0.07257325202226639, 0.01918255351483822, -0.09646216034889221, 0.32150569558143616, -0.033245280385017395, 0.05542900040745735, -0.08240123093128204, 0.049146562814712524, -0.20592717826366425, 0.1144782304763794, 0.07288690656423569, 0.010213468223810196, 0.03569746017456055, 0.0573614202439785, -0.11060474067926407, 0.27335211634635925, -0.04023909568786621, 0.1684354543685913, -0.06868697702884674, 0.14772473275661469, -0.1782856285572052, 0.08367741107940674, -0.06153818592429161], [0.0657392218708992, -0.004682500846683979, 0.20781326293945312, 0.020677678287029266, 0.0832642912864685, 0.12631173431873322, 0.00518799340352416, -0.2175954133272171, -0.032657645642757416, -0.09616910666227341, -0.08801460266113281, 0.03855549544095993, 0.1312561333179474, 0.04689459130167961, 0.195975199341774, 0.1354455053806305, -0.2270807921886444, 0.03041032887995243, -0.08398168534040451, 0.05433870106935501, -0.03399551287293434, 0.29375019669532776, -0.024374457076191902, 0.0047444431111216545, 0.033986374735832214, 0.17746828496456146, 0.08382689207792282, -0.30431124567985535, 0.06492355465888977, -0.0700194388628006, -0.0009295695344917476, -0.01871776580810547, 3.720234235515818e-05, 0.024684693664312363, -0.0964496061205864, -0.005072976928204298, -0.04099659621715546, 0.10028780996799469, -0.10496289283037186, -0.0640590563416481, 0.06221270188689232, 0.1406707465648651, -0.23324336111545563, 0.10595951974391937, -0.09907731413841248, -0.06185594201087952, 0.11350768059492111, -0.0412139929831028, -0.1164105236530304, -0.11566868424415588, -0.011653723195195198, -0.0907585620880127, 0.046639151871204376, -0.011299686506390572, -0.035836704075336456, -0.05018027871847153, 0.06704959273338318, 0.0412701740860939, -0.07584463804960251, -0.10182374715805054, -0.5155752897262573, -0.011517209932208061, 0.06338376551866531, 0.09168733656406403, -0.19082531332969666, -0.02535117231309414, -0.006256327964365482, -0.0057853288017213345, 0.029699822887778282, -0.1491170972585678, 0.1881328821182251, 0.08939729630947113, 0.12339780479669571, -0.04188768193125725, -0.009876666590571404, 0.0953596979379654, -0.10048331320285797, -0.09590385109186172, 0.013016708195209503, -0.00538216158747673, 0.14008395373821259, -0.13716618716716766, -0.05111740157008171, 0.08230066299438477, 0.10688169300556183, 0.03670872747898102, 0.19763702154159546, -0.152967631816864, -0.17528262734413147, 0.07847683131694794, 0.04040706530213356, 0.007608180865645409, -0.034769196063280106, 0.07065918296575546, -0.04744169861078262, 0.034290459007024765, -0.14045630395412445, 0.029210953041911125, 0.07827502489089966, -0.15902958810329437, -0.11119689047336578, 0.11799287796020508, -0.16995945572853088, -0.07391581684350967, 0.0020911963656544685, -0.08379554003477097, 0.0659409761428833, -0.0571712963283062, -0.1344880759716034, 0.05876287817955017, -0.06803735345602036, -0.11378560960292816, -0.04932509735226631, -0.012689780443906784, -0.012450789101421833, -0.008037589490413666, 0.00529496418312192, -0.08669538050889969, 0.03511206805706024, -0.04956323653459549, 0.17716997861862183, 0.06169496476650238, 0.031904254108667374, 0.039794884622097015, 0.09732992947101593, -0.13004055619239807, -0.005767444614320993, 0.02745893970131874, 0.004356035031378269, -0.0335468165576458, 0.235835462808609, -0.0030415912624448538, 0.056418780237436295, -0.053011104464530945, -0.08647390455007553, -0.2630888819694519, -0.06257979571819305, -0.018373295664787292, 0.050549086183309555, 0.1944471001625061, -0.1983908861875534, -0.004883239511400461, 0.08501563966274261, -0.03643933683633804, -0.25059881806373596, 0.10638458281755447, -0.005941202398389578, 0.09648676216602325, 0.005545491818338633, 0.048872340470552444, -0.12339694797992706, -0.14339986443519592, -0.03442743793129921, -0.0031353251542896032, -0.05133770778775215, -0.015077664516866207, 0.06072772666811943, 0.13554561138153076, -0.01828545704483986, 0.1306731402873993, 0.045772917568683624, 0.004126771353185177, -0.01591339334845543, 0.0305671077221632, 0.0936526358127594, 0.0326957106590271, 0.09099949151277542, 0.10419640690088272, -0.05079648643732071, -0.0039337617345154285, -0.000583161017857492, 0.0117969810962677, -0.0656646117568016, 0.012731305323541164, -0.09662996232509613, -0.04539545252919197, -0.0026942971162497997, -0.17050519585609436, 0.004470674321055412, -0.11686227470636368, -0.08557199686765671, 0.14953771233558655, 0.0920950248837471, 0.042492784559726715, 0.05856730788946152, -0.02139337547123432, 0.007314509246498346, 0.029590265825390816, -0.14029967784881592, 0.15873956680297852, 0.02356727048754692, 0.05035394802689552, -0.06148756295442581, -0.0872020274400711, 0.00509614497423172, 0.14857600629329681, 0.0775318592786789, -0.050537850707769394, -0.09713279455900192, 0.022363636642694473, 0.0073581780306994915, -0.027285439893603325, 0.03220267966389656, -0.0009166988311335444, 0.039064645767211914, 0.024719737470149994, 0.19651798903942108, 0.0910305604338646, 0.25405773520469666, -0.026011986657977104, 0.0903908982872963, -0.05777603015303612, 0.0873979926109314, 0.03438211604952812, -0.00937437079846859, 0.04231306165456772, 0.09926029294729233, 0.10685829818248749, 0.0019988270942121744, -0.07099457830190659, -0.04568171501159668, 0.04522962123155594, 0.1980692744255066, 0.059996265918016434, -0.02920546568930149, 0.010736120864748955, -0.06025414168834686, 0.19447369873523712, 0.09303105622529984, 0.07009029388427734, -0.0175310205668211, -0.08975879848003387, 0.04640361666679382, -0.10404449701309204, 0.03189839795231819, -0.05737684667110443, -0.03472311422228813, 0.15517154335975647, 0.16308380663394928, -0.07663078606128693, -0.16083137691020966, 0.0827503502368927, -0.31546470522880554, 0.0658615306019783, -0.05633212625980377, 0.026761379092931747, 0.025195159018039703, -0.04327186569571495, 0.0336514450609684, 0.07456709444522858, 0.033368151634931564, -0.007456427440047264, -0.03555590659379959, -0.06426772475242615, -0.10984817147254944, 0.03384614735841751, -0.05440712720155716, -0.0979219302535057, -0.10578619688749313, 0.0010226985905319452, -0.0024276734329760075, -0.013290077447891235, 0.20812024176120758, -0.10692371428012848, 0.09218426048755646, 0.04864273965358734, -0.027451995760202408, -0.22774086892604828, 0.0013622097903862596, 0.1355653703212738, -0.04951534420251846, 0.13619643449783325, -0.1684192270040512, -0.0260984618216753, -0.060294345021247864, -0.09016218781471252, -0.08790381252765656, -0.03564499691128731, -0.09106039255857468, -0.09951789677143097, 0.014952815137803555, -0.15415973961353302, 0.01708150841295719, -0.12249797582626343, -0.052277542650699615, -8.172362868208438e-06, 0.046392571181058884, -0.07670925557613373, -0.011538207530975342, 0.06892979890108109, -0.09362157434225082, 0.09052009135484695, 0.07624347507953644, 0.0619126595556736, -0.05535680428147316, 0.14327700436115265, -0.019680870696902275, 0.008392458781599998, -0.11737110465765, -0.03535615652799606, -0.0704353079199791, 0.0793934315443039, 0.17815320193767548, -0.03667907416820526, -0.11012828350067139, -0.10291627049446106, -0.022173603996634483, 0.014450662769377232, 0.14447806775569916, 0.009269013069570065, -0.009979473426938057, -0.08343297988176346, -0.03523150458931923, 0.05881604179739952, -0.07919570058584213, 0.1921347677707672, -0.09987881779670715, -0.0782754123210907, 0.023083165287971497, 0.11677844077348709, 0.13206689059734344, -0.0493052676320076, -0.005679507274180651, -0.1213330328464508, 0.027362721040844917, 0.06354762613773346, 0.05371532216668129, 0.14031799137592316, -0.15508179366588593, -0.0257285013794899, 0.10017712414264679, -0.053709033876657486, 0.12163945287466049, 0.12808746099472046, -0.1618151217699051, -0.11262952536344528, -0.16455431282520294, -0.08872131258249283, 0.0690130740404129, 0.0574599914252758, 0.008878934197127819, 0.0988401547074318, 0.2173326164484024, -0.24828611314296722, -0.16354933381080627, 0.1448974758386612, 0.08019734919071198, 0.03571908921003342, 0.07804108411073685, -0.018863070756196976, -0.11581069976091385, -0.04278497025370598, -0.08117412775754929, -0.034044038504362106, 0.14165933430194855, -0.054907605051994324, 0.023329921066761017, -0.05274152010679245, 0.12262782454490662, -0.004799557384103537, -0.06867769360542297, -0.0765041634440422, -0.00690791429951787, 0.015176987275481224, -0.10963379591703415, 0.02546260878443718, 0.05652979016304016, 0.0743672251701355, -0.02899329550564289, 0.1534484475851059, -0.16966211795806885, -0.07249103486537933, -0.07590046525001526, 0.01371068600565195, -0.03943825140595436, 0.010844004340469837, 0.0672815665602684, 0.06960232555866241, -0.04579004645347595, 0.05744851008057594, 0.012435078620910645, -0.008797049522399902, 0.13642089068889618, -0.08510240167379379, -0.05465305224061012, -0.06312255561351776, -0.031242400407791138, 0.006572172977030277, 0.02551925741136074, -0.10352525115013123, -0.03540325164794922, -0.12838028371334076, 0.043935395777225494, -0.00844736397266388, -0.05835269019007683, -0.17597265541553497, 0.03255489096045494, -0.03277710825204849, 0.03672932833433151, 0.22333991527557373, 0.2190174162387848, -0.07709561288356781, -0.10114873945713043, -0.08811718970537186, -0.03162647783756256, 0.1760338544845581, -0.16322167217731476, -0.007093977183103561, -0.06621064990758896, 0.0560353621840477, -0.036836858838796616, -0.13024963438510895, -0.027104027569293976, 0.00979871116578579, -0.006235376466065645, -0.028614718466997147, -0.028470059856772423, 0.06818440556526184, -0.08910445123910904, -0.059224411845207214, 0.02798452414572239, -0.06308217346668243, -0.13727118074893951, -0.037373803555965424, 0.0019584663677960634, -0.013356972485780716, -0.13946311175823212, 0.15049616992473602, -0.23141029477119446, 0.04613110050559044, -0.010951069183647633, 0.016104644164443016, 0.03600543364882469, -0.05491459369659424, -0.07403907179832458, -0.09623755514621735, 0.13102300465106964, -0.05473124235868454, -0.0805070698261261, -0.02911422587931156, -0.0428345687687397, 0.016254788264632225, 0.03985888883471489, -0.08586034923791885, -0.4610787630081177, -0.07843723148107529, 0.18372008204460144, 0.1623764932155609, 0.025722671300172806, 0.02648947574198246, -0.030304696410894394, -0.18846087157726288, -0.03304191306233406, -0.05196882784366608, 0.20951442420482635, 0.16915757954120636, 0.03932911157608032, -0.04496440663933754, 0.07135358452796936, 0.07600011676549911, -0.04984680935740471, -0.12849962711334229, 0.06705250591039658, -0.20444881916046143, -0.040283143520355225, -0.05000121146440506, -0.05594726279377937, 0.1224437728524208, 0.1707894206047058, -0.03994147852063179, 0.0014469936722889543, -0.14610159397125244, -0.2576725482940674, 0.1331009864807129, 0.10922693461179733, 0.07789024710655212, -0.06940757483243942, 0.06699099391698837, -0.05257117748260498, 0.08833512663841248, -0.15885359048843384, 0.11478064954280853, 0.09545785188674927, -0.0869884118437767, -0.093506820499897, -0.040019866079092026, -0.12527690827846527, -0.10547614842653275, 0.03911377489566803, -0.05848279967904091, 0.013409091159701347, -0.10370901972055435, 0.15974061191082, 0.003763018874451518, -0.019350294023752213, 0.04215985909104347, 0.0058465939946472645, -0.15224124491214752, -0.00020542365382425487, -0.07299782335758209, -0.04792482778429985, -0.08186978101730347, -0.0350516177713871, 0.047479551285505295, -0.006567087490111589, 0.12248483300209045, 0.07276368886232376, 0.09999120235443115, 0.08583714067935944, -0.013379455544054508, -0.029646283015608788, -0.12961256504058838], [-0.060050755739212036, -0.09732337296009064, 0.16056007146835327, -0.05419865995645523, 0.07035309821367264, -0.03275970742106438, 0.30342239141464233, 0.1330549418926239, -0.04273036867380142, -0.04570109769701958, -0.027179324999451637, 0.2096410095691681, 0.14403772354125977, 0.019521083682775497, -0.166934534907341, -0.09632840752601624, 0.07007954269647598, 0.03772632032632828, -0.09309274703264236, 0.06195313483476639, 0.03597245365381241, -0.11737896502017975, 0.009558921679854393, -0.011839915066957474, 0.041706640273332596, 0.10339275747537613, 0.04407612979412079, 0.19802792370319366, -0.06814514845609665, -0.06011761724948883, -0.0818074643611908, 0.019415084272623062, -0.021141301840543747, 0.15341433882713318, -0.1412276327610016, 0.18909059464931488, 0.11425852030515671, 0.058082230389118195, 0.11192724853754044, -0.07783787697553635, 0.14484068751335144, 0.1656324863433838, -0.004665721207857132, -0.08632361143827438, -0.10440853983163834, 0.05286046862602234, 0.12336894869804382, -0.17723466455936432, -0.08299633115530014, 0.07305969297885895, -0.17725665867328644, 0.08370941132307053, 0.1574355661869049, 0.03914371505379677, -0.03998003527522087, -0.12567000091075897, -0.0034446287900209427, 0.07359357178211212, 0.04044894129037857, 0.11683882027864456, 0.03831033781170845, 0.11809161305427551, 0.14531360566616058, -0.08612411469221115, 0.11999400705099106, 0.20834122598171234, -0.024728046730160713, 0.09368973970413208, 0.15357516705989838, -0.05808703228831291, 0.09250764548778534, 0.1160355731844902, 0.14654463529586792, -0.14653745293617249, -0.17967605590820312, 0.017956849187612534, -0.13100770115852356, -0.05509427934885025, 0.18045635521411896, 0.031474363058805466, 0.05850258097052574, 0.016313795000314713, 0.08067988604307175, 0.004643075168132782, 0.21143099665641785, -0.03212619572877884, -0.22341316938400269, -0.00903380662202835, 0.030667031183838844, -0.10931709408760071, 0.26978015899658203, 0.10086239129304886, 0.010747332125902176, 0.07405292242765427, 0.13966946303844452, 0.08249698579311371, 0.11615177243947983, 0.10299475491046906, 0.1051521971821785, -0.03197455778717995, -0.03275146335363388, 0.0703682154417038, 0.09216995537281036, 0.06265852600336075, -0.041437793523073196, 0.13497115671634674, 0.12725858390331268, 0.04988240450620651, -0.07840035110712051, -0.06221366301178932, 0.02910250425338745, -0.13496676087379456, -0.02063102275133133, 0.18280847370624542, 0.12661556899547577, -0.04454393312335014, -0.039089836180210114, -0.06154996156692505, -0.09060957282781601, 0.2420111745595932, 0.1089700311422348, 0.1082204282283783, -0.11213216185569763, 0.03797637298703194, 0.10674328356981277, -0.10434895008802414, -0.03972037136554718, -0.021012909710407257, 0.010496290400624275, -0.04562647268176079, 0.07126182317733765, 0.013563812710344791, -0.09362587332725525, -0.04631955549120903, -0.06904779374599457, -0.15277570486068726, -0.025729160755872726, 0.01652407832443714, -0.03282998502254486, -0.21137063205242157, 0.023798424750566483, 0.12018153816461563, 0.0529637336730957, 0.05020016059279442, 0.08260452002286911, 0.03268817067146301, -0.0027792074251919985, 0.1234990730881691, 0.09167202562093735, -0.059304285794496536, -0.006936556193977594, 0.034415796399116516, 0.0022181891836225986, 0.10064397752285004, -0.11999018490314484, -0.06950409710407257, 0.08620002120733261, -0.06889304518699646, -0.06129319220781326, 0.03395727276802063, -0.06530532240867615, -0.12945550680160522, 0.03299584984779358, -0.09324181824922562, 0.09734826534986496, 0.1696534901857376, 0.1382768154144287, -0.03546813502907753, -0.030053460970520973, 0.08535720407962799, -0.11742965131998062, -0.09808064252138138, -0.028673730790615082, -0.10352963209152222, -0.10115158557891846, 0.10885189473628998, -0.043551236391067505, 0.07287542521953583, -0.11981058865785599, -0.05562819167971611, -0.17054885625839233, 0.00041713661630637944, -0.028859322890639305, -0.021739356219768524, -0.07680178433656693, -0.12611384689807892, -0.17611172795295715, 0.0022787139751017094, -0.037387751042842865, 0.002314683049917221, 0.13219259679317474, 0.08523198962211609, -0.12636855244636536, -0.0860462635755539, 0.038621872663497925, 0.11711154133081436, 0.017000729218125343, -0.06984265893697739, -0.02574593760073185, 0.19319245219230652, 0.1395779550075531, -0.06813384592533112, 0.053184933960437775, -0.11580809950828552, -0.18549558520317078, -0.12334330379962921, 0.14789438247680664, 0.09750114381313324, -0.05460503697395325, -0.027333876118063927, 0.049761246889829636, 0.10969587415456772, -0.18763944506645203, -0.0342525877058506, 0.1466982364654541, -0.03870110958814621, 0.009916087612509727, -0.025932133197784424, 0.11893005669116974, -0.01635889895260334, -0.05640534311532974, 0.09007645398378372, -0.20303139090538025, -0.1246703490614891, 0.12364331632852554, 0.02303507551550865, -0.07626306265592575, 0.06017299368977547, -0.10254253447055817, 0.06213955953717232, -0.02199152298271656, -0.03422859311103821, 0.03925948217511177, -0.15413855016231537, 0.09534168988466263, 0.01672537438571453, -0.009157540276646614, 0.05777687206864357, 0.038368042558431625, 0.02921406738460064, 0.04438485577702522, 0.16460707783699036, -0.00654058950021863, -0.006161498837172985, -0.11465320736169815, 0.024259433150291443, 0.00797274336218834, 0.17290405929088593, 0.06723305583000183, -0.031782735139131546, 0.006701912730932236, -0.10718505084514618, 0.21923136711120605, -0.09567714482545853, -0.045070018619298935, 0.06209341436624527, -0.1855630725622177, -0.03579772263765335, -0.1837124228477478, -0.02012603171169758, -0.2648094892501831, -0.03763001412153244, -0.04738903045654297, -0.14376653730869293, 0.039416804909706116, 0.013679750263690948, -0.05238382890820503, 0.06666288524866104, -0.07548306882381439, -0.04523860290646553, -0.19211412966251373, 0.03642360866069794, -0.14739418029785156, -0.09969448298215866, -0.0865570679306984, -0.04704868048429489, -0.17536288499832153, -0.2108972668647766, -0.16493336856365204, -0.0377517007291317, 0.01017014030367136, -0.023226197808980942, 0.16565154492855072, -0.1018875315785408, -0.11877793818712234, -0.08503484725952148, -0.0813036784529686, -0.15800471603870392, 0.02063259668648243, 0.11708545684814453, -0.029009059071540833, 0.1075928658246994, -0.0050188410095870495, -0.08536944538354874, -0.017337476834654808, -0.06357499957084656, -0.053090330213308334, -0.019762584939599037, -0.11447238177061081, -0.04149239510297775, -0.15511831641197205, -0.06270106136798859, -0.06535173207521439, -0.020362626761198044, -0.11961329728364944, -0.13418850302696228, -0.06504740566015244, -0.19217970967292786, 0.031446341425180435, -0.20476682484149933, -0.05815104767680168, -0.08887685835361481, -0.038005292415618896, 0.13024912774562836, -0.15453080832958221, -0.07475405186414719, -0.1431962102651596, -0.045062679797410965, -0.12012042105197906, -0.02586425468325615, 0.1147405207157135, 0.0828218087553978, -0.009764506481587887, -0.16058386862277985, 0.0762954130768776, 0.02057262323796749, -0.046610936522483826, -0.06963816285133362, 0.11582659184932709, -0.05936676263809204, 0.013715401291847229, -0.09854049980640411, -0.1830368936061859, -0.011670414358377457, -0.14302298426628113, 0.028900960460305214, -0.06047448888421059, -0.01123050693422556, -0.04665858671069145, -0.016314545646309853, -0.22699710726737976, -0.02971070632338524, -0.22264428436756134, 0.0023154960945248604, 0.013844701461493969, -0.00848887674510479, -0.13134808838367462, -0.012095361948013306, 0.1044524535536766, -0.008595005609095097, -0.0066921282559633255, -0.11543801426887512, -0.01380988396704197, -0.12134834378957748, -0.02576855756342411, -0.0800156444311142, -0.11990165710449219, -0.13602961599826813, -0.1648022085428238, -0.019784457981586456, -0.1973154991865158, -0.1836353838443756, 0.039737895131111145, -0.008031843230128288, -0.20041990280151367, -0.13825546205043793, -0.18081583082675934, 0.035262662917375565, -0.11536351591348648, -0.06018877401947975, -0.11494065076112747, 0.058029163628816605, -0.13309301435947418, 0.058530185371637344, -0.12234735488891602, 0.0006470278603956103, 0.06285291165113449, -0.078070268034935, -0.15145303308963776, -0.06043338403105736, 0.009047504514455795, 0.017053809016942978, -0.04920579865574837, -0.13734480738639832, -0.12642596662044525, -0.031044023111462593, 0.028611179441213608, -0.005246554035693407, 0.028689919039607048, -0.13972784578800201, 0.12120828032493591, 0.17547227442264557, -0.032832033932209015, -0.09333090484142303, -0.0022578840143978596, 0.14784875512123108, -0.046876005828380585, -0.113868348300457, -0.16543464362621307, -0.22764982283115387, 0.1743822544813156, -0.11586136370897293, -0.0499880425632, -0.02290913090109825, -0.12919700145721436, -0.047418080270290375, -0.09550123661756516, 0.002755496185272932, -0.1180148795247078, 0.016841698437929153, -0.15406304597854614, 0.051687128841876984, -0.04921600967645645, -0.06469213962554932, -0.05368281528353691, 0.04989233240485191, -0.052159130573272705, -0.17954707145690918, -0.08439873158931732, -0.1488194763660431, 0.07930073142051697, 0.06040624901652336, 0.05334949493408203, 0.028889866545796394, 0.020016517490148544, 0.10696592181921005, -0.020258449018001556, -0.024573763832449913, -0.09718012064695358, 0.09112796932458878, -0.08240069448947906, -0.01588037610054016, -0.12015657871961594, 0.08620945364236832, -0.0498531237244606, -0.1348354071378708, -0.0374443419277668, 0.06200362369418144, 0.05245376378297806, -0.09797053039073944, -0.0899156928062439, -0.1231272742152214, 0.046762388199567795, -0.017307737842202187, 0.13923846185207367, -0.019722644239664078, 0.20114384591579437, -0.13032454252243042, 0.060929570347070694, 0.07511366158723831, -0.03404010832309723, 0.03819374367594719, -0.09566444158554077, 0.010075696744024754, 0.056041959673166275, 0.09585652500391006, 0.14155317842960358, -0.03701604902744293, -0.08710106462240219, -0.059311021119356155, 0.01784607209265232, -0.08818725496530533, -0.01204789150506258, -0.022913718596100807, 0.12458392232656479, -0.10692431032657623, -0.005544101353734732, -0.0061227199621498585, 0.15849602222442627, -0.11883823573589325, -0.17240700125694275, 0.0049287620931863785, 0.0312548503279686, -0.05717168375849724, 0.10753273963928223, -0.023296980187296867, -0.18289020657539368, -0.09436098486185074, 0.046260204166173935, 0.13462626934051514, 0.11091729998588562, -0.12099555879831314, 0.13943591713905334, -0.08233284205198288, -0.030813688412308693, -0.14798413217067719, 0.028561986982822418, -0.07341936975717545, -0.11019695550203323, -0.16415823996067047, -0.13662204146385193, -0.1083807721734047, -0.17195381224155426, -0.10990851372480392, 0.07700032740831375, -0.029982591047883034, 0.053216684609651566, 0.18157769739627838, 0.12592849135398865, -0.018085118383169174, -0.0844477117061615, -0.0019620941020548344, -0.1385432481765747, 0.050035879015922546, -0.1194562315940857, 0.11999873071908951, -0.18227516114711761, 0.08199167996644974, 0.22701594233512878, -0.14061054587364197, -0.17151953279972076, -0.11320105940103531], [-0.0663401335477829, 0.07981384545564651, 0.026171278208494186, 0.043032050132751465, 0.060948941856622696, 0.1345055103302002, 0.1262872815132141, 0.17359289526939392, 0.09817259758710861, 0.0451958067715168, -0.06686868518590927, -0.11093329638242722, 0.046731479465961456, 0.015732187777757645, -0.060548335313797, 0.14190182089805603, 0.0074333189986646175, -0.1306692361831665, -0.12287766486406326, 0.17055445909500122, 0.12708722054958344, -0.04224174842238426, 0.014188146218657494, -0.016896294429898262, -0.06496704369783401, 0.13648004829883575, 0.022338133305311203, -0.08076174557209015, 0.0757543072104454, 0.06500145047903061, -0.01734296791255474, 0.01205524243414402, 0.04042727127671242, 0.026397906243801117, -0.15852832794189453, 0.022132445126771927, -0.04525437951087952, 0.14889946579933167, 0.27882450819015503, -0.011543997563421726, 0.23724229633808136, 0.10992597788572311, -0.049726393073797226, 0.022830011323094368, 0.011041788384318352, 0.012307337485253811, 0.04766884073615074, -0.16447138786315918, -0.04128120839595795, -0.07261981815099716, -0.12121119350194931, -0.038992829620838165, 0.039827391505241394, 0.09808400273323059, 0.05368019640445709, 0.04828397557139397, -0.015163559466600418, 0.11651851236820221, 0.11293099820613861, 0.11953422427177429, -0.17752917110919952, 0.09580226987600327, 0.019064372405409813, 0.07437629252672195, -0.017173731699585915, 0.1011180430650711, 0.03864819183945656, 0.08248322457075119, 0.07033473998308182, 0.006085010711103678, 0.12150060385465622, 0.006332441698759794, 0.04432526230812073, 0.0195876806974411, -0.028206147253513336, 0.05777338892221451, -0.13310028612613678, 0.05231977626681328, 0.18093369901180267, -0.01875552348792553, -0.10698343813419342, 0.01335902139544487, 0.1000274047255516, 0.18397793173789978, 0.09022916853427887, -0.0750904232263565, -0.024383937940001488, -0.043374694883823395, 0.00031100271735340357, -0.006895504891872406, 0.0599513053894043, 0.005301979370415211, 0.012215149588882923, 0.11283036321401596, 0.1612192839384079, 0.15803790092468262, -0.03108293190598488, 0.08696681261062622, 0.15794780850410461, -0.03707759827375412, -0.07522847503423691, 0.11291869729757309, 0.09452326595783234, 0.040201812982559204, -0.17174887657165527, -0.05735118314623833, -0.05803404003381729, 0.07306335121393204, -0.027696579694747925, 0.04679739475250244, 0.0933888778090477, 0.08796292543411255, -0.007106147240847349, 0.06383676826953888, -0.026990866288542747, -0.068358413875103, -0.1924535632133484, -0.02816557139158249, -0.0543702058494091, 0.023628659546375275, 0.07290355116128922, 0.16487638652324677, -0.13420382142066956, 0.2932097017765045, 0.24774616956710815, -0.012555629946291447, -0.10896845161914825, 0.08498048037290573, -0.06865288317203522, 0.048468902707099915, -0.02440781705081463, 0.023368457332253456, -0.23729176819324493, 0.07800042629241943, 0.030753396451473236, -0.040280748158693314, -0.036777328699827194, -0.021009530872106552, 0.08586715161800385, -0.08032220602035522, 0.11683821678161621, 0.002356523647904396, -0.12724576890468597, 0.10554157942533493, 0.24873797595500946, 0.10219215601682663, 0.06387173384428024, -0.04733774811029434, -0.03296087309718132, -0.31419599056243896, -0.07152320444583893, 0.05469348654150963, 0.10450813174247742, -0.0617811344563961, -0.01621398702263832, 0.044879116117954254, 0.038210928440093994, 0.03694158047437668, -0.07491923123598099, -0.136211559176445, 0.0861642062664032, -0.04841886833310127, -0.057683512568473816, -0.07576670497655869, -0.026515185832977295, 0.2198151797056198, 0.08912903815507889, -0.05753062665462494, -0.15158362686634064, 0.1300605833530426, -0.0991809144616127, -0.08589230477809906, 0.03457639366388321, -0.18200376629829407, -0.0801900327205658, -0.10813622176647186, 0.038286469876766205, 0.059362124651670456, -0.038269151002168655, 0.00224249716848135, -0.11531751602888107, 0.02936999313533306, -0.01299946941435337, 0.0953480526804924, -0.02645302005112171, -0.030094802379608154, -0.055637162178754807, 0.08124586194753647, 0.09200724214315414, 0.010542921721935272, 0.2263106256723404, -0.08284366130828857, -0.09561849385499954, -0.08428150415420532, -0.06993664801120758, 0.11219999194145203, -0.04027530923485756, 0.027276931330561638, 0.00852565374225378, 0.22334058582782745, 0.2716919779777527, 0.12681995332241058, 0.09101711958646774, -0.0596650093793869, 0.011844530701637268, -0.12153003364801407, 0.08882416039705276, 0.005270008463412523, -0.1415722519159317, -0.005992793012410402, 0.020862864330410957, 0.023249465972185135, -0.17333585023880005, -0.09493740648031235, 0.07041128724813461, 0.07936026901006699, -0.06892290711402893, 0.09630230069160461, 0.11832111328840256, 0.0483412891626358, -0.04885095730423927, 0.05787498131394386, -0.27069729566574097, -0.09546409547328949, 0.06246825307607651, -0.08893005549907684, -0.10096706449985504, -0.13029085099697113, -0.01734647899866104, -0.01082680281251669, 0.11587397009134293, -0.02637595683336258, -0.08140630275011063, -0.1520845741033554, -0.09353508055210114, 0.040424738079309464, -0.04551050812005997, -0.034074816852808, 0.01801721751689911, 0.034072741866111755, -0.008954419754445553, 0.041729699820280075, 0.11213339865207672, 0.09172002971172333, 0.12942928075790405, -0.10764089971780777, -0.02059844322502613, 0.050426267087459564, 0.04077758640050888, -0.1011863499879837, 0.10963320732116699, -0.09276797622442245, 0.11635766923427582, -0.09258396178483963, 0.12079038470983505, 0.004277410916984081, -0.017808562144637108, 0.026518424972891808, 0.07516927272081375, 0.022935694083571434, 0.09186217933893204, -0.10920863598585129, 0.10539102554321289, 0.31730082631111145, 0.08331737667322159, -0.06937402486801147, -0.043719012290239334, 0.021151894703507423, -0.03485648334026337, -0.037159983068704605, -0.2551655173301697, -0.15527944266796112, 0.09663261473178864, 0.0652230978012085, 0.0019780087750405073, 0.048951808363199234, -0.028998181223869324, -0.20455418527126312, -0.02964853309094906, -0.04930615797638893, 0.1600819081068039, -0.014951788820326328, -0.06688819825649261, 0.14717911183834076, 0.0430215485394001, 0.03339065983891487, 0.009383066557347775, -0.0003035212284885347, -0.05659275874495506, 0.04917558655142784, -0.1374945193529129, 0.07175129652023315, -0.04000450670719147, 0.0321093313395977, 0.26958054304122925, 0.03108511120080948, 0.016746200621128082, 0.215253084897995, -0.05947473272681236, 0.13998383283615112, 0.09325570613145828, -0.17901447415351868, -0.00240874825976789, -0.049184199422597885, -0.06144499033689499, -0.041063092648983, 0.05442080646753311, 0.002700669690966606, 0.16213808953762054, 0.055029407143592834, -0.07169478386640549, -0.1036137118935585, -0.06982526183128357, 0.08650191873311996, -0.001354858628474176, 0.20174133777618408, 0.17541123926639557, 0.05993232503533363, -0.20502689480781555, 0.06745998561382294, -0.017458533868193626, 0.09784429520368576, 0.07116025686264038, 0.15931904315948486, -0.002318824175745249, 0.0455857552587986, 0.037627264857292175, -0.01840558834373951, -0.05835801735520363, -0.14771540462970734, 0.01324143260717392, 0.10870122164487839, -0.07059729844331741, 0.027632655575871468, 0.05841405689716339, 0.11267793923616409, -0.01334876473993063, 0.06899761408567429, -0.02926263026893139, 0.07614701986312866, -0.0821143388748169, -0.06739018112421036, -0.001125581213273108, 0.04385683313012123, 0.011674124747514725, 0.027287380769848824, -0.11435233801603317, -0.01403358019888401, 0.06626421958208084, 0.06723107397556305, 0.08900661021471024, -0.010649006813764572, -0.03860700502991676, -0.10771555453538895, 0.12381016463041306, -0.1550695300102234, -0.08735838532447815, 0.014419457875192165, 0.2029486745595932, 0.004505628254264593, -0.17551198601722717, -0.22999179363250732, -0.08946393430233002, 0.03460314869880676, -0.27929455041885376, -0.03864932432770729, 0.042501579970121384, 0.036122795194387436, -0.04219815135002136, 0.19628259539604187, 0.027949143201112747, -0.02239617332816124, -0.17754021286964417, -0.09934793412685394, 0.08966036140918732, 0.19429591298103333, -0.04514876753091812, 0.08899175375699997, -0.20874148607254028, 0.04863772168755531, 0.07998465746641159, -0.045050181448459625, -0.18138521909713745, 0.08157852292060852, -0.10871097445487976, 0.0021331869065761566, -0.13589522242546082, -0.00747976079583168, 0.07767914235591888, -0.1269303262233734, 0.161152184009552, 0.179567351937294, -0.08437100052833557, 0.02351999841630459, 0.046913277357816696, -0.14276428520679474, -0.11152168363332748, -0.1299053281545639, -0.06957047432661057, 0.07802700996398926, -0.09549424797296524, 0.0206875279545784, -0.049349427223205566, -0.0107437614351511, 0.05353809520602226, -0.09992093592882156, -0.11313393712043762, -0.05421316623687744, 0.06754454970359802, 0.1962091475725174, -0.005009464919567108, -0.017831595614552498, 0.052050042897462845, 0.05250419303774834, 0.04324062168598175, 0.03406870365142822, -0.017240796238183975, -0.20958539843559265, -0.07447435706853867, -0.12342002242803574, 0.12020576000213623, 0.002208670601248741, 0.09557949006557465, 0.11290861666202545, 0.12583468854427338, 0.06440842151641846, 0.006627618335187435, 0.02539077401161194, 0.10098763555288315, -0.13726112246513367, -0.16390565037727356, 0.04226554185152054, 0.01920199953019619, -0.038740288466215134, -0.10949784517288208, -0.05950992554426193, -0.0886489674448967, 0.13838934898376465, -0.022185618057847023, 0.011954574845731258, -0.09350623935461044, -0.050843801349401474, 0.07114136219024658, 0.02975601889193058, -0.07739922404289246, 0.09147552400827408, 0.017100606113672256, 0.10881058871746063, 0.05653305724263191, 0.06982708722352982, -0.008055741898715496, 0.17790815234184265, 0.010549547150731087, 0.08009134978055954, 0.026484455913305283, -0.01474974025040865, 0.1243748590350151, -0.11030420660972595, 0.12162710726261139, 0.10420189052820206, 0.015862373635172844, -0.0853077620267868, 0.12299952656030655, 0.14705035090446472, -0.049100130796432495, 0.14052852988243103, -0.019909536466002464, 0.15744945406913757, 0.18880534172058105, -0.10096597671508789, -0.1442805975675583, 0.10626392066478729, 0.0036182249896228313, 0.1305266171693802, 0.101324662566185, 0.02976546622812748, -0.06804998219013214, 0.0242393147200346, 0.15290632843971252, 0.19885952770709991, -0.14457859098911285, -0.037162989377975464, 0.10262887924909592, -0.09567664563655853, 0.06787745654582977, 0.0218353308737278, 0.10741543024778366, -0.07626217603683472, -0.10639463365077972, -0.05693918839097023, -0.11560927331447601, -0.07951126992702484, -0.17078889906406403, 0.10116004198789597, 0.046754200011491776, 0.1425209790468216, 0.12764200568199158, 0.2142200618982315, -0.12531057000160217, -0.11850634962320328, -0.04639521241188049, -0.11645777523517609, -0.09868734329938889, 0.04577488452196121, -0.1891297698020935, 0.165177583694458, 0.009849490597844124, 0.2063896209001541, 0.06752984970808029, 0.0179514791816473, -0.09647826105356216, 0.07592879235744476], [0.13613222539424896, -0.017478764057159424, 0.1625482141971588, 0.019012251868844032, 0.19500836730003357, 0.16347777843475342, 0.0732070580124855, 0.10415247082710266, -0.021055422723293304, 0.01612342707812786, -0.10066249966621399, 0.27826523780822754, -0.0455298088490963, 0.013572734780609608, -0.026827802881598473, 0.23127533495426178, 0.2021464854478836, 0.08769048005342484, -0.1153581514954567, -0.008001692593097687, 0.058040644973516464, 0.04037005081772804, -0.04745938628911972, 0.08481589704751968, 0.008633051998913288, 0.1350748986005783, 0.011674084700644016, -0.01314780954271555, 0.06331954151391983, -0.11553852260112762, -0.10322355479001999, 0.1931549608707428, -0.08403333276510239, 0.2059059739112854, -0.005207407288253307, 0.2841036915779114, 0.0919923186302185, -0.08525535464286804, 0.13715983927249908, 0.01990375481545925, 0.04572071135044098, 0.00897575356066227, 0.08907439559698105, 0.09948999434709549, 0.1366349309682846, -0.1678880751132965, 0.11379506438970566, -0.004894126206636429, 0.03515185788273811, 0.13377445936203003, -0.013287349604070187, -0.004660238046199083, 0.04797998443245888, 0.05638663470745087, 0.1323726922273636, 0.10516268759965897, -0.015149126760661602, 0.04020104929804802, -0.07205510884523392, 0.008218366652727127, 0.13668188452720642, 0.03507406264543533, 0.18664920330047607, 0.12945783138275146, -0.09567581117153168, 0.08947574347257614, 0.14961273968219757, -0.019143516197800636, 0.24547606706619263, -0.193929523229599, 0.06880377233028412, 0.23680374026298523, 0.06222926452755928, 0.11794307082891464, -0.04068027436733246, -0.03790193423628807, 0.03418451175093651, 0.009731280617415905, 0.19841033220291138, -0.008910167030990124, 0.15195702016353607, 0.031469717621803284, -0.041275154799222946, -0.08005620539188385, 0.26899585127830505, -0.009873376227915287, 0.01712886430323124, 0.03445089980959892, 0.024599991738796234, -0.010080968029797077, 0.1344875991344452, 0.06777928024530411, -0.16757987439632416, -0.13100756704807281, 0.06892312318086624, 0.04375356435775757, 0.02151985466480255, 0.016876278445124626, -0.09415960311889648, -0.004462988581508398, 0.006364965345710516, 0.25668495893478394, 0.10988129675388336, 0.1190522238612175, 0.08290187269449234, 0.3411337733268738, 0.019385192543268204, 0.0811569094657898, 0.13224662840366364, 0.09650512039661407, 0.1331535279750824, 0.026104411110281944, 0.2591104209423065, 0.2119838446378708, 0.3360386788845062, -0.19416049122810364, -0.10132046788930893, -0.03291497752070427, 0.08931426703929901, 0.08319985121488571, 0.19489829242229462, 0.05726652964949608, 0.07059136778116226, -0.026337455958127975, 0.150495707988739, 0.15079352259635925, -0.005890361033380032, -0.0372830294072628, -0.08522443473339081, -0.04307112470269203, -0.03580985963344574, 0.07473143190145493, 0.0746229737997055, 0.17529478669166565, -0.06417373567819595, -0.09955624490976334, -0.18944565951824188, 0.03877821937203407, -0.055671267211437225, -0.010793052613735199, 0.0017308136448264122, 0.04364407807588577, 0.11551085114479065, -0.1649908721446991, -0.008774207904934883, -0.12908518314361572, 0.0025167467538267374, -0.041007526218891144, -0.00491977296769619, 0.11774934828281403, -0.04820419102907181, 0.005741022992879152, 0.08102968335151672, -0.11784984916448593, 0.06172521039843559, -0.06734704971313477, -0.11854861676692963, 0.005878976080566645, -0.11338579654693604, 0.027057036757469177, 0.14313536882400513, -0.16477715969085693, -0.12663675844669342, -0.06760013848543167, -0.23632028698921204, -0.1326044201850891, -0.03739843890070915, 0.06069571524858475, 0.16031578183174133, -0.1251407414674759, -0.006756587419658899, 0.16438765823841095, 0.15534380078315735, 0.17219620943069458, -0.06504731625318527, 0.032102975994348526, -0.03839128836989403, -0.03131384029984474, -0.10805068910121918, -0.19674786925315857, 0.018943464383482933, -0.0322151854634285, -0.243554025888443, 0.07476452738046646, 0.03844793513417244, -0.09519773721694946, 0.06992363929748535, 0.0015711488667875528, -0.1048424169421196, 0.010267889127135277, -0.25399765372276306, -0.09151267260313034, 0.08284099400043488, 0.04659600183367729, 0.15447483956813812, 0.0897778645157814, 0.1027332991361618, -0.16385623812675476, 0.12830094993114471, -0.10811425000429153, -0.12757553160190582, -0.1078207939863205, 0.04437883570790291, -0.05149700865149498, -0.04334103688597679, 0.09748184680938721, -0.15453775227069855, 0.03510301187634468, -0.09067995846271515, -0.057620931416749954, -0.025616349652409554, -0.08458571881055832, 0.2693774402141571, 0.13788285851478577, 0.12914857268333435, -0.12513309717178345, 0.35494354367256165, -0.08495814353227615, -0.27558785676956177, 0.030171483755111694, 0.13558562099933624, -0.05412393435835838, 0.03250141441822052, 0.06822866946458817, -0.013213626109063625, 0.16733351349830627, 0.1393492966890335, -0.14831064641475677, -0.08644445240497589, 0.015896135941147804, -0.12451144307851791, -0.06922095268964767, 0.07934341579675674, 0.1139325350522995, 0.15337586402893066, 0.11006516963243484, -0.18603844940662384, 0.15192058682441711, -0.1772342026233673, -0.031754013150930405, 0.07438480854034424, 0.0009755447972565889, 0.09258702397346497, -0.07365624606609344, 0.12427382171154022, -0.028502535074949265, 0.18138188123703003, -0.17717546224594116, 0.1139545738697052, 0.14826700091362, -0.1538788080215454, 0.02460295520722866, -0.18758819997310638, -0.1469113975763321, -0.12342552095651627, 0.10779351741075516, -0.10245287418365479, -0.044921182096004486, -0.059317346662282944, -0.03199397027492523, -0.09758580476045609, 0.039864979684352875, 0.05412965640425682, -0.21028202772140503, -0.0021367138251662254, -0.0438239611685276, -0.02291812375187874, -0.11242029070854187, -0.17470261454582214, -0.014226501807570457, -0.08635541051626205, -0.08812437206506729, -0.14566095173358917, -0.01755264773964882, -0.11473718285560608, 0.09835972636938095, 0.03342005982995033, -0.057359352707862854, -0.15905894339084625, -0.08561623841524124, -0.10193568468093872, -0.17661286890506744, -0.07916209846735, -0.07308755815029144, -0.10107701271772385, 0.020221756771206856, -0.09120011329650879, -0.13948561251163483, 0.007578125223517418, 0.08679525554180145, -0.14057213068008423, 0.12162600457668304, 0.07554341107606888, -0.1314275562763214, -0.021404417231678963, -0.17071644961833954, -0.16500124335289001, -0.26804277300834656, -0.10850746184587479, -0.09731587022542953, 0.12528976798057556, 0.04508177563548088, -0.06120103970170021, -0.07353087514638901, 0.01127157174050808, -0.1265413612127304, -0.09059002250432968, -0.07871221750974655, -0.009679202921688557, -0.11938807368278503, 0.014201934449374676, 0.076090507209301, -0.07943004369735718, 0.1327669471502304, -0.08172698318958282, 0.07207156717777252, -0.25973522663116455, -0.04121329262852669, -0.015284129418432713, 0.20991568267345428, 0.06331052631139755, -0.08262575417757034, -0.09607792645692825, 0.0866408422589302, 0.08580473810434341, -0.10348320752382278, -0.08702006936073303, -0.18249252438545227, -0.26606816053390503, -0.06912339478731155, 0.025813376531004906, -0.08516443520784378, 0.030029313638806343, -0.00046724354615435004, -0.0076432256028056145, 0.0211609099060297, -0.11197157204151154, -0.12674522399902344, -0.04353151470422745, 0.01367859821766615, 0.028196541592478752, -0.06144590675830841, -0.08875430375337601, -0.060234252363443375, 0.03899752348661423, 0.011828355491161346, 0.02794751152396202, -0.08278649300336838, -0.04257848858833313, -0.010964179411530495, -0.14028367400169373, -0.05854928493499756, -0.11971671879291534, -0.06530899554491043, -0.08717299997806549, -0.034615568816661835, -0.04226946085691452, 0.08839313685894012, -0.07881868630647659, -0.06732037663459778, -0.025212489068508148, 0.045720670372247696, 0.10579484701156616, -0.06588706374168396, 0.06708226352930069, 0.06702766567468643, 0.1336446851491928, 0.049822740256786346, -0.10773324221372604, -0.11031769961118698, 0.02541777305305004, 0.017422614619135857, -0.08744588494300842, -0.06834176927804947, -0.09010343253612518, -0.03098832257091999, 0.10061022639274597, -0.13018153607845306, 0.08908885717391968, -0.055403076112270355, -0.18125073611736298, -0.04663143679499626, 0.032286688685417175, -0.017049655318260193, -0.010365008376538754, -0.059587717056274414, 0.001991210738196969, -0.0326806865632534, 0.07026959955692291, 0.043175000697374344, 0.09261718392372131, 0.06107914447784424, -0.15583769977092743, -0.10466369986534119, -0.020940378308296204, 0.12048844993114471, 0.07986554503440857, -0.048610035330057144, -0.03160709887742996, 0.03946175426244736, 0.16065481305122375, 0.04575179144740105, -0.029160737991333008, -0.04961017891764641, 0.04707356169819832, -0.016628030687570572, -0.03650669381022453, -0.03808018937706947, -0.012213040143251419, -0.05213933438062668, -0.06292857974767685, -0.06588255614042282, -0.04332214593887329, -0.013940496370196342, -0.027761241421103477, -0.015134834684431553, -0.10841983556747437, 0.07963790744543076, -0.01552186906337738, 0.09666705876588821, 0.1247991994023323, 0.008331220597028732, 0.0705910176038742, -0.0890786200761795, -0.08231599628925323, -0.05496450141072273, 0.021750180050730705, 0.10949469357728958, 0.06921634823083878, 0.0603439025580883, 0.012105366215109825, 0.04798223823308945, -0.12113222479820251, -0.050030238926410675, -0.1136123463511467, 0.08065535873174667, -0.012168553657829762, -0.06404642760753632, 0.11326722800731659, 0.05382462218403816, -0.005349461920559406, 0.17553071677684784, 0.04849281534552574, 0.0090335663408041, 0.16417552530765533, 0.09045948088169098, 0.08402173966169357, 0.21618689596652985, -0.09614959359169006, -0.13759028911590576, -0.033333588391542435, 0.019653191789984703, 0.17067521810531616, -0.16305570304393768, 0.01504591666162014, 0.1019027829170227, 0.06872502714395523, 0.06578148901462555, -0.0826217383146286, -0.07925313711166382, 0.0013272446813061833, -0.095669224858284, 0.3209351599216461, 0.06589002907276154, 0.3840028643608093, -0.08240712434053421, 0.0217062309384346, -0.0031208223663270473, 0.19080761075019836, -0.03657139465212822, 0.17577527463436127, 0.18410857021808624, 0.044499821960926056, -0.04991898685693741, -0.0069437636993825436, -0.03196515142917633, -0.15693046152591705, -0.07528747618198395, 0.19061383605003357, -0.034682270139455795, 0.08098287135362625, -0.02554910071194172, -0.0197428110986948, 0.07715829461812973, -0.029894093051552773, 0.14999264478683472, -0.13764792680740356, -0.10902281850576401, -0.04236708953976631, 0.21152684092521667, -0.05221299082040787, -0.04609203338623047, 0.002850549528375268, 0.03762509673833847, 0.10189813375473022, -0.046145468950271606, 0.21035248041152954, 0.10148073732852936, 0.27146801352500916, -0.09418376535177231, -0.029791517183184624, -0.0031730581540614367, 0.08247736096382141, 0.06401519477367401, 0.05224015936255455, -0.11703452467918396, 0.037672992795705795, -0.0025606933049857616, 0.024607816711068153, 0.08322750777006149, 0.002560134744271636, 0.015304436907172203], [-0.05470209941267967, -0.1518816202878952, 0.18215696513652802, -0.1517658531665802, 0.09887760877609253, -0.025457412004470825, 0.10934377461671829, -0.20922474563121796, -0.09854213893413544, -0.06618891656398773, 0.01211046427488327, 0.04221522808074951, 0.3294414281845093, -0.07083486765623093, 0.06629540771245956, 0.11615944653749466, -0.26760196685791016, -0.11063999682664871, -0.10801313072443008, 0.1913650780916214, -0.021989554166793823, 0.26307785511016846, -0.07855157554149628, 0.018244663253426552, -0.09065220504999161, 0.17776377499103546, 0.029757637530565262, -0.198452889919281, 0.04286091402173042, -0.07793274521827698, 