'use strict';

function assert(exp) {
  if (!exp)
    throw new Error('Assertion failure');
}
assert.strictEqual = (a, b) => {
  if (a !== b)
    throw new Error('Assert equal failure');
};

const weights = {"haggle/lstm/kernel:0": [[-0.16351117193698883, -0.1852446347475052, 0.008605805225670338, 0.1948135793209076, -0.02442147582769394, -0.11858557164669037, -0.10692983865737915, 0.08052277565002441, -0.2573430836200714, 0.5507822632789612, 0.10393644869327545, 0.0641086995601654, 0.08320500701665878, 0.04748670384287834, 0.1099046915769577, -0.05706746131181717, 0.18081489205360413, -0.07075687497854233, 0.021510915830731392, 0.1548224538564682, -0.022865794599056244, 0.11614126712083817, 0.048340119421482086, 0.038347940891981125, 0.15949518978595734, -0.13209190964698792, -0.19689267873764038, 0.0710187703371048, -0.03246491029858589, -0.2635610103607178, -0.13764336705207825, 0.05995025113224983, 0.009088950231671333, -0.2380891740322113, -0.07064498960971832, -0.43506699800491333, 0.03281816095113754, 0.11849779635667801, -0.08057957887649536, -0.13888384401798248, 0.13549689948558807, 0.7198050022125244, -0.0830790251493454, -0.011211615987122059, -0.18386472761631012, 0.05707041174173355, -0.018412800505757332, 0.06796406209468842, 0.14408740401268005, 0.03451758995652199, 0.13125135004520416, -0.15275180339813232, 0.11140183359384537, -0.0451880544424057, 0.02266877517104149, -0.20336110889911652, 0.3639158010482788, 0.24979934096336365, -0.12979115545749664, -0.061377059668302536, 0.17332759499549866, -0.061936791986227036, -0.14798757433891296, 0.001293281209655106, -0.1847447156906128, -0.18626853823661804, -0.18320873379707336, -0.25479656457901, -0.10318189859390259, -0.007172325626015663, -0.13125313818454742, 0.2361437976360321, 0.0217250008136034, 0.19932828843593597, 0.2942938506603241, 0.1825208216905594, 0.11948128789663315, -0.11249294131994247, 0.0937289148569107, -0.0943286269903183, 0.21462856233119965, -0.2651563286781311, -0.09271648526191711, 0.020443735644221306, 0.10032790899276733, 0.12225524336099625, -0.12016177177429199, -0.03613226115703583, 0.23055428266525269, -0.053207650780677795, -0.2613390386104584, 0.06939741969108582, 0.025451872497797012, -0.16470858454704285, -0.18371528387069702, -0.10291126370429993, 0.08026925474405289, -0.23185567557811737, 0.03290661796927452, 0.07918448746204376, -0.05024879798293114, -0.15223371982574463, -0.033699434250593185, -0.05343583598732948, 0.08306846022605896, -0.08703045547008514, -0.030941426753997803, -0.011445291340351105, 0.07708562910556793, -0.09001471102237701, 0.029708821326494217, -0.015558491460978985, 0.2231372892856598, -0.16728708148002625, -0.0357341505587101, -0.1414935439825058, 0.13971850275993347, -0.14639760553836823, -0.03643966466188431, -0.09181459248065948, 0.2975783944129944, -0.03590897470712662, -0.27171143889427185, -0.2524634301662445, -0.02208084426820278, 0.02699672430753708, 0.06455917656421661, -0.25053104758262634], [0.07947908341884613, -0.32724106311798096, -0.27913472056388855, 0.3200823962688446, -0.2884750962257385, -0.2598903179168701, -0.25819772481918335, 0.037191201001405716, -0.3819723129272461, 0.1383468210697174, 0.13392822444438934, 0.12625651061534882, 0.07214982062578201, 0.24671471118927002, 0.2029106169939041, 0.3386824429035187, 0.0017033196054399014, 0.057463694363832474, -0.08545232564210892, -0.1556582748889923, 0.13292308151721954, -0.06784234941005707, 0.0656699687242508, -0.05044690519571304, 0.42547309398651123, -0.08633732795715332, -0.01061417255550623, 0.015885932371020317, 0.10626286268234253, -0.008347393944859505, 0.08112375438213348, -0.08920755237340927, -0.07147624343633652, -0.46749863028526306, -0.09270328283309937, -0.030657699331641197, -0.12225322425365448, 0.1516839563846588, -0.2881443500518799, 0.10820835828781128, -0.44424116611480713, -0.23452910780906677, 0.03565756976604462, -0.3730185925960541, -0.061518628150224686, -0.2037254422903061, -0.09291049093008041, 0.09990996867418289, 0.2788366973400116, -0.09602602571249008, -0.03482756391167641, -0.05992782860994339, -0.31457141041755676, -0.16153965890407562, -0.05395049601793289, -0.18690747022628784, 0.4449511170387268, 0.621592104434967, 0.1294335275888443, -0.09119711816310883, -0.03236748278141022, 0.09608650952577591, 0.07899194955825806, 0.08735901117324829, -0.15896806120872498, -0.07473712414503098, -0.05557975918054581, -0.13088661432266235, -0.1343241035938263, -0.3559035360813141, -0.34326520562171936, -0.045439887791872025, -0.5157787203788757, -0.33992329239845276, -0.32819026708602905, -0.3561411499977112, -0.2645118832588196, -0.08745063096284866, 0.14056019484996796, 0.06985707581043243, -0.19779355823993683, -0.1837981939315796, -0.19114121794700623, -0.17134222388267517, -0.15157665312290192, 0.03674590587615967, -0.1928383708000183, -0.02572924643754959, 0.40417712926864624, -0.030340775847434998, -0.011026110500097275, 0.040557149797677994, -0.10704999417066574, -0.1295236498117447, -0.21039125323295593, -0.1975194811820984, -0.05254674702882767, -0.22944276034832, -0.1544763594865799, 0.2083454132080078, -0.22795987129211426, -0.02107616327702999, -0.07994510233402252, 0.32891422510147095, -0.6512260437011719, -0.25133663415908813, -0.36761465668678284, -0.10953669250011444, -0.07560829818248749, 0.002108638873323798, 0.06288592517375946, -0.11619598418474197, -0.3835017681121826, 0.15867474675178528, 0.027752451598644257, -0.28972679376602173, -0.16711634397506714, -0.06701192259788513, 0.016194866970181465, -0.1827373057603836, 0.08061587810516357, -0.010558882728219032, 0.09823013097047806, -0.006525415927171707, -0.10746461153030396, 0.03367193043231964, 0.020888397470116615, -0.4326739013195038], [-0.1709502786397934, -0.5664082169532776, 0.06466936320066452, 0.06567683070898056, -0.13397014141082764, -0.012632525525987148, 0.4274083971977234, 0.22614842653274536, 0.3190615177154541, -0.06666002422571182, -0.17738382518291473, 0.08024924993515015, -0.2279791682958603, -0.026901278644800186, 0.1535252332687378, -0.15714362263679504, -0.04909949377179146, 0.060007136315107346, 0.028247734531760216, -0.2593332827091217, 0.07465697824954987, 0.017365379258990288, -0.2515367269515991, 0.059931717813014984, 0.24453109502792358, -0.4274096190929413, -0.17382346093654633, 0.03515007346868515, 0.006853087805211544, -0.2473306804895401, 0.2952929437160492, -0.14782127737998962, -0.07804182171821594, 0.021542279049754143, 0.0038134984206408262, 0.0640416070818901, 0.20318318903446198, -0.013768825680017471, 0.1170630007982254, -0.061258893460035324, 0.006231269799172878, -0.09268928319215775, -0.5842447876930237, -0.3428320288658142, -0.11430572718381882, 0.05022743344306946, -0.34266236424446106, 0.1448361873626709, 0.36975085735321045, 0.04026847332715988, -0.039903298020362854, -0.15288397669792175, -0.08283015340566635, -0.13142243027687073, 0.22265367209911346, -0.1043388843536377, 0.3726658225059509, -0.11030072718858719, 0.023501889780163765, -0.1213889792561531, 0.1826884001493454, 0.06865297257900238, 0.008258949033915997, 0.05376517027616501, -0.01584850624203682, -1.0824426412582397, 0.05019950866699219, -0.23808704316616058, 0.02861691080033779, -0.0872170552611351, 0.21336506307125092, 0.21907109022140503, 0.07485093176364899, -0.08587156981229782, -0.1508166790008545, -0.05789043381810188, -0.11932560056447983, 0.05327679589390755, 0.18007731437683105, -0.2464989572763443, -0.4369794428348541, -0.07994319498538971, 0.011473088525235653, -0.01213148608803749, -0.20734402537345886, -0.07280699163675308, -0.07546397298574448, 0.021278297528624535, 0.22612681984901428, -0.3679726719856262, -0.11599425226449966, -0.084184929728508, 0.1888180375099182, -0.10541659593582153, 0.1743023842573166, -0.09584131091833115, -0.04671294614672661, -0.637567937374115, -0.143405482172966, -0.19052527844905853, -0.04205464571714401, 0.10892923921346664, 0.48430001735687256, 0.22210149466991425, 0.15193916857242584, -0.0997370034456253, -0.3191823661327362, -0.055797915905714035, -0.3332787752151489, 0.15220509469509125, 0.10380160808563232, -0.21810807287693024, -0.28972327709198, 0.1009686291217804, -0.2714460492134094, 0.07295139133930206, -0.1963534653186798, -0.2062777727842331, -0.26800793409347534, 0.09785117208957672, 0.18018470704555511, -0.12316421419382095, -0.1296086609363556, -0.0010561413364484906, 0.05390716716647148, -0.3288479149341583, 0.08362055569887161, -0.053458038717508316], [-0.2927172780036926, -0.14155980944633484, -0.24464993178844452, -0.052324600517749786, 0.05287440866231918, 0.1427086740732193, -0.09112511575222015, -0.20462734997272491, 0.20361165702342987, -0.028629262000322342, 0.20924124121665955, 0.32739225029945374, 0.17115303874015808, -0.16946808993816376, 0.15977813303470612, -0.03934274613857269, 0.06522682309150696, -0.535032331943512, -0.35278862714767456, 0.10422568768262863, 0.09172563999891281, 0.17301857471466064, -0.041868019849061966, 0.07885754108428955, 0.22173678874969482, 0.08767400681972504, 0.3704725503921509, 0.19945867359638214, -0.08700891584157944, -0.17308677732944489, -0.16281737387180328, 0.039452407509088516, 0.2570480704307556, 0.18323202431201935, 0.1633491963148117, -0.2251938134431839, 0.16106852889060974, 0.011119759641587734, 0.02598370611667633, -0.7348856329917908, -0.20288372039794922, -0.014930694364011288, -0.0034404995385557413, -0.16018269956111908, -0.013300797902047634, 0.2969707250595093, 0.1616586446762085, 0.0010796410497277975, 0.5520875453948975, -0.0966380164027214, 0.002948353299871087, -0.1868656575679779, 0.18782182037830353, 0.48565515875816345, 0.042158592492341995, 0.16061106324195862, 0.4284088611602783, -0.03391426429152489, -0.05304533988237381, 0.015093767084181309, -0.05559241771697998, -0.06431342661380768, 0.343812495470047, 0.059335578233003616, -0.1993129551410675, -0.2091146856546402, -0.12200357019901276, -0.16434001922607422, -0.0642867460846901, 0.025240428745746613, -0.07322173565626144, -0.18434301018714905, -0.041477371007204056, -0.2803366780281067, -0.06142633035778999, -0.04063525050878525, -0.048604290932416916, -0.07125865668058395, -0.17295578122138977, 0.07076600193977356, -0.1583573967218399, -0.38340169191360474, 0.0597180537879467, -0.062158454209566116, 0.01851796545088291, 0.25106099247932434, -0.19535870850086212, 0.17097216844558716, 0.12176574021577835, 0.19193843007087708, 0.22651585936546326, -0.13911956548690796, 0.1055581197142601, 0.10280776023864746, -0.08298566937446594, -0.019566180184483528, -0.0028408051002770662, -0.13409073650836945, -0.16018816828727722, -0.06945791095495224, 0.10618468374013901, -0.41216424107551575, -0.008735238574445248, -0.033045608550310135, 0.04334781691431999, -0.2363409399986267, -0.18775419890880585, 0.08208909630775452, 0.09542682021856308, -0.056546151638031006, 0.2908739745616913, 0.2522098124027252, 0.2582568824291229, -0.4306921362876892, 0.14713138341903687, -0.10811599344015121, -0.13892762362957, 0.084627166390419, -0.09289385378360748, -0.09153959900140762, 0.28458118438720703, 0.309221476316452, -0.1386151760816574, -0.10245022922754288, 0.029073573648929596, -0.10261861234903336, -0.04170665517449379, 0.0009162829956039786], [0.11935862898826599, -0.16866126656532288, 0.1526140570640564, 0.0653793215751648, 0.00866369903087616, 0.09829270839691162, 0.08787679672241211, -0.05429019033908844, -0.10510381311178207, -0.04461374878883362, 0.05805377662181854, -0.01833447813987732, -0.003418639302253723, -0.134651780128479, 0.12123340368270874, 0.03474217653274536, 0.03231425583362579, -0.15782055258750916, 0.17003241181373596, 0.17656654119491577, 0.002889499068260193, -0.14573563635349274, 0.06849481165409088, -0.048351213335990906, -0.17222531139850616, -0.029742449522018433, 0.0051198601722717285, 0.07442504167556763, 0.10204017162322998, -0.059980608522892, -0.025206580758094788, -0.04116976261138916, -0.1395946741104126, 0.06776633858680725, 0.057715341448783875, -0.07105917483568192, 0.09605687856674194, 0.14996138215065002, 0.08008554577827454, -0.012220948934555054, 0.11648523807525635, -0.17056870460510254, -0.14892317354679108, -0.04998643696308136, -0.060915373265743256, -0.08665536344051361, -0.07602547854185104, 0.15071842074394226, -0.17623431980609894, -0.030044034123420715, 0.11131960153579712, 0.0618000328540802, 0.03956294059753418, -0.07039084285497665, -0.08802212029695511, -0.020750954747200012, -0.012313440442085266, 0.0036384165287017822, -0.14091774821281433, -0.12955845892429352, -0.052193015813827515, 0.15651991963386536, 0.16455703973770142, -0.13423208892345428, -0.027828708291053772, -0.0468720942735672, -0.10623718798160553, 0.03281347453594208, 0.09253484010696411, 0.014237910509109497, -0.13186988234519958, 0.1239084005355835, -0.028388068079948425, -0.08188297599554062, 0.03778500854969025, -0.16393455862998962, -0.028836116194725037, -0.1708747297525406, 0.03347031772136688, 0.11286520957946777, 0.045126333832740784, 0.12722352147102356, -0.10680820792913437, -0.15141379833221436, 0.13169050216674805, 0.14256533980369568, -0.07334735244512558, -0.13123522698879242, -0.16255047917366028, -0.16739626228809357, 0.03571048378944397, 0.0277135968208313, -0.05269528180360794, -0.07732424885034561, 0.050406306982040405, 0.140598326921463, 0.15515828132629395, 0.06569388508796692, -0.06346283853054047, 0.0608849972486496, 0.018814057111740112, -0.040194928646087646, -0.0398324579000473, -0.14308904111385345, -0.13354891538619995, -0.08687441796064377, -0.07700976729393005, 0.05439642071723938, 0.09907737374305725, 0.06967847049236298, -0.011283308267593384, 0.08956843614578247, 0.01857513189315796, 0.07707801461219788, -0.05415479838848114, 0.015595212578773499, -0.052295953035354614, 0.17041543126106262, -0.07064886391162872, 0.1379851996898651, 0.08239877223968506, -0.1145506277680397, 0.060501039028167725, -0.023626253008842468, -0.1746516227722168, 0.1736113429069519, -0.14801861345767975, 0.023800387978553772], [0.14590421319007874, 0.018752321600914, 0.1311376988887787, 0.09603467583656311, 0.0979447066783905, -0.15853509306907654, -0.011912137269973755, 0.021905288100242615, -0.04881587624549866, -0.12212887406349182, 0.1694578230381012, 0.07146289944648743, 0.10804465413093567, -0.05106174945831299, -0.17107181251049042, 0.10125866532325745, 0.1606067419052124, 0.08347916603088379, 0.11125388741493225, 0.09564098715782166, -0.16294929385185242, -0.035615578293800354, 0.05645805597305298, 0.03297252953052521, -0.12413908541202545, -0.13878482580184937, 0.1200612485408783, -0.03614860773086548, -0.11877349764108658, 0.1618739366531372, 0.06660959124565125, -0.15270759165287018, -0.031614094972610474, 0.08163169026374817, -0.13632787764072418, 0.06773148477077484, -0.0534537136554718, 0.09949007630348206, -0.11161063611507416, 0.117861807346344, -0.14611315727233887, -0.09314215183258057, 0.061486274003982544, -0.09052707999944687, 0.030713632702827454, 0.052877575159072876, -0.02741307020187378, -0.01072894036769867, 0.1695457398891449, -0.00813959538936615, -0.16757039725780487, 0.06214340031147003, -0.038786426186561584, 0.1066165566444397, -0.11864914000034332, 0.12090227007865906, -0.12740208208560944, 0.14439013600349426, 0.12385624647140503, 0.04530499875545502, -0.05617742985486984, -0.10453646630048752, -0.14428453147411346, 0.03443238139152527, -0.09031333774328232, -0.05258478224277496, 0.09771648049354553, -0.010372921824455261, -0.15817716717720032, -0.02865530550479889, 0.10083243250846863, -0.10463087260723114, -0.03718027472496033, 0.06743089854717255, 0.15827131271362305, -0.08234256505966187, -0.03260578215122223, -0.07315444946289062, 0.17048975825309753, 0.10717597603797913, 0.11811593174934387, 0.016011148691177368, 0.03934586048126221, 0.015833452343940735, 0.04146455228328705, -0.11107815057039261, 0.0776166319847107, -0.07153499126434326, -0.09460150450468063, 0.06343431770801544, 0.17427495121955872, -0.09816786646842957, -0.15282100439071655, -0.04938283562660217, 0.14513182640075684, 0.056984156370162964, 0.030064910650253296, 0.045334696769714355, 0.10679623484611511, 0.08195269107818604, 0.11572301387786865, 0.09060508012771606, 0.1133459210395813, 0.11368367075920105, 0.08361127972602844, 0.12168309092521667, -0.016095533967018127, 0.08031967282295227, -0.14300090074539185, -0.044252246618270874, 0.16882550716400146, -0.06640422344207764, -0.12395434081554413, 0.036051422357559204, 0.1290520429611206, 0.09713152050971985, -0.12700580060482025, -0.010292336344718933, 0.03607542812824249, -0.1291792094707489, -0.03251856565475464, -0.04986588656902313, -0.0003247857093811035, -0.17398695647716522, 0.0292893648147583, 0.011583924293518066, -0.1202162355184555, -0.033132001757621765], [-0.16745136678218842, -0.03245154023170471, 0.031080931425094604, 0.005724862217903137, 0.031008675694465637, 0.02392272651195526, -0.09377259016036987, -0.14427907764911652, -0.13886608183383942, -0.033118829131126404, 0.1382562220096588, 0.13983255624771118, 0.07357490062713623, 0.01990373432636261, -0.1419842690229416, 0.07568150758743286, 0.02781468629837036, -0.14007019996643066, 0.15163713693618774, -0.057381972670555115, -0.02599605917930603, -0.14055940508842468, -0.03762008249759674, -0.05425591766834259, 0.046904802322387695, 0.016904041171073914, 0.15513452887535095, -0.051095008850097656, 0.0892798900604248, -0.1659069061279297, -0.12041053175926208, -0.13388016819953918, 0.06471335887908936, -0.0687652975320816, 0.04012934863567352, 0.1649775505065918, 0.09139984846115112, 0.0019952505826950073, -0.030099228024482727, -0.11741594970226288, 0.12939003109931946, 0.0614292174577713, 0.06575748324394226, 0.015047639608383179, 0.17263659834861755, 0.16995686292648315, -0.021422073245048523, 0.1398436427116394, -0.06628552824258804, 0.0786251425743103, -0.013722091913223267, -0.02363187074661255, -0.1705304980278015, -0.03835366666316986, -0.03981652855873108, 0.12474185228347778, 0.023332133889198303, 0.043669477105140686, 0.07109189033508301, 0.06436583399772644, -0.06062684208154678, 0.02075137197971344, -0.06793823838233948, -0.13465677201747894, 0.017862379550933838, 0.040401071310043335, -0.03973965346813202, 0.13670897483825684, 0.03235359489917755, 0.07423186302185059, -0.05840040743350983, 0.12559935450553894, -0.03564119338989258, -0.14264923334121704, 0.06080634891986847, 0.16201618313789368, -0.03633953630924225, -0.14233416318893433, 0.14648514986038208, -0.14899328351020813, -0.034929320216178894, -0.11214640736579895, 0.05313260853290558, -0.15861959755420685, 0.1324717104434967, -0.00373801589012146, -0.018324464559555054, -0.02381940186023712, -0.13597135245800018, 0.03428000211715698, -0.101711206138134, -0.08517061918973923, -0.12131863832473755, -0.0876452773809433, 0.1024581789970398, -0.058954015374183655, 0.13756117224693298, 0.021484866738319397, 0.06982877850532532, 0.11151990294456482, -0.047287359833717346, 0.08964288234710693, -0.07880447059869766, -0.15329863131046295, 0.08774268627166748, 0.08652263879776001, 0.020280927419662476, -0.036581575870513916, 0.00512772798538208, -0.0004764944314956665, -0.07276158779859543, -0.04439528286457062, 0.152131587266922, -0.024448320269584656, 0.09416413307189941, -0.013094693422317505, -0.17312107980251312, -0.15615542232990265, 0.0734715461730957, -0.0005484968423843384, -0.032302796840667725, 0.07088795304298401, 0.05468524992465973, -0.1756344437599182, -0.12180467694997787, 0.0026457905769348145, 0.15923231840133667, -0.17183198034763336], [0.012720763683319092, -0.13291126489639282, 0.028262346982955933, 0.11950868368148804, 0.08031946420669556, -0.10344551503658295, 0.09765371680259705, 0.012815922498703003, 0.11873769760131836, 0.09524348378181458, 0.04575367271900177, 0.0105380117893219, 0.11515787243843079, -0.1216859370470047, 0.05812045931816101, 0.032411232590675354, -0.08132928609848022, 0.11090710759162903, -0.08387678861618042, 0.1525479257106781, 0.054260313510894775, -0.11820412427186966, 0.04840590059757233, -0.1638382524251938, -0.0884181559085846, 0.07736468315124512, -0.08638297021389008, -0.018933385610580444, -0.009324774146080017, -0.002376571297645569, 0.02456025779247284, 0.10129392147064209, -0.1220325231552124, -0.11263443529605865, -0.03692995011806488, -0.14480897784233093, -0.04615236818790436, -0.1555914580821991, 0.1758188009262085, 0.04387226700782776, -0.056200042366981506, 0.12218031287193298, -0.05037012696266174, 0.05762794613838196, 0.06596022844314575, 0.0153893381357193, -0.047403484582901, 0.0382380485534668, 0.0596395879983902, 0.03052745759487152, -0.17317119240760803, 0.05904360115528107, -0.14197802543640137, 0.011600568890571594, 0.09296944737434387, 0.11012470722198486, 0.16078615188598633, 0.16928866505622864, 0.16894951462745667, 0.1547839641571045, -1.5422701835632324e-05, -0.08121684193611145, -0.045537278056144714, 0.09056279063224792, 0.06198562681674957, -0.14146679639816284, 0.14187946915626526, 0.023846745491027832, -0.12088465690612793, 0.020055055618286133, 0.03603100776672363, 0.11317765712738037, -0.16642388701438904, 0.015262439846992493, -0.14299172163009644, 0.09749668836593628, -0.09686914086341858, -0.09635385870933533, 0.14604875445365906, -0.07855730503797531, -0.019652903079986572, -0.08282379060983658, 0.03821477293968201, 0.06511850655078888, 0.11200201511383057, 0.012172266840934753, 0.17099523544311523, -0.07908762991428375, 0.16576078534126282, 0.07371968030929565, 0.09311452507972717, -0.15640676021575928, 0.08835545182228088, -0.1523350477218628, 0.1555567979812622, 0.11880767345428467, -0.15870817005634308, -0.1531032770872116, 0.013069882988929749, -0.004968240857124329, 0.04917691648006439, -0.13568979501724243, 0.12429910898208618, -0.15649081766605377, 0.044951602816581726, 0.06909798085689545, -0.014996647834777832, 0.023784801363945007, -0.0303814560174942, 0.08004897832870483, -0.1425534337759018, 0.022895827889442444, -0.09497053176164627, 0.1624293327331543, 0.00188368558883667, -0.12485732138156891, 0.06450000405311584, 0.09005886316299438, 0.012832030653953552, -0.06762447953224182, 0.06116819381713867, 0.09366336464881897, -0.07536926865577698, 0.15441393852233887, -0.16722215712070465, 0.10582488775253296, -0.14618948101997375, -0.09518241137266159], [0.02433675527572632, -0.10720863193273544, -0.013690263032913208, -0.0043907612562179565, 0.13440537452697754, -0.020668208599090576, -0.03721319139003754, -0.14305463433265686, 0.14790821075439453, 0.005960568785667419, -0.0060501545667648315, 0.09188222885131836, -0.02377605438232422, 0.09669753909111023, 0.14130398631095886, -0.11110840737819672, 0.12589168548583984, 0.017860442399978638, -0.16832730174064636, -0.07063420116901398, -0.10165373235940933, -0.16055002808570862, -0.14904563128948212, 0.16995471715927124, 0.17718249559402466, 0.10217088460922241, -0.058575816452503204, 0.04007771611213684, -0.08151441067457199, -0.1682056486606598, 0.16399109363555908, -0.011209443211555481, 0.008893921971321106, -0.00528264045715332, -0.17616713047027588, 0.07842019200325012, -0.15256251394748688, 0.005503982305526733, 0.05338276922702789, 0.07621833682060242, -0.04395349323749542, 0.1359807848930359, 0.07622167468070984, 0.08011588454246521, 0.0565766841173172, -0.030853554606437683, 0.0646289587020874, -0.16017693281173706, -0.0904385894536972, -0.024120613932609558, 0.049364492297172546, 0.15683382749557495, 0.15615913271903992, 0.07837271690368652, 0.1100214421749115, -0.07054334878921509, -0.08812011778354645, -0.1481291651725769, -0.0021755248308181763, 0.16181114315986633, 0.08273923397064209, -0.15085022151470184, -0.13843649625778198, -0.11666668951511383, 0.11685997247695923, 0.12957942485809326, -0.08219614624977112, -0.16512946784496307, -0.0030076801776885986, -0.10287974029779434, -0.11121527850627899, 0.17720642685890198, -0.12128981947898865, -0.0745454654097557, -0.07156343013048172, 0.15022924542427063, -0.07282835245132446, 0.07167084515094757, 0.07038480043411255, -0.04879850149154663, 0.16560649871826172, -0.053669437766075134, -0.11768774688243866, 0.046439558267593384, -0.03728722035884857, 0.13298377394676208, -0.03670792281627655, -0.009379744529724121, 0.01930364966392517, 0.06565999984741211, 0.16165825724601746, 0.10082048177719116, -0.11276281625032425, 0.09624812006950378, 0.16927391290664673, -0.10866878181695938, 0.17101383209228516, -0.1675989180803299, 0.006951659917831421, 0.024454519152641296, 0.07713818550109863, 0.046888068318367004, -0.1176263839006424, 0.0004177987575531006, -0.15119263529777527, -0.15118350088596344, -0.008367106318473816, 0.1421586275100708, 0.08696839213371277, -0.031946271657943726, -0.11067290604114532, -0.050686970353126526, -0.1328253597021103, -0.0902014896273613, 0.09798526763916016, 0.15867051482200623, 0.17628628015518188, -0.003430008888244629, -0.013243988156318665, 0.10954934358596802, -0.14798477292060852, -0.08400178700685501, -0.06193533539772034, -0.15510837733745575, -0.12782326340675354, -0.10840839892625809, -0.1085055023431778, 0.028478160500526428], [-0.13614675402641296, -0.15144410729408264, -0.05125097930431366, -0.010424554347991943, -0.07932862639427185, -0.04339058697223663, -0.05783720314502716, -0.04379713535308838, 0.08017900586128235, -0.12901842594146729, -0.001097157597541809, -0.16300980746746063, -0.1560870110988617, -0.04374152421951294, -0.07753080129623413, 0.108427494764328, 0.13929423689842224, 0.15165162086486816, 0.03711181879043579, -0.14065136015415192, -0.14457441866397858, -0.05813346803188324, -0.06768254190683365, 0.11776900291442871, -0.12199745327234268, -0.09052441269159317, 0.11049005389213562, 0.15788018703460693, -0.15391309559345245, -0.1704920530319214, 0.1297796666622162, 0.11104366183280945, 0.10035225749015808, -0.16411009430885315, 0.000705525279045105, -0.06791432201862335, 0.01407112181186676, -0.06639264523983002, -0.09556973725557327, 0.16004174947738647, -0.08692969381809235, -0.03013424575328827, 0.07599073648452759, -0.14745639264583588, -0.04278360307216644, -0.15595170855522156, 0.055051326751708984, -2.446770668029785e-05, -0.029968395829200745, -0.14373520016670227, -0.005658984184265137, -0.05565420538187027, -0.14573116600513458, -0.047325894236564636, 0.03314746916294098, -0.1383674144744873, -0.10334312915802002, -0.1733231395483017, -0.0006367713212966919, 0.12371280789375305, -0.1027948409318924, -0.1466466635465622, 0.09910914301872253, -0.10467557609081268, -0.052198633551597595, -0.1176602765917778, 0.05965341627597809, -0.13940882682800293, -0.043437063694000244, 0.015441566705703735, 0.020038962364196777, -0.0864986702799797, -0.04993121325969696, -0.036763995885849, -0.040760159492492676, 0.051518335938453674, -0.14611709117889404, -0.01799026131629944, 0.1157689094543457, -0.1132880300283432, -0.11938998103141785, 0.15818825364112854, -0.06694085150957108, -0.0696624144911766, 0.061945512890815735, 0.03166314959526062, -0.06927352398633957, 0.17461451888084412, -0.1556791067123413, -0.07318107038736343, -0.03459562361240387, -0.07902340590953827, 0.09960559010505676, 0.09598267078399658, 0.13685274124145508, 0.01551888883113861, 0.1540292203426361, 0.15045508742332458, 0.0974416434764862, -0.1437026560306549, -0.03635486960411072, -0.015103936195373535, 0.12431102991104126, 0.11242863535881042, -0.01807582378387451, -0.08349664509296417, 0.09486901760101318, 0.16927462816238403, 0.0655813068151474, -0.12044095993041992, -0.08118138462305069, -0.15248337388038635, -0.13847385346889496, -0.14643266797065735, 0.16285663843154907, -0.17543616890907288, -0.08729555457830429, -0.16702739894390106, 0.11635082960128784, 0.08728489279747009, 0.025336086750030518, 0.015934541821479797, -0.029047027230262756, -0.08243202418088913, -0.1768232136964798, -0.15879331529140472, 0.04821278154850006, -0.03260307013988495], [-0.12056700885295868, -0.07475894689559937, 0.1077379584312439, -0.04336598515510559, -0.028877943754196167, 0.023064136505126953, -0.05332554876804352, 0.16526499390602112, -0.12021378427743912, -0.04000917077064514, -0.14176076650619507, 0.013626247644424438, 0.04616387188434601, -0.1085439994931221, 0.10178101062774658, 0.10598990321159363, 0.13163256645202637, 0.04602175951004028, -0.06951658427715302, -0.004434868693351746, -0.053460560739040375, 0.06974524259567261, -0.014361009001731873, 0.13187211751937866, -0.13389436900615692, -0.17098581790924072, -0.05764252692461014, -0.11089500784873962, 0.1435653269290924, 0.05178193747997284, 0.1688401699066162, 0.08019065856933594, -0.07911340892314911, -0.06504025310277939, 0.1475500762462616, -0.01577860116958618, -0.16775180399417877, 0.13899174332618713, 0.0028056204319000244, 0.1721179187297821, -0.1476968377828598, 0.035943955183029175, 0.11449629068374634, 0.027097538113594055, -0.1758350282907486, 0.14917832612991333, -0.16332276165485382, -0.007355600595474243, 0.09706932306289673, 0.00914163887500763, 0.05636720359325409, 0.16853579878807068, -0.10158959031105042, 0.0032310187816619873, 0.04079549014568329, -0.003509700298309326, -0.16724345088005066, 0.06116621196269989, 0.001263946294784546, -0.05531691014766693, 0.014011919498443604, -0.10223548859357834, -0.13814425468444824, 0.037024348974227905, 0.042837947607040405, -0.0031941235065460205, 0.14633804559707642, -0.11622007191181183, 0.1411971151828766, -0.017882078886032104, -0.1771857738494873, 0.14995846152305603, 0.021364271640777588, 0.10546797513961792, -0.07347636669874191, 0.053834572434425354, -0.1265486627817154, 0.1544596552848816, 0.07958468794822693, -0.04515692591667175, -0.09659772366285324, -0.06471715867519379, 0.04479418694972992, 0.012109220027923584, 0.08286574482917786, -0.07622285932302475, -0.11379988491535187, 0.11812695860862732, 0.045624926686286926, -0.11089974641799927, -0.11867262423038483, -0.0021338164806365967, -0.14171099662780762, 0.06536555290222168, 0.012584775686264038, 0.046710461378097534, 0.09221270680427551, -0.0138016939163208, -0.05485719442367554, -0.11237408965826035, -0.11671828478574753, -0.01029917597770691, -0.02880612015724182, -0.11289757490158081, -0.05760910362005234, 0.018306344747543335, 0.09333416819572449, -0.07558072358369827, -0.15338192880153656, -0.0314042866230011, -0.04180973768234253, -0.01115746796131134, 0.06695674359798431, -0.15957926213741302, -0.06925108283758163, 0.11287641525268555, 0.003415048122406006, -0.09876310080289841, 0.09054562449455261, 0.08626604080200195, 0.16538786888122559, -0.0472223162651062, 0.08845466375350952, -0.010703712701797485, 0.17564868927001953, -0.15483476221561432, 0.0596691370010376, 0.0699310451745987], [0.057414181530475616, 0.318880558013916, -0.011569291353225708, 0.13740921020507812, -0.04018742963671684, 0.06127344071865082, 0.16615769267082214, -0.0011389345163479447, 0.02024911344051361, 0.276067852973938, 0.2332339733839035, 0.24437950551509857, -0.055839747190475464, 0.12301711738109589, 0.2443283498287201, -0.17329810559749603, 0.3907194137573242, -0.16595548391342163, -0.07245610654354095, 0.27059483528137207, 0.22919157147407532, -0.20594201982021332, 0.02313045784831047, -0.04837127774953842, 0.2126324623823166, 0.4396391212940216, 0.11796408146619797, 0.2625766694545746, 0.2354801446199417, 0.05731780454516411, -0.12372290343046188, 0.018876148387789726, 0.08559190481901169, -0.0070982822217047215, -0.034395601600408554, 0.2026619166135788, 0.09146524965763092, 0.14964602887630463, -0.004609237425029278, -0.04638905078172684, 0.0967806875705719, 0.08592863380908966, 0.09399368613958359, -0.016286863014101982, 0.07654540240764618, -0.10840830951929092, 0.07529231905937195, -0.12954282760620117, -0.024331863969564438, -0.07309641689062119, 0.03416788578033447, -0.26231542229652405, -0.029172109439969063, 0.10658156871795654, -0.1228933036327362, -0.05591008439660072, -0.03239286690950394, 0.040374983102083206, -0.3028367757797241, -0.20719905197620392, -0.054741159081459045, 0.16405746340751648, -0.00789735373109579, -0.29469114542007446, -0.0007195246289484203, -0.06168094649910927, -0.22108256816864014, -0.030534008517861366, -0.17990367114543915, -0.15783844888210297, -0.0736839696764946, 0.09305446594953537, 0.033328887075185776, 0.14032448828220367, -0.15701192617416382, -0.17294570803642273, -0.23687241971492767, -0.10548575222492218, 0.06923355907201767, -0.145493745803833, -0.22700580954551697, -0.03028172440826893, -0.0032924457918852568, 0.13956880569458008, -0.08675567060709, -0.2478989213705063, 0.1594284027814865, 0.0069957310333848, -0.18383431434631348, -0.10685629397630692, 0.14791983366012573, 0.1409369707107544, -0.1449255347251892, -0.08056896179914474, 0.010701127350330353, -0.02945578470826149, -0.20136702060699463, 0.20575571060180664, -0.1817573606967926, 0.16050633788108826, -0.16184934973716736, 0.1132582277059555, 0.09252188354730606, -0.045079730451107025, -0.047488048672676086, 0.007396114524453878, -0.15658648312091827, 0.23256291449069977, -0.16819347441196442, -0.03629114851355553, -0.19679364562034607, 0.00836775079369545, -0.004016030114144087, 0.07548585534095764, -0.029861588031053543, -0.07932344824075699, 0.0528431311249733, -0.25889623165130615, -0.111020527780056, 0.021336829289793968, 0.3729548454284668, 0.2976810932159424, -0.19489119946956635, -0.034301869571208954, -0.06082950532436371, -0.04833654686808586, -0.06815384328365326, -0.03947916999459267], [-0.18427641689777374, 0.128153458237648, -0.08773919194936752, 0.18836593627929688, -0.09074124693870544, -0.07203175872564316, 0.004162171855568886, -0.07630626112222672, 0.024917956441640854, 0.09044954925775528, 0.33181387186050415, 0.2847196161746979, 0.06727372854948044, -0.10513709485530853, 0.03134943172335625, -0.19032463431358337, 0.4088010787963867, -0.11260899901390076, 0.18877074122428894, 0.25636735558509827, 0.05374956130981445, -0.1389177292585373, -0.07084451615810394, -0.10508447885513306, 0.3412047326564789, -0.0902693122625351, 0.08458149433135986, 0.10357330739498138, 0.22240419685840607, 0.0540664866566658, -0.09126723557710648, -0.050601232796907425, -0.01851782575249672, 0.1446889489889145, 0.08663257211446762, 0.11766519397497177, -0.003626458579674363, -0.08661093562841415, -0.19495853781700134, 0.011686189100146294, -0.09916859865188599, 0.058605778962373734, 0.02197427675127983, 0.0029818506445735693, 0.08659302443265915, 0.021742962300777435, 0.04571222886443138, 0.12508517503738403, -0.0596277192234993, -0.14693324267864227, 0.1599433720111847, -0.2610991597175598, 0.1466318666934967, -0.05425817146897316, 0.036735765635967255, 0.10118924081325531, -0.07100598514080048, -0.22448952496051788, -0.17264489829540253, -0.16291868686676025, 0.21847139298915863, 0.17034730315208435, -0.11302651464939117, -0.1874184012413025, -0.200220987200737, 0.05125246196985245, 0.04946838691830635, -0.24974282085895538, -0.11926627159118652, -0.11712288856506348, 0.03605112433433533, -0.10310421139001846, -0.11757092922925949, -0.199970081448555, 0.042864032089710236, -0.022450178861618042, -0.08707406371831894, -0.04084273427724838, -0.06775073707103729, -0.03035365790128708, -0.02749086730182171, -0.08778354525566101, 0.08216872811317444, 0.10957358032464981, -0.03967073932290077, -0.10046718269586563, 0.0901855006814003, 0.08478283137083054, -0.18232570588588715, -0.08154548704624176, 0.0848284587264061, -0.10048311948776245, -0.08793801069259644, -0.14632946252822876, 0.06658642739057541, -0.11263277381658554, -0.17681866884231567, 0.13289803266525269, 0.08862514793872833, 0.2743038833141327, -0.050218429416418076, -0.12615016102790833, -0.039800431579351425, 0.07908346503973007, -0.0022885059006512165, -0.07866790145635605, 0.3969052731990814, 0.3029771149158478, -0.05715477094054222, -0.08199834078550339, -0.08777209371328354, -0.19536082446575165, 0.13684172928333282, -0.028064502403140068, -0.09351656585931778, -0.0845334455370903, -0.0342242456972599, -0.025527916848659515, -0.06423182785511017, -0.20271672308444977, 0.14172139763832092, -0.06442806869745255, -0.15426765382289886, 0.1608911156654358, 0.18690668046474457, -0.16109144687652588, 0.12860934436321259, 0.07558406889438629], [0.15969474613666534, 0.15364021062850952, -0.11405432969331741, 0.4166499674320221, 0.1344706118106842, 0.2806406617164612, -0.12249784916639328, 0.31976982951164246, -0.017238611355423927, 0.15083134174346924, 0.1289454847574234, 0.20432233810424805, 0.10494309663772583, 0.04752717539668083, 0.025982802733778954, 0.058016929775476456, 0.1635729819536209, -0.0013512135483324528, -0.12754814326763153, -0.015582035295665264, 0.25211262702941895, 0.08872321993112564, 0.049247171729803085, 0.0030664890073239803, 0.43066149950027466, -0.015057699754834175, 0.07320106774568558, 0.2516779601573944, 0.15382318198680878, 0.16016212105751038, 0.03995281457901001, 0.07458242028951645, -0.054549407213926315, 0.34796783328056335, -0.05656738951802254, 0.11640626937150955, 0.03823969513177872, 0.24951569736003876, 0.026297839358448982, 0.10886587202548981, -0.04327486827969551, -0.01563616842031479, 0.0924474447965622, -0.09268065541982651, -0.1963787078857422, 0.12357282638549805, -0.2877134680747986, -0.11241092532873154, 0.03301265463232994, 0.06064506620168686, 0.0503801628947258, -0.14101718366146088, 0.313173770904541, -0.00683186762034893, -0.009338016621768475, 0.11136152595281601, -0.029358655214309692, 0.01611259952187538, 0.01615755446255207, -0.04277366027235985, 0.07403143495321274, 0.07418879866600037, 0.010046547278761864, -0.00736246956512332, -0.15871986746788025, -0.05750616267323494, 0.0063602617010474205, -0.015465408563613892, -0.1666027456521988, 0.032469168305397034, -0.004943776410073042, -0.1441064178943634, -0.07403874397277832, -0.19348782300949097, -0.21058091521263123, -0.12938544154167175, 0.09357152879238129, -0.03697867691516876, 0.15483242273330688, -0.00011137693945784122, -0.005816400982439518, -0.20415376126766205, 0.10922526568174362, 0.010497287847101688, -0.07912962138652802, 0.012382290326058865, -0.06359774619340897, -0.02160048671066761, -0.13904111087322235, 0.018284941092133522, 0.023587390780448914, -0.024123480543494225, 0.08094323426485062, 0.06949572265148163, -0.05302661284804344, -0.10076463222503662, 0.0732208862900734, -0.12751725316047668, 0.06680215150117874, 0.15107008814811707, 0.03479969501495361, -0.0889534056186676, 0.054153572767972946, 0.22447067499160767, 0.13586702942848206, 0.04543957859277725, -0.12953181564807892, -0.032495319843292236, 0.09055308252573013, -0.08757922798395157, -0.1289495974779129, 0.069918692111969, 0.48503777384757996, 0.031063329428434372, 0.09372556209564209, 0.11162854731082916, 0.09176146984100342, 0.25173211097717285, -0.09184837341308594, 0.05107999965548515, 0.3084360957145691, -0.07597589492797852, 0.0784718468785286, -0.016743717715144157, -0.09104694426059723, -0.16808997094631195, 0.06305276602506638, -0.09810992330312729], [0.013071835041046143, -0.079083152115345, 0.01254168152809143, -0.15700732171535492, 0.06522555649280548, 0.02628476917743683, 0.04417817294597626, -0.1516251266002655, -0.09589186310768127, -0.12840843200683594, -0.09947804361581802, 0.13583984971046448, 0.09028685092926025, 0.16526252031326294, 0.07356065511703491, -0.09281124174594879, -0.10052391141653061, 0.009698957204818726, -0.005033031105995178, 0.02116130292415619, -0.13698919117450714, 0.12024441361427307, -0.02841062843799591, 0.1656719148159027, 0.14053112268447876, 0.02678804099559784, -0.1637956202030182, 0.04245412349700928, -0.04975466430187225, -0.04632812738418579, -0.10814353078603745, 0.10325285792350769, -0.04173651337623596, 0.14639320969581604, 0.09922268986701965, -0.12730351090431213, 0.13505277037620544, 0.10654520988464355, 0.04429754614830017, -0.14652517437934875, -0.11979582160711288, -0.1628911942243576, 0.05384589731693268, -0.14194877445697784, -0.16083551943302155, 0.15897133946418762, 0.05970323085784912, -0.02595663070678711, -0.162889763712883, -0.034889012575149536, 0.039719074964523315, 0.017281100153923035, 0.1314733326435089, -0.009196817874908447, 0.11045566201210022, -0.16248683631420135, 0.13500285148620605, -0.11240671575069427, -0.08813338726758957, 0.015192285180091858, 0.01761189103126526, 0.1356099545955658, 0.1266210973262787, -0.017665177583694458, -0.0932464450597763, -0.14105123281478882, -0.15448617935180664, 0.13773620128631592, 0.046427980065345764, -0.1540617048740387, 0.15569856762886047, -0.057187922298908234, -0.13766133785247803, 0.03898493945598602, 0.1669919490814209, -0.09464079886674881, -0.11608392000198364, -0.09296928346157074, -0.058597154915332794, 0.13981831073760986, -0.1243070513010025, -0.05820513516664505, 0.16947618126869202, 0.10912182927131653, -0.12104815244674683, 0.08895647525787354, 0.10130041837692261, -0.1697254627943039, -0.052909061312675476, 0.10502976179122925, 0.17711004614830017, -0.07095970213413239, -0.12893995642662048, -0.043798401951789856, -0.08748165518045425, -0.1617998629808426, -0.058467887341976166, 0.10105299949645996, -0.029791712760925293, 0.0355355441570282, -0.10956738144159317, -0.14069518446922302, 0.09037140011787415, -0.1695811152458191, 0.05415809154510498, -0.009748026728630066, -0.09317587316036224, -0.025607511401176453, 0.06255516409873962, -0.06768554449081421, -0.08370049297809601, -0.14817163348197937, 0.044979020953178406, 0.049718692898750305, -0.16866320371627808, -0.08762258291244507, 0.08343392610549927, 0.09848889708518982, 0.15698331594467163, -0.12208983302116394, -0.12521734833717346, -0.04343508183956146, 0.1607266068458557, 0.10593670606613159, -0.13454154133796692, -0.17612360417842865, -0.15354174375534058, -0.06635347753763199], [-0.06326765567064285, 0.08380681276321411, 0.11136102676391602, -0.05781257152557373, 0.15469270944595337, 0.11074140667915344, -0.132121741771698, -0.07012855261564255, 0.025959044694900513, 0.1629880964756012, -0.024243071675300598, -0.15634989738464355, -0.0012391507625579834, 0.09073144197463989, 0.016315564513206482, 0.1608910858631134, 0.1427086889743805, 0.0648064911365509, -0.04527270793914795, -0.08913040161132812, 0.016849488019943237, -0.14196106791496277, -0.013637185096740723, 0.16157379746437073, 0.04915820062160492, -0.06350065767765045, -0.06903818994760513, 0.03921972215175629, -0.027585476636886597, -0.05576242506504059, 0.10385748744010925, -0.16120855510234833, 0.06015254557132721, 0.09578529000282288, 0.08869406580924988, 0.12322342395782471, -0.17680323123931885, 0.08794611692428589, 0.1534397006034851, 0.0007034987211227417, -0.016999587416648865, 0.04321284592151642, -0.08534547686576843, -0.05319983512163162, 0.14615339040756226, -0.1178019642829895, -0.0709817185997963, 0.057125672698020935, 0.12155309319496155, 0.0825793445110321, -0.09706525504589081, 0.04791262745857239, 0.11421453952789307, -0.17101925611495972, -0.06651920825242996, -0.06720711290836334, 0.012122660875320435, 0.04618152976036072, -0.046733707189559937, 0.08777537941932678, 0.06605695188045502, 0.007213607430458069, -0.09975910186767578, -0.032677069306373596, 0.08295944333076477, -0.13161739706993103, -0.17687201499938965, -0.11638094484806061, 0.07697394490242004, 0.07727083563804626, 0.0031980574131011963, 0.1257120668888092, 0.016580015420913696, 0.048641353845596313, 0.051189497113227844, -0.14210647344589233, 0.11656695604324341, 0.10665714740753174, 0.02604798972606659, -0.041929930448532104, 0.14757919311523438, -0.14743204414844513, 0.03362438082695007, 0.0526406466960907, -0.16840523481369019, 0.06247347593307495, 0.11377888917922974, -0.14332212507724762, -0.001801416277885437, -0.12011143565177917, 0.17608511447906494, 0.15851500630378723, -0.1580629050731659, -0.04811212420463562, -0.02375766634941101, 0.00396159291267395, -0.16596265137195587, -0.1634783148765564, -0.12850317358970642, -0.1567215770483017, -0.13308341801166534, -0.00231817364692688, -0.14497631788253784, 0.12826338410377502, 0.07643783092498779, -0.018871396780014038, -0.15493081510066986, -0.0751117542386055, -0.04450993239879608, 0.15507960319519043, 0.052476733922958374, 0.08031073212623596, -0.002863764762878418, -0.11270128935575485, -0.023090556263923645, 0.0057999491691589355, -0.032264307141304016, -0.02175205945968628, 0.0056265294551849365, -0.055306389927864075, -1.8924474716186523e-05, -0.04170072078704834, 0.16361242532730103, 0.04097427427768707, 0.1707746982574463, -0.0039098262786865234, 0.11222290992736816, -0.12675043940544128], [-0.026815339922904968, -0.13309352099895477, -0.1761157065629959, -0.16960811614990234, -0.11203903704881668, 0.14063358306884766, 0.12141287326812744, -0.1515856683254242, -0.1608402132987976, 0.11156642436981201, -0.11094546318054199, 0.17292851209640503, -0.0008161962032318115, 0.15578022599220276, 0.0750783383846283, 0.10917824506759644, -0.012412577867507935, -0.13000208139419556, 0.1694304645061493, 0.10276210308074951, 0.05918698012828827, 0.10800480842590332, 0.08737051486968994, 0.11946690082550049, 0.0629076212644577, -0.07476237416267395, -0.04468397796154022, 0.1533118486404419, 0.16588911414146423, -0.020110592246055603, -0.07424315810203552, 0.0447952002286911, -0.16275829076766968, 0.1291610300540924, 0.08011466264724731, -0.13552460074424744, 0.1462981104850769, -0.004331469535827637, 0.05675420165061951, -0.16808149218559265, 0.03433658182621002, -0.02402476966381073, -0.10129234939813614, 0.16877686977386475, -0.14108461141586304, 0.1192488968372345, 0.1339643895626068, 0.1239849328994751, 0.1138884425163269, -0.06667843461036682, -0.1277870088815689, -0.056463636457920074, -0.010270357131958008, -0.1259700357913971, 0.03394000232219696, -0.13017085194587708, -0.05667936056852341, 0.14345106482505798, -0.1613457202911377, -0.13305717706680298, -0.11970525979995728, 0.0789143443107605, -0.034578800201416016, 0.02419959008693695, 0.003038063645362854, -0.11737022548913956, 0.0034877657890319824, -0.11937785148620605, -0.1549891233444214, -0.09622598439455032, -0.12125673145055771, -0.019987329840660095, -0.1496836245059967, 0.014056339859962463, -0.07620000094175339, 0.02319420874118805, 0.04936741292476654, -0.06081286072731018, 0.032931625843048096, -0.15837602317333221, -0.1634645313024521, 0.10877242684364319, -0.14363910257816315, 0.09007221460342407, 0.017832010984420776, -0.0495292991399765, -0.09159871935844421, -0.06028646230697632, 0.15994739532470703, -0.11534927785396576, 0.08136257529258728, -0.17510144412517548, 0.009066328406333923, -0.12069065868854523, 0.0862075686454773, 0.05480167269706726, 0.173735111951828, 0.01392538845539093, 0.049760282039642334, 0.06848795711994171, 0.06187829375267029, -0.018221735954284668, 0.12945663928985596, -0.0991993173956871, -0.1596604287624359, -0.06836829334497452, 0.10410404205322266, 0.0462510883808136, -0.1417681723833084, -0.0673675611615181, 0.08268851041793823, 0.08962422609329224, 0.0807323157787323, 0.14216145873069763, -0.036502718925476074, 0.0013576298952102661, 0.003119915723800659, 0.07390865683555603, 0.07876229286193848, 0.06847621500492096, 0.011319652199745178, -0.16383571922779083, 0.047081053256988525, 0.09322041273117065, 0.1626874804496765, -0.08174103498458862, -0.015538126230239868, -0.13435256481170654], [0.04315072298049927, -0.04514956474304199, -0.09522783756256104, -0.11638031154870987, -0.0784749910235405, 0.03857758641242981, -0.1048211082816124, -0.13485293090343475, 0.1616525650024414, 0.02553732693195343, 0.032125622034072876, -0.1555713415145874, 0.16743016242980957, 0.15015316009521484, 0.022896721959114075, 0.0046045780181884766, -0.17103873193264008, 0.05607795715332031, -0.02303004264831543, 0.02571175992488861, -0.06601157039403915, 0.05744713544845581, -0.06019045412540436, -0.1263905018568039, 0.07944166660308838, 0.09400013089179993, 0.023688361048698425, 0.15276193618774414, -0.056037649512290955, 0.04725295305252075, -0.12982869148254395, 0.13232770562171936, -0.06108136475086212, 0.006983652710914612, -0.0031821727752685547, 0.15248847007751465, 0.09084177017211914, 0.07801127433776855, -0.02622179687023163, -0.15973813831806183, -0.04921622574329376, 0.06754478812217712, 0.16895052790641785, -0.0007709860801696777, 0.00029858946800231934, -0.10187169909477234, 0.15802356600761414, -0.052340663969516754, -0.11345434933900833, 0.10883396863937378, -0.007480934262275696, 0.07010932266712189, -0.12182986736297607, 0.028869792819023132, -0.17008626461029053, -0.04782934486865997, -0.016723722219467163, -0.15813575685024261, -0.10572101920843124, 0.15000709891319275, -0.14476604759693146, -0.0989072397351265, -0.10041623562574387, 0.01984432339668274, -0.0015575885772705078, 0.12337696552276611, -0.01984851062297821, 0.10954493284225464, 0.10850667953491211, -0.16505052149295807, 0.06531171500682831, 0.1117943525314331, -0.11268265545368195, -0.08002899587154388, 0.11845457553863525, 0.13145023584365845, -0.06805258989334106, -0.12770110368728638, -0.09224144369363785, -0.010052904486656189, -0.15278106927871704, -0.16924691200256348, 0.13734367489814758, 0.14065533876419067, 0.16422727704048157, -0.09726399183273315, 0.11706015467643738, -0.1645827442407608, -0.07307711988687515, -0.028849050402641296, -0.10774373263120651, 0.04563701152801514, 0.17318031191825867, -0.17688296735286713, -0.1143290251493454, -0.0643492266535759, -0.16707433760166168, -0.13628941774368286, -0.10855219513177872, -0.0593649223446846, 0.020423665642738342, 0.0030105113983154297, -0.13955846428871155, 0.12902382016181946, -0.09850338846445084, 0.010450378060340881, 0.04646971821784973, -0.010443657636642456, -0.11232524365186691, 0.14598414301872253, -0.11484219878911972, -0.02866514027118683, 0.1116560697555542, 0.022226348519325256, -0.023402035236358643, -0.07570859044790268, -0.045233115553855896, 0.10084936022758484, -0.09397373348474503, -0.12934045493602753, 0.13468047976493835, -0.164826899766922, 0.0569547563791275, -0.15946605801582336, -0.09789856523275375, -0.09787946194410324, -0.08762740343809128, -0.11380508542060852], [0.08046820759773254, -0.15180298686027527, 0.10366010665893555, 0.023239001631736755, -0.013934895396232605, 0.12073269486427307, -0.015035942196846008, 0.09173348546028137, 0.13368278741836548, -0.05104489624500275, -0.024473294615745544, 0.0881713330745697, -0.0120621919631958, 0.10068592429161072, -0.033903151750564575, -0.06701348721981049, -0.14559310674667358, -0.035550594329833984, -0.14747223258018494, -0.14697667956352234, -0.1558113694190979, 0.17583328485488892, -0.0906391441822052, -0.10270673781633377, 0.09946191310882568, -0.00575004518032074, 0.11608758568763733, -0.10602839291095734, 0.0490989089012146, 0.1363946795463562, 0.012714803218841553, -0.12806281447410583, -0.14194412529468536, 0.07254447042942047, 0.14718574285507202, 0.0037221312522888184, -0.02364686131477356, -0.13154450058937073, 0.15593776106834412, 0.037500157952308655, 0.15425017476081848, 0.010424211621284485, 0.05936877429485321, -0.1285458207130432, 0.01210339367389679, -0.04436121881008148, -0.04189181327819824, -0.17256568372249603, -0.057705655694007874, 0.05212308466434479, 0.02882428467273712, -0.0886370912194252, -0.12015500664710999, -0.05272144079208374, 0.03956395387649536, 0.0020523816347122192, 0.039127230644226074, -0.05307259410619736, 0.08068117499351501, -0.025072067975997925, -0.08048993349075317, 0.027871087193489075, 0.1054500937461853, 0.15128952264785767, -0.15174785256385803, -0.06994612514972687, 0.1526026725769043, 0.04830050468444824, -0.08024154603481293, 0.07676032185554504, 0.0049886554479599, -0.030503839254379272, 0.15354228019714355, 0.15089267492294312, -0.171889528632164, 0.03523679077625275, 0.05305400490760803, 0.11841550469398499, 0.1094413697719574, -0.14149083197116852, 0.14587408304214478, 0.12382787466049194, -0.05809438228607178, 0.1369791328907013, -0.029598891735076904, 0.12322312593460083, 0.03822287917137146, -0.07066677510738373, -0.16649381816387177, -0.0015779584646224976, 0.10257968306541443, -0.16927260160446167, -0.10543764382600784, 0.10674425959587097, -0.1185854971408844, -0.05472522974014282, 0.16972804069519043, -0.05802719295024872, -0.13346394896507263, -0.10867702215909958, 0.11253592371940613, -0.021113604307174683, -0.012069448828697205, 0.09793922305107117, 0.10813337564468384, -0.14098376035690308, 0.04164080321788788, -0.03472425043582916, 0.16031891107559204, 0.11461561918258667, 0.13089382648468018, 0.133459210395813, 0.059360355138778687, 0.09373810887336731, -0.16155113279819489, 0.09296208620071411, 0.15147042274475098, 0.16623947024345398, 0.1306723654270172, 0.09612694382667542, 0.012274190783500671, 0.05275537073612213, 0.009816557168960571, 0.022240042686462402, 0.06169426441192627, 0.1577317714691162, 0.16964644193649292, 0.16952961683273315], [0.09750071167945862, 0.04993821680545807, 0.16051778197288513, 0.09863543510437012, 0.17558139562606812, -0.08154365420341492, -0.11121734976768494, 0.06470388174057007, 0.02019062638282776, -0.030035793781280518, 0.11880216002464294, -0.12641200423240662, 0.12186959385871887, -0.1683446317911148, 0.024449840188026428, 0.15816354751586914, -0.026367291808128357, 0.09339725971221924, -0.07225611060857773, -0.038688600063323975, -0.16460640728473663, 0.004797905683517456, -0.09194027632474899, -0.07664306461811066, -0.0852157473564148, -0.03990568220615387, -0.05952262878417969, 0.06688714027404785, -0.1374713033437729, 0.017648443579673767, -0.15043982863426208, 0.02417035400867462, -0.04016716778278351, -0.10993585735559464, 0.013129591941833496, 0.07797589898109436, -0.07046162337064743, 0.09268337488174438, -0.047927677631378174, -0.0939977765083313, -0.1352919340133667, 0.06720060110092163, 0.173503577709198, -0.11335816979408264, -0.06419169157743454, 0.10686585307121277, -0.1274477243423462, -0.09592435508966446, -0.15175160765647888, -0.1520231068134308, 0.10565593838691711, 0.07653328776359558, 0.16094112396240234, -0.14948996901512146, -0.14941005408763885, -0.10779727250337601, -0.013199999928474426, -0.01071043312549591, -0.14237764477729797, 0.13680347800254822, -0.022953763604164124, 0.15266254544258118, 0.1399146020412445, -0.0789887085556984, -0.1564188152551651, 0.02877970039844513, -0.06219804286956787, 0.14946886897087097, -0.011637464165687561, 0.04207874834537506, -0.029312819242477417, -0.1572641134262085, 0.1021578311920166, -0.155287504196167, -0.11513960361480713, 0.16020360589027405, -0.1639597862958908, 0.09868994355201721, 0.07559782266616821, 0.1082092821598053, 0.03150312602519989, -0.15446113049983978, 0.15293952822685242, 0.11920836567878723, 0.08859524130821228, 0.1742796003818512, 0.09761479496955872, 0.09378331899642944, 0.03855827450752258, 0.08657878637313843, 0.06314337253570557, -0.04146057367324829, 0.09429726004600525, -0.1102156862616539, 0.1336265504360199, -0.10135349631309509, -0.07142022252082825, 0.03551459312438965, -0.10108520835638046, 0.16881567239761353, 0.15711674094200134, -0.12899628281593323, -0.11192481219768524, -0.005927562713623047, -0.11860649287700653, 0.16083094477653503, 0.052384182810783386, 0.17454668879508972, -0.09697165340185165, -0.034497082233428955, 0.12796226143836975, 0.17110520601272583, 0.07213689386844635, 0.07078658044338226, 0.0858270525932312, 0.14722493290901184, -0.14122402667999268, 0.1638128161430359, -0.049286022782325745, 0.03312009572982788, -0.06027387082576752, -0.11760170757770538, -0.11101506650447845, 0.03888455033302307, -0.17516297101974487, 0.15281268954277039, 0.027112796902656555, 0.13868564367294312], [0.06873622536659241, 0.075346440076828, -0.13754808902740479, 0.1701560616493225, 0.04952980577945709, 0.13980436325073242, -0.16647370159626007, -0.05351228266954422, -0.05201621353626251, -0.02129197120666504, -0.038389042019844055, 0.1614721119403839, -0.06758788973093033, 0.042087167501449585, -0.07996704429388046, 0.07031980156898499, -0.05151449143886566, -0.024991020560264587, 0.00216597318649292, 0.14429154992103577, -0.1017966940999031, 0.028734534978866577, -0.027381286025047302, 0.10516169667243958, -0.08415141701698303, 0.16203755140304565, -0.1387650966644287, 0.06161591410636902, 0.15447402000427246, 0.12217459082603455, -0.033085912466049194, 0.04702189564704895, -0.16007687151432037, -0.1615789383649826, -0.0053097158670425415, 0.11825588345527649, 0.17052826285362244, 0.07048173248767853, -0.011990725994110107, 0.11007589101791382, 0.015040501952171326, -0.14899644255638123, -0.1417144536972046, 0.05486941337585449, 0.02665916085243225, 0.17021054029464722, 0.14975497126579285, -0.14147211611270905, -0.1035362035036087, -0.09521646797657013, 0.023753270506858826, 0.109169602394104, -0.0877247154712677, -0.16462993621826172, 0.0015781372785568237, -0.10927081853151321, 0.020759359002113342, 0.019364461302757263, 0.12033075094223022, -0.14053726196289062, -0.16561461985111237, 0.1542394459247589, 0.14508607983589172, -0.13008688390254974, 0.047271206974983215, 0.16447967290878296, -0.04380880296230316, 0.1492093801498413, -0.15087425708770752, 0.0043823570013046265, -0.004364088177680969, 0.1516646444797516, 0.009322106838226318, -0.08980224281549454, 0.009075626730918884, 0.08060023188591003, -0.15766745805740356, -0.10354858636856079, -0.056178487837314606, -0.002810940146446228, -0.014461159706115723, -0.09551885724067688, -0.13934075832366943, 0.021299704909324646, -0.1685163676738739, 0.12790235877037048, 0.0007102936506271362, 0.17147517204284668, 0.15911853313446045, 0.00759519636631012, -0.054911114275455475, 0.10823902487754822, 0.08513343334197998, -0.08133891969919205, 0.139064222574234, 0.09211990237236023, 0.10101771354675293, 0.17668858170509338, -0.021300122141838074, 0.14751338958740234, 0.043903157114982605, 0.12054955959320068, 0.1449609100818634, -0.044726625084877014, 0.14543640613555908, 0.08337604999542236, 0.05469509959220886, 0.03070227801799774, -0.13022878766059875, -0.12018847465515137, 0.15533393621444702, 0.14416489005088806, -0.07375196367502213, 0.062448665499687195, 0.016806721687316895, 0.1459123194217682, -0.07968045771121979, 0.11563506722450256, 0.141508549451828, 0.06970961391925812, 0.06381818652153015, -0.015184268355369568, -0.043161541223526, -0.0780172199010849, -0.03770650923252106, -0.0598892867565155, 0.10872742533683777, 0.17262759804725647], [-0.11664757132530212, 0.2388785034418106, -0.23151786625385284, 0.3583381474018097, 0.027498049661517143, 0.03697819262742996, -0.10019172728061676, 0.19720682501792908, -0.026149019598960876, -0.09880080819129944, 0.22583290934562683, 0.4111291468143463, 0.10345771163702011, 0.060111161321401596, 0.21282927691936493, 0.045440156012773514, 0.35684698820114136, -0.14721757173538208, -0.12963716685771942, 0.04362758994102478, 0.068609319627285, 0.11254490166902542, 0.06654177606105804, -0.3492617905139923, 0.5751885175704956, 0.14885953068733215, -0.08740737289190292, 0.255930632352829, 0.06984161585569382, 0.13830773532390594, 0.1527997851371765, 0.19640600681304932, -0.026589561253786087, 0.5125805139541626, 0.1833042949438095, -0.09590569883584976, 0.20990343391895294, -0.0032862392254173756, 0.08192149549722672, 0.010241259820759296, 0.1598421037197113, 0.11955954879522324, 0.01677153818309307, 0.19307690858840942, -0.12859219312667847, -0.043541621416807175, -0.03771856799721718, -0.011484121903777122, -0.19345435500144958, -0.03948993608355522, 0.06556549668312073, -0.06685307621955872, 0.18190477788448334, -0.038707029074430466, -0.029106412082910538, 0.05574701353907585, -0.2552230656147003, -0.2127474993467331, -0.00814999733120203, -0.07076661288738251, 0.1847965568304062, 0.29159387946128845, 0.14437870681285858, -0.0709957703948021, -0.20937390625476837, -0.057712193578481674, -0.1068936288356781, -0.060118842869997025, 0.06385041773319244, -0.16821490228176117, -0.13854636251926422, 0.0420355498790741, -0.01076030544936657, -0.2309768944978714, -0.032014962285757065, 0.07919210940599442, 0.1295020878314972, 0.03352641314268112, 0.10833987593650818, -0.12334604561328888, 0.04232552647590637, 0.0871906653046608, 0.07841619104146957, -0.13861988484859467, 0.03456195443868637, -0.026671770960092545, 0.051158539950847626, -0.09070096909999847, -0.1455668956041336, -0.009994388557970524, -0.1893220990896225, 0.15710318088531494, 0.11172980815172195, 0.023590214550495148, -0.1804693192243576, -0.007182286120951176, -0.15530608594417572, 0.2606891393661499, -0.026717854663729668, 0.1424296647310257, -0.15678340196609497, -0.1571459323167801, 0.05672735720872879, 0.1004524752497673, 0.07334433495998383, 0.0658404678106308, 0.13101398944854736, 0.3427635133266449, -0.23250633478164673, 0.0666942149400711, -0.1171058639883995, 0.02718014270067215, 0.3939444422721863, -0.11257960647344589, 0.08560638874769211, -0.08364728838205338, 0.04374758154153824, 0.09133540838956833, -0.1001896783709526, -0.0478702187538147, 0.5337947607040405, -0.15996813774108887, -0.21087150275707245, 0.18359588086605072, -0.03345075994729996, 0.06860025227069855, 0.0015537809813395143, 0.10113395005464554], [-0.05930992588400841, 0.3772454857826233, -0.07862933725118637, 0.25856250524520874, -0.1452949047088623, 0.11104293167591095, 0.10317644476890564, 0.003164724912494421, 0.005327352322638035, 0.4101516902446747, 0.05991550534963608, 0.20995047688484192, 0.09596337378025055, -0.05356708914041519, 0.08883041888475418, 0.04156364127993584, 0.5645259618759155, -0.14779748022556305, 0.08233820647001266, 0.3135412335395813, 0.21087771654129028, 0.07040000706911087, -0.07471286505460739, 0.11662916094064713, 0.3808908760547638, 0.3496806025505066, -0.11173279583454132, 0.34298524260520935, 0.03091823123395443, 0.1949327290058136, 0.15735168755054474, 0.23051993548870087, 0.07699304074048996, 0.03324563428759575, -0.10524121671915054, -0.033470187336206436, 0.04473581910133362, 0.22285954654216766, -0.042599041014909744, -0.018128326162695885, -0.040042806416749954, 0.04382483661174774, 0.2045123130083084, 0.15173256397247314, -0.10688012838363647, -0.06294875591993332, -0.09158521890640259, -0.02702067606151104, -0.20548227429389954, -0.11619267612695694, -0.04816121980547905, -0.2048669457435608, 0.08650007098913193, 0.05745986849069595, 0.025940386578440666, -0.15413932502269745, -0.28785815834999084, -0.003947775345295668, -0.234903946518898, -0.2007473111152649, 0.20043320953845978, 0.09292999655008316, -0.19673766195774078, -0.19851306080818176, -0.10006050765514374, -0.01608467474579811, -0.0004604709392879158, 0.07168013602495193, -0.14368557929992676, -0.051567718386650085, 0.04253486916422844, -0.09732685983181, -0.2010902315378189, -0.15020979940891266, -0.27837541699409485, -0.20928341150283813, -0.09470236301422119, -0.17108330130577087, -0.11558237671852112, 0.07455768436193466, -0.18279337882995605, -0.0007300787256099284, 0.09117982536554337, 0.23421235382556915, -0.08893941342830658, -0.1853945255279541, -0.23140978813171387, -0.1269591897726059, -0.1859390139579773, 0.005213480908423662, -0.005581347271800041, -0.04392661526799202, 0.1718137413263321, 0.14161774516105652, -0.24455754458904266, 0.06309718638658524, -0.11436071991920471, 0.10978291928768158, 0.04398801177740097, 0.30909615755081177, -0.06237291917204857, 0.013099067844450474, -0.1614997833967209, -0.05838790535926819, 0.08902030438184738, 0.1446680873632431, 0.06603386998176575, 0.16475579142570496, -0.18914470076560974, -0.12011170387268066, -0.21038992702960968, 0.06323420256376266, 0.30928337574005127, -0.14426849782466888, 0.07110796123743057, 0.17268264293670654, -0.007638926152139902, -0.0723390206694603, -0.22503304481506348, 0.05857870727777481, 0.4890722930431366, 0.10515451431274414, -0.15271812677383423, 0.12436579912900925, -0.055611513555049896, -0.05549974739551544, -0.07353349030017853, 0.07170073688030243], [-0.1425277590751648, 0.10854162275791168, 0.04429019242525101, 0.16726665198802948, -0.14405865967273712, -0.013732179999351501, -0.018735520541667938, -0.015958217903971672, 0.14072664082050323, 0.15986154973506927, 0.2522348165512085, 0.5116990804672241, -0.013927903026342392, 0.08845540136098862, 0.03987903147935867, 0.08967915922403336, 0.3882521986961365, -0.04371975362300873, 0.06981155276298523, 0.31568801403045654, -0.028744980692863464, -0.22998060286045074, 0.03159001097083092, 0.14210820198059082, 0.3486899435520172, -0.05012291297316551, 0.1183413416147232, 0.014071405865252018, 0.21832694113254547, 0.02229100465774536, 0.09928352385759354, 0.1447613388299942, 0.06293495744466782, -0.06467051804065704, 0.07983946800231934, 0.043634433299303055, 0.13781948387622833, 0.044029828161001205, 0.15090341866016388, 0.061798445880413055, 0.08838851004838943, -0.17213654518127441, 0.07631806284189224, 0.12280265241861343, -0.030474431812763214, 0.17347592115402222, -0.02389538288116455, 0.0020906284917145967, -0.39414623379707336, 0.08029542118310928, 0.15256474912166595, -0.0384361557662487, -0.08399756997823715, 0.11089107394218445, 0.06997726857662201, 0.06009276583790779, -0.19840769469738007, -0.15040157735347748, -0.23779930174350739, 0.038913141936063766, 0.193303182721138, 0.2596980333328247, 0.015712829306721687, -0.09530462324619293, -0.28047698736190796, -0.11277975887060165, -0.052710678428411484, -0.1829676479101181, -0.13151459395885468, -0.07461130619049072, -0.02248546853661537, 0.014793582260608673, -0.13078579306602478, -0.003385986899957061, -0.01747819595038891, 0.00274349981918931, -0.01018562726676464, -0.019016534090042114, 0.04213922470808029, -0.2195942997932434, -0.2847229242324829, 0.03508901223540306, -0.007601836230605841, -0.09628917276859283, -0.19436609745025635, -0.20672379434108734, 0.08859314769506454, -0.10524819791316986, -0.15408506989479065, -0.18832798302173615, -0.036016907542943954, 0.1671784520149231, 0.1437998116016388, -0.14093194901943207, -0.07606495171785355, -0.23929034173488617, 0.07419202476739883, 0.14819329977035522, -0.13092069327831268, -0.03889583423733711, -0.05781771242618561, 0.02594221942126751, 0.11056241393089294, 0.088668093085289, -0.08717802911996841, 0.18844488263130188, 0.17458467185497284, 0.3426181674003601, -0.15872099995613098, 0.016364118084311485, -0.05149800330400467, 0.03063458949327469, -0.21253086626529694, -0.09713123738765717, -0.13753238320350647, -0.05446252226829529, -0.10391602665185928, -0.24025440216064453, 0.10861730575561523, -0.21469922363758087, 0.4716441035270691, 0.1850300133228302, 0.10590343922376633, 0.24275809526443481, 0.0023669868241995573, 0.1030953973531723, -0.23828008770942688, 0.04767235368490219], [-0.14109885692596436, -0.1159292608499527, 0.17521685361862183, -0.11531831324100494, 0.1254481077194214, 0.1269589066505432, -0.14581719040870667, -0.13507415354251862, 0.1672222912311554, 0.0726693868637085, 0.07408583164215088, 0.11079072952270508, -0.0795874074101448, -0.01884777843952179, 0.02862665057182312, 0.08284458518028259, -0.04465216398239136, -0.030741184949874878, -0.12818515300750732, 0.05014321208000183, 0.013904556632041931, -0.10743449628353119, -0.04022298753261566, 0.06500835716724396, -0.1394730657339096, -0.11215557903051376, 0.023794636130332947, -0.15150794386863708, 0.006520971655845642, 0.061239734292030334, 0.03181718289852142, 0.03809565305709839, -0.011371240019798279, -0.08867068588733673, 0.1612820029258728, -0.08443225920200348, 0.08040112257003784, 0.04997037351131439, -0.04119591414928436, -0.05982641130685806, -0.14862695336341858, -0.10819854587316513, 0.04128643870353699, -0.1700800061225891, 0.044896915555000305, 0.040402546525001526, -0.06544139981269836, 0.07573345303535461, 0.1676580309867859, -0.004426896572113037, 0.06433545053005219, -0.15817590057849884, -0.11613069474697113, 0.03793291747570038, 0.010234609246253967, -0.02316373586654663, -0.12123619019985199, -0.17694106698036194, -0.0474332720041275, 0.11067631840705872, -0.14806252717971802, -0.13174521923065186, 0.15637782216072083, -0.038592755794525146, 0.14215892553329468, -0.1702747642993927, -0.15226101875305176, 0.02977624535560608, -0.05260743200778961, 0.00587715208530426, -0.08625062555074692, -0.13395488262176514, 0.02884596586227417, -0.019267141819000244, -0.1566322147846222, 0.03146339952945709, 0.10393655300140381, -0.0824466422200203, 0.07423505187034607, -0.07963152229785919, 0.14079132676124573, 0.08307361602783203, 0.09809443354606628, 0.10940307378768921, 0.024616748094558716, -0.16499373316764832, 0.011662900447845459, 0.1726282238960266, -0.09650285542011261, 0.0024071335792541504, -0.06364306807518005, 0.1211579442024231, -0.057847388088703156, 0.0880851149559021, -0.1709461510181427, 0.026609599590301514, -0.01198527216911316, -0.17675910890102386, 0.03708118200302124, -0.14596855640411377, -0.009498029947280884, 0.14907196164131165, -0.1264609396457672, 0.16270780563354492, 0.012673899531364441, -0.041231200098991394, -0.07650403678417206, 0.13239052891731262, 0.06648612022399902, -0.13367138803005219, -0.11323169618844986, -0.07988130301237106, 0.13434788584709167, 0.13806045055389404, -0.15951856970787048, 0.11671701073646545, -0.09303431212902069, -0.0024343878030776978, -0.066849485039711, -0.07492032647132874, -0.04890626668930054, 0.04630483686923981, 0.08161190152168274, -0.10210968554019928, -0.16144680976867676, -0.013333231210708618, -0.0905991643667221, -0.12980186939239502], [0.12003916501998901, 0.15649005770683289, 0.01959395408630371, -0.00702337920665741, -0.09866984188556671, -0.1300167441368103, -0.0873272493481636, 0.13201144337654114, 0.08270001411437988, 0.011272147297859192, 0.13212570548057556, 0.020273566246032715, 0.06834973394870758, 0.09021332859992981, -0.1672353446483612, -0.031420424580574036, 0.10258859395980835, -0.05510566383600235, -0.04334554076194763, -0.12583595514297485, 0.06159774959087372, -0.10369212925434113, -0.16642464697360992, -0.13965578377246857, -0.027977198362350464, 0.14265120029449463, -0.09190330654382706, 0.01739823818206787, 0.08297005295753479, 0.07071617245674133, -0.03607335686683655, -0.15633581578731537, 0.10133236646652222, -0.08160315454006195, 0.04928196966648102, 0.053333580493927, -0.1411280632019043, -0.16584894061088562, -0.0314006507396698, 0.09148281812667847, 0.08956512808799744, 0.13087600469589233, -0.15136000514030457, -0.0015943199396133423, 0.05660295486450195, -0.009332895278930664, 0.11469608545303345, 0.126813143491745, 0.05344441533088684, -0.08325561136007309, 0.16129308938980103, -0.10063162446022034, 0.00497204065322876, -0.10856128484010696, 0.07714411616325378, -0.006602868437767029, 0.014198705554008484, 0.07544398307800293, -0.1487051248550415, 0.11493778228759766, -0.02529163658618927, -0.07511023432016373, 0.108184814453125, -0.0995653048157692, -0.03142482042312622, 0.00495581328868866, 0.1565662920475006, -0.0629715621471405, 0.044691458344459534, -0.12619835138320923, 0.05695289373397827, 0.011109456419944763, 0.09793063998222351, 0.06379273533821106, -0.11391300708055496, 0.02351480722427368, -0.12055142223834991, -0.06658707559108734, 0.0076287537813186646, 0.063225656747818, 0.09354710578918457, -0.09371296316385269, -0.10861165076494217, -0.04012592136859894, 0.012866467237472534, 0.17706990242004395, 0.11321762204170227, -0.06426192075014114, 0.004173263907432556, 0.0911354124546051, 0.04894298315048218, -0.0034354180097579956, 0.08727362751960754, 0.12220615148544312, 0.05787988007068634, -0.10490833222866058, -0.0954744890332222, 0.05009858310222626, 0.11204448342323303, -0.08948252350091934, -0.061542339622974396, -0.04167714715003967, 0.11765342950820923, -0.062014900147914886, -0.0697011649608612, -0.16526739299297333, 0.14084038138389587, 0.11418133974075317, 0.06936673820018768, -0.03715357184410095, 0.09141936898231506, 0.145496666431427, 0.1678413450717926, -0.16501718759536743, -0.14641331136226654, -0.035202354192733765, -0.018578514456748962, 0.06827342510223389, 0.12361070513725281, 0.15346452593803406, -0.01064273715019226, 0.11650767922401428, 0.09188005328178406, 0.06733173131942749, 0.0462871789932251, 0.06088536977767944, -0.019039884209632874, -0.09661208838224411], [0.11434158682823181, 0.12783047556877136, 0.07856938242912292, -0.01672394573688507, 0.1279812753200531, -0.022228136658668518, 0.12830990552902222, -0.15149003267288208, 0.08393573760986328, 0.11837020516395569, -0.008655175566673279, -0.09612114727497101, -0.1472228318452835, 0.0382460355758667, -0.079494908452034, -0.009183377027511597, -0.023591220378875732, -0.01842769980430603, -0.16913162171840668, 0.15064847469329834, -0.020002275705337524, 0.004841849207878113, 0.12618112564086914, -0.016420751810073853, 0.014676377177238464, 0.16076982021331787, -0.11805292963981628, 0.0036763548851013184, 0.16459131240844727, -0.173905149102211, 0.007259920239448547, -0.13181240856647491, -0.1308547854423523, -0.08190296590328217, -0.0604993999004364, -0.08285624533891678, 0.13841164112091064, 0.0630272626876831, -0.011236906051635742, 0.12123763561248779, -0.05233647674322128, 0.16007107496261597, -0.15828010439872742, 0.15091830492019653, -0.05265750735998154, 0.14254137873649597, -0.0819292888045311, 0.11267745494842529, -0.15603609383106232, -0.09026943892240524, 0.10749876499176025, -0.1462453007698059, 0.13924095034599304, -0.1220976859331131, -0.042920053005218506, 0.01500450074672699, 0.11696141958236694, 0.024295181035995483, -0.17271122336387634, -0.013689547777175903, 0.14870935678482056, -0.11045566201210022, -0.018376439809799194, -0.09632330387830734, -0.08602294325828552, 0.05612917244434357, 0.10026133060455322, 0.06468398869037628, -0.08880802243947983, -0.14798028767108917, 0.07441577315330505, 0.008949115872383118, 0.012911677360534668, 0.022131696343421936, -0.07255769520998001, 0.1677236258983612, 0.09281682968139648, -0.1269836127758026, -0.17649808526039124, -0.03911653161048889, -0.012893304228782654, 0.07795697450637817, -0.06849434226751328, -0.14235520362854004, -0.09666546434164047, 0.10978984832763672, 0.1379890739917755, -0.031310006976127625, -0.03811770677566528, -0.16969715058803558, 0.03705257177352905, 0.027558937668800354, -0.16958627104759216, 0.031330257654190063, -0.0958695113658905, 0.008371412754058838, -0.12316404283046722, 0.05702434480190277, -0.012292951345443726, 0.050356268882751465, -0.08312533795833588, -0.17254388332366943, -0.146589994430542, -0.1417042315006256, -0.04341885447502136, -0.07151661068201065, 0.03996911644935608, -0.15211066603660583, -0.019451245665550232, 0.108438640832901, -0.15827110409736633, -0.16806399822235107, -0.004172086715698242, 0.1746903359889984, -0.0219222754240036, -0.02725878357887268, 0.08768364787101746, -0.07433426380157471, -0.09788956493139267, -0.0531163290143013, 0.08669736981391907, -0.021907180547714233, -0.1432957947254181, 0.0357707142829895, 0.023554235696792603, -0.1613113284111023, -0.15191349387168884, 0.1755201816558838], [0.1361396610736847, 0.1557428538799286, 0.06267803907394409, -0.018036365509033203, 0.10547211766242981, -0.030841797590255737, -0.04678119719028473, 0.15157604217529297, 0.06042768061161041, -0.009099453687667847, -0.07575444132089615, 0.12960362434387207, -0.07273302227258682, -0.10085562616586685, 0.0011171549558639526, -0.06375990808010101, -0.009634554386138916, -0.1683119684457779, 0.11448347568511963, 0.05437922477722168, 0.15222692489624023, -0.15750718116760254, -0.08918038755655289, 0.1380653977394104, 0.17708808183670044, -0.005925282835960388, -0.14250238239765167, 0.132698655128479, 0.1118479073047638, 0.1470862627029419, -0.14246845245361328, 0.16469338536262512, 0.010642945766448975, -0.15519462525844574, 0.12141367793083191, -0.16014258563518524, -0.15540100634098053, 0.15179714560508728, -0.09121882170438766, 0.09916943311691284, 0.11047479510307312, 0.1135818362236023, 0.1732829213142395, 0.16733932495117188, -0.16420681774616241, -0.03738683462142944, 0.09152480959892273, 0.04208873212337494, -0.15703445672988892, 0.1289006769657135, 0.07786056399345398, -0.17575837671756744, 0.06993450224399567, -0.026111170649528503, -0.022712022066116333, -0.06144430488348007, -0.11375652998685837, 0.10449391603469849, 0.1029367446899414, 0.11414659023284912, 0.10453793406486511, 0.023981288075447083, -0.16497260332107544, -0.11555617302656174, -0.10234193503856659, -0.03912182152271271, 0.05767011642456055, -0.1397610455751419, 0.022429868578910828, -0.13052424788475037, -0.15924957394599915, -0.11547748744487762, 0.014507636427879333, 0.05418974161148071, -0.1323021650314331, 0.054546818137168884, -0.05972689390182495, 0.09219235181808472, 0.06495912373065948, 0.1237143874168396, -0.038160547614097595, -0.10726690292358398, -0.11405820399522781, -0.11233314126729965, -0.16032399237155914, -0.07499901205301285, 0.11189514398574829, -0.0706947073340416, 0.09441515803337097, 0.17371338605880737, -0.0403570681810379, 0.031336843967437744, -0.09936923533678055, 0.15116754174232483, -0.17603541910648346, -0.07005959004163742, -0.17645971477031708, 0.01995837688446045, -0.15563862025737762, -0.015617653727531433, 0.11170414090156555, 0.0014623403549194336, 0.12859660387039185, 0.14885607361793518, 0.10962572693824768, 0.13494208455085754, 0.0544251948595047, 0.006101623177528381, -0.12190072983503342, -0.07857471704483032, 0.048344627022743225, -0.09404649585485458, 0.1361626386642456, -0.06651650369167328, 0.045031383633613586, 0.1652413308620453, -0.13820403814315796, -0.13578283786773682, 0.08827975392341614, 0.15460535883903503, 0.0022901147603988647, -0.16686339676380157, -0.014135107398033142, 0.09148415923118591, 0.07139748334884644, -0.07711904495954514, -0.10358471423387527, 0.1309940218925476], [0.08962938189506531, 0.12827906012535095, -0.0063699036836624146, -0.010260894894599915, -0.15404295921325684, -0.10249558091163635, 0.0020626038312911987, -0.10653197020292282, 0.11077055335044861, 0.08831459283828735, -0.12352192401885986, 0.0689220279455185, 0.13964906334877014, -0.12911751866340637, -0.16844803094863892, -0.0693315789103508, 0.16253402829170227, -0.1430756002664566, 0.008420944213867188, -0.007150530815124512, -0.04252476990222931, -0.036842599511146545, 0.02545720338821411, 0.03650006651878357, -0.13587640225887299, 0.09748482704162598, -0.10743136703968048, -0.09656379371881485, 0.053335607051849365, 0.13277721405029297, 0.07920321822166443, 0.08814871311187744, -0.01514454185962677, -0.12687602639198303, 0.09766602516174316, -0.08637101203203201, 0.051006823778152466, 0.1192733645439148, -0.1067868247628212, 0.17334437370300293, 0.13097482919692993, -0.07018788158893585, 0.03607994318008423, -0.054023340344429016, -0.0892435610294342, 0.05626147985458374, 0.12138554453849792, 0.04432898759841919, -0.06509015709161758, -0.1239701360464096, 0.14063677191734314, 0.1497986614704132, -0.0669972226023674, 0.12320658564567566, -0.08306524902582169, 0.0796196460723877, -0.11124435067176819, -0.020477548241615295, 0.14668726921081543, -0.038192540407180786, 0.14093756675720215, 0.051719024777412415, -0.15035729110240936, -0.06306245923042297, -0.03629562258720398, 0.04952697455883026, 0.1339660882949829, 0.1083747148513794, 0.0356065034866333, -0.1252019703388214, -0.09409661591053009, 0.17718476057052612, -0.06912000477313995, -0.11668252944946289, -0.14950327575206757, -0.026038959622383118, 0.1259353756904602, 0.13095882534980774, 0.07073172926902771, -0.09283359348773956, 0.10268363356590271, 0.046558842062950134, -0.13598977029323578, -0.09498967230319977, -0.05841697007417679, -0.1251804679632187, -0.1565806120634079, 0.16313394904136658, -0.1752643883228302, 0.034243836998939514, 0.1597309112548828, 0.1371670961380005, -0.074549101293087, 0.04610326886177063, 0.17386889457702637, 0.10805481672286987, 0.09037542343139648, -0.1084522157907486, -0.006673902273178101, 0.14835822582244873, -0.13401192426681519, -0.07211420685052872, 0.009262874722480774, -0.0741056576371193, 0.12971845269203186, -0.15600840747356415, 0.0955931544303894, -0.10472776740789413, 0.011345461010932922, -0.0625988095998764, -0.05937079340219498, 0.028016582131385803, -0.1011931300163269, -0.11989884078502655, -0.005442321300506592, 0.17098936438560486, -0.037955060601234436, -0.173479363322258, 0.0008110404014587402, -0.16875769197940826, 0.054500967264175415, 0.07710841298103333, 0.02006465196609497, -0.007075101137161255, 0.1465529203414917, 0.07849642634391785, -0.10670176148414612, -0.1397584229707718], [-0.0379452109336853, 0.012485131621360779, 0.14096787571907043, 0.13447746634483337, 0.030695125460624695, 0.1576070785522461, -0.1587265580892563, 0.053024545311927795, 0.15837103128433228, -0.1570289582014084, -0.025545388460159302, -0.031569138169288635, -0.1177433580160141, -0.05655486881732941, 0.10170692205429077, 0.12704265117645264, -0.12847989797592163, 0.09610512852668762, 0.13871991634368896, 0.1526830792427063, -0.04608970880508423, 0.1352916955947876, 0.012931331992149353, -0.04036206007003784, 0.010446280241012573, 0.052822813391685486, -0.1150749921798706, 0.17412802577018738, 0.14580434560775757, 0.06998631358146667, 0.10691612958908081, -0.11717237532138824, 0.003908261656761169, 0.05650179088115692, -0.10310868918895721, 0.05410033464431763, -0.16671308875083923, 0.16804617643356323, -0.07941500097513199, 0.14276954531669617, -0.017117351293563843, 0.16438919305801392, -0.09118878096342087, 0.1492844820022583, 0.008578434586524963, 0.06213681399822235, 0.13955500721931458, 0.08789536356925964, -0.028978392481803894, 0.0779295265674591, 0.04513879120349884, -0.01783466339111328, 0.0008676648139953613, -0.06236305832862854, 0.13116967678070068, -0.08735915273427963, 0.08724424242973328, 0.12724000215530396, 0.05237354338169098, -0.11911827325820923, -0.08928006887435913, -0.11244677007198334, -0.1721021682024002, 0.03881540894508362, -0.134172722697258, 0.10327792167663574, 0.06882213056087494, 0.14758631587028503, -0.0609823539853096, 0.08173021674156189, -0.0002825707197189331, 0.025079846382141113, -0.0348334014415741, 0.04757246375083923, 0.15698817372322083, 0.04605446755886078, 0.11076861619949341, 0.07082849740982056, -0.057590000331401825, -0.15679587423801422, 0.0839681625366211, -0.0608697384595871, -0.16682253777980804, 0.020322129130363464, -0.0906817838549614, 0.07535156607627869, -0.02700558304786682, -0.13628540933132172, -0.009194374084472656, -0.04224422574043274, -0.04414533078670502, 0.17473173141479492, -0.08552371710538864, 0.08254644274711609, 0.0363813191652298, -0.1361163705587387, -0.14229165017604828, -0.04201371967792511, -0.056017063558101654, -0.087412990629673, -0.13614557683467865, -0.008995085954666138, 0.011460185050964355, -0.13416333496570587, 0.04901401698589325, 0.011328145861625671, 0.11291190981864929, 0.07211534678936005, -0.09684522449970245, 0.1400589644908905, -0.14191484451293945, -0.12002214789390564, -0.0953984260559082, 0.03437039256095886, -0.019513249397277832, 0.1577591598033905, 0.16837188601493835, -0.055928751826286316, 0.07523903250694275, 0.13273915648460388, 0.125486820936203, -0.1470993608236313, -0.08484122157096863, -0.03877365589141846, 0.1479729413986206, -0.06531175225973129, 0.11855584383010864, -0.11357381194829941], [-0.02926388382911682, -0.15544593334197998, -0.02726757526397705, 0.0616772323846817, 0.08355924487113953, 0.05672934651374817, -0.09516093879938126, 0.11445817351341248, 0.040502190589904785, -0.008915811777114868, 0.07009813189506531, -0.001196250319480896, 0.06099642813205719, -0.02473241090774536, -0.0741763487458229, 0.11951079964637756, -0.14911746978759766, -0.11714896559715271, -0.06853685528039932, 0.1706984043121338, 0.14144709706306458, -0.1536761224269867, 0.07174935936927795, 0.05316244065761566, 0.04316340386867523, 0.16701963543891907, 0.11670476198196411, 0.06064103543758392, -0.1481758952140808, -0.07728904485702515, 0.04958689212799072, 0.016308844089508057, 0.05412885546684265, 0.08892294764518738, -0.05891454964876175, -0.01212620735168457, -0.15804630517959595, -0.12439249455928802, 0.1612929403781891, -0.0060081928968429565, 0.10757499933242798, 0.12176311016082764, 0.1035115122795105, 0.02551521360874176, 0.16141992807388306, -0.09560950100421906, 0.11365783214569092, -0.04595249891281128, 0.06867727637290955, 0.0967235267162323, -0.006608918309211731, 0.13913539052009583, 0.15158864855766296, 0.10778886079788208, -0.1337190568447113, 0.09037140011787415, 0.10670745372772217, 0.09807363152503967, -0.0930352434515953, -0.07561562955379486, -0.0025740861892700195, 0.12493115663528442, -0.05600696802139282, 0.14269483089447021, 0.06972135603427887, 0.0654386579990387, 0.0981394350528717, 0.058153629302978516, 0.15223097801208496, 0.015161484479904175, -0.0174572616815567, -0.041615188121795654, -0.151214599609375, -0.005444526672363281, -0.11730831861495972, -0.008954852819442749, -0.1682082712650299, -0.0018727481365203857, -0.06664188206195831, 0.03456401824951172, 0.02039371430873871, 0.1608186960220337, 0.07575380802154541, 0.012497469782829285, -0.12541761994361877, -0.011635512113571167, -0.03179989755153656, 0.11705553531646729, -0.06353632360696793, -0.07833786308765411, 0.14098426699638367, -0.09555921703577042, -0.08975719660520554, 0.04883277416229248, 0.12532946467399597, -0.0536397248506546, -0.04584088921546936, -0.11895249783992767, 0.14393803477287292, 0.018190383911132812, 0.16612395644187927, -0.05614472180604935, -0.01542644202709198, -0.09756367653608322, -0.12021069973707199, -0.06420888751745224, -0.044773563742637634, -0.11016011983156204, 0.10006892681121826, 0.09103932976722717, -0.13654524087905884, 0.14439794421195984, 0.0914435088634491, 0.14621233940124512, -0.06614206731319427, 0.06983372569084167, 0.049529850482940674, -0.028574466705322266, -0.06027919799089432, -0.06473895907402039, 0.1331600844860077, -0.07163607329130173, -0.09794817119836807, 0.05923391878604889, -0.012649938464164734, -0.13252364099025726, 0.0684683620929718, -0.0973498597741127], [-0.15447364747524261, -0.03443853557109833, 0.015143957920372486, -0.15949013829231262, -0.04264455288648605, 0.1336619257926941, 0.03513854369521141, 0.06601189076900482, -0.06999919563531876, -0.02279563993215561, 0.04420733451843262, 0.0035664041060954332, -0.31090009212493896, -0.1871030628681183, 0.11038844287395477, 0.07450462132692337, 0.11173373460769653, -0.10126802325248718, 0.10206206887960434, -0.2147587388753891, -0.01156978216022253, -0.049822453409433365, -0.10099118947982788, -0.04949765279889107, -0.10074261575937271, -0.0846276506781578, 0.05503188073635101, 0.07340744882822037, 0.07787436991930008, 0.05366776883602142, 0.06128175929188728, -0.1547076553106308, -0.11994390934705734, 0.01901477389037609, -0.2221081256866455, -0.05981439724564552, 0.061923377215862274, 0.0993289202451706, 0.06841349601745605, 0.285230427980423, 0.061168696731328964, 0.048155080527067184, -0.053369127213954926, 0.11245091259479523, 0.09252045303583145, 0.06013926863670349, -0.030299603939056396, -0.0008758605108596385, 0.2860995829105377, -0.082071952521801, 0.13136009871959686, -0.08830564469099045, 0.12267851084470749, 0.05804295465350151, 0.1101984903216362, -0.10626056790351868, 0.10116011649370193, -0.08449256420135498, 0.04214111715555191, 0.14841780066490173, -0.01875326782464981, 0.09057905524969101, 0.046756528317928314, -0.043278004974126816, 0.10916415601968765, -0.1346641629934311, -0.04661956802010536, -0.0757518857717514, -0.10189860314130783, 0.01802055351436138, -0.1310562938451767, 0.0394497811794281, 0.1590762436389923, -0.19320128858089447, 0.11636893451213837, 0.1770011931657791, -0.2638245224952698, -0.012828151695430279, -0.1949693113565445, -0.05931096524000168, -0.16582006216049194, -0.22801803052425385, 0.05156421661376953, 0.07081501930952072, -0.17019300162792206, 0.0025925443042069674, -0.0357784777879715, -0.0023107165470719337, 0.1921553909778595, -0.13186515867710114, 0.18719208240509033, 0.012817446142435074, 0.11440644413232803, -0.20344178378582, -0.07806183397769928, -0.05662597343325615, -0.01597817987203598, -0.19304050505161285, 0.004356750287115574, -0.11091041564941406, -0.21547821164131165, 0.04156153276562691, -0.1131170466542244, 0.04492703080177307, -0.019348876550793648, -0.08260925859212875, 0.13370652496814728, 0.19103911519050598, -0.058770470321178436, -0.1815485954284668, 0.0886186957359314, 0.16966791450977325, -0.03413885086774826, -0.15364457666873932, 0.0033252777066081762, -0.15371516346931458, 0.05101974681019783, -0.17891323566436768, -0.07424821704626083, -0.1257811337709427, 0.13935580849647522, 0.22730125486850739, 0.05909692123532295, 0.2177973985671997, -0.20057673752307892, -0.11650120466947556, -0.08941048383712769, -0.02670975774526596], [-0.012152953073382378, 0.09238234162330627, 0.02910826914012432, 0.14764368534088135, -0.14163562655448914, -0.09035773575305939, -0.03628823161125183, -0.09202183037996292, -0.11697997897863388, 0.1088901236653328, 0.07039164006710052, 0.30432283878326416, 0.06459281593561172, -0.029974298551678658, 0.2986651360988617, -0.1196654811501503, 0.19949206709861755, 0.12187285721302032, -0.15956801176071167, 0.26166826486587524, -0.1681765615940094, -0.05090757831931114, -0.2529946565628052, 0.07024945318698883, 0.20087231695652008, 0.047700896859169006, 0.046554870903491974, 0.09269662946462631, 0.1908230483531952, 0.09378977119922638, 0.17230837047100067, 0.04715731739997864, 0.20459480583667755, -0.055208366364240646, 0.05288070812821388, -0.1409735381603241, 0.2298683375120163, 0.034875232726335526, 0.015294174663722515, -0.20198224484920502, 0.02900847978889942, -0.07149189710617065, 0.09692106395959854, 0.00028853490948677063, -0.07981560379266739, -0.1359996199607849, -0.2155611366033554, 0.056356608867645264, 0.023452749475836754, -0.08903766423463821, -0.020924124866724014, -0.1269175410270691, 0.12234995514154434, -0.03684033080935478, -0.2125818431377411, -0.013612896203994751, -0.2099325805902481, -0.006692465860396624, -0.22169175744056702, -0.0022403723560273647, 0.08359158784151077, 0.0759686827659607, 0.0950898677110672, -0.19218958914279938, 0.0038853581063449383, 0.1444137692451477, -0.1215619146823883, -0.22662994265556335, 0.022851016372442245, -0.04597999528050423, -0.13795095682144165, -0.16038045287132263, -0.18914616107940674, -0.3270498812198639, 0.0954180359840393, -0.14611591398715973, -0.09419048577547073, -0.05919027701020241, -0.06601295620203018, -0.1760394126176834, -0.06191309168934822, -0.25792762637138367, 0.09296365827322006, 0.21041037142276764, -0.22237010300159454, 0.1537846177816391, -0.10432032495737076, -0.13614486157894135, 0.26995351910591125, 0.07791529595851898, 0.19964459538459778, -0.062069542706012726, 0.024537084624171257, 0.06478404253721237, 0.06595400720834732, 0.09661705791950226, -0.2066454440355301, -0.10160085558891296, -0.06933103501796722, 0.1314302384853363, 0.03885159641504288, -0.23921005427837372, -0.19121001660823822, -0.24885275959968567, 0.1250891089439392, 0.17007750272750854, -0.00039176084101200104, 0.30076223611831665, -0.07835238426923752, -0.08780158311128616, -0.0697503611445427, 0.11127232760190964, -0.09728451818227768, -0.019635556265711784, -0.05748477950692177, 0.06627138704061508, 0.12162427604198456, -0.1158185824751854, -0.012433022260665894, -0.1384677290916443, 0.3925601840019226, -0.06405568867921829, 0.1085825115442276, -0.20356407761573792, 0.01457596942782402, 0.021118290722370148, -0.11061205714941025, -0.13854724168777466], [0.11689219623804092, 0.003332622116431594, 0.03423504903912544, 0.10490531474351883, 0.14671966433525085, 0.03687010332942009, -0.08772411197423935, -0.22753901779651642, -0.08431535959243774, -0.08091647922992706, 0.16901874542236328, 0.16790521144866943, -0.059967413544654846, 0.005194653291255236, 0.20199649035930634, 0.06017205864191055, -0.07436870783567429, 0.11708001792430878, 0.05922948196530342, -0.10984929651021957, 0.1551208794116974, -0.06477085500955582, 0.05204423516988754, -0.1825883388519287, -0.030064059421420097, -0.0900559276342392, -0.13347765803337097, 0.1740240901708603, -0.17560042440891266, -0.08170239627361298, 0.14723867177963257, -0.009132898412644863, -0.156034916639328, 0.07072647660970688, -0.21452073752880096, 0.09941587597131729, -0.17817647755146027, 0.14427076280117035, 0.02011440321803093, 0.17097923159599304, 0.2038513720035553, 0.002236416097730398, 0.11857716739177704, -0.08551228046417236, 0.030464211478829384, 0.04149097576737404, 0.08518756926059723, 0.07479292154312134, 0.18129558861255646, 0.21220070123672485, 0.07957204431295395, -0.13775694370269775, 0.15162691473960876, -0.1538916379213333, 0.13907599449157715, -0.07097692042589188, 0.21462349593639374, -0.06399529427289963, -0.08991324156522751, 0.0672704204916954, -0.019709475338459015, 0.06634417921304703, -0.03518228977918625, -0.04518645629286766, 0.06367260217666626, 0.22946316003799438, -0.06263234466314316, -0.1830524504184723, -0.15354065597057343, 0.12414713203907013, 0.003977139014750719, 0.05681744962930679, 0.0018964129267260432, -0.1614334136247635, 0.02723110467195511, 0.33352547883987427, -0.14465026557445526, 0.18011833727359772, -0.029624147340655327, -0.046833984553813934, -0.07281152904033661, -0.13431480526924133, 0.22257648408412933, -0.1690264195203781, -0.09863069653511047, 0.102521613240242, 0.19850842654705048, -0.12078017741441727, 0.12304028123617172, -0.05946773663163185, -0.04259128123521805, 0.2701587378978729, 0.1728365123271942, 0.11332934349775314, -0.15005694329738617, -0.24914613366127014, 0.055304620414972305, -0.0986502543091774, -0.046816494315862656, 0.04245367646217346, 0.0040113311260938644, 0.11877618730068207, -0.030246086418628693, -0.17482389509677887, 0.0037429386284202337, 0.01337275467813015, 0.17036941647529602, 0.13125014305114746, 0.14380307495594025, 0.045916736125946045, -0.05090479552745819, -0.08742275089025497, 0.09469256550073624, -0.19182446599006653, -0.06350010633468628, -0.23325875401496887, 0.21606822311878204, -0.010569925419986248, -0.045984040945768356, 0.14312873780727386, 0.05468396842479706, 0.07926271855831146, -0.11782839894294739, 0.013394003733992577, 0.06212089955806732, -0.0034267071168869734, -0.18240125477313995, 0.020547587424516678], [0.09570595622062683, -0.25619399547576904, -0.03608645498752594, -0.010461725294589996, 0.1052936539053917, -0.14504699409008026, 0.2584906816482544, -0.02566470578312874, 0.13143613934516907, 0.07275936752557755, -0.32213494181632996, -0.0681547075510025, 0.15703395009040833, -0.15277962386608124, 0.28689536452293396, 0.048700008541345596, -0.040557753294706345, -0.12495334446430206, -0.06133720651268959, 0.21438133716583252, 0.012715130113065243, 0.06736752390861511, -0.0025364260654896498, -0.08127541840076447, 0.2288253903388977, 0.00750184990465641, -0.135828897356987, -0.008890623226761818, -0.10839733481407166, -0.09363985061645508, 0.08675757050514221, -0.042076315730810165, 0.2205377221107483, -0.17060908675193787, 0.2124655842781067, -0.20317944884300232, 0.1848275065422058, 0.12435983866453171, 0.018163222819566727, -0.003909522667527199, -0.009273674339056015, -0.356604665517807, -0.23666436970233917, -0.4600793421268463, -0.1601586788892746, 0.05101005360484123, -0.16778463125228882, -0.24816760420799255, -0.07109525799751282, 0.007735166698694229, 0.13553835451602936, 0.04308949038386345, -0.1061859279870987, -0.039543475955724716, 0.08398860692977905, -0.15557093918323517, 0.38809818029403687, 0.09594746679067612, 0.05165605619549751, 0.1365947723388672, 0.0786978006362915, 0.17329901456832886, -0.019500643014907837, 0.08719229698181152, -0.048507027328014374, -0.4563002586364746, -0.08706007897853851, 0.15593494474887848, -0.07005663216114044, 0.05652355030179024, 0.0024112421087920666, 0.15065008401870728, -0.01302750688046217, -0.07287952303886414, -0.2991407811641693, -0.11902859061956406, 0.0027058145496994257, -0.03351668268442154, 0.32977408170700073, 0.05712294951081276, 0.12017161399126053, -0.044099774211645126, -0.031691696494817734, -0.0641116350889206, -0.012695396319031715, 0.15060271322727203, 0.02300269342958927, 0.07612240314483643, 0.5012066960334778, -0.077414371073246, -0.04978412017226219, -0.3183019757270813, -0.15007691085338593, 0.008766568265855312, 0.05420824885368347, -0.23589611053466797, -0.15024469792842865, -0.22115816175937653, -0.06014852598309517, -0.180080384016037, 0.09738437831401825, 0.16865861415863037, -0.013278201222419739, 0.04271867871284485, 0.11106572300195694, -0.05365796759724617, -0.12326351553201675, -0.16657176613807678, -0.18891966342926025, -0.01793516054749489, -0.03129417821764946, -0.010505419224500656, -0.4700198471546173, 0.038149986416101456, -0.0036867856979370117, -0.1851789355278015, -0.23794566094875336, -0.13905392587184906, 0.01201056782156229, -0.0500015988945961, 0.15157534182071686, -0.0815025046467781, 0.009569842368364334, 0.23223045468330383, -0.3117278516292572, -0.18383316695690155, -0.0935811772942543, -0.10208584368228912], [0.18056955933570862, 0.025780387222766876, -0.1876566857099533, -0.048227570950984955, 0.10506830364465714, 0.04165774583816528, -0.17046955227851868, 0.12201692163944244, 0.1532386690378189, 0.06445040553808212, 0.20069736242294312, 0.32057932019233704, 0.0008472814224660397, 0.15393289923667908, 0.08116728067398071, 0.052737943828105927, 0.15894581377506256, -0.10551925748586655, -0.0997811034321785, -0.09764380007982254, 0.13696438074111938, 0.004790489561855793, 0.09644535928964615, 0.08611559867858887, 0.07836172729730606, -0.10755226761102676, 0.0014868017751723528, -0.23067724704742432, -0.01011501345783472, -0.16103093326091766, 0.0581754632294178, 0.16857486963272095, 0.11959441006183624, 0.1209680587053299, 0.09697312116622925, 0.023166902363300323, 0.0459599569439888, 0.16664591431617737, 0.1524452120065689, -0.1687227338552475, 0.07307557016611099, 0.09183908253908157, 0.11602834612131119, 0.050398651510477066, 0.014782562851905823, -0.09883036464452744, -0.13870903849601746, 0.191533625125885, 0.03191426396369934, 0.1546909213066101, -0.11390592902898788, -0.2037896364927292, 0.20892345905303955, -0.17665094137191772, -0.10282473266124725, -0.16297727823257446, 0.0985998585820198, -0.009571891278028488, -0.06458073109388351, 0.17827241122722626, 0.08194633573293686, -0.13080015778541565, -0.04622505605220795, 0.12991288304328918, -0.04847609996795654, -0.0036868113093078136, -0.1767987608909607, -0.06542621552944183, 0.06079697236418724, 0.20898084342479706, 0.017116591334342957, -0.006488418206572533, -0.15742917358875275, -0.2319900542497635, -0.1733444184064865, 0.04315663501620293, 0.10938535630702972, -0.12832880020141602, -0.1330334097146988, 0.10692989081144333, 0.028473583981394768, -0.01875486969947815, 0.16760395467281342, 0.0704064890742302, -0.009524904191493988, 0.10320129245519638, -0.10383554548025131, 0.08893895149230957, -0.04863147437572479, -0.15811438858509064, -0.23355449736118317, -0.009033506736159325, -0.08496661484241486, 0.11680183559656143, -0.1852932721376419, -0.18082690238952637, -0.1692388355731964, 0.07704296708106995, 0.15052874386310577, -0.04776861518621445, -0.03229522705078125, 0.09338060766458511, -0.07449603080749512, -0.042642753571271896, 0.1749218851327896, -0.10530953109264374, -0.018169982358813286, 0.2640623152256012, -0.10042957961559296, -0.017855733633041382, -0.08134244382381439, -0.16773661971092224, 0.39537060260772705, -0.24783898890018463, -0.03807801380753517, -0.11295370757579803, -0.06800922751426697, 0.19135336577892303, -0.15662933886051178, 0.10909872502088547, 0.1959226131439209, 0.19133009016513824, 0.007116000168025494, -0.13883835077285767, 0.04009434953331947, 0.016986092552542686, -0.10044370591640472, 0.023666685447096825], [-0.1601194441318512, 0.27912625670433044, -0.13005167245864868, 0.26635944843292236, 0.1484704613685608, 0.08499611914157867, 0.07945332676172256, 0.29895922541618347, -0.06647494435310364, -0.016463812440633774, -0.03442376106977463, -0.0016673591453582048, -0.11215883493423462, -0.06904860585927963, 0.23218965530395508, -0.0016959563363343477, 0.38988903164863586, -0.07327529788017273, -0.2378639429807663, 0.12109693884849548, 0.014852957800030708, -0.01499334815889597, -0.20284010469913483, -0.15721625089645386, 0.06097833067178726, 