'use strict';

const weights = {"haggle/preprocess/kernel:0": [[0.06187758222222328, -0.05793897435069084, -0.19351746141910553, -0.15549032390117645, -0.18340584635734558, -0.1448299139738083, 0.2870042622089386, 0.10366751253604889, -0.010630099102854729, 0.24697282910346985, -0.18910403549671173, -0.17323242127895355, -0.03640118986368179, 0.07244440913200378, 0.25689026713371277, 0.04685944318771362, 0.005859388504177332, -0.2332056313753128, 0.16784097254276276, 0.19049537181854248, -0.16801343858242035, 0.07469385862350464, 0.023892151191830635, -0.20561933517456055, 0.24920344352722168, 0.04055327549576759, -0.14807507395744324, -0.12381447106599808, -0.14499346911907196, -0.2698148787021637, -0.024844957515597343, -0.5166942477226257, 0.07116000354290009, -0.3479529917240143, 0.1241767406463623, 0.3021625280380249, -0.20417693257331848, 0.08682212233543396, 0.20970973372459412, -0.14868728816509247, -0.09835080057382584, 0.126255601644516, -0.13149206340312958, 0.04603802412748337, 0.004409299697726965, 0.01702546328306198, -0.34909456968307495, 0.1598920226097107, 0.23760251700878143, -0.09103139489889145, -0.131930410861969, 0.041497692465782166, 0.25595200061798096, 0.10245846211910248, 0.29398423433303833, 0.18862284719944, 0.25383636355400085, 0.20058169960975647, -0.18854504823684692, 0.14985987544059753, 0.15342625975608826, 0.1652364283800125, 0.200319305062294, 0.038296911865472794], [0.3746744990348816, -0.09100421518087387, 0.08625020831823349, 0.24879948794841766, 0.11049637943506241, 0.16690269112586975, 0.06163932383060455, -0.1443064659833908, 0.08350178599357605, 0.1523182988166809, -0.16082406044006348, -0.7206707000732422, 0.06414378434419632, 0.012575584463775158, -0.017913876101374626, 0.25226104259490967, 0.3464502692222595, -0.28702884912490845, -0.24930284917354584, -0.34898409247398376, 0.28548943996429443, 0.09250139445066452, 0.0790177583694458, 0.1863517314195633, -0.06851242482662201, 0.10093969851732254, 0.30685651302337646, 0.285701185464859, 0.2491598278284073, -0.6559245586395264, -0.03742093965411186, -0.15806585550308228, 0.08855926990509033, -0.308729887008667, -0.015841681510210037, 0.49506476521492004, 0.08123940229415894, -0.09893050044775009, -0.1305438131093979, 0.05703967809677124, -0.8344578742980957, -0.17845091223716736, 0.03831915184855461, -0.3222571909427643, 0.5093744993209839, -0.5053750872612, -0.21674050390720367, -0.17491905391216278, -0.36231720447540283, -0.17422741651535034, -0.6160560250282288, -0.12309391796588898, 0.4021400511264801, 0.287971168756485, 0.0005620504962280393, 0.2883095443248749, -0.09463471919298172, -0.430579274892807, 0.23328712582588196, 0.04656098410487175, 0.08948799222707748, -0.08112050592899323, 0.42204347252845764, -0.08989600092172623], [0.19379858672618866, 0.36547020077705383, -0.9861192107200623, -0.012374956160783768, 0.05512794107198715, 0.19310171902179718, 0.3351364731788635, -0.23125779628753662, 0.09602061659097672, -0.10716969519853592, 0.1051069125533104, -0.09932660311460495, -0.33656245470046997, -0.315824031829834, -0.5742577910423279, 0.39431604743003845, 0.011596471071243286, 0.314287394285202, -0.07024988532066345, -0.04333379119634628, -0.3860699236392975, -0.6695470213890076, -0.04322680085897446, 0.060030970722436905, 0.48155033588409424, -0.08433365821838379, 0.15540359914302826, -0.4753437936306, -0.11453279852867126, 0.1636774241924286, 0.25341734290122986, 0.20992940664291382, -0.3480542004108429, -0.7333739399909973, 0.13572821021080017, 0.18217380344867706, 0.11194118112325668, -0.8751690983772278, 0.10150894522666931, 0.1314368098974228, 0.33911633491516113, 0.17494703829288483, 0.162272110581398, -0.11138726770877838, 0.15584224462509155, -0.206205815076828, -0.3062160015106201, 0.30694010853767395, 0.18864805996418, -0.3124958276748657, -0.21377168595790863, 0.32779815793037415, 0.30669376254081726, 0.25763365626335144, 0.4217658042907715, 0.25249627232551575, -0.2928585708141327, -0.5676489472389221, -0.11499764770269394, -0.032536111772060394, -0.006821094546467066, -0.037256017327308655, -0.41185474395751953, -0.3719513416290283], [0.22616751492023468, 0.2644028663635254, 0.015351040288805962, -0.21079851686954498, 0.11542710661888123, 0.3321422338485718, -0.4106637239456177, -0.7710184454917908, -1.0981309413909912, -0.14115601778030396, -0.16426075994968414, -0.1327916979789734, -0.7014675736427307, 0.16132676601409912, -0.1638232171535492, 0.18584127724170685, 0.2632956802845001, 0.2532427906990051, 0.1942378729581833, 0.2523845136165619, -0.4269496500492096, 0.34815365076065063, -0.6459077596664429, -0.2824324667453766, -0.03766556456685066, -0.7121884822845459, -0.13643237948417664, 0.19248709082603455, -1.027209997177124, 0.11926251649856567, -0.05082982778549194, 0.00308540603145957, -0.018051162362098694, 0.10498449951410294, 0.0674857646226883, 0.1615314483642578, 0.1432894766330719, 0.31141647696495056, -0.5722324252128601, 0.12398803234100342, 0.18530739843845367, 0.16839924454689026, -0.008151705376803875, -0.05537382885813713, 0.007246409077197313, -0.48206761479377747, -0.09979742020368576, -0.2014543116092682, -0.19028237462043762, -0.32670578360557556, -0.17401592433452606, 0.20684659481048584, 0.24950644373893738, 0.15450340509414673, 0.3162632882595062, -0.42822548747062683, 0.27837538719177246, 0.20010502636432648, 0.45425379276275635, 0.3181954026222229, 0.20894572138786316, 0.3616683781147003, 0.1136573776602745, -0.2003529667854309], [-0.08469817042350769, -0.17851218581199646, -0.24309855699539185, -0.06928618252277374, 0.17801067233085632, 0.08882725238800049, -0.010197117924690247, 0.001170128583908081, 0.05037283897399902, -0.10184566676616669, 0.20944207906723022, 0.037546128034591675, -0.1865411400794983, -0.09027649462223053, -0.24340970814228058, -0.0809108316898346, -0.07022394239902496, 0.015680551528930664, -0.14171293377876282, 0.13566258549690247, 0.1806212067604065, 0.16905832290649414, -0.0864592045545578, -0.14492222666740417, 0.22126513719558716, -0.027874648571014404, 0.16212394833564758, -0.17335999011993408, 0.158419668674469, -0.0005722641944885254, 0.14282265305519104, 0.0704403817653656, -0.17445871233940125, 0.07217511534690857, 0.06730681657791138, 0.23792073130607605, 0.20606479048728943, -0.13905103504657745, -0.025580838322639465, -0.1417095810174942, -0.20672591030597687, 0.02535116672515869, -0.1260962039232254, -0.08295060694217682, -0.18981921672821045, 0.19197392463684082, -0.057254135608673096, 0.14044544100761414, -0.027953684329986572, 0.07645860314369202, 0.21108096837997437, -0.235652893781662, -0.009009972214698792, 0.06477996706962585, 0.224676251411438, 0.16895276308059692, 0.018588751554489136, 0.05803665518760681, 0.0017687082290649414, -0.17736560106277466, 0.12860381603240967, -0.14499035477638245, -0.12261199951171875, -0.041467130184173584], [0.22260352969169617, -0.08505856990814209, -0.24261640012264252, -0.10924002528190613, 0.05181202292442322, 0.1069469153881073, 0.24268877506256104, -0.1921292245388031, -0.20215372741222382, 0.14318355917930603, -0.15099698305130005, 0.24105745553970337, 0.19210639595985413, -0.2073090374469757, -0.09215262532234192, 0.005339980125427246, 0.11777761578559875, 0.1600867509841919, 0.0896964967250824, -0.10897836089134216, -0.17788395285606384, 0.047823190689086914, -0.12559373676776886, -0.09239739179611206, -0.14607594907283783, 0.12865066528320312, -0.19495368003845215, 0.011102765798568726, -0.14107444882392883, 0.20231178402900696, -0.20495444536209106, -0.0497279018163681, 0.19164317846298218, -0.18260736763477325, 0.2503356635570526, 0.12398326396942139, 0.0772462785243988, 0.0211639404296875, -0.0696311891078949, 0.2442118227481842, 0.15068072080612183, -0.027282491326332092, -0.1375647783279419, 0.05244430899620056, -0.2307838797569275, -0.004079371690750122, -0.03434257209300995, -0.11431276798248291, -0.05320964753627777, -0.030412763357162476, 0.11539289355278015, 0.016043812036514282, -0.23017966747283936, 0.03816506266593933, -0.05604080855846405, -0.18000417947769165, -0.19553889334201813, 0.13700774312019348, -0.12543891370296478, 0.20462843775749207, 0.022255122661590576, 0.21892225742340088, 0.054216980934143066, -0.12392893433570862], [-0.08373253047466278, 0.22176635265350342, -0.016682714223861694, 0.007507801055908203, 0.11103689670562744, -0.11893072724342346, -0.21209128201007843, -0.1579313576221466, 0.19155630469322205, 0.07152354717254639, -0.21607214212417603, -0.21917186677455902, 0.25060752034187317, -0.2220628261566162, -0.08892822265625, -0.1642957329750061, -0.17645180225372314, 0.04911068081855774, 0.2346360981464386, 0.16514673829078674, 0.058828532695770264, -0.06719985604286194, -0.047478049993515015, -0.1590048372745514, -0.23183028399944305, -0.1817629486322403, -0.08662930130958557, 0.13498282432556152, -0.06750470399856567, 0.13396194577217102, 0.19950488209724426, -0.14682790637016296, 0.13058847188949585, 0.033687740564346313, -0.1600043773651123, -0.06812240183353424, -0.02297598123550415, 0.03187260031700134, -0.009625628590583801, 0.012311190366744995, -0.008615776896476746, 0.057563185691833496, -0.22680655121803284, -0.13258007168769836, 0.11261627078056335, 0.22603002190589905, 0.20923197269439697, 0.12745380401611328, -0.23771238327026367, -0.20101378858089447, -0.21387863159179688, 0.026185989379882812, 0.026840120553970337, 0.03580600023269653, 0.20779874920845032, 0.19898787140846252, 0.08775019645690918, 0.18691208958625793, -0.07421164214611053, 0.0986376702785492, 0.18889254331588745, -0.18899595737457275, -0.17068922519683838, -0.2116195559501648], [-0.18193916976451874, -0.042136937379837036, 0.18607383966445923, -0.18898145854473114, -0.06711626052856445, 0.20225217938423157, 0.1805129051208496, 0.13172900676727295, -0.0997956395149231, 0.18096131086349487, -0.09399658441543579, 0.09665146470069885, 0.12449544668197632, -0.22817620635032654, -0.044474512338638306, 0.023459017276763916, 0.17458975315093994, -0.04709656536579132, -0.08288846909999847, -0.15134437382221222, -0.2174263447523117, -0.035376325249671936, -0.21025079488754272, 0.07780638337135315, -0.22190847992897034, -0.01200142502784729, -0.037106990814208984, -0.1782594621181488, 0.22260317206382751, -0.08849580585956573, -0.025881201028823853, 0.11890754103660583, 0.18456336855888367, -0.13114288449287415, -0.1519075334072113, 0.1408478319644928, 0.14867067337036133, -0.04244048893451691, 0.14346149563789368, 0.17737680673599243, -0.151109978556633, -0.09902073442935944, -0.13504362106323242, -0.18667636811733246, 0.2157006561756134, 0.21203544735908508, 0.00346258282661438, -0.06812737882137299, 0.17765411734580994, -0.0939934104681015, -0.07243478298187256, -0.1552530974149704, 0.09679940342903137, 0.14250287413597107, -0.15279480814933777, 0.12416225671768188, 0.24582558870315552, -0.07487702369689941, -0.1921847015619278, -0.1677783727645874, 0.01592978835105896, -0.14112704992294312, 0.14847326278686523, 0.22506919503211975], [0.19191819429397583, 0.17835849523544312, 0.10868340730667114, -0.18364441394805908, -0.14435307681560516, 0.057913124561309814, -0.013578996062278748, 0.2216481864452362, 0.24521321058273315, -0.006177440285682678, 0.2485659122467041, -0.11567546427249908, 0.12995129823684692, 0.017620176076889038, -0.06401678919792175, -0.20327579975128174, 0.1986611783504486, 0.1336701512336731, 0.049199193716049194, 0.01645815372467041, -0.14943307638168335, -0.07023030519485474, -0.24373595416545868, 0.007308512926101685, 0.23786363005638123, -0.04959745705127716, 0.020367413759231567, -0.12022943794727325, 0.03487786650657654, -0.09967911243438721, -0.15254315733909607, 0.13719964027404785, -0.1734147071838379, -0.05616232752799988, 0.1860765814781189, -0.12314653396606445, -0.22529220581054688, 0.2308591902256012, 0.17842841148376465, -0.033093228936195374, -0.0676669031381607, 0.06290885806083679, -0.19807788729667664, 0.027074217796325684, 0.06208223104476929, -0.14649249613285065, 0.19155317544937134, 0.16545221209526062, 0.12846434116363525, 0.2104349136352539, -0.061169445514678955, -0.13048523664474487, 0.24089425802230835, 0.08608734607696533, -0.12064503133296967, 0.07623398303985596, -0.02331984043121338, 0.03555998206138611, -0.13195273280143738, 0.04959002137184143, -0.20178858935832977, 0.1214485764503479, -0.15652453899383545, -0.03841648995876312], [-0.15522044897079468, 0.06301528215408325, 0.2451927363872528, -0.13960802555084229, -0.22761844098567963, 0.02423173189163208, -0.21239931881427765, 0.09704232215881348, 0.24669605493545532, 0.03589031100273132, -0.061754241585731506, -0.0623551607131958, 0.05437546968460083, 0.021819978952407837, 0.12332916259765625, 0.16576293110847473, -0.2148095667362213, -0.014726415276527405, 0.026557594537734985, 0.1980200707912445, 0.12171605229377747, 0.2139912247657776, 0.2136508822441101, -0.04327249526977539, -0.16140100359916687, 0.08271676301956177, -0.06286056339740753, 0.05407699942588806, -0.13501432538032532, 0.14899098873138428, -0.020048171281814575, 0.14302846789360046, -0.002119287848472595, 0.13272231817245483, -0.21316471695899963, -0.0834345668554306, -0.123959481716156, -0.06285151839256287, -0.053174346685409546, 0.17749807238578796, 0.12512415647506714, 0.05844992399215698, 0.011920958757400513, -0.02100241184234619, -0.12565845251083374, 0.00836402177810669, -0.13572615385055542, -0.15820014476776123, -0.07691475749015808, 0.12445685267448425, -0.23409870266914368, -0.22375057637691498, -0.07858441770076752, 0.07601496577262878, -0.14596593379974365, 0.06775438785552979, 0.23064008355140686, -0.13356073200702667, -0.07241261005401611, 0.029128730297088623, -0.14957046508789062, 0.18993425369262695, -0.20029616355895996, 0.08420377969741821], [-0.086636021733284, -0.2246761918067932, -0.16028839349746704, 0.03466498851776123, 0.16873687505722046, 0.18642035126686096, 0.14413684606552124, -0.07243549823760986, -0.03830006718635559, -0.038604333996772766, 0.240618497133255, 0.03388899564743042, -0.2158517688512802, -0.018524885177612305, 0.17197176814079285, -0.17369362711906433, -0.17822277545928955, 0.23294997215270996, 0.2502578794956207, 0.12776070833206177, 0.0832158625125885, 0.2256757915019989, -0.06455142796039581, 0.005479931831359863, 0.08428588509559631, -0.06240016222000122, -0.24353726208209991, 0.14671531319618225, -0.22031065821647644, 0.23972100019454956, 0.020634174346923828, -0.0362057089805603, -0.1857152283191681, 0.21915844082832336, 0.05867159366607666, 0.16727590560913086, -0.2097586989402771, 0.14408260583877563, -0.024643003940582275, -0.18849942088127136, -0.1195642352104187, -0.21508356928825378, -0.15767592191696167, -0.0015251338481903076, -0.11061669886112213, 0.02577221393585205, -0.15306173264980316, 0.02851182222366333, -0.08089418709278107, 0.02946937084197998, -0.014657512307167053, 0.08824792504310608, 0.20836597681045532, 0.0853123664855957, 0.1825067102909088, 0.17543834447860718, 0.2430744171142578, 0.23535576462745667, 0.05637413263320923, 0.20918923616409302, 0.05424651503562927, 0.17954528331756592, -0.15614353120326996, 0.08634313941001892], [0.2769853472709656, -0.23448818922042847, -0.04341060295701027, 0.005484364461153746, 0.21387700736522675, 0.08588869124650955, -0.14198431372642517, -0.06860688328742981, -0.06622232496738434, -0.12594275176525116, -0.12318494915962219, 0.22813592851161957, -0.047452837228775024, -0.19883322715759277, -0.08719385415315628, 0.04885886237025261, 0.1737227439880371, -0.3540312647819519, -0.2880420982837677, -0.2209935337305069, -0.1594030261039734, -0.04156425595283508, -0.028003768995404243, 0.06414555758237839, -0.23626692593097687, -0.053159501403570175, 0.1924065202474594, -0.20347994565963745, -0.021960660815238953, 0.17013059556484222, -0.038009852170944214, -0.16989953815937042, -0.2930470407009125, 0.10140178352594376, -0.15770499408245087, 0.060036249458789825, -0.1636728197336197, -0.05179775133728981, -0.05137811228632927, 0.13943849503993988, 0.10838901996612549, -0.03594953939318657, 0.01239689253270626, 0.0013833065750077367, 0.15785330533981323, 0.09090607613325119, 0.006115109659731388, -0.03331195190548897, -0.0672309622168541, 0.12763340771198273, 0.09241661429405212, -0.09972462058067322, -0.04077265039086342, -0.08137035369873047, 0.06128564104437828, 0.2527518570423126, -0.2039192020893097, 0.1206495463848114, -0.08646522462368011, 0.22110940515995026, 0.015104268677532673, -0.3042882978916168, 0.12390663474798203, 0.025136055424809456], [-0.11506984382867813, 0.11651016026735306, 0.113761767745018, 0.09381073713302612, -0.14571651816368103, 0.07618200033903122, -0.289715975522995, -0.05609285086393356, -0.10255709290504456, 0.13424985110759735, 0.08865614980459213, 0.07155823707580566, 0.05269269272685051, -0.23705899715423584, 0.07093846797943115, -0.025605270639061928, -0.26602524518966675, 0.020249856635928154, -0.02310277707874775, -0.06791055202484131, -0.13139589130878448, 0.01913638226687908, -0.09481354057788849, 0.061479948461055756, 0.1641642153263092, -0.17218130826950073, 0.14748388528823853, 0.15109942853450775, 0.013267788104712963, -0.03537001460790634, -0.018493108451366425, 0.16752824187278748, -0.1290704905986786, 0.12869426608085632, 0.0014141736319288611, -0.17170500755310059, -0.25866204500198364, -0.026065967977046967, -0.03472425788640976, 0.21193575859069824, -0.16909541189670563, 0.015222730115056038, -0.07844267040491104, -0.24934121966362, -0.1667119413614273, -0.04832109436392784, 0.024405378848314285, 0.053036727011203766, -0.15500980615615845, 0.0465029776096344, -0.06939037144184113, 0.12116183340549469, 0.06313854455947876, 0.1811385452747345, 0.062309447675943375, 0.16488902270793915, -0.12221750617027283, 0.06873311847448349, -0.33670204877853394, -0.18738454580307007, 0.23312018811702728, -0.20443366467952728, -0.47424760460853577, 0.10200106352567673], [0.0953526496887207, 0.14970867335796356, 0.06846810132265091, 0.05315426364541054, 0.15428230166435242, 0.1643543690443039, 0.008379943668842316, 0.2014772742986679, -0.004421076737344265, -0.10232541710138321, 0.025100691244006157, 0.06470024585723877, 0.17810456454753876, 0.2276126742362976, -0.09370299428701401, -0.06710271537303925, 0.08629675209522247, 0.13358859717845917, 0.1516607403755188, 0.24740570783615112, 0.010974781587719917, -0.22798317670822144, 0.1855527013540268, 0.18348385393619537, -0.24542008340358734, 0.10516228526830673, 0.011739188805222511, -0.017029032111167908, 0.1986081898212433, 0.005011374596506357, -0.04681071266531944, 0.07410234212875366, -0.06215286627411842, 0.0213936697691679, 0.1844722181558609, 0.01897936500608921, -0.26050394773483276, -0.12331610172986984, 0.17588967084884644, 0.23395679891109467, -0.13665729761123657, 0.09413480013608932, 0.030992254614830017, 0.08417432755231857, -0.26425468921661377, 0.04747384041547775, -0.04053422808647156, -0.16157150268554688, -0.0038093531038612127, 0.022255316376686096, 0.12299660593271255, 0.12161846458911896, -0.09097487479448318, 0.022884275764226913, 0.12408515065908432, -0.5001066327095032, 0.08080986887216568, -0.038852281868457794, 0.2200782299041748, 0.11243929713964462, 0.2742704451084137, 0.08983130007982254, 0.08498115837574005, 0.12196919322013855], [-0.18188974261283875, -0.09606704115867615, 0.23380893468856812, -0.14637038111686707, -0.22486498951911926, 0.06856715679168701, 0.16569283604621887, -0.04511573910713196, -0.05362690985202789, 0.22234952449798584, -0.0378442108631134, 0.21228229999542236, -0.11254897713661194, 0.010295867919921875, 0.008743226528167725, -0.07644332945346832, 0.0400223433971405, 0.03050893545150757, -0.04772725701332092, 0.17972061038017273, -0.1291598528623581, 0.16599085927009583, 0.05151769518852234, 0.1209959089756012, 0.1747470200061798, 0.15102148056030273, 0.03228691220283508, -0.15613573789596558, 0.10474991798400879, 0.21227487921714783, 0.024268031120300293, -0.12986034154891968, 0.04888713359832764, 0.08703118562698364, -0.21790100634098053, -0.0917254090309143, 0.24227246642112732, 0.09025600552558899, 0.18541181087493896, -0.14405739307403564, -0.020723074674606323, -0.05026991665363312, 0.17656031250953674, -0.026338845491409302, -0.03215247392654419, 0.18079233169555664, 0.08954951167106628, 0.21669229865074158, 0.1473200023174286, -0.23285025358200073, -0.15598438680171967, -0.028569698333740234, 0.19656145572662354, 0.16059091687202454, 0.20332348346710205, -0.1568484604358673, -0.14982977509498596, 0.019814908504486084, -0.14515471458435059, 0.00898122787475586, 0.048596709966659546, 0.2273654043674469, -0.027867823839187622, -0.17271144688129425], [-0.03889462351799011, 0.05951926112174988, 0.2039906084537506, 0.07058805227279663, -0.0906457006931305, 0.02354961633682251, -0.09010656177997589, 0.17671939730644226, 0.21139958500862122, 0.09675082564353943, 0.07967239618301392, -0.20587430894374847, 0.076119065284729, 0.18874746561050415, 0.1256522238254547, 0.11053898930549622, -0.1316400170326233, 0.06108585000038147, -0.0571172833442688, 0.12346139550209045, 0.14202234148979187, 0.14332610368728638, 0.185957670211792, 0.16904988884925842, -0.17557483911514282, 0.17416012287139893, -0.04036949574947357, 0.05514168739318848, 0.15368014574050903, 0.24357974529266357, -0.020863637328147888, 0.08141079545021057, 0.13322585821151733, -0.06930522620677948, 0.2225828468799591, 0.1869071125984192, 0.0020016133785247803, -0.052880510687828064, 0.14639517664909363, -0.20892459154129028, -0.22315242886543274, 0.016455799341201782, 0.008418887853622437, -0.0306243896484375, 0.14614185690879822, -0.0678943544626236, 0.10805174708366394, -0.089278444647789, -0.13612741231918335, -0.07179228961467743, -0.03946252167224884, -0.20700812339782715, -0.2500613331794739, 0.02268993854522705, 0.17560091614723206, -0.08656561374664307, -0.15139584243297577, 0.24897333979606628, 0.12723314762115479, -0.1588059663772583, -0.19024337828159332, 0.08276888728141785, -0.1919603794813156, -0.1821802854537964], [0.1547071933746338, 0.07562059164047241, -0.21855728328227997, -0.1299598067998886, -0.15214470028877258, 0.10599464178085327, -0.2373788207769394, -0.1899513304233551, -0.09927155077457428, -0.21985726058483124, 0.1718195080757141, -0.046681687235832214, 0.0829213559627533, -0.022427856922149658, 0.0499214231967926, 0.22765055298805237, 0.14461737871170044, 0.1104888916015625, 0.012545466423034668, -0.2079107165336609, 0.17698794603347778, -0.10974584519863129, 0.07201015949249268, -0.13705380260944366, 0.09518468379974365, -0.11645343899726868, 0.18851447105407715, 0.21528208255767822, 0.10143360495567322, -0.22826585173606873, 0.1750067174434662, 0.1962794065475464, -0.024532631039619446, -0.04906389117240906, 0.04302754998207092, 0.21029305458068848, -0.15314999222755432, -0.04264731705188751, 0.19490981101989746, -0.013437464833259583, -0.05049489438533783, 0.12171024084091187, 0.19441872835159302, 0.2127099335193634, 0.08316794037818909, -0.15590433776378632, -0.2391025274991989, -0.2003709375858307, 0.22380557656288147, -0.18388211727142334, -0.14521929621696472, 0.24007666110992432, -0.12822489440441132, 0.005798518657684326, -0.04638168215751648, 0.12362492084503174, -0.03790868818759918, 0.009972900152206421, 0.18466109037399292, -0.2479591816663742, 0.058471232652664185, 0.010890305042266846, -0.06140708923339844, 0.17240291833877563], [-0.21273857355117798, 0.06904482841491699, 0.21463605761528015, -0.140097975730896, -0.002866700291633606, 0.20938917994499207, -0.23377496004104614, 0.048338353633880615, -0.1319257616996765, -0.11134085059165955, -0.21023383736610413, -0.015312522649765015, 0.11549967527389526, -0.05216360092163086, -0.23162758350372314, 0.13728934526443481, -0.0316893607378006, -0.20629030466079712, 0.14991247653961182, -0.056282877922058105, -0.21160511672496796, -0.04326380789279938, 0.04454246163368225, 0.07757827639579773, -0.1982729285955429, -0.24192793667316437, -0.23943591117858887, -0.06449493765830994, -0.15571710467338562, 0.03945714235305786, 0.1289793848991394, 0.007932662963867188, -0.16775387525558472, 0.06295672059059143, 0.09373834729194641, -0.22698108851909637, -0.21982263028621674, 0.09411215782165527, -0.24755054712295532, 0.0772864818572998, 0.18587246537208557, 0.12937921285629272, 0.20412716269493103, 0.20795804262161255, 0.05193573236465454, -0.13004818558692932, -0.15379482507705688, 0.18352529406547546, -0.12993943691253662, -0.03509543836116791, -0.09229235351085663, -0.14543214440345764, -0.030063018202781677, 0.17986547946929932, -0.00711311399936676, -0.02995738387107849, -0.1172478199005127, -0.23970386385917664, -0.049800336360931396, 0.17157793045043945, -0.1614852398633957, -0.22715359926223755, -0.19403938949108124, 0.07278841733932495], [-0.21373309195041656, -0.10800535976886749, -0.09771956503391266, -0.23575715720653534, 0.2351122498512268, -0.22319412231445312, 0.16574028134346008, 0.20268985629081726, 0.1735546588897705, 0.004021555185317993, -0.0890418291091919, -0.1831706464290619, 0.2116222381591797, 0.16622686386108398, 0.013607144355773926, 0.014335215091705322, 0.17543846368789673, 0.015131384134292603, 0.1994941532611847, -0.077210932970047, 0.22222334146499634, 0.07625040411949158, 0.12561196088790894, -0.15344376862049103, -0.1766650378704071, 0.1707606017589569, 0.04253929853439331, 0.1662246584892273, 0.17640194296836853, -0.12798061966896057, -0.2322588711977005, -0.12406279146671295, 0.21164599061012268, 0.18839934468269348, -0.10827559232711792, -0.21434083580970764, -0.21977828443050385, -0.12796449661254883, 0.10836318135261536, -0.18347755074501038, 0.02226373553276062, -0.11321459710597992, -0.2178989052772522, 0.16750797629356384, -0.20164203643798828, 0.0011352598667144775, 0.24528762698173523, -0.16063261032104492, -0.18965989351272583, -0.23198635876178741, 0.012180864810943604, 0.0023443400859832764, 0.1889864206314087, 0.15860620141029358, -0.007466018199920654, -0.11405374109745026, -0.22523126006126404, 0.20494964718818665, -0.15937507152557373, -0.22758081555366516, 0.00833943486213684, -0.10717323422431946, 0.19111576676368713, -0.02707056701183319], [0.08267581462860107, -0.24770039319992065, -0.23756864666938782, -0.04266625642776489, -0.2421017587184906, -0.11136788129806519, -0.12674254179000854, -0.15521815419197083, -0.01654946804046631, -0.21455880999565125, 0.19973167777061462, -0.03435252606868744, 0.03393968939781189, -0.171306312084198, 0.17803546786308289, -0.011522382497787476, -0.1733366847038269, 0.22707700729370117, -0.011336281895637512, -0.14191605150699615, -0.06346866488456726, -0.23267008364200592, -0.1673746556043625, 0.1490650475025177, 0.09409767389297485, -0.11926063895225525, -0.013826742768287659, -0.22795043885707855, -0.17792409658432007, 0.08869579434394836, 0.018498212099075317, -0.14645318686962128, 0.021556109189987183, 0.038493067026138306, -0.02675473690032959, -0.19514426589012146, -0.16576047241687775, -0.09131228923797607, 0.01227685809135437, -0.09985741972923279, -0.08868363499641418, -0.17224930226802826, 0.19126570224761963, -0.2424132078886032, -0.17688804864883423, 0.12040716409683228, 0.1546773612499237, 0.09187754988670349, 0.2333911955356598, 0.17897677421569824, 0.016651034355163574, -0.1720436066389084, -0.10416662693023682, -0.245823472738266, -0.024277865886688232, 0.1616230010986328, -0.016704291105270386, -0.01986326277256012, 0.0906517505645752, 0.1428883969783783, -0.2295440137386322, 0.018972933292388916, 0.22178703546524048, -0.19961687922477722], [-0.14869937300682068, 0.2271619737148285, -0.08468414843082428, 0.14307233691215515, 0.11053892970085144, -0.11807563900947571, -0.14013554155826569, -0.2273874580860138, 0.07921949028968811, 0.03355860710144043, 0.011232912540435791, 0.22414740920066833, 0.22486475110054016, -0.04113344848155975, -0.0956154465675354, -0.1403665840625763, 0.07965999841690063, -0.05280101299285889, 0.18072471022605896, 0.18508431315422058, -0.13662922382354736, 0.035676032304763794, 0.12916770577430725, -0.06905190646648407, -0.032979801297187805, -0.11932097375392914, -0.16546395421028137, 0.09135302901268005, 0.06821843981742859, -0.13692204654216766, -0.17378468811511993, 0.011292368173599243, 0.021557122468948364, 0.006975233554840088, 0.18603423237800598, -0.22980913519859314, -0.10677388310432434, -0.06628862023353577, -0.2347399890422821, -0.1629861742258072, -0.10628339648246765, -0.0912732183933258, 0.19502043724060059, -0.028144046664237976, -0.011343821883201599, 0.046415776014328, 0.08651390671730042, 0.06901127099990845, -0.2143632471561432, 0.03667551279067993, 0.15362957119941711, -0.03440038859844208, -0.13213391602039337, 0.20062953233718872, -0.0055971890687942505, 0.2176850140094757, -0.030722782015800476, 0.24023005366325378, -0.15645331144332886, -0.14090895652770996, -0.08727695047855377, -0.1758624017238617, 0.028951197862625122, -0.20204299688339233], [-0.028557144105434418, 0.0550449937582016, -0.033011578023433685, -0.3334433138370514, 0.17245951294898987, -0.24633879959583282, -0.0008904256392270327, 0.06693822890520096, 0.1618959605693817, 0.1012108251452446, -0.05241319164633751, -0.04428970813751221, -0.09938523918390274, -0.13291604816913605, 0.036425504833459854, 0.2646937072277069, -0.21048380434513092, -0.01925802044570446, -0.08909732848405838, -0.09631049633026123, 0.2094283550977707, 0.05584085360169411, -0.032543033361434937, 0.17074890434741974, -0.0009215569007210433, 0.1361103653907776, 0.062484391033649445, -0.09890870749950409, -0.15986619889736176, 0.11345002800226212, 0.2155558317899704, 0.0777696743607521, -0.004836910869926214, 0.06091448664665222, -0.1614304482936859, -0.19169211387634277, 0.16964507102966309, 0.258718878030777, -0.058011770248413086, -0.06813012808561325, 0.1957901120185852, 0.1324814260005951, 0.13819736242294312, -0.254497766494751, -0.1527402698993683, 0.23698166012763977, 0.19461070001125336, 0.27305465936660767, -0.014330162666738033, 0.06029565632343292, 0.06225193664431572, 0.10878195613622665, -0.16377083957195282, -0.22083571553230286, 0.17097653448581696, -0.06548086553812027, -0.062223318964242935, 0.18188945949077606, 0.029669534415006638, 0.11655186861753464, -0.20208467543125153, 0.2854328155517578, -0.13198593258857727, -0.07138732820749283], [0.2226540893316269, -0.05668910592794418, -0.009765710681676865, 0.1913401037454605, -0.04289688915014267, 0.07599236816167831, -0.18647423386573792, 0.19130496680736542, 0.15914393961429596, -0.3072349727153778, 0.20225609838962555, 0.06185383349657059, 0.23183020949363708, -0.050000131130218506, 0.32840919494628906, -0.2507922649383545, 0.023732943460345268, -0.025699453428387642, -0.17213907837867737, -0.060060203075408936, -0.014105544425547123, 0.1788407862186432, -0.023168785497546196, 0.006175667978823185, -0.10928486287593842, 0.0017732793930917978, 0.08519359678030014, 0.16266438364982605, -0.018803011626005173, -0.19781970977783203, 0.08005325496196747, 0.0188851747661829, -0.0807916596531868, -0.05825761333107948, 0.05335773527622223, -0.02881513349711895, -0.029634689912199974, 0.09720875322818756, -0.03586404770612717, -0.049716416746377945, -0.03611814230680466, -0.12647639214992523, 0.100119948387146, 0.1815434843301773, -0.01743190735578537, 0.12171455472707748, 0.29140985012054443, 0.19878795742988586, 0.03614025190472603, 0.21587735414505005, 0.1366576850414276, -0.306253582239151, 0.15965604782104492, 0.147899329662323, -0.2461007535457611, -0.05757568031549454, 0.28345340490341187, 0.03859313949942589, -0.005528304260224104, -0.0666445791721344, 0.02261706069111824, -0.15163113176822662, 0.042978402227163315, 0.09726150333881378], [0.18528608977794647, -0.17173095047473907, 0.08139195293188095, 0.08284096419811249, -0.11266764998435974, -0.27035975456237793, 0.32491618394851685, 0.269599586725235, -0.04685555398464203, -0.3455660939216614, 0.10617268830537796, 0.1623874455690384, 0.09892431646585464, -0.2877867519855499, -0.052600085735321045, 0.047158002853393555, -0.07653085142374039, 0.21541579067707062, 0.1291256844997406, -0.05423906818032265, 0.2462405264377594, -0.024091549217700958, 0.1788608580827713, 0.14004546403884888, -0.014507399871945381, 0.1789008229970932, -0.11783716082572937, -0.1988745629787445, 0.10825810581445694, -0.074869804084301, 0.052087657153606415, 0.11283038556575775, 0.17715536057949066, 0.13019366562366486, -0.3309825360774994, 0.12542542815208435, -0.239821657538414, 0.13714396953582764, 0.19912602007389069, 0.10534989088773727, -0.03302301838994026, 0.0780075266957283, -0.068052738904953, -0.25598451495170593, 0.15410412847995758, 0.1530764400959015, 0.09162438660860062, -0.03949999809265137, 0.2946968674659729, 0.2386554777622223, 0.3157004415988922, -0.1816992163658142, -0.1348874717950821, 0.20112867653369904, 0.04498431831598282, -0.01742907427251339, 0.03908393159508705, -0.020376630127429962, -0.18130554258823395, -0.3337937295436859, 0.19371549785137177, -0.28842493891716003, 0.12420257180929184, -0.13382196426391602], [-0.2140103280544281, -0.13444602489471436, 0.19353333115577698, -0.24595841765403748, -0.24860478937625885, 0.09681954979896545, -0.19826075434684753, -0.1835729479789734, -0.17697452008724213, -0.14851176738739014, 0.24749872088432312, -0.01949453353881836, 0.24849629402160645, -0.20654381811618805, 0.18363824486732483, 0.23396053910255432, 0.2070656418800354, -0.10830464959144592, -0.09026186168193817, -0.11655925214290619, -0.0457620769739151, 0.2494296133518219, 0.0801728367805481, 0.19546058773994446, 0.20094847679138184, 0.19915270805358887, -0.19805416464805603, -0.14925667643547058, -0.21603050827980042, -0.11200498044490814, 0.13296645879745483, 0.008161067962646484, 0.12512356042861938, 0.030019640922546387, 0.12446781992912292, 0.19850113987922668, 0.13864371180534363, -0.1338673233985901, 0.0456489622592926, 0.1387138068675995, 0.013277918100357056, -0.04340198636054993, -0.05067680776119232, -0.12026563286781311, -0.19574464857578278, 0.14333125948905945, 0.19162023067474365, 0.017842233180999756, 0.07165992259979248, -0.20450788736343384, -0.14387577772140503, -0.19488200545310974, -0.07583138346672058, -0.18870344758033752, -0.16477519273757935, 0.012973397970199585, -0.21686707437038422, 0.012716889381408691, -0.2091103345155716, 0.16409888863563538, 0.10094150900840759, 0.05429559946060181, 0.14714932441711426, -0.09123295545578003], [0.25034311413764954, -0.16358402371406555, -0.03172843158245087, 0.25030317902565, 0.12540918588638306, -0.17532265186309814, 0.008165210485458374, 0.18113428354263306, -0.05677521228790283, 0.09417453408241272, -0.23500986397266388, -0.1304314136505127, -0.07704214751720428, 0.19254949688911438, -0.1578127145767212, 0.24908939003944397, -0.13136404752731323, -0.05498141050338745, 0.02526038885116577, 0.11138418316841125, 0.06079268455505371, 0.22414004802703857, -0.16205008327960968, -0.006896689534187317, 0.012419462203979492, -0.05743904411792755, -0.2504676282405853, 0.21337434649467468, -0.15253403782844543, 0.1835709512233734, -0.0554623007774353, -0.010037869215011597, -0.03303182125091553, -0.09431751072406769, -0.23271167278289795, 0.1089303195476532, 0.08233129978179932, -0.07844895124435425, -0.1237064003944397, 0.18919864296913147, -0.04275517165660858, -0.19447410106658936, -0.2342522144317627, 0.22114625573158264, -0.23395375907421112, 0.20020058751106262, 0.022135525941848755, 0.07536667585372925, 0.1881515383720398, -0.07324804365634918, -0.2178943008184433, 0.13158118724822998, 0.2104925811290741, 0.106128990650177, 0.21988746523857117, -0.08276510238647461, -0.060661643743515015, -0.06931667029857635, -0.1113026887178421, -0.06907257437705994, -0.17536410689353943, 0.1070343554019928, -0.20003683865070343, 0.02179655432701111], [-0.16491934657096863, -0.09973560273647308, 0.06329357624053955, 0.07879287004470825, 0.03425028920173645, 0.24197059869766235, -0.18633854389190674, -0.12118308246135712, 0.09213241934776306, 0.13560691475868225, 0.05685532093048096, -0.02497333288192749, 0.06698450446128845, 0.06601917743682861, 0.01831170916557312, -0.007118508219718933, 0.1571890413761139, 0.0855371356010437, 0.10791236162185669, 0.0735774040222168, -0.11306510865688324, -0.18335884809494019, 0.028589457273483276, 0.01638779044151306, -0.05379408597946167, -0.023570001125335693, -0.20372799038887024, 0.09891539812088013, 0.2084103226661682, 0.16470599174499512, -0.1427830010652542, 0.08294036984443665, 0.21903854608535767, -0.11502596735954285, -0.076576828956604, 0.10106277465820312, 0.13686034083366394, 0.1673649549484253, 0.20480531454086304, 0.053849995136260986, 0.07025361061096191, -0.16089600324630737, 0.10200977325439453, -0.2084396779537201, 0.1677546501159668, 0.16135120391845703, 0.19145622849464417, 0.09972146153450012, 0.1632196605205536, 0.13213464617729187, -0.12319625914096832, 0.04252544045448303, 0.051638901233673096, -0.24307626485824585, -0.17057257890701294, -0.2259790301322937, 0.05463063716888428, -0.24033023416996002, 0.10999426245689392, 0.17872950434684753, -0.15480360388755798, -0.04656641185283661, -0.1811760663986206, 0.1181144118309021], [0.16133591532707214, 0.007542788982391357, 0.028207749128341675, 0.16600117087364197, 0.19972077012062073, 0.00556221604347229, -0.15009474754333496, -0.1637919545173645, 0.1526820957660675, -0.2169155478477478, 0.10989642143249512, 0.005071073770523071, 0.19440573453903198, -0.2203512191772461, -0.22988057136535645, -0.08421534299850464, 0.11104965209960938, 0.05175897479057312, 0.07987073063850403, -0.05365590751171112, -0.020319536328315735, 0.1114092767238617, 0.24604398012161255, 0.12045744061470032, -0.23292191326618195, 0.20525187253952026, -0.1939428746700287, 0.21744772791862488, -0.13635936379432678, 0.21358725428581238, -0.04253174364566803, 0.014887958765029907, 0.13833442330360413, 0.15355876088142395, -0.15727896988391876, -0.15954552590847015, 0.020481497049331665, 0.15636205673217773, 0.0016051232814788818, -0.11118584871292114, 0.14854153990745544, -0.21209362149238586, 0.24512597918510437, 0.003639698028564453, 0.05389240384101868, -0.12265430390834808, 0.07723298668861389, -0.12943990528583527, 0.04957062005996704, 0.021959900856018066, -0.05684801936149597, 0.018966883420944214, -0.020755916833877563, 0.19035056233406067, 0.1766543686389923, 0.10597386956214905, 0.0993729829788208, -0.06501351296901703, 0.08431360125541687, 0.10632804036140442, 0.05676472187042236, -0.2061956375837326, 0.1484719216823578, 0.1382959485054016], [0.2141069769859314, 0.23198026418685913, 0.06713587045669556, 0.10032334923744202, -0.07216466963291168, -0.09932984411716461, 0.1069769561290741, -0.11008287966251373, 0.16471078991889954, -0.065069779753685, -0.23230284452438354, -0.014047428965568542, 0.114155113697052, -0.05923980474472046, 0.24518591165542603, -0.04164113104343414, -0.06826391816139221, 0.10127308964729309, 0.20378431677818298, -0.020393893122673035, 0.12553560733795166, 0.04959079623222351, 0.04283946752548218, -0.22747044265270233, 0.06811726093292236, 0.1859571635723114, -0.06391720473766327, 0.20453831553459167, 0.17269191145896912, -0.20123177766799927, -0.11760661005973816, 0.037539541721343994, 0.22319963574409485, -0.1781385987997055, 0.02349594235420227, -0.009132087230682373, 0.05248716473579407, 0.08847206830978394, 0.13062554597854614, -0.14200586080551147, 0.14733344316482544, -0.23238876461982727, -0.24662572145462036, -0.0010760724544525146, 0.058778613805770874, -0.11085648834705353, 0.10032021999359131, -0.16071847081184387, 0.19446218013763428, -0.21953321993350983, -0.059555456042289734, 0.059525132179260254, 0.23634463548660278, 0.22263070940971375, -0.10839267075061798, -0.15246650576591492, 0.13580229878425598, 0.12136471271514893, 0.1339738667011261, -0.16029959917068481, 0.04339706897735596, -0.08819237351417542, 0.10251584649085999, -0.16839468479156494], [0.07307806611061096, -0.05376286804676056, -0.024307042360305786, 0.03367540240287781, -0.18788304924964905, 0.21699032187461853, 0.09027725458145142, 0.23565301299095154, 0.027643144130706787, 0.13548457622528076, -0.0394417941570282, 0.04712453484535217, -0.1524701714515686, -0.10246449708938599, 0.01442381739616394, 0.22253480553627014, 0.1564895510673523, -0.2222796082496643, -0.11054234206676483, 0.052528977394104004, 0.17935535311698914, -0.2126225233078003, 0.22486421465873718, 0.07909029722213745, -0.19579502940177917, 0.19815847277641296, -0.02745877206325531, 0.23311227560043335, 0.0207403302192688, 0.23728787899017334, 0.24622371792793274, 0.1690276563167572, 0.24561414122581482, -0.12495046854019165, 0.15169093012809753, 0.16227182745933533, -0.07558088004589081, -0.07394932210445404, -0.20124483108520508, 0.0907733142375946, 0.14046239852905273, -0.17225584387779236, -0.08762136101722717, 0.03526860475540161, 0.06510484218597412, 0.18582069873809814, -0.11609393358230591, -0.16656342148780823, 0.05409073829650879, 0.07366326451301575, -0.10589195787906647, 0.010177403688430786, -0.1490350365638733, 0.10585054755210876, -0.07775989174842834, -0.19929254055023193, -0.23314109444618225, 0.18685618042945862, -0.14586079120635986, -0.14725781977176666, 0.18014925718307495, -0.24035270512104034, -0.01032865047454834, -0.08235178887844086], [-0.036129429936409, -0.14094138145446777, 0.19155791401863098, 0.19374045729637146, 0.03216761350631714, -0.017681419849395752, 0.079395592212677, -0.13425788283348083, 0.11023604869842529, -0.1984330266714096, -0.10558044910430908, -0.02651423215866089, 0.01330152153968811, -0.06778483092784882, 0.22281131148338318, 0.24971380829811096, 0.10045468807220459, -0.03983089327812195, 0.10014531016349792, -0.06396321952342987, 0.07552477717399597, -0.17145323753356934, 0.22553887963294983, 0.15781259536743164, -0.15778228640556335, 0.047979265451431274, -0.21017399430274963, -0.18376430869102478, 0.22789806127548218, 0.05639755725860596, -0.21525253355503082, 0.07219564914703369, -0.09552645683288574, -0.05326147377490997, 0.08786121010780334, -0.0392819344997406, -0.06485281884670258, 0.18395310640335083, 0.19443723559379578, -0.04245714843273163, 0.08495250344276428, 0.14598792791366577, -0.08613570034503937, -0.0876631885766983, -0.009495913982391357, -0.03785601258277893, -0.19703389704227448, -0.11901204288005829, 0.23760423064231873, 0.08267229795455933, -0.2064770758152008, 0.14196068048477173, 0.17469483613967896, -0.18297436833381653, 0.061912596225738525, -0.025430500507354736, -0.0011349618434906006, -0.08407118916511536, 0.2028345763683319, 0.2168031930923462, -0.22622187435626984, -0.01999148726463318, 0.07583275437355042, -0.10224460065364838]], "haggle/preprocess/bias:0": [-0.02717113308608532, -0.10036081820726395, 0.12274305522441864, -0.014527822844684124, -0.08343770354986191, -0.1254209727048874, 0.11120336502790451, 0.13798658549785614, 0.11718282848596573, -0.08334225416183472, 0.10539430379867554, 0.13677291572093964, 0.16372065246105194, -0.09879578649997711, 0.22195133566856384, -0.02824047952890396, -0.0874045193195343, 0.0588868111371994, -0.10173657536506653, -0.03588108718395233, 0.06561781466007233, 0.0387701578438282, 0.028028003871440887, -0.01276900339871645, -0.0010370565578341484, 0.09543271362781525, -0.08499234169721603, 0.01687891036272049, 0.19182457029819489, 0.021816477179527283, -0.02897886373102665, 0.009214615449309349, 0.025683339685201645, 0.09564059227705002, -0.11647313833236694, -0.048248786479234695, -0.04979144036769867, 0.14459748566150665, 0.08647444099187851, -0.058027882128953934, 0.18464137613773346, -0.076595738530159, -0.1160736009478569, -0.050015173852443695, -0.0386476032435894, 0.21802793443202972, 0.1783718764781952, -0.025861211121082306, 0.1606750786304474, 0.23374086618423462, 0.11471724510192871, -0.13125385344028473, -0.11246661841869354, -0.09180670231580734, -0.07974142581224442, -0.12405555695295334, -0.009824610315263271, 0.1268422156572342, -0.04612087458372116, -0.04817303270101547, -0.04765159636735916, -0.018099091947078705, 0.004272571764886379, 0.016285298392176628], "haggle/lstm/kernel:0": [[-0.07254697382450104, -0.033955320715904236, 0.051695287227630615, 0.07592017203569412, 0.2625120282173157, 0.0571475550532341, -0.09361555427312851, 0.16085098683834076, -0.0005816436023451388, 0.05968717485666275, 0.04587089270353317, 0.11330919712781906, -0.022495802491903305, -0.003616982139647007, -0.08802960813045502, -0.08298168331384659, -0.08970189839601517, 0.05718057602643967, 0.1825728714466095, 0.2311314344406128, 0.21881966292858124, 0.008054204285144806, -0.08442586660385132, -0.049108151346445084, -0.05697587877511978, -0.06100044026970863, -0.0019878088496625423, 0.000541401095688343, -0.033128153532743454, 0.24214164912700653, 0.040997155010700226, -0.045939039438962936, -0.030951257795095444, 0.11060135811567307, -0.042501937597990036, -0.025553178042173386, 0.18288247287273407, 0.08610258996486664, -0.02934972383081913, -0.09034281969070435, -0.016472898423671722, -0.09682021290063858, 0.10119873285293579, -0.013468225486576557, -0.015232288278639317, -0.13129471242427826, -0.03702867031097412, 0.04927054047584534, 0.1937747448682785, 0.10088174790143967, 0.19029557704925537, 0.15764452517032623, 0.1989707499742508, 0.05092781409621239, 0.1861804574728012, 0.003064280143007636, 0.027643661946058273, -0.03587784990668297, 0.05758174881339073, -0.18383297324180603, 0.2171114683151245, 0.045100875198841095, 0.15009038150310516, 0.028228268027305603, -0.1392575204372406, 0.0008169059874489903, 0.04119163006544113, 0.04108242690563202, -0.01929560676217079, 0.08891822397708893, -0.00852846447378397, 0.07816854119300842, -0.003730420023202896, -0.07285445183515549, -0.023673614487051964, 0.23334477841854095, -0.08744780719280243, -0.15886986255645752, 0.030440855771303177, -0.04839235544204712, -0.03436754643917084, -0.12223730236291885, 0.14177222549915314, 0.07413788884878159, 0.09115460515022278, 0.09924159944057465, -0.08339812606573105, -0.012395964004099369, 0.051787544041872025, 0.03222060576081276, 0.09273338317871094, 0.0023525820579379797, -0.046826887875795364, 0.08343154937028885, -0.069886215031147, 0.1365782916545868, -0.11392046511173248, 0.0882902443408966, 0.16596826910972595, -0.014407467097043991, -0.06618604063987732, -0.03537943959236145, 0.14985495805740356, 0.03088989108800888, 0.021378399804234505, 0.012181603349745274, -0.15698593854904175, 0.2691441476345062, 0.030961645767092705, -0.12283824384212494, 0.09271625429391861, 0.03501381725072861, 0.0901608094573021, 0.05815122649073601, 0.016785236075520515, 0.18885694444179535, 0.2541563808917999, -0.011657929979264736, -0.10392403602600098, -0.06741692870855331, -0.15038424730300903, 0.04055534303188324, 0.03777613863348961, 0.19841088354587555, -0.08142312616109848, -0.05289769917726517, -0.057944539934396744, 0.01080305315554142, -0.08248323947191238, 0.05436732620000839, 0.05656727775931358, -0.10680422931909561, -0.0784761905670166, -0.0606561154127121, -0.054744474589824677, 0.09405434876680374, -0.05460576340556145, -0.08167319744825363, -0.06641940027475357, -0.14855356514453888, -0.08702942728996277, 0.1486906260251999, -0.04939178749918938, -0.007052068132907152, 0.009445379488170147, 0.02668982930481434, 0.07589946687221527, -0.08471072465181351, -0.07428626716136932, -0.01382000558078289, 0.05910401791334152, 0.0008818396599963307, 0.016140852123498917, -0.07428474724292755, -0.03387339413166046, 0.11706844717264175, 0.052796438336372375, 0.04244622215628624, -0.18103079497814178, -0.03454451262950897, -0.0679328441619873, -0.07437869161367416, 0.07972538471221924, -0.0035819076001644135, -0.08125279098749161, 0.010084099136292934, -0.06464836746454239, 0.01909058727324009, -0.052541449666023254, 0.07806454598903656, 0.03882252052426338, -0.0613655224442482, -0.025134863331913948, -0.06564784795045853, -0.03553244471549988, -0.07169754803180695, -0.0899871289730072, -0.15531380474567413, -0.013893621042370796, -0.1104353666305542, 0.1319723278284073, 0.0436440072953701, -0.1190340667963028, 0.004831704776734114, 0.03499157726764679, 0.057215552777051926, -0.05512566491961479, 0.03414339944720268, -0.0617399737238884, -0.01078760251402855, -0.030878469347953796, -0.041506826877593994, -0.06361664831638336, 0.07551255077123642, -0.08856388181447983, -0.07729454338550568, 0.05123259872198105, -0.13052447140216827, -0.004286852665245533, -0.15353171527385712, 0.11391690373420715, -0.045776501297950745, -0.07993209362030029, 0.17239826917648315, -0.017384454607963562, -0.03269234299659729, 0.04115809500217438, -0.051008984446525574, 0.08052819222211838, -0.07694733887910843, -0.10492842644453049, -0.005760560277849436, -0.09797440469264984, 0.03543173894286156, -0.03999006748199463, -0.08520805835723877, -0.025259502232074738, -0.14875519275665283, 0.057714372873306274, -0.07804732024669647, 0.019087500870227814, 0.036876875907182693, -0.09277988225221634, -0.13747809827327728, 0.04636993259191513, 0.01981819048523903, 0.050668492913246155, 0.07720240205526352, -0.07979467511177063, -0.047662872821092606, 0.12042449414730072, 0.003460848005488515, 0.10131684690713882, 0.11214026063680649, -0.004149153362959623, 0.07434079796075821, 0.04032939672470093, -0.01214590109884739, 0.03401266783475876, -0.0066278851591050625, -0.14485366642475128, -0.00935092568397522, 0.058677855879068375, 0.014801434241235256, -0.04256090521812439, -0.1276477724313736, 0.020401230081915855, 0.11077030748128891, 0.025018105283379555, 0.03518865630030632, 0.014040612615644932, -0.16416852176189423, -0.10715237259864807, -0.0044025457464158535, -0.025906894356012344, 0.024173665791749954, -0.03351352736353874, 0.06157582253217697, -0.0003818481636699289, 0.11982688307762146, -0.12428601831197739, 0.10181224346160889, -0.05742765963077545, -0.004448671359568834, -0.04265374317765236, 0.067996546626091, -0.05060994625091553, 0.0643787607550621, -0.1570737510919571, -0.006308899726718664, -0.03933567553758621, -0.08307580649852753, -0.09337498992681503, -0.13488228619098663, -0.05655800551176071, -0.27643826603889465, -0.18106353282928467, -0.0905076116323471, -0.12200697511434555, -0.0030350247398018837, -0.222697913646698, -0.0702643096446991, 0.004265996627509594, -0.06455554068088531, 0.0042781163938343525, -0.0380852036178112, 0.001666807453148067, 0.02817135490477085, -0.1444237232208252, 0.1152486503124237, -0.005472736898809671, -0.06237331032752991, -0.03221092000603676, -0.18365523219108582, -0.10299970954656601, -0.15339356660842896, 0.05541444197297096, -0.06448572874069214, -0.22941900789737701, -0.11069165915250778, -0.13057935237884521, -0.11723820865154266, -0.03464595228433609, -0.13923726975917816, 0.03692854940891266, 0.015591914765536785, -0.16744540631771088, 0.11071497946977615, 0.16092105209827423, -0.07275447994470596, 0.02449098229408264, -0.1115792840719223, -0.11329672485589981, -0.07337699085474014, -0.25826287269592285, 0.04528217017650604, -0.09596565365791321, 0.026341386139392853, -0.12243945151567459, -0.12404288351535797, -0.08321675658226013, 0.0456056222319603, 0.044021058827638626, 0.054097678512334824, 0.12318965047597885, -0.022813715040683746, -0.044031690806150436, 0.07096172124147415, -0.12608304619789124, -0.02661154791712761, 0.09525373578071594, -0.009677776135504246, -0.06129582226276398, -0.0847623348236084, -0.028760403394699097, -0.08670195192098618, -0.04645753279328346, -0.03709956258535385, 0.05273915454745293, -0.013836275786161423, 0.08072800934314728, -0.035393938422203064, 0.0727858915925026, -0.15644243359565735, 0.008264118805527687, -0.05806158110499382, -0.060271598398685455, 0.09192253649234772, -0.029139474034309387, 0.06777587532997131, -0.06697572767734528, 0.11351678520441055, -0.053843334317207336, -0.09271414577960968, 0.08357013016939163, -0.06287232041358948, -0.06466889381408691, -0.003200363367795944, 0.05588512495160103, 0.09292903542518616, 0.007860762067139149, -0.13053679466247559, -0.14967256784439087, -0.17371751368045807, -0.07663462311029434, -0.07468098402023315, -0.10681495070457458, -0.14244401454925537, 0.07139328867197037, -0.03130717575550079, -0.0735040009021759, 0.02342965640127659, -0.20764733850955963, -0.09054694324731827, 0.08312203735113144, -0.10317470133304596, 0.0744185596704483, -0.12346204370260239, -0.07523632049560547, 0.0438399538397789, -0.022793907672166824, -0.10413388162851334, -0.06168929487466812, -0.039444439113140106, -0.0262855626642704, 0.0025144563987851143, -0.02368791215121746, 0.019394516944885254, 0.22954201698303223, -0.12688513100147247, -0.017691465094685555, -0.1415819525718689, -0.09989724308252335, -0.002738645765930414, -0.032144468277692795, 0.0464676134288311, -0.094877690076828, -0.14507678151130676, -0.023479346185922623, -0.11398757994174957, -0.11252694576978683, -0.016176709905266762, 0.10461442172527313, 0.14090797305107117, 0.09277348965406418, -0.06033869460225105, -0.0941644161939621, 0.009275048971176147, -0.0543082095682621, -0.12647277116775513, -0.08767333626747131, 0.04164788872003555, 0.008600074797868729, -0.07246919721364975, -0.032773781567811966, 0.04985664412379265, -0.11694572865962982, 0.04030444845557213, 0.04124066233634949, -0.04743151366710663, -0.05888418108224869, -0.08836773037910461, -0.03471001610159874, -0.07840088754892349, 0.04499334469437599, -0.11977260559797287, -0.10921668261289597, -0.026516420766711235, -0.15115638077259064, -0.14094442129135132, -0.08918168395757675, -0.08436388522386551, -0.10900841653347015, -0.01465625874698162, 0.041207414120435715, 0.037024807184934616, -0.09968971461057663, -0.04717021435499191, -0.03205431252717972, -0.06211806833744049, 0.06434354186058044, -0.045074980705976486, -0.0077126044780015945, -0.07035551965236664, 0.12487480789422989, 0.03583505004644394, 0.08637425303459167, -0.09425443410873413, -0.08361834287643433, 0.027168776839971542, -0.11106430739164352, -0.001545981504023075, 0.15400253236293793, -0.062421202659606934, -0.10728861391544342, -0.11048761010169983, -0.09810110926628113, 0.019279899075627327, 0.006101445760577917, -0.15169838070869446, -0.09826246649026871, -0.14662426710128784, -0.11281483620405197, 0.038777075707912445, 0.033865686506032944, -0.06982862949371338, -0.058260440826416016, -0.10093298554420471, 0.1115935817360878, -0.0022472047712653875, -0.10838330537080765, -0.04046571999788284, -0.05243640020489693, -0.10687346011400223, -0.09821384400129318, -0.08913800120353699, -0.1626393347978592, 0.051020726561546326, -0.07435016334056854, -0.09589773416519165, 0.04508734494447708, 0.001429285854101181, 0.19004477560520172, -0.10925818234682083, 0.010865778662264347, 0.03769543766975403, -0.09652135521173477, 0.07469621300697327, -0.07570503652095795, 0.03558547422289848, -0.18707498908042908, -0.09796274453401566, -0.004541684873402119, -0.12393723428249359, 0.04096025601029396, -0.039999205619096756, 0.0026135987136512995, -0.10012556612491608, -0.10912104696035385, -0.11219631135463715, 0.27606192231178284, -0.09004086256027222, -0.07407436519861221, 0.03277003765106201, -0.032498184591531754, 0.034312669187784195, -0.024687793105840683, -0.00613709120079875, -0.06258764863014221, -0.05848829448223114, -0.1141834706068039, -0.025703387334942818], [-0.07407019287347794, 0.16998766362667084, 0.03697589784860611, 0.013388426974415779, 0.14501729607582092, 0.03387942537665367, -0.12463048100471497, 0.09235747903585434, 0.054716240614652634, 0.04799886792898178, -0.11341255903244019, 0.06503930687904358, -0.10483512282371521, 0.10286728292703629, -0.1807049810886383, 0.02118188887834549, -0.03385629877448082, -0.06622742861509323, 0.010169926099479198, 0.08309436589479446, -0.0109495148062706, 0.03770235925912857, 0.008612073957920074, -0.11720575392246246, 0.014163053594529629, -0.10552072525024414, 0.02426699921488762, -0.10286204516887665, 0.018032226711511612, 0.07698602229356766, 0.08231202512979507, 0.06707920879125595, 0.048669591546058655, 0.10286301374435425, -0.11771005392074585, 0.1449994295835495, 0.007389791309833527, -0.12658920884132385, -0.07748567312955856, 0.01221830677241087, 0.06430342048406601, -0.060504429042339325, -0.08179119974374771, -0.13336524367332458, 0.012487291358411312, -0.09065593779087067, -0.02631581388413906, -0.02888701669871807, 0.18801452219486237, 0.1457165777683258, 0.1373579204082489, 0.17127855122089386, 0.21371904015541077, 0.06244537979364395, 0.15331730246543884, 0.005353074986487627, 0.10876407474279404, 0.2067563682794571, 0.20512382686138153, -0.03941972926259041, 0.11538040637969971, -0.042652204632759094, 0.037719693034887314, -0.07366885244846344, 0.003510082606226206, -0.14434662461280823, -0.013686757534742355, 0.006060901563614607, 0.06537647545337677, 0.14552755653858185, 0.10352791845798492, -0.08980251848697662, 0.004967639222741127, -0.061040233820676804, 0.01259174570441246, -0.03764700889587402, 0.007424691691994667, -0.10790880024433136, -0.007181763183325529, 0.012255038134753704, 0.13060308992862701, -0.027812423184514046, -0.07506649196147919, 0.06618420779705048, -0.04574203118681908, 0.10166463255882263, 0.16116341948509216, -0.11079167574644089, 0.08352106809616089, 0.0338485911488533, -0.06038619950413704, 0.22837917506694794, 0.045317430049180984, 0.06548362970352173, 0.017684992402791977, 0.17873188853263855, 0.07629550248384476, 0.1517932265996933, 0.16446056962013245, -0.027839282527565956, -0.07904389500617981, -0.06092057004570961, 0.0088173383846879, -0.08046596497297287, 0.1301431953907013, -0.05019575357437134, -0.013514578342437744, 0.09169194847345352, 0.02189096435904503, -0.049848154187202454, 0.09443577378988266, -0.061124783009290695, 0.057495832443237305, 0.14973792433738708, 0.08290960639715195, 0.05828220397233963, 0.052076857537031174, 0.019982147961854935, 0.032887328416109085, 0.01295402180403471, 0.11134106665849686, 0.015846112743020058, -0.08761826902627945, 0.20997832715511322, -0.0656094029545784, -0.0331917367875576, 0.015088717453181744, 0.11454228311777115, 0.035037972033023834, -0.08021993190050125, -0.05882322043180466, -0.014948607422411442, -0.220963254570961, -0.06371083110570908, -0.07185250520706177, -0.05836668983101845, -0.033676858991384506, -0.014888283796608448, 0.051712822169065475, -0.11466240882873535, -0.05521245673298836, 0.021878859028220177, 0.020054791122674942, 0.03150640428066254, -0.019873084500432014, 0.059077512472867966, 0.036698270589113235, -0.21997356414794922, -0.05270412191748619, -0.028505804017186165, -0.009625162929296494, -0.034063853323459625, 0.020747419446706772, -0.05132487416267395, 0.06770109385251999, 0.03656795993447304, 0.05577218532562256, -0.02579319104552269, 0.04109787568449974, 0.03415503352880478, 0.04807684198021889, -0.02303067222237587, -0.0017093038186430931, 0.12729276716709137, 0.0006594265578314662, -0.0936751589179039, -0.03560392186045647, -0.04407751187682152, -0.10654298216104507, -0.0018947202479466796, 0.03561534732580185, -0.004678237251937389, 0.07935163378715515, 0.03110978566110134, -0.04114802926778793, -0.022195464000105858, -0.07440337538719177, -0.09949667006731033, -0.11684341728687286, -0.12688034772872925, -0.0029145581647753716, 0.08241308480501175, 0.05667003244161606, -0.0634956881403923, -0.16554728150367737, 0.08293837308883667, -0.18299898505210876, -0.0054073152132332325, -0.1264835000038147, 0.0342562161386013, 0.05327391251921654, -0.1057170107960701, 0.05033113434910774, 0.12101946026086807, 0.040249165147542953, -0.0008381297229789197, 0.04740547016263008, -0.11679092049598694, 0.03690020367503166, -0.02039780654013157, 0.02257131040096283, 0.06750065088272095, -0.007645509205758572, -0.022554241120815277, -0.020038219168782234, -0.03483958914875984, 0.033890850841999054, -0.07800330221652985, -0.06598499417304993, 0.018819108605384827, 0.08424274623394012, 0.012994170188903809, 0.14882105588912964, 0.01532900519669056, -0.007447424810379744, -0.06375820189714432, -0.08166403323411942, -0.05928961932659149, -7.654235378140584e-05, -0.1495479792356491, 0.08120953291654587, 0.05515023693442345, 0.023661550134420395, -0.04661991447210312, 0.032768335193395615, 0.08964057266712189, 0.09001078456640244, 0.0006736779469065368, -0.017911763861775398, -0.0024365270510315895, 0.06093185022473335, -0.07874173671007156, 0.11141157895326614, -0.07221578806638718, -0.012533605098724365, 0.15005241334438324, -0.12215866148471832, -0.0689496174454689, 0.02002100832760334, 0.026544850319623947, 0.012160561047494411, -0.019451318308711052, 0.03840530663728714, 0.10889556258916855, -0.16092269122600555, -0.10928163677453995, -0.007939950563013554, -0.16032610833644867, -0.011949915438890457, 0.08747400343418121, 0.022130589932203293, -0.04557865485548973, -0.12796057760715485, -0.07428626716136932, -0.06611067801713943, 0.10048171877861023, -0.11099203675985336, 0.15592914819717407, -0.020966894924640656, 0.12220341712236404, -0.21149319410324097, 0.030698716640472412, -0.13947513699531555, 0.04131539538502693, -0.005298173520714045, -0.13889816403388977, -0.1251523494720459, 0.023738350719213486, -0.04217052832245827, 0.07237508147954941, -0.1367252767086029, 0.04788411781191826, -0.08302575349807739, 0.006317576859146357, 0.044508542865514755, -0.0030545273330062628, -0.10276010632514954, -0.045589447021484375, 0.011745764873921871, -0.010589506477117538, -0.011532949283719063, -0.04467679560184479, 0.025532500818371773, 0.030445521697402, -0.12741678953170776, 0.099141925573349, -0.04967227950692177, -0.047652676701545715, 3.130939512629993e-05, 0.014285434037446976, 0.1573844999074936, 0.0008998737903311849, 0.022001588717103004, -0.09579110890626907, 0.03146756440401077, -0.03755389153957367, -0.004628033842891455, -0.11514744907617569, -0.1713728904724121, -0.08329951763153076, -0.001076592830941081, 0.035557519644498825, -0.028486791998147964, -0.031963348388671875, 0.09344532340765, -0.026728032156825066, 0.01473550871014595, 0.17049609124660492, 0.03156520053744316, -0.0646846741437912, -0.08164419233798981, -0.02973710000514984, -0.07143232226371765, 0.09236985445022583, -0.23608417809009552, -0.02790149115025997, -0.12497151643037796, -0.18696554005146027, 0.14298519492149353, -0.11935723572969437, -0.12322638183832169, 0.024450665339827538, 0.04472486302256584, 0.007036963943392038, -0.0030377639923244715, 0.027124233543872833, -0.010495987720787525, -0.020169464871287346, 0.07382602989673615, 0.026452703401446342, 0.033198434859514236, 0.06437447667121887, -0.009722533635795116, -0.1262645721435547, 0.008794312365353107, -0.02492082305252552, 0.08721096813678741, 0.047387100756168365, -0.08726672828197479, -0.06013234704732895, 0.051562272012233734, -0.010628294199705124, 0.05070361867547035, -0.013527481816709042, -0.05597672984004021, 0.056797876954078674, -0.04961095750331879, 0.12153278291225433, 0.028084883466362953, 0.050240401178598404, 0.06149435415863991, -0.039437249302864075, -0.03430488705635071, 0.03748248517513275, 0.023132449015975, -0.05688408017158508, -0.014931517653167248, -0.08637772500514984, -0.027013728395104408, -0.012029165402054787, 0.050879959017038345, -0.032006219029426575, -0.03372740000486374, -0.04398619756102562, -0.005361499730497599, 0.0413031168282032, 0.0532362200319767, -0.005236974451690912, 0.012804916128516197, -0.013364770449697971, -0.10479316115379333, -0.0424455925822258, -0.06527020782232285, 0.12340399622917175, -0.06815339624881744, -0.10326294600963593, -0.02527773194015026, 0.009661280550062656, -0.004293069243431091, -0.02707310952246189, -0.12252596765756607, -0.12743893265724182, 0.05724819004535675, -0.04090096056461334, 0.04559258371591568, 0.049618080258369446, -0.054581619799137115, -0.015231766737997532, 0.12559661269187927, -0.0357145331799984, -0.13968512415885925, -0.0042513273656368256, 0.15249115228652954, -0.05465457960963249, 0.019703766331076622, -0.09343846887350082, -0.06867676228284836, -0.004790568258613348, -0.13940361142158508, -0.02235943265259266, 0.024949878454208374, -0.009709743782877922, 0.03371884673833847, 0.09129690378904343, -0.09284979104995728, -0.09305369853973389, -0.05115492269396782, 0.011622126214206219, 0.023533234372735023, 0.005994788371026516, -0.008335422724485397, -0.096087247133255, -0.036248188465833664, -0.0945274829864502, 0.06414445489645004, -0.005088673904538155, -0.06482882052659988, -0.18600261211395264, 0.10726754367351532, 0.0703548714518547, 0.03903825581073761, -0.03857108950614929, 0.04697466641664505, -0.068023681640625, 0.024438532069325447, -0.018209397792816162, -0.23708635568618774, -0.034778013825416565, -0.002903404412791133, -0.13172446191310883, -0.03720029443502426, -0.03043447621166706, -0.05053429305553436, -0.1340552419424057, 0.0814942792057991, -0.017288876697421074, -0.18306377530097961, -0.047111876308918, -0.2070329338312149, 0.024485748261213303, -0.04463907703757286, 0.10751089453697205, 0.17036746442317963, 0.06816200911998749, 0.0958329439163208, -0.10357041656970978, 0.03425155580043793, -0.008470541797578335, -0.10421640425920486, 0.09658553451299667, 0.05079992488026619, 0.05204969272017479, 0.07885957509279251, -0.04522743448615074, 0.018712880089879036, -0.04821944236755371, 0.06993331015110016, -0.12616799771785736, -0.07985877990722656, -0.10228483378887177, -0.10909067839384079, -0.008296485990285873, 0.04393140599131584, -0.037506308406591415, 0.06792521476745605, -0.05048993602395058, -0.09080909937620163, -0.028187718242406845, -0.12356814742088318, -0.13687747716903687, 0.012988974340260029, -0.09066078066825867, -0.10204341262578964, -0.11965364962816238, -0.10102774202823639, -0.0442359484732151, 0.02035859040915966, -0.009439920075237751, -0.023793919011950493, -0.07405518740415573, -0.0319957472383976, -0.03517468273639679, 0.16549749672412872, 0.02214662916958332, -0.09755434095859528, 0.012651966884732246, -0.02873612754046917, -0.013566813431680202, -0.015466595999896526, 0.03445897996425629, -0.031607579439878464, 0.02003065124154091, 0.06010615825653076, -0.004436790011823177, 0.13197743892669678, -0.13968223333358765, -0.06448715180158615, -0.09687777608633041, -0.13271810114383698, -0.04777519032359123, 0.052428971976041794, -0.03441804647445679, -0.06508544832468033, -0.007001055404543877, 0.09743296355009079, -0.06526875495910645, 0.014562726952135563, -0.11534032225608826, 0.002944675739854574, 0.041727423667907715, 0.10059095174074173, -0.11562646180391312], [0.09517861157655716, 0.002267763949930668, 0.02604540064930916, 0.010842411778867245, 0.21549665927886963, 0.07085586339235306, 0.034787800163030624, 0.14047066867351532, -0.028979159891605377, -0.07572559267282486, -0.050083812326192856, 0.007196295075118542, 0.10871051251888275, 0.1381225287914276, 0.009212229400873184, -0.14055833220481873, 0.015491165220737457, 0.11006667464971542, 0.025755688548088074, 0.1411426067352295, 0.3129672408103943, 0.061470407992601395, 0.02852342091500759, 0.04172341525554657, -0.013635672628879547, 0.1032247543334961, -0.09183268249034882, 0.05171603709459305, 0.02288692817091942, 0.11871945858001709, 0.17995789647102356, -0.01980217546224594, 0.2587500214576721, -0.003417262341827154, -0.11965209245681763, 0.010215778835117817, 0.15574871003627777, 0.3355182707309723, 0.005598597228527069, 0.08856731653213501, 0.14314572513103485, -0.04912937059998512, 0.7432379126548767, -0.12621928751468658, -0.13197115063667297, -0.029203802347183228, -0.05609544739127159, 0.1688135266304016, 0.07697459310293198, 0.054504647850990295, 0.006608192343264818, 0.1782129406929016, 0.13266690075397491, -0.029115062206983566, 0.15590889751911163, 0.016571132466197014, 0.1493433117866516, 0.15489107370376587, 0.46200811862945557, -0.16745011508464813, 0.2655250132083893, -0.14504696428775787, 0.04978567734360695, 0.12314357608556747, 0.0004601691907737404, -0.0219563078135252, -0.050068438053131104, -0.12051285058259964, 0.06807894259691238, 0.049818120896816254, 0.09168115258216858, -0.0984114333987236, 0.2064862847328186, -0.021914297714829445, 0.0013645377475768328, -0.043470460921525955, 0.10131378471851349, -0.04302438348531723, 0.246024951338768, -0.10082409530878067, -0.12696239352226257, -0.04480520635843277, -0.005833999719470739, 0.018258720636367798, 0.12147153168916702, 0.02510358951985836, -0.07519622892141342, 0.01153105404227972, 0.03233372047543526, 0.034770991653203964, 0.029610740020871162, 0.08533993363380432, 0.12286627292633057, -0.0135745108127594, 0.05016478896141052, 0.09131480008363724, 0.07609543204307556, -0.01656408980488777, 0.13294285535812378, 0.006611536722630262, -0.07587510347366333, 0.05281390622258186, -0.02965869940817356, 0.014116397127509117, -0.0010847293306142092, 0.012868662364780903, 0.09869848191738129, 0.07358235865831375, -0.033981867134571075, 0.013016970828175545, -0.033025190234184265, -0.09906493127346039, 0.07542679458856583, -0.017408058047294617, -0.0410197414457798, 0.13652737438678741, 0.12396763265132904, 0.06629551947116852, -0.16122634708881378, -0.015410400927066803, -0.20050957798957825, -0.1444362848997116, -0.1035899966955185, 0.17273949086666107, 0.2648519277572632, 0.08394374698400497, 0.12523765861988068, 0.12529927492141724, 0.0040761008858680725, -0.13427864015102386, -0.04072918742895126, -0.03262147307395935, 0.29305389523506165, -0.07085051387548447, 0.035318773239851, 0.02316439151763916, -0.05831395089626312, 0.04807526245713234, 0.07027748972177505, -0.015826651826500893, -0.07157453149557114, 0.027355415746569633, 0.04227616637945175, -0.003214531345292926, 0.058045219630002975, 0.01205479446798563, 0.1264800876379013, 0.4215947389602661, 0.26504141092300415, -0.08243344724178314, -0.06201866269111633, -0.07908223569393158, -0.03883088007569313, -0.0018623084761202335, -0.01598115637898445, 0.16072502732276917, -0.04308807849884033, 0.10953493416309357, -0.09119158238172531, -0.1027238667011261, -0.20383916795253754, -0.00745357247069478, -0.0849018394947052, 0.02719455398619175, -0.01764441467821598, 0.21901391446590424, -0.04833414405584335, -0.06583915650844574, -0.03428078070282936, 0.05426136776804924, 0.2582970857620239, -0.03827632591128349, 0.09193070232868195, 0.12472859770059586, 0.05994120612740517, 0.06610038131475449, -0.011261808685958385, 0.009016660042107105, 0.3780288100242615, -0.12567821145057678, 0.12587189674377441, -0.01724673993885517, 0.05258556455373764, 0.06088176369667053, 0.08898129314184189, -0.24366585910320282, 0.4261053800582886, 0.04924316704273224, 0.3673141300678253, 0.0019250009208917618, -0.024527547881007195, 0.1655610054731369, -0.032339904457330704, -0.048205357044935226, -0.1077171191573143, 0.01718866266310215, -0.16117221117019653, 0.06024986878037453, -0.12768813967704773, 0.04032101482152939, 0.10179316997528076, -0.03110649809241295, -0.04408971592783928, 0.0730290412902832, -0.04485912248492241, 0.08901618421077728, 0.09074930846691132, 0.03216366469860077, -0.03505610302090645, 0.06647639721632004, -0.1511743813753128, 0.05461922287940979, 0.07799292355775833, 0.0641200840473175, 0.04488525912165642, -0.020917057991027832, 0.018392525613307953, 0.010365033522248268, 0.050783224403858185, -0.06134970113635063, 0.12273753434419632, -0.0639280304312706, 0.04620145633816719, -0.03161239996552467, 0.04483070224523544, -0.06008889153599739, -0.26246723532676697, 0.06651098281145096, 0.016514822840690613, 0.10530960559844971, -0.04546929523348808, 0.13308171927928925, -0.05443364381790161, -0.026815272867679596, -0.08430777490139008, -0.6469529867172241, -0.028383104130625725, 0.09978381544351578, 0.010506277903914452, 0.06532078981399536, 0.023970959708094597, 0.025640301406383514, 0.006300156470388174, -0.001196709810756147, 0.4411735236644745, -0.022175580263137817, -0.030633075162768364, -0.04819956049323082, 0.03301171585917473, -0.04332161322236061, 0.05812476575374603, -0.02839842438697815, -0.16734516620635986, -0.09142167121171951, 0.03457149490714073, -0.04407371208071709, -0.06527849286794662, -0.09988752007484436, -0.023957422003149986, 0.06311646848917007, -0.1785007119178772, -0.04398403689265251, -0.054779961705207825, 0.13137580454349518, -0.0069614797830581665, -0.17249691486358643, -0.024570874869823456, 0.017542313784360886, -0.11814498156309128, 0.08032786846160889, -0.01762806624174118, -0.10391900688409805, 0.02977379411458969, 0.011885031126439571, -0.04617618769407272, -0.1362648904323578, -0.16196416318416595, -0.06444970518350601, 0.0003573596477508545, -0.021922223269939423, -0.07604037970304489, -0.04110560938715935, -0.027189642190933228, -0.06171691417694092, 0.05965013429522514, 0.0686967521905899, 0.024914588779211044, 0.09090415388345718, 0.09724811464548111, -0.029605180025100708, 0.1194991022348404, -0.03605256602168083, 0.06178192421793938, 0.072108194231987, -0.015660088509321213, -0.06630019098520279, 0.0005686716758646071, -0.03936152905225754, 0.3514115512371063, -0.08035735040903091, -0.13068464398384094, 0.041088931262493134, -0.015548440627753735, 0.05289895087480545, 0.0737854391336441, -0.02551538310945034, 0.11761144548654556, -0.03781626746058464, 0.11650430411100388, -0.09700266271829605, -0.05284949764609337, -0.05571144446730614, -0.07120899111032486, -0.17585113644599915, 0.10978282243013382, -0.11604653298854828, 0.1589908003807068, -0.17574311792850494, -0.09665925055742264, -0.08622796088457108, 0.04372990131378174, 0.025670865550637245, -0.0028912422712892294, 0.0071414802223443985, -0.034337569028139114, -0.02246960997581482, -0.10159026831388474, -0.05232542008161545, 0.0984824150800705, -0.11297117173671722, -0.09825451672077179, 0.015220227651298046, 0.009243631735444069, -0.058541227132081985, 0.12541018426418304, -0.017644815146923065, -0.1384143829345703, -0.04722868278622627, 0.09309182316064835, -0.0873972550034523, 0.11041034013032913, -0.032886624336242676, -0.04556863754987717, -0.017556479200720787, -0.12365448474884033, -0.04862723499536514, 0.006963757798075676, -0.051377903670072556, -0.17315739393234253, 0.04471331089735031, -0.037622541189193726, 0.03112345188856125, -7.875467417761683e-05, -0.06727208197116852, -0.21608638763427734, -0.0173843614757061, 0.0063645076006650925, 0.08472071588039398, 0.050603050738573074, -0.0769340842962265, 0.09600664675235748, -0.09399859607219696, -0.07170869410037994, 0.015103235840797424, -0.14970284700393677, -0.04879411682486534, 0.22745594382286072, 0.011832642368972301, 0.11093254387378693, -0.2116234302520752, 0.036502640694379807, 0.03639790043234825, 0.12077537178993225, 0.005312239285558462, 0.010219594463706017, 0.0075204214081168175, -0.07734836637973785, -0.05258271470665932, -0.05926235392689705, 0.07020670920610428, 0.13287460803985596, -0.05024253949522972, 0.018471183255314827, 0.02847352996468544, 0.003187896218150854, -0.11195922642946243, -0.10820931941270828, 0.082370825111866, 0.24053429067134857, 0.01482595968991518, -0.02764541283249855, 0.04217536747455597, 0.030278729274868965, -0.03637126460671425, -0.02926611714065075, 0.08908165246248245, -0.007821490988135338, 0.12980832159519196, -0.10878691077232361, -0.05289854109287262, -0.08611617982387543, -0.0011959740659222007, -0.018761949613690376, 0.24882608652114868, 0.3217826187610626, 0.003161175874993205, 0.0022640018723905087, -0.05310889706015587, -0.026622844859957695, -0.030397623777389526, -0.035473018884658813, -0.05641104280948639, 0.037295449525117874, 0.25186195969581604, 0.10474473237991333, -0.014264325611293316, 0.16503548622131348, 0.1526271402835846, 0.0868498831987381, 0.017062531784176826, 0.17399588227272034, 0.17731449007987976, 0.0696248784661293, 0.15235207974910736, 0.07958576828241348, -0.07794983685016632, 0.3928188681602478, -0.0982915535569191, -0.042405180633068085, -0.09697620570659637, -0.06429016590118408, 0.04254937171936035, 0.1034722700715065, 0.07838904857635498, 0.03386241942644119, 0.26711130142211914, 0.20650683343410492, -0.10120309144258499, -0.020638886839151382, 0.09741394221782684, 0.02744114212691784, 0.013846011832356453, 0.2747964859008789, -0.05092721804976463, 0.36987653374671936, -0.1067543774843216, -0.08671384304761887, -0.014619721099734306, -0.10955357551574707, -0.01550887618213892, -0.10575693100690842, -0.019959604367613792, 0.15276947617530823, 0.014185375533998013, 0.15965771675109863, -0.06334727257490158, 0.12611816823482513, 0.08060168474912643, 0.0345870703458786, 0.04154101386666298, 0.07686811685562134, -0.006801174953579903, 0.12659123539924622, -0.012696103192865849, -0.1227925568819046, -0.012299497611820698, -0.06287283450365067, 0.03763360530138016, 0.15437720715999603, 0.08698981255292892, -0.08415735512971878, 0.020991483703255653, -0.07283920794725418, 0.03053090162575245, -0.03553258255124092, -0.095757395029068, -0.0026880567893385887, 0.03596312925219536, -0.002596714533865452, 0.40045851469039917, 0.12502339482307434, 0.08670400083065033, 0.1503104269504547, 0.006937508471310139, 0.009552405215799809, 0.1681305319070816, -0.04608757793903351, -0.1379915177822113, -0.06540872156620026, 0.05668983235955238, -0.02426689863204956, 0.05382654815912247, -0.005089962389320135, 0.013158882036805153, 0.06789841502904892, 0.018220707774162292, 0.012795493938028812, -0.08505866676568985, -0.09026510268449783, 0.0218205563724041, 0.08753275126218796, -0.04266523942351341, 0.0007045204984024167, 0.03490433841943741, -0.04798359423875809, -0.0009719539666548371, -0.08492694050073624, 0.09634432196617126, 0.1283029019832611, 0.10952632129192352, -0.006815960165113211, 0.0505828931927681], [0.03746320307254791, 0.02314118854701519, -0.08457604795694351, -0.009556708857417107, 0.1180167943239212, 0.08013506978750229, 0.040639813989400864, 0.0309978649020195, -0.021260671317577362, -0.014901889488101006, -0.0625821053981781, 0.0063025085255503654, 0.05492941662669182, 0.01665532775223255, -0.03676224127411842, 0.0501258559525013, -0.05384444445371628, -0.011129898950457573, -0.012151084840297699, 0.09706205129623413, 0.08871761709451675, -0.06860007345676422, -0.06985984742641449, -0.09926537424325943, 0.03981684893369675, 0.06041726469993591, 0.0400407537817955, 0.07899541407823563, -0.07042209804058075, 0.15540513396263123, 0.01821156032383442, -0.0361471064388752, -0.013605366460978985, 0.15947453677654266, -0.013723396696150303, 0.14130011200904846, 0.10932280123233795, 0.034783221781253815, -0.0157601498067379, -0.06491675972938538, 0.03752820938825607, -0.08835767954587936, 0.0772927775979042, -0.052510786801576614, -0.058857254683971405, -0.01389399729669094, -0.012926322408020496, 0.0698513463139534, 0.17879758775234222, 0.10553323477506638, 0.1491205245256424, 0.07716181874275208, 0.12748928368091583, -0.049455560743808746, -0.0076784538105130196, 0.02215804159641266, -0.1815991997718811, 0.027723288163542747, 0.09853185713291168, -0.05659681558609009, 0.1294025033712387, 0.016100088134407997, 0.029454853385686874, 0.04088485613465309, -0.04646722599864006, -0.07395416498184204, -0.048683181405067444, 0.049163755029439926, 0.12147367000579834, 0.0480920784175396, 0.12084643542766571, -0.04307809844613075, 0.07805754989385605, -0.1071125864982605, -0.011965703219175339, -0.0406121201813221, -0.0004863147041760385, -0.13757188618183136, -0.03204839304089546, 0.03334067389369011, -0.033393457531929016, 0.02527652308344841, -0.07653164863586426, 0.037233881652355194, 0.11023466289043427, 0.15010665357112885, 0.07115396112203598, 0.02133447490632534, -0.09452295303344727, 0.05278400704264641, 0.0666121318936348, 0.09641619026660919, -0.046292807906866074, 0.03810318186879158, -0.06423138082027435, 0.030793912708759308, -0.059100277721881866, -0.021451659500598907, 0.006638388615101576, 0.01245172694325447, 0.030498938634991646, -0.0077795181423425674, -0.04255121573805809, -0.0004493777814786881, 0.05230015516281128, -0.006331582088023424, -0.06567639112472534, 0.13848547637462616, 0.06415952742099762, -0.08002975583076477, -0.014899681322276592, -0.07231791317462921, 0.08270315080881119, 0.025678928941488266, -0.040509581565856934, 0.1173844188451767, 0.03494494780898094, 0.003701140871271491, -0.01241996232420206, 0.07939223200082779, -0.015836026519536972, -0.15921886265277863, -0.003821384394541383, 0.19781674444675446, 0.03086736798286438, 0.11695852875709534, -0.015312655828893185, -0.006963184569031, -0.0245346762239933, -0.1473199874162674, -0.02404462918639183, -0.07248251885175705, 0.04984239488840103, -0.0949389711022377, 0.08116165548563004, 0.006703087594360113, 0.03270689770579338, -0.07932113111019135, -0.02316145785152912, -0.07158022373914719, -0.05097848176956177, 0.10989634692668915, -0.08004371076822281, -0.04518298804759979, -0.05739111825823784, -0.023667139932513237, 0.05201588198542595, 0.018564565107226372, -0.02480490319430828, 0.01943012699484825, -0.07681035995483398, 0.07208936661481857, -0.07809591293334961, -0.03115532547235489, -0.04832381010055542, 0.12152138352394104, -0.07913480699062347, 0.13222350180149078, -0.07888950407505035, -0.07188582420349121, -0.06686753034591675, 0.017170196399092674, 0.038441251963377, -0.06095019727945328, -0.01057478878647089, 0.04422441124916077, 0.07859256863594055, -0.10152307152748108, 0.021425623446702957, -0.0015283413231372833, 0.037001341581344604, 0.007842081598937511, -0.010027885437011719, -0.006223628763109446, 0.06814837455749512, -0.03874979540705681, -0.045899610966444016, 0.01733509451150894, -0.008545582182705402, -0.11323738843202591, 0.08689406514167786, 0.06798001378774643, 0.01724216155707836, -0.042314060032367706, -0.03412175923585892, -0.06940291821956635, 0.05861186236143112, 0.05130280181765556, -0.07413338869810104, 0.04042016342282295, 0.2968757450580597, 0.10426130890846252, -0.009549138136208057, 0.016166331246495247, -0.09635289758443832, 0.052347332239151, -0.0678146556019783, -0.11011137813329697, 0.037494584918022156, 0.0698527991771698, 0.09066332131624222, 0.03117574192583561, -0.016469618305563927, -0.03297561779618263, -0.011620230041444302, -0.03817087784409523, 0.12063129991292953, -0.062234554439783096, 0.10094885528087616, -0.01356617733836174, -0.09680891782045364, 0.008323072455823421, -0.09139882773160934, -0.003044258337467909, -0.01857963763177395, -0.05336720868945122, 0.03048938699066639, 0.03715340048074722, -0.04643505811691284, 0.06638465821743011, 0.032593633979558945, 0.11066748946905136, -0.10788746923208237, 0.0021114458795636892, -0.061015352606773376, 0.10033319145441055, -0.018894126638770103, -0.07928947359323502, -0.01656310074031353, -0.0004641583072952926, 0.022532451897859573, -0.008496479131281376, -0.033329885452985764, 0.004683110862970352, 0.07469408959150314, 0.08758635073900223, -0.09429719299077988, -0.027191482484340668, -0.04232415184378624, -0.013556263409554958, -0.10326160490512848, 0.006906076800078154, 0.10780412703752518, 0.07651164382696152, 0.043772611767053604, 0.021288765594363213, -0.05839592218399048, 0.009889292530715466, -0.0372500903904438, 0.009876644238829613, -0.05310605466365814, -0.02416073903441429, -0.0497007817029953, -0.08790720254182816, 0.05651772394776344, -0.061429236084222794, 0.024521052837371826, 0.06095000356435776, -0.10270284116268158, 0.034829847514629364, -0.16201235353946686, 0.015933044254779816, -0.04612722992897034, 0.008605536073446274, 0.025793705135583878, 0.05334250256419182, -0.09151063114404678, -0.05988312512636185, -0.09612730145454407, 0.00812169723212719, 0.04179708659648895, 0.016467534005641937, -0.06281299889087677, -0.03225766867399216, -0.03959721326828003, 0.03856533020734787, -0.045315541326999664, -0.004881956614553928, -0.002484185853973031, -0.0011030188761651516, -0.005206934176385403, 0.028529709205031395, -0.0749584287405014, 0.052311260253190994, -0.04116600379347801, -0.02265320159494877, 0.06789512187242508, 0.045118119567632675, 0.059116195887327194, 0.03970050439238548, 0.1060781180858612, 0.0014724490465596318, 0.11030436307191849, -0.01128560770303011, 0.04567134752869606, 0.016246557235717773, -0.14176461100578308, -0.11852099746465683, -0.1667058914899826, -0.054650649428367615, -0.09516957402229309, -0.042061496526002884, -0.08912213891744614, -0.006459350697696209, 0.11535733938217163, 0.0910545289516449, 0.011160009540617466, -0.035167716443538666, 0.0403207466006279, -0.016105923801660538, 0.06861187517642975, 0.04507441818714142, -0.07519456744194031, -0.16002227365970612, -0.220586895942688, -0.053947240114212036, -0.12307055294513702, -0.13731583952903748, 0.16785377264022827, -0.02854868210852146, 0.018598979339003563, -0.026777662336826324, -0.04967520758509636, -0.06185590475797653, -0.01219685934484005, 0.10510976612567902, -0.11470139771699905, 0.06728681176900864, 0.060864102095365524, -0.10837196558713913, -0.021584708243608475, 0.012456836178898811, -0.08622021228075027, -0.0012456501135602593, -0.06605055183172226, -0.065545454621315, -0.06527440249919891, -0.017891155555844307, -0.05221744626760483, -0.05720321461558342, 0.07040882855653763, 0.06381362676620483, 0.0009068796643987298, -0.08381282538175583, -0.0017858907813206315, 0.00953369028866291, 0.08091439306735992, -0.05827045068144798, 0.03450941666960716, 0.08566797524690628, -0.018790239468216896, -0.02378123626112938, 0.02280748076736927, 0.05170850083231926, -0.19648075103759766, 0.017542527988553047, 0.02770051173865795, -0.04140794649720192, 0.08274345844984055, 0.09426645189523697, 0.013715368695557117, -0.11463227868080139, 0.05512407049536705, -0.06181152164936066, -0.10199674218893051, -0.08584102243185043, 0.11907628178596497, -0.07859951257705688, 0.05496249347925186, -0.13523584604263306, -0.0441378615796566, -0.03628847375512123, 0.017830297350883484, -0.07944804430007935, 0.03850528597831726, -0.07250703126192093, 0.09567241370677948, 0.016870420426130295, -0.01282438263297081, 0.006069249473512173, -0.09550441801548004, -0.09149954468011856, 0.04603637382388115, -0.07927422970533371, -0.028348207473754883, 0.02321629971265793, -0.06763653457164764, 0.02534889243543148, 0.09149859845638275, -0.024984121322631836, -0.028867339715361595, -0.0059591117314994335, -0.09083978086709976, -0.06068509444594383, -0.09742052853107452, -0.07921498268842697, -0.07928090542554855, -0.01008925773203373, -0.06280006468296051, 0.049881018698215485, -0.05815373733639717, 0.04649387672543526, -0.0514364056289196, 0.027530590072274208, 0.055088989436626434, 0.06411157548427582, -0.07374315708875656, -0.07071083039045334, 0.061870649456977844, -0.04207920655608177, -0.06495429575443268, -0.06262803822755814, -0.1385229080915451, 0.0033672924619168043, 0.03809409961104393, -0.02080700546503067, 0.12220486253499985, -0.0307884830981493, 0.11425863206386566, -0.05018342658877373, -0.09620527923107147, 0.07078053802251816, -0.060152191668748856, -0.0817246064543724, -0.03861396014690399, -0.055597227066755295, 0.06112498417496681, -0.08655568212270737, 0.01041934173554182, 0.04393506422638893, -0.02623298391699791, 0.05013475567102432, 0.023486537858843803, -0.03614688292145729, 0.03376311808824539, 0.10191471129655838, -0.03738803789019585, -0.04718973487615585, -0.1066078394651413, -0.017993846908211708, -0.042155977338552475, -0.06774812936782837, 0.12480458617210388, -0.055988702923059464, 0.1265333890914917, 0.005046089179813862, -0.06950028985738754, -0.0718831717967987, -0.001953714294359088, 0.10476759076118469, 0.003442218527197838, 0.011191531084477901, -0.002257090760394931, 0.0015469614882022142, -0.039864569902420044, 0.05487896874547005, 0.05976514890789986, -0.018998470157384872, 0.006047265604138374, 0.005516604986041784, -0.08255545794963837, 0.011978212743997574, -0.013765379786491394, -0.09694308787584305, -0.08689064532518387, -0.005084567703306675, -0.03259553760290146, -0.009973547421395779, -0.08965690433979034, -0.13688458502292633, -0.01511312648653984, -0.04370690882205963, 0.016755258664488792, -0.13346464931964874, 0.014599687419831753, -0.05694703757762909, -0.02479860559105873, -0.00866470392793417, 0.051073115319013596, -0.004838269203901291, -0.07400789856910706, -0.09533441811800003, 0.0866469070315361, 0.03376917168498039, -0.026981819421052933, -0.07144621014595032, 0.04862980544567108, 0.06446176767349243, -0.03704452887177467, -0.10384031385183334, 0.013426560908555984, 0.018434664234519005, 0.007200037129223347, -0.07230976969003677, 0.16461189091205597, -0.060376912355422974, -0.051206618547439575, -0.02240126021206379, -0.006189798470586538, -0.09142482280731201, -0.026320114731788635, -0.03394658491015434, -0.0328870564699173, -0.002794479951262474, 0.060511041432619095, -0.06674936413764954, 0.033574093133211136, -0.04439795762300491, -0.051545824855566025, -0.04144679009914398, -0.05331248417496681, -0.08963319659233093], [0.02572425827383995, 0.008899383246898651, 0.015871621668338776, 0.11864621192216873, 0.18206100165843964, 0.03310777246952057, 0.005634805653244257, 0.006217380985617638, 0.03968951478600502, -0.030157137662172318, -0.05276603251695633, 0.13760404288768768, -0.09569774568080902, 0.15183724462985992, 0.06708768755197525, -0.0665309727191925, -0.0263063907623291, 0.05888289213180542, 0.062300607562065125, 0.1871594935655594, 0.16705264151096344, 0.1269155740737915, -0.0184024665504694, -0.013851978816092014, 0.04349694028496742, -0.16066297888755798, -0.09800046682357788, 0.045884352177381516, -0.04752843827009201, 0.13824562728405, 0.14820462465286255, 0.1375490128993988, 0.08667470514774323, 0.148665189743042, -0.06581592559814453, 0.10746718943119049, 0.05642025172710419, 0.1087319552898407, -0.14384430646896362, -0.021843401715159416, -0.09027386456727982, -0.09790390729904175, 0.08974079042673111, -0.0016001189360395074, -0.04105494171380997, -0.1009596660733223, -0.0950714722275734, 0.028649145737290382, 0.0997605100274086, 0.06104695424437523, 0.12248605489730835, 0.07908889651298523, 0.199728325009346, -0.08252992480993271, 0.07083097845315933, -0.06224227324128151, -0.007609366439282894, -0.024439990520477295, -0.015658583492040634, -0.07463264465332031, 0.23876476287841797, -0.0033595222048461437, 0.2543351352214813, -0.048608943819999695, -0.08103945106267929, 0.03991368040442467, -0.11153589189052582, 0.05743410438299179, -0.030162768438458443, 0.14716200530529022, -0.08330556005239487, 0.04254821315407753, -0.03842887282371521, 0.018903236836194992, -0.0683114156126976, 0.11528310179710388, 0.00044599236571229994, 0.04078174754977226, 0.0460902601480484, -0.00045635824790224433, -0.03197504207491875, -0.10626336187124252, 0.16228027641773224, 0.03884762153029442, 0.16926640272140503, 0.08670411258935928, -0.02519354224205017, 0.058151889592409134, 0.0841301754117012, 0.13729307055473328, 0.021076945587992668, -0.047097548842430115, -0.13032826781272888, -0.07305542379617691, 0.012935017235577106, 0.17355604469776154, -0.03955482691526413, 0.17730551958084106, 0.15088458359241486, -0.10148744285106659, 0.022702882066369057, 0.028589097782969475, 0.015068045817315578, 0.04091291502118111, 0.07724785804748535, -0.09839925915002823, -0.105750173330307, 0.10486982762813568, 0.03731701523065567, -0.08026732504367828, 0.08076753467321396, 0.09337804466485977, 0.18746355175971985, 0.04246542602777481, 0.014603076502680779, 0.022173618897795677, 0.23089392483234406, 0.016398372128605843, -0.098332978785038, 0.06402000039815903, 0.003310923930257559, -0.12239881604909897, -0.020082395523786545, 0.0746627151966095, -0.09093150496482849, -0.046491485089063644, -0.05958087369799614, -0.013447564095258713, 0.03740254417061806, 0.014143349602818489, 0.02449597418308258, -0.040894486010074615, -0.08059140294790268, 0.024462513625621796, -0.028844177722930908, 0.015419330447912216, -0.05990178510546684, 0.031041255220770836, -0.04461454972624779, -0.004940358456224203, 0.037740644067525864, -0.019500453025102615, -0.09563203901052475, 0.05658255144953728, -0.037243083119392395, -0.07422816008329391, 0.11084683239459991, -0.008569859899580479, -0.041743628680706024, -0.05373597517609596, 0.0588851198554039, 0.07370346039533615, -0.011540452018380165, 0.08955363929271698, 0.07862409949302673, -0.018428483977913857, -0.07362787425518036, 0.11776101589202881, -0.06540711969137192, -0.009266951121389866, 0.00418923981487751, -0.05635903403162956, -0.010758792981505394, 0.11490164697170258, -0.12598204612731934, 0.026155224069952965, 0.03907516226172447, 0.1040998175740242, -0.05309256911277771, 0.0183725543320179, -0.014659128151834011, -0.036437127739191055, 0.0007339729927480221, 0.000765778124332428, 0.07991287112236023, -0.058903224766254425, -0.09688158333301544, -0.010243333876132965, -0.09978725016117096, -0.04439682140946388, 0.018686508759856224, 0.05816659331321716, -0.11824554949998856, 0.05748843029141426, 0.09242278337478638, -0.028567735105752945, -0.005489898845553398, 0.02574005164206028, 0.011873537674546242, -0.10094869881868362, -0.07047524303197861, 0.106313057243824, 0.04220013692975044, -0.0071951886638998985, -0.06304015964269638, -0.09538029879331589, 0.08164739608764648, 0.03724338486790657, 0.06485822051763535, -0.06385805457830429, 0.05300672724843025, -0.02862696163356304, -0.059797994792461395, 0.08213727921247482, -0.03426102176308632, 0.09223105013370514, 0.05280178412795067, -0.028216617181897163, 0.06988342106342316, 0.061893280595541, -0.029296111315488815, 0.03419876843690872, 0.13882499933242798, 0.08382262289524078, -0.07353660464286804, -0.07194612920284271, 0.07145729660987854, -0.04108826816082001, -0.09323039650917053, -0.1138361468911171, 0.0743967816233635, -0.051907729357481, -0.04039660841226578, -0.12810300290584564, 0.003123622853308916, -0.1228995993733406, 0.06290391832590103, -0.05838751792907715, -0.01758834905922413, -0.11552611738443375, -0.045950595289468765, 0.04825064167380333, -0.029303520917892456, -0.019261855632066727, 0.025092436000704765, 0.003599015064537525, -0.03491736203432083, -0.09953154623508453, -0.0038064559921622276, -0.12429945915937424, -0.13370081782341003, -0.048455819487571716, 0.02934589609503746, -0.011383763514459133, -0.11575081199407578, 0.014448096044361591, -0.031064700335264206, 0.03318846598267555, -0.057414889335632324, -0.049347877502441406, -0.061987053602933884, -0.11926744133234024, -0.11120656132698059, -0.09904919564723969, 0.1101984828710556, 0.034897226840257645, -0.051947783678770065, -0.07245029509067535, 0.011753295548260212, 0.12207737565040588, -0.1943129450082779, 0.08955932408571243, -0.13147474825382233, 0.05920238420367241, -0.05808660015463829, -0.048148781061172485, -0.1122777909040451, 0.022816793993115425, -0.08214492350816727, -0.04131162539124489, 0.042325276881456375, -0.06211164593696594, -0.11122526228427887, 0.028614312410354614, -0.09558907896280289, -0.33498409390449524, -0.08064823597669601, -0.07722972333431244, 0.023302586749196053, -0.09101662784814835, -0.07493322342634201, -0.12150529772043228, -0.008748527616262436, -0.05275725945830345, 0.051946185529232025, 0.06555209308862686, -0.0017733520362526178, 0.03436189517378807, -0.01313536986708641, -0.027199873700737953, 0.12950432300567627, -0.012256013229489326, -0.06490076333284378, -0.08588681370019913, -0.06661739200353622, -0.008908495306968689, 0.0797375962138176, -0.048428770154714584, -0.04820422828197479, -0.03942703828215599, -0.05871371179819107, -0.12747181951999664, -0.034442637115716934, -0.044108666479587555, 0.07927288860082626, -0.003560056211426854, -0.3350631296634674, 0.11140864342451096, 0.008228427730500698, -0.12538382411003113, -0.00313430093228817, -0.0073951249942183495, 0.011784163303673267, 0.008646017871797085, -0.2241889089345932, 0.039536312222480774, -0.050986435264348984, 0.021974651142954826, -0.12094182521104813, -0.094893679022789, -0.1280958205461502, 0.10983727872371674, -0.09413368254899979, -0.03616010770201683, -0.008093348704278469, -0.002785935765132308, -0.07301417738199234, -0.08576367795467377, -0.08930355310440063, -0.08542263507843018, -0.06966084986925125, 0.10624402016401291, -0.10424356162548065, -0.0005401515518315136, -0.12599396705627441, -0.11569810658693314, -0.04808364436030388, -0.01720653474330902, 0.042394787073135376, -0.0030800639651715755, 0.06351961195468903, 0.05409161001443863, -0.010152905248105526, -0.08276528865098953, -0.011977363377809525, 0.059361644089221954, -0.05504835397005081, 0.021040000021457672, -0.09531068056821823, 0.022335723042488098, -0.061678268015384674, 0.12071972340345383, 0.03291165083646774, -0.08364851772785187, -0.018835145980119705, 0.030397355556488037, -0.03537411242723465, -0.005222395993769169, 0.0667261853814125, -0.012756244279444218, -0.012276122346520424, -0.06476106494665146, -0.12095426023006439, -0.14669671654701233, 0.03401924669742584, -0.019161110743880272, -0.09988939017057419, -0.030187711119651794, -0.011929472908377647, 3.521597682265565e-05, -0.016667498275637627, 0.0010837264126166701, -0.32111042737960815, 0.02820451371371746, 0.0918470248579979, -0.057829588651657104, -0.032562337815761566, 0.01845414936542511, -0.11363543570041656, 0.1035919338464737, -0.13958200812339783, -0.03635783866047859, -0.0722690150141716, 0.0008508215541951358, -0.12472407519817352, 0.030254676938056946, -0.016826864331960678, -0.00748513825237751, 0.19075952470302582, 0.009578200988471508, 0.009444364346563816, 0.013938150368630886, -0.023428943008184433, 0.06413319706916809, 0.0018473770469427109, -0.049778763204813004, -0.03198464959859848, -0.06850332766771317, -0.1305728554725647, -0.10423220694065094, 0.0364319384098053, -0.101214699447155, 0.08939944207668304, 0.1630389392375946, 0.006902622990310192, -0.10216287523508072, -0.12373523414134979, 0.002608927432447672, -0.030167143791913986, -0.1275126338005066, 0.012421450577676296, 0.013027253560721874, -0.025357337668538094, -0.11913041025400162, -0.02896241843700409, -0.09672083705663681, 0.03477587178349495, -0.037647902965545654, 0.0331321619451046, -0.0465153343975544, -0.0793766975402832, -0.05638250708580017, -0.0634627416729927, -0.013053703121840954, -0.058670852333307266, -0.002326853107661009, -0.09776449203491211, -0.05882664769887924, -9.388760372530669e-05, 0.05494769662618637, 0.03223496675491333, -0.02286897413432598, 0.016628790646791458, -0.008783315308392048, -0.0049500432796776295, -0.11888490617275238, -0.03718862682580948, 0.06434689462184906, -0.06457581371068954, -0.0468570776283741, 0.06650253385305405, 0.10045718401670456, -0.07079017162322998, -0.04031351953744888, 0.06227293610572815, 0.039315856993198395, 0.06533731520175934, -0.10685383528470993, -0.06892216950654984, -0.08496502041816711, -0.0035179778933525085, -0.015951069071888924, 0.003484726883471012, -0.04196587949991226, -0.08612018823623657, -0.005383276380598545, -0.007531882729381323, -0.06669576466083527, 0.01917402260005474, -0.09295637160539627, -0.027277104556560516, -0.010175265371799469, -0.06348392367362976, -0.10040484368801117, -0.11976828426122665, -0.1146070808172226, -0.0994480550289154, -0.08506855368614197, 0.025846147909760475, 0.021131053566932678, -0.0711316466331482, 0.026422474533319473, -0.06782981008291245, -0.0885234847664833, 0.012752854265272617, -0.09816014021635056, -0.030355283990502357, 0.062303245067596436, -0.07093970477581024, -0.08475582301616669, -0.03635130450129509, 0.03051796741783619, 0.10056787729263306, -0.09991126507520676, -0.017267024144530296, 0.09376750141382217, 0.035828135907649994, 0.16476847231388092, -0.1224382147192955, -0.11217720806598663, 0.008713866584002972, -0.056405652314424515, 0.07677597552537918, -0.05799897760152817, -0.019452165812253952, -0.053527846932411194, -0.11154520511627197, -0.01762484386563301, -0.1185765191912651, -0.11305244266986847, 0.11993754655122757, -0.06438898295164108, -0.02691033110022545, -0.060382526367902756, -0.055161260068416595, -0.013583170250058174, 0.025958430022001266, 0.044174328446388245, -0.04634517431259155, 0.0071159545332193375, 0.06092381104826927, -0.10140489786863327], [-0.0804605782032013, -0.055273693054914474, 0.008889282122254372, 0.11551490426063538, 0.19574901461601257, 0.010428249835968018, -0.05148034915328026, 0.033072564750909805, 0.011041434481739998, -0.02787039801478386, -0.03369724377989769, 0.07358418405056, 0.019398652017116547, 