'use strict';

function assert(exp) {
  if (!exp)
    throw new Error('Assertion failure');
}
assert.strictEqual = (a, b) => {
  if (a !== b)
    throw new Error('Assert equal failure');
};

const weights = {"haggle/lstm/kernel:0": [[-0.21249134838581085, -0.23603284358978271, 0.0272580124437809, 0.2106180340051651, -0.04642001911997795, -0.11390409618616104, -0.1470341682434082, 0.08760327845811844, -0.32154011726379395, 0.6905928254127502, 0.07806587219238281, 0.10318320244550705, 0.06823708862066269, 0.04351471737027168, 0.10138291865587234, -0.05779773369431496, 0.199857696890831, -0.07843083143234253, 0.031630441546440125, 0.1573021113872528, -0.0012439751299098134, 0.16640111804008484, 0.05634134262800217, 0.02898271195590496, 0.16046112775802612, -0.15916740894317627, -0.2821093201637268, 0.059503622353076935, -0.06257414817810059, -0.32892704010009766, -0.14768877625465393, 0.03879064694046974, -0.027414152398705482, -0.27484023571014404, -0.06993936002254486, -0.5526164770126343, 0.023512521758675575, 0.15212970972061157, -0.06966392695903778, -0.14491336047649384, 0.1030527725815773, 0.8309007287025452, -0.12190549820661545, 0.016960429027676582, -0.17967432737350464, 0.07843530178070068, -0.014276579022407532, 0.10724793374538422, 0.15229719877243042, 0.054445087909698486, 0.1406359225511551, -0.1535942256450653, 0.1269785612821579, -0.049563243985176086, 0.01518434751778841, -0.22588783502578735, 0.4040197432041168, 0.25982463359832764, -0.11454925686120987, -0.044071465730667114, 0.2024007886648178, -0.06888779997825623, -0.12348441779613495, -0.015151359140872955, -0.21340523660182953, -0.24573573470115662, -0.1662609577178955, -0.3060545027256012, -0.10403025895357132, -0.0076147811487317085, -0.08164442330598831, 0.3108431398868561, -1.9890168914571404e-05, 0.12896360456943512, 0.4005608558654785, 0.23453593254089355, 0.10238953679800034, -0.09373898804187775, 0.14191661775112152, -0.0907960757613182, 0.2653956413269043, -0.28840377926826477, -0.06833865493535995, 0.027605095878243446, 0.09280255436897278, 0.15663251280784607, -0.09095122665166855, -0.04542135074734688, 0.29660964012145996, -0.03847257420420647, -0.3334597051143646, 0.025218235328793526, -0.0117452722042799, -0.22820481657981873, -0.19425050914287567, -0.09889546781778336, 0.03938545659184456, -0.26685452461242676, 0.0428512841463089, 0.09581658989191055, -0.05582842230796814, -0.15591223537921906, -0.05121622234582901, 0.030515678226947784, 0.05628732591867447, -0.06844057887792587, 0.006322867702692747, -0.04905439168214798, 0.07403270155191422, -0.07899485528469086, 0.021723147481679916, -0.01826588064432144, 0.2559903562068939, -0.1903514415025711, -0.02201775088906288, -0.1472417265176773, 0.15123394131660461, -0.11300636827945709, -0.03734799847006798, -0.10855750739574432, 0.3069332242012024, -0.055503059178590775, -0.3842591941356659, -0.29585111141204834, 0.003616450587287545, -0.013827916234731674, 0.05570688843727112, -0.25507938861846924], [0.10407788306474686, -0.30696791410446167, -0.3003140389919281, 0.3923964202404022, -0.34456562995910645, -0.2317953109741211, -0.24136924743652344, -0.11361031234264374, -0.4048070013523102, 0.1850680261850357, 0.12847591936588287, 0.15933839976787567, 0.046207401901483536, 0.3172835409641266, 0.20584572851657867, 0.3779005706310272, 0.028990527614951134, 0.10039694607257843, -0.09315419942140579, -0.17896820604801178, 0.12676717340946198, -0.11336097866296768, 0.12401317805051804, -0.034359291195869446, 0.4445935785770416, -0.14697544276714325, -0.0244973786175251, 0.03435136750340462, 0.09006179124116898, -0.0005582345183938742, 0.08278042823076248, -0.09946489334106445, -0.07939094305038452, -0.5059084296226501, -0.11178365349769592, -0.00827751588076353, -0.12287365645170212, 0.17419318854808807, -0.43047112226486206, 0.08961227536201477, -0.5319727659225464, -0.28370991349220276, 0.0524723082780838, -0.39362281560897827, -0.041231609880924225, -0.20752732455730438, -0.04513780400156975, 0.09373088926076889, 0.2560933828353882, -0.09412157535552979, -0.03249577060341835, -0.07150330394506454, -0.3367045521736145, -0.16811521351337433, -0.07329600304365158, -0.2483712136745453, 0.4100109040737152, 0.6759319305419922, 0.10105773061513901, -0.13649967312812805, 0.02185632288455963, 0.11057969927787781, 0.10391941666603088, 0.07911455631256104, -0.14462155103683472, -0.044638313353061676, -0.07785703241825104, -0.104963019490242, -0.1882512867450714, -0.3278113603591919, -0.304080069065094, -0.07176753133535385, -0.5995122194290161, -0.3859482705593109, -0.3025161027908325, -0.3530544340610504, -0.3012932538986206, -0.053018718957901, 0.14800548553466797, 0.10178949683904648, -0.23995469510555267, -0.17154845595359802, -0.19745498895645142, -0.16976481676101685, -0.16968265175819397, -0.016276832669973373, -0.14978815615177155, -0.03687519580125809, 0.4091041684150696, -0.027290573343634605, -0.0077331941574811935, 0.054769307374954224, -0.08206456154584885, -0.11468278616666794, -0.21891607344150543, -0.22095449268817902, -0.0260638315230608, -0.18252447247505188, -0.19319719076156616, 0.2885323762893677, -0.277617484331131, 0.03407689929008484, -0.06871691346168518, 0.3935534656047821, -0.6937726140022278, -0.1934388428926468, -0.3551175594329834, -0.12669846415519714, -0.09922889620065689, 0.045717574656009674, 0.027847182005643845, -0.08934837579727173, -0.3723564147949219, 0.18502362072467804, 0.03355083614587784, -0.28468137979507446, -0.15052004158496857, -0.10136726498603821, 0.04542741924524307, -0.19518069922924042, 0.10075975209474564, -0.05859203264117241, 0.1487649381160736, 0.0341312550008297, -0.08261120319366455, 0.052412088960409164, 0.016641711816191673, -0.47635209560394287], [-0.17980457842350006, -0.5676846504211426, 0.1101938858628273, 0.09025067836046219, -0.1301061511039734, -0.027004452422261238, 0.5181226134300232, 0.4333029091358185, 0.32255056500434875, -0.12925387918949127, -0.23745813965797424, 0.10109139233827591, -0.2523726522922516, -0.05116499960422516, 0.208395853638649, -0.2175162136554718, -0.009919844567775726, 0.10469187051057816, 0.04020210728049278, -0.23790061473846436, 0.08333547413349152, 0.0693855956196785, -0.26823318004608154, 0.051120661199092865, 0.2672973871231079, -0.5282683968544006, -0.1684378832578659, 0.0491214320063591, 0.04623763635754585, -0.2589179575443268, 0.37095770239830017, -0.16075477004051208, -0.10646632313728333, 0.014499610289931297, 0.07708922773599625, 0.06744085997343063, 0.21637021005153656, 0.007157808169722557, 0.1417967528104782, -0.04123798757791519, -0.03164508566260338, -0.1367991864681244, -0.6839829683303833, -0.3956783711910248, -0.11172289401292801, 0.06277124583721161, -0.45635366439819336, 0.14836347103118896, 0.38502228260040283, 0.03885878622531891, -0.043453510850667953, -0.165426567196846, -0.09112197905778885, -0.13478592038154602, 0.29557690024375916, -0.094845250248909, 0.3713217079639435, -0.0956621840596199, 0.034894488751888275, -0.10690993070602417, 0.2834462821483612, 0.08668689429759979, 0.019645480439066887, 0.035781484097242355, -0.02826918289065361, -1.250040054321289, 0.08396796137094498, -0.2531806230545044, 0.04350855574011803, -0.062392253428697586, 0.2838892340660095, 0.27845484018325806, 0.11017768830060959, -0.046585772186517715, -0.22879929840564728, 0.0012568033998832107, -0.15442492067813873, 0.027099475264549255, 0.2438644915819168, -0.2905031144618988, -0.4243614971637726, -0.06351298838853836, 0.04094719514250755, -0.0068773142993450165, -0.21975132822990417, -0.088422492146492, -0.05317017808556557, -0.0020140584092587233, 0.28343626856803894, -0.45054733753204346, -0.12215497344732285, -0.08127087354660034, 0.21551591157913208, -0.15197719633579254, 0.2338140308856964, -0.09354706853628159, -0.05370664969086647, -0.6345565319061279, -0.11820090562105179, -0.15090754628181458, -0.030702194198966026, 0.14092670381069183, 0.5724796056747437, 0.23832717537879944, 0.19597430527210236, -0.10797213017940521, -0.41499292850494385, -0.06807374954223633, -0.34506434202194214, 0.1478651911020279, 0.12261327356100082, -0.27308037877082825, -0.24884988367557526, 0.1162288561463356, -0.29885393381118774, 0.07514213770627975, -0.18702897429466248, -0.18278805911540985, -0.27675187587738037, 0.08372312039136887, 0.200090229511261, -0.16850093007087708, -0.1106758788228035, 0.03151972219347954, 0.07811708748340607, -0.3561827838420868, 0.15484382212162018, -0.06467411667108536], [-0.3106299042701721, -0.18680739402770996, -0.24369610846042633, -0.0009305485873483121, 0.08150903135538101, 0.22232896089553833, -0.10479908436536789, -0.24756430089473724, 0.2527349889278412, 0.05612420663237572, 0.3172331154346466, 0.38641923666000366, 0.16651438176631927, -0.20958225429058075, 0.17580388486385345, -0.0041900877840816975, 0.08940058201551437, -0.6263388991355896, -0.3558296859264374, 0.1509496420621872, 0.13316798210144043, 0.17236334085464478, -0.03610558807849884, 0.07762028276920319, 0.23105388879776, 0.05394955351948738, 0.47255006432533264, 0.16833928227424622, -0.0368664525449276, -0.18362097442150116, -0.14601078629493713, 0.03935043513774872, 0.30553191900253296, 0.19361868500709534, 0.1670006662607193, -0.19197429716587067, 0.16371160745620728, 0.027541620656847954, -0.01624995283782482, -0.871201753616333, -0.19755351543426514, -0.027708187699317932, -0.004326833877712488, -0.1305464506149292, -0.013928554020822048, 0.30858197808265686, 0.12295268476009369, -0.03295986354351044, 0.5886375904083252, -0.1555173099040985, 0.01986735500395298, -0.20355525612831116, 0.20029738545417786, 0.5931195616722107, 0.044633667916059494, 0.15094685554504395, 0.44889387488365173, -0.0505131371319294, -0.08257602155208588, 0.04886744171380997, 0.0030171906109899282, -0.047289781272411346, 0.44388246536254883, 0.04521312937140465, -0.21012580394744873, -0.21056216955184937, -0.11930034309625626, -0.13588042557239532, -0.027163876220583916, 0.08290743827819824, -0.09323660284280777, -0.20505023002624512, 0.0893518254160881, -0.2660471796989441, -0.058877862989902496, -0.009488527663052082, -0.05693839117884636, -0.11554864794015884, -0.18000681698322296, 0.12591366469860077, -0.0901070311665535, -0.4913693070411682, 0.07985635101795197, -0.039860766381025314, 0.008233634755015373, 0.26787692308425903, -0.17839419841766357, 0.15072183310985565, 0.13239717483520508, 0.23466162383556366, 0.29906943440437317, -0.174240842461586, 0.12993699312210083, 0.10138990730047226, -0.034502577036619186, -0.008595175109803677, -0.011029541492462158, -0.17168636620044708, -0.16712704300880432, -0.022200051695108414, 0.13819685578346252, -0.41845038533210754, -0.05406390503048897, -0.051174286752939224, 0.09074702113866806, -0.21456362307071686, -0.13701175153255463, 0.2963036596775055, 0.10260111838579178, -0.08567903190851212, 0.31942984461784363, 0.2945669889450073, 0.3243474066257477, -0.5261803865432739, 0.17470240592956543, -0.07118868082761765, -0.1458563655614853, 0.11083010584115982, -0.02639049105346203, -0.08875822275876999, 0.28901633620262146, 0.3548710346221924, -0.1452053338289261, -0.07556689530611038, 0.10817893594503403, -0.11533226817846298, -0.01291092112660408, 0.0007984003168530762], [0.11935862898826599, -0.16866126656532288, 0.1526140570640564, 0.0653793215751648, 0.00866369903087616, 0.09829270839691162, 0.08787679672241211, -0.05429019033908844, -0.10510381311178207, -0.04461374878883362, 0.05805377662181854, -0.01833447813987732, -0.003418639302253723, -0.134651780128479, 0.12123340368270874, 0.03474217653274536, 0.03231425583362579, -0.15782055258750916, 0.17003241181373596, 0.17656654119491577, 0.002889499068260193, -0.14573563635349274, 0.06849481165409088, -0.048351213335990906, -0.17222531139850616, -0.029742449522018433, 0.0051198601722717285, 0.07442504167556763, 0.10204017162322998, -0.059980608522892, -0.025206580758094788, -0.04116976261138916, -0.1395946741104126, 0.06776633858680725, 0.057715341448783875, -0.07105917483568192, 0.09605687856674194, 0.14996138215065002, 0.08008554577827454, -0.012220948934555054, 0.11648523807525635, -0.17056870460510254, -0.14892317354679108, -0.04998643696308136, -0.060915373265743256, -0.08665536344051361, -0.07602547854185104, 0.15071842074394226, -0.17623431980609894, -0.030044034123420715, 0.11131960153579712, 0.0618000328540802, 0.03956294059753418, -0.07039084285497665, -0.08802212029695511, -0.020750954747200012, -0.012313440442085266, 0.0036384165287017822, -0.14091774821281433, -0.12955845892429352, -0.052193015813827515, 0.15651991963386536, 0.16455703973770142, -0.13423208892345428, -0.027828708291053772, -0.0468720942735672, -0.10623718798160553, 0.03281347453594208, 0.09253484010696411, 0.014237910509109497, -0.13186988234519958, 0.1239084005355835, -0.028388068079948425, -0.08188297599554062, 0.03778500854969025, -0.16393455862998962, -0.028836116194725037, -0.1708747297525406, 0.03347031772136688, 0.11286520957946777, 0.045126333832740784, 0.12722352147102356, -0.10680820792913437, -0.15141379833221436, 0.13169050216674805, 0.14256533980369568, -0.07334735244512558, -0.13123522698879242, -0.16255047917366028, -0.16739626228809357, 0.03571048378944397, 0.0277135968208313, -0.05269528180360794, -0.07732424885034561, 0.050406306982040405, 0.140598326921463, 0.15515828132629395, 0.06569388508796692, -0.06346283853054047, 0.0608849972486496, 0.018814057111740112, -0.040194928646087646, -0.0398324579000473, -0.14308904111385345, -0.13354891538619995, -0.08687441796064377, -0.07700976729393005, 0.05439642071723938, 0.09907737374305725, 0.06967847049236298, -0.011283308267593384, 0.08956843614578247, 0.01857513189315796, 0.07707801461219788, -0.05415479838848114, 0.015595212578773499, -0.052295953035354614, 0.17041543126106262, -0.07064886391162872, 0.1379851996898651, 0.08239877223968506, -0.1145506277680397, 0.060501039028167725, -0.023626253008842468, -0.1746516227722168, 0.1736113429069519, -0.14801861345767975, 0.023800387978553772], [0.14590421319007874, 0.018752321600914, 0.1311376988887787, 0.09603467583656311, 0.0979447066783905, -0.15853509306907654, -0.011912137269973755, 0.021905288100242615, -0.04881587624549866, -0.12212887406349182, 0.1694578230381012, 0.07146289944648743, 0.10804465413093567, -0.05106174945831299, -0.17107181251049042, 0.10125866532325745, 0.1606067419052124, 0.08347916603088379, 0.11125388741493225, 0.09564098715782166, -0.16294929385185242, -0.035615578293800354, 0.05645805597305298, 0.03297252953052521, -0.12413908541202545, -0.13878482580184937, 0.1200612485408783, -0.03614860773086548, -0.11877349764108658, 0.1618739366531372, 0.06660959124565125, -0.15270759165287018, -0.031614094972610474, 0.08163169026374817, -0.13632787764072418, 0.06773148477077484, -0.0534537136554718, 0.09949007630348206, -0.11161063611507416, 0.117861807346344, -0.14611315727233887, -0.09314215183258057, 0.061486274003982544, -0.09052707999944687, 0.030713632702827454, 0.052877575159072876, -0.02741307020187378, -0.01072894036769867, 0.1695457398891449, -0.00813959538936615, -0.16757039725780487, 0.06214340031147003, -0.038786426186561584, 0.1066165566444397, -0.11864914000034332, 0.12090227007865906, -0.12740208208560944, 0.14439013600349426, 0.12385624647140503, 0.04530499875545502, -0.05617742985486984, -0.10453646630048752, -0.14428453147411346, 0.03443238139152527, -0.09031333774328232, -0.05258478224277496, 0.09771648049354553, -0.010372921824455261, -0.15817716717720032, -0.02865530550479889, 0.10083243250846863, -0.10463087260723114, -0.03718027472496033, 0.06743089854717255, 0.15827131271362305, -0.08234256505966187, -0.03260578215122223, -0.07315444946289062, 0.17048975825309753, 0.10717597603797913, 0.11811593174934387, 0.016011148691177368, 0.03934586048126221, 0.015833452343940735, 0.04146455228328705, -0.11107815057039261, 0.0776166319847107, -0.07153499126434326, -0.09460150450468063, 0.06343431770801544, 0.17427495121955872, -0.09816786646842957, -0.15282100439071655, -0.04938283562660217, 0.14513182640075684, 0.056984156370162964, 0.030064910650253296, 0.045334696769714355, 0.10679623484611511, 0.08195269107818604, 0.11572301387786865, 0.09060508012771606, 0.1133459210395813, 0.11368367075920105, 0.08361127972602844, 0.12168309092521667, -0.016095533967018127, 0.08031967282295227, -0.14300090074539185, -0.044252246618270874, 0.16882550716400146, -0.06640422344207764, -0.12395434081554413, 0.036051422357559204, 0.1290520429611206, 0.09713152050971985, -0.12700580060482025, -0.010292336344718933, 0.03607542812824249, -0.1291792094707489, -0.03251856565475464, -0.04986588656902313, -0.0003247857093811035, -0.17398695647716522, 0.0292893648147583, 0.011583924293518066, -0.1202162355184555, -0.033132001757621765], [-0.16745136678218842, -0.03245154023170471, 0.031080931425094604, 0.005724862217903137, 0.031008675694465637, 0.02392272651195526, -0.09377259016036987, -0.14427907764911652, -0.13886608183383942, -0.033118829131126404, 0.1382562220096588, 0.13983255624771118, 0.07357490062713623, 0.01990373432636261, -0.1419842690229416, 0.07568150758743286, 0.02781468629837036, -0.14007019996643066, 0.15163713693618774, -0.057381972670555115, -0.02599605917930603, -0.14055940508842468, -0.03762008249759674, -0.05425591766834259, 0.046904802322387695, 0.016904041171073914, 0.15513452887535095, -0.051095008850097656, 0.0892798900604248, -0.1659069061279297, -0.12041053175926208, -0.13388016819953918, 0.06471335887908936, -0.0687652975320816, 0.04012934863567352, 0.1649775505065918, 0.09139984846115112, 0.0019952505826950073, -0.030099228024482727, -0.11741594970226288, 0.12939003109931946, 0.0614292174577713, 0.06575748324394226, 0.015047639608383179, 0.17263659834861755, 0.16995686292648315, -0.021422073245048523, 0.1398436427116394, -0.06628552824258804, 0.0786251425743103, -0.013722091913223267, -0.02363187074661255, -0.1705304980278015, -0.03835366666316986, -0.03981652855873108, 0.12474185228347778, 0.023332133889198303, 0.043669477105140686, 0.07109189033508301, 0.06436583399772644, -0.06062684208154678, 0.02075137197971344, -0.06793823838233948, -0.13465677201747894, 0.017862379550933838, 0.040401071310043335, -0.03973965346813202, 0.13670897483825684, 0.03235359489917755, 0.07423186302185059, -0.05840040743350983, 0.12559935450553894, -0.03564119338989258, -0.14264923334121704, 0.06080634891986847, 0.16201618313789368, -0.03633953630924225, -0.14233416318893433, 0.14648514986038208, -0.14899328351020813, -0.034929320216178894, -0.11214640736579895, 0.05313260853290558, -0.15861959755420685, 0.1324717104434967, -0.00373801589012146, -0.018324464559555054, -0.02381940186023712, -0.13597135245800018, 0.03428000211715698, -0.101711206138134, -0.08517061918973923, -0.12131863832473755, -0.0876452773809433, 0.1024581789970398, -0.058954015374183655, 0.13756117224693298, 0.021484866738319397, 0.06982877850532532, 0.11151990294456482, -0.047287359833717346, 0.08964288234710693, -0.07880447059869766, -0.15329863131046295, 0.08774268627166748, 0.08652263879776001, 0.020280927419662476, -0.036581575870513916, 0.00512772798538208, -0.0004764944314956665, -0.07276158779859543, -0.04439528286457062, 0.152131587266922, -0.024448320269584656, 0.09416413307189941, -0.013094693422317505, -0.17312107980251312, -0.15615542232990265, 0.0734715461730957, -0.0005484968423843384, -0.032302796840667725, 0.07088795304298401, 0.05468524992465973, -0.1756344437599182, -0.12180467694997787, 0.0026457905769348145, 0.15923231840133667, -0.17183198034763336], [0.012720763683319092, -0.13291126489639282, 0.028262346982955933, 0.11950868368148804, 0.08031946420669556, -0.10344551503658295, 0.09765371680259705, 0.012815922498703003, 0.11873769760131836, 0.09524348378181458, 0.04575367271900177, 0.0105380117893219, 0.11515787243843079, -0.1216859370470047, 0.05812045931816101, 0.032411232590675354, -0.08132928609848022, 0.11090710759162903, -0.08387678861618042, 0.1525479257106781, 0.054260313510894775, -0.11820412427186966, 0.04840590059757233, -0.1638382524251938, -0.0884181559085846, 0.07736468315124512, -0.08638297021389008, -0.018933385610580444, -0.009324774146080017, -0.002376571297645569, 0.02456025779247284, 0.10129392147064209, -0.1220325231552124, -0.11263443529605865, -0.03692995011806488, -0.14480897784233093, -0.04615236818790436, -0.1555914580821991, 0.1758188009262085, 0.04387226700782776, -0.056200042366981506, 0.12218031287193298, -0.05037012696266174, 0.05762794613838196, 0.06596022844314575, 0.0153893381357193, -0.047403484582901, 0.0382380485534668, 0.0596395879983902, 0.03052745759487152, -0.17317119240760803, 0.05904360115528107, -0.14197802543640137, 0.011600568890571594, 0.09296944737434387, 0.11012470722198486, 0.16078615188598633, 0.16928866505622864, 0.16894951462745667, 0.1547839641571045, -1.5422701835632324e-05, -0.08121684193611145, -0.045537278056144714, 0.09056279063224792, 0.06198562681674957, -0.14146679639816284, 0.14187946915626526, 0.023846745491027832, -0.12088465690612793, 0.020055055618286133, 0.03603100776672363, 0.11317765712738037, -0.16642388701438904, 0.015262439846992493, -0.14299172163009644, 0.09749668836593628, -0.09686914086341858, -0.09635385870933533, 0.14604875445365906, -0.07855730503797531, -0.019652903079986572, -0.08282379060983658, 0.03821477293968201, 0.06511850655078888, 0.11200201511383057, 0.012172266840934753, 0.17099523544311523, -0.07908762991428375, 0.16576078534126282, 0.07371968030929565, 0.09311452507972717, -0.15640676021575928, 0.08835545182228088, -0.1523350477218628, 0.1555567979812622, 0.11880767345428467, -0.15870817005634308, -0.1531032770872116, 0.013069882988929749, -0.004968240857124329, 0.04917691648006439, -0.13568979501724243, 0.12429910898208618, -0.15649081766605377, 0.044951602816581726, 0.06909798085689545, -0.014996647834777832, 0.023784801363945007, -0.0303814560174942, 0.08004897832870483, -0.1425534337759018, 0.022895827889442444, -0.09497053176164627, 0.1624293327331543, 0.00188368558883667, -0.12485732138156891, 0.06450000405311584, 0.09005886316299438, 0.012832030653953552, -0.06762447953224182, 0.06116819381713867, 0.09366336464881897, -0.07536926865577698, 0.15441393852233887, -0.16722215712070465, 0.10582488775253296, -0.14618948101997375, -0.09518241137266159], [0.02433675527572632, -0.10720863193273544, -0.013690263032913208, -0.0043907612562179565, 0.13440537452697754, -0.020668208599090576, -0.03721319139003754, -0.14305463433265686, 0.14790821075439453, 0.005960568785667419, -0.0060501545667648315, 0.09188222885131836, -0.02377605438232422, 0.09669753909111023, 0.14130398631095886, -0.11110840737819672, 0.12589168548583984, 0.017860442399978638, -0.16832730174064636, -0.07063420116901398, -0.10165373235940933, -0.16055002808570862, -0.14904563128948212, 0.16995471715927124, 0.17718249559402466, 0.10217088460922241, -0.058575816452503204, 0.04007771611213684, -0.08151441067457199, -0.1682056486606598, 0.16399109363555908, -0.011209443211555481, 0.008893921971321106, -0.00528264045715332, -0.17616713047027588, 0.07842019200325012, -0.15256251394748688, 0.005503982305526733, 0.05338276922702789, 0.07621833682060242, -0.04395349323749542, 0.1359807848930359, 0.07622167468070984, 0.08011588454246521, 0.0565766841173172, -0.030853554606437683, 0.0646289587020874, -0.16017693281173706, -0.0904385894536972, -0.024120613932609558, 0.049364492297172546, 0.15683382749557495, 0.15615913271903992, 0.07837271690368652, 0.1100214421749115, -0.07054334878921509, -0.08812011778354645, -0.1481291651725769, -0.0021755248308181763, 0.16181114315986633, 0.08273923397064209, -0.15085022151470184, -0.13843649625778198, -0.11666668951511383, 0.11685997247695923, 0.12957942485809326, -0.08219614624977112, -0.16512946784496307, -0.0030076801776885986, -0.10287974029779434, -0.11121527850627899, 0.17720642685890198, -0.12128981947898865, -0.0745454654097557, -0.07156343013048172, 0.15022924542427063, -0.07282835245132446, 0.07167084515094757, 0.07038480043411255, -0.04879850149154663, 0.16560649871826172, -0.053669437766075134, -0.11768774688243866, 0.046439558267593384, -0.03728722035884857, 0.13298377394676208, -0.03670792281627655, -0.009379744529724121, 0.01930364966392517, 0.06565999984741211, 0.16165825724601746, 0.10082048177719116, -0.11276281625032425, 0.09624812006950378, 0.16927391290664673, -0.10866878181695938, 0.17101383209228516, -0.1675989180803299, 0.006951659917831421, 0.024454519152641296, 0.07713818550109863, 0.046888068318367004, -0.1176263839006424, 0.0004177987575531006, -0.15119263529777527, -0.15118350088596344, -0.008367106318473816, 0.1421586275100708, 0.08696839213371277, -0.031946271657943726, -0.11067290604114532, -0.050686970353126526, -0.1328253597021103, -0.0902014896273613, 0.09798526763916016, 0.15867051482200623, 0.17628628015518188, -0.003430008888244629, -0.013243988156318665, 0.10954934358596802, -0.14798477292060852, -0.08400178700685501, -0.06193533539772034, -0.15510837733745575, -0.12782326340675354, -0.10840839892625809, -0.1085055023431778, 0.028478160500526428], [-0.13614675402641296, -0.15144410729408264, -0.05125097930431366, -0.010424554347991943, -0.07932862639427185, -0.04339058697223663, -0.05783720314502716, -0.04379713535308838, 0.08017900586128235, -0.12901842594146729, -0.001097157597541809, -0.16300980746746063, -0.1560870110988617, -0.04374152421951294, -0.07753080129623413, 0.108427494764328, 0.13929423689842224, 0.15165162086486816, 0.03711181879043579, -0.14065136015415192, -0.14457441866397858, -0.05813346803188324, -0.06768254190683365, 0.11776900291442871, -0.12199745327234268, -0.09052441269159317, 0.11049005389213562, 0.15788018703460693, -0.15391309559345245, -0.1704920530319214, 0.1297796666622162, 0.11104366183280945, 0.10035225749015808, -0.16411009430885315, 0.000705525279045105, -0.06791432201862335, 0.01407112181186676, -0.06639264523983002, -0.09556973725557327, 0.16004174947738647, -0.08692969381809235, -0.03013424575328827, 0.07599073648452759, -0.14745639264583588, -0.04278360307216644, -0.15595170855522156, 0.055051326751708984, -2.446770668029785e-05, -0.029968395829200745, -0.14373520016670227, -0.005658984184265137, -0.05565420538187027, -0.14573116600513458, -0.047325894236564636, 0.03314746916294098, -0.1383674144744873, -0.10334312915802002, -0.1733231395483017, -0.0006367713212966919, 0.12371280789375305, -0.1027948409318924, -0.1466466635465622, 0.09910914301872253, -0.10467557609081268, -0.052198633551597595, -0.1176602765917778, 0.05965341627597809, -0.13940882682800293, -0.043437063694000244, 0.015441566705703735, 0.020038962364196777, -0.0864986702799797, -0.04993121325969696, -0.036763995885849, -0.040760159492492676, 0.051518335938453674, -0.14611709117889404, -0.01799026131629944, 0.1157689094543457, -0.1132880300283432, -0.11938998103141785, 0.15818825364112854, -0.06694085150957108, -0.0696624144911766, 0.061945512890815735, 0.03166314959526062, -0.06927352398633957, 0.17461451888084412, -0.1556791067123413, -0.07318107038736343, -0.03459562361240387, -0.07902340590953827, 0.09960559010505676, 0.09598267078399658, 0.13685274124145508, 0.01551888883113861, 0.1540292203426361, 0.15045508742332458, 0.0974416434764862, -0.1437026560306549, -0.03635486960411072, -0.015103936195373535, 0.12431102991104126, 0.11242863535881042, -0.01807582378387451, -0.08349664509296417, 0.09486901760101318, 0.16927462816238403, 0.0655813068151474, -0.12044095993041992, -0.08118138462305069, -0.15248337388038635, -0.13847385346889496, -0.14643266797065735, 0.16285663843154907, -0.17543616890907288, -0.08729555457830429, -0.16702739894390106, 0.11635082960128784, 0.08728489279747009, 0.025336086750030518, 0.015934541821479797, -0.029047027230262756, -0.08243202418088913, -0.1768232136964798, -0.15879331529140472, 0.04821278154850006, -0.03260307013988495], [-0.12056700885295868, -0.07475894689559937, 0.1077379584312439, -0.04336598515510559, -0.028877943754196167, 0.023064136505126953, -0.05332554876804352, 0.16526499390602112, -0.12021378427743912, -0.04000917077064514, -0.14176076650619507, 0.013626247644424438, 0.04616387188434601, -0.1085439994931221, 0.10178101062774658, 0.10598990321159363, 0.13163256645202637, 0.04602175951004028, -0.06951658427715302, -0.004434868693351746, -0.053460560739040375, 0.06974524259567261, -0.014361009001731873, 0.13187211751937866, -0.13389436900615692, -0.17098581790924072, -0.05764252692461014, -0.11089500784873962, 0.1435653269290924, 0.05178193747997284, 0.1688401699066162, 0.08019065856933594, -0.07911340892314911, -0.06504025310277939, 0.1475500762462616, -0.01577860116958618, -0.16775180399417877, 0.13899174332618713, 0.0028056204319000244, 0.1721179187297821, -0.1476968377828598, 0.035943955183029175, 0.11449629068374634, 0.027097538113594055, -0.1758350282907486, 0.14917832612991333, -0.16332276165485382, -0.007355600595474243, 0.09706932306289673, 0.00914163887500763, 0.05636720359325409, 0.16853579878807068, -0.10158959031105042, 0.0032310187816619873, 0.04079549014568329, -0.003509700298309326, -0.16724345088005066, 0.06116621196269989, 0.001263946294784546, -0.05531691014766693, 0.014011919498443604, -0.10223548859357834, -0.13814425468444824, 0.037024348974227905, 0.042837947607040405, -0.0031941235065460205, 0.14633804559707642, -0.11622007191181183, 0.1411971151828766, -0.017882078886032104, -0.1771857738494873, 0.14995846152305603, 0.021364271640777588, 0.10546797513961792, -0.07347636669874191, 0.053834572434425354, -0.1265486627817154, 0.1544596552848816, 0.07958468794822693, -0.04515692591667175, -0.09659772366285324, -0.06471715867519379, 0.04479418694972992, 0.012109220027923584, 0.08286574482917786, -0.07622285932302475, -0.11379988491535187, 0.11812695860862732, 0.045624926686286926, -0.11089974641799927, -0.11867262423038483, -0.0021338164806365967, -0.14171099662780762, 0.06536555290222168, 0.012584775686264038, 0.046710461378097534, 0.09221270680427551, -0.0138016939163208, -0.05485719442367554, -0.11237408965826035, -0.11671828478574753, -0.01029917597770691, -0.02880612015724182, -0.11289757490158081, -0.05760910362005234, 0.018306344747543335, 0.09333416819572449, -0.07558072358369827, -0.15338192880153656, -0.0314042866230011, -0.04180973768234253, -0.01115746796131134, 0.06695674359798431, -0.15957926213741302, -0.06925108283758163, 0.11287641525268555, 0.003415048122406006, -0.09876310080289841, 0.09054562449455261, 0.08626604080200195, 0.16538786888122559, -0.0472223162651062, 0.08845466375350952, -0.010703712701797485, 0.17564868927001953, -0.15483476221561432, 0.0596691370010376, 0.0699310451745987], [0.07150783389806747, 0.3762933015823364, -0.07011713832616806, 0.17378446459770203, -0.06445641815662384, 0.05494512990117073, 0.2545914351940155, -0.03849223256111145, 0.007426556199789047, 0.30898916721343994, 0.1996220499277115, 0.2794564962387085, -0.06365835666656494, 0.18745969235897064, 0.2614850401878357, -0.1315167099237442, 0.4196476340293884, -0.12657342851161957, -0.08972632884979248, 0.31176993250846863, 0.24078674614429474, -0.2239789217710495, 0.13134267926216125, -0.07685122638940811, 0.22763878107070923, 0.5258097648620605, 0.15540197491645813, 0.21190506219863892, 0.2726212441921234, 0.06229438632726669, -0.09971759468317032, -0.005883464124053717, 0.07509241253137589, -0.0013553189346566796, -0.03183652460575104, 0.21264350414276123, 0.1023043617606163, 0.19153639674186707, -0.020488247275352478, -0.04285306856036186, 0.11925176531076431, 0.06968807429075241, 0.1086040586233139, -0.012583124451339245, 0.08025194704532623, -0.12488924711942673, 0.06954212486743927, -0.140319362282753, 0.00469393003731966, -0.07858412712812424, 0.010224599391222, -0.28260207176208496, -0.0397164486348629, 0.0856664627790451, -0.14743037521839142, -0.06343341618776321, -0.029156388714909554, 0.03032815083861351, -0.3264002203941345, -0.20563198626041412, -0.06476207077503204, 0.18451045453548431, 0.02287917770445347, -0.29741063714027405, -0.0019871965050697327, -0.08372258394956589, -0.27546098828315735, 0.059108916670084, -0.2212560772895813, -0.15266698598861694, -0.049650322645902634, 0.10056980699300766, -0.03172944486141205, 0.20401641726493835, -0.13066403567790985, -0.14609022438526154, -0.27904224395751953, -0.11671772599220276, 0.06015395373106003, -0.11439817398786545, -0.25040480494499207, -0.018721042200922966, -0.0073305703699588776, 0.16129374504089355, -0.11826162040233612, -0.26944440603256226, 0.2437160462141037, -0.015905827283859253, -0.16971683502197266, -0.09738895297050476, 0.16806770861148834, 0.1906919628381729, -0.1173604279756546, -0.08959522098302841, 0.009936507791280746, -0.0359317846596241, -0.19314727187156677, 0.26520034670829773, -0.23397190868854523, 0.202253058552742, -0.19121144711971283, 0.1227467805147171, 0.135268434882164, -0.032164230942726135, -0.05029422044754028, -0.0037404000759124756, -0.17926041781902313, 0.314933717250824, -0.20734846591949463, -0.003408849472180009, -0.22253230214118958, 0.02941654622554779, -0.002143352059647441, 0.0853123590350151, -0.006274083163589239, -0.03881112486124039, 0.07123241573572159, -0.2673943042755127, -0.0876842588186264, -0.00886388961225748, 0.39095228910446167, 0.3383469879627228, -0.1780565083026886, -0.013670693151652813, 0.03452973812818527, -0.05420216917991638, -0.06991802155971527, -0.03769930079579353], [-0.21125778555870056, 0.09748118370771408, -0.06787940114736557, 0.23104338347911835, -0.060883473604917526, -0.00033453182550147176, 0.029370952397584915, -0.13354969024658203, 0.06166938319802284, 0.08867130428552628, 0.37267446517944336, 0.3226199150085449, 0.05730060487985611, -0.1117263063788414, 0.041225895285606384, -0.23222890496253967, 0.44952765107154846, -0.08185191452503204, 0.1818014681339264, 0.262226402759552, 0.049446117132902145, -0.17360563576221466, -0.08442480117082596, -0.083006851375103, 0.3599422872066498, -0.10505760461091995, 0.08100339025259018, 0.10578881204128265, 0.22304874658584595, 0.05570477619767189, -0.07731560617685318, -0.03844878450036049, -0.04622946307063103, 0.15164834260940552, 0.09283536672592163, 0.1161864623427391, 0.007976033724844456, -0.06800223141908646, -0.1931757777929306, -0.015689536929130554, -0.06954558938741684, 0.06490956246852875, 0.013164917007088661, 0.0007186292205005884, 0.07696130871772766, 0.026595519855618477, 0.0071502020582556725, 0.15263202786445618, -0.05515233427286148, -0.15161827206611633, 0.13720163702964783, -0.26712480187416077, 0.16523955762386322, -0.02579554170370102, 0.0576893612742424, 0.08328855037689209, -0.07767543941736221, -0.23428943753242493, -0.16363611817359924, -0.1537361592054367, 0.19122524559497833, 0.17815141379833221, -0.12420165538787842, -0.20279255509376526, -0.22305859625339508, 0.04843354597687721, 0.05450793355703354, -0.23544040322303772, -0.07907726615667343, -0.05300479382276535, 0.036208268254995346, -0.1255469024181366, -0.026366595178842545, -0.17583011090755463, 0.07816038280725479, -0.0036604481283575296, -0.08962509781122208, -0.07583747059106827, -0.03435743227601051, -0.05546298623085022, -0.02829311043024063, -0.07069370895624161, 0.09122375398874283, 0.12127017229795456, -0.058918170630931854, -0.15258856117725372, 0.07155496627092361, 0.07989045977592468, -0.17355048656463623, -0.07574459910392761, 0.08058514446020126, -0.10388679057359695, -0.08061853051185608, -0.14516590535640717, 0.0625901073217392, -0.10276922583580017, -0.2030407041311264, 0.13634192943572998, 0.08878244459629059, 0.3260507583618164, -0.016520148143172264, -0.07289988547563553, -0.02643842250108719, 0.07069181650876999, 0.05477635934948921, -0.035715047270059586, 0.49379920959472656, 0.33738091588020325, -0.04620027914643288, -0.0886770486831665, -0.0428951159119606, -0.21264556050300598, 0.15753868222236633, -0.009898938238620758, -0.10869885236024857, -0.0629303827881813, -0.04503437876701355, -0.08631366491317749, -0.07595857977867126, -0.18896335363388062, 0.1629008948802948, -0.056073423475027084, -0.12253928929567337, 0.16681993007659912, 0.1973266303539276, -0.14043699204921722, 0.12143400311470032, 0.08967961370944977], [0.1410689353942871, 0.13122931122779846, -0.05950861796736717, 0.4576718807220459, 0.14093144237995148, 0.3142823278903961, -0.10810612887144089, 0.40052714943885803, -0.005722285248339176, 0.19388329982757568, 0.10097230970859528, 0.22759412229061127, 0.13006572425365448, 0.011037823744118214, 0.05200560763478279, 0.040027815848588943, 0.1976640224456787, 0.04463338479399681, -0.14324890077114105, -0.007077653426676989, 0.22549313306808472, 0.11242958158254623, 0.05359281972050667, 0.0004792037943843752, 0.4477698802947998, -0.0878860130906105, 0.07657016068696976, 0.22248254716396332, 0.08609827607870102, 0.14204123616218567, 0.03077057935297489, 0.09139663726091385, -0.05477937310934067, 0.2638161778450012, -0.010055243037641048, 0.1041693314909935, 0.04884517937898636, 0.26034316420555115, 0.026923876255750656, 0.10211938619613647, -0.06839056313037872, -0.02429739199578762, 0.03110482729971409, -0.11265005171298981, -0.20616117119789124, 0.12408747524023056, -0.3009756803512573, -0.11495990306138992, 0.027188997715711594, 0.045639295130968094, 0.035947978496551514, -0.15467751026153564, 0.3175322711467743, -0.007011079229414463, -0.013920492492616177, 0.1048951968550682, -0.02402428723871708, 0.02558431401848793, -0.012324783951044083, -0.025996694341301918, 0.05455879494547844, 0.08739831298589706, 0.029002483934164047, -0.02196008525788784, -0.16878914833068848, -0.1011066734790802, 0.05634211748838425, -0.06389346718788147, -0.16397573053836823, 0.0558350645005703, 0.03994082286953926, -0.11768345534801483, -0.008341495878994465, -0.21195103228092194, -0.2324536144733429, -0.05437764152884483, 0.0875290259718895, -0.028044063597917557, 0.1336318701505661, -0.011704683303833008, 0.020579345524311066, -0.2139243483543396, 0.12326397746801376, 0.013647631742060184, -0.09458299726247787, 0.01210326049476862, -0.03718188777565956, -0.02752247452735901, -0.11561112850904465, -0.023392854258418083, 0.033052634447813034, -0.04551771655678749, 0.10686001181602478, 0.03720245137810707, -0.041953716427087784, -0.09217019379138947, 0.061258114874362946, -0.1217888593673706, 0.11880821734666824, 0.18720722198486328, 0.04002412408590317, -0.0823206678032875, 0.04021838679909706, 0.2835621237754822, 0.15312373638153076, 0.11398310214281082, -0.14736543595790863, -0.021562082692980766, 0.08855774253606796, -0.0975327342748642, -0.1252802610397339, 0.06179409474134445, 0.5649185180664062, 0.07192151993513107, 0.08571349829435349, 0.12486623972654343, 0.08595754206180573, 0.28519728779792786, -0.06862792372703552, 0.05614364147186279, 0.33187296986579895, -0.09283750504255295, 0.08717913180589676, -0.004464395809918642, -0.04455425217747688, -0.16243283450603485, 0.06464831531047821, -0.10707304626703262], [0.013071835041046143, -0.079083152115345, 0.01254168152809143, -0.15700732171535492, 0.06522555649280548, 0.02628476917743683, 0.04417817294597626, -0.1516251266002655, -0.09589186310768127, -0.12840843200683594, -0.09947804361581802, 0.13583984971046448, 0.09028685092926025, 0.16526252031326294, 0.07356065511703491, -0.09281124174594879, -0.10052391141653061, 0.009698957204818726, -0.005033031105995178, 0.02116130292415619, -0.13698919117450714, 0.12024441361427307, -0.02841062843799591, 0.1656719148159027, 0.14053112268447876, 0.02678804099559784, -0.1637956202030182, 0.04245412349700928, -0.04975466430187225, -0.04632812738418579, -0.10814353078603745, 0.10325285792350769, -0.04173651337623596, 0.14639320969581604, 0.09922268986701965, -0.12730351090431213, 0.13505277037620544, 0.10654520988464355, 0.04429754614830017, -0.14652517437934875, -0.11979582160711288, -0.1628911942243576, 0.05384589731693268, -0.14194877445697784, -0.16083551943302155, 0.15897133946418762, 0.05970323085784912, -0.02595663070678711, -0.162889763712883, -0.034889012575149536, 0.039719074964523315, 0.017281100153923035, 0.1314733326435089, -0.009196817874908447, 0.11045566201210022, -0.16248683631420135, 0.13500285148620605, -0.11240671575069427, -0.08813338726758957, 0.015192285180091858, 0.01761189103126526, 0.1356099545955658, 0.1266210973262787, -0.017665177583694458, -0.0932464450597763, -0.14105123281478882, -0.15448617935180664, 0.13773620128631592, 0.046427980065345764, -0.1540617048740387, 0.15569856762886047, -0.057187922298908234, -0.13766133785247803, 0.03898493945598602, 0.1669919490814209, -0.09464079886674881, -0.11608392000198364, -0.09296928346157074, -0.058597154915332794, 0.13981831073760986, -0.1243070513010025, -0.05820513516664505, 0.16947618126869202, 0.10912182927131653, -0.12104815244674683, 0.08895647525787354, 0.10130041837692261, -0.1697254627943039, -0.052909061312675476, 0.10502976179122925, 0.17711004614830017, -0.07095970213413239, -0.12893995642662048, -0.043798401951789856, -0.08748165518045425, -0.1617998629808426, -0.058467887341976166, 0.10105299949645996, -0.029791712760925293, 0.0355355441570282, -0.10956738144159317, -0.14069518446922302, 0.09037140011787415, -0.1695811152458191, 0.05415809154510498, -0.009748026728630066, -0.09317587316036224, -0.025607511401176453, 0.06255516409873962, -0.06768554449081421, -0.08370049297809601, -0.14817163348197937, 0.044979020953178406, 0.049718692898750305, -0.16866320371627808, -0.08762258291244507, 0.08343392610549927, 0.09848889708518982, 0.15698331594467163, -0.12208983302116394, -0.12521734833717346, -0.04343508183956146, 0.1607266068458557, 0.10593670606613159, -0.13454154133796692, -0.17612360417842865, -0.15354174375534058, -0.06635347753763199], [-0.06326765567064285, 0.08380681276321411, 0.11136102676391602, -0.05781257152557373, 0.15469270944595337, 0.11074140667915344, -0.132121741771698, -0.07012855261564255, 0.025959044694900513, 0.1629880964756012, -0.024243071675300598, -0.15634989738464355, -0.0012391507625579834, 0.09073144197463989, 0.016315564513206482, 0.1608910858631134, 0.1427086889743805, 0.0648064911365509, -0.04527270793914795, -0.08913040161132812, 0.016849488019943237, -0.14196106791496277, -0.013637185096740723, 0.16157379746437073, 0.04915820062160492, -0.06350065767765045, -0.06903818994760513, 0.03921972215175629, -0.027585476636886597, -0.05576242506504059, 0.10385748744010925, -0.16120855510234833, 0.06015254557132721, 0.09578529000282288, 0.08869406580924988, 0.12322342395782471, -0.17680323123931885, 0.08794611692428589, 0.1534397006034851, 0.0007034987211227417, -0.016999587416648865, 0.04321284592151642, -0.08534547686576843, -0.05319983512163162, 0.14615339040756226, -0.1178019642829895, -0.0709817185997963, 0.057125672698020935, 0.12155309319496155, 0.0825793445110321, -0.09706525504589081, 0.04791262745857239, 0.11421453952789307, -0.17101925611495972, -0.06651920825242996, -0.06720711290836334, 0.012122660875320435, 0.04618152976036072, -0.046733707189559937, 0.08777537941932678, 0.06605695188045502, 0.007213607430458069, -0.09975910186767578, -0.032677069306373596, 0.08295944333076477, -0.13161739706993103, -0.17687201499938965, -0.11638094484806061, 0.07697394490242004, 0.07727083563804626, 0.0031980574131011963, 0.1257120668888092, 0.016580015420913696, 0.048641353845596313, 0.051189497113227844, -0.14210647344589233, 0.11656695604324341, 0.10665714740753174, 0.02604798972606659, -0.041929930448532104, 0.14757919311523438, -0.14743204414844513, 0.03362438082695007, 0.0526406466960907, -0.16840523481369019, 0.06247347593307495, 0.11377888917922974, -0.14332212507724762, -0.001801416277885437, -0.12011143565177917, 0.17608511447906494, 0.15851500630378723, -0.1580629050731659, -0.04811212420463562, -0.02375766634941101, 0.00396159291267395, -0.16596265137195587, -0.1634783148765564, -0.12850317358970642, -0.1567215770483017, -0.13308341801166534, -0.00231817364692688, -0.14497631788253784, 0.12826338410377502, 0.07643783092498779, -0.018871396780014038, -0.15493081510066986, -0.0751117542386055, -0.04450993239879608, 0.15507960319519043, 0.052476733922958374, 0.08031073212623596, -0.002863764762878418, -0.11270128935575485, -0.023090556263923645, 0.0057999491691589355, -0.032264307141304016, -0.02175205945968628, 0.0056265294551849365, -0.055306389927864075, -1.8924474716186523e-05, -0.04170072078704834, 0.16361242532730103, 0.04097427427768707, 0.1707746982574463, -0.0039098262786865234, 0.11222290992736816, -0.12675043940544128], [-0.026815339922904968, -0.13309352099895477, -0.1761157065629959, -0.16960811614990234, -0.11203903704881668, 0.14063358306884766, 0.12141287326812744, -0.1515856683254242, -0.1608402132987976, 0.11156642436981201, -0.11094546318054199, 0.17292851209640503, -0.0008161962032318115, 0.15578022599220276, 0.0750783383846283, 0.10917824506759644, -0.012412577867507935, -0.13000208139419556, 0.1694304645061493, 0.10276210308074951, 0.05918698012828827, 0.10800480842590332, 0.08737051486968994, 0.11946690082550049, 0.0629076212644577, -0.07476237416267395, -0.04468397796154022, 0.1533118486404419, 0.16588911414146423, -0.020110592246055603, -0.07424315810203552, 0.0447952002286911, -0.16275829076766968, 0.1291610300540924, 0.08011466264724731, -0.13552460074424744, 0.1462981104850769, -0.004331469535827637, 0.05675420165061951, -0.16808149218559265, 0.03433658182621002, -0.02402476966381073, -0.10129234939813614, 0.16877686977386475, -0.14108461141586304, 0.1192488968372345, 0.1339643895626068, 0.1239849328994751, 0.1138884425163269, -0.06667843461036682, -0.1277870088815689, -0.056463636457920074, -0.010270357131958008, -0.1259700357913971, 0.03394000232219696, -0.13017085194587708, -0.05667936056852341, 0.14345106482505798, -0.1613457202911377, -0.13305717706680298, -0.11970525979995728, 0.0789143443107605, -0.034578800201416016, 0.02419959008693695, 0.003038063645362854, -0.11737022548913956, 0.0034877657890319824, -0.11937785148620605, -0.1549891233444214, -0.09622598439455032, -0.12125673145055771, -0.019987329840660095, -0.1496836245059967, 0.014056339859962463, -0.07620000094175339, 0.02319420874118805, 0.04936741292476654, -0.06081286072731018, 0.032931625843048096, -0.15837602317333221, -0.1634645313024521, 0.10877242684364319, -0.14363910257816315, 0.09007221460342407, 0.017832010984420776, -0.0495292991399765, -0.09159871935844421, -0.06028646230697632, 0.15994739532470703, -0.11534927785396576, 0.08136257529258728, -0.17510144412517548, 0.009066328406333923, -0.12069065868854523, 0.0862075686454773, 0.05480167269706726, 0.173735111951828, 0.01392538845539093, 0.049760282039642334, 0.06848795711994171, 0.06187829375267029, -0.018221735954284668, 0.12945663928985596, -0.0991993173956871, -0.1596604287624359, -0.06836829334497452, 0.10410404205322266, 0.0462510883808136, -0.1417681723833084, -0.0673675611615181, 0.08268851041793823, 0.08962422609329224, 0.0807323157787323, 0.14216145873069763, -0.036502718925476074, 0.0013576298952102661, 0.003119915723800659, 0.07390865683555603, 0.07876229286193848, 0.06847621500492096, 0.011319652199745178, -0.16383571922779083, 0.047081053256988525, 0.09322041273117065, 0.1626874804496765, -0.08174103498458862, -0.015538126230239868, -0.13435256481170654], [0.04315072298049927, -0.04514956474304199, -0.09522783756256104, -0.11638031154870987, -0.0784749910235405, 0.03857758641242981, -0.1048211082816124, -0.13485293090343475, 0.1616525650024414, 0.02553732693195343, 0.032125622034072876, -0.1555713415145874, 0.16743016242980957, 0.15015316009521484, 0.022896721959114075, 0.0046045780181884766, -0.17103873193264008, 0.05607795715332031, -0.02303004264831543, 0.02571175992488861, -0.06601157039403915, 0.05744713544845581, -0.06019045412540436, -0.1263905018568039, 0.07944166660308838, 0.09400013089179993, 0.023688361048698425, 0.15276193618774414, -0.056037649512290955, 0.04725295305252075, -0.12982869148254395, 0.13232770562171936, -0.06108136475086212, 0.006983652710914612, -0.0031821727752685547, 0.15248847007751465, 0.09084177017211914, 0.07801127433776855, -0.02622179687023163, -0.15973813831806183, -0.04921622574329376, 0.06754478812217712, 0.16895052790641785, -0.0007709860801696777, 0.00029858946800231934, -0.10187169909477234, 0.15802356600761414, -0.052340663969516754, -0.11345434933900833, 0.10883396863937378, -0.007480934262275696, 0.07010932266712189, -0.12182986736297607, 0.028869792819023132, -0.17008626461029053, -0.04782934486865997, -0.016723722219467163, -0.15813575685024261, -0.10572101920843124, 0.15000709891319275, -0.14476604759693146, -0.0989072397351265, -0.10041623562574387, 0.01984432339668274, -0.0015575885772705078, 0.12337696552276611, -0.01984851062297821, 0.10954493284225464, 0.10850667953491211, -0.16505052149295807, 0.06531171500682831, 0.1117943525314331, -0.11268265545368195, -0.08002899587154388, 0.11845457553863525, 0.13145023584365845, -0.06805258989334106, -0.12770110368728638, -0.09224144369363785, -0.010052904486656189, -0.15278106927871704, -0.16924691200256348, 0.13734367489814758, 0.14065533876419067, 0.16422727704048157, -0.09726399183273315, 0.11706015467643738, -0.1645827442407608, -0.07307711988687515, -0.028849050402641296, -0.10774373263120651, 0.04563701152801514, 0.17318031191825867, -0.17688296735286713, -0.1143290251493454, -0.0643492266535759, -0.16707433760166168, -0.13628941774368286, -0.10855219513177872, -0.0593649223446846, 0.020423665642738342, 0.0030105113983154297, -0.13955846428871155, 0.12902382016181946, -0.09850338846445084, 0.010450378060340881, 0.04646971821784973, -0.010443657636642456, -0.11232524365186691, 0.14598414301872253, -0.11484219878911972, -0.02866514027118683, 0.1116560697555542, 0.022226348519325256, -0.023402035236358643, -0.07570859044790268, -0.045233115553855896, 0.10084936022758484, -0.09397373348474503, -0.12934045493602753, 0.13468047976493835, -0.164826899766922, 0.0569547563791275, -0.15946605801582336, -0.09789856523275375, -0.09787946194410324, -0.08762740343809128, -0.11380508542060852], [0.08046820759773254, -0.15180298686027527, 0.10366010665893555, 0.023239001631736755, -0.013934895396232605, 0.12073269486427307, -0.015035942196846008, 0.09173348546028137, 0.13368278741836548, -0.05104489624500275, -0.024473294615745544, 0.0881713330745697, -0.0120621919631958, 0.10068592429161072, -0.033903151750564575, -0.06701348721981049, -0.14559310674667358, -0.035550594329833984, -0.14747223258018494, -0.14697667956352234, -0.1558113694190979, 0.17583328485488892, -0.0906391441822052, -0.10270673781633377, 0.09946191310882568, -0.00575004518032074, 0.11608758568763733, -0.10602839291095734, 0.0490989089012146, 0.1363946795463562, 0.012714803218841553, -0.12806281447410583, -0.14194412529468536, 0.07254447042942047, 0.14718574285507202, 0.0037221312522888184, -0.02364686131477356, -0.13154450058937073, 0.15593776106834412, 0.037500157952308655, 0.15425017476081848, 0.010424211621284485, 0.05936877429485321, -0.1285458207130432, 0.01210339367389679, -0.04436121881008148, -0.04189181327819824, -0.17256568372249603, -0.057705655694007874, 0.05212308466434479, 0.02882428467273712, -0.0886370912194252, -0.12015500664710999, -0.05272144079208374, 0.03956395387649536, 0.0020523816347122192, 0.039127230644226074, -0.05307259410619736, 0.08068117499351501, -0.025072067975997925, -0.08048993349075317, 0.027871087193489075, 0.1054500937461853, 0.15128952264785767, -0.15174785256385803, -0.06994612514972687, 0.1526026725769043, 0.04830050468444824, -0.08024154603481293, 0.07676032185554504, 0.0049886554479599, -0.030503839254379272, 0.15354228019714355, 0.15089267492294312, -0.171889528632164, 0.03523679077625275, 0.05305400490760803, 0.11841550469398499, 0.1094413697719574, -0.14149083197116852, 0.14587408304214478, 0.12382787466049194, -0.05809438228607178, 0.1369791328907013, -0.029598891735076904, 0.12322312593460083, 0.03822287917137146, -0.07066677510738373, -0.16649381816387177, -0.0015779584646224976, 0.10257968306541443, -0.16927260160446167, -0.10543764382600784, 0.10674425959587097, -0.1185854971408844, -0.05472522974014282, 0.16972804069519043, -0.05802719295024872, -0.13346394896507263, -0.10867702215909958, 0.11253592371940613, -0.021113604307174683, -0.012069448828697205, 0.09793922305107117, 0.10813337564468384, -0.14098376035690308, 0.04164080321788788, -0.03472425043582916, 0.16031891107559204, 0.11461561918258667, 0.13089382648468018, 0.133459210395813, 0.059360355138778687, 0.09373810887336731, -0.16155113279819489, 0.09296208620071411, 0.15147042274475098, 0.16623947024345398, 0.1306723654270172, 0.09612694382667542, 0.012274190783500671, 0.05275537073612213, 0.009816557168960571, 0.022240042686462402, 0.06169426441192627, 0.1577317714691162, 0.16964644193649292, 0.16952961683273315], [0.09750071167945862, 0.04993821680545807, 0.16051778197288513, 0.09863543510437012, 0.17558139562606812, -0.08154365420341492, -0.11121734976768494, 0.06470388174057007, 0.02019062638282776, -0.030035793781280518, 0.11880216002464294, -0.12641200423240662, 0.12186959385871887, -0.1683446317911148, 0.024449840188026428, 0.15816354751586914, -0.026367291808128357, 0.09339725971221924, -0.07225611060857773, -0.038688600063323975, -0.16460640728473663, 0.004797905683517456, -0.09194027632474899, -0.07664306461811066, -0.0852157473564148, -0.03990568220615387, -0.05952262878417969, 0.06688714027404785, -0.1374713033437729, 0.017648443579673767, -0.15043982863426208, 0.02417035400867462, -0.04016716778278351, -0.10993585735559464, 0.013129591941833496, 0.07797589898109436, -0.07046162337064743, 0.09268337488174438, -0.047927677631378174, -0.0939977765083313, -0.1352919340133667, 0.06720060110092163, 0.173503577709198, -0.11335816979408264, -0.06419169157743454, 0.10686585307121277, -0.1274477243423462, -0.09592435508966446, -0.15175160765647888, -0.1520231068134308, 0.10565593838691711, 0.07653328776359558, 0.16094112396240234, -0.14948996901512146, -0.14941005408763885, -0.10779727250337601, -0.013199999928474426, -0.01071043312549591, -0.14237764477729797, 0.13680347800254822, -0.022953763604164124, 0.15266254544258118, 0.1399146020412445, -0.0789887085556984, -0.1564188152551651, 0.02877970039844513, -0.06219804286956787, 0.14946886897087097, -0.011637464165687561, 0.04207874834537506, -0.029312819242477417, -0.1572641134262085, 0.1021578311920166, -0.155287504196167, -0.11513960361480713, 0.16020360589027405, -0.1639597862958908, 0.09868994355201721, 0.07559782266616821, 0.1082092821598053, 0.03150312602519989, -0.15446113049983978, 0.15293952822685242, 0.11920836567878723, 0.08859524130821228, 0.1742796003818512, 0.09761479496955872, 0.09378331899642944, 0.03855827450752258, 0.08657878637313843, 0.06314337253570557, -0.04146057367324829, 0.09429726004600525, -0.1102156862616539, 0.1336265504360199, -0.10135349631309509, -0.07142022252082825, 0.03551459312438965, -0.10108520835638046, 0.16881567239761353, 0.15711674094200134, -0.12899628281593323, -0.11192481219768524, -0.005927562713623047, -0.11860649287700653, 0.16083094477653503, 0.052384182810783386, 0.17454668879508972, -0.09697165340185165, -0.034497082233428955, 0.12796226143836975, 0.17110520601272583, 0.07213689386844635, 0.07078658044338226, 0.0858270525932312, 0.14722493290901184, -0.14122402667999268, 0.1638128161430359, -0.049286022782325745, 0.03312009572982788, -0.06027387082576752, -0.11760170757770538, -0.11101506650447845, 0.03888455033302307, -0.17516297101974487, 0.15281268954277039, 0.027112796902656555, 0.13868564367294312], [0.06873622536659241, 0.075346440076828, -0.13754808902740479, 0.1701560616493225, 0.04952980577945709, 0.13980436325073242, -0.16647370159626007, -0.05351228266954422, -0.05201621353626251, -0.02129197120666504, -0.038389042019844055, 0.1614721119403839, -0.06758788973093033, 0.042087167501449585, -0.07996704429388046, 0.07031980156898499, -0.05151449143886566, -0.024991020560264587, 0.00216597318649292, 0.14429154992103577, -0.1017966940999031, 0.028734534978866577, -0.027381286025047302, 0.10516169667243958, -0.08415141701698303, 0.16203755140304565, -0.1387650966644287, 0.06161591410636902, 0.15447402000427246, 0.12217459082603455, -0.033085912466049194, 0.04702189564704895, -0.16007687151432037, -0.1615789383649826, -0.0053097158670425415, 0.11825588345527649, 0.17052826285362244, 0.07048173248767853, -0.011990725994110107, 0.11007589101791382, 0.015040501952171326, -0.14899644255638123, -0.1417144536972046, 0.05486941337585449, 0.02665916085243225, 0.17021054029464722, 0.14975497126579285, -0.14147211611270905, -0.1035362035036087, -0.09521646797657013, 0.023753270506858826, 0.109169602394104, -0.0877247154712677, -0.16462993621826172, 0.0015781372785568237, -0.10927081853151321, 0.020759359002113342, 0.019364461302757263, 0.12033075094223022, -0.14053726196289062, -0.16561461985111237, 0.1542394459247589, 0.14508607983589172, -0.13008688390254974, 0.047271206974983215, 0.16447967290878296, -0.04380880296230316, 0.1492093801498413, -0.15087425708770752, 0.0043823570013046265, -0.004364088177680969, 0.1516646444797516, 0.009322106838226318, -0.08980224281549454, 0.009075626730918884, 0.08060023188591003, -0.15766745805740356, -0.10354858636856079, -0.056178487837314606, -0.002810940146446228, -0.014461159706115723, -0.09551885724067688, -0.13934075832366943, 0.021299704909324646, -0.1685163676738739, 0.12790235877037048, 0.0007102936506271362, 0.17147517204284668, 0.15911853313446045, 0.00759519636631012, -0.054911114275455475, 0.10823902487754822, 0.08513343334197998, -0.08133891969919205, 0.139064222574234, 0.09211990237236023, 0.10101771354675293, 0.17668858170509338, -0.021300122141838074, 0.14751338958740234, 0.043903157114982605, 0.12054955959320068, 0.1449609100818634, -0.044726625084877014, 0.14543640613555908, 0.08337604999542236, 0.05469509959220886, 0.03070227801799774, -0.13022878766059875, -0.12018847465515137, 0.15533393621444702, 0.14416489005088806, -0.07375196367502213, 0.062448665499687195, 0.016806721687316895, 0.1459123194217682, -0.07968045771121979, 0.11563506722450256, 0.141508549451828, 0.06970961391925812, 0.06381818652153015, -0.015184268355369568, -0.043161541223526, -0.0780172199010849, -0.03770650923252106, -0.0598892867565155, 0.10872742533683777, 0.17262759804725647], [-0.13105888664722443, 0.24469895660877228, -0.2068222314119339, 0.39567482471466064, 0.045416198670864105, 0.06688883900642395, -0.07006745040416718, 0.17048431932926178, 0.07043103128671646, -0.13411232829093933, 0.23376227915287018, 0.45780688524246216, 0.1357550024986267, 0.0464014858007431, 0.23146474361419678, 0.028154905885457993, 0.3993970453739166, -0.11945220082998276, -0.14544124901294708, 0.04872391000390053, 0.06310155987739563, 0.11038137972354889, 0.055867213755846024, -0.38795459270477295, 0.5950186848640442, 0.09146757423877716, -0.07925314456224442, 0.2343730926513672, 0.04129576310515404, 0.19553861021995544, 0.16736477613449097, 0.23718476295471191, -0.025036806240677834, 0.5815486907958984, 0.2074180394411087, -0.07046809047460556, 0.2247617244720459, 0.012625426985323429, 0.1131981909275055, 0.005560911726206541, 0.19322249293327332, 0.11252249032258987, -0.0001370568061247468, 0.20751070976257324, -0.15714405477046967, -0.05480901896953583, -0.05736357346177101, -0.018634315580129623, -0.2142273485660553, -0.051603373140096664, 0.05124514177441597, -0.08525805920362473, 0.17725273966789246, -0.028407538309693336, -0.05216062441468239, 0.05232998728752136, -0.30234429240226746, -0.25251439213752747, -0.03483374044299126, -0.07320550829172134, 0.1896209716796875, 0.31985822319984436, 0.14861071109771729, -0.08650501817464828, -0.21144996583461761, -0.061498627066612244, -0.07871341705322266, -0.06681720167398453, 0.068675696849823, -0.1414434015750885, -0.11650215089321136, 0.06435080617666245, 0.15589265525341034, -0.23967242240905762, 0.011652706190943718, 0.11575586348772049, 0.13220161199569702, 0.0024135929998010397, 0.13514022529125214, -0.11925134807825089, 0.05606386438012123, 0.07791157811880112, 0.07880204170942307, -0.1299232393503189, 0.0058394987136125565, -0.03401252254843712, 0.0470200777053833, -0.1267090141773224, -0.14094266295433044, -0.04407712072134018, -0.16706188023090363, 0.1532345414161682, 0.12912848591804504, 0.07352906465530396, -0.16369393467903137, 0.020868545398116112, -0.16248135268688202, 0.29242774844169617, -0.0128240454941988, 0.19018878042697906, -0.15658757090568542, -0.13052880764007568, 0.07609708607196808, 0.11460412293672562, 0.17438124120235443, 0.11958353221416473, 0.16815941035747528, 0.38181519508361816, -0.2353454977273941, 0.04778982698917389, -0.1126759797334671, 0.028560131788253784, 0.4854307174682617, -0.10853112488985062, 0.058553244918584824, -0.03946845605969429, 0.0305485837161541, 0.09308391809463501, -0.10751073062419891, -0.086232990026474, 0.559365451335907, -0.1731986254453659, -0.18367743492126465, 0.19939827919006348, 0.006629848852753639, 0.10364389419555664, 0.016037074849009514, 0.1271582692861557], [-0.08708050847053528, 0.43541231751441956, -0.03399907797574997, 0.29941436648368835, -0.13447105884552002, 0.08302852511405945, 0.10755769908428192, -0.05608749017119408, -0.04121094197034836, 0.4455668032169342, 0.034912895411252975, 0.2512820363044739, 0.11017315834760666, -0.051724448800086975, 0.11676010489463806, 0.039541419595479965, 0.60899817943573, -0.09743043035268784, 0.06516268104314804, 0.33343976736068726, 0.20728586614131927, 0.05497073009610176, -0.09415481984615326, 0.09490036964416504, 0.4026740789413452, 0.32417863607406616, -0.08797162771224976, 0.3223736584186554, 0.028129857033491135, 0.25221097469329834, 0.16485798358917236, 0.28742778301239014, 0.06684812903404236, 0.010113872587680817, -0.06169137358665466, -0.06078869476914406, 0.04990837350487709, 0.2351418137550354, -0.04821425676345825, 0.00601804256439209, -0.05035875365138054, 0.07701851427555084, 0.21473361551761627, 0.15915612876415253, -0.1291094720363617, -0.07933079451322556, -0.10134875029325485, -0.01329190842807293, -0.23452021181583405, -0.1386386603116989, -0.057398393750190735, -0.221392422914505, 0.048916757106781006, 0.05765780061483383, 0.01372833177447319, -0.1616305112838745, -0.30500316619873047, -0.006468075327575207, -0.26314228773117065, -0.1959001123905182, 0.20632493495941162, 0.11660806834697723, -0.19577868282794952, -0.2226536124944687, -0.11879871785640717, -0.04405049979686737, 0.027997341006994247, 0.0422353632748127, -0.13030456006526947, -0.05275524780154228, 0.0510927252471447, -0.09900952875614166, -0.2442196011543274, -0.11247307807207108, -0.3226292133331299, -0.21219687163829803, -0.12400266528129578, -0.2009875774383545, -0.14963027834892273, 0.06741766631603241, -0.1756604164838791, 0.014316301792860031, 0.09591782093048096, 0.251472145318985, -0.09583968669176102, -0.19701425731182098, -0.2417227029800415, -0.1515735387802124, -0.16247962415218353, 0.003317025024443865, 0.015664096921682358, -0.046460121870040894, 0.18517155945301056, 0.1731598824262619, -0.22882530093193054, 0.10353011637926102, -0.1329788863658905, 0.16904698312282562, 0.07045862823724747, 0.35732701420783997, -0.04954235255718231, 0.021473679691553116, -0.19592569768428802, -0.03676910325884819, 0.048791851848363876, 0.1902494877576828, 0.06676500290632248, 0.1860804408788681, -0.20239147543907166, -0.12354948371648788, -0.22045457363128662, 0.048872210085392, 0.35549402236938477, -0.12216248363256454, 0.04189291223883629, 0.20944395661354065, 0.003987581469118595, -0.07817570865154266, -0.22657257318496704, 0.031979333609342575, 0.5179808139801025, 0.10272441804409027, -0.13873165845870972, 0.1416243463754654, -0.018437879160046577, -0.04387255012989044, -0.05750865489244461, 0.0935518816113472], [-0.1500254124403, 0.14766043424606323, 0.03195323795080185, 0.2213621735572815, -0.134185329079628, 0.047000639140605927, -0.013866185210645199, -0.06495681405067444, 0.12757550179958344, 0.20400075614452362, 0.24435491859912872, 0.5516369342803955, -0.04144753888249397, 0.101697638630867, 0.06545094400644302, 0.11088339239358902, 0.4321230351924896, -0.044166721403598785, 0.060103174299001694, 0.3494965434074402, 0.00748015008866787, -0.2580726742744446, 0.05594746395945549, 0.13210329413414001, 0.3707323670387268, -0.0461789071559906, 0.13782379031181335, 0.026662342250347137, 0.22280879318714142, 0.004300018772482872, 0.0847846269607544, 0.12910276651382446, 0.062048010528087616, -0.06593620032072067, 0.08251240849494934, 0.0724484771490097, 0.15129393339157104, 0.09168507158756256, 0.13611842691898346, 0.13923251628875732, 0.12573975324630737, -0.17767886817455292, 0.10133114457130432, 0.11091632395982742, -0.0313011109828949, 0.16629944741725922, -0.07254556566476822, 0.0007980098016560078, -0.45425477623939514, 0.07814618200063705, 0.13374552130699158, -0.06203221529722214, -0.05398523062467575, 0.11194673925638199, 0.08193159103393555, 0.04542912170290947, -0.25503697991371155, -0.16743746399879456, -0.27095645666122437, 0.02957729995250702, 0.1989513635635376, 0.2766069769859314, 0.012822514399886131, -0.11670675873756409, -0.2907397449016571, -0.06029534712433815, -0.07502090185880661, -0.13618986308574677, -0.12229333817958832, -0.0014811764704063535, -0.021571610122919083, -0.01641966961324215, -0.1347770094871521, 0.0654054582118988, -0.022479413077235222, -0.013429892249405384, -0.04542751610279083, -0.035985417664051056, 0.04791533574461937, -0.20352956652641296, -0.2548917233943939, 0.004592477343976498, 0.007449734956026077, -0.07369133830070496, -0.18888597190380096, -0.24614816904067993, 0.12404611706733704, -0.12301409244537354, -0.12420400232076645, -0.17474646866321564, -0.023336583748459816, 0.18731674551963806, 0.13160236179828644, -0.16784057021141052, -0.09199023246765137, -0.25014135241508484, 0.07196184992790222, 0.23688195645809174, -0.1614493578672409, 0.017522314563393593, -0.0482507199048996, 0.08686751872301102, 0.08788952976465225, 0.09123403578996658, -0.07186856865882874, 0.23255111277103424, 0.1960146725177765, 0.36068999767303467, -0.16863524913787842, 0.02310231700539589, -0.08378920704126358, 0.033724594861269, -0.20686878263950348, -0.12073080241680145, -0.1204131543636322, -0.03337837755680084, -0.08066708594560623, -0.24105042219161987, 0.14551478624343872, -0.22644667327404022, 0.49650976061820984, 0.19703535735607147, 0.12924984097480774, 0.2988113760948181, 0.0589396171271801, 0.10751742124557495, -0.2615123391151428, 0.037260834127664566], [-0.14109885692596436, -0.1159292608499527, 0.17521685361862183, -0.11531831324100494, 0.1254481077194214, 0.1269589066505432, -0.14581719040870667, -0.13507415354251862, 0.1672222912311554, 0.0726693868637085, 0.07408583164215088, 0.11079072952270508, -0.0795874074101448, -0.01884777843952179, 0.02862665057182312, 0.08284458518028259, -0.04465216398239136, -0.030741184949874878, -0.12818515300750732, 0.05014321208000183, 0.013904556632041931, -0.10743449628353119, -0.04022298753261566, 0.06500835716724396, -0.1394730657339096, -0.11215557903051376, 0.023794636130332947, -0.15150794386863708, 0.006520971655845642, 0.061239734292030334, 0.03181718289852142, 0.03809565305709839, -0.011371240019798279, -0.08867068588733673, 0.1612820029258728, -0.08443225920200348, 0.08040112257003784, 0.04997037351131439, -0.04119591414928436, -0.05982641130685806, -0.14862695336341858, -0.10819854587316513, 0.04128643870353699, -0.1700800061225891, 0.044896915555000305, 0.040402546525001526, -0.06544139981269836, 0.07573345303535461, 0.1676580309867859, -0.004426896572113037, 0.06433545053005219, -0.15817590057849884, -0.11613069474697113, 0.03793291747570038, 0.010234609246253967, -0.02316373586654663, -0.12123619019985199, -0.17694106698036194, -0.0474332720041275, 0.11067631840705872, -0.14806252717971802, -0.13174521923065186, 0.15637782216072083, -0.038592755794525146, 0.14215892553329468, -0.1702747642993927, -0.15226101875305176, 0.02977624535560608, -0.05260743200778961, 0.00587715208530426, -0.08625062555074692, -0.13395488262176514, 0.02884596586227417, -0.019267141819000244, -0.1566322147846222, 0.03146339952945709, 0.10393655300140381, -0.0824466422200203, 0.07423505187034607, -0.07963152229785919, 0.14079132676124573, 0.08307361602783203, 0.09809443354606628, 0.10940307378768921, 0.024616748094558716, -0.16499373316764832, 0.011662900447845459, 0.1726282238960266, -0.09650285542011261, 0.0024071335792541504, -0.06364306807518005, 0.1211579442024231, -0.057847388088703156, 0.0880851149559021, -0.1709461510181427, 0.026609599590301514, -0.01198527216911316, -0.17675910890102386, 0.03708118200302124, -0.14596855640411377, -0.009498029947280884, 0.14907196164131165, -0.1264609396457672, 0.16270780563354492, 0.012673899531364441, -0.041231200098991394, -0.07650403678417206, 0.13239052891731262, 0.06648612022399902, -0.13367138803005219, -0.11323169618844986, -0.07988130301237106, 0.13434788584709167, 0.13806045055389404, -0.15951856970787048, 0.11671701073646545, -0.09303431212902069, -0.0024343878030776978, -0.066849485039711, -0.07492032647132874, -0.04890626668930054, 0.04630483686923981, 0.08161190152168274, -0.10210968554019928, -0.16144680976867676, -0.013333231210708618, -0.0905991643667221, -0.12980186939239502], [0.12003916501998901, 0.15649005770683289, 0.01959395408630371, -0.00702337920665741, -0.09866984188556671, -0.1300167441368103, -0.0873272493481636, 0.13201144337654114, 0.08270001411437988, 0.011272147297859192, 0.13212570548057556, 0.020273566246032715, 0.06834973394870758, 0.09021332859992981, -0.1672353446483612, -0.031420424580574036, 0.10258859395980835, -0.05510566383600235, -0.04334554076194763, -0.12583595514297485, 0.06159774959087372, -0.10369212925434113, -0.16642464697360992, -0.13965578377246857, -0.027977198362350464, 0.14265120029449463, -0.09190330654382706, 0.01739823818206787, 0.08297005295753479, 0.07071617245674133, -0.03607335686683655, -0.15633581578731537, 0.10133236646652222, -0.08160315454006195, 0.04928196966648102, 0.053333580493927, -0.1411280632019043, -0.16584894061088562, -0.0314006507396698, 0.09148281812667847, 0.08956512808799744, 0.13087600469589233, -0.15136000514030457, -0.0015943199396133423, 0.05660295486450195, -0.009332895278930664, 0.11469608545303345, 0.126813143491745, 0.05344441533088684, -0.08325561136007309, 0.16129308938980103, -0.10063162446022034, 0.00497204065322876, -0.10856128484010696, 0.07714411616325378, -0.006602868437767029, 0.014198705554008484, 0.07544398307800293, -0.1487051248550415, 0.11493778228759766, -0.02529163658618927, -0.07511023432016373, 0.108184814453125, -0.0995653048157692, -0.03142482042312622, 0.00495581328868866, 0.1565662920475006, -0.0629715621471405, 0.044691458344459534, -0.12619835138320923, 0.05695289373397827, 0.011109456419944763, 0.09793063998222351, 0.06379273533821106, -0.11391300708055496, 0.02351480722427368, -0.12055142223834991, -0.06658707559108734, 0.0076287537813186646, 0.063225656747818, 0.09354710578918457, -0.09371296316385269, -0.10861165076494217, -0.04012592136859894, 0.012866467237472534, 0.17706990242004395, 0.11321762204170227, -0.06426192075014114, 0.004173263907432556, 0.0911354124546051, 0.04894298315048218, -0.0034354180097579956, 0.08727362751960754, 0.12220615148544312, 0.05787988007068634, -0.10490833222866058, -0.0954744890332222, 0.05009858310222626, 0.11204448342323303, -0.08948252350091934, -0.061542339622974396, -0.04167714715003967, 0.11765342950820923, -0.062014900147914886, -0.0697011649608612, -0.16526739299297333, 0.14084038138389587, 0.11418133974075317, 0.06936673820018768, -0.03715357184410095, 0.09141936898231506, 0.145496666431427, 0.1678413450717926, -0.16501718759536743, -0.14641331136226654, -0.035202354192733765, -0.018578514456748962, 0.06827342510223389, 0.12361070513725281, 0.15346452593803406, -0.01064273715019226, 0.11650767922401428, 0.09188005328178406, 0.06733173131942749, 0.0462871789932251, 0.06088536977767944, -0.019039884209632874, -0.09661208838224411], [0.11434158682823181, 0.12783047556877136, 0.07856938242912292, -0.01672394573688507, 0.1279812753200531, -0.022228136658668518, 0.12830990552902222, -0.15149003267288208, 0.08393573760986328, 0.11837020516395569, -0.008655175566673279, -0.09612114727497101, -0.1472228318452835, 0.0382460355758667, -0.079494908452034, -0.009183377027511597, -0.023591220378875732, -0.01842769980430603, -0.16913162171840668, 0.15064847469329834, -0.020002275705337524, 0.004841849207878113, 0.12618112564086914, -0.016420751810073853, 0.014676377177238464, 0.16076982021331787, -0.11805292963981628, 0.0036763548851013184, 0.16459131240844727, -0.173905149102211, 0.007259920239448547, -0.13181240856647491, -0.1308547854423523, -0.08190296590328217, -0.0604993999004364, -0.08285624533891678, 0.13841164112091064, 0.0630272626876831, -0.011236906051635742, 0.12123763561248779, -0.05233647674322128, 0.16007107496261597, -0.15828010439872742, 0.15091830492019653, -0.05265750735998154, 0.14254137873649597, -0.0819292888045311, 0.11267745494842529, -0.15603609383106232, -0.09026943892240524, 0.10749876499176025, -0.1462453007698059, 0.13924095034599304, -0.1220976859331131, -0.042920053005218506, 0.01500450074672699, 0.11696141958236694, 0.024295181035995483, -0.17271122336387634, -0.013689547777175903, 0.14870935678482056, -0.11045566201210022, -0.018376439809799194, -0.09632330387830734, -0.08602294325828552, 0.05612917244434357, 0.10026133060455322, 0.06468398869037628, -0.08880802243947983, -0.14798028767108917, 0.07441577315330505, 0.008949115872383118, 0.012911677360534668, 0.022131696343421936, -0.07255769520998001, 0.1677236258983612, 0.09281682968139648, -0.1269836127758026, -0.17649808526039124, -0.03911653161048889, -0.012893304228782654, 0.07795697450637817, -0.06849434226751328, -0.14235520362854004, -0.09666546434164047, 0.10978984832763672, 0.1379890739917755, -0.031310006976127625, -0.03811770677566528, -0.16969715058803558, 0.03705257177352905, 0.027558937668800354, -0.16958627104759216, 0.031330257654190063, -0.0958695113658905, 0.008371412754058838, -0.12316404283046722, 0.05702434480190277, -0.012292951345443726, 0.050356268882751465, -0.08312533795833588, -0.17254388332366943, -0.146589994430542, -0.1417042315006256, -0.04341885447502136, -0.07151661068201065, 0.03996911644935608, -0.15211066603660583, -0.019451245665550232, 0.108438640832901, -0.15827110409736633, -0.16806399822235107, -0.004172086715698242, 0.1746903359889984, -0.0219222754240036, -0.02725878357887268, 0.08768364787101746, -0.07433426380157471, -0.09788956493139267, -0.0531163290143013, 0.08669736981391907, -0.021907180547714233, -0.1432957947254181, 0.0357707142829895, 0.023554235696792603, -0.1613113284111023, -0.15191349387168884, 0.1755201816558838], [0.1361396610736847, 0.1557428538799286, 0.06267803907394409, -0.018036365509033203, 0.10547211766242981, -0.030841797590255737, -0.04678119719028473, 0.15157604217529297, 0.06042768061161041, -0.009099453687667847, -0.07575444132089615, 0.12960362434387207, -0.07273302227258682, -0.10085562616586685, 0.0011171549558639526, -0.06375990808010101, -0.009634554386138916, -0.1683119684457779, 0.11448347568511963, 0.05437922477722168, 0.15222692489624023, -0.15750718116760254, -0.08918038755655289, 0.1380653977394104, 0.17708808183670044, -0.005925282835960388, -0.14250238239765167, 0.132698655128479, 0.1118479073047638, 0.1470862627029419, -0.14246845245361328, 0.16469338536262512, 0.010642945766448975, -0.15519462525844574, 0.12141367793083191, -0.16014258563518524, -0.15540100634098053, 0.15179714560508728, -0.09121882170438766, 0.09916943311691284, 0.11047479510307312, 0.1135818362236023, 0.1732829213142395, 0.16733932495117188, -0.16420681774616241, -0.03738683462142944, 0.09152480959892273, 0.04208873212337494, -0.15703445672988892, 0.1289006769657135, 0.07786056399345398, -0.17575837671756744, 0.06993450224399567, -0.026111170649528503, -0.022712022066116333, -0.06144430488348007, -0.11375652998685837, 0.10449391603469849, 0.1029367446899414, 0.11414659023284912, 0.10453793406486511, 0.023981288075447083, -0.16497260332107544, -0.11555617302656174, -0.10234193503856659, -0.03912182152271271, 0.05767011642456055, -0.1397610455751419, 0.022429868578910828, -0.13052424788475037, -0.15924957394599915, -0.11547748744487762, 0.014507636427879333, 0.05418974161148071, -0.1323021650314331, 0.054546818137168884, -0.05972689390182495, 0.09219235181808472, 0.06495912373065948, 0.1237143874168396, -0.038160547614097595, -0.10726690292358398, -0.11405820399522781, -0.11233314126729965, -0.16032399237155914, -0.07499901205301285, 0.11189514398574829, -0.0706947073340416, 0.09441515803337097, 0.17371338605880737, -0.0403570681810379, 0.031336843967437744, -0.09936923533678055, 0.15116754174232483, -0.17603541910648346, -0.07005959004163742, -0.17645971477031708, 0.01995837688446045, -0.15563862025737762, -0.015617653727531433, 0.11170414090156555, 0.0014623403549194336, 0.12859660387039185, 0.14885607361793518, 0.10962572693824768, 0.13494208455085754, 0.0544251948595047, 0.006101623177528381, -0.12190072983503342, -0.07857471704483032, 0.048344627022743225, -0.09404649585485458, 0.1361626386642456, -0.06651650369167328, 0.045031383633613586, 0.1652413308620453, -0.13820403814315796, -0.13578283786773682, 0.08827975392341614, 0.15460535883903503, 0.0022901147603988647, -0.16686339676380157, -0.014135107398033142, 0.09148415923118591, 0.07139748334884644, -0.07711904495954514, -0.10358471423387527, 0.1309940218925476], [0.08962938189506531, 0.12827906012535095, -0.0063699036836624146, -0.010260894894599915, -0.15404295921325684, -0.10249558091163635, 0.0020626038312911987, -0.10653197020292282, 0.11077055335044861, 0.08831459283828735, -0.12352192401885986, 0.0689220279455185, 0.13964906334877014, -0.12911751866340637, -0.16844803094863892, -0.0693315789103508, 0.16253402829170227, -0.1430756002664566, 0.008420944213867188, -0.007150530815124512, -0.04252476990222931, -0.036842599511146545, 0.02545720338821411, 0.03650006651878357, -0.13587640225887299, 0.09748482704162598, -0.10743136703968048, -0.09656379371881485, 0.053335607051849365, 0.13277721405029297, 0.07920321822166443, 0.08814871311187744, -0.01514454185962677, -0.12687602639198303, 0.09766602516174316, -0.08637101203203201, 0.051006823778152466, 0.1192733645439148, -0.1067868247628212, 0.17334437370300293, 0.13097482919692993, -0.07018788158893585, 0.03607994318008423, -0.054023340344429016, -0.0892435610294342, 0.05626147985458374, 0.12138554453849792, 0.04432898759841919, -0.06509015709161758, -0.1239701360464096, 0.14063677191734314, 0.1497986614704132, -0.0669972226023674, 0.12320658564567566, -0.08306524902582169, 0.0796196460723877, -0.11124435067176819, -0.020477548241615295, 0.14668726921081543, -0.038192540407180786, 0.14093756675720215, 0.051719024777412415, -0.15035729110240936, -0.06306245923042297, -0.03629562258720398, 0.04952697455883026, 0.1339660882949829, 0.1083747148513794, 0.0356065034866333, -0.1252019703388214, -0.09409661591053009, 0.17718476057052612, -0.06912000477313995, -0.11668252944946289, -0.14950327575206757, -0.026038959622383118, 0.1259353756904602, 0.13095882534980774, 0.07073172926902771, -0.09283359348773956, 0.10268363356590271, 0.046558842062950134, -0.13598977029323578, -0.09498967230319977, -0.05841697007417679, -0.1251804679632187, -0.1565806120634079, 0.16313394904136658, -0.1752643883228302, 0.034243836998939514, 0.1597309112548828, 0.1371670961380005, -0.074549101293087, 0.04610326886177063, 0.17386889457702637, 0.10805481672286987, 0.09037542343139648, -0.1084522157907486, -0.006673902273178101, 0.14835822582244873, -0.13401192426681519, -0.07211420685052872, 0.009262874722480774, -0.0741056576371193, 0.12971845269203186, -0.15600840747356415, 0.0955931544303894, -0.10472776740789413, 0.011345461010932922, -0.0625988095998764, -0.05937079340219498, 0.028016582131385803, -0.1011931300163269, -0.11989884078502655, -0.005442321300506592, 0.17098936438560486, -0.037955060601234436, -0.173479363322258, 0.0008110404014587402, -0.16875769197940826, 0.054500967264175415, 0.07710841298103333, 0.02006465196609497, -0.007075101137161255, 0.1465529203414917, 0.07849642634391785, -0.10670176148414612, -0.1397584229707718], [-0.0379452109336853, 0.012485131621360779, 0.14096787571907043, 0.13447746634483337, 0.030695125460624695, 0.1576070785522461, -0.1587265580892563, 0.053024545311927795, 0.15837103128433228, -0.1570289582014084, -0.025545388460159302, -0.031569138169288635, -0.1177433580160141, -0.05655486881732941, 0.10170692205429077, 0.12704265117645264, -0.12847989797592163, 0.09610512852668762, 0.13871991634368896, 0.1526830792427063, -0.04608970880508423, 0.1352916955947876, 0.012931331992149353, -0.04036206007003784, 0.010446280241012573, 0.052822813391685486, -0.1150749921798706, 0.17412802577018738, 0.14580434560775757, 0.06998631358146667, 0.10691612958908081, -0.11717237532138824, 0.003908261656761169, 0.05650179088115692, -0.10310868918895721, 0.05410033464431763, -0.16671308875083923, 0.16804617643356323, -0.07941500097513199, 0.14276954531669617, -0.017117351293563843, 0.16438919305801392, -0.09118878096342087, 0.1492844820022583, 0.008578434586524963, 0.06213681399822235, 0.13955500721931458, 0.08789536356925964, -0.028978392481803894, 0.0779295265674591, 0.04513879120349884, -0.01783466339111328, 0.0008676648139953613, -0.06236305832862854, 0.13116967678070068, -0.08735915273427963, 0.08724424242973328, 0.12724000215530396, 0.05237354338169098, -0.11911827325820923, -0.08928006887435913, -0.11244677007198334, -0.1721021682024002, 0.03881540894508362, -0.134172722697258, 0.10327792167663574, 0.06882213056087494, 0.14758631587028503, -0.0609823539853096, 0.08173021674156189, -0.0002825707197189331, 0.025079846382141113, -0.0348334014415741, 0.04757246375083923, 0.15698817372322083, 0.04605446755886078, 0.11076861619949341, 0.07082849740982056, -0.057590000331401825, -0.15679587423801422, 0.0839681625366211, -0.0608697384595871, -0.16682253777980804, 0.020322129130363464, -0.0906817838549614, 0.07535156607627869, -0.02700558304786682, -0.13628540933132172, -0.009194374084472656, -0.04224422574043274, -0.04414533078670502, 0.17473173141479492, -0.08552371710538864, 0.08254644274711609, 0.0363813191652298, -0.1361163705587387, -0.14229165017604828, -0.04201371967792511, -0.056017063558101654, -0.087412990629673, -0.13614557683467865, -0.008995085954666138, 0.011460185050964355, -0.13416333496570587, 0.04901401698589325, 0.011328145861625671, 0.11291190981864929, 0.07211534678936005, -0.09684522449970245, 0.1400589644908905, -0.14191484451293945, -0.12002214789390564, -0.0953984260559082, 0.03437039256095886, -0.019513249397277832, 0.1577591598033905, 0.16837188601493835, -0.055928751826286316, 0.07523903250694275, 0.13273915648460388, 0.125486820936203, -0.1470993608236313, -0.08484122157096863, -0.03877365589141846, 0.1479729413986206, -0.06531175225973129, 0.11855584383010864, -0.11357381194829941], [-0.02926388382911682, -0.15544593334197998, -0.02726757526397705, 0.0616772323846817, 0.08355924487113953, 0.05672934651374817, -0.09516093879938126, 0.11445817351341248, 0.040502190589904785, -0.008915811777114868, 0.07009813189506531, -0.001196250319480896, 0.06099642813205719, -0.02473241090774536, -0.0741763487458229, 0.11951079964637756, -0.14911746978759766, -0.11714896559715271, -0.06853685528039932, 0.1706984043121338, 0.14144709706306458, -0.1536761224269867, 0.07174935936927795, 0.05316244065761566, 0.04316340386867523, 0.16701963543891907, 0.11670476198196411, 0.06064103543758392, -0.1481758952140808, -0.07728904485702515, 0.04958689212799072, 0.016308844089508057, 0.05412885546684265, 0.08892294764518738, -0.05891454964876175, -0.01212620735168457, -0.15804630517959595, -0.12439249455928802, 0.1612929403781891, -0.0060081928968429565, 0.10757499933242798, 0.12176311016082764, 0.1035115122795105, 0.02551521360874176, 0.16141992807388306, -0.09560950100421906, 0.11365783214569092, -0.04595249891281128, 0.06867727637290955, 0.0967235267162323, -0.006608918309211731, 0.13913539052009583, 0.15158864855766296, 0.10778886079788208, -0.1337190568447113, 0.09037140011787415, 0.10670745372772217, 0.09807363152503967, -0.0930352434515953, -0.07561562955379486, -0.0025740861892700195, 0.12493115663528442, -0.05600696802139282, 0.14269483089447021, 0.06972135603427887, 0.0654386579990387, 0.0981394350528717, 0.058153629302978516, 0.15223097801208496, 0.015161484479904175, -0.0174572616815567, -0.041615188121795654, -0.151214599609375, -0.005444526672363281, -0.11730831861495972, -0.008954852819442749, -0.1682082712650299, -0.0018727481365203857, -0.06664188206195831, 0.03456401824951172, 0.02039371430873871, 0.1608186960220337, 0.07575380802154541, 0.012497469782829285, -0.12541761994361877, -0.011635512113571167, -0.03179989755153656, 0.11705553531646729, -0.06353632360696793, -0.07833786308765411, 0.14098426699638367, -0.09555921703577042, -0.08975719660520554, 0.04883277416229248, 0.12532946467399597, -0.0536397248506546, -0.04584088921546936, -0.11895249783992767, 0.14393803477287292, 0.018190383911132812, 0.16612395644187927, -0.05614472180604935, -0.01542644202709198, -0.09756367653608322, -0.12021069973707199, -0.06420888751745224, -0.044773563742637634, -0.11016011983156204, 0.10006892681121826, 0.09103932976722717, -0.13654524087905884, 0.14439794421195984, 0.0914435088634491, 0.14621233940124512, -0.06614206731319427, 0.06983372569084167, 0.049529850482940674, -0.028574466705322266, -0.06027919799089432, -0.06473895907402039, 0.1331600844860077, -0.07163607329130173, -0.09794817119836807, 0.05923391878604889, -0.012649938464164734, -0.13252364099025726, 0.0684683620929718, -0.0973498597741127], [-0.18291744589805603, 0.0026853166054934263, 0.0222905483096838, -0.13636904954910278, -0.0760001540184021, 0.18723788857460022, -0.00980963185429573, 0.07538224756717682, -0.04758939892053604, 0.04190804436802864, 0.03369664400815964, 0.01225146185606718, -0.3186722993850708, -0.1296311765909195, 0.11394943296909332, 0.021092502400279045, 0.12237509340047836, -0.09926058351993561, 0.1082107275724411, -0.2009667009115219, 0.008914884179830551, -0.09541718661785126, -0.08620849251747131, -0.049065183848142624, -0.09959622472524643, -0.1829739362001419, 0.07719293981790543, 0.09177941083908081, 0.06606235355138779, 0.06801959127187729, 0.09359987825155258, -0.16959026455879211, -0.10905022919178009, 0.04656672850251198, -0.2363594025373459, -0.05714006721973419, 0.056302912533283234, 0.12164667248725891, 0.06809967011213303, 0.3315534293651581, 0.07917097210884094, 0.04443858563899994, -0.03111729584634304, 0.11168960481882095, 0.09689097851514816, 0.06044067442417145, -0.04520801454782486, 0.017155056819319725, 0.2582624554634094, -0.06224754825234413, 0.15107950568199158, -0.08881688863039017, 0.1760835200548172, 0.01941664330661297, 0.13514569401741028, -0.1619536578655243, 0.08675726503133774, -0.11515109241008759, 0.025252627208828926, 0.10379095375537872, -0.053573448210954666, 0.09227336943149567, 0.07102331519126892, -0.04811536893248558, 0.09237124025821686, -0.12680932879447937, -0.04961024597287178, -0.1060028001666069, -0.1418599784374237, 0.06204446777701378, -0.11819100379943848, 0.03592755272984505, 0.18062607944011688, -0.229264497756958, 0.11861703544855118, 0.23265667259693146, -0.29630038142204285, 0.017329556867480278, -0.21395134925842285, -0.08344966173171997, -0.12184174358844757, -0.24467921257019043, 0.0730971172451973, 0.09503274410963058, -0.15387621521949768, -0.06690503656864166, 0.00752872321754694, -0.011817999184131622, 0.21854199469089508, -0.18717435002326965, 0.21391618251800537, 0.049076490104198456, 0.11247795820236206, -0.19470150768756866, -0.11272437870502472, -0.08751258999109268, -0.036626994609832764, -0.16999401152133942, -0.0023888261057436466, -0.09591946005821228, -0.2567155659198761, 0.08731524646282196, -0.13184170424938202, 0.07198032736778259, -0.01705835945904255, -0.035836052149534225, 0.1538366824388504, 0.24100571870803833, -0.10197630524635315, -0.15313345193862915, 0.038186442106962204, 0.15235793590545654, -0.012745256535708904, -0.16500414907932281, 0.021182827651500702, -0.14863575994968414, 0.07613209635019302, -0.21494971215724945, -0.06846625357866287, -0.14009003341197968, 0.14173363149166107, 0.16924713551998138, 0.04972910135984421, 0.28856828808784485, -0.18078340590000153, -0.12403404712677002, -0.08392932265996933, -0.08275680989027023], [-0.03730851039290428, 0.0190991573035717, 0.04861341789364815, 0.2010950744152069, -0.12331052869558334, -0.016373582184314728, -0.016431789845228195, -0.1555498242378235, -0.06716746836900711, 0.14655013382434845, 0.04515756294131279, 0.35211631655693054, 0.08882088959217072, -0.010997142642736435, 0.3217664957046509, -0.16342513263225555, 0.2644428312778473, 0.14232583343982697, -0.18533070385456085, 0.27202898263931274, -0.1857244223356247, -0.12692855298519135, -0.28147464990615845, 0.04592655599117279, 0.21451087296009064, 0.04436461254954338, 0.08845623582601547, 0.08800966292619705, 0.13106709718704224, 0.095606230199337, 0.18115098774433136, 0.05671856924891472, 0.21521027386188507, -0.06881806999444962, 0.0751643180847168, -0.15008847415447235, 0.23650971055030823, 0.06931077688932419, 0.036049481481313705, -0.20276691019535065, 0.10667809844017029, -0.04103153198957443, 0.10955635458230972, 0.05962206795811653, -0.0817691832780838, -0.14519740641117096, -0.2445821613073349, 0.07303586602210999, 0.017385292798280716, -0.14020377397537231, -0.02704431489109993, -0.1317989081144333, 0.15017014741897583, -0.03011242114007473, -0.21366599202156067, -0.02395525760948658, -0.2152571976184845, -0.05448250100016594, -0.258730411529541, -0.006381351966410875, 0.03162602335214615, 0.08864454925060272, 0.10333219915628433, -0.21597740054130554, 0.003205364104360342, 0.14743554592132568, -0.10646916180849075, -0.227705717086792, 0.04014096036553383, -0.028175514191389084, -0.1496325433254242, -0.20740842819213867, -0.11018835753202438, -0.3065442740917206, 0.12959447503089905, -0.1389044225215912, -0.08225549757480621, -0.09083376079797745, -0.04043814167380333, -0.18400922417640686, -0.015794452279806137, -0.27615925669670105, 0.10004840791225433, 0.2492404729127884, -0.25782081484794617, 0.11576477438211441, -0.11219926923513412, -0.1614609658718109, 0.29646751284599304, 0.1371503323316574, 0.24245131015777588, -0.07562267780303955, 0.07261734455823898, 0.08814848214387894, 0.05786857381463051, 0.1254919320344925, -0.21904632449150085, -0.10776563733816147, -0.06602820008993149, 0.17990723252296448, 0.04726962745189667, -0.2422998547554016, -0.21441519260406494, -0.3062807321548462, 0.1927798092365265, 0.2714610993862152, 0.024190278723835945, 0.400455504655838, -0.06832921504974365, -0.09257500618696213, -0.05329832807183266, 0.09917443990707397, -0.004705863539129496, -0.014582954347133636, -0.06970305740833282, 0.11137430369853973, 0.10179278999567032, -0.1651761382818222, 0.01828727312386036, -0.142063170671463, 0.42114880681037903, -0.03178233280777931, 0.12192849069833755, -0.2010865956544876, 0.07728922367095947, 0.04051007330417633, -0.12167035043239594, -0.11296222358942032], [0.10653622448444366, -0.03601266071200371, 0.020309433341026306, 0.12197263538837433, 0.16247525811195374, 0.11235722154378891, -0.1032782793045044, -0.26709258556365967, -0.10019300132989883, -0.11928979307413101, 0.153243288397789, 0.1696942299604416, -0.08063206821680069, -0.026182468980550766, 0.21643750369548798, 0.06977619230747223, -0.07082974910736084, 0.07914815843105316, 0.026513656601309776, -0.10856670141220093, 0.19886243343353271, -0.11800064891576767, 0.05578549951314926, -0.1956917643547058, -0.02885904163122177, -0.0753786489367485, -0.13251303136348724, 0.21920932829380035, -0.18547236919403076, -0.08600687235593796, 0.13977372646331787, -0.019530143588781357, -0.13782116770744324, 0.11255738139152527, -0.20903518795967102, 0.09470660984516144, -0.17908892035484314, 0.19200819730758667, 0.05769219994544983, 0.18765777349472046, 0.22098195552825928, 0.02771138586103916, 0.15560884773731232, -0.09483954310417175, 0.044259779155254364, 0.056961268186569214, 0.08768560737371445, 0.08043959736824036, 0.16131244599819183, 0.2044544219970703, 0.07915215194225311, -0.13786667585372925, 0.20237641036510468, -0.09702366590499878, 0.16306722164154053, -0.04085434228181839, 0.20371383428573608, -0.07451809197664261, -0.09046940505504608, 0.049131378531455994, -0.02261665277183056, 0.06625182926654816, -0.063326396048069, -0.04653135687112808, 0.06127659231424332, 0.23448283970355988, -0.07378260791301727, -0.18468961119651794, -0.14358296990394592, 0.17973990738391876, -0.023958999663591385, 0.08246225863695145, 0.04916004836559296, -0.15988585352897644, 0.01856176182627678, 0.32054221630096436, -0.1789540946483612, 0.1330726146697998, -0.009610465727746487, -0.04197955131530762, -0.033876143395900726, -0.1876932829618454, 0.20973506569862366, -0.16482162475585938, -0.10503827035427094, 0.046586811542510986, 0.20097507536411285, -0.12509475648403168, 0.14090873301029205, -0.02514200657606125, -0.04126685857772827, 0.29254475235939026, 0.17015811800956726, 0.09560958296060562, -0.1599440723657608, -0.25658372044563293, 0.04878241568803787, -0.09426523745059967, -0.0600622221827507, 0.060230519622564316, 0.028076019138097763, 0.11738025397062302, -0.06633462756872177, -0.17656667530536652, -0.0006135107250884175, 0.03906789794564247, 0.16110657155513763, 0.10719205439090729, 0.15696923434734344, 0.006627069786190987, -0.057367272675037384, -0.08496803045272827, 0.11540893465280533, -0.25007349252700806, -0.07595906406641006, -0.23466262221336365, 0.2096811681985855, -0.07530053704977036, -0.04175598919391632, 0.1475808024406433, 0.05799158662557602, 0.10307859629392624, -0.11525042355060577, 0.020644282922148705, 0.05391471087932587, -0.0011313806753605604, -0.1951635181903839, 0.018985768780112267], [0.1366976946592331, -0.21760906279087067, -0.026567526161670685, 0.025237902998924255, 0.11384548991918564, -0.1396162062883377, 0.3409537672996521, -0.03359426185488701, 0.11674853414297104, 0.2146444320678711, -0.3768935203552246, -0.06373529881238937, 0.17776460945606232, -0.06646544486284256, 0.3234383165836334, 0.05234501138329506, -0.043190401047468185, -0.07290169596672058, -0.12014409899711609, 0.20703871548175812, -0.046182990074157715, -0.00917497742921114, 0.02602382004261017, -0.09730963408946991, 0.22639882564544678, 0.05390256643295288, -0.0921398475766182, 0.0029883026145398617, -0.14207899570465088, -0.08169736713171005, 0.18267588317394257, -0.10166481137275696, 0.22607725858688354, -0.2047126740217209, 0.2832995653152466, -0.20073474943637848, 0.19719769060611725, 0.1704225242137909, -0.01426199171692133, -0.006620531436055899, -0.040354155004024506, -0.33592623472213745, -0.26337525248527527, -0.5320609211921692, -0.1617274284362793, 0.03991028293967247, -0.18853916227817535, -0.25542211532592773, -0.03372236341238022, 0.014065510593354702, 0.08877132833003998, 0.04406015947461128, -0.10880515724420547, -0.07383379340171814, 0.10136166214942932, -0.1381627470254898, 0.40049564838409424, 0.11112602055072784, 0.04298000782728195, 0.10327416658401489, 0.04128066822886467, 0.1847354620695114, -0.043297890573740005, 0.08695041388273239, -0.03569997102022171, -0.4368034303188324, -0.06317933648824692, 0.2196427434682846, -0.06494175642728806, 0.06908443570137024, 0.044221363961696625, 0.30093127489089966, -0.07888028025627136, -0.050764620304107666, -0.2809392809867859, -0.09107834845781326, 0.023449700325727463, -0.028089744970202446, 0.3537188172340393, 0.03790045902132988, 0.19198459386825562, -0.0011556359240785241, -0.06971712410449982, -0.07425904273986816, -0.06728645414113998, 0.13289177417755127, 0.08636150509119034, 0.03938276320695877, 0.6196528077125549, -0.019362561404705048, -0.02166644111275673, -0.2828269302845001, -0.13371138274669647, 0.013861781917512417, 0.07185504585504532, -0.2471989542245865, -0.1237199679017067, -0.19652259349822998, -0.047690991312265396, -0.13404493033885956, 0.10958923399448395, 0.18903560936450958, 0.07039672136306763, 0.08430580794811249, 0.10885967314243317, -0.04145687073469162, -0.21395336091518402, -0.11319918185472488, -0.17393258213996887, 0.025774920359253883, -0.0030439174734055996, -0.03754777833819389, -0.49266424775123596, 0.09590964019298553, -0.037808604538440704, -0.17247603833675385, -0.24767184257507324, -0.18984971940517426, 0.012678286992013454, -0.0828191414475441, 0.15279404819011688, -0.04670960456132889, 0.09535185247659683, 0.2730201482772827, -0.31594380736351013, -0.1362299770116806, -0.05724935233592987, -0.10638263076543808], [0.15663480758666992, 0.016416359692811966, -0.1382790505886078, 0.004425093065947294, 0.12377098202705383, 0.0911659300327301, -0.21741065382957458, 0.1391303986310959, 0.16498975455760956, 0.14007356762886047, 0.17607012391090393, 0.33027076721191406, 0.019343923777341843, 0.10335826128721237, 0.11235052347183228, 0.029592519626021385, 0.178057461977005, -0.08203180879354477, -0.11341910064220428, -0.0925137922167778, 0.15689101815223694, 0.003343024058267474, 0.0702432170510292, 0.07021577656269073, 0.08686082065105438, -0.18240903317928314, 0.01743302308022976, -0.24291621148586273, -0.08008328825235367, -0.1278025507926941, 0.07773372530937195, 0.21023385226726532, 0.11897306144237518, 0.20743432641029358, 0.1239682212471962, 0.009139817208051682, 0.04372818395495415, 0.18827542662620544, 0.2149200290441513, -0.13926751911640167, 0.06378663331270218, 0.12563146650791168, 0.08632496744394302, 0.06558895111083984, -0.01229049637913704, -0.09425865113735199, -0.19413462281227112, 0.1910153180360794, -0.020192930474877357, 0.1523403376340866, -0.10824743658304214, -0.20496052503585815, 0.25175002217292786, -0.17115381360054016, -0.08257222175598145, -0.16687819361686707, 0.06161215156316757, -0.041045039892196655, -0.08072295784950256, 0.17300164699554443, 0.049648188054561615, -0.12551450729370117, -0.043052125722169876, 0.12192127853631973, -0.07663808763027191, 0.02265082858502865, -0.1438300907611847, -0.1147952452301979, 0.07443614304065704, 0.2562008500099182, 0.006274028215557337, 0.018440229818224907, -0.07668639719486237, -0.2453000843524933, -0.1907220333814621, 0.08458517491817474, 0.10654225200414658, -0.16603079438209534, -0.16083478927612305, 0.09388715773820877, 0.12482316792011261, -0.05378072336316109, 0.1790657490491867, 0.08127377927303314, -0.021376581862568855, 0.09556535631418228, -0.11095411330461502, 0.06518300622701645, 0.0034614144824445248, -0.18423055112361908, -0.22048398852348328, -0.020897919312119484, -0.06983973830938339, 0.14084096252918243, -0.15619230270385742, -0.14117023348808289, -0.18992048501968384, 0.09493274986743927, 0.18427816033363342, -0.005005205515772104, -0.019243311136960983, 0.11218424141407013, -0.15541435778141022, -0.02840878628194332, 0.21063005924224854, -0.026635345071554184, -0.01369405072182417, 0.27615055441856384, -0.09957145899534225, -0.051522936671972275, -0.08400340378284454, -0.1860310137271881, 0.49136611819267273, -0.24340997636318207, -0.06596846878528595, -0.07905697822570801, -0.07545031607151031, 0.22334885597229004, -0.1617923080921173, 0.09497690200805664, 0.20937703549861908, 0.19040653109550476, 0.010786495171487331, -0.11564546823501587, 0.07642266899347305, 0.04070430248975754, -0.07532692700624466, 0.052639856934547424], [-0.1490740180015564, 0.38780131936073303, -0.09297879040241241, 0.3132762610912323, 0.16352856159210205, 0.08067546784877777, 0.09462470561265945, 0.30627256631851196, -0.1508200764656067, 0.08631516247987747, -0.12782225012779236, 0.021480882540345192, -0.10026615113019943, -0.03023088537156582, 0.261855810880661, 0.012690547853708267, 0.42532971501350403, -2.4584296625107527e-06, -0.2856738269329071, 0.12689386308193207, -0.025364946573972702, -0.04848741739988327, -0.19163094460964203, -0.17745229601860046, 0.0683753490447998, 0.10092427581548691, 0.12203305214643478, -0.2192525416612625, 0.19416575133800507, 