'use strict';

function assert(exp) {
  if (!exp)
    throw new Error('Assertion failure');
}
assert.strictEqual = (a, b) => {
  if (a !== b)
    throw new Error('Assert equal failure');
};

const weights = {"haggle/lstm/kernel:0": [[-0.1851341277360916, -0.255546510219574, 0.033925142139196396, 0.24953478574752808, -0.06427998840808868, -0.13981588184833527, -0.17854265868663788, 0.12413059920072556, -0.3837707042694092, 0.7652205228805542, -0.022719182074069977, 0.1332959085702896, 0.04623036086559296, 0.0527634434401989, 0.10425276309251785, -0.05735098570585251, 0.2124597281217575, -0.11388411372900009, 0.04755372926592827, 0.16647633910179138, -0.050690289586782455, 0.1711110919713974, 0.05672943964600563, 0.07892447710037231, 0.17343372106552124, -0.1881449669599533, -0.35963115096092224, -0.08425057679414749, -0.07348982244729996, -0.40698397159576416, -0.2175474762916565, 0.026876067742705345, -0.014365758746862411, -0.3168392479419708, -0.09236375242471695, -0.6123912334442139, 0.015595094300806522, 0.0942220613360405, -0.05546452850103378, -0.14232559502124786, 0.05339604988694191, 0.9204498529434204, -0.1349211186170578, 0.021465424448251724, -0.180448517203331, 0.09281890839338303, 0.036550797522068024, 0.1205318495631218, 0.16040238738059998, 0.10858412086963654, 0.14390446245670319, -0.1556408554315567, 0.1436489224433899, -0.03146697208285332, 0.0015135081484913826, -0.22122681140899658, 0.44431912899017334, 0.29036712646484375, -0.11725350469350815, -0.020504649728536606, 0.14487306773662567, -0.07835283130407333, -0.16651563346385956, -0.034176234155893326, -0.15373961627483368, -0.29306328296661377, -0.16797597706317902, -0.30802783370018005, -0.10099941492080688, -0.031216371804475784, -0.09439539164304733, 0.3442223072052002, -0.06321427971124649, 0.12624940276145935, 0.39928674697875977, 0.27545779943466187, 0.09395479410886765, -0.030369918793439865, 0.14682860672473907, -0.06723497062921524, 0.31145229935646057, -0.3103694021701813, -0.06591072678565979, 0.04823029041290283, 0.0666515976190567, 0.07654038816690445, -0.06556084007024765, 0.0020713144913315773, 0.26955872774124146, -0.026793433353304863, -0.39391443133354187, -0.02496367320418358, -0.005862070247530937, -0.2870464622974396, -0.1632775366306305, -0.09234220534563065, 0.06508789211511612, -0.27647289633750916, 0.0530400387942791, 0.1341649889945984, -0.056565843522548676, -0.1813669502735138, -0.09994673728942871, 0.06772973388433456, 0.03556307405233383, -0.022986717522144318, -0.020582977682352066, -0.13646206259727478, 0.08469538390636444, -0.0389399528503418, 0.03926924616098404, -2.7465299353934824e-05, 0.24729353189468384, -0.23039178550243378, -0.026616394519805908, -0.1653255671262741, 0.15833044052124023, -0.1323031783103943, -0.0398094616830349, -0.05941076576709747, 0.31607794761657715, -0.06012507155537605, -0.4515012502670288, -0.332254558801651, -0.00809997133910656, -0.0035470733419060707, 0.04896527901291847, -0.2639106810092926], [0.1659090369939804, -0.2564605176448822, -0.3376378118991852, 0.4363890588283539, -0.389797568321228, -0.27391505241394043, -0.19124378263950348, -0.17444953322410583, -0.4270101487636566, 0.2115916907787323, 0.028467845171689987, 0.2014279067516327, 0.04165159538388252, 0.33530932664871216, 0.22274985909461975, 0.3937665522098541, 0.04560026898980141, 0.12017102539539337, -0.11337247490882874, -0.1238204836845398, 0.10848434269428253, -0.15217992663383484, 0.17832495272159576, -0.014606557786464691, 0.4808214008808136, -0.19523917138576508, 0.005999079905450344, -0.04559167101979256, 0.1788235306739807, -0.015419388189911842, 0.010927526280283928, -0.1142820194363594, -0.03213617578148842, -0.578865647315979, -0.14280104637145996, 0.020772451534867287, -0.12015621364116669, 0.11172118782997131, -0.47251054644584656, 0.12621359527111053, -0.5988971590995789, -0.2983277440071106, 0.049331385642290115, -0.4134124219417572, -0.023132167756557465, -0.233514666557312, 0.012079544365406036, 0.04780105873942375, 0.28595033288002014, -0.12385795265436172, -0.08693204820156097, -0.09759456664323807, -0.41538435220718384, -0.13634631037712097, -0.13357004523277283, -0.25153303146362305, 0.4090960919857025, 0.7184557318687439, 0.07769361883401871, -0.12311557680368423, 0.03651835024356842, 0.11942196637392044, 0.06295129656791687, 0.06267379969358444, -0.020938480272889137, -0.029297852888703346, -0.12505248188972473, -0.05614742636680603, -0.26271605491638184, -0.36457353830337524, -0.2647325098514557, -0.055431198328733444, -0.6636703014373779, -0.3523746430873871, -0.28656506538391113, -0.3488318920135498, -0.3274056315422058, -0.01193588599562645, 0.15806728601455688, 0.15257628262043, -0.2571188807487488, -0.1295192837715149, -0.2192276120185852, -0.14860603213310242, -0.15569747984409332, -0.05117132514715195, -0.10646715760231018, -0.031800080090761185, 0.3786352574825287, -0.03360074758529663, 0.019628191366791725, 0.07149907946586609, -0.05512971431016922, -0.11089248210191727, -0.20133544504642487, -0.23669151961803436, 0.041362062096595764, -0.10143881291151047, -0.23809684813022614, 0.3341321051120758, -0.33882999420166016, 0.05814206972718239, -0.014022314921021461, 0.37248075008392334, -0.6586694121360779, -0.16264596581459045, -0.3642185628414154, -0.18731780350208282, -0.10705562680959702, 0.0808311253786087, 0.027537664398550987, -0.04109996184706688, -0.443541020154953, 0.20801807940006256, 0.0515134371817112, -0.27817848324775696, -0.10413520783185959, -0.062994584441185, 0.09602496027946472, -0.18605946004390717, 0.12107054144144058, -0.0655948668718338, 0.19931890070438385, 0.04738651588559151, -0.06798440963029861, 0.07399243861436844, 0.022769320756196976, -0.5214523077011108], [-0.1608567237854004, -0.5577403903007507, 0.10780471563339233, 0.12866072356700897, -0.13007104396820068, -0.047909390181303024, 0.5383901000022888, 0.4940345287322998, 0.35274648666381836, -0.09677980095148087, -0.30253076553344727, 0.11491423100233078, -0.26690733432769775, -0.08981899172067642, 0.26989996433258057, -0.28171420097351074, 0.007396620232611895, 0.13465142250061035, 0.047866880893707275, -0.19570863246917725, 0.04565310850739479, 0.1086927279829979, -0.338883638381958, 0.09086455404758453, 0.2893281877040863, -0.6785818338394165, -0.17661252617835999, 0.030802734196186066, 0.0587196946144104, -0.2945448160171509, 0.31463146209716797, -0.16318325698375702, -0.11941735446453094, 0.016959786415100098, 0.08624697476625443, 0.12557901442050934, 0.24853180348873138, -0.03235044702887535, 0.16255976259708405, -0.08155246078968048, -0.05955987423658371, -0.19154900312423706, -0.8078184127807617, -0.40774038434028625, -0.12160593271255493, 0.076625294983387, -0.49224019050598145, 0.14973390102386475, 0.40793588757514954, 0.08370084315538406, -0.03750826045870781, -0.18900427222251892, -0.07210522145032883, -0.09031327068805695, 0.3606119155883789, -0.08713441342115402, 0.39945125579833984, -0.09561022371053696, 0.026867328211665154, -0.12178829312324524, 0.30573520064353943, 0.09209483116865158, -0.005158699117600918, 0.02387763001024723, 0.007152959704399109, -1.317393183708191, 0.06347787380218506, -0.23290972411632538, 0.052830904722213745, -0.06276167184114456, 0.3008543848991394, 0.2979288101196289, 0.1588427722454071, -0.01682012528181076, -0.2734851539134979, 0.06310179829597473, -0.17079484462738037, 0.029647238552570343, 0.3277285397052765, -0.34665220975875854, -0.4312903583049774, -0.036342691630125046, 0.03818701580166817, 0.012890930287539959, -0.2534570097923279, -0.09066669642925262, -0.10388951003551483, 0.00301238801330328, 0.24554547667503357, -0.5394095778465271, -0.13374148309230804, -0.03551756218075752, 0.2200746387243271, -0.22258615493774414, 0.24527783691883087, -0.10845362395048141, -0.04918183013796806, -0.6045577526092529, -0.12907354533672333, -0.11834226548671722, -0.02502616122364998, 0.14492745697498322, 0.6349422335624695, 0.21224677562713623, 0.2825901210308075, -0.07885239273309708, -0.44920584559440613, -0.11033277958631516, -0.3513016998767853, 0.1571475863456726, 0.135475292801857, -0.3424340784549713, -0.31774845719337463, 0.13645564019680023, -0.34209728240966797, 0.09070135653018951, -0.18377602100372314, -0.11990060657262802, -0.34688130021095276, 0.10510382801294327, 0.2148646116256714, -0.23957930505275726, -0.08821572363376617, 0.03259690850973129, 0.12804098427295685, -0.384288489818573, 0.1575419008731842, -0.07749652862548828], [-0.29855167865753174, -0.24931100010871887, -0.22364799678325653, 0.03898395970463753, 0.07434432953596115, 0.2435178905725479, -0.09287748485803604, -0.23825889825820923, 0.2670174837112427, 0.09560390561819077, 0.43970987200737, 0.4153391420841217, 0.15751302242279053, -0.2014155238866806, 0.18696361780166626, 0.03541680425405502, 0.10543689131736755, -0.707809329032898, -0.37335729598999023, 0.19752338528633118, 0.1318303644657135, 0.24760618805885315, -0.025264613330364227, 0.10583315044641495, 0.24379640817642212, 0.07285725325345993, 0.5847550630569458, 0.0902177020907402, 0.015089997090399265, -0.18171700835227966, -0.20536503195762634, 0.060676150023937225, 0.36603525280952454, 0.17952963709831238, 0.13752111792564392, -0.20712672173976898, 0.15239354968070984, -0.016090117394924164, -0.024089479818940163, -0.9514064788818359, -0.1962447315454483, -0.03625480458140373, -0.022936690598726273, -0.1451835185289383, -0.020848605781793594, 0.3201182782649994, 0.14445804059505463, -0.03277948126196861, 0.6413918137550354, -0.17856904864311218, 0.04290975257754326, -0.21364788711071014, 0.19248980283737183, 0.6926025152206421, 0.07016070187091827, 0.14582860469818115, 0.4496607482433319, -0.045248355716466904, -0.10995259881019592, 0.004875234328210354, -0.015928136184811592, -0.04644240811467171, 0.4603396952152252, 0.04004517197608948, -0.1527874767780304, -0.2301282286643982, -0.10214608162641525, -0.14745056629180908, -0.034897781908512115, 0.10720976442098618, -0.07729446887969971, -0.2380378246307373, 0.10864189267158508, -0.26292484998703003, -0.11491990834474564, 0.03725792467594147, -0.07981055974960327, -0.09414590150117874, -0.1801614910364151, 0.22679637372493744, -0.07539023458957672, -0.5705435872077942, 0.032624825835227966, -0.01942932978272438, -0.01615692675113678, 0.287774920463562, -0.22626246511936188, 0.13894249498844147, 0.17473846673965454, 0.2837352454662323, 0.3769984245300293, -0.19910532236099243, 0.14394809305667877, 0.10168656706809998, 0.014517291449010372, 0.02063104137778282, 0.005901169963181019, -0.21175353229045868, -0.15471242368221283, 0.023627841845154762, 0.1308889538049698, -0.42587989568710327, -0.060536451637744904, -0.08554654568433762, 0.09068582206964493, -0.1801384538412094, -0.13744960725307465, 0.4335865080356598, 0.07664477080106735, -0.07702568173408508, 0.3134758174419403, 0.3599645495414734, 0.3712368309497833, -0.6060085892677307, 0.13771933317184448, -0.07092216610908508, -0.1629135012626648, 0.10777793824672699, 0.008111967705190182, -0.08219444751739502, 0.2984679043292999, 0.41649889945983887, -0.1527365744113922, -0.0598442405462265, 0.1318669319152832, -0.10355953872203827, -0.005656353663653135, 0.007016045041382313], [0.11935862898826599, -0.16866126656532288, 0.1526140570640564, 0.0653793215751648, 0.00866369903087616, 0.09829270839691162, 0.08787679672241211, -0.05429019033908844, -0.10510381311178207, -0.04461374878883362, 0.05805377662181854, -0.01833447813987732, -0.003418639302253723, -0.134651780128479, 0.12123340368270874, 0.03474217653274536, 0.03231425583362579, -0.15782055258750916, 0.17003241181373596, 0.17656654119491577, 0.002889499068260193, -0.14573563635349274, 0.06849481165409088, -0.048351213335990906, -0.17222531139850616, -0.029742449522018433, 0.0051198601722717285, 0.07442504167556763, 0.10204017162322998, -0.059980608522892, -0.025206580758094788, -0.04116976261138916, -0.1395946741104126, 0.06776633858680725, 0.057715341448783875, -0.07105917483568192, 0.09605687856674194, 0.14996138215065002, 0.08008554577827454, -0.012220948934555054, 0.11648523807525635, -0.17056870460510254, -0.14892317354679108, -0.04998643696308136, -0.060915373265743256, -0.08665536344051361, -0.07602547854185104, 0.15071842074394226, -0.17623431980609894, -0.030044034123420715, 0.11131960153579712, 0.0618000328540802, 0.03956294059753418, -0.07039084285497665, -0.08802212029695511, -0.020750954747200012, -0.012313440442085266, 0.0036384165287017822, -0.14091774821281433, -0.12955845892429352, -0.052193015813827515, 0.15651991963386536, 0.16455703973770142, -0.13423208892345428, -0.027828708291053772, -0.0468720942735672, -0.10623718798160553, 0.03281347453594208, 0.09253484010696411, 0.014237910509109497, -0.13186988234519958, 0.1239084005355835, -0.028388068079948425, -0.08188297599554062, 0.03778500854969025, -0.16393455862998962, -0.028836116194725037, -0.1708747297525406, 0.03347031772136688, 0.11286520957946777, 0.045126333832740784, 0.12722352147102356, -0.10680820792913437, -0.15141379833221436, 0.13169050216674805, 0.14256533980369568, -0.07334735244512558, -0.13123522698879242, -0.16255047917366028, -0.16739626228809357, 0.03571048378944397, 0.0277135968208313, -0.05269528180360794, -0.07732424885034561, 0.050406306982040405, 0.140598326921463, 0.15515828132629395, 0.06569388508796692, -0.06346283853054047, 0.0608849972486496, 0.018814057111740112, -0.040194928646087646, -0.0398324579000473, -0.14308904111385345, -0.13354891538619995, -0.08687441796064377, -0.07700976729393005, 0.05439642071723938, 0.09907737374305725, 0.06967847049236298, -0.011283308267593384, 0.08956843614578247, 0.01857513189315796, 0.07707801461219788, -0.05415479838848114, 0.015595212578773499, -0.052295953035354614, 0.17041543126106262, -0.07064886391162872, 0.1379851996898651, 0.08239877223968506, -0.1145506277680397, 0.060501039028167725, -0.023626253008842468, -0.1746516227722168, 0.1736113429069519, -0.14801861345767975, 0.023800387978553772], [0.14590421319007874, 0.018752321600914, 0.1311376988887787, 0.09603467583656311, 0.0979447066783905, -0.15853509306907654, -0.011912137269973755, 0.021905288100242615, -0.04881587624549866, -0.12212887406349182, 0.1694578230381012, 0.07146289944648743, 0.10804465413093567, -0.05106174945831299, -0.17107181251049042, 0.10125866532325745, 0.1606067419052124, 0.08347916603088379, 0.11125388741493225, 0.09564098715782166, -0.16294929385185242, -0.035615578293800354, 0.05645805597305298, 0.03297252953052521, -0.12413908541202545, -0.13878482580184937, 0.1200612485408783, -0.03614860773086548, -0.11877349764108658, 0.1618739366531372, 0.06660959124565125, -0.15270759165287018, -0.031614094972610474, 0.08163169026374817, -0.13632787764072418, 0.06773148477077484, -0.0534537136554718, 0.09949007630348206, -0.11161063611507416, 0.117861807346344, -0.14611315727233887, -0.09314215183258057, 0.061486274003982544, -0.09052707999944687, 0.030713632702827454, 0.052877575159072876, -0.02741307020187378, -0.01072894036769867, 0.1695457398891449, -0.00813959538936615, -0.16757039725780487, 0.06214340031147003, -0.038786426186561584, 0.1066165566444397, -0.11864914000034332, 0.12090227007865906, -0.12740208208560944, 0.14439013600349426, 0.12385624647140503, 0.04530499875545502, -0.05617742985486984, -0.10453646630048752, -0.14428453147411346, 0.03443238139152527, -0.09031333774328232, -0.05258478224277496, 0.09771648049354553, -0.010372921824455261, -0.15817716717720032, -0.02865530550479889, 0.10083243250846863, -0.10463087260723114, -0.03718027472496033, 0.06743089854717255, 0.15827131271362305, -0.08234256505966187, -0.03260578215122223, -0.07315444946289062, 0.17048975825309753, 0.10717597603797913, 0.11811593174934387, 0.016011148691177368, 0.03934586048126221, 0.015833452343940735, 0.04146455228328705, -0.11107815057039261, 0.0776166319847107, -0.07153499126434326, -0.09460150450468063, 0.06343431770801544, 0.17427495121955872, -0.09816786646842957, -0.15282100439071655, -0.04938283562660217, 0.14513182640075684, 0.056984156370162964, 0.030064910650253296, 0.045334696769714355, 0.10679623484611511, 0.08195269107818604, 0.11572301387786865, 0.09060508012771606, 0.1133459210395813, 0.11368367075920105, 0.08361127972602844, 0.12168309092521667, -0.016095533967018127, 0.08031967282295227, -0.14300090074539185, -0.044252246618270874, 0.16882550716400146, -0.06640422344207764, -0.12395434081554413, 0.036051422357559204, 0.1290520429611206, 0.09713152050971985, -0.12700580060482025, -0.010292336344718933, 0.03607542812824249, -0.1291792094707489, -0.03251856565475464, -0.04986588656902313, -0.0003247857093811035, -0.17398695647716522, 0.0292893648147583, 0.011583924293518066, -0.1202162355184555, -0.033132001757621765], [-0.16745136678218842, -0.03245154023170471, 0.031080931425094604, 0.005724862217903137, 0.031008675694465637, 0.02392272651195526, -0.09377259016036987, -0.14427907764911652, -0.13886608183383942, -0.033118829131126404, 0.1382562220096588, 0.13983255624771118, 0.07357490062713623, 0.01990373432636261, -0.1419842690229416, 0.07568150758743286, 0.02781468629837036, -0.14007019996643066, 0.15163713693618774, -0.057381972670555115, -0.02599605917930603, -0.14055940508842468, -0.03762008249759674, -0.05425591766834259, 0.046904802322387695, 0.016904041171073914, 0.15513452887535095, -0.051095008850097656, 0.0892798900604248, -0.1659069061279297, -0.12041053175926208, -0.13388016819953918, 0.06471335887908936, -0.0687652975320816, 0.04012934863567352, 0.1649775505065918, 0.09139984846115112, 0.0019952505826950073, -0.030099228024482727, -0.11741594970226288, 0.12939003109931946, 0.0614292174577713, 0.06575748324394226, 0.015047639608383179, 0.17263659834861755, 0.16995686292648315, -0.021422073245048523, 0.1398436427116394, -0.06628552824258804, 0.0786251425743103, -0.013722091913223267, -0.02363187074661255, -0.1705304980278015, -0.03835366666316986, -0.03981652855873108, 0.12474185228347778, 0.023332133889198303, 0.043669477105140686, 0.07109189033508301, 0.06436583399772644, -0.06062684208154678, 0.02075137197971344, -0.06793823838233948, -0.13465677201747894, 0.017862379550933838, 0.040401071310043335, -0.03973965346813202, 0.13670897483825684, 0.03235359489917755, 0.07423186302185059, -0.05840040743350983, 0.12559935450553894, -0.03564119338989258, -0.14264923334121704, 0.06080634891986847, 0.16201618313789368, -0.03633953630924225, -0.14233416318893433, 0.14648514986038208, -0.14899328351020813, -0.034929320216178894, -0.11214640736579895, 0.05313260853290558, -0.15861959755420685, 0.1324717104434967, -0.00373801589012146, -0.018324464559555054, -0.02381940186023712, -0.13597135245800018, 0.03428000211715698, -0.101711206138134, -0.08517061918973923, -0.12131863832473755, -0.0876452773809433, 0.1024581789970398, -0.058954015374183655, 0.13756117224693298, 0.021484866738319397, 0.06982877850532532, 0.11151990294456482, -0.047287359833717346, 0.08964288234710693, -0.07880447059869766, -0.15329863131046295, 0.08774268627166748, 0.08652263879776001, 0.020280927419662476, -0.036581575870513916, 0.00512772798538208, -0.0004764944314956665, -0.07276158779859543, -0.04439528286457062, 0.152131587266922, -0.024448320269584656, 0.09416413307189941, -0.013094693422317505, -0.17312107980251312, -0.15615542232990265, 0.0734715461730957, -0.0005484968423843384, -0.032302796840667725, 0.07088795304298401, 0.05468524992465973, -0.1756344437599182, -0.12180467694997787, 0.0026457905769348145, 0.15923231840133667, -0.17183198034763336], [0.012720763683319092, -0.13291126489639282, 0.028262346982955933, 0.11950868368148804, 0.08031946420669556, -0.10344551503658295, 0.09765371680259705, 0.012815922498703003, 0.11873769760131836, 0.09524348378181458, 0.04575367271900177, 0.0105380117893219, 0.11515787243843079, -0.1216859370470047, 0.05812045931816101, 0.032411232590675354, -0.08132928609848022, 0.11090710759162903, -0.08387678861618042, 0.1525479257106781, 0.054260313510894775, -0.11820412427186966, 0.04840590059757233, -0.1638382524251938, -0.0884181559085846, 0.07736468315124512, -0.08638297021389008, -0.018933385610580444, -0.009324774146080017, -0.002376571297645569, 0.02456025779247284, 0.10129392147064209, -0.1220325231552124, -0.11263443529605865, -0.03692995011806488, -0.14480897784233093, -0.04615236818790436, -0.1555914580821991, 0.1758188009262085, 0.04387226700782776, -0.056200042366981506, 0.12218031287193298, -0.05037012696266174, 0.05762794613838196, 0.06596022844314575, 0.0153893381357193, -0.047403484582901, 0.0382380485534668, 0.0596395879983902, 0.03052745759487152, -0.17317119240760803, 0.05904360115528107, -0.14197802543640137, 0.011600568890571594, 0.09296944737434387, 0.11012470722198486, 0.16078615188598633, 0.16928866505622864, 0.16894951462745667, 0.1547839641571045, -1.5422701835632324e-05, -0.08121684193611145, -0.045537278056144714, 0.09056279063224792, 0.06198562681674957, -0.14146679639816284, 0.14187946915626526, 0.023846745491027832, -0.12088465690612793, 0.020055055618286133, 0.03603100776672363, 0.11317765712738037, -0.16642388701438904, 0.015262439846992493, -0.14299172163009644, 0.09749668836593628, -0.09686914086341858, -0.09635385870933533, 0.14604875445365906, -0.07855730503797531, -0.019652903079986572, -0.08282379060983658, 0.03821477293968201, 0.06511850655078888, 0.11200201511383057, 0.012172266840934753, 0.17099523544311523, -0.07908762991428375, 0.16576078534126282, 0.07371968030929565, 0.09311452507972717, -0.15640676021575928, 0.08835545182228088, -0.1523350477218628, 0.1555567979812622, 0.11880767345428467, -0.15870817005634308, -0.1531032770872116, 0.013069882988929749, -0.004968240857124329, 0.04917691648006439, -0.13568979501724243, 0.12429910898208618, -0.15649081766605377, 0.044951602816581726, 0.06909798085689545, -0.014996647834777832, 0.023784801363945007, -0.0303814560174942, 0.08004897832870483, -0.1425534337759018, 0.022895827889442444, -0.09497053176164627, 0.1624293327331543, 0.00188368558883667, -0.12485732138156891, 0.06450000405311584, 0.09005886316299438, 0.012832030653953552, -0.06762447953224182, 0.06116819381713867, 0.09366336464881897, -0.07536926865577698, 0.15441393852233887, -0.16722215712070465, 0.10582488775253296, -0.14618948101997375, -0.09518241137266159], [0.02433675527572632, -0.10720863193273544, -0.013690263032913208, -0.0043907612562179565, 0.13440537452697754, -0.020668208599090576, -0.03721319139003754, -0.14305463433265686, 0.14790821075439453, 0.005960568785667419, -0.0060501545667648315, 0.09188222885131836, -0.02377605438232422, 0.09669753909111023, 0.14130398631095886, -0.11110840737819672, 0.12589168548583984, 0.017860442399978638, -0.16832730174064636, -0.07063420116901398, -0.10165373235940933, -0.16055002808570862, -0.14904563128948212, 0.16995471715927124, 0.17718249559402466, 0.10217088460922241, -0.058575816452503204, 0.04007771611213684, -0.08151441067457199, -0.1682056486606598, 0.16399109363555908, -0.011209443211555481, 0.008893921971321106, -0.00528264045715332, -0.17616713047027588, 0.07842019200325012, -0.15256251394748688, 0.005503982305526733, 0.05338276922702789, 0.07621833682060242, -0.04395349323749542, 0.1359807848930359, 0.07622167468070984, 0.08011588454246521, 0.0565766841173172, -0.030853554606437683, 0.0646289587020874, -0.16017693281173706, -0.0904385894536972, -0.024120613932609558, 0.049364492297172546, 0.15683382749557495, 0.15615913271903992, 0.07837271690368652, 0.1100214421749115, -0.07054334878921509, -0.08812011778354645, -0.1481291651725769, -0.0021755248308181763, 0.16181114315986633, 0.08273923397064209, -0.15085022151470184, -0.13843649625778198, -0.11666668951511383, 0.11685997247695923, 0.12957942485809326, -0.08219614624977112, -0.16512946784496307, -0.0030076801776885986, -0.10287974029779434, -0.11121527850627899, 0.17720642685890198, -0.12128981947898865, -0.0745454654097557, -0.07156343013048172, 0.15022924542427063, -0.07282835245132446, 0.07167084515094757, 0.07038480043411255, -0.04879850149154663, 0.16560649871826172, -0.053669437766075134, -0.11768774688243866, 0.046439558267593384, -0.03728722035884857, 0.13298377394676208, -0.03670792281627655, -0.009379744529724121, 0.01930364966392517, 0.06565999984741211, 0.16165825724601746, 0.10082048177719116, -0.11276281625032425, 0.09624812006950378, 0.16927391290664673, -0.10866878181695938, 0.17101383209228516, -0.1675989180803299, 0.006951659917831421, 0.024454519152641296, 0.07713818550109863, 0.046888068318367004, -0.1176263839006424, 0.0004177987575531006, -0.15119263529777527, -0.15118350088596344, -0.008367106318473816, 0.1421586275100708, 0.08696839213371277, -0.031946271657943726, -0.11067290604114532, -0.050686970353126526, -0.1328253597021103, -0.0902014896273613, 0.09798526763916016, 0.15867051482200623, 0.17628628015518188, -0.003430008888244629, -0.013243988156318665, 0.10954934358596802, -0.14798477292060852, -0.08400178700685501, -0.06193533539772034, -0.15510837733745575, -0.12782326340675354, -0.10840839892625809, -0.1085055023431778, 0.028478160500526428], [-0.13614675402641296, -0.15144410729408264, -0.05125097930431366, -0.010424554347991943, -0.07932862639427185, -0.04339058697223663, -0.05783720314502716, -0.04379713535308838, 0.08017900586128235, -0.12901842594146729, -0.001097157597541809, -0.16300980746746063, -0.1560870110988617, -0.04374152421951294, -0.07753080129623413, 0.108427494764328, 0.13929423689842224, 0.15165162086486816, 0.03711181879043579, -0.14065136015415192, -0.14457441866397858, -0.05813346803188324, -0.06768254190683365, 0.11776900291442871, -0.12199745327234268, -0.09052441269159317, 0.11049005389213562, 0.15788018703460693, -0.15391309559345245, -0.1704920530319214, 0.1297796666622162, 0.11104366183280945, 0.10035225749015808, -0.16411009430885315, 0.000705525279045105, -0.06791432201862335, 0.01407112181186676, -0.06639264523983002, -0.09556973725557327, 0.16004174947738647, -0.08692969381809235, -0.03013424575328827, 0.07599073648452759, -0.14745639264583588, -0.04278360307216644, -0.15595170855522156, 0.055051326751708984, -2.446770668029785e-05, -0.029968395829200745, -0.14373520016670227, -0.005658984184265137, -0.05565420538187027, -0.14573116600513458, -0.047325894236564636, 0.03314746916294098, -0.1383674144744873, -0.10334312915802002, -0.1733231395483017, -0.0006367713212966919, 0.12371280789375305, -0.1027948409318924, -0.1466466635465622, 0.09910914301872253, -0.10467557609081268, -0.052198633551597595, -0.1176602765917778, 0.05965341627597809, -0.13940882682800293, -0.043437063694000244, 0.015441566705703735, 0.020038962364196777, -0.0864986702799797, -0.04993121325969696, -0.036763995885849, -0.040760159492492676, 0.051518335938453674, -0.14611709117889404, -0.01799026131629944, 0.1157689094543457, -0.1132880300283432, -0.11938998103141785, 0.15818825364112854, -0.06694085150957108, -0.0696624144911766, 0.061945512890815735, 0.03166314959526062, -0.06927352398633957, 0.17461451888084412, -0.1556791067123413, -0.07318107038736343, -0.03459562361240387, -0.07902340590953827, 0.09960559010505676, 0.09598267078399658, 0.13685274124145508, 0.01551888883113861, 0.1540292203426361, 0.15045508742332458, 0.0974416434764862, -0.1437026560306549, -0.03635486960411072, -0.015103936195373535, 0.12431102991104126, 0.11242863535881042, -0.01807582378387451, -0.08349664509296417, 0.09486901760101318, 0.16927462816238403, 0.0655813068151474, -0.12044095993041992, -0.08118138462305069, -0.15248337388038635, -0.13847385346889496, -0.14643266797065735, 0.16285663843154907, -0.17543616890907288, -0.08729555457830429, -0.16702739894390106, 0.11635082960128784, 0.08728489279747009, 0.025336086750030518, 0.015934541821479797, -0.029047027230262756, -0.08243202418088913, -0.1768232136964798, -0.15879331529140472, 0.04821278154850006, -0.03260307013988495], [-0.12056700885295868, -0.07475894689559937, 0.1077379584312439, -0.04336598515510559, -0.028877943754196167, 0.023064136505126953, -0.05332554876804352, 0.16526499390602112, -0.12021378427743912, -0.04000917077064514, -0.14176076650619507, 0.013626247644424438, 0.04616387188434601, -0.1085439994931221, 0.10178101062774658, 0.10598990321159363, 0.13163256645202637, 0.04602175951004028, -0.06951658427715302, -0.004434868693351746, -0.053460560739040375, 0.06974524259567261, -0.014361009001731873, 0.13187211751937866, -0.13389436900615692, -0.17098581790924072, -0.05764252692461014, -0.11089500784873962, 0.1435653269290924, 0.05178193747997284, 0.1688401699066162, 0.08019065856933594, -0.07911340892314911, -0.06504025310277939, 0.1475500762462616, -0.01577860116958618, -0.16775180399417877, 0.13899174332618713, 0.0028056204319000244, 0.1721179187297821, -0.1476968377828598, 0.035943955183029175, 0.11449629068374634, 0.027097538113594055, -0.1758350282907486, 0.14917832612991333, -0.16332276165485382, -0.007355600595474243, 0.09706932306289673, 0.00914163887500763, 0.05636720359325409, 0.16853579878807068, -0.10158959031105042, 0.0032310187816619873, 0.04079549014568329, -0.003509700298309326, -0.16724345088005066, 0.06116621196269989, 0.001263946294784546, -0.05531691014766693, 0.014011919498443604, -0.10223548859357834, -0.13814425468444824, 0.037024348974227905, 0.042837947607040405, -0.0031941235065460205, 0.14633804559707642, -0.11622007191181183, 0.1411971151828766, -0.017882078886032104, -0.1771857738494873, 0.14995846152305603, 0.021364271640777588, 0.10546797513961792, -0.07347636669874191, 0.053834572434425354, -0.1265486627817154, 0.1544596552848816, 0.07958468794822693, -0.04515692591667175, -0.09659772366285324, -0.06471715867519379, 0.04479418694972992, 0.012109220027923584, 0.08286574482917786, -0.07622285932302475, -0.11379988491535187, 0.11812695860862732, 0.045624926686286926, -0.11089974641799927, -0.11867262423038483, -0.0021338164806365967, -0.14171099662780762, 0.06536555290222168, 0.012584775686264038, 0.046710461378097534, 0.09221270680427551, -0.0138016939163208, -0.05485719442367554, -0.11237408965826035, -0.11671828478574753, -0.01029917597770691, -0.02880612015724182, -0.11289757490158081, -0.05760910362005234, 0.018306344747543335, 0.09333416819572449, -0.07558072358369827, -0.15338192880153656, -0.0314042866230011, -0.04180973768234253, -0.01115746796131134, 0.06695674359798431, -0.15957926213741302, -0.06925108283758163, 0.11287641525268555, 0.003415048122406006, -0.09876310080289841, 0.09054562449455261, 0.08626604080200195, 0.16538786888122559, -0.0472223162651062, 0.08845466375350952, -0.010703712701797485, 0.17564868927001953, -0.15483476221561432, 0.0596691370010376, 0.0699310451745987], [0.06915423274040222, 0.43315747380256653, -0.0745474323630333, 0.17972342669963837, -0.07805770635604858, 0.0503019317984581, 0.3331950306892395, -0.0006306840223260224, 0.07324988394975662, 0.3001525104045868, 0.18598316609859467, 0.28136831521987915, -0.09510486572980881, 0.19309073686599731, 0.2851996421813965, -0.12945716083049774, 0.44006451964378357, -0.1288517862558365, -0.10436132550239563, 0.3607017695903778, 0.1315152943134308, -0.31625962257385254, 0.1515878587961197, -0.05468770116567612, 0.2508925497531891, 0.5287086963653564, 0.1998947560787201, 0.12913145124912262, 0.2728317081928253, 0.048510704189538956, -0.17875544726848602, 0.01765274628996849, 0.092195525765419, 0.015594057738780975, -0.05240561068058014, 0.23990872502326965, 0.11814529448747635, 0.18609105050563812, 0.008244646713137627, -0.08333960175514221, 0.12993615865707397, 0.06645646691322327, 0.0811743512749672, 0.0039247735403478146, 0.06402412056922913, -0.13195237517356873, 0.04216710850596428, -0.12540112435817719, 0.02101239003241062, -0.06650420278310776, 0.021635647863149643, -0.29757627844810486, -0.014749404042959213, 0.2027968168258667, -0.16071155667304993, -0.05742589384317398, -0.020861651748418808, 0.0032379364129155874, -0.35014286637306213, -0.18114395439624786, -0.09698503464460373, 0.18863792717456818, -0.03502030298113823, -0.30794188380241394, -0.0409553162753582, -0.06761489808559418, -0.2962607443332672, 0.09660404175519943, -0.2686082124710083, -0.15922515094280243, -0.0771476998925209, 0.09663401544094086, -0.04073010012507439, 0.27174460887908936, -0.15613232553005219, -0.1712353676557541, -0.3039495646953583, -0.19296753406524658, 0.009533850476145744, -0.07376588135957718, -0.313489705324173, -0.05360076203942299, -0.06317729502916336, 0.18233974277973175, -0.19783513247966766, -0.31934043765068054, 0.1851925402879715, -0.011905939318239689, -0.21497292816638947, -0.146409273147583, 0.19692806899547577, 0.14111939072608948, -0.09205587953329086, -0.12102536112070084, -0.02098432183265686, -0.03440672904253006, -0.20854242146015167, 0.32015737891197205, -0.24915124475955963, 0.1952645182609558, -0.20965564250946045, 0.11424081772565842, 0.1588321179151535, -0.03441474586725235, -0.02876104786992073, 0.032923899590969086, -0.2074098438024521, 0.31715089082717896, -0.1994531899690628, -0.035425130277872086, -0.2790428400039673, 0.01911839284002781, -0.04178372770547867, 0.06213941052556038, -0.04105672612786293, -0.0424623005092144, 0.01677713543176651, -0.3220512568950653, -0.11069389432668686, -0.0007389091188088059, 0.4136788845062256, 0.35539570450782776, -0.1765391081571579, -0.014249688014388084, 0.03683627024292946, -0.06625006347894669, -0.08830315619707108, -0.03855208307504654], [-0.31369930505752563, 0.05431680753827095, -0.026027677580714226, 0.2708227038383484, -0.04268995672464371, -0.03771074861288071, 0.055647026747465134, -0.13769739866256714, 0.08824780583381653, 0.15649883449077606, 0.41624048352241516, 0.3459838330745697, 0.07529265433549881, -0.1655302345752716, 0.08366778492927551, -0.2682408392429352, 0.4708482027053833, -0.08231879025697708, 0.1739843189716339, 0.3221888542175293, 0.06240984424948692, -0.0806998535990715, -0.10548065602779388, -0.06805871427059174, 0.37588414549827576, -0.1399802267551422, 0.11576200276613235, -0.0075297667644917965, 0.23516003787517548, 0.08347567915916443, -0.11034253239631653, -0.01681150309741497, -0.05394109711050987, 0.09319262206554413, 0.09561054408550262, 0.10234922170639038, 0.0004971536691300571, -0.12035874277353287, -0.20024339854717255, 0.003839540295302868, -0.10283876955509186, 0.05952480062842369, -0.004378638695925474, -0.006169051863253117, 0.06204168125987053, 0.04494716599583626, 0.031899403780698776, 0.19721239805221558, -0.02660047821700573, -0.18262265622615814, 0.11079666763544083, -0.2878805994987488, 0.025976231321692467, -0.062198299914598465, 0.11122410744428635, 0.0933455154299736, -0.048912521451711655, -0.20942313969135284, -0.19311775267124176, -0.1620810180902481, 0.19322271645069122, 0.18065501749515533, -0.06942106783390045, -0.2066209763288498, -0.3453556001186371, 0.0012383641442283988, 0.08822605758905411, -0.23185744881629944, -0.06547711044549942, -0.05840349942445755, 0.07857552915811539, -0.08599092066287994, -0.00558401457965374, -0.18810325860977173, 0.036804623901844025, 0.02192886359989643, -0.1179887130856514, -0.16140298545360565, -0.020006757229566574, -0.06262335181236267, -0.01648712530732155, -0.03144502267241478, 0.08519352227449417, 0.16007842123508453, -0.01941898837685585, -0.04436396807432175, 0.035255491733551025, 0.07073583453893661, -0.16661977767944336, -0.06945576518774033, 0.08618661016225815, -0.13628602027893066, -0.061398059129714966, -0.11730087548494339, 0.09049699455499649, -0.08272094279527664, -0.3230383098125458, 0.11669208854436874, 0.13465531170368195, 0.3852842152118683, -0.0018421042477712035, -0.05024285614490509, 0.017643043771386147, 0.08998134732246399, 0.09870284795761108, 0.001896135276183486, 0.5659814476966858, 0.43544086813926697, -0.08841036260128021, -0.15257523953914642, -0.00967039167881012, -0.21511690318584442, 0.11534354090690613, -0.0064064739271998405, -0.11893568187952042, -0.07677385210990906, -0.004683434031903744, -0.024653412401676178, -0.10140739381313324, -0.18169763684272766, 0.17817440629005432, -0.05923646315932274, -0.09696292132139206, 0.1886451095342636, 0.21462437510490417, -0.1381002962589264, 0.09495879709720612, 0.10565400868654251], [0.1559007316827774, 0.16645096242427826, -0.12128099799156189, 0.5074855089187622, 0.13946659862995148, 0.3395426273345947, -0.14504805207252502, 0.5006791949272156, -0.04665069654583931, 0.20253172516822815, 0.05515909567475319, 0.22824619710445404, 0.1745496541261673, 0.026615101844072342, 0.11381155252456665, 0.023278117179870605, 0.21555089950561523, 0.017178336158394814, -0.13232958316802979, 0.053463321179151535, 0.21059373021125793, 0.15228259563446045, 0.0664614886045456, 0.007239691913127899, 0.45391204953193665, -0.1550617218017578, 0.08318527787923813, 0.19975024461746216, 0.06950899958610535, 0.09972497075796127, 0.005819039419293404, 0.07721982151269913, -0.02865718863904476, 0.2951227128505707, 0.0008412176975980401, 0.13018076121807098, 0.06312141567468643, 0.2458358258008957, 0.02433112822473049, 0.13219742476940155, -0.06456895917654037, -0.04000171646475792, 0.07127973437309265, -0.09312617033720016, -0.19544117152690887, 0.12755683064460754, -0.2620897591114044, -0.12653528153896332, 0.023377545177936554, 0.04942839592695236, 0.007962074130773544, -0.17984341084957123, 0.31997403502464294, -0.010989274829626083, -0.023033665493130684, 0.12095671147108078, -0.042762838304042816, 0.03812133148312569, -0.028674189001321793, -0.015050197020173073, 0.055395714938640594, 0.10961278527975082, 0.003934081178158522, -0.037486087530851364, -0.06911546736955643, -0.07536988705396652, -0.015259463340044022, -0.072922483086586, -0.1755562275648117, 0.06322403997182846, 0.022186046466231346, -0.10238593816757202, -0.008132027462124825, -0.21281367540359497, -0.12161950021982193, -0.0439271479845047, 0.08632580935955048, 0.08678769320249557, 0.1558157354593277, -0.00806228443980217, -0.00550962844863534, -0.2377922683954239, 0.1697515994310379, 0.03702399134635925, -0.0764750987291336, 0.010146304965019226, 0.04431906342506409, -0.007396770641207695, -0.14445416629314423, -0.06099439039826393, 0.0354798249900341, 0.0005614581750705838, 0.11760476231575012, 0.011080550961196423, 0.039183635264635086, -0.12035013735294342, 0.089558906853199, -0.07806357741355896, 0.059298109263181686, 0.21480567753314972, 0.021580301225185394, -0.06895434111356735, 0.00417373375967145, 0.27799174189567566, 0.14934591948986053, 0.1745971143245697, -0.11408643424510956, -0.08089981228113174, 0.07223581522703171, -0.03792696073651314, -0.15214456617832184, 0.06914813816547394, 0.5312992334365845, 0.039907943457365036, 0.13247637450695038, 0.1352059543132782, 0.1153869703412056, 0.40025827288627625, 0.0026610770728439093, 0.07607869803905487, 0.3368265926837921, -0.09376303106546402, 0.08357995003461838, 0.003705662675201893, 8.617527782917023e-06, -0.16321222484111786, 0.12089496850967407, -0.14811666309833527], [0.013071835041046143, -0.079083152115345, 0.01254168152809143, -0.15700732171535492, 0.06522555649280548, 0.02628476917743683, 0.04417817294597626, -0.1516251266002655, -0.09589186310768127, -0.12840843200683594, -0.09947804361581802, 0.13583984971046448, 0.09028685092926025, 0.16526252031326294, 0.07356065511703491, -0.09281124174594879, -0.10052391141653061, 0.009698957204818726, -0.005033031105995178, 0.02116130292415619, -0.13698919117450714, 0.12024441361427307, -0.02841062843799591, 0.1656719148159027, 0.14053112268447876, 0.02678804099559784, -0.1637956202030182, 0.04245412349700928, -0.04975466430187225, -0.04632812738418579, -0.10814353078603745, 0.10325285792350769, -0.04173651337623596, 0.14639320969581604, 0.09922268986701965, -0.12730351090431213, 0.13505277037620544, 0.10654520988464355, 0.04429754614830017, -0.14652517437934875, -0.11979582160711288, -0.1628911942243576, 0.05384589731693268, -0.14194877445697784, -0.16083551943302155, 0.15897133946418762, 0.05970323085784912, -0.02595663070678711, -0.162889763712883, -0.034889012575149536, 0.039719074964523315, 0.017281100153923035, 0.1314733326435089, -0.009196817874908447, 0.11045566201210022, -0.16248683631420135, 0.13500285148620605, -0.11240671575069427, -0.08813338726758957, 0.015192285180091858, 0.01761189103126526, 0.1356099545955658, 0.1266210973262787, -0.017665177583694458, -0.0932464450597763, -0.14105123281478882, -0.15448617935180664, 0.13773620128631592, 0.046427980065345764, -0.1540617048740387, 0.15569856762886047, -0.057187922298908234, -0.13766133785247803, 0.03898493945598602, 0.1669919490814209, -0.09464079886674881, -0.11608392000198364, -0.09296928346157074, -0.058597154915332794, 0.13981831073760986, -0.1243070513010025, -0.05820513516664505, 0.16947618126869202, 0.10912182927131653, -0.12104815244674683, 0.08895647525787354, 0.10130041837692261, -0.1697254627943039, -0.052909061312675476, 0.10502976179122925, 0.17711004614830017, -0.07095970213413239, -0.12893995642662048, -0.043798401951789856, -0.08748165518045425, -0.1617998629808426, -0.058467887341976166, 0.10105299949645996, -0.029791712760925293, 0.0355355441570282, -0.10956738144159317, -0.14069518446922302, 0.09037140011787415, -0.1695811152458191, 0.05415809154510498, -0.009748026728630066, -0.09317587316036224, -0.025607511401176453, 0.06255516409873962, -0.06768554449081421, -0.08370049297809601, -0.14817163348197937, 0.044979020953178406, 0.049718692898750305, -0.16866320371627808, -0.08762258291244507, 0.08343392610549927, 0.09848889708518982, 0.15698331594467163, -0.12208983302116394, -0.12521734833717346, -0.04343508183956146, 0.1607266068458557, 0.10593670606613159, -0.13454154133796692, -0.17612360417842865, -0.15354174375534058, -0.06635347753763199], [-0.06326765567064285, 0.08380681276321411, 0.11136102676391602, -0.05781257152557373, 0.15469270944595337, 0.11074140667915344, -0.132121741771698, -0.07012855261564255, 0.025959044694900513, 0.1629880964756012, -0.024243071675300598, -0.15634989738464355, -0.0012391507625579834, 0.09073144197463989, 0.016315564513206482, 0.1608910858631134, 0.1427086889743805, 0.0648064911365509, -0.04527270793914795, -0.08913040161132812, 0.016849488019943237, -0.14196106791496277, -0.013637185096740723, 0.16157379746437073, 0.04915820062160492, -0.06350065767765045, -0.06903818994760513, 0.03921972215175629, -0.027585476636886597, -0.05576242506504059, 0.10385748744010925, -0.16120855510234833, 0.06015254557132721, 0.09578529000282288, 0.08869406580924988, 0.12322342395782471, -0.17680323123931885, 0.08794611692428589, 0.1534397006034851, 0.0007034987211227417, -0.016999587416648865, 0.04321284592151642, -0.08534547686576843, -0.05319983512163162, 0.14615339040756226, -0.1178019642829895, -0.0709817185997963, 0.057125672698020935, 0.12155309319496155, 0.0825793445110321, -0.09706525504589081, 0.04791262745857239, 0.11421453952789307, -0.17101925611495972, -0.06651920825242996, -0.06720711290836334, 0.012122660875320435, 0.04618152976036072, -0.046733707189559937, 0.08777537941932678, 0.06605695188045502, 0.007213607430458069, -0.09975910186767578, -0.032677069306373596, 0.08295944333076477, -0.13161739706993103, -0.17687201499938965, -0.11638094484806061, 0.07697394490242004, 0.07727083563804626, 0.0031980574131011963, 0.1257120668888092, 0.016580015420913696, 0.048641353845596313, 0.051189497113227844, -0.14210647344589233, 0.11656695604324341, 0.10665714740753174, 0.02604798972606659, -0.041929930448532104, 0.14757919311523438, -0.14743204414844513, 0.03362438082695007, 0.0526406466960907, -0.16840523481369019, 0.06247347593307495, 0.11377888917922974, -0.14332212507724762, -0.001801416277885437, -0.12011143565177917, 0.17608511447906494, 0.15851500630378723, -0.1580629050731659, -0.04811212420463562, -0.02375766634941101, 0.00396159291267395, -0.16596265137195587, -0.1634783148765564, -0.12850317358970642, -0.1567215770483017, -0.13308341801166534, -0.00231817364692688, -0.14497631788253784, 0.12826338410377502, 0.07643783092498779, -0.018871396780014038, -0.15493081510066986, -0.0751117542386055, -0.04450993239879608, 0.15507960319519043, 0.052476733922958374, 0.08031073212623596, -0.002863764762878418, -0.11270128935575485, -0.023090556263923645, 0.0057999491691589355, -0.032264307141304016, -0.02175205945968628, 0.0056265294551849365, -0.055306389927864075, -1.8924474716186523e-05, -0.04170072078704834, 0.16361242532730103, 0.04097427427768707, 0.1707746982574463, -0.0039098262786865234, 0.11222290992736816, -0.12675043940544128], [-0.026815339922904968, -0.13309352099895477, -0.1761157065629959, -0.16960811614990234, -0.11203903704881668, 0.14063358306884766, 0.12141287326812744, -0.1515856683254242, -0.1608402132987976, 0.11156642436981201, -0.11094546318054199, 0.17292851209640503, -0.0008161962032318115, 0.15578022599220276, 0.0750783383846283, 0.10917824506759644, -0.012412577867507935, -0.13000208139419556, 0.1694304645061493, 0.10276210308074951, 0.05918698012828827, 0.10800480842590332, 0.08737051486968994, 0.11946690082550049, 0.0629076212644577, -0.07476237416267395, -0.04468397796154022, 0.1533118486404419, 0.16588911414146423, -0.020110592246055603, -0.07424315810203552, 0.0447952002286911, -0.16275829076766968, 0.1291610300540924, 0.08011466264724731, -0.13552460074424744, 0.1462981104850769, -0.004331469535827637, 0.05675420165061951, -0.16808149218559265, 0.03433658182621002, -0.02402476966381073, -0.10129234939813614, 0.16877686977386475, -0.14108461141586304, 0.1192488968372345, 0.1339643895626068, 0.1239849328994751, 0.1138884425163269, -0.06667843461036682, -0.1277870088815689, -0.056463636457920074, -0.010270357131958008, -0.1259700357913971, 0.03394000232219696, -0.13017085194587708, -0.05667936056852341, 0.14345106482505798, -0.1613457202911377, -0.13305717706680298, -0.11970525979995728, 0.0789143443107605, -0.034578800201416016, 0.02419959008693695, 0.003038063645362854, -0.11737022548913956, 0.0034877657890319824, -0.11937785148620605, -0.1549891233444214, -0.09622598439455032, -0.12125673145055771, -0.019987329840660095, -0.1496836245059967, 0.014056339859962463, -0.07620000094175339, 0.02319420874118805, 0.04936741292476654, -0.06081286072731018, 0.032931625843048096, -0.15837602317333221, -0.1634645313024521, 0.10877242684364319, -0.14363910257816315, 0.09007221460342407, 0.017832010984420776, -0.0495292991399765, -0.09159871935844421, -0.06028646230697632, 0.15994739532470703, -0.11534927785396576, 0.08136257529258728, -0.17510144412517548, 0.009066328406333923, -0.12069065868854523, 0.0862075686454773, 0.05480167269706726, 0.173735111951828, 0.01392538845539093, 0.049760282039642334, 0.06848795711994171, 0.06187829375267029, -0.018221735954284668, 0.12945663928985596, -0.0991993173956871, -0.1596604287624359, -0.06836829334497452, 0.10410404205322266, 0.0462510883808136, -0.1417681723833084, -0.0673675611615181, 0.08268851041793823, 0.08962422609329224, 0.0807323157787323, 0.14216145873069763, -0.036502718925476074, 0.0013576298952102661, 0.003119915723800659, 0.07390865683555603, 0.07876229286193848, 0.06847621500492096, 0.011319652199745178, -0.16383571922779083, 0.047081053256988525, 0.09322041273117065, 0.1626874804496765, -0.08174103498458862, -0.015538126230239868, -0.13435256481170654], [0.04315072298049927, -0.04514956474304199, -0.09522783756256104, -0.11638031154870987, -0.0784749910235405, 0.03857758641242981, -0.1048211082816124, -0.13485293090343475, 0.1616525650024414, 0.02553732693195343, 0.032125622034072876, -0.1555713415145874, 0.16743016242980957, 0.15015316009521484, 0.022896721959114075, 0.0046045780181884766, -0.17103873193264008, 0.05607795715332031, -0.02303004264831543, 0.02571175992488861, -0.06601157039403915, 0.05744713544845581, -0.06019045412540436, -0.1263905018568039, 0.07944166660308838, 0.09400013089179993, 0.023688361048698425, 0.15276193618774414, -0.056037649512290955, 0.04725295305252075, -0.12982869148254395, 0.13232770562171936, -0.06108136475086212, 0.006983652710914612, -0.0031821727752685547, 0.15248847007751465, 0.09084177017211914, 0.07801127433776855, -0.02622179687023163, -0.15973813831806183, -0.04921622574329376, 0.06754478812217712, 0.16895052790641785, -0.0007709860801696777, 0.00029858946800231934, -0.10187169909477234, 0.15802356600761414, -0.052340663969516754, -0.11345434933900833, 0.10883396863937378, -0.007480934262275696, 0.07010932266712189, -0.12182986736297607, 0.028869792819023132, -0.17008626461029053, -0.04782934486865997, -0.016723722219467163, -0.15813575685024261, -0.10572101920843124, 0.15000709891319275, -0.14476604759693146, -0.0989072397351265, -0.10041623562574387, 0.01984432339668274, -0.0015575885772705078, 0.12337696552276611, -0.01984851062297821, 0.10954493284225464, 0.10850667953491211, -0.16505052149295807, 0.06531171500682831, 0.1117943525314331, -0.11268265545368195, -0.08002899587154388, 0.11845457553863525, 0.13145023584365845, -0.06805258989334106, -0.12770110368728638, -0.09224144369363785, -0.010052904486656189, -0.15278106927871704, -0.16924691200256348, 0.13734367489814758, 0.14065533876419067, 0.16422727704048157, -0.09726399183273315, 0.11706015467643738, -0.1645827442407608, -0.07307711988687515, -0.028849050402641296, -0.10774373263120651, 0.04563701152801514, 0.17318031191825867, -0.17688296735286713, -0.1143290251493454, -0.0643492266535759, -0.16707433760166168, -0.13628941774368286, -0.10855219513177872, -0.0593649223446846, 0.020423665642738342, 0.0030105113983154297, -0.13955846428871155, 0.12902382016181946, -0.09850338846445084, 0.010450378060340881, 0.04646971821784973, -0.010443657636642456, -0.11232524365186691, 0.14598414301872253, -0.11484219878911972, -0.02866514027118683, 0.1116560697555542, 0.022226348519325256, -0.023402035236358643, -0.07570859044790268, -0.045233115553855896, 0.10084936022758484, -0.09397373348474503, -0.12934045493602753, 0.13468047976493835, -0.164826899766922, 0.0569547563791275, -0.15946605801582336, -0.09789856523275375, -0.09787946194410324, -0.08762740343809128, -0.11380508542060852], [0.08046820759773254, -0.15180298686027527, 0.10366010665893555, 0.023239001631736755, -0.013934895396232605, 0.12073269486427307, -0.015035942196846008, 0.09173348546028137, 0.13368278741836548, -0.05104489624500275, -0.024473294615745544, 0.0881713330745697, -0.0120621919631958, 0.10068592429161072, -0.033903151750564575, -0.06701348721981049, -0.14559310674667358, -0.035550594329833984, -0.14747223258018494, -0.14697667956352234, -0.1558113694190979, 0.17583328485488892, -0.0906391441822052, -0.10270673781633377, 0.09946191310882568, -0.00575004518032074, 0.11608758568763733, -0.10602839291095734, 0.0490989089012146, 0.1363946795463562, 0.012714803218841553, -0.12806281447410583, -0.14194412529468536, 0.07254447042942047, 0.14718574285507202, 0.0037221312522888184, -0.02364686131477356, -0.13154450058937073, 0.15593776106834412, 0.037500157952308655, 0.15425017476081848, 0.010424211621284485, 0.05936877429485321, -0.1285458207130432, 0.01210339367389679, -0.04436121881008148, -0.04189181327819824, -0.17256568372249603, -0.057705655694007874, 0.05212308466434479, 0.02882428467273712, -0.0886370912194252, -0.12015500664710999, -0.05272144079208374, 0.03956395387649536, 0.0020523816347122192, 0.039127230644226074, -0.05307259410619736, 0.08068117499351501, -0.025072067975997925, -0.08048993349075317, 0.027871087193489075, 0.1054500937461853, 0.15128952264785767, -0.15174785256385803, -0.06994612514972687, 0.1526026725769043, 0.04830050468444824, -0.08024154603481293, 0.07676032185554504, 0.0049886554479599, -0.030503839254379272, 0.15354228019714355, 0.15089267492294312, -0.171889528632164, 0.03523679077625275, 0.05305400490760803, 0.11841550469398499, 0.1094413697719574, -0.14149083197116852, 0.14587408304214478, 0.12382787466049194, -0.05809438228607178, 0.1369791328907013, -0.029598891735076904, 0.12322312593460083, 0.03822287917137146, -0.07066677510738373, -0.16649381816387177, -0.0015779584646224976, 0.10257968306541443, -0.16927260160446167, -0.10543764382600784, 0.10674425959587097, -0.1185854971408844, -0.05472522974014282, 0.16972804069519043, -0.05802719295024872, -0.13346394896507263, -0.10867702215909958, 0.11253592371940613, -0.021113604307174683, -0.012069448828697205, 0.09793922305107117, 0.10813337564468384, -0.14098376035690308, 0.04164080321788788, -0.03472425043582916, 0.16031891107559204, 0.11461561918258667, 0.13089382648468018, 0.133459210395813, 0.059360355138778687, 0.09373810887336731, -0.16155113279819489, 0.09296208620071411, 0.15147042274475098, 0.16623947024345398, 0.1306723654270172, 0.09612694382667542, 0.012274190783500671, 0.05275537073612213, 0.009816557168960571, 0.022240042686462402, 0.06169426441192627, 0.1577317714691162, 0.16964644193649292, 0.16952961683273315], [0.09750071167945862, 0.04993821680545807, 0.16051778197288513, 0.09863543510437012, 0.17558139562606812, -0.08154365420341492, -0.11121734976768494, 0.06470388174057007, 0.02019062638282776, -0.030035793781280518, 0.11880216002464294, -0.12641200423240662, 0.12186959385871887, -0.1683446317911148, 0.024449840188026428, 0.15816354751586914, -0.026367291808128357, 0.09339725971221924, -0.07225611060857773, -0.038688600063323975, -0.16460640728473663, 0.004797905683517456, -0.09194027632474899, -0.07664306461811066, -0.0852157473564148, -0.03990568220615387, -0.05952262878417969, 0.06688714027404785, -0.1374713033437729, 0.017648443579673767, -0.15043982863426208, 0.02417035400867462, -0.04016716778278351, -0.10993585735559464, 0.013129591941833496, 0.07797589898109436, -0.07046162337064743, 0.09268337488174438, -0.047927677631378174, -0.0939977765083313, -0.1352919340133667, 0.06720060110092163, 0.173503577709198, -0.11335816979408264, -0.06419169157743454, 0.10686585307121277, -0.1274477243423462, -0.09592435508966446, -0.15175160765647888, -0.1520231068134308, 0.10565593838691711, 0.07653328776359558, 0.16094112396240234, -0.14948996901512146, -0.14941005408763885, -0.10779727250337601, -0.013199999928474426, -0.01071043312549591, -0.14237764477729797, 0.13680347800254822, -0.022953763604164124, 0.15266254544258118, 0.1399146020412445, -0.0789887085556984, -0.1564188152551651, 0.02877970039844513, -0.06219804286956787, 0.14946886897087097, -0.011637464165687561, 0.04207874834537506, -0.029312819242477417, -0.1572641134262085, 0.1021578311920166, -0.155287504196167, -0.11513960361480713, 0.16020360589027405, -0.1639597862958908, 0.09868994355201721, 0.07559782266616821, 0.1082092821598053, 0.03150312602519989, -0.15446113049983978, 0.15293952822685242, 0.11920836567878723, 0.08859524130821228, 0.1742796003818512, 0.09761479496955872, 0.09378331899642944, 0.03855827450752258, 0.08657878637313843, 0.06314337253570557, -0.04146057367324829, 0.09429726004600525, -0.1102156862616539, 0.1336265504360199, -0.10135349631309509, -0.07142022252082825, 0.03551459312438965, -0.10108520835638046, 0.16881567239761353, 0.15711674094200134, -0.12899628281593323, -0.11192481219768524, -0.005927562713623047, -0.11860649287700653, 0.16083094477653503, 0.052384182810783386, 0.17454668879508972, -0.09697165340185165, -0.034497082233428955, 0.12796226143836975, 0.17110520601272583, 0.07213689386844635, 0.07078658044338226, 0.0858270525932312, 0.14722493290901184, -0.14122402667999268, 0.1638128161430359, -0.049286022782325745, 0.03312009572982788, -0.06027387082576752, -0.11760170757770538, -0.11101506650447845, 0.03888455033302307, -0.17516297101974487, 0.15281268954277039, 0.027112796902656555, 0.13868564367294312], [0.06873622536659241, 0.075346440076828, -0.13754808902740479, 0.1701560616493225, 0.04952980577945709, 0.13980436325073242, -0.16647370159626007, -0.05351228266954422, -0.05201621353626251, -0.02129197120666504, -0.038389042019844055, 0.1614721119403839, -0.06758788973093033, 0.042087167501449585, -0.07996704429388046, 0.07031980156898499, -0.05151449143886566, -0.024991020560264587, 0.00216597318649292, 0.14429154992103577, -0.1017966940999031, 0.028734534978866577, -0.027381286025047302, 0.10516169667243958, -0.08415141701698303, 0.16203755140304565, -0.1387650966644287, 0.06161591410636902, 0.15447402000427246, 0.12217459082603455, -0.033085912466049194, 0.04702189564704895, -0.16007687151432037, -0.1615789383649826, -0.0053097158670425415, 0.11825588345527649, 0.17052826285362244, 0.07048173248767853, -0.011990725994110107, 0.11007589101791382, 0.015040501952171326, -0.14899644255638123, -0.1417144536972046, 0.05486941337585449, 0.02665916085243225, 0.17021054029464722, 0.14975497126579285, -0.14147211611270905, -0.1035362035036087, -0.09521646797657013, 0.023753270506858826, 0.109169602394104, -0.0877247154712677, -0.16462993621826172, 0.0015781372785568237, -0.10927081853151321, 0.020759359002113342, 0.019364461302757263, 0.12033075094223022, -0.14053726196289062, -0.16561461985111237, 0.1542394459247589, 0.14508607983589172, -0.13008688390254974, 0.047271206974983215, 0.16447967290878296, -0.04380880296230316, 0.1492093801498413, -0.15087425708770752, 0.0043823570013046265, -0.004364088177680969, 0.1516646444797516, 0.009322106838226318, -0.08980224281549454, 0.009075626730918884, 0.08060023188591003, -0.15766745805740356, -0.10354858636856079, -0.056178487837314606, -0.002810940146446228, -0.014461159706115723, -0.09551885724067688, -0.13934075832366943, 0.021299704909324646, -0.1685163676738739, 0.12790235877037048, 0.0007102936506271362, 0.17147517204284668, 0.15911853313446045, 0.00759519636631012, -0.054911114275455475, 0.10823902487754822, 0.08513343334197998, -0.08133891969919205, 0.139064222574234, 0.09211990237236023, 0.10101771354675293, 0.17668858170509338, -0.021300122141838074, 0.14751338958740234, 0.043903157114982605, 0.12054955959320068, 0.1449609100818634, -0.044726625084877014, 0.14543640613555908, 0.08337604999542236, 0.05469509959220886, 0.03070227801799774, -0.13022878766059875, -0.12018847465515137, 0.15533393621444702, 0.14416489005088806, -0.07375196367502213, 0.062448665499687195, 0.016806721687316895, 0.1459123194217682, -0.07968045771121979, 0.11563506722450256, 0.141508549451828, 0.06970961391925812, 0.06381818652153015, -0.015184268355369568, -0.043161541223526, -0.0780172199010849, -0.03770650923252106, -0.0598892867565155, 0.10872742533683777, 0.17262759804725647], [-0.1532934606075287, 0.27994483709335327, -0.24704165756702423, 0.4349367320537567, 0.0370592437684536, 0.055309414863586426, -0.05866821110248566, 0.19413255155086517, 0.09371069818735123, -0.1552329808473587, 0.2674832344055176, 0.48094412684440613, 0.18009492754936218, -0.001108917873352766, 0.2783500552177429, -0.04512150585651398, 0.42650699615478516, -0.15721137821674347, -0.1444551646709442, 0.11687642335891724, 0.11945930868387222, 0.18568892776966095, 0.04128383472561836, -0.4244442582130432, 0.621936023235321, 0.07040926069021225, -0.041419826447963715, 0.12185665220022202, 0.06213760748505592, 0.23800207674503326, 0.135756254196167, 0.2573240101337433, -0.005191164091229439, 0.5522916913032532, 0.212370827794075, -0.04326585307717323, 0.23478896915912628, -0.02972588874399662, 0.1575251966714859, 0.06582209467887878, 0.2603762149810791, 0.10436804592609406, 0.021224437281489372, 0.2341689169406891, -0.17805977165699005, -0.04286167398095131, -0.043288473039865494, -0.027098095044493675, -0.20065490901470184, -0.058644331991672516, 0.031124301254749298, -0.11354324221611023, 0.12108147889375687, -0.05232463404536247, -0.05052851885557175, 0.07684672623872757, -0.3152402639389038, -0.286812424659729, -0.05598318576812744, -0.0699981078505516, 0.18261630833148956, 0.3507164716720581, 0.1333465576171875, -0.1015438511967659, -0.14872436225414276, -0.05269576981663704, -0.10693544894456863, -0.06730019301176071, 0.03807028383016586, -0.1389358937740326, -0.12125752121210098, 0.11403091251850128, 0.1998797506093979, -0.20969249308109283, 0.06821288168430328, 0.12827561795711517, 0.12373687326908112, -0.00419028103351593, 0.15188613533973694, -0.12851160764694214, 0.03903212398290634, 0.0689503401517868, 0.08148417621850967, -0.10206060856580734, 0.06820085644721985, 0.028062675148248672, 0.04903244227170944, -0.1359163522720337, -0.17639321088790894, -0.08592109382152557, -0.14803364872932434, 0.16571705043315887, 0.14122290909290314, 0.10529769957065582, -0.049732279032468796, 0.014455043710768223, -0.17164641618728638, 0.35383331775665283, -0.03218032792210579, 0.21590223908424377, -0.2047184556722641, -0.08057000488042831, 0.08990014344453812, 0.09859735518693924, 0.24874138832092285, 0.1630152463912964, 0.25479573011398315, 0.367412805557251, -0.2822257876396179, 0.04431287199258804, -0.1354598104953766, 0.01784531958401203, 0.46286869049072266, -0.15059326589107513, 0.06520919501781464, -0.04968572035431862, 0.09516651183366776, 0.2100311517715454, -0.0856560543179512, -0.10270675271749496, 0.5798571705818176, -0.15656092762947083, -0.20218519866466522, 0.23423507809638977, 0.018386606127023697, 0.08820421993732452, 0.09243937581777573, 0.09963251650333405], [-0.07956788688898087, 0.4646654725074768, -0.018181730061769485, 0.3410632014274597, -0.13640208542346954, 0.08288951218128204, 0.1269671469926834, -0.13321223855018616, -0.05789945647120476, 0.5055010914802551, -0.016137992963194847, 0.24911628663539886, 0.11059384047985077, -0.02445976808667183, 0.1768357753753662, 0.009325852617621422, 0.6345902681350708, -0.07040602713823318, 0.03902610018849373, 0.4000999927520752, 0.11241289228200912, -0.012949269264936447, -0.13860656321048737, 0.1259566992521286, 0.421708345413208, 0.29435521364212036, -0.07002808898687363, 0.24626895785331726, 0.05583914369344711, 0.2799428105354309, 0.05866921320557594, 0.34093132615089417, 0.07155736535787582, 0.029716918244957924, -0.0825851634144783, -0.03816598281264305, 0.056634899228811264, 0.21612916886806488, -0.03263857960700989, -0.015543261542916298, -0.06642121821641922, 0.08382457494735718, 0.19986014068126678, 0.17818686366081238, -0.13430991768836975, -0.08930651843547821, -0.06695722043514252, -0.011057491414248943, -0.2332717925310135, -0.11038391292095184, -0.07844654470682144, -0.25093185901641846, 0.07042687386274338, 0.09703907370567322, -0.014893523417413235, -0.17790520191192627, -0.2957489490509033, -0.05655418708920479, -0.285572350025177, -0.18695423007011414, 0.2056114822626114, 0.12719042599201202, -0.24067933857440948, -0.24271956086158752, -0.09020264446735382, -0.07273106276988983, 0.014127940870821476, 0.047248002141714096, -0.13408537209033966, -0.05349024385213852, 0.021056154742836952, -0.1503249704837799, -0.2774328589439392, -0.05649393051862717, -0.4183729588985443, -0.24866615235805511, -0.14034558832645416, -0.16689123213291168, -0.1910155713558197, 0.05953606590628624, -0.18512170016765594, 0.016494253650307655, 0.05877424404025078, 0.2864212989807129, -0.1543470025062561, -0.24519717693328857, -0.28885194659233093, -0.13031217455863953, -0.20432183146476746, -0.01630411669611931, 0.017126448452472687, -0.038793738931417465, 0.1916947066783905, 0.1797594279050827, -0.25039318203926086, 0.12982310354709625, -0.12835247814655304, 0.19224628806114197, 0.07023470848798752, 0.3835449516773224, -0.05915192514657974, 0.024556169286370277, -0.23390242457389832, -0.08577322959899902, 0.0631563737988472, 0.265249103307724, 0.05284448713064194, 0.14919596910476685, -0.21393956243991852, -0.08317869156599045, -0.21576723456382751, 0.024405857548117638, 0.34773579239845276, -0.10270798206329346, 0.004088536836206913, 0.23585866391658783, -0.014863299205899239, -0.09602239727973938, -0.26273930072784424, 0.05874067544937134, 0.5393159985542297, 0.11159557849168777, -0.1135052889585495, 0.14655958116054535, -0.0037703041452914476, -0.02342439442873001, -0.09743039309978485, 0.09250420331954956], [-0.14836859703063965, 0.12955757975578308, 0.10203258693218231, 0.2564985752105713, -0.10245959460735321, 0.022815201431512833, 0.014775468036532402, -0.05303621664643288, 0.15810526907444, 0.268097847700119, 0.16970881819725037, 0.5560694932937622, -0.04510306939482689, 0.10116133093833923, 0.10317142307758331, 0.09128385037183762, 0.4599710702896118, -0.009087085723876953, 0.016602424904704094, 0.4288659393787384, -0.08641156554222107, -0.3098083436489105, 0.02992386184632778, 0.18083393573760986, 0.3927628993988037, -0.06345101445913315, 0.16619332134723663, -0.09810444712638855, 0.2428879737854004, 0.008378027938306332, -0.025536490604281425, 0.1767423301935196, 0.0987541675567627, -0.09841519594192505, 0.06351473182439804, 0.07563942670822144, 0.17906029522418976, 0.03464038297533989, 0.15315765142440796, 0.10834641009569168, 0.10331892967224121, -0.16997522115707397, 0.05218920111656189, 0.0921008437871933, -0.06898503005504608, 0.13698966801166534, -0.06872254610061646, -0.011740688234567642, -0.44310420751571655, 0.08174961805343628, 0.09440155327320099, -0.08788487315177917, -0.07051517069339752, 0.18640965223312378, 0.04800697788596153, 0.04489779844880104, -0.24438358843326569, -0.15782411396503448, -0.2967642843723297, 0.03416997194290161, 0.14963825047016144, 0.2811402380466461, -0.07351982593536377, -0.1374076008796692, -0.28437063097953796, -0.07602104544639587, -0.02401498146355152, -0.11605434864759445, -0.1079057976603508, -0.029777932912111282, -0.029525090008974075, -0.044262222945690155, -0.13239218294620514, 0.09316401928663254, -0.1039973571896553, 0.007831578142940998, -0.05099831148982048, -0.07393153756856918, 0.06199099123477936, -0.1698848158121109, -0.25369080901145935, 0.011734211817383766, -0.0586901418864727, -0.03942966088652611, -0.26224783062934875, -0.28672319650650024, 0.054834119975566864, -0.10424815118312836, -0.11187055706977844, -0.17489102482795715, -0.013880602084100246, 0.11740276217460632, 0.1330627053976059, -0.1625078320503235, -0.12462763488292694, -0.21717463433742523, 0.05558773875236511, 0.25750404596328735, -0.10395656526088715, 0.047761280089616776, -0.028247477486729622, 0.05452553182840347, 0.11315077543258667, 0.09550223499536514, -0.034074798226356506, 0.2921968698501587, 0.1630215048789978, 0.3254382908344269, -0.15197454392910004, 0.0007940017385408282, -0.053988900035619736, 0.023484626784920692, -0.24624885618686676, -0.09119027853012085, -0.17979584634304047, -0.008511176332831383, -0.12575021386146545, -0.28164002299308777, 0.09564121067523956, -0.20285923779010773, 0.5160838961601257, 0.21261470019817352, 0.17228484153747559, 0.2945387065410614, 0.06745046377182007, 0.1514289677143097, -0.3140678405761719, 0.05917225778102875], [-0.14109885692596436, -0.1159292608499527, 0.17521685361862183, -0.11531831324100494, 0.1254481077194214, 0.1269589066505432, -0.14581719040870667, -0.13507415354251862, 0.1672222912311554, 0.0726693868637085, 0.07408583164215088, 0.11079072952270508, -0.0795874074101448, -0.01884777843952179, 0.02862665057182312, 0.08284458518028259, -0.04465216398239136, -0.030741184949874878, -0.12818515300750732, 0.05014321208000183, 0.013904556632041931, -0.10743449628353119, -0.04022298753261566, 0.06500835716724396, -0.1394730657339096, -0.11215557903051376, 0.023794636130332947, -0.15150794386863708, 0.006520971655845642, 0.061239734292030334, 0.03181718289852142, 0.03809565305709839, -0.011371240019798279, -0.08867068588733673, 0.1612820029258728, -0.08443225920200348, 0.08040112257003784, 0.04997037351131439, -0.04119591414928436, -0.05982641130685806, -0.14862695336341858, -0.10819854587316513, 0.04128643870353699, -0.1700800061225891, 0.044896915555000305, 0.040402546525001526, -0.06544139981269836, 0.07573345303535461, 0.1676580309867859, -0.004426896572113037, 0.06433545053005219, -0.15817590057849884, -0.11613069474697113, 0.03793291747570038, 0.010234609246253967, -0.02316373586654663, -0.12123619019985199, -0.17694106698036194, -0.0474332720041275, 0.11067631840705872, -0.14806252717971802, -0.13174521923065186, 0.15637782216072083, -0.038592755794525146, 0.14215892553329468, -0.1702747642993927, -0.15226101875305176, 0.02977624535560608, -0.05260743200778961, 0.00587715208530426, -0.08625062555074692, -0.13395488262176514, 0.02884596586227417, -0.019267141819000244, -0.1566322147846222, 0.03146339952945709, 0.10393655300140381, -0.0824466422200203, 0.07423505187034607, -0.07963152229785919, 0.14079132676124573, 0.08307361602783203, 0.09809443354606628, 0.10940307378768921, 0.024616748094558716, -0.16499373316764832, 0.011662900447845459, 0.1726282238960266, -0.09650285542011261, 0.0024071335792541504, -0.06364306807518005, 0.1211579442024231, -0.057847388088703156, 0.0880851149559021, -0.1709461510181427, 0.026609599590301514, -0.01198527216911316, -0.17675910890102386, 0.03708118200302124, -0.14596855640411377, -0.009498029947280884, 0.14907196164131165, -0.1264609396457672, 0.16270780563354492, 0.012673899531364441, -0.041231200098991394, -0.07650403678417206, 0.13239052891731262, 0.06648612022399902, -0.13367138803005219, -0.11323169618844986, -0.07988130301237106, 0.13434788584709167, 0.13806045055389404, -0.15951856970787048, 0.11671701073646545, -0.09303431212902069, -0.0024343878030776978, -0.066849485039711, -0.07492032647132874, -0.04890626668930054, 0.04630483686923981, 0.08161190152168274, -0.10210968554019928, -0.16144680976867676, -0.013333231210708618, -0.0905991643667221, -0.12980186939239502], [0.12003916501998901, 0.15649005770683289, 0.01959395408630371, -0.00702337920665741, -0.09866984188556671, -0.1300167441368103, -0.0873272493481636, 0.13201144337654114, 0.08270001411437988, 0.011272147297859192, 0.13212570548057556, 0.020273566246032715, 0.06834973394870758, 0.09021332859992981, -0.1672353446483612, -0.031420424580574036, 0.10258859395980835, -0.05510566383600235, -0.04334554076194763, -0.12583595514297485, 0.06159774959087372, -0.10369212925434113, -0.16642464697360992, -0.13965578377246857, -0.027977198362350464, 0.14265120029449463, -0.09190330654382706, 0.01739823818206787, 0.08297005295753479, 0.07071617245674133, -0.03607335686683655, -0.15633581578731537, 0.10133236646652222, -0.08160315454006195, 0.04928196966648102, 0.053333580493927, -0.1411280632019043, -0.16584894061088562, -0.0314006507396698, 0.09148281812667847, 0.08956512808799744, 0.13087600469589233, -0.15136000514030457, -0.0015943199396133423, 0.05660295486450195, -0.009332895278930664, 0.11469608545303345, 0.126813143491745, 0.05344441533088684, -0.08325561136007309, 0.16129308938980103, -0.10063162446022034, 0.00497204065322876, -0.10856128484010696, 0.07714411616325378, -0.006602868437767029, 0.014198705554008484, 0.07544398307800293, -0.1487051248550415, 0.11493778228759766, -0.02529163658618927, -0.07511023432016373, 0.108184814453125, -0.0995653048157692, -0.03142482042312622, 0.00495581328868866, 0.1565662920475006, -0.0629715621471405, 0.044691458344459534, -0.12619835138320923, 0.05695289373397827, 0.011109456419944763, 0.09793063998222351, 0.06379273533821106, -0.11391300708055496, 0.02351480722427368, -0.12055142223834991, -0.06658707559108734, 0.0076287537813186646, 0.063225656747818, 0.09354710578918457, -0.09371296316385269, -0.10861165076494217, -0.04012592136859894, 0.012866467237472534, 0.17706990242004395, 0.11321762204170227, -0.06426192075014114, 0.004173263907432556, 0.0911354124546051, 0.04894298315048218, -0.0034354180097579956, 0.08727362751960754, 0.12220615148544312, 0.05787988007068634, -0.10490833222866058, -0.0954744890332222, 0.05009858310222626, 0.11204448342323303, -0.08948252350091934, -0.061542339622974396, -0.04167714715003967, 0.11765342950820923, -0.062014900147914886, -0.0697011649608612, -0.16526739299297333, 0.14084038138389587, 0.11418133974075317, 0.06936673820018768, -0.03715357184410095, 0.09141936898231506, 0.145496666431427, 0.1678413450717926, -0.16501718759536743, -0.14641331136226654, -0.035202354192733765, -0.018578514456748962, 0.06827342510223389, 0.12361070513725281, 0.15346452593803406, -0.01064273715019226, 0.11650767922401428, 0.09188005328178406, 0.06733173131942749, 0.0462871789932251, 0.06088536977767944, -0.019039884209632874, -0.09661208838224411], [0.11434158682823181, 0.12783047556877136, 0.07856938242912292, -0.01672394573688507, 0.1279812753200531, -0.022228136658668518, 0.12830990552902222, -0.15149003267288208, 0.08393573760986328, 0.11837020516395569, -0.008655175566673279, -0.09612114727497101, -0.1472228318452835, 0.0382460355758667, -0.079494908452034, -0.009183377027511597, -0.023591220378875732, -0.01842769980430603, -0.16913162171840668, 0.15064847469329834, -0.020002275705337524, 0.004841849207878113, 0.12618112564086914, -0.016420751810073853, 0.014676377177238464, 0.16076982021331787, -0.11805292963981628, 0.0036763548851013184, 0.16459131240844727, -0.173905149102211, 0.007259920239448547, -0.13181240856647491, -0.1308547854423523, -0.08190296590328217, -0.0604993999004364, -0.08285624533891678, 0.13841164112091064, 0.0630272626876831, -0.011236906051635742, 0.12123763561248779, -0.05233647674322128, 0.16007107496261597, -0.15828010439872742, 0.15091830492019653, -0.05265750735998154, 0.14254137873649597, -0.0819292888045311, 0.11267745494842529, -0.15603609383106232, -0.09026943892240524, 0.10749876499176025, -0.1462453007698059, 0.13924095034599304, -0.1220976859331131, -0.042920053005218506, 0.01500450074672699, 0.11696141958236694, 0.024295181035995483, -0.17271122336387634, -0.013689547777175903, 0.14870935678482056, -0.11045566201210022, -0.018376439809799194, -0.09632330387830734, -0.08602294325828552, 0.05612917244434357, 0.10026133060455322, 0.06468398869037628, -0.08880802243947983, -0.14798028767108917, 0.07441577315330505, 0.008949115872383118, 0.012911677360534668, 0.022131696343421936, -0.07255769520998001, 0.1677236258983612, 0.09281682968139648, -0.1269836127758026, -0.17649808526039124, -0.03911653161048889, -0.012893304228782654, 0.07795697450637817, -0.06849434226751328, -0.14235520362854004, -0.09666546434164047, 0.10978984832763672, 0.1379890739917755, -0.031310006976127625, -0.03811770677566528, -0.16969715058803558, 0.03705257177352905, 0.027558937668800354, -0.16958627104759216, 0.031330257654190063, -0.0958695113658905, 0.008371412754058838, -0.12316404283046722, 0.05702434480190277, -0.012292951345443726, 0.050356268882751465, -0.08312533795833588, -0.17254388332366943, -0.146589994430542, -0.1417042315006256, -0.04341885447502136, -0.07151661068201065, 0.03996911644935608, -0.15211066603660583, -0.019451245665550232, 0.108438640832901, -0.15827110409736633, -0.16806399822235107, -0.004172086715698242, 0.1746903359889984, -0.0219222754240036, -0.02725878357887268, 0.08768364787101746, -0.07433426380157471, -0.09788956493139267, -0.0531163290143013, 0.08669736981391907, -0.021907180547714233, -0.1432957947254181, 0.0357707142829895, 0.023554235696792603, -0.1613113284111023, -0.15191349387168884, 0.1755201816558838], [0.1361396610736847, 0.1557428538799286, 0.06267803907394409, -0.018036365509033203, 0.10547211766242981, -0.030841797590255737, -0.04678119719028473, 0.15157604217529297, 0.06042768061161041, -0.009099453687667847, -0.07575444132089615, 0.12960362434387207, -0.07273302227258682, -0.10085562616586685, 0.0011171549558639526, -0.06375990808010101, -0.009634554386138916, -0.1683119684457779, 0.11448347568511963, 0.05437922477722168, 0.15222692489624023, -0.15750718116760254, -0.08918038755655289, 0.1380653977394104, 0.17708808183670044, -0.005925282835960388, -0.14250238239765167, 0.132698655128479, 0.1118479073047638, 0.1470862627029419, -0.14246845245361328, 0.16469338536262512, 0.010642945766448975, -0.15519462525844574, 0.12141367793083191, -0.16014258563518524, -0.15540100634098053, 0.15179714560508728, -0.09121882170438766, 0.09916943311691284, 0.11047479510307312, 0.1135818362236023, 0.1732829213142395, 0.16733932495117188, -0.16420681774616241, -0.03738683462142944, 0.09152480959892273, 0.04208873212337494, -0.15703445672988892, 0.1289006769657135, 0.07786056399345398, -0.17575837671756744, 0.06993450224399567, -0.026111170649528503, -0.022712022066116333, -0.06144430488348007, -0.11375652998685837, 0.10449391603469849, 0.1029367446899414, 0.11414659023284912, 0.10453793406486511, 0.023981288075447083, -0.16497260332107544, -0.11555617302656174, -0.10234193503856659, -0.03912182152271271, 0.05767011642456055, -0.1397610455751419, 0.022429868578910828, -0.13052424788475037, -0.15924957394599915, -0.11547748744487762, 0.014507636427879333, 0.05418974161148071, -0.1323021650314331, 0.054546818137168884, -0.05972689390182495, 0.09219235181808472, 0.06495912373065948, 0.1237143874168396, -0.038160547614097595, -0.10726690292358398, -0.11405820399522781, -0.11233314126729965, -0.16032399237155914, -0.07499901205301285, 0.11189514398574829, -0.0706947073340416, 0.09441515803337097, 0.17371338605880737, -0.0403570681810379, 0.031336843967437744, -0.09936923533678055, 0.15116754174232483, -0.17603541910648346, -0.07005959004163742, -0.17645971477031708, 0.01995837688446045, -0.15563862025737762, -0.015617653727531433, 0.11170414090156555, 0.0014623403549194336, 0.12859660387039185, 0.14885607361793518, 0.10962572693824768, 0.13494208455085754, 0.0544251948595047, 0.006101623177528381, -0.12190072983503342, -0.07857471704483032, 0.048344627022743225, -0.09404649585485458, 0.1361626386642456, -0.06651650369167328, 0.045031383633613586, 0.1652413308620453, -0.13820403814315796, -0.13578283786773682, 0.08827975392341614, 0.15460535883903503, 0.0022901147603988647, -0.16686339676380157, -0.014135107398033142, 0.09148415923118591, 0.07139748334884644, -0.07711904495954514, -0.10358471423387527, 0.1309940218925476], [0.08962938189506531, 0.12827906012535095, -0.0063699036836624146, -0.010260894894599915, -0.15404295921325684, -0.10249558091163635, 0.0020626038312911987, -0.10653197020292282, 0.11077055335044861, 0.08831459283828735, -0.12352192401885986, 0.0689220279455185, 0.13964906334877014, -0.12911751866340637, -0.16844803094863892, -0.0693315789103508, 0.16253402829170227, -0.1430756002664566, 0.008420944213867188, -0.007150530815124512, -0.04252476990222931, -0.036842599511146545, 0.02545720338821411, 0.03650006651878357, -0.13587640225887299, 0.09748482704162598, -0.10743136703968048, -0.09656379371881485, 0.053335607051849365, 0.13277721405029297, 0.07920321822166443, 0.08814871311187744, -0.01514454185962677, -0.12687602639198303, 0.09766602516174316, -0.08637101203203201, 0.051006823778152466, 0.1192733645439148, -0.1067868247628212, 0.17334437370300293, 0.13097482919692993, -0.07018788158893585, 0.03607994318008423, -0.054023340344429016, -0.0892435610294342, 0.05626147985458374, 0.12138554453849792, 0.04432898759841919, -0.06509015709161758, -0.1239701360464096, 0.14063677191734314, 0.1497986614704132, -0.0669972226023674, 0.12320658564567566, -0.08306524902582169, 0.0796196460723877, -0.11124435067176819, -0.020477548241615295, 0.14668726921081543, -0.038192540407180786, 0.14093756675720215, 0.051719024777412415, -0.15035729110240936, -0.06306245923042297, -0.03629562258720398, 0.04952697455883026, 0.1339660882949829, 0.1083747148513794, 0.0356065034866333, -0.1252019703388214, -0.09409661591053009, 0.17718476057052612, -0.06912000477313995, -0.11668252944946289, -0.14950327575206757, -0.026038959622383118, 0.1259353756904602, 0.13095882534980774, 0.07073172926902771, -0.09283359348773956, 0.10268363356590271, 0.046558842062950134, -0.13598977029323578, -0.09498967230319977, -0.05841697007417679, -0.1251804679632187, -0.1565806120634079, 0.16313394904136658, -0.1752643883228302, 0.034243836998939514, 0.1597309112548828, 0.1371670961380005, -0.074549101293087, 0.04610326886177063, 0.17386889457702637, 0.10805481672286987, 0.09037542343139648, -0.1084522157907486, -0.006673902273178101, 0.14835822582244873, -0.13401192426681519, -0.07211420685052872, 0.009262874722480774, -0.0741056576371193, 0.12971845269203186, -0.15600840747356415, 0.0955931544303894, -0.10472776740789413, 0.011345461010932922, -0.0625988095998764, -0.05937079340219498, 0.028016582131385803, -0.1011931300163269, -0.11989884078502655, -0.005442321300506592, 0.17098936438560486, -0.037955060601234436, -0.173479363322258, 0.0008110404014587402, -0.16875769197940826, 0.054500967264175415, 0.07710841298103333, 0.02006465196609497, -0.007075101137161255, 0.1465529203414917, 0.07849642634391785, -0.10670176148414612, -0.1397584229707718], [-0.0379452109336853, 0.012485131621360779, 0.14096787571907043, 0.13447746634483337, 0.030695125460624695, 0.1576070785522461, -0.1587265580892563, 0.053024545311927795, 0.15837103128433228, -0.1570289582014084, -0.025545388460159302, -0.031569138169288635, -0.1177433580160141, -0.05655486881732941, 0.10170692205429077, 0.12704265117645264, -0.12847989797592163, 0.09610512852668762, 0.13871991634368896, 0.1526830792427063, -0.04608970880508423, 0.1352916955947876, 0.012931331992149353, -0.04036206007003784, 0.010446280241012573, 0.052822813391685486, -0.1150749921798706, 0.17412802577018738, 0.14580434560775757, 0.06998631358146667, 0.10691612958908081, -0.11717237532138824, 0.003908261656761169, 0.05650179088115692, -0.10310868918895721, 0.05410033464431763, -0.16671308875083923, 0.16804617643356323, -0.07941500097513199, 0.14276954531669617, -0.017117351293563843, 0.16438919305801392, -0.09118878096342087, 0.1492844820022583, 0.008578434586524963, 0.06213681399822235, 0.13955500721931458, 0.08789536356925964, -0.028978392481803894, 0.0779295265674591, 0.04513879120349884, -0.01783466339111328, 0.0008676648139953613, -0.06236305832862854, 0.13116967678070068, -0.08735915273427963, 0.08724424242973328, 0.12724000215530396, 0.05237354338169098, -0.11911827325820923, -0.08928006887435913, -0.11244677007198334, -0.1721021682024002, 0.03881540894508362, -0.134172722697258, 0.10327792167663574, 0.06882213056087494, 0.14758631587028503, -0.0609823539853096, 0.08173021674156189, -0.0002825707197189331, 0.025079846382141113, -0.0348334014415741, 0.04757246375083923, 0.15698817372322083, 0.04605446755886078, 0.11076861619949341, 0.07082849740982056, -0.057590000331401825, -0.15679587423801422, 0.0839681625366211, -0.0608697384595871, -0.16682253777980804, 0.020322129130363464, -0.0906817838549614, 0.07535156607627869, -0.02700558304786682, -0.13628540933132172, -0.009194374084472656, -0.04224422574043274, -0.04414533078670502, 0.17473173141479492, -0.08552371710538864, 0.08254644274711609, 0.0363813191652298, -0.1361163705587387, -0.14229165017604828, -0.04201371967792511, -0.056017063558101654, -0.087412990629673, -0.13614557683467865, -0.008995085954666138, 0.011460185050964355, -0.13416333496570587, 0.04901401698589325, 0.011328145861625671, 0.11291190981864929, 0.07211534678936005, -0.09684522449970245, 0.1400589644908905, -0.14191484451293945, -0.12002214789390564, -0.0953984260559082, 0.03437039256095886, -0.019513249397277832, 0.1577591598033905, 0.16837188601493835, -0.055928751826286316, 0.07523903250694275, 0.13273915648460388, 0.125486820936203, -0.1470993608236313, -0.08484122157096863, -0.03877365589141846, 0.1479729413986206, -0.06531175225973129, 0.11855584383010864, -0.11357381194829941], [-0.02926388382911682, -0.15544593334197998, -0.02726757526397705, 0.0616772323846817, 0.08355924487113953, 0.05672934651374817, -0.09516093879938126, 0.11445817351341248, 0.040502190589904785, -0.008915811777114868, 0.07009813189506531, -0.001196250319480896, 0.06099642813205719, -0.02473241090774536, -0.0741763487458229, 0.11951079964637756, -0.14911746978759766, -0.11714896559715271, -0.06853685528039932, 0.1706984043121338, 0.14144709706306458, -0.1536761224269867, 0.07174935936927795, 0.05316244065761566, 0.04316340386867523, 0.16701963543891907, 0.11670476198196411, 0.06064103543758392, -0.1481758952140808, -0.07728904485702515, 0.04958689212799072, 0.016308844089508057, 0.05412885546684265, 0.08892294764518738, -0.05891454964876175, -0.01212620735168457, -0.15804630517959595, -0.12439249455928802, 0.1612929403781891, -0.0060081928968429565, 0.10757499933242798, 0.12176311016082764, 0.1035115122795105, 0.02551521360874176, 0.16141992807388306, -0.09560950100421906, 0.11365783214569092, -0.04595249891281128, 0.06867727637290955, 0.0967235267162323, -0.006608918309211731, 0.13913539052009583, 0.15158864855766296, 0.10778886079788208, -0.1337190568447113, 0.09037140011787415, 0.10670745372772217, 0.09807363152503967, -0.0930352434515953, -0.07561562955379486, -0.0025740861892700195, 0.12493115663528442, -0.05600696802139282, 0.14269483089447021, 0.06972135603427887, 0.0654386579990387, 0.0981394350528717, 0.058153629302978516, 0.15223097801208496, 0.015161484479904175, -0.0174572616815567, -0.041615188121795654, -0.151214599609375, -0.005444526672363281, -0.11730831861495972, -0.008954852819442749, -0.1682082712650299, -0.0018727481365203857, -0.06664188206195831, 0.03456401824951172, 0.02039371430873871, 0.1608186960220337, 0.07575380802154541, 0.012497469782829285, -0.12541761994361877, -0.011635512113571167, -0.03179989755153656, 0.11705553531646729, -0.06353632360696793, -0.07833786308765411, 0.14098426699638367, -0.09555921703577042, -0.08975719660520554, 0.04883277416229248, 0.12532946467399597, -0.0536397248506546, -0.04584088921546936, -0.11895249783992767, 0.14393803477287292, 0.018190383911132812, 0.16612395644187927, -0.05614472180604935, -0.01542644202709198, -0.09756367653608322, -0.12021069973707199, -0.06420888751745224, -0.044773563742637634, -0.11016011983156204, 0.10006892681121826, 0.09103932976722717, -0.13654524087905884, 0.14439794421195984, 0.0914435088634491, 0.14621233940124512, -0.06614206731319427, 0.06983372569084167, 0.049529850482940674, -0.028574466705322266, -0.06027919799089432, -0.06473895907402039, 0.1331600844860077, -0.07163607329130173, -0.09794817119836807, 0.05923391878604889, -0.012649938464164734, -0.13252364099025726, 0.0684683620929718, -0.0973498597741127], [-0.13589859008789062, 0.13889361917972565, 0.05972619727253914, -0.11035128682851791, -0.04820708930492401, 0.22350652515888214, 0.016382981091737747, 0.05760764330625534, -0.034910302609205246, 0.11430336534976959, -0.05776939168572426, 0.009300924837589264, -0.3697703182697296, -0.043859608471393585, 0.11316666752099991, 0.01619678921997547, 0.12145080417394638, -0.04806188866496086, 0.12156222760677338, -0.2025773525238037, -0.13988594710826874, -0.24892157316207886, -0.0752333253622055, 0.028823429718613625, -0.09304346889257431, -0.2673638164997101, 0.07657662034034729, 0.014921838417649269, 0.0836561918258667, -0.02352585271000862, -0.01982998661696911, -0.17695972323417664, -0.045989617705345154, 0.07587090879678726, -0.2520822584629059, -0.057083502411842346, 0.058032236993312836, 0.1337711662054062, 0.0967579260468483, 0.32924506068229675, 0.06867843866348267, 0.054073791950941086, -0.007433358114212751, 0.10735533386468887, 0.12122183293104172, 0.01843692734837532, -0.04416952654719353, -0.0198178980499506, 0.23784363269805908, -0.11102615296840668, 0.11756709963083267, -0.08872070908546448, 0.22574502229690552, 0.0573212094604969, 0.0887591764330864, -0.16295643150806427, 0.006071937270462513, -0.13105957210063934, 0.02715521864593029, 0.14145591855049133, -0.06311149895191193, 0.08806712925434113, -0.0705014243721962, -0.0608588308095932, 0.20927490293979645, -0.03985489159822464, -0.03870949521660805, -0.1699417531490326, -0.1286979764699936, 0.05261620134115219, -0.14660917222499847, 0.05403223633766174, 0.1764422506093979, -0.28353753685951233, 0.10141182690858841, 0.2094922661781311, -0.27874496579170227, 0.11494821310043335, -0.2409774661064148, -0.05741092562675476, -0.13747462630271912, -0.2813059985637665, 0.07044882327318192, 0.10214220732450485, -0.2434617131948471, -0.25025665760040283, 0.09781784564256668, 0.05013282969594002, 0.2537746727466583, -0.236172154545784, 0.22064267098903656, -0.01661449484527111, 0.1399393379688263, -0.25797268748283386, -0.17592594027519226, -0.104187972843647, 0.019394000992178917, -0.082118920981884, 0.01954558864235878, -0.09008731693029404, -0.2350628674030304, 0.04050448536872864, -0.16178056597709656, 0.01583346538245678, -0.010016082786023617, 0.021364901214838028, 0.1253170371055603, 0.21279875934123993, -0.04843645170331001, -0.04991528019309044, 0.04655804857611656, 0.18624894320964813, -0.06110939010977745, -0.11128281056880951, 0.022711891680955887, -0.07052598893642426, 0.01712949015200138, -0.40782880783081055, -0.04039926826953888, -0.06547965109348297, 0.14526571333408356, 0.13044695556163788, 0.08699651062488556, 0.2570645809173584, -0.18269847333431244, -0.04477632790803909, -0.12894782423973083, -0.10861523449420929], [0.017038676887750626, -0.05509312450885773, 0.05079719424247742, 0.24569974839687347, -0.10798341035842896, -0.004132240079343319, 0.010920511558651924, -0.20567992329597473, -0.07329893857240677, 0.18532076478004456, -0.028087688609957695, 0.3698806166648865, 0.13853417336940765, -0.012354371137917042, 0.33565637469291687, -0.1422363668680191, 0.2751842737197876, 0.1390703022480011, -0.215273916721344, 0.3228118121623993, -0.21842806041240692, -0.1110135093331337, -0.2994424104690552, -0.019468819722533226, 0.19952142238616943, 0.04169430956244469, 0.16280291974544525, -0.004205913748592138, 0.13246120512485504, 0.15848958492279053, 0.15386725962162018, 0.07392273098230362, 0.28119751811027527, -0.0529581718146801, 0.11273396760225296, -0.13925914466381073, 0.23659838736057281, 0.025880713015794754, 0.06492458283901215, -0.15576310455799103, 0.11667323112487793, -0.07962814718484879, 0.15741081535816193, 0.07096729427576065, -0.08125894516706467, -0.1806870698928833, -0.22711390256881714, 0.052996926009655, -0.01428562868386507, -0.21324680745601654, -0.08917275816202164, -0.14038781821727753, 0.03592943772673607, -0.02592112496495247, -0.19031542539596558, 0.014985928311944008, -0.23203647136688232, -0.05280252918601036, -0.2888812720775604, -0.006890945136547089, 0.09070726484060287, 0.11111149191856384, 0.09599833935499191, -0.2348836064338684, 0.16388730704784393, 0.11601017415523529, -0.09134212881326675, -0.2178558111190796, 0.04235405847430229, -0.035806868225336075, -0.11467833817005157, -0.21362118422985077, -0.12597276270389557, -0.2561953663825989, 0.10716775804758072, -0.17216764390468597, -0.07697874307632446, -0.05186416953802109, -0.0314759723842144, -0.10109182447195053, 0.026287993416190147, -0.26196256279945374, 0.0915481224656105, 0.3306136727333069, -0.2508295178413391, 0.1713126003742218, -0.09990516304969788, -0.19415780901908875, 0.31208011507987976, 0.1706472635269165, 0.30791008472442627, -0.10439779609441757, 0.13459192216396332, 0.16301654279232025, 0.14547501504421234, 0.15358924865722656, -0.1375511735677719, -0.1114622950553894, -0.042604535818099976, 0.2509326636791229, 0.03693009540438652, -0.2570142447948456, -0.18783821165561676, -0.4035196006298065, 0.20874100923538208, 0.3707767724990845, 0.006744740065187216, 0.40145885944366455, -0.0855153426527977, -0.05988512933254242, -0.06149670109152794, 0.1645670235157013, -0.0538051463663578, -0.008266938850283623, -0.07096793502569199, 0.13556842505931854, 0.11971491575241089, -0.10219796746969223, 0.08544707298278809, -0.1734660267829895, 0.424145370721817, -0.009459412656724453, 0.1621331125497818, -0.2077125757932663, 0.11744607239961624, 0.05997622758150101, -0.08861519396305084, -0.10290168225765228], [0.11314663290977478, -0.0732988640666008, 0.0189399104565382, 0.14916561543941498, 0.15950235724449158, 0.07751201838254929, -0.11168989539146423, -0.34511902928352356, -0.10342308133840561, -0.01097192894667387, 0.13733600080013275, 0.18107624351978302, -0.07967198640108109, -0.04047011211514473, 0.24676351249217987, 0.03406025841832161, -0.0684843361377716, 0.09309375286102295, -0.011258264072239399, -0.10168945789337158, 0.17215117812156677, -0.13091297447681427, 0.06629335135221481, -0.17533117532730103, -0.026138022541999817, -0.11791535466909409, -0.14313727617263794, 0.1764606535434723, -0.1773694008588791, -0.060316991060972214, 0.06306880712509155, -0.014113804325461388, -0.1445823311805725, 0.11352432519197464, -0.23637272417545319, 0.09035048633813858, -0.18937762081623077, 0.15381143987178802, 0.04097322002053261, 0.1751130372285843, 0.16827332973480225, -0.037053558975458145, 0.18920496106147766, -0.11581752449274063, 0.06138099357485771, 0.07715310901403427, 0.139826238155365, 0.10780602693557739, 0.1353243887424469, 0.24041134119033813, 0.0855841413140297, -0.1382942944765091, 0.11797859519720078, -0.09544799476861954, 0.2071123570203781, -0.05234191194176674, 0.20102407038211823, -0.038475606590509415, -0.09187286347150803, 0.012598298490047455, -0.015370505861938, 0.06485764682292938, -0.034197889268398285, -0.04371555894613266, 0.06628791242837906, 0.2198721021413803, -0.08505010604858398, -0.17900745570659637, -0.1473512202501297, 0.16740918159484863, -0.04611619934439659, 0.05143224447965622, 0.004469124600291252, -0.14775246381759644, -0.10018841177225113, 0.32196152210235596, -0.21320636570453644, 0.1326179951429367, -0.030360132455825806, -0.0521106943488121, -0.01340390369296074, -0.17521071434020996, 0.1852950006723404, -0.15150094032287598, -0.10802334547042847, 0.0825076624751091, 0.2070339471101761, -0.11861260235309601, 0.1560385376214981, 0.008346611633896828, -0.05765360966324806, 0.28682833909988403, 0.18419723212718964, 0.12070134282112122, -0.2051561325788498, -0.25530439615249634, 0.05016065016388893, -0.10305657237768173, -0.06722143292427063, 0.1044439971446991, 0.016341684386134148, 0.11605597287416458, -0.08925332129001617, -0.21531091630458832, 0.008535738103091717, 0.13411647081375122, 0.14451253414154053, 0.13503201305866241, 0.13077905774116516, 0.008819510228931904, -0.027904417365789413, -0.10160703957080841, 0.024814708158373833, -0.23529469966888428, -0.10087904334068298, -0.2335735410451889, 0.2223161906003952, -0.08883728086948395, -0.0318051241338253, 0.16327466070652008, 0.059701208025217056, 0.09945955127477646, -0.09078309684991837, 0.03201640397310257, 0.10990869253873825, -0.002816553460434079, -0.2664988934993744, 0.011705655604600906], [0.13154910504817963, -0.14827610552310944, 0.02941189333796501, 0.01530841737985611, 0.1596345752477646, -0.15005819499492645, 0.3317565321922302, -0.10931586474180222, 0.11205346137285233, 0.22073614597320557, -0.3596342206001282, -0.09267124533653259, 0.19485504925251007, -0.08177097141742706, 0.3491455018520355, 0.05907484516501427, -0.057630520313978195, -0.07582224160432816, -0.17012101411819458, 0.233708456158638, -0.12577033042907715, -0.09089303016662598, -0.040879860520362854, -0.06120409816503525, 0.23893879354000092, 0.03253725543618202, -0.1010715588927269, -0.05903392285108566, -0.14921453595161438, -0.07110520452260971, 0.21148328483104706, -0.09070088714361191, 0.20110952854156494, -0.20688475668430328, 0.3138291537761688, -0.24567367136478424, 0.23237350583076477, 0.13027827441692352, -0.02408718317747116, -0.059594038873910904, -0.06790317595005035, -0.27939170598983765, -0.2010655552148819, -0.510606050491333, -0.19764867424964905, 0.04807455465197563, -0.21085938811302185, -0.2033044546842575, -0.07046488672494888, 0.04447552561759949, 0.11830718070268631, 0.04039976745843887, -0.0746392011642456, -0.16174326837062836, 0.14505718648433685, -0.12050791829824448, 0.39386245608329773, 0.10085400938987732, 0.04282987862825394, 0.12451209127902985, 0.03524474427103996, 0.1973203420639038, -0.0676981583237648, 0.08632028847932816, -0.0518784373998642, -0.32940158247947693, -0.010484146885573864, 0.26206880807876587, -0.0368245430290699, 0.07613544166088104, 0.01566188596189022, 0.35529109835624695, -0.12253084033727646, -0.02953110821545124, -0.20302477478981018, -0.16271936893463135, 0.07642243057489395, -0.1775042712688446, 0.3405308425426483, 0.07319607585668564, 0.09304428100585938, -0.013809159398078918, -0.13107506930828094, -0.034120913594961166, -0.06477375328540802, 0.298566073179245, 0.04823679104447365, 0.04326282814145088, 0.6773374080657959, -0.026629362255334854, -0.05378103256225586, -0.2868945896625519, -0.10521116107702255, 0.024703387171030045, -0.021014925092458725, -0.24900555610656738, -0.12351154536008835, -0.12165564298629761, -0.004503161646425724, -0.15145562589168549, 0.16091497242450714, 0.20460259914398193, 0.05486026778817177, 0.11396313458681107, 0.07221364229917526, -0.005603659898042679, -0.20215348899364471, -0.1470581591129303, -0.1350930780172348, -0.06608764827251434, -0.06427598744630814, -0.046483591198921204, -0.5779321193695068, 0.09214280545711517, -0.0809096023440361, -0.2014240175485611, -0.26077112555503845, -0.13249342143535614, -0.022200271487236023, -0.07498188316822052, 0.16413705050945282, -0.05590523034334183, 0.08558640629053116, 0.2923717796802521, -0.35050544142723083, -0.13801562786102295, -0.06347890198230743, -0.10308874398469925], [0.1663232147693634, -0.012107728980481625, -0.1103527694940567, 0.07331263273954391, 0.1494193971157074, 0.09692425280809402, -0.2674609422683716, 0.11551844328641891, 0.1638057678937912, 0.20280316472053528, 0.15474824607372284, 0.3401772677898407, 0.047693438827991486, 0.0879731997847557, 0.15944088995456696, 0.024228692054748535, 0.1828983575105667, -0.0978463888168335, -0.13651391863822937, -0.0736285150051117, 0.14086511731147766, -0.003924718126654625, 0.027758030220866203, 0.0842030867934227, 0.09344743937253952, -0.18340682983398438, 0.04814121872186661, -0.32591235637664795, -0.10214082151651382, -0.1049218401312828, 0.018634524196386337, 0.2472347468137741, 0.14420253038406372, 0.22112597525119781, 0.13192716240882874, -0.0053612710908055305, 0.044085804373025894, 0.15298393368721008, 0.2228977233171463, -0.1536383032798767, 0.05844968184828758, 0.11268197745084763, 0.10833373665809631, 0.06759496033191681, -0.01967611536383629, -0.09379269182682037, -0.15643265843391418, 0.19214756786823273, -0.05993686243891716, 0.14767292141914368, -0.11059698462486267, -0.2081979215145111, 0.2763524055480957, -0.16326574981212616, -0.06175405904650688, -0.14865821599960327, 0.03419619798660278, -0.0668841004371643, -0.09358272701501846, 0.16045409440994263, 0.03044949844479561, -0.11584139615297318, -0.06561607122421265, 0.11572051793336868, -0.04626404121518135, 0.020849941298365593, -0.12911099195480347, -0.1622321754693985, 0.10613106936216354, 0.26545074582099915, -0.04099753871560097, -0.014705737121403217, -0.11152175068855286, -0.2660466134548187, -0.20315715670585632, 0.09835630655288696, 0.10607461631298065, -0.18361148238182068, -0.18237151205539703, 0.11546661704778671, 0.13589149713516235, -0.07758632302284241, 0.17511215806007385, 0.10848443955183029, -0.042079128324985504, 0.10739053785800934, -0.1559322327375412, 0.08232924342155457, 0.0325976125895977, -0.14756730198860168, -0.20114104449748993, -0.03335992991924286, -0.05617386847734451, 0.16697609424591064, -0.16256298124790192, -0.1083030253648758, -0.1787513792514801, 0.11252162605524063, 0.20642396807670593, 0.03947145864367485, 0.0027801240794360638, 0.10887403041124344, -0.23397809267044067, -0.0721873790025711, 0.1874443143606186, 0.07688844949007034, 0.007462048437446356, 0.27937009930610657, -0.10065300017595291, -0.08087349683046341, -0.06893251091241837, -0.1752808839082718, 0.4857909083366394, -0.2639165222644806, -0.10756848007440567, -0.06871967762708664, -0.08231299370527267, 0.2248542308807373, -0.20073069632053375, 0.11171837151050568, 0.21802619099617004, 0.23304276168346405, 0.014488020911812782, -0.10113918781280518, 0.09346143901348114, 0.06341564655303955, -0.10452090203762054, 0.06715097278356552], [-0.09328296780586243, 0.4619845151901245, -0.07389947026968002, 0.3751535713672638, 0.18003493547439575, 0.06199430301785469, 0.10937263816595078, 0.3277316093444824, -0.17511439323425293, 0.19465966522693634, -0.23131687939167023, 0.03567811846733093, -0.09144134819507599, -0.001391054131090641, 0.3013724386692047, 0.0055190082639455795, 0.44660061597824097, 0.033649709075689316, -0.32793495059013367, 0.15406526625156403, -0.1666921228170395, -0.13699692487716675, -0.2167777717113495, -0.14702065289020538, 0.09130609035491943, 0.0075575304217636585, 0.12393419444561005, -0.26310965418815613, 0.18038639426231384, -0.0231956597417593, -0.0007751709781587124, 0.3135876953601837, 0.300401508808136, 