'use strict';

const weights = {"haggle/preprocess/kernel:0": [[0.4150039255619049, 0.6072354912757874, -0.09101364016532898, -0.23653121292591095, -0.1768725961446762, 0.45654475688934326, -0.08505378663539886, -0.19254107773303986, -0.35422810912132263, 0.24840174615383148, 0.05592990666627884, -0.21019859611988068, 0.2549516260623932, 0.20001354813575745, -0.32591643929481506, 0.20182397961616516, -0.2426813393831253, -0.015971176326274872, 0.2697373032569885, 0.1407264620065689, 0.05678441375494003, 0.1992870718240738, -0.018231870606541634, 0.5633824467658997, 0.11814860254526138, -0.0019591650925576687, 0.3000158965587616, 0.5361507534980774, 0.3762919306755066, 0.26907309889793396, 0.3235844671726227, -0.11664552986621857, -0.3283339738845825, -0.1679377555847168, -0.336935818195343, -0.18142502009868622, -0.46580761671066284, -0.5848244428634644, 0.024112766608595848, -0.03800762817263603, -0.3688597083091736, 0.17834344506263733, -0.48401889204978943, -0.24952559173107147, -0.6048048138618469, -0.09986800700426102, -0.004078658763319254, 0.16825400292873383, 0.3324671983718872, -0.06823186576366425, -0.3168661594390869, -0.4809008240699768, -0.26007822155952454, 0.2760299742221832, -0.5404291152954102, -0.39158469438552856, 0.23835410177707672, -0.376504123210907, 0.3979169428348541, -0.5431476831436157, 0.008912529796361923, 0.03814338892698288, -0.3165185749530792, 0.1852501481771469], [0.2718687355518341, -0.011693178676068783, 0.4002779424190521, 0.11295301467180252, -0.14363640546798706, 0.24366788566112518, -0.4598935544490814, -0.1439058929681778, -0.5118865966796875, -0.1390766054391861, -0.11728570610284805, -0.19110369682312012, 0.3559808135032654, 0.07908905297517776, 0.2935445308685303, -0.24942663311958313, 0.09148754924535751, -0.1870441436767578, 0.3834921419620514, 0.11407970637083054, 0.11255818605422974, -0.14306175708770752, 0.3388182818889618, -0.06816451996564865, 0.13481198251247406, -0.23484770953655243, -0.29143428802490234, -0.09487399458885193, 0.060759417712688446, 0.471345990896225, 0.22443194687366486, -0.3058032989501953, 0.19666226208209991, 0.06625807285308838, 0.013999375514686108, -0.2967483699321747, -0.3454810082912445, -0.7042924761772156, -0.038812872022390366, 0.26023679971694946, -0.9875645637512207, -0.07806655019521713, 0.5393850803375244, 0.19022496044635773, -0.0316653735935688, -0.15293282270431519, 0.018385816365480423, -0.36273881793022156, -0.12918460369110107, 0.0053753177635371685, 0.25300678610801697, 0.2628127336502075, 0.2760699987411499, 0.08028237521648407, 0.38696038722991943, -0.555532693862915, 0.10221586376428604, 0.2864007353782654, -0.24572525918483734, 0.11000175029039383, 0.1369096338748932, 0.1613883525133133, -0.46990856528282166, -0.0842435285449028], [-0.5569553971290588, -0.033173494040966034, 0.4531323313713074, 0.40298646688461304, -0.5055863261222839, 0.3737226724624634, -0.02053433656692505, 0.3851242661476135, -0.10354506969451904, 0.10831516981124878, -0.5217512845993042, 0.04304002225399017, 0.061556026339530945, -0.42070040106773376, 0.2799341082572937, 0.2710075080394745, -0.16876386106014252, -0.20672345161437988, 0.036341551691293716, 0.4124513864517212, 0.1363082230091095, -0.522976815700531, -0.24324707686901093, 0.08344553411006927, -0.2666621804237366, 0.18915997445583344, -0.12776648998260498, 0.014883670024573803, 0.18533235788345337, 0.12745413184165955, 0.03650013357400894, -0.22822970151901245, 0.1210552304983139, -0.13608649373054504, -0.3113577663898468, 0.09398903697729111, 0.2975325882434845, 0.17600612342357635, 0.060219597071409225, 0.2891823947429657, 0.33666402101516724, -0.03742241859436035, -0.2776811122894287, -0.5677812099456787, 0.07780615240335464, -0.4389376640319824, -0.16207166016101837, -0.31016674637794495, -0.2805904448032379, 0.5114964842796326, 0.2663477659225464, 0.0919734463095665, 0.054003242403268814, -0.749284029006958, 0.30066826939582825, -0.02063112147152424, 0.36374858021736145, -0.5807798504829407, 0.07031337171792984, 0.02954729273915291, -0.44165071845054626, 0.3296314775943756, -0.38901662826538086, 0.1437658667564392], [-0.2188045233488083, 0.06728515028953552, 0.2124578207731247, 0.16957548260688782, -0.399372935295105, 0.27517008781433105, -0.20489001274108887, 0.045396868139505386, -0.046306416392326355, -1.1385327577590942, -0.11914978176355362, 0.42472735047340393, 0.21533522009849548, -0.21654576063156128, -0.24213917553424835, 0.285325288772583, 0.2594466805458069, 0.34573525190353394, -0.2558627426624298, 0.23830512166023254, 0.19682654738426208, -0.0748969241976738, -0.893974244594574, 0.13206452131271362, 0.30285993218421936, -0.8571361899375916, 0.05081002414226532, 0.0473746582865715, 0.27690833806991577, 0.019086316227912903, 0.30905064940452576, -0.12438438087701797, -0.6250675916671753, -0.022597774863243103, 0.10395434498786926, -0.5037983059883118, 0.2813739478588104, -0.04495324566960335, -0.15255239605903625, -0.702465832233429, 0.011583950370550156, -0.24865765869617462, -0.15409059822559357, 0.08846019208431244, -0.08529767394065857, 0.032826017588377, 0.19733451306819916, 0.15945105254650116, 0.1872609555721283, -0.19345036149024963, 0.18479959666728973, 0.21055692434310913, -0.04952683299779892, 0.05292802304029465, 0.03286926820874214, -0.17641904950141907, 0.3166041672229767, -0.21337534487247467, 0.12008164823055267, -0.15438370406627655, 0.3173361122608185, -0.4201503396034241, 0.05373247340321541, -0.26605290174484253], [-0.147795170545578, -0.010178729891777039, 0.15046370029449463, -0.2114008665084839, -0.17185881733894348, -0.13791529834270477, -0.056036680936813354, 0.24471375346183777, -0.10731559991836548, -0.11449569463729858, -0.2074298858642578, 0.18979093432426453, 0.212412029504776, -0.22848346829414368, 0.12168967723846436, 0.21157151460647583, 0.13793256878852844, 0.14694738388061523, -0.1755909025669098, 0.10781297087669373, 0.18925300240516663, -0.17568007111549377, -0.093831866979599, -0.011060953140258789, -0.12113934755325317, -0.2344251275062561, -0.06125548481941223, -0.13498760759830475, 0.06494250893592834, 0.15370571613311768, -0.2056708186864853, -0.19935138523578644, 0.2285468578338623, 0.02187061309814453, -0.09976449608802795, 0.016666531562805176, 0.12890657782554626, 0.13552170991897583, 0.20478948950767517, -0.17892339825630188, 0.12815701961517334, 0.04812014102935791, 0.21235474944114685, 0.17426037788391113, 0.03288862109184265, -0.15118379890918732, -0.23683950304985046, -0.24693560600280762, 0.213840514421463, -0.09290368854999542, 0.18363764882087708, 0.10099279880523682, 0.14598745107650757, 0.15630009770393372, -0.029194697737693787, 0.2103024423122406, -0.18301349878311157, 0.05837938189506531, 0.20716145634651184, 0.14032763242721558, 0.13557696342468262, -0.16102224588394165, -0.07059243321418762, 0.06847086548805237], [-0.1307850480079651, -0.01931154727935791, -0.07331269979476929, -0.09285444021224976, -0.23172302544116974, 0.11544904112815857, 0.05079016089439392, 0.042394816875457764, 0.019512325525283813, -0.08118753135204315, -0.0034955888986587524, 0.07145035266876221, -0.15435127913951874, -0.1100703626871109, 0.06127968430519104, -0.12776395678520203, -0.032481417059898376, 0.2450881004333496, -0.0029198378324508667, 0.16761448979377747, 0.07354769110679626, -0.014247551560401917, -0.21049466729164124, -0.1970299929380417, -0.18277855217456818, -0.1582777351140976, -0.24451470375061035, -0.18696659803390503, 0.24771782755851746, -0.16999436914920807, -0.14786532521247864, 0.22217488288879395, 0.007083386182785034, 0.12100860476493835, 0.14949896931648254, -0.21715617179870605, 0.06602534651756287, -0.0625075250864029, 0.10822507739067078, 0.10832884907722473, -0.17467913031578064, -0.04589107632637024, 0.10745376348495483, -0.08731471002101898, 0.022094517946243286, 0.08723309636116028, 0.032198548316955566, -0.12582886219024658, -0.011581093072891235, 0.2062329649925232, -0.24786588549613953, -0.24079208076000214, -0.1392247974872589, 0.12786120176315308, 0.0899030864238739, -0.16457673907279968, -0.07258230447769165, 0.13871005177497864, -0.08693081140518188, -0.03575429320335388, -0.0506729781627655, 0.19834092259407043, 0.19786733388900757, -0.07801879942417145], [-0.07207156717777252, 0.13939687609672546, -0.14530031383037567, -0.167873352766037, -0.182143896818161, -0.04575344920158386, 0.14166691899299622, 0.07207900285720825, 0.19713342189788818, -0.08031746745109558, -0.18209345638751984, -0.09913061559200287, 0.1152067482471466, -0.24486534297466278, 0.007485151290893555, -0.0407315194606781, 0.05516451597213745, -0.1390848308801651, 0.10850346088409424, 0.12098193168640137, -0.031088516116142273, 0.15205475687980652, -0.009877339005470276, -0.05798645317554474, -0.15759329497814178, 0.039687514305114746, -0.007452726364135742, 0.0968981683254242, -0.21322588622570038, 0.16253116726875305, -0.14070960879325867, -0.09877525269985199, -0.038267165422439575, 0.05269801616668701, 0.11682659387588501, -0.13701312243938446, -0.02308964729309082, 0.08265161514282227, -0.10341568291187286, -0.07301317155361176, 0.11527395248413086, -0.042565181851387024, -0.10792705416679382, 0.22442081570625305, 0.05981603264808655, 0.14663785696029663, 0.01345670223236084, -0.02110433578491211, 0.24524864554405212, -0.24220901727676392, -0.12629938125610352, -0.1087653636932373, 0.2035847306251526, -0.18597964942455292, -0.23978948593139648, 0.23205652832984924, -0.09125009179115295, -0.12704817950725555, -0.04985503852367401, 0.15701228380203247, 0.16981682181358337, -0.0015851855278015137, -0.15165205299854279, 0.2502969801425934], [0.2255304753780365, 0.13983649015426636, 0.16870242357254028, -0.022635579109191895, -0.15219825506210327, 0.14118272066116333, 0.12882563471794128, -0.15334370732307434, -0.08771717548370361, 0.09389209747314453, 0.12291541695594788, -0.177229642868042, 0.18449801206588745, -0.07810866832733154, -0.19813907146453857, -0.2327752411365509, -0.03661626577377319, 0.19203495979309082, 0.12935391068458557, 0.19622290134429932, 0.1600114405155182, -0.20066878199577332, -0.0866999477148056, -0.10624192655086517, -0.04800988733768463, -0.05974341928958893, -0.21660128235816956, 0.1622925102710724, 0.15375420451164246, -0.02695097029209137, 0.17201435565948486, -0.24104636907577515, -0.17343991994857788, 0.13905486464500427, -0.03893369436264038, 0.14264464378356934, 0.009701967239379883, -0.08841677010059357, 0.21048730611801147, 0.08874085545539856, -0.07197305560112, 0.15213266015052795, -0.16806089878082275, 0.023572146892547607, 0.1287229359149933, -0.24147874116897583, -0.13455908000469208, 0.08993124961853027, -0.07432273030281067, 0.09999158978462219, 0.14472928643226624, -0.04209476709365845, 0.11771026253700256, 0.16363075375556946, -0.09857231378555298, -0.2461279183626175, 0.1579013466835022, -0.2144838571548462, 0.030498862266540527, -0.22863446176052094, 0.24925938248634338, 0.022940337657928467, 0.012684851884841919, 0.10566851496696472], [0.21493196487426758, -0.022155046463012695, -0.1658165603876114, -0.17547208070755005, -0.057944923639297485, 0.1056196391582489, -0.23950164020061493, -0.24610090255737305, 0.04666173458099365, -0.05712093412876129, -0.22152896225452423, 0.13189902901649475, -0.17967452108860016, -0.06243245303630829, 0.12936285138130188, 0.20208734273910522, -0.2201099842786789, 0.04474768042564392, -0.07313473522663116, -0.12459108233451843, 0.05544605851173401, -0.05051419138908386, 0.02607390284538269, -0.013977020978927612, -0.10427226126194, 0.20486924052238464, -0.16193971037864685, 0.04229506850242615, 0.10923576354980469, -0.1975620687007904, 0.11608213186264038, -0.018846705555915833, 0.17589649558067322, 0.08198282122612, -0.17099103331565857, -0.06071677803993225, -0.11660701036453247, 0.03288424015045166, -0.018319547176361084, 0.19144922494888306, -0.24938629567623138, -0.10035671293735504, -0.21777307987213135, -0.11488360166549683, 0.0021170079708099365, 0.24468529224395752, -0.16400980949401855, 0.1503068506717682, -0.21197935938835144, -0.18844202160835266, -0.07096925377845764, -0.021718725562095642, 0.24369347095489502, 0.17864742875099182, 0.13959437608718872, 0.15369391441345215, -0.1369069516658783, -0.19559742510318756, 0.05912506580352783, -0.13813184201717377, 0.21275943517684937, 0.07981106638908386, -0.1814192533493042, 0.18142589926719666], [0.16807299852371216, 0.18632248044013977, 0.04801192879676819, 0.08894044160842896, 0.12354916334152222, 0.16608572006225586, 0.045228272676467896, -0.0670371800661087, 0.19802236557006836, -0.08947210013866425, -0.15663084387779236, -0.042240843176841736, 0.08786594867706299, 0.12931618094444275, 0.22084727883338928, 0.21156305074691772, -0.19626185297966003, 0.015779584646224976, 0.16022330522537231, -0.22432458400726318, -0.13841554522514343, 0.23832091689109802, 0.10853832960128784, 0.08162164688110352, -0.2320381999015808, 0.11243298649787903, -0.2070339471101761, -0.140104740858078, -0.1690634787082672, 0.09492352604866028, -0.07319489121437073, 0.15498477220535278, -0.23145148158073425, 0.18381860852241516, 0.023293405771255493, 0.23859903216362, 0.21836304664611816, -0.20263180136680603, -0.19101355969905853, 0.09175112843513489, -0.02727380394935608, 0.022774308919906616, -0.08328591287136078, -0.24905405938625336, -0.05060671269893646, 0.06576129794120789, -0.21600323915481567, -0.2276105284690857, -0.010826081037521362, 0.19263875484466553, -0.05533072352409363, -0.15594418346881866, -0.03223419189453125, 0.20774972438812256, -0.18075303733348846, 0.020045101642608643, -0.2350669652223587, 0.13558965921401978, 0.24172067642211914, -0.06897340714931488, 0.05303996801376343, -0.21439115703105927, -0.057397156953811646, -0.23291610181331635], [-0.04176773130893707, -0.09432558715343475, 0.07116913795471191, -0.09122569859027863, -0.16128787398338318, 0.0645652711391449, -0.2479545623064041, -0.1285276710987091, -0.008686482906341553, -0.11812220513820648, -0.2246866077184677, -0.24534480273723602, -0.16767220199108124, 0.0900750458240509, 0.008091151714324951, -0.24135608971118927, -0.17227692902088165, -0.22201471030712128, -0.15372693538665771, -0.18687540292739868, -0.17986974120140076, 0.06951984763145447, -0.17917223274707794, -0.03250502049922943, 0.16175803542137146, 0.03258490562438965, 0.036491334438323975, 0.0030603408813476562, -0.22220860421657562, -0.1654854565858841, -0.23921026289463043, 0.1646425426006317, 0.09633398056030273, -0.03345777094364166, -0.0715099573135376, 0.0025669336318969727, -0.07705718278884888, 0.017230063676834106, 0.07593882083892822, -0.10503429174423218, 0.1714480221271515, -0.06688462197780609, -0.0016592293977737427, 0.05699959397315979, 0.02014338970184326, -0.1673465520143509, -0.18305537104606628, 0.23023390769958496, -0.033455610275268555, 0.2249203622341156, -0.1759565770626068, 0.1995072364807129, -0.2395293265581131, 0.17966938018798828, 0.0011815130710601807, -0.15095168352127075, -0.032224372029304504, -0.01789155602455139, 0.1721731424331665, -0.1141044944524765, -0.11671718955039978, 0.15979617834091187, 0.05778765678405762, -0.13076114654541016], [0.01758907549083233, -0.06385590881109238, 0.21865445375442505, 0.027937453240156174, -0.060660410672426224, -0.025975767523050308, 0.2074785679578781, -0.10881417244672775, 0.1338043510913849, -0.024831552058458328, -0.07349846512079239, -0.22515705227851868, 0.08720222860574722, -0.32742318511009216, 0.14418958127498627, -0.32474157214164734, -0.053239837288856506, -0.2872038185596466, 0.25609418749809265, -0.13734440505504608, -0.2536500096321106, -0.026915211230516434, -0.08521291613578796, 0.11658048629760742, -0.01800236478447914, -0.027236372232437134, 0.01926354318857193, -0.11322475224733353, 0.04645909368991852, 0.10319795459508896, 0.1933588683605194, -0.06805211305618286, -0.06921393424272537, -0.15483224391937256, 0.1525382548570633, -0.030296988785266876, 0.014780553989112377, 0.16051319241523743, -0.046501077711582184, -0.09809627383947372, 0.11704946309328079, 0.04010060057044029, 0.10765451937913895, 0.13790994882583618, 0.15534114837646484, -0.09192702919244766, 0.00976784247905016, 0.04191646724939346, 0.20203760266304016, -0.08999642729759216, 0.10424263030290604, 0.01882353611290455, 0.044820789247751236, -0.17405809462070465, 0.06415628641843796, 0.1888088434934616, 0.0655527114868164, -0.0769791230559349, -0.18214663863182068, -0.033338822424411774, -0.15325400233268738, 0.08062147349119186, 0.12525731325149536, -0.06301718205213547], [0.10154444724321365, 0.13896577060222626, 0.022008201107382774, 0.22419077157974243, 0.16842694580554962, 0.008606617338955402, -0.04038837179541588, 0.15705209970474243, 0.05721737816929817, -0.028689995408058167, 0.05838913097977638, -0.1094692051410675, 0.14950574934482574, -0.026709705591201782, 0.1382526308298111, 0.07902545481920242, 0.05304761603474617, -0.11798270791769028, -0.07728628069162369, 0.021313566714525223, 0.11230982840061188, -0.0371621735394001, 0.0775890052318573, 0.04807897284626961, -0.3208523392677307, -0.04672704264521599, -0.015287126414477825, -0.02819276787340641, 0.12207140028476715, 0.1822226345539093, -0.11949329078197479, 0.17390920221805573, -0.043867938220500946, 0.04039567708969116, -0.20161142945289612, 0.09949290752410889, -0.007399713154882193, -0.06594796478748322, 0.045955728739500046, -0.2794097065925598, -0.027142798528075218, -0.2039971649646759, -0.07214628905057907, 0.10636482387781143, -0.07501301914453506, 0.1483413279056549, -0.19715650379657745, 0.12148363143205643, 0.08190536499023438, 0.26082733273506165, 0.04120347276329994, 0.11279620975255966, -0.20487861335277557, 0.14548878371715546, 0.03758511692285538, 0.025429589673876762, 0.07893440872430801, 0.10670261085033417, 0.024090969935059547, 0.2093299925327301, 0.05304162949323654, 0.1793053150177002, 0.09305817633867264, -0.19217449426651], [0.04179541394114494, 0.10862822085618973, 0.0440795011818409, 0.06174137815833092, 0.21496638655662537, -0.02492411993443966, 0.044774170964956284, 0.002767909085378051, 0.04399294778704643, 0.05619942024350166, 0.10209876298904419, 0.2002629041671753, 0.16874165832996368, 0.034898824989795685, 0.14698106050491333, -0.030695253983139992, 0.15115314722061157, 0.17734891176223755, -0.03730509430170059, 0.08921659737825394, 0.0013365244958549738, -0.026269974187016487, 0.1404312551021576, 0.08210206776857376, -0.013772612437605858, 0.10233927518129349, 0.012940925545990467, -0.17513874173164368, 0.1822682023048401, 0.20115557312965393, 0.10392537713050842, 0.19337168335914612, -0.009863077662885189, -0.19065693020820618, 0.1650465577840805, 0.07299191504716873, 0.09787602722644806, 0.037503477185964584, -0.21480238437652588, 0.11078526824712753, 0.024217596277594566, -0.1525944322347641, 0.01893533580005169, -0.23948755860328674, -0.09359923750162125, 0.028667712584137917, -0.19661185145378113, 0.10390529036521912, -0.12193839997053146, -0.19511084258556366, -0.07396555691957474, 0.12070786207914352, -0.1128169372677803, -0.10987211763858795, 0.14017614722251892, 0.02498987689614296, 0.0160539448261261, 0.11439546942710876, 0.10176047682762146, 0.14206044375896454, -0.12024141103029251, -0.2860795855522156, -0.0032358719035983086, 0.012558873742818832], [-0.23761220276355743, 0.12586313486099243, 0.213852196931839, 0.23300069570541382, -0.012209638953208923, -0.11763477325439453, 0.12120634317398071, 0.16290870308876038, 0.014947563409805298, -0.14719641208648682, -0.11204051971435547, -0.1874387562274933, 0.17303434014320374, -0.02657139301300049, -0.17653369903564453, 0.09780296683311462, 0.05014246702194214, 0.24407640099525452, -0.012515395879745483, -0.21515211462974548, -0.1948150247335434, -0.14960214495658875, -0.22854158282279968, 0.03550863265991211, 0.1738383173942566, -0.23623637855052948, -0.06558746099472046, 0.12377992272377014, -0.22662997245788574, 0.23004791140556335, -0.17650866508483887, 0.0758887231349945, -0.13399112224578857, -0.019459471106529236, -0.22028854489326477, 0.048436373472213745, 0.11483883857727051, 0.08507102727890015, -0.000254899263381958, -0.20852841436862946, -0.03514774143695831, 0.04338064789772034, 0.19387367367744446, -0.003909796476364136, 0.15152627229690552, 0.16142868995666504, -0.04753491282463074, -0.2396201640367508, 0.23240399360656738, 0.20808395743370056, -0.2340151071548462, -0.20115327835083008, -0.01813650131225586, -0.07342103123664856, -0.12029948830604553, 0.12264183163642883, -0.1773153841495514, 0.009324431419372559, -0.05759134888648987, -0.0735713541507721, -0.04523749649524689, 0.09261661767959595, 0.17130202054977417, -0.2014651596546173], [-0.0250605046749115, 0.028961092233657837, -0.01463305950164795, 0.06726905703544617, -0.1523798108100891, -0.15879085659980774, 0.07691818475723267, 0.03594657778739929, 0.06361427903175354, -0.1100015789270401, -0.1817300021648407, -0.063092440366745, 0.10366594791412354, -0.20382104814052582, 0.04909437894821167, -0.0008737146854400635, 0.05109545588493347, -0.19422435760498047, 0.07687634229660034, -0.19564363360404968, 0.013278871774673462, -0.04607124626636505, 0.017343193292617798, 0.1437561810016632, -0.03959794342517853, 0.07159605622291565, -0.23354290425777435, 0.09249481558799744, -0.014421552419662476, -0.14064449071884155, -0.04314248263835907, -0.045903295278549194, 0.04603692889213562, -0.11321273446083069, 0.09138891100883484, 0.19542080163955688, 0.13758647441864014, 0.22437995672225952, 0.16209986805915833, -0.016156643629074097, -0.21075326204299927, -0.03725540637969971, 0.03502875566482544, 0.15670910477638245, -0.08594097197055817, -0.22287578880786896, 0.141754150390625, 0.16740179061889648, 0.021931618452072144, -0.24695321917533875, -0.07447203993797302, -0.060468897223472595, -0.07162374258041382, -0.0428282767534256, -0.019852831959724426, 0.10302400588989258, -0.11331412196159363, -0.21232184767723083, -0.06195557117462158, -0.15843093395233154, -0.06058453023433685, 0.19017544388771057, 0.04706582427024841, -0.2346048802137375], [-0.11390137672424316, -0.2039620280265808, -0.15428537130355835, -0.14661023020744324, 0.040543198585510254, -0.07319375872612, 0.10055163502693176, 0.10076618194580078, 0.022610127925872803, 0.15421095490455627, -0.08846068382263184, -0.060008540749549866, -0.12116391956806183, 0.032680511474609375, 0.07932919263839722, 0.24671140313148499, -0.22529177367687225, -0.20449967682361603, -0.053957536816596985, -0.06352342665195465, 0.06524911522865295, -0.03214719891548157, 0.20386448502540588, -0.22009453177452087, 0.04095423221588135, -0.07660828530788422, 0.156448632478714, 0.07141253352165222, 0.23209643363952637, -0.039456889033317566, 0.012237787246704102, -0.21276229619979858, 0.01644587516784668, -0.2399679720401764, 0.23639348149299622, -0.20106975734233856, 0.11379086971282959, -0.172845721244812, 0.017406582832336426, 0.15477806329727173, -0.12696273624897003, 0.09665584564208984, -0.21881103515625, 0.08442986011505127, -0.12126955389976501, -0.12954363226890564, -0.05365411937236786, 0.10999870300292969, -0.03950865566730499, -0.07566487789154053, -0.0038900226354599, -0.24925071001052856, -0.18331493437290192, 0.12173044681549072, 0.06933265924453735, -0.11477197706699371, 0.16540953516960144, -0.04072055220603943, -0.12657028436660767, 0.08725988864898682, 0.04419979453086853, -0.0642731785774231, -0.07814396917819977, 0.12827354669570923], [-0.13899794220924377, 0.21076178550720215, 0.09983333945274353, 0.17020383477210999, -0.0030112117528915405, 0.14396169781684875, 0.20682838559150696, 0.06725114583969116, -0.14743828773498535, -0.0772528201341629, 0.09122174978256226, 0.2465030550956726, 0.18278586864471436, -0.14393803477287292, 0.1483527421951294, -0.24361875653266907, -0.08528786897659302, 0.0707198977470398, 0.0762278139591217, -0.18594178557395935, 0.2326492965221405, 0.11743751168251038, -0.22034037113189697, 0.20548346638679504, -0.04388120770454407, -0.0623597651720047, -0.10159927606582642, 0.15623190999031067, -0.23357975482940674, -0.010688573122024536, -0.2442282885313034, -0.013253703713417053, -0.24769242107868195, -0.026832208037376404, 0.16543182730674744, -0.06428252160549164, 0.07143303751945496, 0.2244943380355835, 0.04976469278335571, -0.22344914078712463, -0.19828550517559052, 0.1443479359149933, 0.1403520405292511, -0.06630821526050568, -0.06689541041851044, -0.16942329704761505, 0.22018608450889587, 0.23667097091674805, 0.17349720001220703, 0.210048645734787, 0.11107674241065979, -0.15848252177238464, -0.03344140946865082, -0.19922512769699097, 0.047807008028030396, -0.2495732456445694, -0.1953677088022232, 0.03796488046646118, 0.0704464316368103, -0.045578911900520325, -0.005345240235328674, 0.14114519953727722, -0.00200064480304718, -0.14395803213119507], [-0.21230477094650269, 0.20431649684906006, -0.21110492944717407, -0.1469390094280243, -0.12070530652999878, 0.22488710284233093, -0.14632844924926758, -0.2303999960422516, -0.16600355505943298, -0.18759603798389435, -0.12075743079185486, 0.14151760935783386, 0.022389262914657593, -0.11874312162399292, -0.02916605770587921, 0.1247137188911438, -0.09151671826839447, 0.03736978769302368, 0.05549454689025879, -0.05526570975780487, 0.1314898133277893, 0.06342601776123047, 0.18311235308647156, 0.171580970287323, 0.06318226456642151, -0.2205633819103241, 0.16442736983299255, 0.03176391124725342, 0.10182857513427734, 0.12398064136505127, -0.05259273946285248, 0.14803308248519897, 0.0753144919872284, 0.10332921147346497, 0.0533694326877594, 0.10963314771652222, 0.18174737691879272, -0.07120636105537415, -0.048757776618003845, 0.17925816774368286, 0.2148655354976654, -0.016256824135780334, -0.05590149760246277, -0.17000587284564972, -0.25068050622940063, -0.14895972609519958, -0.059648677706718445, -0.22899924218654633, -0.11400389671325684, -0.06657916307449341, -0.05819718539714813, 0.21112734079360962, -0.06595662236213684, 0.07949468493461609, 0.14887121319770813, -0.06925094127655029, 0.20555296540260315, 0.23188719153404236, 0.10279577970504761, -0.03555607795715332, -0.18214552104473114, 0.10510081052780151, 0.22763779759407043, -0.11079663038253784], [-0.07473418116569519, 0.22054997086524963, -0.1881042718887329, 0.14059218764305115, 0.024305492639541626, -0.07541322708129883, 0.07873719930648804, -0.22367022931575775, 0.17729920148849487, 0.1294724941253662, 0.11867296695709229, -0.2509241998195648, 0.10688060522079468, 0.11941492557525635, 0.11786618828773499, -0.010235831141471863, 0.20582014322280884, -0.10104002058506012, 0.057325512170791626, 0.19004085659980774, -0.04230974614620209, 0.18681573867797852, 0.1887001395225525, 0.06680378317832947, -0.005560293793678284, 0.09896847605705261, -0.14550194144248962, -0.20205707848072052, -0.012488678097724915, -0.01288112998008728, -0.07690450549125671, -0.058812886476516724, -0.07554323971271515, -0.0949571281671524, 0.025799721479415894, 0.13638237118721008, 0.017365306615829468, 0.23033198714256287, 0.19005835056304932, 0.1618989109992981, -0.1910652071237564, 0.034966498613357544, 0.1928848922252655, -0.1415591835975647, -0.17782673239707947, -0.19635292887687683, 0.08084571361541748, 0.05207785964012146, 0.07277068495750427, -0.027225330471992493, 0.1256340742111206, 0.06505995988845825, 0.20343667268753052, 0.01303049921989441, -0.08031795918941498, 0.01841139793395996, 0.14578181505203247, 0.004373133182525635, -0.0774003267288208, 0.14046227931976318, 0.027364224195480347, -0.07969056069850922, 0.17099091410636902, -0.02710789442062378], [0.13496866822242737, 0.21130996942520142, 0.04627832770347595, -0.05621635913848877, 0.0644446611404419, 0.07452577352523804, 0.14758718013763428, -0.01062127947807312, -0.05066236853599548, -0.23821760714054108, -0.0831349790096283, -0.1457526981830597, 0.1996140480041504, 0.020643144845962524, -0.10322573781013489, -0.13269701600074768, 0.03960177302360535, -0.19542306661605835, 0.01786261796951294, -0.2349781095981598, 0.05053916573524475, 0.23211178183555603, -0.2254611700773239, 0.060077518224716187, -0.16326239705085754, -0.24279865622520447, -0.003182634711265564, 0.1934419572353363, -0.18502900004386902, -0.0023410916328430176, -0.06438115239143372, 0.059894174337387085, 0.18165457248687744, -0.06119455397129059, -0.2214321345090866, -0.008223861455917358, -0.14065419137477875, -0.12129974365234375, -0.14469927549362183, -0.2222803235054016, 0.19328495860099792, 0.04575201869010925, -0.22145789861679077, -0.24301598966121674, 0.058314621448516846, -0.050599098205566406, 0.13277125358581543, 0.21020233631134033, 0.005229592323303223, -0.08780668675899506, -0.22455310821533203, -0.06855015456676483, -0.01998405158519745, 0.03728637099266052, 0.10130143165588379, 0.2478189766407013, 0.1493406891822815, -0.1134042888879776, 0.12323376536369324, -0.13809332251548767, -0.08320771157741547, -0.19838353991508484, -0.08668532967567444, -0.0722857117652893], [0.0017131033819168806, -0.151719868183136, -0.23333829641342163, 0.06088482588529587, -0.06221502646803856, 0.03213569149374962, 0.28521180152893066, 0.12335895746946335, 0.11906063556671143, -0.005164773669093847, 0.1859539896249771, -0.13892942667007446, -0.21981529891490936, 0.18607109785079956, -0.19173549115657806, 0.19954055547714233, 0.15446794033050537, 0.19558311998844147, -0.06746965646743774, -0.05090451240539551, -0.052054356783628464, 0.13832159340381622, -0.007670274004340172, -0.02827688306570053, 0.21532848477363586, 0.05615365132689476, 0.23430897295475006, 0.2841889262199402, -0.26635754108428955, -0.342783659696579, -0.13060398399829865, -0.01402982696890831, 0.13128922879695892, -0.23297494649887085, -0.15462106466293335, 0.2617647647857666, 0.3435025215148926, 0.2626127600669861, -0.24846112728118896, 0.05517509579658508, 0.011571194976568222, -0.18030813336372375, -0.3838769793510437, 0.1359311044216156, 0.30830633640289307, 0.20409122109413147, -0.23804470896720886, -0.008722856640815735, 0.11843138188123703, -0.10221046209335327, -0.2116919755935669, -0.21153151988983154, -0.027550723403692245, -0.12303479015827179, -0.053075578063726425, -0.05093875154852867, 0.030381379649043083, -0.12824738025665283, -0.06767510622739792, 0.045288074761629105, -0.0672898069024086, -0.15385092794895172, 0.1304195523262024, 0.07610908150672913], [-0.11078234761953354, -0.014996073208749294, 0.18093609809875488, -0.4014398157596588, 0.2906422019004822, -0.10009041428565979, -0.11621179431676865, -0.24963198602199554, 0.11288085579872131, 0.18175926804542542, 0.17966966331005096, 0.04968646168708801, -0.18276862800121307, -0.21899165213108063, 0.036896008998155594, 0.07451200485229492, -0.13073386251926422, -0.03699932619929314, -0.17659184336662292, -0.22791455686092377, 0.10483291000127792, -0.02323402650654316, 0.1538107991218567, -0.03271817788481712, 0.012563440017402172, 0.0281961839646101, 0.20091009140014648, 0.31655675172805786, -0.1579950451850891, -0.0922304093837738, -0.10831242054700851, 0.2494235783815384, 0.2660372853279114, -0.1543561816215515, 0.021221932023763657, -0.03763963654637337, -0.1664738953113556, -0.09153878688812256, 0.026079300791025162, -0.18126243352890015, 0.1317637711763382, -0.12762823700904846, 0.28577667474746704, -0.13388952612876892, 0.05566156283020973, 0.07681194692850113, -0.24138018488883972, 0.20737262070178986, 0.18936872482299805, -0.07666200399398804, -0.11467166990041733, 0.034084927290678024, 0.18876992166042328, 0.019676584750413895, -0.2364254891872406, 0.17201636731624603, -0.3374287486076355, 0.00970426294952631, 0.004550647921860218, 0.01328182965517044, 0.14889207482337952, -0.22511526942253113, 0.17056556046009064, 0.06250778585672379], [-0.110955610871315, -0.19861607253551483, -0.11164514720439911, -0.1678866297006607, 0.30772969126701355, -0.2257223129272461, 0.17149539291858673, -0.06220884621143341, -0.01874677650630474, -0.08825358003377914, 0.14765262603759766, 0.10659223049879074, 0.13436733186244965, 0.02580377086997032, 0.21439296007156372, -0.09110622107982635, -0.10413927584886551, -0.26499608159065247, 0.0015622156206518412, 0.16981680691242218, -0.0008772277506068349, 0.2114134281873703, -0.13291315734386444, -0.1559952199459076, 0.08381461352109909, 0.1881774216890335, 0.19175134599208832, 0.17594996094703674, -0.17560118436813354, -0.05263498052954674, -0.11043422669172287, 0.04962662234902382, 0.07333515584468842, -0.17456680536270142, 0.0851779654622078, 0.17585638165473938, 0.23705288767814636, 0.010555160231888294, -0.14169935882091522, -0.15091659128665924, -0.045326948165893555, -0.2795676589012146, 0.13211354613304138, 0.2102656215429306, -0.026628738269209862, 0.17229029536247253, -0.09575100243091583, 0.00501471571624279, -0.11263032257556915, -0.059062451124191284, 0.03854398801922798, 0.061998151242733, -0.004763523582369089, -0.001784321735613048, 0.17821654677391052, 0.19827421009540558, -0.22829532623291016, 0.24652479588985443, -0.028683321550488472, 0.08647877722978592, -0.09806455671787262, 0.2124885767698288, 0.0774698406457901, -0.2551333010196686], [-0.16067562997341156, -0.17328664660453796, 0.19464623928070068, 0.19670093059539795, 0.038348108530044556, -0.03495630621910095, 0.030207127332687378, 0.03758502006530762, 0.12301746010780334, 0.17948469519615173, -0.04969662427902222, -0.1072506457567215, 0.23724180459976196, -0.16209766268730164, -0.11702385544776917, 0.20745959877967834, -0.18633776903152466, -0.12118206918239594, -0.10755784809589386, -0.007936909794807434, -0.01843811571598053, -0.23064720630645752, 0.1296512484550476, -0.21637041866779327, -0.005653217434883118, -0.16756662726402283, 0.0034145116806030273, 0.2408316433429718, 0.21784505248069763, -0.11266383528709412, 0.03700008988380432, -0.01830671727657318, -0.06460241973400116, -0.1302873194217682, 0.18720227479934692, -0.0016588717699050903, 0.06630823016166687, -0.04687929153442383, 0.23944580554962158, -0.10740140080451965, 0.022008836269378662, 0.14346790313720703, -0.0031638294458389282, -0.245324969291687, -0.20338845252990723, -0.24385955929756165, 0.12874341011047363, 0.009956270456314087, 0.12383097410202026, 0.17162656784057617, -0.21000094711780548, -0.15206919610500336, -0.1370219886302948, -0.20197828114032745, -0.10233297944068909, -0.04875160753726959, -0.05475197732448578, -0.16717931628227234, 0.24560430645942688, -0.05331048369407654, 0.12092956900596619, -0.041110023856163025, 0.1885567605495453, -0.10752692818641663], [-0.1595025658607483, 0.13556167483329773, -0.2343580722808838, -0.23354056477546692, 0.09450450539588928, 0.19420260190963745, -0.05817177891731262, -0.14938980340957642, -0.14889627695083618, -0.21752017736434937, -0.22942578792572021, 0.13736963272094727, 0.029107630252838135, -0.09576660394668579, 0.10914698243141174, 0.015018761157989502, -0.19526812434196472, 0.014481276273727417, -0.034612804651260376, 0.11365264654159546, -0.02388601005077362, -0.04691477119922638, -0.21514126658439636, 0.16539576649665833, -0.08182667195796967, 0.007041633129119873, 0.1733914017677307, 0.1900780200958252, 0.23558399081230164, -0.05059574544429779, -0.08985419571399689, 0.07924094796180725, 0.21579411625862122, -0.01103237271308899, 0.19329580664634705, 0.20618683099746704, 0.09119638800621033, 0.1056661307811737, -0.17391172051429749, 0.05537673830986023, 0.07807058095932007, 0.02378523349761963, 0.15899232029914856, 0.07820749282836914, -0.08846201002597809, 0.002422511577606201, -0.006933063268661499, -0.08287787437438965, -0.08564840257167816, 0.12787270545959473, 0.16746214032173157, -0.04140271246433258, -0.21515972912311554, -0.07170283794403076, -0.08304227888584137, 0.1306467056274414, 0.2030596137046814, -0.11688238382339478, 0.057376861572265625, -0.17359504103660583, 0.13613706827163696, 0.13024622201919556, 0.22498151659965515, 0.2269090712070465], [-0.21430349349975586, -0.014859423041343689, 0.24239858984947205, 0.06667700409889221, -0.19647887349128723, -0.16099193692207336, 0.14699652791023254, -0.1750372052192688, 0.21431872248649597, -0.08853845298290253, -0.09085415303707123, -0.17374160885810852, -0.21582745015621185, -0.08815924823284149, -0.14970821142196655, 0.13476362824440002, -0.13001301884651184, -0.13557516038417816, 0.23824673891067505, -0.23999764025211334, 0.09809350967407227, -0.14022770524024963, -0.02449764311313629, 0.14972689747810364, -0.08540399372577667, -0.23988163471221924, -0.0862421840429306, -0.04509633779525757, -0.12453943490982056, -0.21864327788352966, 0.07277780771255493, -0.09687885642051697, 0.08129832148551941, 0.13200870156288147, 0.0017021894454956055, 0.08722460269927979, 0.22614124417304993, -0.18654215335845947, 0.23557788133621216, -0.0535600483417511, -0.009466424584388733, 0.17100128531455994, -0.23407000303268433, -0.17074860632419586, -0.04038675129413605, -0.11613018810749054, -0.02240574359893799, 0.09175160527229309, 0.1666809320449829, -0.18571901321411133, -0.07652175426483154, 0.04919120669364929, 0.12479078769683838, 0.10580843687057495, 0.11925327777862549, 0.12343749403953552, -0.21611648797988892, 0.1814810335636139, 0.24595284461975098, -0.10669855773448944, -0.06322623789310455, -0.23312552273273468, -0.14583459496498108, -0.0631633847951889], [-0.16977620124816895, 0.012444764375686646, -0.225002259016037, 0.055576860904693604, 0.04364398121833801, 0.008550465106964111, -0.1830708384513855, -0.03625711798667908, -0.12820962071418762, 0.14916115999221802, 0.24688678979873657, 0.13176774978637695, 0.19028621912002563, 0.11762428283691406, -0.03499896824359894, -0.0616949200630188, 0.06977730989456177, 0.07689210772514343, -0.09855817258358002, 0.16729706525802612, -0.034577563405036926, -0.15106335282325745, 0.13816317915916443, 0.039100199937820435, -0.20070049166679382, -0.03580324351787567, -0.10122941434383392, -0.14687949419021606, -0.21471285820007324, -0.1485588103532791, 0.24357891082763672, 0.17867490649223328, 0.2155282199382782, 0.0973484218120575, -0.09482386708259583, 0.08552628755569458, -0.17479059100151062, 0.07449588179588318, 0.08294880390167236, 0.222774475812912, 0.1724228858947754, 0.19324475526809692, -0.21253323554992676, 0.16262787580490112, 0.24827685952186584, -0.13861015439033508, 0.08843156695365906, -0.12414109706878662, -0.19503192603588104, 0.1791965663433075, -0.10516749322414398, 0.1607147455215454, 0.19943514466285706, 0.04186239838600159, 0.1543194055557251, -0.0651404857635498, -0.0697285532951355, 0.1900862753391266, -0.030870050191879272, -0.20774169266223907, 0.08413243293762207, -0.1323251724243164, -0.1352081596851349, 0.12208610773086548], [0.22272735834121704, 0.166141539812088, -0.14960862696170807, 0.1877654790878296, 0.16825717687606812, -0.09462709724903107, 0.11470738053321838, -0.19260652363300323, 0.11227467656135559, 0.034860849380493164, -0.1109481006860733, -0.17212359607219696, -0.033922016620635986, -0.06963644921779633, -0.10436771810054779, 0.010463625192642212, -0.14830410480499268, 0.02163231372833252, 0.029573559761047363, 0.20613157749176025, 0.07197305560112, -0.11694152653217316, 0.0038353800773620605, 0.11600333452224731, -0.15890075266361237, -0.0038142353296279907, 0.09067031741142273, -0.08417502045631409, 0.078523188829422, -0.044839099049568176, -0.09018205106258392, 0.14393946528434753, -0.18299023807048798, -0.011767208576202393, -0.1405501663684845, -0.04844410717487335, -0.022499457001686096, 0.1666458249092102, 0.0017598867416381836, 0.0037147104740142822, -0.12467065453529358, 0.06233108043670654, 0.1571895182132721, 0.19678020477294922, 0.19183340668678284, 0.19016283750534058, -0.04567274451255798, -0.14689232409000397, -0.14015178382396698, 0.0424959659576416, 0.23693129420280457, 0.14752492308616638, -0.0718553215265274, 0.2289397418498993, 0.19909515976905823, -0.149417906999588, -0.1316128671169281, -0.15066108107566833, 0.040405452251434326, -0.14722265303134918, -0.06511969864368439, 0.028090059757232666, -0.09657807648181915, -0.18024379014968872], [0.07459408044815063, -0.0027098357677459717, -0.14211899042129517, -0.16982433199882507, -0.07422217726707458, 0.21149420738220215, -0.24392631649971008, 0.1016061007976532, 0.22953441739082336, 0.10122275352478027, 0.12914809584617615, 0.14122915267944336, 0.20135506987571716, -0.12021398544311523, -0.10291039943695068, 0.151799738407135, 0.09888705611228943, 0.039314061403274536, 0.16882765293121338, -0.14753709733486176, -0.053766220808029175, 0.14095988869667053, 0.1390092670917511, 0.010426193475723267, -0.2426060289144516, -0.22021107375621796, 0.13366013765335083, -0.0718311220407486, 0.24659636616706848, -0.08437018096446991, 0.11708137392997742, 0.12398356199264526, -0.11780506372451782, -0.13770073652267456, 0.12910166382789612, 0.07763442397117615, 0.17518800497055054, 0.16716864705085754, 0.12520906329154968, -0.18285314738750458, 0.10543730854988098, 0.10960835218429565, 0.20634782314300537, -0.17603890597820282, 0.2180117964744568, -0.19569748640060425, 0.20135533809661865, 0.24295085668563843, 0.16376760601997375, -0.10403367877006531, 0.08076348900794983, 0.01724383234977722, 0.06124758720397949, -0.14625899493694305, 0.22482869029045105, -0.148451566696167, -0.21404939889907837, -0.2488233745098114, -0.012111544609069824, 0.16591620445251465, -0.2178264707326889, 0.1255280077457428, 0.13266730308532715, 0.005233496427536011], [0.028831660747528076, 0.2137671709060669, 0.17101681232452393, -0.06959733366966248, -0.13155385851860046, 0.17356738448143005, -0.18679487705230713, -0.06262317299842834, 0.16734451055526733, -0.13005730509757996, -0.017496943473815918, -0.24662217497825623, 0.15993955731391907, 0.029444843530654907, -0.09456771612167358, 0.10933774709701538, 0.0011809766292572021, -0.07842384278774261, -0.13174834847450256, 0.11686387658119202, 0.01473972201347351, -0.08478079736232758, 0.051341891288757324, -0.22342073917388916, 0.009802520275115967, -0.1790931522846222, 0.10385468602180481, -0.13175463676452637, 0.13974818587303162, -0.04806980490684509, 0.10039392113685608, -0.009453907608985901, 0.0831235945224762, 0.09192559123039246, -0.03731723129749298, 0.013488441705703735, 0.24721595644950867, 0.24796965718269348, -0.11645554006099701, -0.0055124759674072266, -0.02876916527748108, 0.04296800494194031, 0.24303916096687317, 0.14626654982566833, 0.06782281398773193, -0.10251212120056152, -0.2249419242143631, -0.021045848727226257, -0.1226707249879837, 0.020841777324676514, -0.25069519877433777, 0.0905320942401886, 0.06260639429092407, -0.23551766574382782, 0.008939683437347412, -0.05246715247631073, -0.05000711977481842, -0.045891255140304565, -0.24472200870513916, -0.14639124274253845, -0.1703539341688156, 0.06152644753456116, -0.23993562161922455, -0.22654135525226593]], "haggle/preprocess/bias:0": [0.05467693507671356, -0.02244546264410019, -0.05386246368288994, -0.029863592237234116, 0.21825650334358215, -0.05366070196032524, 0.05957447364926338, 0.018668200820684433, 0.09954946488142014, 0.02813069336116314, 0.035049449652433395, -0.030802039429545403, -0.1143084391951561, 0.02344278246164322, -0.07267813384532928, -0.10361485183238983, 0.019438086077570915, -0.029835635796189308, -0.12082622945308685, -0.021060720086097717, -0.13479988276958466, 0.09843973070383072, 0.04168861359357834, 0.004549746867269278, -0.05180545896291733, 0.1493898183107376, 0.01533785555511713, 0.08928968757390976, -0.11139046400785446, -0.0738607794046402, -0.05979029834270477, 0.06778764724731445, 0.11193715035915375, 0.0, -0.018709741532802582, 0.04387198016047478, 0.0988895446062088, 0.12269937992095947, -0.020546656101942062, 0.018042540177702904, 0.09310580790042877, -0.0453144870698452, -0.043571289628744125, 0.01347129512578249, 0.07247394323348999, 0.09254904836416245, -0.0639471784234047, -0.00653634499758482, 0.03565778583288193, 0.004844415932893753, 0.04206116124987602, -0.019946077838540077, -0.051943499594926834, 0.03371851146221161, -0.0005601422744803131, 0.03129782900214195, -0.17467254400253296, 0.049095772206783295, -0.14191822707653046, 0.019007571041584015, 0.05199415609240532, -0.022339144721627235, 0.21820811927318573, -0.07556579262018204], "haggle/lstm/kernel:0": [[-0.07512703537940979, 0.029141118749976158, 0.2131478190422058, -0.1217610239982605, 0.18249379098415375, -0.02891329489648342, -0.07989422976970673, -0.2544204890727997, -0.09838539361953735, -0.04958418384194374, -0.14334116876125336, -0.011384565383195877, 0.19399069249629974, -0.08502689749002457, 0.14923669397830963, 0.2240285575389862, -0.21968239545822144, 0.05389271304011345, 0.035173848271369934, 0.05861612409353256, -0.06759235262870789, 0.3289733827114105, 0.032737620174884796, 0.1191994696855545, -0.09272534400224686, 0.07175056636333466, -0.043584469705820084, -0.14217741787433624, -0.003026717808097601, -0.19603270292282104, 0.01367428433150053, -0.007398230955004692, -0.01652507297694683, 0.14057761430740356, -0.10641778260469437, 0.005477737635374069, 0.06946976482868195, 0.08800170570611954, -0.1201239749789238, -0.06626534461975098, 0.09190129488706589, -0.09330856800079346, -0.10045623779296875, 0.1489991545677185, -0.08162707090377808, 0.04580824077129364, 0.10163140296936035, 0.06162416934967041, -0.0742901861667633, 0.003035684349015355, -0.07777226716279984, 0.1404082328081131, -0.07240264862775803, -0.05308598652482033, -0.06535668671131134, -0.0020344078075140715, -0.047032903879880905, 0.032530661672353745, 0.08710017055273056, -0.06539438664913177, -0.20366650819778442, -0.12282375246286392, 0.16938188672065735, -0.011267648078501225, -0.05856313556432724, -0.12517544627189636, 0.014193655923008919, -0.14462032914161682, 0.027816597372293472, -0.01237461157143116, -0.001981520326808095, 0.0728740245103836, -0.032141443341970444, 0.058320801705121994, -0.12116291373968124, 0.10903569310903549, -0.034159038215875626, -0.005200865212827921, 0.04995166137814522, -0.04902966320514679, 0.29808831214904785, -0.1673641949892044, 0.029487881809473038, -0.1505456268787384, 0.10915748029947281, -0.01703261397778988, 0.37379011511802673, -0.038414470851421356, -0.06753186881542206, 0.045077722519636154, 0.04705965518951416, 0.15922483801841736, -0.025038180872797966, -0.04003172367811203, 0.020495709031820297, 0.013954308815300465, 0.018605703487992287, 0.024248594418168068, 0.026122288778424263, -0.005633367225527763, -0.04327072948217392, 0.17849966883659363, -0.12448147684335709, -0.012090417556464672, 0.0013777201529592276, -0.02657194435596466, -0.062355924397706985, 0.07202330231666565, -0.014602036215364933, -0.12908229231834412, 0.046491049230098724, -0.15274952352046967, 0.14075936377048492, -0.10923577845096588, 0.10298561304807663, -0.041538260877132416, -0.12337973713874817, -0.022542962804436684, 0.15980273485183716, 0.035469356924295425, 0.027046015486121178, 0.023610806092619896, 0.04113220050930977, -0.153532013297081, 0.07141467183828354, -0.049395449459552765, -0.0426899753510952, -0.1276187002658844, -0.06410306692123413, -0.06359400600194931, 0.18818999826908112, 0.06746094673871994, 0.287502259016037, 0.048798080533742905, 0.002544016344472766, 0.07976242154836655, -0.00969937164336443, -0.014592739753425121, 0.11260581016540527, 0.1795056164264679, -0.04748808592557907, 0.08673133701086044, 0.18017160892486572, -0.1285005807876587, -0.2873118221759796, -0.09916897863149643, -0.06093810498714447, -0.039953794330358505, 0.11753804236650467, 0.2516743540763855, -0.07010951638221741, -0.06734223663806915, 0.014657152816653252, 0.1196797788143158, -0.05567457526922226, 0.03129000961780548, 0.049084026366472244, 0.026800235733389854, -0.010182689875364304, 0.12015220522880554, -0.09341321140527725, 0.04699646309018135, -0.046702563762664795, 0.0011724579380825162, 0.11973892152309418, -0.20146502554416656, -0.06075878441333771, -0.018858488649129868, 0.007250347174704075, -0.04188963398337364, 0.2527623176574707, -0.01777535304427147, 0.04544047266244888, 0.13894875347614288, -0.11629097908735275, 0.06238185986876488, 0.052252765744924545, -0.0966544970870018, -0.012595907784998417, -0.14278829097747803, -0.08767393231391907, -0.13624316453933716, -0.0940731093287468, 0.00013799761654809117, -0.08228008449077606, -0.11279436945915222, 0.12390314042568207, 0.021966248750686646, 0.04138975590467453, 0.0601704865694046, -0.2069561928510666, 0.020265165716409683, -0.004642600659281015, 0.051829442381858826, 0.15875312685966492, -0.1557672768831253, 0.1201767548918724, -0.0669858455657959, -0.055024728178977966, -0.15802305936813354, -0.14712734520435333, -0.0873785987496376, 0.04505210742354393, -0.17546023428440094, 0.02173066884279251, 0.06316287815570831, 0.02457084134221077, -0.1427476853132248, 0.313740074634552, -0.05252956971526146, 0.0983763113617897, 0.0900733470916748, 0.14519186317920685, 0.08659862726926804, 0.15032337605953217, -0.003892849199473858, 0.08742142468690872, -0.0508091002702713, -0.15432852506637573, -0.11128272116184235, 0.043567925691604614, -0.020198587328195572, 0.3064917325973511, 0.11354207992553711, -0.12068139761686325, 0.02482866868376732, -0.062134161591529846, 0.059550926089286804, 0.1089075431227684, 0.0982557162642479, 0.06733161211013794, -0.13474594056606293, 0.0023074818309396505, 0.006841117981821299, -0.022597957402467728, -0.032583121210336685, -0.15299241244792938, -0.09562860429286957, 0.11340118944644928, 0.11452412605285645, -0.13830655813217163, -0.06876261532306671, -0.2848140597343445, 0.0002168237406294793, -0.0037476092111319304, -0.09176505357027054, -0.03283705934882164, 0.06437218189239502, 0.019303305074572563, 0.06044106185436249, -0.16331079602241516, -0.08052622526884079, -0.18981359899044037, 0.07453620433807373, -0.06263082474470139, 0.0040792664512991905, 0.07905001193284988, 0.02791057899594307, -0.00450585363432765, -0.05845567584037781, 0.038123197853565216, -0.003931798506528139, -0.049224112182855606, -0.11499405652284622, -0.037180669605731964, -0.09731815755367279, -0.02062930352985859, -0.12994128465652466, 0.18581269681453705, -0.016637047752738, 0.10120628774166107, 0.22303161025047302, -0.04422127455472946, -0.0211032684892416, 0.012788812629878521, -0.016466382890939713, -0.10178552567958832, 0.3357540965080261, -0.09329352527856827, -0.07399816066026688, -0.08551526814699173, -0.05478866025805473, 0.10683424025774002, -0.1498798429965973, -0.020288944244384766, -0.04125342145562172, 0.05105072632431984, -0.025446761399507523, -0.02302880585193634, 0.06586666405200958, -0.02589109167456627, -0.012165091931819916, 0.07019825279712677, -0.10092683136463165, -0.10011208057403564, 0.032290417701005936, 0.00205611833371222, -0.056822650134563446, -0.10837999731302261, 0.00975660141557455, -0.20236682891845703, 0.053649768233299255, 0.08599703013896942, -0.0740753561258316, 0.014993388205766678, -0.04502104967832565, 0.0510413758456707, -0.06723100692033768, 0.09088198840618134, -0.1107759177684784, -0.10732743889093399, 0.09505195915699005, 0.002572351135313511, 0.0370255745947361, 0.014010997489094734, -0.07004821300506592, -0.06256557255983353, -0.0298375952988863, 0.17019933462142944, 0.09783795475959778, 0.020738378167152405, -0.03353986516594887, 0.09644467383623123, -0.035430844873189926, 0.1683339774608612, 0.06611797958612442, 0.051248714327812195, 0.158305361866951, -0.0876079648733139, 0.07011528313159943, 0.07690762728452682, -0.04569672420620918, 0.062449757009744644, 0.030026966705918312, -0.18676382303237915, -0.12285135686397552, -0.0571921281516552, 0.008121457882225513, 0.17658917605876923, -0.1080135926604271, 0.05838928744196892, -0.042632438242435455, 0.3290309011936188, -0.21529267728328705, -0.13590410351753235, 0.1395111083984375, 0.14351874589920044, -0.04344906285405159, 0.1291486918926239, -0.028983449563384056, -0.11228273808956146, -0.04453582316637039, -0.06480490416288376, 0.02847154438495636, 0.09395009279251099, -0.07868040353059769, -0.009118392132222652, -0.04940402880311012, 0.004632988478988409, -0.031429603695869446, -0.013806742615997791, -0.012183700688183308, -0.012815481051802635, -0.1006384789943695, 0.13077737390995026, -0.08124804496765137, -0.06291799247264862, 0.025760592892766, -0.2189597189426422, -0.011173799633979797, -0.31523701548576355, 0.1804371029138565, 0.026425981894135475, 0.05066274106502533, 0.05600348114967346, 0.019417408853769302, 0.06083729490637779, -0.10249815881252289, 0.015267894603312016, -0.01639501564204693, -0.004836667329072952, -0.1588038057088852, -0.038872167468070984, -0.06556215137243271, -0.03153938427567482, 0.0001760560553520918, 0.13161079585552216, -0.12154219299554825, 0.053960591554641724, 0.10600336641073227, -0.33618485927581787, -0.31359437108039856, 0.05416111648082733, -0.06037607416510582, -0.10973149538040161, -0.10104227066040039, 0.0770382359623909, 0.08453331142663956, -0.01664348691701889, 0.2543584406375885, 0.05562003701925278, -0.0626947358250618, 0.05571090057492256, 0.03686128556728363, -0.10840185731649399, 0.16402599215507507, -0.008750341832637787, 0.012844703160226345, -0.09891483187675476, -0.0786195769906044, -0.06433342397212982, -0.13262243568897247, 0.02350992150604725, 0.038818493485450745, 0.02734318934381008, -0.10959819704294205, -0.03531236946582794, 0.2217530608177185, 0.01031605526804924, -0.09925176203250885, 0.14363569021224976, -0.08231832832098007, -0.07623081654310226, -0.06677065789699554, 0.051651474088430405, -0.050158511847257614, 0.007340954151004553, 0.14991994202136993, -0.13100343942642212, 0.037984058260917664, 0.06625530123710632, 0.05914047732949257, 0.0027394951321184635, -0.07089071720838547, -0.07630988955497742, 0.15899643301963806, -0.051852911710739136, -0.12644153833389282, 0.026410872116684914, 0.0589449405670166, 0.0751248300075531, -0.028018133714795113, 0.06659535318613052, -0.035912420600652695, -0.06337741762399673, -0.06402479857206345, 0.14575260877609253, -0.023109694942831993, 0.013888449408113956, -0.019450508058071136, 0.01533908024430275, -0.09604063630104065, -0.01860843040049076, 0.07852353900671005, 0.12609757483005524, 0.2275487333536148, -0.047825396060943604, 0.11878503113985062, -0.1018570140004158, 0.006276565603911877, -0.027610987424850464, 0.05091334879398346, -0.05582140013575554, -0.23713818192481995, 0.15595467388629913, -0.16136988997459412, 0.10182780027389526, -0.06047521531581879, 0.07671619951725006, 0.05545690283179283, 0.056614115834236145, -0.07360871881246567, -0.12343929708003998, -0.017646364867687225, 0.1536734700202942, 0.11337299644947052, 0.07882625609636307, -0.05072014778852463, -0.012238900177180767, -0.09079010784626007, 0.0004673404328059405, 0.0626736432313919, -0.010664865374565125, -0.08503837883472443, -0.15758760273456573, 0.006994170602411032, -0.21387912333011627, 0.0791442021727562, 0.09598276019096375, 0.03775523602962494, 0.031751520931720734, -0.052773430943489075, 0.2860388159751892, -0.01428129430860281, 0.028397172689437866, -0.041050370782613754, 0.03013361431658268, -0.20517724752426147, 0.12141004204750061, 0.06739763170480728, 0.02447454258799553, 0.03671858832240105, 0.07664124667644501, -0.10654276609420776, 0.24446746706962585, -0.10716518759727478, 0.17333295941352844, -0.06227172166109085, 0.10047392547130585, -0.16393539309501648, 0.027891162782907486, -0.05180804431438446], [0.05907292291522026, 0.010554679669439793, 0.17843471467494965, 0.04009730741381645, 0.045206669718027115, 0.11460788547992706, 0.012041961774230003, -0.19638684391975403, -0.027881840243935585, -0.08544252812862396, -0.060362398624420166, 0.007629606407135725, 0.07151391357183456, 0.022894207388162613, 0.15078724920749664, 0.11227277666330338, -0.16306430101394653, 0.028668921440839767, -0.05358897149562836, 0.08695732057094574, -0.022363169118762016, 0.19981229305267334, 0.028978673741221428, 0.011358756572008133, 0.034516677260398865, 0.11997900903224945, 0.07173720002174377, -0.17010973393917084, 0.06720029562711716, -0.08611493557691574, 0.0270156878978014, -0.044702738523483276, 0.00975584052503109, 0.006095419637858868, -0.07787969708442688, -0.014782739803195, -0.031623709946870804, 0.045434821397066116, -0.026767516508698463, -0.0583137646317482, 0.0738191157579422, 0.09789768606424332, -0.12899722158908844, 0.015986066311597824, -0.05468498542904854, -0.06129949539899826, 0.08616017550230026, 0.0005231591640040278, -0.11429286748170853, -0.09343919157981873, 0.0021933927200734615, -0.09155347943305969, 0.028470389544963837, -0.02529776468873024, -0.039878617972135544, -0.05010320246219635, 0.04542865976691246, 0.0359688363969326, -0.11577659845352173, -0.0001236930547747761, -0.38680508732795715, 0.011391020379960537, 0.014921359717845917, 0.0934436097741127, -0.06973695755004883, -0.02711910381913185, -0.03870490565896034, -0.0039353701286017895, 0.018893759697675705, -0.1047038808465004, 0.09141241014003754, 0.07513561099767685, 0.0684828832745552, -0.03761386126279831, -0.008980294689536095, 0.09289979189634323, -0.08501212298870087, -0.04113064706325531, -0.023364363238215446, 0.035310160368680954, 0.06545104831457138, -0.10986991226673126, 0.037965551018714905, 0.08674955368041992, 0.06664759665727615, 0.011811668053269386, 0.14076077938079834, -0.08435355871915817, -0.09293314069509506, 0.04703753814101219, 0.0015105411875993013, -0.007602930534631014, -0.03173856809735298, 0.07847243547439575, -0.04730107635259628, -0.03224226087331772, -0.07348247617483139, -0.0150153124704957, 0.07936959713697433, -0.1555226594209671, -0.09214751422405243, 0.11287812143564224, -0.1481574922800064, -0.07682247459888458, 0.021262042224407196, -0.10578681528568268, 0.05550301820039749, -0.04416564106941223, -0.10672973096370697, 0.0551510713994503, -0.05687864124774933, -0.09742837399244308, -0.06009591370820999, 0.03287559747695923, -0.02724027819931507, 0.025973230600357056, -0.009530453011393547, -0.08180806040763855, 0.02047032304108143, -0.025691108778119087, 0.13859328627586365, 0.04599401354789734, 0.037380196154117584, 0.03486029803752899, 0.0440031997859478, -0.10432308912277222, -0.023941004648804665, 0.05331544578075409, 0.031321264803409576, -0.036311425268650055, 0.18446914851665497, -0.0005043330020271242, 0.07434555888175964, 0.004003444686532021, -0.04772815853357315, -0.18552973866462708, -0.10740473121404648, -0.012443696148693562, 0.047371428459882736, 0.13952778279781342, -0.10891099274158478, -0.017710646614432335, 0.044281214475631714, -0.0507262758910656, -0.18826021254062653, 0.09020774066448212, -0.019857576116919518, 0.11049779504537582, 0.02604835480451584, 0.03905155509710312, -0.08463948220014572, -0.12252086400985718, -0.030536802485585213, 0.007344154641032219, -0.04258420690894127, 0.013975277543067932, 0.05325089022517204, 0.11046405136585236, -0.014347800053656101, 0.10501617938280106, 0.05577029287815094, 0.014503049664199352, -0.0164358988404274, 0.03721311688423157, 0.07163063436746597, 0.034391652792692184, 0.09711161255836487, 0.11864059418439865, -0.04171129688620567, 0.0009518162114545703, -0.03302222862839699, 0.04096322879195213, -0.06502604484558105, 0.018812023103237152, -0.08386239409446716, -0.03416112810373306, -0.021231193095445633, -0.10092150419950485, 0.00894683413207531, -0.10281383991241455, -0.06997306644916534, 0.10465476661920547, 0.05502915009856224, 0.034222982823848724, 0.08169098198413849, -0.017971396446228027, -0.008303939364850521, 0.01484963670372963, -0.06050912290811539, 0.13105739653110504, 0.04090695455670357, 0.04919499158859253, -0.06840352714061737, -0.08794152736663818, -0.00664889719337225, 0.10364418476819992, 0.07451114803552628, -0.03971027582883835, -0.07116759568452835, 0.011922386474907398, -0.025276141241192818, -0.0172578077763319, 0.024617275223135948, 0.005050241481512785, 0.047089796513319016, -0.04879390075802803, 0.12648563086986542, 0.09166396409273148, 0.18203185498714447, -0.041141413152217865, 0.07472695410251617, -0.05988096073269844, 0.0728769302368164, 0.022039126604795456, -0.04184810817241669, 0.006015049293637276, 0.12761704623699188, 0.08816400915384293, 0.0025671119801700115, -0.04919279366731644, -0.03085334785282612, 0.05935124680399895, 0.14745715260505676, 0.053602103143930435, 0.005088548641651869, 0.06364817172288895, -0.06458371132612228, 0.11696752905845642, 0.08932607620954514, 0.07699738442897797, -0.05375691503286362, -0.08266153186559677, 0.048185091465711594, -0.05081064626574516, 0.02721267007291317, 0.010593581013381481, -0.04007896035909653, 0.14682303369045258, 0.15028302371501923, -0.06170431151986122, -0.1045428216457367, 0.08845607191324234, -0.24518173933029175, 0.05335744842886925, -0.03992448374629021, 0.03881409764289856, 0.020264172926545143, -0.022921323776245117, 0.023128848522901535, 0.07733305543661118, 0.008070068433880806, 0.000414045003708452, -0.016983484849333763, -0.0688459500670433, -0.10974336415529251, 0.03963987156748772, -0.04732498526573181, -0.09694814682006836, -0.08036927133798599, -0.004002729896456003, 0.024235891178250313, 0.04798750951886177, 0.11634549498558044, -0.11542174965143204, 0.06484705209732056, 0.05193785950541496, -0.02794758416712284, -0.19095322489738464, 0.009158718399703503, 0.13694500923156738, -0.026970896869897842, 0.15594862401485443, -0.09163142740726471, -0.043332476168870926, -0.04978020861744881, -0.06614764034748077, -0.07816712558269501, 0.03239263594150543, -0.02957143448293209, -0.10009609907865524, 0.017085302621126175, -0.10008787363767624, 0.0048105004243552685, -0.06006108224391937, -0.06819438934326172, -0.024654408916831017, 0.030409466475248337, -0.05820595100522041, -0.01422902848571539, 0.03850061073899269, -0.0791449025273323, 0.0745345801115036, 0.04214685782790184, 0.05829974636435509, -0.04921724647283554, 0.0989375114440918, -0.02515331469476223, 0.017409486696124077, -0.07863157242536545, -0.11763949692249298, -0.01910422369837761, -0.011463404633104801, 0.1172582358121872, -0.004493498243391514, -0.11287392675876617, -0.06971806287765503, -0.007485788315534592, 0.013417961075901985, 0.1177813708782196, -0.033404674381017685, -0.041509710252285004, -0.07769034802913666, -0.02250662073493004, 0.03687232360243797, -0.08189389854669571, 0.13704945147037506, -0.06936615705490112, -0.08322206139564514, 0.008548051118850708, 0.06944583356380463, 0.09636202454566956, -0.04842564836144447, -0.0019166268175467849, -0.15226782858371735, 0.008314518257975578, -0.005872654728591442, 0.07593987137079239, 0.14566121995449066, -0.1752396821975708, -0.02335694059729576, 0.06790132820606232, -0.06787462532520294, 0.09263455122709274, 0.0821530744433403, -0.09218906611204147, -0.12493233382701874, -0.1588246077299118, -0.04757879301905632, 0.03199626877903938, 0.04414428025484085, 0.016125742346048355, 0.08345101028680801, 0.16842806339263916, -0.21916741132736206, -0.13042117655277252, 0.08124246448278427, 0.10181201994419098, -0.01274086907505989, 0.031485479325056076, -0.02162911556661129, -0.08596153557300568, 0.04506547003984451, -0.06416954845190048, -0.05986061692237854, 0.0740392804145813, -0.057285793125629425, 0.027908440679311752, -0.038007091730833054, 0.0659443661570549, -0.00442702928557992, -0.06493806093931198, -0.05377395451068878, -0.008183847181499004, 0.03312542289495468, -0.05669044330716133, -0.017497463151812553, -0.017128651961684227, 0.06386040896177292, -0.04117917641997337, 0.10720299929380417, -0.10854549705982208, -0.06799151748418808, -0.0744701474905014, 0.007444325368851423, -0.047504130750894547, 8.652078395243734e-05, 0.035819292068481445, 0.02954997681081295, -0.04227237403392792, 0.028627611696720123, 0.0012028076453134418, 0.020997753366827965, 0.09722630679607391, -0.07011604309082031, -0.054175034165382385, -0.0575476698577404, -0.010469348169863224, 0.014513355679810047, -0.01476346980780363, -0.09196380525827408, -0.008719652891159058, -0.11041873693466187, 0.03556319698691368, 0.0014441258972510695, -0.050457123667001724, -0.13208246231079102, 0.030517397448420525, -0.0263642817735672, 0.032670605927705765, 0.21620744466781616, 0.13532285392284393, -0.08523376286029816, -0.08290556073188782, -0.07582791149616241, -0.0184496883302927, 0.10107183456420898, -0.10201745480298996, 0.005681217182427645, -0.06546097993850708, -0.0060522593557834625, -0.038567960262298584, -0.04611753672361374, -0.029296981170773506, -0.010100530460476875, 0.0059366957284510136, -0.0646771788597107, -0.023600343614816666, 0.05160212144255638, -0.07433299720287323, -0.032688625156879425, 0.013609916903078556, -0.08122961223125458, -0.14998099207878113, -0.06499210000038147, -0.023826148360967636, -0.08156847953796387, -0.11961866170167923, 0.0439470112323761, -0.1502981334924698, -0.04734591022133827, -0.024425286799669266, 0.02933792769908905, 0.036209430545568466, -0.046531498432159424, -0.057737868279218674, -0.08081591874361038, 0.10810388624668121, -0.054960593581199646, -0.098285011947155, -0.022976014763116837, -0.047936104238033295, 0.008748358115553856, -0.0004618007515091449, -0.08567483723163605, -0.3248613774776459, -0.06144224852323532, 0.1189032718539238, 0.1261756420135498, -0.002179756062105298, 0.036633916199207306, -0.05609447881579399, -0.19585898518562317, -0.002539022359997034, -0.08782018721103668, 0.09592412412166595, 0.1541721671819687, 0.03211846575140953, -0.058691538870334625, 0.05513990670442581, 0.04480666667222977, -0.06521516293287277, -0.11574728041887283, 0.03954151272773743, -0.20188823342323303, -0.03818272799253464, -0.021462703123688698, -0.04018663614988327, 0.10388290882110596, 0.10845253616571426, -0.038492243736982346, 0.005413109436631203, -0.080441914498806, -0.17284515500068665, 0.07621420174837112, 0.0918283686041832, 0.03600922226905823, -0.1292944699525833, 0.08323251456022263, -0.005662418436259031, 0.04428838938474655, -0.10274156183004379, 0.047433674335479736, 0.058786384761333466, -0.09440786391496658, -0.08101087063550949, -0.02703689970076084, -0.15735766291618347, -0.0899428129196167, 0.049599841237068176, -0.06359358876943588, 0.028114067390561104, -0.08882374316453934, 0.12162228673696518, 0.004883064888417721, -0.031262364238500595, 0.03475136309862137, -0.011770838871598244, -0.14399541914463043, -0.039760880172252655, -0.0546623133122921, -0.059480197727680206, -0.06779924035072327, -0.017005478963255882, 0.05960087850689888, -0.03191255405545235, 0.07698190212249756, 0.0706876739859581, 0.049249690026044846, 0.026780594140291214, 0.01227958220988512, -0.05026344582438469, -0.10648711025714874], [-0.06238095834851265, -0.08577295392751694, 0.10940692573785782, -0.026792189106345177, 0.050078097730875015, -0.05711763724684715, 0.24969518184661865, 0.10566640645265579, 0.000630397698841989, -0.027791153639554977, 0.00997606199234724, 0.17292556166648865, 0.09037304669618607, 0.014818130061030388, -0.1495254635810852, -0.0943695604801178, 0.0819142758846283, 0.04213285446166992, -0.06080339848995209, 0.06724399328231812, 0.062401287257671356, -0.12038645148277283, -0.007882995530962944, -0.04798036441206932, 0.06951195746660233, 0.06333604454994202, 0.007964962162077427, 0.16161085665225983, -0.028636474162340164, -0.025144526734948158, -0.07161097973585129, -0.03953962028026581, 0.017430204898118973, 0.1159750297665596, -0.12015121430158615, 0.16797153651714325, 0.08098776638507843, 0.08231285214424133, 0.09530917555093765, -0.06217014417052269, 0.1432664841413498, 0.1458548605442047, -0.009440561756491661, -0.10613611340522766, -0.09966938942670822, 0.0639503002166748, 0.09155986458063126, -0.13440380990505219, -0.07142551243305206, 0.040410932153463364, -0.15524204075336456, 0.12020847201347351, 0.13003119826316833, 0.02249419316649437, -0.0049058529548347, -0.10328909009695053, 0.005779198836535215, 0.046628329902887344, 0.03765750303864479, 0.08414477109909058, -0.03497319296002388, 0.11278434842824936, 0.08892761915922165, -0.010227357968688011, 0.1754460632801056, 0.1839061826467514, -0.012528681196272373, 0.06100854277610779, 0.1677446812391281, -0.023475687950849533, 0.0320223867893219, 0.0877351313829422, 0.10155906528234482, -0.10987255722284317, -0.14186803996562958, 0.02221185527741909, -0.11440721154212952, -0.03464442864060402, 0.13188907504081726, 0.02465140074491501, 0.05317617207765579, 0.029868196696043015, 0.08578260987997055, 0.04082334786653519, 0.16826622188091278, -0.05143175274133682, -0.16945233941078186, 0.023665715008974075, 0.07369363307952881, -0.0769873559474945, 0.24066928029060364, 0.07853927463293076, -0.015001149848103523, 0.07191254943609238, 0.1277555525302887, 0.07755159586668015, 0.09196805208921432, 0.07946821302175522, 0.0776061862707138, -0.03731324523687363, -0.00961669348180294, 0.05216497555375099, 0.07799462229013443, 0.057020414620637894, -0.023973332718014717, 0.04765341803431511, 0.0827624723315239, 0.05229265242815018, -0.048878263682127, -0.009071058593690395, -0.012492839246988297, -0.11436228454113007, -0.08728629350662231, 0.12375257164239883, 0.08002883195877075, -0.04105306789278984, -0.051237091422080994, -0.05933152139186859, -0.093070387840271, 0.21987320482730865, 0.0691038966178894, 0.06242986023426056, -0.06366514414548874, 0.049204565584659576, 0.08450827747583389, -0.09627584367990494, -0.031171169131994247, 0.00865216925740242, 0.028343480080366135, -0.04843617603182793, 0.05789799243211746, 0.02573014236986637, -0.08561686426401138, -0.01567913591861725, -0.05362773314118385, -0.11364970356225967, -0.01831900328397751, 0.02011837251484394, -0.03305033594369888, -0.17104513943195343, -0.014618001878261566, 0.10873541235923767, 0.04083769768476486, 0.04940580949187279, 0.0562271811068058, 0.019073132425546646, -0.0055625648237764835, 0.10175050795078278, 0.10752952843904495, -0.050294410437345505, -0.0021045291796326637, 0.051067933440208435, 0.006948926951736212, 0.05748281255364418, -0.09938989579677582, -0.043612658977508545, 0.08524873852729797, -0.06738804280757904, -0.03691989183425903, 0.029674407094717026, -0.06170984357595444, -0.10942938178777695, 0.04694266617298126, -0.07925588637590408, 0.11123684793710709, 0.16434550285339355, 0.12197431921958923, -0.007822912186384201, -0.020886531099677086, 0.05214410647749901, -0.11524450778961182, -0.07295271754264832, -0.05952344834804535, -0.07207940518856049, -0.0908350870013237, 0.10887205600738525, -0.06084108725190163, 0.05920161306858063, -0.105298712849617, -0.062200888991355896, -0.13883523643016815, -0.012680823914706707, -0.04587126895785332, -0.03428361192345619, -0.07834737747907639, -0.111409492790699, -0.17055466771125793, -0.008327163755893707, -0.002111981622874737, -0.021816899999976158, 0.10580626875162125, 0.09057002514600754, -0.12081097066402435, -0.08807562291622162, 0.05341329425573349, 0.09290054440498352, 0.015651114284992218, -0.08327539265155792, -0.03789047524333, 0.15847831964492798, 0.12285066395998001, -0.06850367039442062, 0.04370527341961861, -0.08366285264492035, -0.16594308614730835, -0.122598797082901, 0.131890669465065, 0.10029619932174683, -0.06301312148571014, -0.015479899942874908, 0.025627048686146736, 0.10546328872442245, -0.16587059199810028, -0.052382949739694595, 0.12699535489082336, -0.03260064497590065, -0.011219529435038567, -0.02033323422074318, 0.0945175364613533, 0.00016934683662839234, -0.02645955979824066, 0.08837229013442993, -0.18236209452152252, -0.11008701473474503, 0.11331633478403091, 0.026639649644494057, -0.06301464140415192, 0.04445179924368858, -0.08803024888038635, 0.062344521284103394, -0.036269430071115494, -0.0334281399846077, 0.05420229956507683, -0.1426578015089035, 0.07693897932767868, 0.022251097485423088, -0.05699705705046654, 0.0845995768904686, 0.04960213974118233, 0.039700236171483994, 0.04029838740825653, 0.14009976387023926, -0.0018195711309090257, -0.0007810321403667331, -0.1019756868481636, 0.034804943948984146, -0.0033848974853754044, 0.16976770758628845, 0.04036590829491615, -0.03657124191522598, 0.01741529442369938, -0.08551974594593048, 0.20234525203704834, -0.07249189913272858, -0.02327352948486805, 0.0540025569498539, -0.17063337564468384, -0.0368243046104908, -0.16469651460647583, -0.020957225933670998, -0.2033383995294571, 0.021990306675434113, -0.033759817481040955, -0.07327581942081451, 0.058703359216451645, 0.039476633071899414, -0.02532150037586689, 0.07473453879356384, -0.015052149072289467, -0.033093441277742386, -0.13540109992027283, 0.08120652288198471, -0.1364540457725525, -0.07932928949594498, -0.08213476836681366, -0.05060502886772156, -0.1473938524723053, -0.15711621940135956, -0.12631379067897797, -0.030104417353868484, 0.03345228731632233, -0.14529089629650116, 0.1370055228471756, -0.048827528953552246, -0.09812373667955399, -0.06909655779600143, -0.07132720202207565, -0.12936484813690186, 0.0417686365544796, 0.07233111560344696, -0.013914884999394417, 0.10187884420156479, -0.004255916457623243, -0.04842669144272804, 0.0020829765126109123, -0.045187223702669144, -0.04228406772017479, 0.019789576530456543, -0.05187313258647919, -0.030751021578907967, -0.10940438508987427, -0.06357833743095398, -0.0644397884607315, 0.015497143380343914, -0.10907875746488571, -0.13947993516921997, -0.04233337566256523, -0.14712496101856232, 0.014630631543695927, -0.17022106051445007, -0.04691500961780548, -0.05866505578160286, -0.017553020268678665, 0.11886481195688248, -0.1570870578289032, -0.03828045353293419, -0.10183493047952652, -0.05744125321507454, -0.08199179172515869, -0.030568622052669525, 0.05659489333629608, 0.0752805545926094, 0.027012363076210022, -0.13056688010692596, 0.06051279976963997, 0.0036042570136487484, 0.025993838906288147, -0.043396517634391785, 0.05382918938994408, -0.02271592803299427, 0.014387006871402264, -0.05444987118244171, -0.14631976187229156, -0.024686330929398537, -0.08506489545106888, 0.002956272102892399, -0.05321425572037697, 0.05912812054157257, -0.08066070824861526, 0.03013494424521923, -0.2488151341676712, -0.05306922644376755, -0.18262147903442383, 0.005327316001057625, 0.06775893270969391, 0.04123828932642937, -0.11034755408763885, 0.024966804310679436, 0.09417535364627838, 0.015463302843272686, 0.008205837570130825, -0.0691198855638504, -0.0005595693364739418, -0.0800132006406784, -0.029824189841747284, -0.05947313457727432, -0.10656604170799255, -0.09848902374505997, -0.14016523957252502, 0.015650978311896324, -0.17233341932296753, -0.13301745057106018, 0.011044635437428951, 0.020155707374215126, -0.11455880850553513, -0.11185426265001297, -0.2548734247684479, 0.0232184287160635, -0.11002682149410248, -0.08786048740148544, -0.10681196302175522, 0.029168710112571716, -0.09016459435224533, 0.053653914481401443, -0.1369353085756302, 0.029608795419335365, 0.025858422741293907, -0.0577625147998333, -0.12270303070545197, -0.022661391645669937, -0.0025923254434019327, 0.032403167337179184, -0.031683363020420074, -0.12517546117305756, -0.13483740389347076, -0.0275681484490633, -0.0034859217703342438, 0.01091176737099886, -0.0005318425828590989, -0.11308281868696213, 0.10981632769107819, 0.16122844815254211, -0.015566608868539333, -0.06763406097888947, 0.014670135453343391, 0.12736168503761292, -0.0658811554312706, -0.1006515771150589, -0.14686822891235352, -0.1651378720998764, 0.16344234347343445, -0.10980652272701263, -0.03025582991540432, -0.004159984644502401, -0.10491272807121277, -0.08314156532287598, -0.09692901372909546, 0.009953710250556469, -0.0983523428440094, -0.02797110006213188, -0.1393243670463562, 0.01782621070742607, -0.018367640674114227, -0.03944986313581467, -0.0361420102417469, -0.023449363186955452, -0.023518016561865807, -0.15205469727516174, -0.06731796264648438, -0.1257626861333847, 0.01658175326883793, 0.03223336115479469, 0.0537882074713707, 0.04162215441465378, -0.021776791661977768, 0.07688889652490616, -0.03533705323934555, -0.07914726436138153, -0.054893553256988525, 0.04067746177315712, -0.08546333014965057, 0.006291004829108715, -0.11014828830957413, 0.033813200891017914, -0.026587216183543205, -0.09015025943517685, -0.05499056726694107, 0.039447955787181854, 0.0755729079246521, -0.0667560026049614, -0.08098021894693375, -0.10811182111501694, 0.03308999910950661, -0.05157763510942459, 0.0723767802119255, -0.003021600656211376, 0.13195639848709106, -0.14285530149936676, 0.057317402213811874, 0.09084419906139374, -0.0003514577983878553, 0.010765410028398037, -0.07350903749465942, -0.00890840869396925, 0.057468630373477936, 0.06251033395528793, 0.1124148964881897, -0.010084671899676323, -0.07692092657089233, -0.03913143277168274, 0.02581114135682583, -0.060014210641384125, -0.05531275272369385, -0.008621328510344028, 0.062408238649368286, -0.07118960469961166, 0.02694481611251831, 0.02952476404607296, 0.12444588541984558, -0.10070966184139252, -0.14347724616527557, 0.044298987835645676, 0.06783076375722885, -0.016537414863705635, 0.09373774379491806, -0.02909315750002861, -0.14759919047355652, -0.07506254315376282, 0.061298392713069916, 0.10589134693145752, 0.06554187089204788, -0.11433403939008713, 0.08385170996189117, -0.09171225875616074, -0.016897376626729965, -0.11389555782079697, -0.008031870238482952, -0.056847818195819855, -0.0890422984957695, -0.15689454972743988, -0.11642578989267349, -0.08908972889184952, -0.1553933173418045, -0.0956377238035202, 0.017529383301734924, -0.031206492334604263, 5.0608228775672615e-05, 0.16427595913410187, 0.08722229301929474, -0.038983121514320374, -0.056838855147361755, 0.023904353380203247, -0.10770165175199509, 0.029681634157896042, -0.09033922851085663, 0.09875037521123886, -0.15359793603420258, 0.09365059435367584, 0.20641225576400757, -0.13723774254322052, -0.1576639711856842, -0.09153502434492111], [-0.06081646308302879, 0.11316831409931183, 0.03806283324956894, 0.044857967644929886, 0.0962488204240799, 0.11521267145872116, 0.1546190232038498, 0.10659734159708023, 0.04880440980195999, 0.029823917895555496, -0.057585492730140686, -0.0868677943944931, 0.0707179382443428, 0.012951786629855633, -0.04806830361485481, 0.09291340410709381, -0.03401480242609978, -0.09518858790397644, -0.09508854150772095, 0.1577477753162384, 0.09063053131103516, -0.02786003053188324, 0.04001220688223839, 0.020140204578638077, -0.06810114532709122, 0.15910959243774414, 0.014082217589020729, -0.08483250439167023, 0.0345962829887867, 0.018335329368710518, -0.016531234607100487, 0.025677088648080826, 0.033949755132198334, -0.016425898298621178, -0.11117403209209442, 0.003755227429792285, -0.043946363031864166, 0.12442903220653534, 0.1360393762588501, -0.06977975368499756, 0.15593311190605164, 0.08312695473432541, 0.013554520905017853, -0.019442781805992126, -0.004656873177736998, 0.06446073949337006, 0.025233972817659378, -0.13244307041168213, -0.023759089410305023, -0.01645631529390812, -0.10391663014888763, -0.052269648760557175, 0.01691250689327717, 0.0010213959030807018, 0.05723121017217636, 0.05043524503707886, 0.005858677439391613, 0.0927189365029335, 0.09910682588815689, 0.11980614066123962, -0.17267730832099915, 0.11181977391242981, -0.004590482916682959, 0.032595451921224594, -0.06273040920495987, 0.07891596108675003, 0.03471687436103821, 0.039500512182712555, 0.09846567362546921, -0.008900958113372326, 0.060764092952013016, 0.02892814762890339, -0.012144544161856174, 0.03193658962845802, -0.025187719613313675, 0.009218377992510796, -0.10265083611011505, 0.03720962628722191, 0.17990891635417938, 0.015892472118139267, -0.0784962847828865, 0.008745302446186543, 0.08842571824789047, 0.1475258320569992, 0.07946045696735382, -0.10016712546348572, -0.05470942705869675, -0.01410352997481823, 0.007641240954399109, -0.049149755388498306, 0.04198801517486572, -0.02379629574716091, -0.019526416435837746, 0.08077702671289444, 0.11559886485338211, 0.13968679308891296, 0.004945362452417612, 0.037095267325639725, 0.1116846352815628, 0.0033542148303240538, -0.06908395886421204, 0.06592743843793869, 0.0021531572565436363, 0.049235161393880844, -0.1375354379415512, -0.05776063725352287, -0.06498817354440689, 0.06999742984771729, -0.04136836901307106, 0.07118808478116989, 0.07127118855714798, 0.07526635378599167, -0.04720207303762436, 0.07697613537311554, -0.04213738813996315, -0.007448527496308088, -0.1355675607919693, -0.03701569139957428, -0.06959233433008194, 0.004969536792486906, 0.03193433955311775, 0.058687496930360794, -0.1643560230731964, 0.2235482782125473, 0.21849986910820007, -0.010691186413168907, -0.10399883985519409, 0.09396488964557648, -0.05763809010386467, 0.05025297403335571, 0.03495736047625542, 0.028717853128910065, -0.20739300549030304, 0.09529153257608414, 0.0736868605017662, -0.02088358625769615, 0.0005970177007839084, 0.012086231261491776, 0.08392862230539322, -0.09344609826803207, 0.09428716450929642, -0.0015573325799778104, -0.12289661169052124, 0.09067349880933762, 0.21464072167873383, 0.08944299072027206, 0.03718481585383415, -0.057669952511787415, -0.050411492586135864, -0.28760194778442383, -0.0925670936703682, 0.05958199128508568, 0.09320582449436188, -0.032521117478609085, 0.000852066557854414, 0.07905849069356918, 0.04263374209403992, 0.006269070319831371, -0.061866644769907, -0.11548525094985962, 0.06002320721745491, -0.02553953044116497, -0.06878586858510971, -0.06820441782474518, 0.008372570388019085, 0.16379114985466003, 0.04374760016798973, -0.0497625395655632, -0.11925986409187317, 0.07182962447404861, -0.059129498898983, -0.06614046543836594, -0.00574927544221282, -0.1273484081029892, -0.0737541988492012, -0.09025652706623077, 0.03674286976456642, 0.06779303401708603, -0.03983649984002113, 0.014064752496778965, -0.09616946429014206, -0.04441973567008972, -0.012777440249919891, 0.08185858279466629, -0.00981283187866211, -0.015844792127609253, -0.02838617004454136, 0.0586063414812088, 0.12718519568443298, -0.027605971321463585, 0.22386762499809265, -0.09222739189863205, -0.07304846495389938, -0.032949477434158325, -0.044266168028116226, 0.09300663322210312, -0.056533344089984894, 0.028271306306123734, 0.04025566950440407, 0.24601686000823975, 0.26369139552116394, 0.1181240826845169, 0.07110688090324402, -0.011098959483206272, 0.020941026508808136, -0.13606476783752441, 0.09835104644298553, 0.019763803109526634, -0.10719172656536102, -0.02366299368441105, 0.0031967787072062492, 0.018875999376177788, -0.15535828471183777, -0.11763174086809158, 0.06715062260627747, 0.1000228300690651, -0.08912379294633865, 0.06808985024690628, 0.10840777307748795, 0.07686857879161835, -0.043940067291259766, 0.06392895430326462, -0.25101909041404724, -0.04640796035528183, 0.04343337193131447, -0.05879656597971916, -0.08801454305648804, -0.09898950904607773, -0.016925226897001266, -0.01813514344394207, 0.00486824382096529, -0.06893958151340485, -0.0696723535656929, -0.1302841752767563, -0.09727603197097778, 0.04718867316842079, -0.05354626849293709, -0.02407657913863659, 0.042235568165779114, 0.05662492662668228, -0.009512698277831078, 0.028341038152575493, 0.08690899610519409, 0.08240262418985367, 0.08765152841806412, -0.08795533329248428, -0.031167754903435707, -0.006836140528321266, 0.025444401428103447, -0.040527135133743286, 0.10941001027822495, -0.09003505855798721, 0.10298167169094086, -0.09070167690515518, 0.07551752030849457, -0.001084723393432796, 0.03869815170764923, 0.029038891196250916, 0.0746278390288353, 0.008004719391465187, 0.05312647297978401, -0.08576817065477371, 0.02944658137857914, 0.2016049474477768, 0.047797370702028275, -0.08542180806398392, -0.04630493372678757, 0.011190331541001797, -0.008544997312128544, -0.011874554678797722, -0.1549793928861618, -0.10860279947519302, 0.0816461443901062, 0.04435974732041359, 0.005842867307364941, 0.041053980588912964, -0.06155673786997795, -0.17254841327667236, -0.01486316416412592, -0.05515936389565468, 0.13848216831684113, 0.01606924831867218, -0.07072236388921738, 0.1658955216407776, 0.010938148945569992, 0.03140731900930405, 0.007591784931719303, 0.04649998992681503, -0.05095290765166283, 0.035809021443128586, -0.09436183422803879, 0.07087554782629013, -0.0467369370162487, 0.011340834200382233, 0.24358755350112915, 0.01448720134794712, 0.05386022478342056, 0.16319353878498077, -0.04335617646574974, 0.05222602188587189, 0.05060012638568878, -0.0481436662375927, -0.011263571679592133, -0.027488136664032936, -0.058424051851034164, -0.03341756761074066, 0.06360786408185959, 0.006475500296801329, 0.13638901710510254, -0.034267064183950424, -0.10162295401096344, -0.10954440385103226, -0.042984895408153534, 0.08036171644926071, 0.0035662720911204815, 0.08595939725637436, 0.20616674423217773, 0.04455913230776787, -0.19849368929862976, 0.09788116812705994, -0.06605689972639084, 0.11124107241630554, 0.058001816272735596, 0.04957274720072746, -0.0028846797067672014, 0.036222077906131744, 0.08296006917953491, -0.033865608274936676, -0.05682937428355217, -0.11753889173269272, -0.0430181547999382, 0.0615384578704834, 0.0019313791999593377, 0.03492822125554085, 0.06925814598798752, 0.11020917445421219, -0.0045334333553910255, 0.08079593628644943, -0.014427537098526955, 0.08590719848871231, -0.0561286099255085, -0.06968693435192108, -7.653087959624827e-05, 0.07182834297418594, -0.012270060367882252, 0.00078562245471403, -0.049028608947992325, 0.023662682622671127, 0.06202467903494835, 0.07487653940916061, 0.03962916508316994, 0.014132808893918991, -0.049326833337545395, -0.09018353372812271, 0.0765361338853836, -0.07360494881868362, -0.09124516695737839, 0.006937442813068628, 0.15409156680107117, 0.0184757299721241, -0.15962372720241547, -0.21176104247570038, -0.0744009017944336, 0.04698469117283821, -0.21285149455070496, -0.025368399918079376, 0.022405268624424934, -0.018801584839820862, -0.014479170553386211, 0.13748881220817566, -0.022414185106754303, 0.043235279619693756, -0.10979108512401581, -0.11006414145231247, 0.06834704428911209, 0.09253771603107452, -0.06369636207818985, 0.006203886121511459, -0.2031203657388687, 0.05384828522801399, 0.06901571899652481, -0.03969857096672058, -0.11236756294965744, 0.08463693410158157, -0.07155384868383408, 0.016450535506010056, -0.12415964901447296, -0.010992174036800861, 0.10045983642339706, -0.11619702726602554, 0.09749161452054977, 0.06996509432792664, -0.10773038119077682, 0.021194089204072952, 0.05071113631129265, -0.09244764596223831, -0.08545248955488205, -0.10129300504922867, -0.03501360863447189, 0.09530647844076157, -0.029858343303203583, 0.029642410576343536, -0.034950487315654755, -0.027971025556325912, 0.03395092487335205, -0.09345168620347977, -0.08053385466337204, -0.012633385136723518, 0.055010899901390076, 0.19218535721302032, 0.007998373359441757, -0.03234155476093292, 0.019425014033913612, 0.0567137785255909, 0.030492333695292473, 0.027423769235610962, -0.01022068690508604, -0.19920992851257324, -0.03248129412531853, -0.10229271650314331, 0.0531962551176548, -0.014000073075294495, 0.08465514332056046, 0.06463133543729782, 0.10200861096382141, 0.02521413378417492, 0.01670081540942192, -0.013626891188323498, 0.0945352241396904, -0.07167285680770874, -0.14889027178287506, 0.05237627401947975, 0.031178021803498268, -0.0010998020879924297, -0.09482447057962418, -0.055772505700588226, -0.0947166308760643, 0.06765998899936676, -0.039968449622392654, 0.0050775641575455666, -0.08019891381263733, -0.05523854121565819, 0.032364726066589355, 0.004969851113855839, -0.0639403909444809, 0.08722099661827087, 0.006996811833232641, 0.11556588858366013, 0.02896156907081604, 0.06828004866838455, -0.0296188797801733, 0.07023561745882034, 0.03383460268378258, 0.07314880937337875, 0.015694018453359604, -0.003184845205396414, 0.07104303687810898, -0.09438052773475647, 0.08675473183393478, 0.03078390657901764, 0.02567802369594574, -0.07941106706857681, 0.13267572224140167, 0.14910249412059784, -0.046393491327762604, 0.12906385958194733, -0.011555924080312252, 0.1396167129278183, 0.20327851176261902, -0.08926475793123245, -0.1323200911283493, 0.13575489819049835, 0.034873101860284805, 0.10655590891838074, 0.12565620243549347, 0.010524686425924301, -0.05866183340549469, 0.01255637314170599, 0.0835242047905922, 0.16526831686496735, -0.09633898735046387, -0.08280007541179657, 0.053641874343156815, -0.07381117343902588, 0.06530763953924179, 0.00894042570143938, 0.08883176743984222, -0.052130039781332016, -0.07677881419658661, -0.04664464667439461, -0.08515190333127975, -0.07798578590154648, -0.12793610990047455, 0.07060328125953674, 0.02380692958831787, 0.1072961613535881, 0.07957303524017334, 0.161355659365654, -0.08567614108324051, -0.05175101384520531, 0.015573669224977493, -0.12445876747369766, -0.07124828547239304, 0.008576443418860435, -0.22211796045303345, 0.07700778543949127, -0.009223422966897488, 0.15051576495170593, 0.03854083642363548, 0.010003384202718735, -0.06090104579925537, 0.08470823615789413], [0.1042780876159668, 0.0059741041623055935, 0.11287254095077515, 0.0390031673014164, 0.16981695592403412, 0.18412022292613983, 0.03671148791909218, 0.12861576676368713, 0.029926851391792297, 0.036239974200725555, -0.08748537302017212, 0.20246252417564392, -0.04177932068705559, 0.0008047946612350643, -0.048559658229351044, 0.19904623925685883, 0.1803886443376541, 0.08356107026338577, -0.10221230238676071, 0.04203568026423454, 0.04985775798559189, 0.03881591185927391, -0.021752191707491875, 0.06786824762821198, 0.01050570048391819, 0.11584886908531189, -0.020998643711209297, 0.01686694845557213, 0.09173445403575897, -0.09813433885574341, -0.11404280364513397, 0.15569059550762177, -0.06236929073929787, 0.1887175291776657, 0.006402490194886923, 0.2414318472146988, 0.1570507138967514, -0.05008462443947792, 0.157832533121109, 0.007272847928106785, 0.0497165247797966, 0.006520829163491726, 0.07043386995792389, 0.03153935447335243, 0.12381357699632645, -0.13439834117889404, 0.07197541743516922, 0.007471214979887009, 0.0431167408823967, 0.12958088517189026, 0.00508252764120698, 0.0003571998968254775, 0.014353056438267231, 0.08435703068971634, 0.11439500004053116, 0.09904656559228897, -0.02904120273888111, 0.042634520679712296, -0.08054979145526886, 0.018296290189027786, 0.1395106315612793, 0.010392976924777031, 0.1791732758283615, 0.11283964663743973, 0.0008174170507118106, 0.08751075714826584, 0.11189458519220352, -0.00646086735650897, 0.23946097493171692, -0.153778076171875, 0.02982475981116295, 0.21657872200012207, 0.03485190495848656, 0.11947810649871826, 0.0033502099104225636, -0.014206312596797943, 0.015963083133101463, 0.07760214805603027, 0.13990427553653717, 0.02593986503779888, 0.17948371171951294, 0.008828312158584595, -0.019591225311160088, -0.0800909623503685, 0.23834186792373657, -0.04652687534689903, -0.003003347897902131, 0.048758018761873245, 0.05610591173171997, -0.010789072141051292, 0.14162223041057587, 0.08979091048240662, -0.12902899086475372, -0.11216484755277634, 0.052915725857019424, -0.00664796307682991, -0.02053329534828663, -0.009253657422959805, -0.053825296461582184, -0.013280830346047878, 0.022574860602617264, 0.23068606853485107, 0.14102594554424286, 0.10370702296495438, 0.07685384154319763, 0.2983703315258026, -0.02828582189977169, 0.08771505951881409, 0.09802915155887604, 0.06920298933982849, 0.19324266910552979, 0.047921616584062576, 0.278270959854126, 0.20099596679210663, 0.23977522552013397, -0.13861268758773804, -0.10042165964841843, -0.009864955209195614, 0.04703526198863983, 0.03920229896903038, 0.14863604307174683, 0.09143006801605225, 0.07408270984888077, -0.005654340144246817, 0.15958581864833832, 0.13528691232204437, -0.04623470827937126, -0.03118009865283966, -0.0554199293255806, -0.05223562940955162, -0.022540664300322533, 0.08008153736591339, 0.07601156830787659, 0.11365162581205368, -0.04713624343276024, -0.09253498911857605, -0.18451134860515594, 0.02446635626256466, -0.046281348913908005, -0.02924339286983013, 0.027762776240706444, 0.024419672787189484, 0.08079984039068222, -0.13878080248832703, -0.008765102364122868, -0.12401125580072403, 0.010475700721144676, 0.0004084387037437409, 0.003934855572879314, 0.0854305699467659, -0.053867630660533905, 0.01706439070403576, 0.08216720074415207, -0.15409260988235474, 0.08334878087043762, -0.05636974796652794, -0.10710414499044418, 0.015981929376721382, -0.09152251482009888, 0.05220919847488403, 0.14222048223018646, -0.16045509278774261, -0.10966978222131729, -0.040121279656887054, -0.20799537003040314, -0.1152057945728302, -0.0474630668759346, 0.02499585598707199, 0.12379410117864609, -0.09842289984226227, -0.03965163230895996, 0.13445228338241577, 0.13360153138637543, 0.11715487390756607, -0.03637569025158882, 0.013476116582751274, -0.043743278831243515, -0.01767853833734989, -0.10250403732061386, -0.1845509111881256, 0.04413529857993126, -0.024000098928809166, -0.21837763488292694, 0.07883703708648682, 0.02879355475306511, -0.10044988244771957, 0.07342574000358582, 0.015945129096508026, -0.08939017355442047, -0.03508315607905388, -0.18913087248802185, -0.08299921452999115, 0.025316810235381126, 0.014136489480733871, 0.14171728491783142, 0.09750548005104065, 0.10762786865234375, -0.13151542842388153, 0.1052641049027443, -0.11652622371912003, -0.11670039594173431, -0.10736192762851715, 0.04098495841026306, -0.062463607639074326, -0.02742716670036316, 0.005690780468285084, -0.14642363786697388, 0.028196940198540688, -0.11636435985565186, -0.08174658566713333, -0.019218163564801216, -0.0682215467095375, 0.22311393916606903, 0.1085229218006134, 0.13547253608703613, -0.11454969644546509, 0.3308875560760498, -0.06482218950986862, -0.23460520803928375, 0.013529096730053425, 0.14381977915763855, -0.04538058117032051, 0.029329046607017517, 0.04830458387732506, -0.01975223980844021, 0.16132132709026337, 0.10463479906320572, -0.1345631331205368, -0.06918487697839737, 0.016595182940363884, -0.10612700134515762, -0.0856810137629509, 0.07391391694545746, 0.09893947094678879, 0.12690487504005432, 0.0913253128528595, -0.0676308274269104, 0.11175643652677536, -0.12490644305944443, -0.01667816750705242, 0.06467736512422562, 0.0043908897787332535, 0.09564196318387985, -0.0661146342754364, 0.13426053524017334, -0.03465517982840538, 0.1580599844455719, -0.13789716362953186, 0.08883707225322723, 0.12699897587299347, -0.15638789534568787, 0.0029730554670095444, -0.12495236843824387, -0.12828941643238068, -0.10912532359361649, 0.09125100821256638, -0.09987226873636246, -0.04520675912499428, -0.06436890363693237, -0.03074764274060726, -0.09147914499044418, 0.03754272311925888, 0.09160836786031723, -0.19759944081306458, 0.0006125305080786347, -0.04028094559907913, -0.02242901921272278, -0.06178055331110954, -0.17401781678199768, 0.004211835563182831, -0.06829390674829483, -0.0650373324751854, -0.133542001247406, -0.023026708513498306, -0.10597766935825348, 0.0968087762594223, 0.029236026108264923, -0.024807443842291832, -0.13086333870887756, -0.06440337002277374, -0.0881279855966568, -0.15584774315357208, -0.09788817167282104, -0.006873865146189928, -0.09829387813806534, 0.026485631242394447, -0.09212101250886917, -0.1278773844242096, 0.010100046172738075, 0.03648412227630615, -0.12645681202411652, 0.07899612188339233, 0.032233573496341705, -0.08183670789003372, -0.013546820729970932, -0.1526220589876175, -0.17635035514831543, -0.2256723940372467, -0.052819110453128815, -0.14618293941020966, 0.14158156514167786, -0.02833981066942215, -0.11447326093912125, -0.0642712265253067, 0.013183788396418095, -0.08349943906068802, -0.06642770022153854, -0.05503420531749725, -0.04574936255812645, -0.06768268346786499, 0.004406753461807966, 0.0696212649345398, -0.07926147431135178, 0.09401319921016693, -0.06297969073057175, 0.08930497616529465, -0.2222759872674942, -0.07597938925027847, 0.005148821510374546, 0.13487239181995392, 0.0006510367384180427, -0.07931618392467499, -0.1146385446190834, 0.09515508264303207, 0.06616098433732986, -0.11723440140485764, -0.10553371161222458, -0.14440038800239563, -0.2148636132478714, -0.06372983753681183, 0.029100757092237473, -0.06969162821769714, -0.005700177978724241, -0.0033477297984063625, 0.005524916108697653, 0.020756248384714127, -0.1133648157119751, -0.09124985337257385, -0.04131203889846802, -0.0016549361171200871, 0.06619460880756378, -0.07855767756700516, -0.10242050886154175, -0.04415476322174072, 0.034697942435741425, -0.026338107883930206, 0.05585495010018349, -0.10943042486906052, -0.03346221148967743, -0.01154782623052597, -0.14919783174991608, 0.0022523507941514254, -0.09199918061494827, -0.10241100192070007, -0.1029694676399231, -0.030527876690030098, -0.0335172601044178, 0.053277596831321716, -0.06291653215885162, -0.06715189665555954, -0.03276284784078598, 0.0650450736284256, 0.09596405923366547, -0.043167825788259506, 0.03848655894398689, 0.04111252725124359, 0.0558328814804554, 0.04203522950410843, -0.09582839906215668, -0.09184668213129044, 0.05874194577336311, 0.05333999916911125, -0.07665114849805832, -0.0669051855802536, -0.1059085801243782, 0.006892180535942316, 0.05750226229429245, -0.088642418384552, 0.0713401511311531, -0.08714339137077332, -0.1423196643590927, -0.04550645872950554, -0.011695457622408867, -0.01976405456662178, -0.026361888274550438, -0.05057303234934807, -0.049926310777664185, -0.028950205072760582, 0.03449716046452522, 0.038608815521001816, 0.10763348639011383, 0.10337494313716888, -0.13048049807548523, -0.095291368663311, -0.014226600527763367, 0.09185712039470673, 0.03081819973886013, -0.024244045838713646, -0.05384209379553795, 0.011942748911678791, 0.15709702670574188, 0.04310714453458786, -0.019835088402032852, -0.06650707870721817, 0.04364139586687088, -0.039654266089200974, -0.01383231021463871, -0.015361360274255276, -0.007894651032984257, -0.06557027250528336, -0.04461384937167168, -0.03379247710108757, -0.019935227930545807, -0.005634722299873829, -0.025157736614346504, -0.04397984594106674, -0.09678810834884644, 0.037758514285087585, -0.002988566178828478, 0.07163024693727493, 0.09158502519130707, -0.01946737989783287, 0.08310253918170929, -0.09140351414680481, -0.07523545622825623, -0.07135027647018433, -0.008346112444996834, 0.045069340616464615, 0.07767784595489502, -0.0027191282715648413, -0.024233829230070114, 0.05375567078590393, -0.11376672238111496, -0.0728655755519867, -0.09303543716669083, 0.10407906025648117, -0.04971960559487343, -0.034110177308321, 0.10397421568632126, 0.057558994740247726, -0.011664149351418018, 0.10454235970973969, 0.04195659980177879, 0.015331580303609371, 0.16587190330028534, 0.08007743209600449, 0.07540499418973923, 0.170518696308136, -0.13662633299827576, -0.1436753273010254, -0.07838890701532364, 0.05622826889157295, 0.13888995349407196, -0.14527079463005066, -0.04393237829208374, 0.074774369597435, 0.04193172976374626, 0.05825001001358032, -0.062388066202402115, -0.05539727956056595, -0.039172735065221786, -0.09367446601390839, 0.24202114343643188, 0.08292591571807861, 0.31926751136779785, -0.08636409789323807, 0.02875659614801407, -0.017226170748472214, 0.13945089280605316, -0.02764207310974598, 0.163584902882576, 0.20039576292037964, 0.060705289244651794, -0.08275692164897919, 0.004455354064702988, -0.03980298712849617, -0.1217942088842392, -0.05098162218928337, 0.1406860649585724, -0.0802415981888771, 0.03298303857445717, -0.07083763182163239, -0.01081282738596201, 0.07753782719373703, -0.01476841140538454, 0.11007913947105408, -0.09788741171360016, -0.11834266781806946, -0.046105507761240005, 0.16780026257038116, -0.04078066721558571, -0.02819618210196495, -0.02442704327404499, 0.0295333880931139, 0.11549790948629379, -0.034564655274152756, 0.20126666128635406, 0.1281859576702118, 0.21345095336437225, -0.05065763741731644, -0.011415364220738411, 0.018906159326434135, 0.0920855775475502, 0.048603251576423645, 0.04954838007688522, -0.09823520481586456, 0.017012007534503937, -0.034317415207624435, 0.012655092403292656, 0.06920633465051651, -0.028945697471499443, 0.02100241556763649], [-0.03803691267967224, -0.1310621201992035, 0.15679103136062622, -0.1344144195318222, 0.07010803371667862, -0.034032270312309265, 0.07460219413042068, -0.21838515996932983, -0.08739406615495682, -0.05065854638814926, 0.057504065334796906, 0.0273475032299757, 0.22156016528606415, -0.1034400686621666, 0.053399231284856796, 0.1061701700091362, -0.21355323493480682, -0.10647109150886536, 