'use strict';

function assert(exp) {
  if (!exp)
    throw new Error('Assertion failure');
}
assert.strictEqual = (a, b) => {
  if (a !== b)
    throw new Error('Assert equal failure');
};

const weights = {"haggle/lstm/kernel:0": [[0.36126041412353516, 0.709068775177002, 0.08550112694501877, 0.6791170835494995, -0.30579113960266113, -0.36508360505104065, 0.1764141470193863, 0.6290082931518555, 0.16331470012664795, 0.03128905966877937, -0.5429031252861023, -0.23387987911701202, -0.22737915813922882, -0.06187130883336067, -0.1229621171951294, 0.23799195885658264, 0.11854720115661621, -0.24683985114097595, 0.3629296123981476, -0.04447699710726738, -0.6527325510978699, 0.16193810105323792, -0.5193917751312256, -0.6424174904823303, -0.6489945650100708, -0.2308638095855713, -0.6391646862030029, -0.009180137887597084, 0.09259164333343506, -0.06102560833096504, 0.4606320559978485, -0.24420231580734253, 0.1505400687456131, -0.4685344696044922, -0.267825722694397, 0.9944877028465271, -0.16658233106136322, 0.6737077832221985, -0.09171249717473984, -0.4278302788734436, -0.1004905253648758, 0.0023425440303981304, 0.04150543361902237, 0.05715443193912506, -0.32185518741607666, 0.3716641962528229, 0.23979902267456055, -1.034022569656372, 1.3296995162963867, 0.12187894433736801, -0.11281443387269974, -0.0459730364382267, 0.005074761807918549, 0.2955922782421112, -0.650759756565094, -0.19573700428009033, 1.4665472507476807, 0.1938776671886444, 0.37024033069610596, 0.02217996120452881, -0.40452608466148376, -0.37484559416770935, 0.24675609171390533, 0.15430974960327148, 0.6313959360122681, 0.5572375059127808, 0.7197437286376953, 0.43525639176368713, 0.06478652358055115, -0.11796069890260696, 0.22928543388843536, 0.6966460347175598, 0.6235268712043762, -0.024343017488718033, 0.013819100335240364, -0.6694481372833252, -0.13075394928455353, 0.46705034375190735, 0.2861521542072296, -0.10046941041946411, -0.4954340159893036, 0.3164229691028595, -0.36987289786338806, 0.13124921917915344, -0.589863121509552, 1.2085387706756592, 0.039995450526475906, -0.7254313230514526, -0.7187226414680481, 0.19800834357738495, 0.31472545862197876, -0.07984935492277145, -0.147018700838089, 0.09527631103992462, 0.445857435464859, 0.4784950911998749, 0.7287067770957947, -0.1494562178850174, -0.021254640072584152, 0.5265100598335266, -0.3948570489883423, -0.3921221196651459, 0.17534026503562927, -0.05361010134220123, 0.11910002678632736, -0.10068390518426895, -0.9858242273330688, -0.24004091322422028, -0.5079318881034851, -0.020836295560002327, -0.01899794302880764, -0.2906092405319214, -0.5251542925834656, 0.21023806929588318, -0.5097340941429138, -0.07546254247426987, -0.5235785841941833, -1.1354700326919556, -0.09882334619760513, -0.4234795570373535, -0.3785155117511749, 0.2907077372074127, -0.1021638959646225, 0.122871533036232, 0.031164422631263733, 0.1323370486497879, 0.3173116445541382, -0.6285187602043152], [0.9708507061004639, 0.765954852104187, 0.619650661945343, -0.29641193151474, -0.19919699430465698, 0.07358097285032272, -0.591754674911499, 0.028131047263741493, -0.08896417170763016, 0.6095659732818604, -0.3194187581539154, -1.269404649734497, 0.1159045398235321, 0.42920342087745667, -0.3172805607318878, 0.10171139985322952, -0.06571464240550995, 0.0005097968387417495, 0.06796874850988388, -0.21768291294574738, -0.17451857030391693, 0.34708526730537415, -0.5523176193237305, 0.3228255808353424, 0.24567562341690063, -0.04138350859284401, 0.09637356549501419, -0.12269565463066101, 0.20217810571193695, -0.027048176154494286, 0.050842445343732834, 1.3333343267440796, -0.2621344327926636, 0.6269896626472473, -0.8731092810630798, 0.06627510488033295, 0.11118591576814651, 0.3190003037452698, 1.2375893592834473, -0.07992648333311081, 0.39036497473716736, -0.10989730805158615, -2.258657455444336, 0.12354342639446259, -0.6892033219337463, 0.24907667934894562, 0.1491306871175766, -0.1466178297996521, 0.21041573584079742, -0.855712890625, -0.6550825834274292, 0.08448152244091034, -0.10074514895677567, 0.04830842465162277, 0.03866911679506302, 0.5181575417518616, -0.1185261607170105, -0.005199612118303776, -0.05806863680481911, -0.1284330040216446, -0.3921888470649719, -0.3920041024684906, 0.25669366121292114, 0.11204035580158234, 0.5072477459907532, -0.04749676585197449, 0.36222711205482483, 0.026260225102305412, -0.5448963642120361, 0.24354100227355957, -0.02581905387341976, 0.007012966554611921, 0.23033908009529114, -0.5370070934295654, -0.21739299595355988, -0.5800591111183167, -0.004448284860700369, 0.15738220512866974, -0.028823640197515488, 0.11562938243150711, -0.36409786343574524, -0.03542204573750496, 0.15236814320087433, -0.413007527589798, -1.7631322145462036, 0.0068009900860488415, -0.17920638620853424, -0.09720651060342789, -0.08468227088451385, 0.15647320449352264, 0.40130478143692017, -0.45718926191329956, 0.2621283531188965, 0.23745901882648468, 0.27862945199012756, 0.378265917301178, -0.33293864130973816, -0.28569674491882324, -0.2558388411998749, -0.0630289763212204, -0.6169351935386658, 0.36985066533088684, -0.04842344671487808, -0.1002502590417862, 1.276281476020813, -0.06346271932125092, -0.3808906078338623, -0.38813289999961853, -0.5005322694778442, -0.7733893394470215, 0.1812477558851242, 0.17807769775390625, -0.20316863059997559, 0.2690013647079468, -0.14060018956661224, 0.25864243507385254, -1.4968863725662231, -0.10045094043016434, -1.152340054512024, 0.5107143521308899, 0.47617611289024353, -0.5282102227210999, -0.21306312084197998, -0.871673047542572, 0.136919766664505, -0.07656596601009369, -0.5979695320129395, -0.08410783112049103], [0.9135016202926636, 0.1152968779206276, 0.6833860874176025, -0.7332999110221863, 0.27386537194252014, 0.6371566653251648, -1.0390114784240723, 0.09308668226003647, 1.698452353477478, -0.0980711504817009, -0.031298283487558365, 0.41553792357444763, -0.25419074296951294, 0.3637683093547821, -1.3804376125335693, 0.4739958345890045, -0.6807896494865417, -1.6827139854431152, -0.8027797341346741, -0.6126810908317566, -0.33827051520347595, -0.004694375675171614, -0.49525004625320435, 0.1112736240029335, 0.21679824590682983, -0.5723132491111755, -0.17849107086658478, -0.15877297520637512, 0.10423404723405838, -0.32041898369789124, 0.5315425395965576, 1.7640856504440308, -0.34814080595970154, 0.5761910676956177, -1.0085887908935547, -0.0856296569108963, -0.07591202855110168, -1.0935043096542358, 0.7417849898338318, -0.4013179838657379, 0.4429377615451813, -0.4677421748638153, -0.0377289280295372, 0.04491385817527771, -0.4650796055793762, -0.3827781081199646, 0.011211843229830265, -0.003983347676694393, 0.16969460248947144, -0.49065569043159485, -1.052885890007019, -1.742128610610962, -1.1388741731643677, 0.11455438286066055, 0.04614344984292984, 0.30601370334625244, -0.36306145787239075, -0.18569502234458923, 0.616362988948822, 0.2938220798969269, 0.5064845085144043, 0.626835286617279, -0.6836761236190796, 0.49686309695243835, 0.604332685470581, -0.16667668521404266, 0.5072580575942993, -0.018336094915866852, 0.46507298946380615, 0.8899355530738831, -1.54941725730896, 0.34588220715522766, -0.2407728135585785, -0.22926203906536102, -0.19621098041534424, -0.08078078180551529, -0.9841539263725281, 0.11850755661725998, -2.017754554748535, 0.1725422590970993, 0.30653804540634155, -1.71930992603302, -0.35874760150909424, -1.1633139848709106, 0.2253946214914322, 0.12823867797851562, -1.0581605434417725, -0.2917107045650482, -0.558225154876709, -0.5699003338813782, -0.028458964079618454, -0.040618523955345154, -0.12108700722455978, -0.15406867861747742, -0.6660576462745667, 0.42456889152526855, -0.465809166431427, -0.38377147912979126, -0.08610060065984726, -0.04927578940987587, 0.2835412323474884, -0.6738736033439636, -1.0854923725128174, -1.0394645929336548, 0.012589306570589542, 0.5407257080078125, 0.6582279801368713, 0.06796213239431381, -0.90198814868927, 0.06095947325229645, -1.4408230781555176, -0.0650106891989708, -0.19194607436656952, -1.893235683441162, -1.0105317831039429, -0.6168802976608276, -0.043300602585077286, -2.0487020015716553, -0.34772390127182007, 0.09816274791955948, 0.28463661670684814, -0.9776958227157593, 0.2624514102935791, 0.13349570333957672, 0.2285245954990387, -0.1047685444355011, -0.36430490016937256, -0.002114766277372837], [0.8909703493118286, 0.7215514779090881, 0.020893633365631104, 0.043551255017519, -0.3956716060638428, 0.17340300977230072, 0.8479943871498108, 0.3039705157279968, -0.512458860874176, -0.7619021534919739, -0.43659117817878723, -0.12981759011745453, 0.23743882775306702, 0.3538043797016144, -0.287494033575058, -0.24475182592868805, -0.22071702778339386, -0.5086932182312012, 0.40899497270584106, -0.2885739803314209, 0.9177937507629395, 0.35103246569633484, -1.1548688411712646, -0.1205691546201706, -0.3447728157043457, 0.6056337952613831, -0.33533209562301636, 0.5285195112228394, -0.014001449570059776, -1.1009962558746338, 0.3159865438938141, 1.5211360454559326, -0.4053378999233246, 0.7622587084770203, -0.38441482186317444, 0.5991527438163757, -0.48078832030296326, 0.48664653301239014, 0.584282398223877, 0.220010906457901, 2.8913347721099854, 0.5370051860809326, -0.16050952672958374, -0.7640711665153503, -0.11861267685890198, 0.2196684032678604, 0.04195103049278259, 0.6768800020217896, 0.4608825147151947, -0.25868868827819824, -0.37471386790275574, 0.0854174792766571, 0.017620228230953217, -0.03933398798108101, 0.004947034176439047, 0.15628165006637573, 0.03807186707854271, 0.36999574303627014, -0.37151432037353516, 0.40360572934150696, 0.16061937808990479, 0.08816452324390411, 0.2316262573003769, 0.09221785515546799, 0.4255863130092621, 0.6021906137466431, 0.5630331635475159, 0.03665918484330177, -1.3285746574401855, -0.09298344701528549, 0.21816563606262207, -0.5319721698760986, -0.954935610294342, -0.33533886075019836, -0.012471653521060944, 0.3440254330635071, 0.2166767716407776, 0.47909456491470337, -0.8395695090293884, -1.0810681581497192, -0.21577148139476776, -0.24812543392181396, 0.3679770529270172, -0.10897050052881241, 0.22651860117912292, 0.6713485717773438, -1.3501170873641968, 0.08495447039604187, -0.7118105888366699, 0.15472061932086945, 0.18295873701572418, 0.6081404685974121, -0.3106808066368103, -0.21683229506015778, -0.005406980402767658, 0.4051385819911957, -0.7304285168647766, -0.283149778842926, -0.1255558580160141, -0.3138909935951233, -0.9420067071914673, 0.24853767454624176, 0.12318119406700134, -0.40416085720062256, -0.5289109349250793, -0.3081652522087097, -0.3057310879230499, 0.37649911642074585, 0.024713674560189247, -0.901409387588501, -0.7970150709152222, -0.20913855731487274, 0.25665271282196045, -0.08176881074905396, 0.5277184844017029, 0.311568945646286, 0.44884470105171204, -0.1589002013206482, -0.16546420753002167, 0.0831398293375969, -0.21194788813591003, 0.20192497968673706, 0.1741551160812378, -0.1656576246023178, 0.1647224724292755, -0.22133392095565796, -0.4432680606842041, -0.44224637746810913], [-0.04066665470600128, -0.11972947418689728, 0.08802065253257751, 0.16001930832862854, 0.14428678154945374, 0.003799915313720703, 0.04176001250743866, 0.07321038842201233, 0.11918440461158752, -0.1577579826116562, 0.020220667123794556, -0.10455092042684555, -0.0206679105758667, 0.14935582876205444, 0.012679651379585266, 0.028970152139663696, 0.02675512433052063, 0.0713529884815216, -0.15055197477340698, 0.00724560022354126, 0.09897223114967346, 0.010473325848579407, -0.04674689471721649, -0.121249720454216, -0.17268070578575134, 0.07289639115333557, 0.06676433980464935, 0.08065599203109741, 0.003434106707572937, 0.13164430856704712, 0.05718208849430084, -0.04688215255737305, 0.151730477809906, -0.08255165070295334, -0.10056274384260178, -0.14045490324497223, 0.10511821508407593, -0.08051799237728119, -0.04993779957294464, 0.024245694279670715, -0.05252942442893982, -0.10326512157917023, 0.1520790159702301, 0.00133456289768219, 0.13957780599594116, -0.05729664862155914, -0.1336475908756256, -0.019025638699531555, -0.11705127358436584, 0.15786004066467285, -0.08580739051103592, -0.03230343759059906, -0.09690573811531067, -0.06760305911302567, -0.1309100091457367, 0.1393183469772339, -0.10501401126384735, -0.1657048761844635, 0.10428723692893982, -0.07075551897287369, -0.050965577363967896, 0.1701379418373108, 0.15285754203796387, -0.10217032581567764, 0.1523914933204651, 0.13392096757888794, -0.15178118646144867, 0.09319543838500977, -0.06208141893148422, -0.11815696954727173, -0.09663144499063492, 0.05433017015457153, -0.1486574113368988, -0.14762718975543976, -0.04075458645820618, 0.07627204060554504, 0.027638375759124756, 0.16868945956230164, -0.09045152366161346, 0.14931058883666992, -0.08854720741510391, -0.09864871203899384, -0.01917967200279236, 0.048342347145080566, 0.11941364407539368, 0.14464053511619568, 0.0981711745262146, -0.09998525679111481, -0.00604461133480072, 0.12176069617271423, 0.1500953733921051, -0.14373722672462463, -0.02308747172355652, -0.05844063311815262, 0.09891673922538757, 0.04244495928287506, -0.025676637887954712, -0.08143915235996246, -0.03483673930168152, -0.13419106602668762, 0.03951103985309601, -0.17333637177944183, 0.15923064947128296, -0.027151405811309814, 0.020928889513015747, 0.02673286199569702, -0.03400428593158722, 0.04298478364944458, -0.12151644378900528, 0.0706183910369873, 0.029202193021774292, 0.10019388794898987, 0.0014845728874206543, -0.07563325017690659, -0.1136627197265625, -0.011899039149284363, -0.15038488805294037, 0.016679435968399048, 0.17629414796829224, -0.0738220289349556, -0.11321893334388733, 0.05762012302875519, 0.0034040510654449463, 0.09274789690971375, -0.10296860337257385, 0.03267635405063629, -0.16827723383903503, -0.15475815534591675], [0.15720787644386292, -0.031398624181747437, 0.14852362871170044, 0.04093122482299805, -0.13090549409389496, -0.019559338688850403, 0.15968814492225647, 0.09644022583961487, 0.08939287066459656, -0.007417842745780945, 0.05865094065666199, 0.15461626648902893, -0.16868294775485992, 9.499490261077881e-05, 0.1125359833240509, -0.09768909215927124, 0.035844579339027405, -0.06609634310007095, -0.0322110652923584, 0.08041125535964966, 0.16689398884773254, -0.14829950034618378, -0.08540953695774078, 0.16160467267036438, -0.14340084791183472, -0.06923798471689224, 0.07302442193031311, 0.1757943332195282, 0.15784046053886414, -0.04155801236629486, 0.05357803404331207, 0.151052325963974, -0.15538820624351501, -0.020215928554534912, 0.13438299298286438, -0.08625505864620209, 0.14268743991851807, -0.16680115461349487, -0.16194501519203186, -0.06501954793930054, -0.001061752438545227, 0.08045715093612671, 0.06363411247730255, 0.10601186752319336, 0.07157200574874878, 0.12640684843063354, 0.09687995910644531, -0.16676980257034302, 0.1412268579006195, 0.1103450357913971, -0.12198664247989655, -0.06867588311433792, 0.11766627430915833, -0.009959936141967773, -0.09657426923513412, 0.06100499629974365, 0.08755636215209961, -0.11148551106452942, -0.12667788565158844, 0.06311705708503723, -0.05858266353607178, -0.03338250517845154, 0.16498348116874695, 0.1372205913066864, 0.07967588305473328, -0.045790448784828186, 0.059009283781051636, 0.081387460231781, 0.0644548237323761, -0.024884536862373352, -0.0964464396238327, -0.1459347903728485, 0.12008243799209595, -0.10219994932413101, 0.11373046040534973, -0.12157323956489563, 0.16655763983726501, -0.101641945540905, -0.13798925280570984, 0.023232027888298035, 0.06255680322647095, 0.15095213055610657, 0.0992116630077362, 0.1347464919090271, 0.16055506467819214, -0.09996983408927917, 0.08501100540161133, 0.10442405939102173, -0.06065803021192551, -0.05480445921421051, -0.16998814046382904, 0.1648201048374176, 0.13446113467216492, 0.14719265699386597, -0.015606701374053955, 0.013164624571800232, -0.12216825783252716, 0.05158121883869171, -0.05113561451435089, -0.11436101794242859, -0.093633733689785, -0.10753295570611954, 0.06076700985431671, -0.01301148533821106, 0.027320951223373413, -0.01751174032688141, 0.17199674248695374, 0.16190555691719055, 0.0720711499452591, 0.16636624932289124, -0.1385045349597931, 0.0003234297037124634, -0.16151568293571472, 0.05941478908061981, 0.00018998980522155762, -0.003175869584083557, -0.03477969765663147, -0.0788244977593422, -0.01887461543083191, -0.02271096408367157, -0.09962763637304306, -0.13073021173477173, -0.12873128056526184, -0.0017054080963134766, 0.009582072496414185, 0.03443931043148041, -0.024343639612197876, 0.14668071269989014], [0.14227938652038574, 0.03209125995635986, 0.13794094324111938, -0.060187965631484985, 0.04787887632846832, 0.16443777084350586, -0.07763086259365082, 0.07126167416572571, -0.10668376088142395, 0.006940931081771851, -0.03481096029281616, -0.12044045329093933, -0.13083259761333466, -0.05859478563070297, 0.1542883813381195, -0.14137205481529236, -0.12611210346221924, 0.07550004124641418, -0.03771086037158966, -0.050297826528549194, -0.046379923820495605, -0.07163839042186737, -0.05449479818344116, 0.10377711057662964, 0.15593856573104858, 0.02782253921031952, -0.02499951422214508, 0.16184386610984802, 0.1341962218284607, 0.09173038601875305, 0.031791746616363525, -0.15348857641220093, -0.02363985776901245, 0.06696869432926178, -0.14018864929676056, -0.0813615694642067, 0.10266119241714478, -0.12412640452384949, 0.15171027183532715, -0.09331663697957993, 0.155413419008255, 0.14635032415390015, -0.15957291424274445, 0.017618432641029358, 0.09904325008392334, 0.0662585198879242, -0.14003926515579224, -0.087485671043396, -0.07525023072957993, -0.14963673055171967, -0.0992734357714653, -0.16089387238025665, -0.14596666395664215, -0.13269418478012085, -0.1282869577407837, -0.09564132243394852, 0.026180773973464966, 0.00166243314743042, -0.1047668531537056, -0.03433772921562195, -0.0014018714427947998, 0.09510001540184021, 0.10849976539611816, 0.05555650591850281, 0.17127934098243713, 0.003735780715942383, 0.10957223176956177, 0.17000043392181396, -0.12966583669185638, -0.07865973562002182, 0.05999654531478882, 0.10103049874305725, 0.15193843841552734, -0.13157962262630463, 0.018642202019691467, 0.14589717984199524, -0.022275254130363464, -0.05919022858142853, 0.040816664695739746, -0.1452178657054901, 0.09763672947883606, 0.04065321385860443, -0.07893216609954834, -0.06123188138008118, 0.07919132709503174, 0.16462719440460205, -0.10792413353919983, 0.16164007782936096, -0.10454627126455307, -0.03301773965358734, -0.045342639088630676, 0.11392474174499512, 0.057214751839637756, 0.11303174495697021, 0.1649317741394043, 0.04079337418079376, 0.03496676683425903, 0.17665806412696838, 0.0534401535987854, -0.005616381764411926, -0.13615402579307556, 0.06734436750411987, -0.04875122010707855, -0.13854674994945526, 0.1442764699459076, 0.15697816014289856, -0.012620821595191956, -0.12688972055912018, -0.16644145548343658, 0.04134263098239899, 0.09866693615913391, -0.1385190188884735, 0.028989717364311218, -0.15762634575366974, 0.13998830318450928, 0.1722002923488617, -0.12433173507452011, 0.14936107397079468, 0.008980631828308105, 0.11674904823303223, 0.014224737882614136, 0.11951068043708801, -0.12395399808883667, -0.0496811717748642, -0.03238533437252045, 0.08392411470413208, 0.07752612233161926, 0.027033686637878418], [-0.12493178248405457, -0.11334291845560074, -0.05602792650461197, 0.02035382390022278, 0.0028062909841537476, -0.06104941666126251, 0.017336666584014893, -0.09553690254688263, 0.06251011788845062, -0.015659436583518982, 0.12161391973495483, -0.1271430104970932, -0.09574252367019653, 0.05347698926925659, 0.044904857873916626, -0.1751498281955719, -0.01508978009223938, 0.03559465706348419, 0.13444337248802185, -0.02729293704032898, -0.16997258365154266, -0.14302408695220947, 0.12573999166488647, 0.09987425804138184, -0.04995441436767578, 0.1760808825492859, -0.005927518010139465, -0.14964962005615234, -0.06002649664878845, -0.017602458596229553, 0.009994134306907654, -0.13125233352184296, 0.11494192481040955, -0.13399232923984528, 0.06662873923778534, 0.16412362456321716, 0.023568347096443176, 0.17234113812446594, -0.08196838200092316, -0.05538984388113022, -0.038465648889541626, 0.12027513980865479, 0.09075009822845459, -0.15767481923103333, -0.04179605841636658, -0.059021882712841034, -0.05348379909992218, -0.06552350521087646, -0.07755213975906372, 0.07251594960689545, 0.040660351514816284, -0.03556951880455017, 0.16994401812553406, -0.03350083529949188, -0.010756060481071472, 0.10405325889587402, 0.07216520607471466, -0.06594295054674149, 0.03916694223880768, 0.12630313634872437, -0.025035902857780457, -0.05137716233730316, -0.04281085729598999, -0.16156330704689026, 0.14240816235542297, -0.07965024560689926, -0.15244251489639282, 0.056060925126075745, 0.011161386966705322, -0.10194235295057297, 0.04331083595752716, -0.033585548400878906, 0.0690733939409256, 0.17495304346084595, 0.156854510307312, 0.0808255672454834, 0.1683560311794281, 0.08503332734107971, -0.14224034547805786, -0.15262767672538757, 0.043116748332977295, 0.12535294890403748, 0.04323858022689819, 0.11570248007774353, 0.05273720622062683, -0.11624027043581009, 0.0670977532863617, 0.01279158890247345, 0.12619370222091675, -0.0783877745270729, 0.00346297025680542, -0.06901414692401886, 0.0371738076210022, -0.043721914291381836, 0.12340819835662842, 0.05088330805301666, -0.06993924081325531, -0.07340621948242188, 0.039169564843177795, -0.10905154794454575, 0.13061335682868958, 0.02466568350791931, -0.07842221111059189, -0.06049424409866333, -0.1378968358039856, 0.08103784918785095, 0.11818292737007141, -0.17179851233959198, -0.13834518194198608, -0.10113727301359177, 0.14402934908866882, 0.125995934009552, -0.05646397918462753, -0.15389546751976013, -0.02756524085998535, 0.16520488262176514, -0.13239678740501404, 0.09903836250305176, -0.12529641389846802, -0.024631112813949585, 0.11436140537261963, -0.10595343261957169, -0.11822851002216339, 0.1379583179950714, 0.16356292366981506, 0.04554370045661926, -0.11190085858106613, 0.00433938205242157], [-0.12156660109758377, -0.09026706963777542, 0.12949541211128235, 0.018462643027305603, 0.1268429458141327, 0.04639214277267456, 0.1713477075099945, 0.11275765299797058, -0.16849984228610992, 0.17394676804542542, 0.09677731990814209, -0.1340707540512085, 0.16337570548057556, -0.14050506055355072, 0.1426488161087036, -0.1721721887588501, -0.04449467360973358, 0.12839943170547485, -0.05092863738536835, -0.08997798711061478, -0.04738970100879669, 0.06080998480319977, -0.1504323035478592, 0.07664409279823303, 0.11841985583305359, -0.002908676862716675, -0.08467963337898254, 0.1265285611152649, -0.01080748438835144, 0.1653653085231781, 0.10129880905151367, -0.08856026828289032, 0.0364946573972702, -0.07803057134151459, -0.12176470458507538, 0.031476765871047974, 0.01804053783416748, -0.1171383187174797, 0.04161688685417175, -0.001116141676902771, 0.0251246839761734, -0.054114192724227905, -0.11528230458498001, -0.14284923672676086, 0.05390337109565735, -0.05135872960090637, 0.0014159083366394043, 0.046592697501182556, -0.17456406354904175, -0.15663723647594452, 0.08957743644714355, -0.1407141089439392, 0.09953573346138, -0.10688579082489014, -0.12718315422534943, -0.027981340885162354, -0.11093097180128098, 0.030376091599464417, 0.0019967257976531982, 0.08285239338874817, -0.004350483417510986, -0.1761523336172104, -0.07101333141326904, -0.09606613218784332, 0.17668059468269348, -0.017988398671150208, 0.016770586371421814, 0.05146805942058563, 0.1318301260471344, -0.10922370105981827, -0.004944413900375366, 0.13914412260055542, -0.0642591342329979, 0.08091717958450317, 0.00678648054599762, -0.08580759912729263, 0.13453292846679688, -0.08257480710744858, -0.09753748029470444, -0.011619329452514648, -0.16711710393428802, 0.09707409143447876, 0.13569507002830505, -0.13020876049995422, -0.05689554661512375, -0.17000310122966766, 0.1112501323223114, 0.035001203417778015, 0.09656792879104614, -0.11334169656038284, -0.14808234572410583, 0.1395554542541504, 0.04161591827869415, 0.14624765515327454, 0.17315414547920227, 0.11236885190010071, 0.13053059577941895, 0.07412314414978027, 0.020481348037719727, -0.13786251842975616, 0.16846176981925964, 0.07057301700115204, 0.08806103467941284, 0.1388375163078308, 0.14328104257583618, -0.05650627613067627, -0.035390302538871765, -0.05580633133649826, -0.10335483402013779, -0.1499233990907669, -0.02123872935771942, -0.04132971167564392, -0.029658392071723938, 0.14662399888038635, -0.11221106350421906, 0.05785331130027771, -0.049212127923965454, 0.15374478697776794, -0.09047425538301468, 0.15143117308616638, -0.138565331697464, 0.060413017868995667, -0.05677118897438049, 0.0804952085018158, 0.1660643219947815, -0.041783541440963745, -0.014603018760681152, 0.0605139285326004], [-0.15936894714832306, -0.06874729692935944, 0.12023112177848816, 0.04760964214801788, -0.13540227711200714, -0.007068842649459839, -0.007816284894943237, -0.12675391137599945, 0.07816135883331299, 0.05118966102600098, 0.10374000668525696, -0.0793515294790268, -0.0383785218000412, -0.03515709936618805, 0.13511130213737488, -0.10715526342391968, -0.11632601171731949, 0.07201917469501495, 0.14459550380706787, -0.15826168656349182, 0.10629919171333313, -0.14732417464256287, 0.1771278977394104, -0.028099581599235535, 0.08626261353492737, -0.04205724596977234, 0.0762445330619812, 0.07319658994674683, 0.097479909658432, 0.029556140303611755, -0.10736270248889923, -0.16662345826625824, 0.06024399399757385, 0.08503741025924683, -0.17620182037353516, 0.0757259726524353, 0.11145126819610596, 0.16241124272346497, -0.16823036968708038, 0.013363286852836609, -0.04894682765007019, -0.16196365654468536, -0.004324242472648621, 0.09038138389587402, -0.03312753140926361, -0.04086610674858093, -0.17032045125961304, 0.13831907510757446, -0.048907071352005005, 0.017193451523780823, -0.010443657636642456, 0.04364687204360962, -0.1626695990562439, -0.16212080419063568, 0.12550407648086548, 0.14288082718849182, -0.06675605475902557, 0.009747982025146484, 0.07917946577072144, -0.14342397451400757, -0.10672267526388168, 0.14549988508224487, 0.14471474289894104, -0.00884220004081726, -0.10044552385807037, -0.10882027447223663, 0.056608036160469055, 0.13853448629379272, -0.04303047060966492, -0.07329030334949493, -0.07972457259893417, 0.13137784600257874, -0.17163333296775818, 0.17211052775382996, -0.11909215897321701, -0.053028352558612823, 0.0495389848947525, 0.04429428279399872, 0.030225738883018494, 0.17326927185058594, 0.02650567889213562, -0.06458480656147003, 0.1315765380859375, 0.0797145664691925, 0.08807939291000366, 0.15512815117835999, -0.05428359657526016, 0.15523120760917664, 0.13256284594535828, -0.11368034034967422, -0.16911205649375916, -0.016776472330093384, 0.09840092062950134, -0.16253547370433807, 0.019327014684677124, -0.10344129055738449, 0.17142263054847717, 0.09305104613304138, 0.13410684466362, 0.03923417627811432, -0.0899227187037468, -0.022608697414398193, 0.16101735830307007, -0.036870360374450684, -0.12165487557649612, 0.1751757264137268, 0.0004779696464538574, 0.12246480584144592, 0.17023196816444397, 0.0762198269367218, 0.10298457741737366, -0.03911876678466797, 0.06004311144351959, -0.0031470507383346558, 0.03341817855834961, 0.04060414433479309, 0.03821206092834473, -0.09938343614339828, -0.02144920825958252, -0.07918190956115723, -0.09038335829973221, 0.06128875911235809, 0.010369792580604553, -0.007074922323226929, 0.06119118630886078, -0.08493955433368683, 0.06730040907859802, -0.096744105219841], [0.1701677143573761, -0.11680068075656891, 0.06153629720211029, 0.1463964283466339, -0.14582324028015137, 0.04404821991920471, 0.11922675371170044, -0.09860163927078247, -0.16577070951461792, 0.04636180400848389, 0.08440318703651428, 0.13617220520973206, -0.03590035438537598, -0.1296207457780838, -0.040591225028038025, -0.005988284945487976, 0.16765859723091125, -0.16681374609470367, -0.12475244700908661, 0.06594450771808624, 0.16994383931159973, 0.11388254165649414, 0.13148784637451172, 0.12003743648529053, 0.07119423151016235, 0.17187675833702087, 0.03635804355144501, -0.05089309811592102, -0.027938202023506165, 0.0608072429895401, -0.15210124850273132, 0.17403656244277954, 0.06626901030540466, 0.16091027855873108, 0.007828205823898315, -0.11920841038227081, 0.07809263467788696, 0.03184722363948822, -0.12259763479232788, 0.06417803466320038, -0.023215383291244507, 0.029597297310829163, -0.1600649207830429, 0.09928366541862488, 0.05459059774875641, 0.16832539439201355, 0.13875052332878113, 0.1658361852169037, -0.16131466627120972, 0.1751682162284851, -0.040467485785484314, -0.09682121872901917, 0.018062099814414978, 0.030193880200386047, 0.13836073875427246, 0.03368659317493439, 0.06066238880157471, 0.08678415417671204, -0.14765727519989014, 0.13411492109298706, 0.14590594172477722, -0.08515401184558868, 0.03625640273094177, -0.14476127922534943, -0.16940274834632874, -0.004849836230278015, -0.17631997168064117, -0.1715504229068756, -0.0012440532445907593, -0.03273935616016388, -0.05885209143161774, 0.08815869688987732, -0.12970779836177826, -0.03826083242893219, 0.13112777471542358, -0.14787831902503967, -0.13925936818122864, 0.08214333653450012, 0.07413801550865173, -0.14999261498451233, 0.09489640593528748, 0.06669420003890991, 0.011903896927833557, 0.14019417762756348, -0.14781418442726135, -0.05322210490703583, -0.10320980846881866, -0.1711256504058838, 0.08034050464630127, -0.12455184757709503, 0.052369147539138794, 0.059859663248062134, 0.1523303985595703, -0.14676937460899353, -0.16882294416427612, 0.119566410779953, 0.051423728466033936, 0.10512217879295349, 0.049218833446502686, 0.053583741188049316, 0.009275466203689575, -0.023511648178100586, -6.841123104095459e-05, -0.028625965118408203, 0.07513576745986938, -0.17591600120067596, -0.15696844458580017, 0.1411794126033783, -0.05182880163192749, -0.018924981355667114, -0.1628008484840393, -0.1712045520544052, 0.049215495586395264, -0.14848341047763824, -0.05683567374944687, 0.04369106888771057, -0.050809770822525024, -0.07557797431945801, -0.10624166578054428, 0.11101889610290527, 0.08688777685165405, 0.06481857597827911, -1.1771917343139648e-06, 0.020595058798789978, 0.06621605157852173, 0.06291227042675018, -0.08056046068668365, -0.034627944231033325], [0.2696811258792877, 0.47325077652931213, 0.13432522118091583, -0.05147041752934456, 0.14652930200099945, 0.13343757390975952, 0.7645776271820068, 0.17248409986495972, 0.40279290080070496, 0.19746316969394684, 0.5075145363807678, -0.13060855865478516, 0.16760709881782532, 0.6854134202003479, -0.07690262794494629, -0.15260820090770721, -0.15359781682491302, 0.1859964281320572, -0.15769034624099731, -0.40918004512786865, 0.5423150658607483, 0.8937234282493591, -0.039485812187194824, -0.3990570306777954, -0.36079737544059753, 0.2188846617937088, -0.6818580031394958, 0.8188677430152893, 0.05321771651506424, -0.0992402583360672, 0.5558418035507202, -0.0597577765583992, 0.05451193079352379, -0.05510265380144119, 0.010473084636032581, 0.03804534673690796, -0.04889397323131561, -0.11324695497751236, -0.015014351345598698, -0.34677019715309143, 0.2578050196170807, 0.03584163263440132, 0.023335006088018417, 0.3182869851589203, -0.31166794896125793, 0.530645489692688, 0.480755090713501, 0.017474472522735596, -0.053481392562389374, -0.05115290731191635, -0.16476324200630188, -0.22459876537322998, 0.24344348907470703, 0.761212170124054, -0.7817333936691284, 0.49382203817367554, -0.16783148050308228, 0.2071361243724823, -0.04189150780439377, 0.6455442309379578, -0.3658607602119446, -0.03969404846429825, 0.6384845972061157, -0.33756494522094727, -0.15238480269908905, 0.07998726516962051, 0.5963913202285767, -0.30596157908439636, -0.12400568276643753, 0.09899243712425232, -0.3238476514816284, 0.11741974949836731, -0.1716374158859253, -0.47312700748443604, -0.28120675683021545, -0.2828366756439209, 0.09185276925563812, -0.14018335938453674, -0.025799019262194633, -0.13971571624279022, -0.5148075819015503, -0.3732748031616211, -0.6309610605239868, -0.7006207704544067, 0.049596503376960754, 0.8188064098358154, -0.45325160026550293, 0.18414635956287384, -0.5920737981796265, 0.0955752357840538, 0.4689423441886902, -0.2304353564977646, 0.46109768748283386, 0.1981658786535263, 0.19040653109550476, 0.5759036540985107, -0.21979986131191254, -0.30972906947135925, 0.23454459011554718, -0.03715799003839493, 0.0314163938164711, -0.0877552330493927, -0.31408435106277466, -0.34344398975372314, -0.11592160910367966, -0.157386913895607, 0.3941095471382141, 0.21856652200222015, -0.11746222525835037, -0.19659706950187683, -0.021422449499368668, -0.27361130714416504, 0.5385819673538208, 0.2256644368171692, -0.05995207652449608, -0.3389226794242859, 0.010944245383143425, -0.20200838148593903, -0.2642023265361786, -0.24058817327022552, -0.3593749403953552, -0.45189204812049866, 0.13343842327594757, -0.18904490768909454, 0.27124878764152527, -0.28352615237236023, -0.22701874375343323, -0.13333293795585632], [0.4323555827140808, 0.3218386471271515, 0.4018857181072235, -0.14061206579208374, -0.01086023636162281, 0.49543264508247375, -0.4787757694721222, -0.042905889451503754, -0.32264330983161926, 0.007192922290414572, -0.052162934094667435, -0.0082926694303751, 0.07548651099205017, 0.5073786377906799, 0.018957138061523438, 0.35640522837638855, 0.3260021507740021, 0.11187084019184113, -0.34142714738845825, 0.35378479957580566, 0.36259377002716064, 0.8831564784049988, -0.2722592055797577, 0.04912509024143219, 0.14657524228096008, 0.6465625166893005, -0.22912727296352386, -0.22996169328689575, 0.3551805913448334, -0.26297518610954285, 0.2024087756872177, 0.00557042146101594, -0.2950138747692108, -0.023187315091490746, -0.04600706696510315, -0.1032533049583435, -0.8022087216377258, 0.016366157680749893, -0.1733161360025406, -0.3971529006958008, 0.15662966668605804, -0.15421132743358612, -0.17936840653419495, -0.26275503635406494, -0.44565004110336304, 0.11146623641252518, 0.5165188908576965, -0.017500318586826324, -0.059269633144140244, 0.3645070493221283, 0.2682020962238312, -0.06266531348228455, -0.12597259879112244, 0.6398385763168335, -0.37152203917503357, 0.047195110470056534, -0.008422249928116798, 0.38897302746772766, 0.16841042041778564, 0.45011240243911743, 0.025528449565172195, -0.06370721012353897, -0.11611940711736679, -0.13486875593662262, -0.03879649192094803, 0.07512631267309189, 0.7196329236030579, -0.0970597043633461, -0.4346975088119507, -0.5498629212379456, -0.4130067229270935, 0.09983377903699875, -0.5419354438781738, -0.5245510339736938, -0.6200152039527893, -0.846041202545166, -0.1492830216884613, -0.012647243216633797, -0.0872778594493866, -0.373501181602478, -0.28962254524230957, 0.20237351953983307, -0.39695900678634644, -0.22360694408416748, -0.19883322715759277, 0.7465727925300598, -0.31624743342399597, -0.6444031596183777, -0.1499571055173874, 0.2714594602584839, -0.05515128746628761, -0.2940082550048828, -0.22194191813468933, -0.1138874962925911, -0.43073415756225586, 0.48705747723579407, -0.05685040354728699, -0.4186728298664093, -0.6437374949455261, 0.21491527557373047, -0.07429030537605286, -0.06749363243579865, -0.11593548953533173, -0.15628516674041748, 0.26013267040252686, 0.35343798995018005, -0.14172105491161346, -0.11132454127073288, -0.4116252362728119, -0.2710791230201721, 0.07814948260784149, -0.20011545717716217, -0.19959017634391785, -0.008291437290608883, -0.05689876899123192, 0.254496693611145, 0.2963065505027771, 0.0957767516374588, 0.22272145748138428, -0.2044394463300705, 0.12893904745578766, 0.02466396987438202, 0.157595694065094, -0.2384994626045227, -0.01978989876806736, -0.36320725083351135, 0.09683725982904434, -0.2801602780818939], [0.4967291057109833, 0.6565450429916382, 0.11393243074417114, 0.3600931167602539, 0.10665495693683624, 0.02299386076629162, 0.0977335199713707, 0.02003377303481102, 0.525033175945282, -0.14536292850971222, -0.3711932599544525, 0.24992090463638306, -0.4338109791278839, 0.8483995199203491, 0.49205130338668823, 0.16403652727603912, 0.2058776319026947, -0.18929259479045868, -0.0009824782609939575, -0.3949321210384369, -0.1093592420220375, 0.6735005378723145, -0.05590658634901047, 0.14819927513599396, 0.3472454845905304, -0.10171155631542206, -0.5151205062866211, 0.32753944396972656, -0.21517862379550934, -0.3341258764266968, 1.0554062128067017, 0.24276016652584076, -0.35452404618263245, 0.05410783365368843, 0.20411479473114014, -0.04935671016573906, -0.29317519068717957, -0.042201004922389984, 0.1852523237466812, 0.13969749212265015, -0.0997437983751297, 0.5003828406333923, 0.000712999957613647, -0.10564050078392029, -0.12344169616699219, 0.2691343128681183, 0.4116120934486389, -0.00028337002731859684, 0.0237068310379982, 0.32879748940467834, -0.1953994631767273, -0.073863185942173, -0.14412921667099, 0.17625120282173157, -0.6129857897758484, 0.11447114497423172, -0.09132307767868042, 0.36583128571510315, 0.024109307676553726, -0.0009511880925856531, -0.10605143755674362, -0.02403615042567253, 0.6163271069526672, -0.18552730977535248, 0.9079630970954895, -0.0166790634393692, 0.7173563241958618, -0.0929546132683754, -0.15448938310146332, 0.10162711143493652, -0.15886159241199493, -0.41498637199401855, -0.03183376416563988, -0.03801194578409195, -0.18380671739578247, -0.03875141963362694, -0.1724351942539215, 0.3396404981613159, -0.1235305517911911, -0.10530594736337662, -0.17060713469982147, -0.12612798810005188, -0.02575313299894333, -0.4450955092906952, -0.05126473307609558, 0.41126906871795654, -0.10145321488380432, -0.3674132227897644, -0.42724260687828064, 0.008999023586511612, -0.11009255796670914, 0.31862378120422363, -0.11918103694915771, 0.03442438319325447, 0.23099501430988312, 0.5135321021080017, -0.09624740481376648, -0.41116806864738464, -0.4754493832588196, -0.020440146327018738, 0.02397243306040764, -0.2848583161830902, 0.11448793858289719, -0.028420429676771164, 0.4645736515522003, -0.01757693663239479, -0.045998815447092056, -0.10097482055425644, -0.18074418604373932, -0.02686210162937641, -0.02773291990160942, 0.1497935801744461, -0.05687365308403969, -0.049348581582307816, 0.05506955832242966, -0.2959921658039093, -0.07647207379341125, -0.23574510216712952, 0.49464768171310425, 0.007706209551542997, 0.1020500659942627, -0.3499947786331177, -0.2266896814107895, -0.11153261363506317, 0.3242587447166443, -0.22790342569351196, -0.14920343458652496, -0.469109445810318], [-0.11075032502412796, -0.1037086546421051, -0.01599821448326111, -0.003275856375694275, -0.10825023055076599, -0.13151204586029053, -0.07493507862091064, 0.0727468878030777, 0.11227297782897949, 0.15008127689361572, 0.042524561285972595, -0.14089645445346832, -0.0030274242162704468, 0.02525731921195984, -0.09289630502462387, 0.1310240626335144, -0.09823733568191528, -0.1736798733472824, 0.11871159076690674, -0.05469091236591339, 0.0037617236375808716, 0.07931303977966309, 0.12659913301467896, -0.09850435703992844, -0.005680739879608154, -0.11821266263723373, 0.10970708727836609, -0.037225574254989624, -0.13284775614738464, 0.166147381067276, -0.13087785243988037, -0.15142744779586792, 0.08103129267692566, -0.1372133195400238, -0.028849005699157715, 0.06573115289211273, 0.15433865785598755, -0.0300016850233078, 0.05999751389026642, 0.06601063907146454, 0.06344018876552582, -0.15163983404636383, -0.08278714865446091, -0.12851133942604065, -0.16529317200183868, 0.06540682911872864, 0.12057846784591675, -0.04218532145023346, -0.11272550374269485, -0.12384974956512451, 0.10247758030891418, 0.10190701484680176, -0.030228957533836365, -0.10973108559846878, -0.10157843679189682, 0.14885810017585754, 0.15181389451026917, 0.17272508144378662, 0.12010708451271057, -0.06500395387411118, 0.04560379683971405, 0.1284080445766449, -0.17050139605998993, -0.05547283589839935, 0.05918431282043457, 0.11257833242416382, 0.04923853278160095, 0.10350412130355835, -0.1764724850654602, 0.10144975781440735, 0.08726948499679565, 0.09218734502792358, -0.08865741640329361, 0.08174094557762146, -0.06627026945352554, -0.049612924456596375, -0.03576935827732086, 0.04949626326560974, 0.06283113360404968, 0.09169486165046692, -0.1714155375957489, 0.15125393867492676, -0.004466235637664795, -0.15125727653503418, -0.01788271963596344, 0.04099857807159424, -0.1528657078742981, -0.061297252774238586, -0.1377941071987152, -0.004553273320198059, -0.061563216149806976, -0.012246757745742798, 0.037872314453125, -0.04549996554851532, -0.10882872343063354, -0.1340467482805252, -0.11769069731235504, -0.06836554408073425, 0.13867127895355225, -0.09280160814523697, 0.02747282385826111, -0.01353040337562561, -0.03462131321430206, 0.04931455850601196, 0.0181540846824646, -0.1758376955986023, 0.03943362832069397, -0.15905514359474182, -0.1772208958864212, -0.06171724200248718, -0.1740480214357376, -0.11227259039878845, -0.11613606661558151, 0.09048265218734741, -0.09973163157701492, 0.08411601185798645, -0.08584073185920715, -0.11053882539272308, 0.131820946931839, -0.05553905665874481, -0.16613920032978058, 0.020257607102394104, 0.11631971597671509, 0.11553293466567993, -0.023450717329978943, -0.1331189125776291, -0.039081886410713196, -0.09194699674844742], [-0.16619789600372314, 0.13767844438552856, 0.05796608328819275, 0.16249233484268188, -0.17016349732875824, 0.028657615184783936, 0.16915008425712585, 0.031675487756729126, 0.1411660611629486, 0.10791948437690735, 0.06552624702453613, 0.049964383244514465, 0.11010026931762695, 0.15404441952705383, 0.03470523655414581, 0.001653820276260376, 0.04097259044647217, -0.027628079056739807, -0.10327176004648209, 0.08575844764709473, 0.003621011972427368, 0.16025465726852417, 0.09932786226272583, -0.04228399693965912, 0.07207964360713959, 0.0796930193901062, 0.04754757881164551, -0.08366415649652481, 0.020622611045837402, 0.1432531774044037, 0.17009276151657104, 0.12186741828918457, -0.13240793347358704, -0.08059253543615341, -0.05505035072565079, -0.14086660742759705, -0.02344377338886261, -0.03499533236026764, -0.08551957458257675, -0.10428837686777115, 0.07928162813186646, 0.02079734206199646, -0.08467938005924225, 0.07451879978179932, -0.05444332957267761, -0.09840535372495651, 0.034690991044044495, -0.15097302198410034, 0.15820983052253723, -0.11491699516773224, 0.06334219872951508, -0.0631086453795433, 0.05151626467704773, -0.01546083390712738, -0.13567306101322174, 0.13779625296592712, 0.058432310819625854, 0.04841490089893341, -0.06450595706701279, 0.02806927263736725, -0.0024665892124176025, -0.024149015545845032, 0.023618429899215698, 0.010153397917747498, 0.00698968768119812, -0.04650953412055969, -0.03696180880069733, -0.15286917984485626, 0.16407638788223267, -0.06020207703113556, 0.027963757514953613, -0.10741159319877625, 0.14167430996894836, -0.1377367228269577, -0.0646994486451149, -0.12642519176006317, -0.01387166976928711, -0.16128771007061005, 0.11499357223510742, 0.10207080841064453, 0.154301255941391, 0.11084693670272827, -0.09144274890422821, 0.06356188654899597, -0.17162051796913147, 0.05530931055545807, 0.07543286681175232, -0.07592249661684036, 0.01994900405406952, 0.02864190936088562, 0.05023972690105438, -0.13823290169239044, 0.09812155365943909, -0.04288974404335022, 0.00847858190536499, 0.004389315843582153, -0.055669501423835754, 0.11443158984184265, -0.07431550323963165, 0.17267462611198425, -0.02072322368621826, 0.06135907769203186, 0.03685159981250763, 0.17180585861206055, -0.15105187892913818, 0.1567355990409851, 0.13981708884239197, -0.029161036014556885, -0.16920122504234314, 0.08911594748497009, 0.09646144509315491, -0.026640191674232483, 0.0657399445772171, 0.03316175937652588, 0.11307290196418762, -0.06989938765764236, -0.03627099096775055, 0.13264858722686768, -0.1365356147289276, 0.09273070096969604, -0.11137077957391739, 0.06402477622032166, 0.03992651402950287, 0.05169805884361267, 0.10298952460289001, -0.12886494398117065, -0.06651996821165085, 0.06597903370857239], [0.10859718918800354, 0.0055136531591415405, 0.1031603217124939, -0.055453822016716, 0.14532765746116638, -0.012567028403282166, 0.03585036098957062, -0.15980274975299835, 0.06774233281612396, 0.10247191786766052, -0.015548482537269592, -0.07720652222633362, 0.07803142070770264, -0.1288711130619049, 0.17179670929908752, -0.14059101045131683, 0.01994362473487854, 8.016824722290039e-05, -0.13416621088981628, -0.046695128083229065, 0.17079398036003113, 0.08826574683189392, 0.07859626412391663, 0.09855794906616211, -0.17616750299930573, 0.11528569459915161, 0.0020028501749038696, -0.09779828786849976, 0.038129836320877075, -0.14976289868354797, -0.13677647709846497, -0.062154144048690796, 0.08338060975074768, -0.14700499176979065, -0.10797475278377533, 0.11226239800453186, -0.03909832239151001, 0.10427719354629517, 0.03839702904224396, 0.13700297474861145, -0.13575643301010132, -0.13523654639720917, 0.12946656346321106, -0.02123504877090454, -0.09608789533376694, 0.024523571133613586, -0.16794970631599426, -0.15368059277534485, 0.015877440571784973, 0.06105068325996399, -0.07196998596191406, 0.14238592982292175, -0.16355390846729279, -0.041233912110328674, 0.1037416160106659, -0.009637773036956787, -0.01776447892189026, -0.12006893008947372, -0.1510525494813919, -0.17544005811214447, 0.025639116764068604, -0.07896923273801804, -0.16545280814170837, 0.05845373868942261, 0.08164995908737183, -0.1272989809513092, 0.08444759249687195, -0.12417487800121307, 0.17686611413955688, 0.1530628502368927, 0.060321033000946045, 0.058677226305007935, 0.04306693375110626, 0.05481557548046112, 0.02207520604133606, 0.1435566246509552, 0.1231953501701355, 0.020025521516799927, -0.1372498869895935, 0.08179685473442078, 0.01242847740650177, 0.15523654222488403, 0.022589385509490967, 0.00909075140953064, -0.0013835728168487549, -0.14843671023845673, -0.07903721928596497, 0.00917750597000122, 0.06591324508190155, 0.09784561395645142, -0.14047260582447052, -0.03883248567581177, -0.011345848441123962, 0.04654832184314728, -0.11161354929208755, -0.06841718405485153, 0.031859442591667175, -0.07281242311000824, -0.07903236150741577, -0.16649191081523895, -0.01218511164188385, 0.10343968868255615, -0.03748054802417755, -0.07853604853153229, 0.13335108757019043, 0.061881452798843384, -0.07190191000699997, -0.17602087557315826, -0.01684783399105072, 0.09452375769615173, 0.036051541566848755, -0.0017311424016952515, 0.0781022310256958, 0.08128559589385986, 0.06097085773944855, 0.17478325963020325, -0.04273940622806549, -0.09434293210506439, 0.1339995563030243, 0.07850849628448486, 0.09965679049491882, 0.14208495616912842, 0.09329643845558167, 0.16414597630500793, -0.09582158923149109, -0.10308041423559189, -0.052244655787944794, 0.14252963662147522], [0.1233096718788147, -0.16832177340984344, -0.14578931033611298, -0.08951865881681442, -0.005952790379524231, 0.12218984961509705, -0.03184342384338379, 0.02410823106765747, -0.05502934753894806, 0.061528608202934265, 0.13836032152175903, -0.0693136677145958, -0.12776008248329163, -0.06845644116401672, -0.03400152921676636, 0.16124337911605835, 0.08470755815505981, -0.07170389592647552, -0.1600530445575714, -0.10614988207817078, 0.06794267892837524, -0.0030864477157592773, 0.1738547682762146, -0.15672314167022705, 0.030021890997886658, 0.05191369354724884, -0.0998176634311676, 0.033572033047676086, -0.016421720385551453, -0.07716485112905502, 0.00390954315662384, 0.11073485016822815, 0.1307016909122467, -0.17348608374595642, -0.140276700258255, 0.17444202303886414, -0.0630962997674942, -0.14778050780296326, 0.0252683162689209, 0.16228607296943665, 0.15997013449668884, 0.031483009457588196, 0.04008662700653076, -0.13786709308624268, 0.10047921538352966, 0.023084133863449097, 0.11648938059806824, 0.02812957763671875, 0.0703764259815216, -0.09515764564275742, 0.16964983940124512, 0.08544376492500305, -0.004431113600730896, 0.09881719946861267, 0.002883240580558777, 0.13179472088813782, 0.007850512862205505, -0.1415540874004364, 0.05381670594215393, 0.02754715085029602, 0.12757238745689392, -0.11728242039680481, -0.10610470920801163, -0.08728764951229095, 0.017621353268623352, 0.14793148636817932, -0.14740833640098572, 0.14952635765075684, -0.14459893107414246, -0.04945209622383118, 0.021721556782722473, -0.10347586125135422, 0.06521117687225342, 0.018095314502716064, -0.02445930242538452, 0.022953391075134277, 0.1185859739780426, 0.08066403865814209, -0.045831769704818726, 0.013910546898841858, 0.018730387091636658, -0.15054166316986084, 0.16713786125183105, -0.1457427442073822, -0.01627098023891449, 0.14071500301361084, 0.14503684639930725, 0.004447728395462036, 0.021694079041481018, -0.11368325352668762, -0.04238930344581604, 0.05845816433429718, 0.11471155285835266, 0.04555845260620117, 0.13517534732818604, 0.05664491653442383, 0.1122540831565857, 0.14890378713607788, 0.16513055562973022, -0.056430935859680176, 0.11027809977531433, 0.13244196772575378, -0.06773413717746735, 0.09720993041992188, -0.17579062283039093, -0.10961225628852844, 0.10497814416885376, -0.10128246247768402, 0.010578155517578125, -0.1623162478208542, 0.09152936935424805, -0.020878225564956665, 0.01399734616279602, -0.06396510452032089, 0.05127286911010742, -0.061164647340774536, -0.10319201648235321, -0.15970104932785034, 0.1562592089176178, 0.026515156030654907, -0.003092452883720398, -0.08768583834171295, -0.106722891330719, 0.08365139365196228, 0.1013454794883728, -0.03153081238269806, 0.08710217475891113, -0.011645108461380005], [0.004585951566696167, 0.13589605689048767, -0.01801970601081848, -0.010527119040489197, -0.11530669033527374, 0.06324264407157898, 0.03407290577888489, 0.15614253282546997, -0.1061745211482048, -0.04840180277824402, 0.09776613116264343, -0.05435306578874588, -0.152793288230896, -0.11787308752536774, -0.009456872940063477, -0.14197197556495667, 0.1071942150592804, 0.06472218036651611, -0.044931232929229736, 0.09406590461730957, -0.12511903047561646, 0.10577830672264099, -0.003394514322280884, -0.05025582015514374, -0.056496262550354004, -0.12709741294384003, -0.01978267729282379, -0.16115319728851318, 0.10898861289024353, -0.13171881437301636, -0.00027492642402648926, 0.1472853422164917, 0.0714227557182312, -0.08716443181037903, 0.10272595286369324, -0.04119540750980377, -0.005263373255729675, -0.07928413152694702, -0.004135355353355408, -0.05214543640613556, -0.007220834493637085, -0.1710270196199417, -0.0727541521191597, 0.08774733543395996, 0.012309223413467407, -0.0884672999382019, -0.016002312302589417, -0.13988354802131653, 0.15217086672782898, 0.03618068993091583, 0.1567036509513855, 0.09963861107826233, -0.08178219199180603, -0.13299164175987244, -0.026552975177764893, 0.017054185271263123, 0.13196322321891785, 0.04144743084907532, 0.1608092188835144, -0.04361487925052643, -0.17520003020763397, -0.16843967139720917, -0.0462031215429306, -0.14378733932971954, 0.004986748099327087, 0.14076140522956848, -0.0320134162902832, -0.061875663697719574, -0.06250022351741791, 0.16334253549575806, -0.1394432783126831, -0.17465800046920776, -0.03903619945049286, 0.03231994807720184, 0.05411727726459503, -0.01905868947505951, 0.04061099886894226, 0.1636238992214203, 0.045744508504867554, -0.13196656107902527, -0.06036772578954697, 0.1120750904083252, 0.1340925097465515, 0.029099464416503906, -0.08295495808124542, 0.15916314721107483, 0.019085735082626343, 0.12652170658111572, 0.09965202212333679, -0.04135924577713013, -0.17575795948505402, 0.049209803342819214, -0.11834467202425003, -0.043079227209091187, 0.16962257027626038, 0.09528964757919312, -0.08181414008140564, 0.005506768822669983, 0.06291836500167847, -0.1730310171842575, 0.10979709029197693, -0.020134717226028442, -0.12518836557865143, -0.10618960857391357, -0.08446982502937317, -0.10881584137678146, -0.02633969485759735, 0.035745516419410706, -0.1671459674835205, -0.17159804701805115, -0.1343434453010559, 0.00023250281810760498, -0.1252732276916504, 0.06409373879432678, -0.11414757370948792, 0.03147578239440918, 0.15265890955924988, -0.03774102032184601, -0.17092175781726837, 0.04466450214385986, -0.0706961452960968, -0.03426271677017212, -0.17558836936950684, -0.14727887511253357, -0.07352542132139206, 0.16472822427749634, -0.0653429850935936, -0.12404155731201172], [0.1586596667766571, -0.17312677204608917, 0.15084511041641235, -0.16669271886348724, -0.17049060761928558, -0.05132631957530975, 0.1101233959197998, -0.0776391476392746, 0.018015533685684204, 0.06969165802001953, 0.09118285775184631, -0.14674004912376404, 0.09906840324401855, -0.10493693500757217, 0.07222767174243927, 0.0610826313495636, -0.0238637775182724, -0.1063554659485817, -0.0521513968706131, -0.010908901691436768, -0.15544360876083374, 0.13136398792266846, 0.1531897783279419, -0.14664682745933533, -0.12487300485372543, -0.10763386636972427, -0.1661333590745926, 0.03230985999107361, -0.15865813195705414, 0.09303587675094604, -0.15435366332530975, 0.04212084412574768, -0.10544905066490173, 0.15336450934410095, 0.12596747279167175, 0.12569639086723328, 0.03431317210197449, 0.03654392063617706, 0.13936159014701843, -0.12897726893424988, -0.04061645269393921, -0.1101909652352333, -0.05489809811115265, -0.048337697982788086, -0.033817291259765625, 0.06817939877510071, -0.05369026958942413, 0.0571916401386261, -0.15595461428165436, -0.11595246195793152, -0.0934935212135315, 0.05331231653690338, 0.15448099374771118, -0.1386626958847046, 0.08233439922332764, 0.1508500874042511, -0.0912628173828125, -0.16538867354393005, 0.06227482855319977, 0.16986393928527832, 0.07199673354625702, 0.021659687161445618, 0.018508031964302063, -0.06931345164775848, -0.08872248977422714, 9.551644325256348e-06, -0.1442473828792572, -0.09308464080095291, 0.08421075344085693, 0.1043158769607544, -0.16133439540863037, -0.037902072072029114, 0.14375746250152588, -0.10654338449239731, -0.16329799592494965, 0.054578378796577454, -0.13798674941062927, 0.02843797206878662, 0.08641314506530762, 0.09852349758148193, 0.143772155046463, 0.044121041893959045, 0.16033387184143066, 0.12243533134460449, 0.1564379632472992, 0.00041957199573516846, 0.044999390840530396, 0.007881492376327515, 0.12623578310012817, -0.14065968990325928, -0.01363934576511383, -0.004218399524688721, -0.06310268491506577, 0.17648693919181824, 0.07763552665710449, -0.13300485908985138, 0.01508571207523346, -0.14890533685684204, 0.024661675095558167, -0.03762871026992798, 0.12521573901176453, 0.05037228763103485, -0.09677000343799591, -0.14987395703792572, -0.09317055344581604, -0.07699189335107803, -0.13824178278446198, 0.13971051573753357, -0.0861549973487854, 0.1348666250705719, 0.10365751385688782, -0.13961584866046906, -0.057456597685813904, 0.15749889612197876, -0.02714744210243225, 0.1597408950328827, -0.11791910231113434, 0.08278706669807434, 0.019318222999572754, -0.019739612936973572, -0.09316429495811462, 0.12189841270446777, -0.0009751170873641968, 0.03720550239086151, -0.10257751494646072, -0.1638980507850647, 0.1455429196357727, -0.08354710042476654], [0.17571887373924255, -0.11853879690170288, -0.14511598646640778, 0.0035146474838256836, -0.16015911102294922, 0.1768369972705841, 0.16483062505722046, -0.14645501971244812, -0.17645113170146942, 0.07296404242515564, 0.12851187586784363, -0.08301284909248352, -0.16326871514320374, 0.01888120174407959, 0.05200265347957611, -0.05487101525068283, -0.0771157518029213, 0.08387818932533264, 0.15415602922439575, 0.006831943988800049, -0.10269414633512497, 0.018901661038398743, 0.009869590401649475, 0.04514873027801514, -0.05791119486093521, -0.17211510241031647, 0.15225869417190552, -0.09206189215183258, 0.10138207674026489, -0.17127680778503418, 0.1450296938419342, -0.035597577691078186, 0.04837922751903534, -0.09690983593463898, 0.15679216384887695, 0.0846613347530365, -0.14860819280147552, -0.09026580303907394, -0.03791910409927368, -0.055545270442962646, -0.0528574213385582, 0.11982560157775879, -0.10869139432907104, 0.025840893387794495, -0.1402401626110077, -0.1040862649679184, -0.028820529580116272, -0.11561959981918335, -0.10450147837400436, 0.039999619126319885, 0.06887076795101166, 0.09697720408439636, -0.13312169909477234, -0.041020214557647705, -0.13543818891048431, -0.022801637649536133, 0.12246376276016235, -0.045623525977134705, 0.17575529217720032, 0.14038556814193726, -0.10267060995101929, 0.06842318177223206, -0.037019819021224976, 0.013521537184715271, -0.1645626276731491, -0.08262243121862411, 0.14654341340065002, 0.08278799057006836, 0.10063666105270386, -0.07563290745019913, -0.04978533089160919, -0.13490499556064606, -0.11939458549022675, -0.07145038992166519, 0.0906093418598175, -0.16029897332191467, 0.0014207661151885986, -0.0038568824529647827, 0.15223634243011475, -0.08733443170785904, 0.04994511604309082, -0.17123019695281982, -0.0005282610654830933, -0.013379380106925964, 0.029477626085281372, 0.010595694184303284, -0.09395627677440643, 0.15304061770439148, 0.03401830792427063, -0.06005261093378067, -0.0034761428833007812, 0.08375188708305359, -0.15780526399612427, 0.10262295603752136, 0.03582023084163666, 0.02622370421886444, 0.16232314705848694, 0.03491905331611633, 0.0024522244930267334, -0.17694981396198273, 0.08661779761314392, 0.16059118509292603, -0.05071161687374115, -0.11158384382724762, 0.0662447065114975, -0.000955730676651001, -0.12716692686080933, 0.08903726935386658, 0.02582201361656189, -0.09993940591812134, -0.12739494442939758, -0.13665372133255005, -0.126538947224617, 0.061220720410346985, 0.14170464873313904, -0.17202618718147278, -0.11447574198246002, 0.1327722668647766, -0.09574560821056366, -0.12672267854213715, 0.11232596635818481, -0.16679468750953674, 0.0009121596813201904, -0.13383854925632477, 0.09102299809455872, -0.07475645840167999, -0.15973374247550964, -0.04428355395793915], [0.47491371631622314, 0.34191378951072693, -0.0016531568253412843, -0.09253890067338943, -0.11033745855093002, 0.28634724020957947, 0.04646015912294388, -0.0830838680267334, 0.10516872256994247, -0.18073007464408875, 0.24575836956501007, 0.069086454808712, -0.1827239692211151, 0.7278730273246765, 0.13728909194469452, -0.2748224139213562, -0.20011864602565765, 0.044066186994314194, 0.06776442378759384, 0.3824250102043152, 0.12021993100643158, 0.9400209188461304, 0.2107628881931305, -0.1832599937915802, -0.23022036254405975, -0.13925936818122864, -0.40673550963401794, 0.20030438899993896, 0.059286411851644516, -0.02471441961824894, 0.5381848812103271, 0.05822303518652916, 0.1765608787536621, 0.005521535873413086, -0.1846286505460739, -0.09889034926891327, -0.5359463691711426, -0.17723816633224487, -0.2938774824142456, 0.09351717680692673, -0.1666755974292755, -0.01131848432123661, 0.47287723422050476, 0.10492493957281113, -0.09227633476257324, 0.12735414505004883, 0.5898451805114746, 0.042714718729257584, -0.1446278691291809, 0.676389753818512, 0.25969478487968445, -0.011229310184717178, 0.1971246600151062, 0.4985901415348053, -0.6057263016700745, 0.04985553398728371, 0.04719251021742821, 0.7640619277954102, 0.009308102540671825, 0.2703246772289276, -0.03824896365404129, 0.31636279821395874, -0.05351545661687851, -0.2530251443386078, 0.2666388154029846, 0.13796016573905945, 0.6252672672271729, -0.3742213249206543, -0.3381739854812622, -0.09543044120073318, -0.363524466753006, 0.0977531298995018, -0.28943827748298645, -0.6125382781028748, -0.5412489771842957, 0.010135759599506855, -0.10127220302820206, 0.07917971909046173, -0.02138344570994377, -0.27439039945602417, -0.18411241471767426, -0.2925948202610016, 0.0729149729013443, -0.5666658878326416, 0.21824584901332855, 0.4139494001865387, 0.07212138175964355, -0.40654534101486206, -0.30689284205436707, -0.1829415261745453, 0.05548056215047836, -0.01545816008001566, 0.006318815518170595, -0.15220879018306732, -0.11434563249349594, 0.46835386753082275, -0.08725028485059738, -0.016032163053750992, 0.09966906160116196, -0.014645145274698734, -0.3890592157840729, -0.30158329010009766, 0.23405490815639496, -0.24134385585784912, 0.07316221296787262, -0.13827544450759888, -0.0044237044639885426, 0.320218950510025, -0.07980580627918243, 0.013950598426163197, -0.17997176945209503, -0.49277520179748535, 0.07591469585895538, -0.19891595840454102, -0.08379247784614563, 0.35208770632743835, 0.6028170585632324, 0.06105664372444153, 0.8796532154083252, -0.05792173370718956, -0.06108565628528595, -0.30570656061172485, -0.15549685060977936, -0.2289758324623108, 0.3490428626537323, -0.267336368560791, 0.28930792212486267, 0.03046092577278614], [0.3360527455806732, 0.403776079416275, 0.5212863683700562, 0.36310192942619324, -0.221282958984375, 0.3449667990207672, 0.02279902994632721, -0.12689583003520966, -0.16869303584098816, -0.08273353427648544, 0.06399627774953842, -0.09852061420679092, 0.04331829026341438, 0.7941762804985046, 0.43643268942832947, 0.26834312081336975, 0.11883218586444855, 0.15683802962303162, 0.15600533783435822, -0.15217497944831848, 0.2321697324514389, 1.005720853805542, 0.2949925363063812, -0.2653725743293762, 0.14795780181884766, 0.11688946932554245, -0.5375298261642456, 0.14672820270061493, 0.06890709698200226, -0.10686534643173218, 0.6840048432350159, -0.09236661344766617, -0.287047803401947, -0.14390413463115692, -0.15603336691856384, -0.09883233159780502, -0.4318317174911499, 0.07996618747711182, -0.19405898451805115, 0.06111522391438484, -0.18212099373340607, 0.0728972852230072, 0.017946209758520126, -0.030491139739751816, -0.6788383722305298, 0.0896352007985115, 0.8045026063919067, 0.023538019508123398, -0.19553998112678528, 0.09476204961538315, 0.22689691185951233, 0.5752414464950562, 0.7966053485870361, 0.5611361265182495, -0.3771357834339142, -0.2719930112361908, 0.08826633542776108, 0.6381612420082092, 0.04533899202942848, 0.12352828681468964, -0.4521610736846924, -0.27487605810165405, 0.6488937735557556, 0.060442231595516205, 0.3023051619529724, -0.058373965322971344, 0.5245354771614075, -0.07414986938238144, 0.02300560101866722, -0.13976702094078064, 0.0952615812420845, -0.12877923250198364, -0.0408838614821434, -0.6048616170883179, -0.13125844299793243, -0.14088229835033417, 0.06028647720813751, -0.2198045253753662, -0.013608722947537899, 0.035560380667448044, -0.3252413272857666, -0.21440862119197845, -0.21683697402477264, -0.6419814825057983, -0.2714870572090149, 0.49037104845046997, 0.043867409229278564, -0.38231518864631653, -0.27878063917160034, 0.15455670654773712, -0.10290492326021194, -0.024429865181446075, 0.013267225585877895, -0.09445714950561523, 0.22222574055194855, 0.49842095375061035, -0.09667651355266571, -0.018299251794815063, -0.05002627149224281, -0.024557095021009445, -0.2485177367925644, -0.28017616271972656, 0.01825479045510292, 0.023652922362089157, -0.02727344073355198, -0.023007381707429886, -0.03214798495173454, 0.23968660831451416, -0.10977020859718323, 0.012025313451886177, -0.06489907950162888, 0.18136268854141235, 0.3141081631183624, 0.14667373895645142, 0.06691993027925491, -0.2846314013004303, -0.10605959594249725, 0.13888806104660034, 0.3536810576915741, -0.10256944596767426, 0.3427421450614929, -0.1438635289669037, -0.01096823625266552, -0.2634100914001465, 0.3329935371875763, -0.2765246331691742, 0.19350464642047882, -0.14653635025024414], [0.6824178695678711, 0.5518843531608582, 0.31569308042526245, -0.1930944174528122, -0.1732964962720871, 0.4731563329696655, -0.4438828229904175, 0.12046553194522858, 0.12332835793495178, 0.22472262382507324, 0.2808348834514618, -0.1630384474992752, 0.44025036692619324, 1.027095913887024, -0.21358537673950195, 0.07280009984970093, -0.08215481787919998, 0.2396877259016037, -0.11283465474843979, -0.04904482141137123, -0.26523885130882263, 0.9253609776496887, 0.49948549270629883, 0.09941979497671127, -0.0197894386947155, 0.6732921600341797, -0.09419954568147659, 0.07008397579193115, 0.016066521406173706, -0.1258489191532135, 0.2301729917526245, 0.15007323026657104, -0.1840432733297348, -0.026204638183116913, -0.297863632440567, -0.3832762837409973, 0.16591998934745789, -0.02537587657570839, -0.3262251913547516, -0.23596976697444916, -0.4153589904308319, 0.10041497647762299, 0.10988329350948334, 0.3708667457103729, -0.08544731885194778, 0.4442698657512665, 0.5243350267410278, 0.1075613722205162, -0.16319401562213898, -0.059030450880527496, 0.1814413070678711, 0.07802397012710571, -0.06121104583144188, 0.4331306517124176, -0.8360052704811096, 0.1526383012533188, -0.24745678901672363, 0.484153151512146, -0.025110017508268356, 0.08644846081733704, -0.08006304502487183, -0.24635927379131317, 0.14802122116088867, -0.36715802550315857, 0.1922408938407898, 0.1037123054265976, 0.5794146060943604, -0.29362136125564575, -0.1959070861339569, 0.02079547382891178, -0.7192206382751465, 0.1772773414850235, -0.9135828614234924, 0.24928030371665955, -0.42225897312164307, -0.17030934989452362, 0.2730830907821655, -0.12274427711963654, -0.08761323243379593, -0.4210864007472992, -0.39780205488204956, -0.4976097345352173, -0.7739402055740356, -0.469645619392395, -0.2852261960506439, 0.5219411253929138, 0.34026122093200684, -0.22847391664981842, -0.3664136528968811, 0.39656224846839905, 0.18222744762897491, -0.17252619564533234, 0.00794311985373497, 0.028165390715003014, -0.37144115567207336, 0.7575998306274414, -0.22670772671699524, -0.2331952303647995, -0.04630650207400322, -0.10662887245416641, -0.29575833678245544, -0.34445998072624207, 0.09228330850601196, 0.174896240234375, -0.07701513916254044, 0.23184528946876526, 0.209317147731781, -0.04451103135943413, -0.14353638887405396, -0.1855192929506302, 0.2751274108886719, -0.3952944874763489, 0.11200772225856781, 0.09844393283128738, -0.4212285578250885, 0.2018270045518875, -0.3190097510814667, 0.031094541773200035, 0.09795525670051575, -0.13894860446453094, 0.22462588548660278, -0.35312986373901367, 0.30352452397346497, -0.2390257716178894, 0.2918526232242584, -0.1842402219772339, 0.08549709618091583, -0.21083559095859528], [-0.10367666184902191, -0.07668726146221161, 0.10527506470680237, 0.10281631350517273, 0.08300170302391052, 0.08588656783103943, 0.09898301959037781, -0.13864368200302124, -0.13629047572612762, 0.03488855063915253, 0.008247345685958862, -0.14281922578811646, -0.0832340195775032, -0.12248243391513824, 0.1283133625984192, -0.11169443279504776, -0.1531810313463211, 0.13935938477516174, 0.1550804078578949, -0.1245424747467041, -0.02471068501472473, 0.1529998779296875, -0.00565744936466217, -0.030368775129318237, 0.026012375950813293, -0.06860176473855972, -0.06584601104259491, -0.031086087226867676, -0.0772726908326149, 0.12061727046966553, 0.13293099403381348, 0.11580026149749756, -0.16012994945049286, 0.0293886661529541, 0.15416303277015686, 0.10996785759925842, 0.06846433877944946, 0.17701980471611023, -0.15466053783893585, 0.10465365648269653, -0.07742025703191757, -0.16337250173091888, -0.1483231633901596, 0.050812527537345886, -0.07807169109582901, -0.10999379307031631, -0.11402726918458939, 0.027816414833068848, 0.0686655342578888, -0.04412069916725159, -0.10924927145242691, 0.09112751483917236, -0.13826370239257812, 0.12994840741157532, 0.0009861886501312256, 0.031114354729652405, 0.08739697933197021, -0.13675175607204437, 0.0841209888458252, -0.012622043490409851, -0.03134961426258087, 0.07132987678050995, -0.04896940290927887, -0.12570838630199432, -0.06072784215211868, 0.06439216434955597, -0.11949296295642853, -0.11513326317071915, 0.06439895927906036, 0.10385435819625854, 0.09333539009094238, -0.07081429660320282, 0.163038969039917, -0.10302738100290298, 0.1742638647556305, -0.05331692844629288, -0.09409111738204956, 0.03329296410083771, 0.08154505491256714, -0.12941935658454895, 0.02255891263484955, -0.1086515411734581, -0.06588425487279892, 0.10966300964355469, 0.07481426000595093, 0.09520986676216125, 0.02546687424182892, 0.1066524088382721, 0.04034523665904999, -0.16836999356746674, 0.12979650497436523, 0.041868358850479126, 0.08266767859458923, 0.020122244954109192, 0.10168957710266113, -0.15167643129825592, 0.020370006561279297, -0.08861853927373886, 0.012644574046134949, 0.12445250153541565, -0.0517091304063797, 0.12085503339767456, 0.05553698539733887, 0.11193203926086426, 0.005668744444847107, 0.08143407106399536, 0.12432527542114258, -0.06341103464365005, 0.003069087862968445, 0.13172295689582825, -0.11497501283884048, 0.1665833592414856, -0.07545137405395508, 0.07459738850593567, -0.08642616122961044, -0.023115098476409912, -0.12293314933776855, 0.047054141759872437, -0.07091318070888519, -0.1439337134361267, 0.13620394468307495, 0.1124216616153717, 0.025484204292297363, 0.08548954129219055, -0.10047464072704315, -0.10157454758882523, 0.10325384140014648, -0.06262974441051483], [-0.09111757576465607, -0.08265404403209686, 0.16072717308998108, -0.016635999083518982, 0.11430630087852478, -0.02291780710220337, 0.04129548370838165, 0.15064683556556702, 0.04615791141986847, 0.17699477076530457, 0.14689171314239502, 0.020937979221343994, 0.14123505353927612, 0.11197715997695923, -0.16616792976856232, 0.15474048256874084, 0.16548818349838257, 0.03429332375526428, 0.051948681473731995, -0.08892388641834259, -0.09805330634117126, -0.1001681461930275, -0.13565725088119507, -0.1146002784371376, 0.17179948091506958, -0.16457480192184448, 0.11907148361206055, -0.14286652207374573, 0.16565003991127014, 0.14825281500816345, -0.15927936136722565, 0.0054358989000320435, -0.04800593852996826, -0.018922999501228333, -0.08688849210739136, 0.07448086142539978, 0.019313499331474304, -0.03319019079208374, -0.1178615465760231, -0.03955879807472229, 0.023222610354423523, 0.14947062730789185, -0.004674181342124939, -0.1310506910085678, 0.11933070421218872, 0.1428990662097931, 0.014527887105941772, -0.06906937807798386, -0.1526985466480255, 0.020847633481025696, 0.12315389513969421, 0.03548428416252136, -0.14524546265602112, 0.10021969676017761, 0.14999008178710938, -0.12799546122550964, -0.02855946123600006, 0.1184188723564148, -0.05518629401922226, -0.09602945297956467, 0.07494208216667175, 0.1758212447166443, 0.16102388501167297, -0.16742609441280365, -0.07525551319122314, -0.034560248255729675, 0.0631767213344574, -0.031517237424850464, 0.16576534509658813, -0.10371245443820953, 0.03353331983089447, -0.08564186841249466, -0.010884150862693787, 0.016623452305793762, 0.021054953336715698, -0.03415846824645996, -0.04436945915222168, 0.1659412980079651, -0.06596813350915909, 0.09305167198181152, 0.04436105489730835, 0.0616772323846817, 0.046206966042518616, 0.020118534564971924, -0.05419929325580597, -0.14858004450798035, -0.04770649969577789, 0.06236805021762848, 0.02393569052219391, -0.08154851198196411, -0.1263013333082199, -0.11093992739915848, -0.16130223870277405, 0.05952012538909912, 0.16164261102676392, -0.05475020408630371, -0.07995859533548355, -0.05323684960603714, -0.0696113258600235, 0.043582603335380554, -0.09835836291313171, -0.15184490382671356, 0.11039668321609497, 0.09891653060913086, 0.0668671578168869, -0.029337793588638306, 0.05645391345024109, -0.011042356491088867, 0.14998432993888855, -0.15047401189804077, 0.0576915442943573, 0.11345896124839783, -0.15405656397342682, 0.14516884088516235, -0.09537066519260406, -0.004796475172042847, 0.08538135886192322, 0.07715260982513428, -0.03589041531085968, -0.0941484197974205, -0.11297549307346344, 0.0841173529624939, -0.031572893261909485, -0.020307466387748718, 0.1123952567577362, -0.03164561092853546, 0.011525139212608337, -0.16602784395217896], [0.03807920217514038, 0.1079079806804657, -0.13284263014793396, -0.0034117549657821655, 0.1276763379573822, 0.04664343595504761, 0.11430773138999939, 0.067167267203331, -0.08110921084880829, -0.002605229616165161, 0.0870257019996643, 0.018185779452323914, -0.03446504473686218, 0.055073171854019165, -0.1736680120229721, -0.04238000512123108, 0.05603882670402527, -0.10735759139060974, 0.13038885593414307, 0.012670725584030151, 0.08056843280792236, 0.01272621750831604, -0.053718455135822296, -0.17717723548412323, 0.010658487677574158, -0.03665122389793396, 0.0054340362548828125, -0.10147752612829208, 0.023211076855659485, 0.102032870054245, -0.10944487899541855, -0.1727602779865265, 0.17089897394180298, 0.00553816556930542, -0.07253056764602661, -0.0938769206404686, 0.11471182107925415, -0.11710400879383087, -0.04719628393650055, -0.026641786098480225, -0.008596092462539673, 0.1133800745010376, 0.13816088438034058, 0.0048227459192276, -0.0795520767569542, -0.06645992398262024, -0.00478874146938324, -0.10373510420322418, 0.01612451672554016, -0.1741538792848587, -0.011926829814910889, -0.03741729259490967, -0.07294198125600815, -0.1344320923089981, 0.13554754853248596, 0.1549273431301117, 0.046795859932899475, 0.1722785234451294, -0.10462651401758194, 0.17109063267707825, -0.14285361766815186, -0.12136177718639374, -0.02134259045124054, -0.17528565227985382, 0.1173848807811737, 0.025983601808547974, 0.029229819774627686, -0.16048093140125275, 0.16313451528549194, 0.1699550449848175, -0.0263558030128479, 0.04902872443199158, 0.12694841623306274, -0.09872958809137344, 0.14203640818595886, -0.09861701726913452, 0.017238840460777283, -0.09354503452777863, -0.11130921542644501, -0.051488712430000305, -0.000919044017791748, 0.009251832962036133, -0.1708013266324997, 0.03563325107097626, -0.063174307346344, -0.05860307067632675, -0.15856200456619263, -0.08104083687067032, 0.12422841787338257, 0.11339303851127625, -0.016088560223579407, -0.13214273750782013, -0.15364108979701996, -0.06841845065355301, 0.11980289220809937, 0.08094775676727295, 0.1114741861820221, 0.14459571242332458, 0.1455577313899994, 0.0719839334487915, 0.029626920819282532, -0.03227393329143524, 0.12155482172966003, -0.16315226256847382, -0.08898947387933731, 0.010253921151161194, 0.024389833211898804, -0.035291463136672974, 0.012952163815498352, 0.03602801263332367, 0.16281673312187195, -0.1031801849603653, 0.05041611194610596, 0.1484699547290802, 0.06234079599380493, 0.003553733229637146, -0.07624107599258423, -0.0006837546825408936, 0.04167139530181885, -0.04096756875514984, -0.13451094925403595, -0.013875007629394531, 0.15504544973373413, 0.10011404752731323, -0.13356472551822662, -0.04435700178146362, 0.043241068720817566, -0.034618571400642395], [0.041093870997428894, 0.17362913489341736, 0.01168428361415863, 0.07513266801834106, 0.002294301986694336, -0.07982438802719116, 0.12873196601867676, 0.12328925728797913, -0.08949960023164749, -0.13161155581474304, 0.14684218168258667, 0.1765865683555603, 0.03681626915931702, 0.06268692016601562, 0.01947520673274994, -0.16927023231983185, 0.08795690536499023, -0.10906046628952026, -0.01467946171760559, 0.06847439706325531, 0.006062492728233337, -0.11466860771179199, 0.11270403861999512, -0.05244816094636917, 0.1617123782634735, -0.12175659090280533, -0.05049741268157959, -0.1195753663778305, -0.172956183552742, 0.08722448348999023, 0.00630246102809906, -0.12828107178211212, 0.06903451681137085, -0.08012111485004425, 0.12703818082809448, 0.15180012583732605, 0.1014067530632019, 0.16041573882102966, -0.17636772990226746, -0.10002138465642929, 0.0597720742225647, 0.10127177834510803, -0.022233620285987854, 0.11468678712844849, 0.1531566083431244, 0.13008156418800354, 0.06580671668052673, 0.09186124801635742, -0.006965652108192444, 0.14783135056495667, -0.021112248301506042, 0.06477230787277222, -0.1266351193189621, -0.06652969121932983, 0.1231975257396698, 0.10151106119155884, -0.13144655525684357, 0.11501157283782959, -0.021061420440673828, 0.10179063677787781, -0.10462655872106552, 0.04999999701976776, -0.16380015015602112, 0.11227914690971375, 0.0793321430683136, 0.0883006751537323, 0.13463923335075378, -0.08356671035289764, -0.04410324990749359, -0.17087101936340332, 0.06505720317363739, 0.1085456907749176, 0.12963208556175232, -0.0318446010351181, 0.16353818774223328, -0.021832138299942017, -0.025377675890922546, -0.04077242314815521, -0.06585268676280975, -0.0688386932015419, 0.14406687021255493, -0.08303439617156982, 0.12282940745353699, 0.17042165994644165, 0.08010134100914001, -0.06821320950984955, 0.0028794407844543457, -0.0429491251707077, 0.09537121653556824, 0.09860792756080627, 0.013090550899505615, -0.06326553970575333, 0.09569072723388672, 0.03440867364406586, -0.013034865260124207, 0.0811627209186554, -0.14582669734954834, -0.043010562658309937, -0.1436755657196045, -0.11671553552150726, -0.13512256741523743, 0.0946539044380188, 0.109975665807724, 0.019541218876838684, -0.1074489951133728, 0.019287586212158203, -0.13799473643302917, -0.07744455337524414, -0.001971334218978882, 0.04291239380836487, -0.1402287483215332, -0.0798521488904953, -0.13237671554088593, 0.15958023071289062, -5.9157609939575195e-06, -0.06195768713951111, -0.16198085248470306, 0.11931642889976501, -0.017810538411140442, 0.1334579885005951, 0.09756740927696228, 0.16931608319282532, 0.16170838475227356, 0.05014668405056, 0.16332551836967468, 0.07393372058868408, 0.14371854066848755, 0.0943746268749237], [-0.1540171355009079, 0.14801350235939026, -0.03107181191444397, 0.016864821314811707, -0.10991215705871582, 0.04073011875152588, 0.03610284626483917, 0.03840412199497223, -0.11564280092716217, -0.05298774689435959, 0.16127797961235046, -0.028251737356185913, -0.09171910583972931, 0.07699421048164368, 0.13198545575141907, 0.07472386956214905, 0.07121235132217407, -0.11292728036642075, 0.05559973418712616, 0.043488919734954834, -0.16474467515945435, -0.030615687370300293, -0.1085905209183693, 0.16919595003128052, -0.11187537759542465, 0.13207131624221802, 0.044113561511039734, -0.0820942223072052, 0.08684805035591125, 0.12932360172271729, -0.05780204385519028, 0.00908893346786499, 0.03978195786476135, 0.09777885675430298, -0.08082368224859238, 0.13268530368804932, -0.055628642439842224, 0.12701663374900818, 0.13480865955352783, 0.1486707627773285, 0.17216721177101135, -0.1417112946510315, 0.047515079379081726, 0.042711347341537476, -0.07345033437013626, 0.13051778078079224, 0.09198254346847534, 0.16234630346298218, 0.15980523824691772, 0.04814344644546509, -0.1228942722082138, -0.030512839555740356, -0.0577051118016243, 0.08998742699623108, 0.14305168390274048, 0.17507177591323853, -0.009380802512168884, -0.03801974654197693, 0.0788855254650116, -0.14682206511497498, 0.12965160608291626, 0.06518290936946869, 0.11831700801849365, -0.07873334735631943, -0.07350362092256546, -0.09132387489080429, 0.017669230699539185, -0.04187047481536865, -0.09824296087026596, 0.04905015230178833, -0.046141043305397034, -0.011282160878181458, 0.03917036950588226, 0.07693403959274292, -0.1308102011680603, 0.1051672101020813, -0.06323583424091339, 0.002705127000808716, -0.04019607603549957, -0.09948848187923431, -0.0019302219152450562, -0.17632770538330078, -0.009612038731575012, -0.12632465362548828, -0.14393845200538635, 0.07523825764656067, 0.029160097241401672, 0.09420084953308105, -0.10095565021038055, 0.15717965364456177, -0.018341630697250366, -0.13443121314048767, -0.012938767671585083, 0.08882960677146912, -0.14457961916923523, -0.17177844047546387, -0.12315407395362854, -0.06965755671262741, 0.03127142786979675, -0.06722012162208557, -0.13297677040100098, -0.05319662392139435, -0.14372095465660095, 0.15281856060028076, -0.0346137136220932, 0.12289276719093323, -0.03065723180770874, 0.027299314737319946, 0.04872341454029083, -0.041226476430892944, 0.15004247426986694, -0.10972525179386139, 0.08456355333328247, -0.16977110505104065, -0.11716316640377045, -0.12442262470722198, -0.0939503163099289, -0.11622971296310425, -0.04884380102157593, 0.08923381567001343, -0.09924013912677765, 0.04798188805580139, 0.08554413914680481, 0.06694574654102325, 0.14398783445358276, -0.030345961451530457, -0.16598102450370789, -0.15897633135318756], [-0.008286476135253906, 0.09954062104225159, -0.17070139944553375, -0.045353665947914124, -0.028586119413375854, 0.11554029583930969, -0.024526402354240417, 0.09648725390434265, 0.07708346843719482, 0.09991392493247986, 0.062581866979599, -0.048416003584861755, 0.10622099041938782, 0.04686284065246582, -0.1374845802783966, 0.17553812265396118, -0.10573521256446838, -0.08472700417041779, 0.16514113545417786, -0.15730763971805573, 0.011851280927658081, 0.10063281655311584, 0.013662159442901611, 0.011802643537521362, -0.17405711114406586, 0.10563042759895325, 0.0037890225648880005, 0.012316912412643433, 0.01949988305568695, 0.13850268721580505, 0.08181950449943542, -0.11496508121490479, 0.10643857717514038, 0.05188915133476257, 0.0012348741292953491, -0.11080382019281387, -0.11332779377698898, 0.023651763796806335, 0.15672370791435242, 0.09278973937034607, 0.13909506797790527, 0.09250703454017639, 0.0963645875453949, 0.08033716678619385, -0.023427218198776245, 0.1652757227420807, -0.019195467233657837, 0.09401822090148926, 0.0395970344543457, -0.000966876745223999, 0.034669652581214905, 0.06908078491687775, -0.03526374697685242, 0.006888911128044128, -0.1624222695827484, 0.17080441117286682, 0.051440417766571045, -0.014382481575012207, 0.03501506149768829, 0.12359574437141418, -0.015567958354949951, -0.06660963594913483, -0.06243160367012024, -0.12818388640880585, 0.08454492688179016, -0.04617570340633392, 0.16059216856956482, 0.035981565713882446, 0.05638791620731354, 0.17131370306015015, 0.11991417407989502, -0.047729864716529846, -0.057779692113399506, -0.15842179954051971, -0.09402523934841156, 0.03932963311672211, -0.028731659054756165, -0.0022599101066589355, 0.12551471590995789, -0.14210331439971924, -0.11249342560768127, 0.0512477308511734, 0.16391777992248535, 0.15782245993614197, -0.15209168195724487, 0.004641219973564148, -0.07653805613517761, -0.04910990595817566, -0.008909344673156738, -0.16591282188892365, 0.0017976611852645874, 0.024875149130821228, 0.1409938931465149, 0.13118743896484375, -0.0389527827501297, -0.07791943848133087, -0.09540391713380814, -0.00897204875946045, 0.014452248811721802, 0.03951515257358551, 0.07038657367229462, -0.050967901945114136, 0.057314351201057434, 0.11996033787727356, 0.10418310761451721, -0.1340068280696869, -0.15786518156528473, 0.13493910431861877, -0.12977510690689087, 0.08989626169204712, 0.05596289038658142, 0.12143129110336304, -0.07712619006633759, 0.08409729599952698, -0.03676551580429077, -0.08597256988286972, 0.0626005083322525, -0.01503889262676239, 0.09454420208930969, -0.05640266090631485, 0.057567864656448364, 0.030279189348220825, -0.11277659237384796, 0.09436988830566406, 0.1662311851978302, -0.14498938620090485, 0.08618777990341187, -0.06867414712905884], [0.17353391647338867, -0.02400575578212738, 0.06844092905521393, 0.012182161211967468, -0.1499246209859848, 0.17533990740776062, -0.0807969719171524, 0.11026668548583984, -0.13656024634838104, -0.15458819270133972, 0.005783766508102417, 0.10544762015342712, -0.007627442479133606, -0.004167765378952026, 0.13223063945770264, -0.17440606653690338, 0.022877708077430725, -0.13058814406394958, -0.15127865970134735, -0.10792611539363861, -0.015636876225471497, 0.030830562114715576, -0.1421908289194107, -0.09602649509906769, 0.11380177736282349, -0.16330108046531677, 0.004750192165374756, 0.02925729751586914, -0.030263692140579224, -0.08852595090866089, 0.1008138358592987, 0.05566591024398804, -0.07845626771450043, 0.021820053458213806, 0.06809425354003906, -0.06479917466640472, 0.17692884802818298, -0.031709685921669006, -0.0689440444111824, -0.05774141103029251, -0.07883603125810623, -0.09186362475156784, -0.1625441312789917, -0.09218557924032211, -0.1547515094280243, 0.06176242232322693, 0.1341671347618103, 0.047186315059661865, 0.12291961908340454, -0.06495020538568497, -0.07583354413509369, 0.05560138821601868, 0.001124158501625061, -0.1294863224029541, -0.012446686625480652, -0.003880426287651062, 0.14814263582229614, 0.0435299426317215, -0.14458692073822021, -0.1303299069404602, -0.14806996285915375, 0.1442757546901703, -0.03511364758014679, -0.0743834525346756, -0.07577560842037201, -0.053646109998226166, -0.046081289649009705, 0.07699427008628845, 0.020445600152015686, 0.08557519316673279, -0.005909264087677002, -0.146365225315094, -0.023788854479789734, 0.09809210896492004, 0.00792357325553894, 0.14767050743103027, 0.1617089807987213, 0.07432684302330017, 0.02056087553501129, -0.17007949948310852, 0.012252599000930786, 0.1702219843864441, 0.15043258666992188, 0.07304656505584717, -0.11951819062232971, -0.09544427692890167, -0.04912954568862915, 0.1268797516822815, 0.07296457886695862, -0.10942822694778442, -0.17297013103961945, -0.012469708919525146, -0.06287576258182526, 0.10252988338470459, -0.13185973465442657, -0.16137243807315826, -0.11808158457279205, -0.05300557613372803, 0.1174890398979187, 0.11643126606941223, -0.11422761529684067, 0.061491459608078, 0.07096891105175018, 0.04164165258407593, -0.07474981993436813, -0.13805098831653595, -0.06384476274251938, 0.020908400416374207, -0.015301689505577087, 0.11078619956970215, -0.132135808467865, -0.05422883480787277, -0.07409851253032684, 0.06894053518772125, -0.16317597031593323, -0.12091787159442902, -0.07716916501522064, 0.1623632311820984, 0.020552173256874084, -0.005600288510322571, -0.042521312832832336, -0.06639256328344345, -0.0977182537317276, -0.11861955374479294, 0.09800383448600769, 0.07070687413215637, 0.11068293452262878, 0.17415645718574524], [-0.4064895212650299, -0.33845406770706177, -1.071449637413025, -0.40016329288482666, 0.5526058077812195, -0.47246959805488586, -0.3873676061630249, 0.5411388278007507, -0.04331791028380394, -0.1737966537475586, -0.24774976074695587, 0.22505342960357666, 0.5380262732505798, -0.08366597443819046, 0.3296985924243927, -0.11610030382871628, -0.09086603671312332, 0.1688094139099121, 0.07970859110355377, -0.27084657549858093, 0.15795400738716125, -0.03489183261990547, 0.5656468868255615, 0.5450342297554016, 0.1523747444152832, 0.5637959241867065, 0.492331862449646, -0.13364604115486145, -0.18192288279533386, 0.2701806128025055, -0.08492612838745117, -0.6910531520843506, 0.14508666098117828, 0.3218928575515747, 0.9994648694992065, -0.2016819268465042, 0.14039674401283264, 0.2267547994852066, 0.014721437357366085, -0.10669552534818649, -0.3215402662754059, 0.23621240258216858, 0.07639873772859573, -0.09861695021390915, -0.11651533842086792, -0.4118126928806305, -0.298006534576416, 0.12948600947856903, -0.18333353102207184, -0.08194001019001007, -0.3849159777164459, 0.027753079310059547, 0.21070106327533722, -0.1851397007703781, 0.2355058491230011, 0.20378747582435608, -0.24801045656204224, -0.025013599544763565, 0.12554825842380524, -0.001776231685653329, 0.25604408979415894, -0.13905936479568481, 0.09423702210187912, 0.5711358785629272, -0.28334593772888184, -0.1749175488948822, -0.18668285012245178, 0.4751763343811035, 0.24015867710113525, 0.053078543394804, 0.008280690759420395, 0.08625015616416931, 0.5398465991020203, 0.5738672614097595, 0.3738880753517151, 0.5671254992485046, 0.1288069635629654, -0.05223245546221733, 0.32141968607902527, -0.000779847614467144, 0.201790452003479, 0.05674365535378456, 0.3453655540943146, 0.5878362655639648, 0.7285919785499573, -0.110830157995224, 0.4955873489379883, 0.3551097512245178, 0.6221084594726562, 0.26667511463165283, -0.4623882472515106, 0.03476933762431145, -0.11174355447292328, -0.07631583511829376, 0.13344505429267883, -0.2597537636756897, 0.4833187162876129, 0.7403117418289185, 0.36004024744033813, -0.45152410864830017, 0.4632522463798523, 0.26220327615737915, -0.5662246942520142, 0.5112378597259521, -0.4421665370464325, 0.19764338433742523, -0.05320606008172035, 0.07677148282527924, 0.24266785383224487, 0.11206106096506119, 0.4845675528049469, 0.22617240250110626, 0.10518480092287064, 0.06660491973161697, 0.30731016397476196, -0.3371860980987549, 0.08582203090190887, 0.23562948405742645, -0.3581940531730652, 0.4600241184234619, -0.1814444214105606, 0.24102783203125, -0.11248298734426498, 0.03447712957859039, 0.01056741364300251, -0.06934656202793121, 0.43398869037628174, 0.4557465612888336], [0.4453461468219757, 0.4194585978984833, 0.7337445020675659, -0.2268078625202179, -0.26565858721733093, 0.42020201683044434, 0.3717179298400879, -0.023105483502149582, -0.2970927357673645, -0.004489647690206766, 0.5228675603866577, -0.2409484088420868, -0.2791334390640259, 0.16293729841709137, 0.206150621175766, 0.24266891181468964, -0.08464819937944412, 0.5231491923332214, 0.1449221819639206, 0.2879076600074768, 0.3958684504032135, 0.1995583176612854, -0.15392552316188812, -0.4465023875236511, -0.061852119863033295, 0.0232112817466259, -0.1518402397632599, -0.09560724347829819, 0.7991575598716736, -1.168570876121521, 0.2658136785030365, 0.4676706790924072, -0.6182233095169067, -0.6503568887710571, -0.4405214786529541, -0.12043912708759308, 0.11289801448583603, -0.12383216619491577, -0.30430328845977783, -0.19226889312267303, -0.5428532958030701, 0.12674611806869507, 0.17917481064796448, -0.13236340880393982, -0.13364514708518982, 0.4120247960090637, 0.26039746403694153, -0.05050981789827347, -0.19655387103557587, 0.13802140951156616, -0.31211426854133606, 0.19960011541843414, 0.032388631254434586, 0.20745329558849335, -0.13701428472995758, -0.12861202657222748, -0.6754053831100464, -0.029968664050102234, -0.2484603077173233, 0.13252151012420654, -0.3006003499031067, 0.6505067944526672, -0.1022896021604538, -0.1267547309398651, 0.503398060798645, 0.41238370537757874, 0.1941538155078888, 0.020357463508844376, -0.1967957615852356, 0.12341843545436859, -0.16440969705581665, -0.1031317263841629, -0.45356351137161255, -0.11627139896154404, -0.06701991707086563, -0.6185100674629211, -0.17472970485687256, 0.37362274527549744, 0.24369439482688904, -0.13633856177330017, -0.17268937826156616, 0.10126654803752899, -0.154946431517601, -0.4199789762496948, -0.43271806836128235, 0.1690341979265213, -0.018560627475380898, -0.2849939465522766, -0.19798550009727478, 0.1473144292831421, -0.07055317610502243, 0.2819199562072754, 0.19820167124271393, -0.6413436532020569, 0.12890751659870148, 0.25017720460891724, -0.17989236116409302, -0.06245819851756096, -0.15539968013763428, 0.04334454610943794, -0.3264721632003784, -0.1450548619031906, 0.5672957897186279, -0.35979944467544556, 0.367527037858963, -0.0993315801024437, 0.23818612098693848, -0.1115439310669899, -0.30558931827545166, 0.040835581719875336, 0.27525973320007324, -0.18932239711284637, 0.19439560174942017, 0.29107022285461426, 0.33727356791496277, 0.45925742387771606, 0.3102613389492035, -0.20529882609844208, 0.5946402549743652, -0.4872971475124359, 0.145355686545372, -0.43797406554222107, -0.1761687844991684, -0.11971396952867508, 0.6423423886299133, -0.7371029257774353, -0.018253812566399574, -0.3188045918941498], [0.10897284001111984, -0.11090481281280518, -0.7928313612937927, 0.059562794864177704, 0.5265886783599854, -0.08993365615606308, -0.7510671019554138, 0.13520938158035278, 0.1257806271314621, -0.06785643100738525, -0.9120519757270813, -0.07440853863954544, 0.06953925639390945, 0.10685145854949951, 0.601455569267273, -0.09944302588701248, 0.5809264183044434, -0.24751026928424835, -0.222967728972435, -0.14281603693962097, -0.12697964906692505, -0.04814491048455238, -0.0746963769197464, 0.45975467562675476, 0.37738677859306335, -0.11044863611459732, 0.7663922905921936, -0.5293826460838318, 0.05589192360639572, -0.3585543632507324, -0.5491200089454651, -0.16263175010681152, -0.2745378613471985, 0.19168724119663239, 0.3293129503726959, -0.11901576071977615, -0.4419167935848236, 0.2238800972700119, 0.3759475648403168, 0.25185975432395935, 0.5340338945388794, -0.11583762615919113, -0.14092984795570374, -0.7148565053939819, 0.2293764352798462, -0.2584298551082611, -0.25401797890663147, 0.5806621313095093, 0.15092797577381134, 0.1208411157131195, -0.08898071199655533, -0.10960192233324051, -0.936194658279419, -0.3174315094947815, 0.32547301054000854, 0.05696691572666168, 0.5582110285758972, -0.11608367413282394, 0.4271904528141022, -0.3892616629600525, 1.0981639623641968, -0.43608927726745605, -0.7373493313789368, 0.32059770822525024, -0.010393349453806877, 0.07860051095485687, 0.007750833407044411, 0.5221889615058899, 0.2064659744501114, -0.12339430302381516, 0.35765960812568665, -0.45978111028671265, 0.5254731178283691, -0.37429943680763245, 0.3752613365650177, 0.2499479204416275, 0.06668657809495926, 0.24989786744117737, 0.23911233246326447, 0.2083083540201187, 0.6864554286003113, 0.41994935274124146, 0.7448017597198486, 0.8072534799575806, 0.10468503087759018, -0.46030572056770325, -0.5655456781387329, 0.28077295422554016, 0.6269767880439758, -0.14850261807441711, -0.36489051580429077, -0.07270757108926773, -0.16775307059288025, -0.30676141381263733, -0.8107603192329407, -0.13296742737293243, 0.031712766736745834, 0.09665034711360931, 0.009145110845565796, 0.23600541055202484, 0.5464458465576172, 0.4943732023239136, -0.061321619898080826, -0.20930860936641693, -0.10253246873617172, 0.08812376111745834, -0.054524268954992294, -0.09314171969890594, 0.30931639671325684, 0.17957107722759247, 0.28790393471717834, 0.18831579387187958, 0.1561296433210373, -0.46578043699264526, -0.13086867332458496, -0.024758262559771538, 0.17756235599517822, 0.5186103582382202, 0.2853405177593231, 0.4500885307788849, 0.6116613149642944, 0.37392741441726685, -0.2916675806045532, 0.09856899082660675, -0.36290067434310913, 0.013552459888160229, -0.17333218455314636, 0.485868364572525], [-0.33481553196907043, -0.4843814969062805, -0.8887701630592346, 0.6158635020256042, 0.30446913838386536, 0.11380264908075333, -0.3649269938468933, 0.8087588548660278, 0.4892556965351105, 0.21819131076335907, -0.17509406805038452, 0.4446144104003906, -0.23448196053504944, -0.26000458002090454, 0.16006457805633545, 0.41421011090278625, -0.8379389643669128, -0.2799158990383148, 0.3994244933128357, -0.36451223492622375, -0.26066356897354126, -0.07419542223215103, 0.3081120550632477, 0.2065199613571167, 0.11293251067399979, -0.7569814920425415, 0.8700686097145081, 0.2529107332229614, 0.08679462969303131, -0.18509624898433685, 0.006092943716794252, -0.8610768914222717, 0.11603940278291702, -0.058410629630088806, 0.943454921245575, -0.3505384027957916, 0.029978647828102112, 0.14229288697242737, 0.3765249252319336, -0.5336394309997559, -0.12353086471557617, 0.1860342174768448, 0.11791452765464783, 0.04105893149971962, 0.1540638506412506, -0.28116557002067566, 0.07515537738800049, -0.437091201543808, 0.4019532799720764, -0.3496297597885132, -0.0992891788482666, -0.012044571340084076, -0.3836551308631897, -0.3385852873325348, -0.03716880828142166, -0.07392097264528275, 0.6722124218940735, 0.00915556587278843, 0.19781099259853363, 0.05698569118976593, 0.4165075123310089, 0.13138678669929504, -0.2843922972679138, 0.28476443886756897, -0.3964342176914215, 0.2874198853969574, -0.37057697772979736, 0.26035335659980774, 0.40636658668518066, 0.346293568611145, 0.08564913272857666, 0.5172824263572693, -0.06365793943405151, 0.29656627774238586, 0.08021191507577896, -0.2108735293149948, -0.14405788481235504, 0.04416240006685257, 0.11465434730052948, 0.2215869426727295, -0.3334018886089325, 0.19315741956233978, 0.3114459216594696, 0.4691089391708374, 0.0323675312101841, -0.23409807682037354, 0.20753134787082672, -0.09369771182537079, 0.25029611587524414, -0.3365152180194855, -0.11818510293960571, 0.3219861388206482, 0.044956717640161514, -0.04920953884720802, 0.008881110697984695, -0.28199103474617004, 0.09538052976131439, 0.1866735965013504, -0.13748550415039062, 0.6924030780792236, 0.6076921224594116, 0.5474620461463928, -0.26673850417137146, 0.20612704753875732, 0.3289255201816559, 0.2291107326745987, -0.2633804380893707, 0.6796203255653381, 0.16799108684062958, 0.3025636076927185, 0.15934401750564575, 0.23657697439193726, -1.0975502729415894, 0.08553609251976013, 0.2155771702528, 0.15242250263690948, -0.20679257810115814, 0.07102372497320175, 0.8499879240989685, 0.32570385932922363, 0.0978146642446518, -0.023288270458579063, -0.1511462777853012, -0.11082857102155685, -0.012031910009682178, -0.35072168707847595, -0.1753401905298233, 0.4397878348827362], [-0.1041608601808548, -0.2984616160392761, -0.6126977801322937, 0.5960339903831482, -0.09424793720245361, 0.20366957783699036, 0.022168030962347984, 0.2411399632692337, 0.5989981293678284, 0.2080470770597458, 0.33928346633911133, 0.5819810032844543, -0.23652544617652893, -0.06934825330972672, -0.1439366340637207, -0.03511720523238182, 0.18936553597450256, -0.14457646012306213, 0.21266411244869232, -0.08055523037910461, -0.2745525538921356, -0.18475109338760376, 0.15903668105602264, 0.08369013667106628, 0.17096444964408875, -0.4964112341403961, 0.5719555020332336, -0.1518784463405609, 0.6739027500152588, -1.068735957145691, -0.226204976439476, -0.1735372543334961, -0.09695236384868622, 0.536440908908844, 0.4294760227203369, 0.2645255923271179, 0.3336215317249298, -0.09900256246328354, 0.11816176027059555, -0.024651292711496353, 0.2759321630001068, 0.5118428468704224, -0.31809765100479126, -0.022674383595585823, -0.05346234515309334, -0.11702433228492737, -0.24481242895126343, -0.21876469254493713, 0.20436547696590424, -0.7602812051773071, -0.668151319026947, -0.6988539099693298, -0.274591863155365, -0.23159530758857727, -0.10371677577495575, -0.017301559448242188, 0.14738313853740692, 0.012856165878474712, -0.4517141282558441, -0.017149992287158966, 0.33092057704925537, 0.5300076603889465, -0.25076916813850403, 0.14970901608467102, -0.1259239763021469, -0.15074284374713898, -0.017678162083029747, 0.17039696872234344, -0.19104428589344025, 0.5107462406158447, 0.5527828335762024, -0.10135723650455475, 0.5387795567512512, 0.3349543511867523, 0.1957576870918274, 0.35210251808166504, -0.29933708906173706, -0.12917286157608032, -0.237736314535141, 0.11624966561794281, 0.0962102934718132, -0.5247472524642944, 0.5020579099655151, 0.26277318596839905, 0.2637540400028229, 0.11659026145935059, -0.17597444355487823, 0.04097892343997955, 0.15953190624713898, -0.29877763986587524, -0.13124287128448486, -0.15878568589687347, 0.6067481637001038, -0.030329465866088867, -0.2660832107067108, -0.03561285510659218, -0.15095090866088867, 0.2581356465816498, -0.5741528868675232, 0.16018186509609222, 0.07633765041828156, 0.20465338230133057, 0.11941816657781601, -0.1947784274816513, 0.08693979680538177, -0.09108182787895203, 0.05844949558377266, 0.5007236003875732, -0.47778624296188354, 0.07303198426961899, -0.039780329912900925, -0.08426423370838165, 0.2946687936782837, -0.3682163655757904, 0.561302661895752, -0.29714953899383545, -0.015997178852558136, 0.0594429150223732, -0.42033037543296814, -0.14005164802074432, 0.0581226646900177, -0.731449544429779, -0.3213302493095398, 0.18866576254367828, 0.8456135392189026, -0.38142746686935425, -0.12019605934619904, -0.35795238614082336], [-0.3585236966609955, -0.4887138307094574, -0.7978313565254211, 0.31148532032966614, 0.2848454713821411, 0.10029918700456619, -0.22666262090206146, 0.10468710958957672, -0.006923430133610964, 0.008214017376303673, -0.5048977732658386, 0.18538694083690643, -0.007897586561739445, -0.11221147328615189, 0.3300182521343231, -0.2895928919315338, 0.7528330087661743, 0.20041561126708984, -0.2466592788696289, -0.19991593062877655, -0.15673613548278809, -0.17066529393196106, 0.2560955286026001, 0.2549283504486084, 0.16362620890140533, -0.1765967160463333, -0.007625045720487833, -0.19333763420581818, -0.023758867755532265, 0.118362657725811, -0.1494467854499817, -0.9008954763412476, 0.07369241863489151, -0.44852831959724426, 0.4501546323299408, 0.16198773682117462, -0.23770694434642792, -0.35883691906929016, -0.05402197688817978, -0.29284942150115967, 0.05897907540202141, 0.021269943565130234, -0.251008003950119, -0.604454755783081, 0.17032167315483093, -0.11377272009849548, -0.03538448363542557, 0.20115728676319122, 0.009262626059353352, -0.09624823182821274, 0.4440684914588928, -0.20761197805404663, -0.04185885563492775, -0.1675983965396881, 0.26293760538101196, -0.028185075148940086, 0.4541817903518677, 0.005625156685709953, -0.00012541539035737514, 