'use strict';

const weights = {"haggle/preprocess/kernel:0": [[-0.39819958806037903, -0.18103384971618652, -0.295797199010849, 0.08306248486042023, -0.5794395804405212, -0.7290734052658081, -0.24001283943653107, -0.12253960967063904, 0.2651840150356293, -0.5603020191192627, -0.32327479124069214, -0.19985947012901306, 0.45367711782455444, 0.032631829380989075, -0.5548041462898254, -0.2760885953903198, 0.2509746849536896, -0.10409894585609436, 0.14411698281764984, -0.4196544289588928, 0.014474527910351753, 0.5140754580497742, -0.25561216473579407, 0.15000514686107635, -0.5208781957626343, -0.4741969108581543, 0.24766740202903748, 0.5291918516159058, 0.11120539903640747, -0.659822404384613, 0.15113194286823273, -0.3541060984134674, 0.05549495294690132, -0.918728232383728, 0.2783723473548889, 0.7254912257194519, 0.0676712691783905, 0.2866477072238922, 0.28935950994491577, 0.14117826521396637, -0.2080831378698349, -0.3592039942741394, -0.45538821816444397, -0.45083925127983093, -0.20888453722000122, 0.354115754365921, 0.46545299887657166, 0.21605773270130157, -0.07418490201234818, -0.5088374614715576, -0.4787970185279846, -0.15484745800495148, 0.0669325441122055, 0.29484984278678894, 0.6589576601982117, -0.1198560893535614, 0.47062596678733826, 0.36350002884864807, -0.1097714900970459, -0.4354598820209503, -0.10948028415441513, -0.43268468976020813, -0.17289859056472778, -0.0245062168687582], [0.12676472961902618, -0.8335059285163879, 0.08241113275289536, -0.8396497964859009, 0.3537411093711853, -0.4920158386230469, 0.4761941432952881, -0.333293080329895, 0.034318745136260986, -0.012753584422171116, 0.4035044014453888, 0.02128528244793415, 0.08960874378681183, 0.08535073697566986, -0.20738749206066132, -0.08465495705604553, -0.005571765825152397, 0.15950433909893036, 0.1840895116329193, -0.15602996945381165, -0.3614235520362854, -0.013575357384979725, -0.3885864317417145, -0.19824109971523285, 0.13053937256336212, 0.019820932298898697, -0.5954177975654602, 0.25442588329315186, 0.5553759336471558, 0.2564554512500763, 0.23653961718082428, -0.35867419838905334, -0.18751133978366852, 0.34482288360595703, 0.36583736538887024, 0.2594192326068878, 0.03412354737520218, 0.28590384125709534, -0.5119481682777405, -0.20252014696598053, -0.5165234804153442, 0.40668049454689026, -0.001419627689756453, -0.12203002721071243, -0.2022653967142105, -0.008182117715477943, 0.26476046442985535, -0.19557218253612518, 0.4124773144721985, -0.22886775434017181, -0.08416140824556351, -0.610438883304596, 0.37318944931030273, -0.1901278793811798, 0.08152259886264801, -0.07271543145179749, 0.054421983659267426, 0.06055501103401184, 0.09704115241765976, -0.08772262930870056, -0.8864679336547852, 0.08934922516345978, 0.430425226688385, -0.01239474955946207], [0.36286720633506775, 0.31489259004592896, -0.7965240478515625, -0.10085846483707428, 0.3783607482910156, 0.022620914503932, -0.1544203907251358, 0.6065788269042969, -0.5061520934104919, 0.08091827481985092, 0.009052978828549385, 0.1716405749320984, -0.08434789627790451, -0.21541087329387665, 0.029182514175772667, -0.7810277938842773, -0.1173592060804367, 0.104133240878582, -0.7083123922348022, 0.09569007158279419, 0.2937910258769989, 0.3627374768257141, 0.001774188014678657, -0.16281110048294067, 0.39031803607940674, 0.002586416434496641, -0.07517146319150925, -0.046743135899305344, -0.20418991148471832, 0.130277618765831, 0.3484196662902832, 0.19921860098838806, -1.074202060699463, -0.16594277322292328, -0.06795647740364075, 0.06404313445091248, -0.8441718816757202, 0.2060697227716446, -0.45662805438041687, -0.12328427284955978, 0.08859267085790634, -0.001426246017217636, 0.07382673770189285, -0.22211845219135284, -0.25049683451652527, -0.19730228185653687, 0.056391771882772446, -0.4288758933544159, -0.7291892766952515, -0.45933768153190613, -0.16396751999855042, -0.0991474911570549, 0.32642942667007446, -0.17722846567630768, -0.13203221559524536, -0.02422770857810974, 0.12528389692306519, 0.3355582654476166, 0.2515847980976105, 0.14860251545906067, -0.08432897925376892, -0.18934416770935059, -0.12653329968452454, 0.047933269292116165], [-0.03671255707740784, 0.08859113603830338, 0.14406296610832214, 0.12723208963871002, 0.09825403988361359, -0.061230722814798355, -0.10456208884716034, 0.037015825510025024, -0.3426228165626526, -0.6310020685195923, 0.04935025796294212, 0.2997344136238098, -0.20331934094429016, -1.0601259469985962, -0.13725966215133667, 0.14672143757343292, 0.637235164642334, 0.4064236283302307, -0.08362020552158356, -0.17896972596645355, -0.39405155181884766, 0.3679710626602173, 0.4235670566558838, -0.21375030279159546, 0.13569949567317963, 0.03671591728925705, -0.2078375220298767, 0.12535110116004944, 0.014700489118695259, -0.3012904226779938, 0.005309192463755608, -0.12656688690185547, -0.021337062120437622, 0.03279181942343712, -0.26389849185943604, 0.12575751543045044, 0.17404061555862427, -0.09179911762475967, 0.1379195749759674, -0.7291663885116577, -0.035220205783843994, -0.32649677991867065, -0.8961601257324219, -0.3391517102718353, -0.3259532153606415, -0.6043687462806702, -0.6134479641914368, -0.3528302013874054, 0.10393120348453522, -0.11938586831092834, 0.15028193593025208, -0.06840881705284119, 0.11275423318147659, 0.6050558686256409, -0.3262506127357483, -0.09174159169197083, -0.9696354866027832, 0.4175094962120056, -0.32629212737083435, -0.118667371571064, -0.1644839495420456, 0.220396026968956, 0.3402674198150635, -0.1818992644548416], [0.06331995129585266, 0.22531545162200928, 0.1066369116306305, -0.0433785617351532, 0.10340556502342224, -0.16945451498031616, 0.025179564952850342, 0.09469738602638245, 0.08103829622268677, 0.08117550611495972, -0.04200339317321777, -0.13787569105625153, -0.08903655409812927, 0.05308997631072998, 0.05005958676338196, 0.22282594442367554, -0.11210018396377563, 0.0863807201385498, -0.17504505813121796, -0.10909801721572876, -0.21114099025726318, -0.1738111674785614, 0.13454943895339966, -0.1548168957233429, 0.14164036512374878, 0.042398303747177124, -0.13424056768417358, 0.015273213386535645, -0.05875237286090851, -0.06981907784938812, -0.16103124618530273, 0.2295595109462738, 0.10756790637969971, 0.23282963037490845, 0.1708000898361206, 0.20115524530410767, -0.15406882762908936, -0.05002221465110779, -0.0015148967504501343, -0.16139015555381775, -0.23653003573417664, -0.2458314448595047, 0.15887948870658875, -0.0017722994089126587, -0.08939947187900543, -0.02426162362098694, -0.14244860410690308, 0.1947154402732849, 0.17491137981414795, 0.03324967622756958, 0.046818166971206665, 0.14478501677513123, -0.1190204918384552, 0.17427194118499756, -0.20832014083862305, 0.13082286715507507, 0.08733418583869934, 0.12433001399040222, -0.23251135647296906, -0.20205174386501312, -0.13626565039157867, 0.21129989624023438, 0.15537413954734802, -0.05556045472621918], [0.013340413570404053, 0.22381559014320374, 0.14474818110466003, -0.02172987163066864, -0.19283559918403625, -0.01605813205242157, -0.041048601269721985, 0.19209572672843933, 0.11082297563552856, -0.09023448824882507, 0.1048915684223175, -0.08151355385780334, -0.20900660753250122, 0.12064802646636963, 0.11462482810020447, 0.23007506132125854, -0.13898417353630066, 0.1590784788131714, -0.030288606882095337, -0.23602834343910217, 0.17160284519195557, -0.15252390503883362, -0.18261024355888367, 0.17299732565879822, 0.13578900694847107, 0.16402345895767212, 0.1336335837841034, 0.19344913959503174, -0.04682938754558563, -0.21145465970039368, -0.1971176564693451, -0.20208092033863068, 0.24396172165870667, 0.007962256669998169, 0.17747202515602112, -0.09865079820156097, 0.011686086654663086, 0.0766592025756836, -0.1050788164138794, 0.18330487608909607, 0.021921545267105103, 0.24791046977043152, -0.07576650381088257, 0.22451913356781006, -0.05766990780830383, -0.24813342094421387, 0.21526265144348145, 0.09887316823005676, -0.13548487424850464, -0.06347548961639404, -0.1418808251619339, 0.014120817184448242, 0.20859301090240479, -0.0610014945268631, 0.05716964602470398, -0.12422983348369598, -0.15727117657661438, 0.20229125022888184, -0.1734112799167633, -0.15805262327194214, 0.15875425934791565, -0.09895308315753937, -0.10988935828208923, 0.05820748209953308], [0.18200057744979858, 0.185435950756073, 0.1755937933921814, -0.2444532811641693, -0.20741310715675354, 0.2194640338420868, 0.18959596753120422, -0.2288568764925003, 0.05810064077377319, -0.23073667287826538, -0.04903806746006012, 0.17235314846038818, -0.15752127766609192, 0.20227816700935364, -0.18732017278671265, 0.23309525847434998, 0.15652862191200256, -0.03363986313343048, -0.17885354161262512, -0.029073968529701233, -0.23236048221588135, -0.18421681225299835, -0.05746863782405853, -0.17960771918296814, -0.04772311449050903, -0.019340425729751587, 0.10262387990951538, -0.10773448646068573, -0.021668151021003723, -0.1358972191810608, 0.1698605716228485, -0.17566969990730286, -0.13104917109012604, 0.25049832463264465, 0.007671236991882324, 0.0363028347492218, 0.13255932927131653, 0.21968385577201843, -0.0019503086805343628, -0.22001436352729797, -0.2218744456768036, -0.10352611541748047, -0.23324091732501984, -0.06397892534732819, -0.1535613238811493, 0.04339480400085449, -0.031708598136901855, -0.01673862338066101, 0.1582355499267578, -0.16947026550769806, -0.14504745602607727, 0.19017502665519714, 0.12024742364883423, 0.23763957619667053, 0.07482698559761047, 0.16307717561721802, 0.11328649520874023, -0.22142907977104187, 0.21297919750213623, -0.04466120898723602, 0.0472274124622345, 0.1866067349910736, 0.19878610968589783, 0.1365947127342224], [-0.05721716582775116, -0.14765304327011108, -0.12206752598285675, -0.09554696083068848, 0.04528525471687317, 0.11977222561836243, 0.06539711356163025, -0.22043797373771667, 0.10711535811424255, 0.0009523928165435791, 0.11070325970649719, -0.19682909548282623, 0.250561386346817, -0.06632451713085175, 0.1633596420288086, -0.2363988757133484, -0.24217402935028076, 0.16329792141914368, 0.03526949882507324, 0.2382054328918457, -0.11529229581356049, -0.006000146269798279, -0.002799108624458313, -0.03816446661949158, -0.07635459303855896, 0.14514142274856567, 0.04969656467437744, 0.1544530689716339, -0.015629127621650696, 0.07023635506629944, 0.09859579801559448, 0.07449260354042053, -0.038869708776474, 0.008970379829406738, -0.08969618380069733, 0.12151563167572021, 0.16355538368225098, -0.008568927645683289, 0.02876761555671692, 0.10607141256332397, 0.10303598642349243, 0.1401587426662445, 0.2004663348197937, 0.24363967776298523, 0.23224765062332153, -0.012166857719421387, 0.21327844262123108, -0.23530147969722748, 0.010856449604034424, -0.1855829954147339, 0.18038508296012878, -0.04352852702140808, 0.20117729902267456, -0.19713149964809418, -0.14197231829166412, 0.024540960788726807, 0.22286051511764526, -0.1768418550491333, 0.22333067655563354, 0.06783580780029297, -0.12550482153892517, 0.0252230167388916, 0.1785733699798584, -0.2360617220401764], [-0.23407095670700073, 0.07267078757286072, -0.24757534265518188, 0.0925225019454956, -0.23170271515846252, -0.16451773047447205, 0.005841314792633057, -0.2048024982213974, 0.075510174036026, -0.03216852247714996, 0.20096555352210999, -0.032168880105018616, -0.110615074634552, -0.06377077102661133, -0.07622067630290985, 0.11634162068367004, -0.006807535886764526, 0.20824500918388367, 0.04125913977622986, -0.054443880915641785, 0.01523524522781372, 0.010661661624908447, 0.011893749237060547, -0.09902450442314148, 0.016200512647628784, -0.23716521263122559, -0.2134171426296234, 0.012193024158477783, 0.04312324523925781, -0.029468998312950134, 0.2245432436466217, -0.1721261739730835, -0.08382731676101685, 0.11535477638244629, -0.0012814700603485107, -0.17711880803108215, 0.07139918208122253, -0.055305495858192444, 0.040177762508392334, -0.015083879232406616, -0.04741346836090088, -0.021698713302612305, 0.19259202480316162, 0.07681870460510254, 0.11824220418930054, -0.16411447525024414, -0.1789417862892151, -0.10616374015808105, -0.21522881090641022, 0.19294339418411255, -0.08620809018611908, -0.016293734312057495, 0.01805052161216736, 0.036109358072280884, 0.23145997524261475, 0.06118875741958618, -0.02626575529575348, 0.02573522925376892, 0.13753145933151245, -0.15096822381019592, 0.016010671854019165, -0.05103817582130432, 0.23241189122200012, -0.2442014515399933], [0.02124178409576416, -0.12806479632854462, 0.015392690896987915, -0.031409189105033875, 0.08907315135002136, 0.036809563636779785, 0.12250959873199463, 0.22066238522529602, -0.012517973780632019, 0.18171826004981995, 0.04007139801979065, -0.2115984708070755, 0.18410050868988037, -0.08603379130363464, 0.1852625012397766, 0.06552863121032715, 0.06599628925323486, -0.10311855375766754, 0.03081810474395752, -0.22676634788513184, -0.23677760362625122, 0.09072467684745789, 0.05974617600440979, 0.06112757325172424, 0.03824242949485779, 0.11523064970970154, 0.0363827645778656, 0.21439680457115173, -0.11128291487693787, -0.13475321233272552, -0.06306344270706177, -0.0653054416179657, -0.11609010398387909, -0.13234290480613708, 0.21456551551818848, 0.07832437753677368, 0.18097281455993652, 0.21042340993881226, -0.10368236899375916, 0.008383840322494507, -0.13530480861663818, -0.033889055252075195, 0.1776580512523651, -0.13567258417606354, -0.10548289120197296, 0.21180468797683716, 0.14437374472618103, -0.2009902447462082, 0.05150103569030762, 0.14700406789779663, 0.011787384748458862, -0.2012711465358734, 0.2307685911655426, 0.2284933626651764, -0.17299701273441315, -0.0826328694820404, -0.19579863548278809, -0.214907705783844, -0.04871965944766998, -0.10262429714202881, 0.09221997857093811, -0.17121398448944092, 0.020268797874450684, 0.07044139504432678], [-0.17338013648986816, -0.2172471284866333, 0.07913655042648315, 0.07694393396377563, -0.11878663301467896, -0.021783500909805298, 0.0748128592967987, 0.077050119638443, -0.017653748393058777, -0.005471125245094299, -0.147190660238266, 0.048359692096710205, -0.19584554433822632, 0.0019182562828063965, -0.17678572237491608, 0.14552098512649536, -0.008060231804847717, -0.06309670209884644, -0.032819345593452454, -0.1857793927192688, 0.22595429420471191, 0.08369353413581848, 0.1580924689769745, -0.09259888529777527, 0.04557919502258301, 0.046608418226242065, -0.15739533305168152, -0.05820845067501068, 0.06989163160324097, 0.17406851053237915, -0.17683875560760498, -0.24512118101119995, -0.11687825620174408, 0.16251814365386963, 0.18723905086517334, 0.2083260715007782, 0.07924890518188477, -0.13816174864768982, 0.10307791829109192, -0.19344045221805573, 0.20570024847984314, -0.1166071891784668, -0.23436568677425385, 0.029769062995910645, 0.10464891791343689, 0.23797762393951416, 0.21258032321929932, -0.14798149466514587, -0.20419253408908844, -0.11022375524044037, -0.08120478689670563, 0.06506335735321045, 0.21430081129074097, 0.08181312680244446, -0.17142945528030396, 0.027690529823303223, 0.24296271800994873, 0.10893324017524719, 0.013635963201522827, 0.14757394790649414, 0.19957643747329712, -0.1217050850391388, 0.15915942192077637, 0.06528553366661072], [0.1533910036087036, 0.08680524677038193, -0.11921337991952896, 0.09345061331987381, 0.10376013070344925, 0.20871663093566895, 0.1212938204407692, -0.14197975397109985, -0.018725689500570297, -0.03690272942185402, -0.05228736996650696, -0.0003981023037340492, -0.24342651665210724, 0.09879660606384277, -0.09886015206575394, 0.018100207671523094, -0.11926054209470749, 0.05491992086172104, -0.06759274750947952, 0.026238953694701195, 0.14929914474487305, -0.11176356673240662, 0.1178385466337204, -0.1660333126783371, -0.040503472089767456, -0.15775054693222046, 0.22729140520095825, 0.19325049221515656, 0.22019411623477936, 0.016695907339453697, -0.07695093750953674, -0.11354902386665344, -0.042585648596286774, 0.030175302177667618, 0.06687188893556595, 0.0461786650121212, -0.0473802350461483, 0.14309515058994293, 0.1436552107334137, -0.01988730952143669, 0.22460095584392548, 0.08809183537960052, 0.025459643453359604, 0.07648376375436783, -0.062146756798028946, -0.07721186429262161, -0.14812050759792328, 0.16087622940540314, -0.03516991436481476, 0.04763275757431984, 0.18934080004692078, 0.14516618847846985, 0.06410510092973709, -0.04053931683301926, -0.14544686675071716, -0.13713954389095306, -0.12938351929187775, 0.18532058596611023, 0.11817952245473862, -0.032740332186222076, 0.11088929325342178, 0.1967504322528839, 0.04940950870513916, -0.1617739349603653], [0.021288882941007614, -0.04212810471653938, 0.144016832113266, -0.1372920423746109, 0.11179671436548233, -0.03351866453886032, -0.047650113701820374, 0.2888677716255188, 0.06665961444377899, 0.11677177250385284, 0.10485963523387909, 0.049692217260599136, 0.010839494876563549, -0.02510804682970047, -0.04943029209971428, 0.18032602965831757, -0.12119069695472717, 0.07174495607614517, 0.09580141305923462, -0.04283374547958374, 0.0650351271033287, 0.23816734552383423, -0.05669083818793297, 0.01098074484616518, 0.15451939404010773, -0.08111263811588287, -0.012828382663428783, -0.06906859576702118, -0.1856267899274826, 0.03277328610420227, 0.015498836524784565, 0.27790555357933044, 0.1901012361049652, 0.061125386506319046, 0.04146873578429222, 0.0014854762703180313, -0.029120102524757385, 0.019300851970911026, 0.010001445189118385, 0.014356330037117004, -0.1722840517759323, -0.02690874971449375, -0.0451960414648056, 0.006647034548223019, 0.14768415689468384, -0.11262815445661545, -0.07773159444332123, 0.09805190563201904, 0.16268350183963776, 0.10363726317882538, 0.0400688573718071, 0.15190143883228302, 0.03114977478981018, -0.10043607652187347, 0.14259672164916992, -0.20141547918319702, -0.0605880506336689, 0.10684271156787872, 0.1802101880311966, 0.051628924906253815, -0.024809477850794792, -0.2644004821777344, -0.19416940212249756, -0.13116058707237244], [-0.09191424399614334, -0.16820570826530457, -0.08198293298482895, -0.15304942429065704, 0.16828995943069458, -0.01034990232437849, -0.03569871187210083, -0.0643065869808197, 0.10900735855102539, 0.15416711568832397, -0.015101857483386993, -0.31724777817726135, -0.2127303183078766, 0.14402131736278534, -0.06367239356040955, -0.08069569617509842, 0.21779575943946838, 0.013745905831456184, -0.09103402495384216, 0.02659939043223858, 0.10202209651470184, 0.009848515503108501, 0.21641919016838074, -0.14079444110393524, 0.046136822551488876, -0.01650194451212883, 0.012410064227879047, -0.036731887608766556, -0.08522481471300125, 0.10296081751585007, -0.2599889039993286, -0.1428147703409195, -0.01612997055053711, -0.006431435700505972, -0.02452307753264904, -0.08993052691221237, -0.17537379264831543, -0.2306869775056839, -0.01774296723306179, 0.1237516775727272, -0.20222367346286774, -0.1739046722650528, 0.1992529034614563, 0.07352033257484436, 0.07795379310846329, -0.044633932411670685, 0.11641833931207657, 0.18230631947517395, -0.03997080400586128, -0.00940718688070774, 0.1343117207288742, 0.06341718137264252, 0.07537128776311874, 0.18829107284545898, -0.0004664190928451717, -0.24046218395233154, 0.0038057826459407806, 0.10790283232927322, -0.119351826608181, 0.04975958913564682, 0.006651144940406084, 0.1646287590265274, -0.0614636205136776, -0.21553358435630798], [-0.033882468938827515, -0.14931826293468475, 0.053514450788497925, -0.12464536726474762, -0.1587701439857483, 0.08765652775764465, -0.2053048461675644, -0.24751034379005432, 0.2094823718070984, 0.1879662573337555, -0.11205016076564789, 0.13260090351104736, -0.05142985284328461, -0.1535181850194931, -0.1770426481962204, -0.22166898846626282, -0.155602365732193, 0.2226618230342865, 0.1522533893585205, 0.17284944653511047, -0.0005636513233184814, 0.034108102321624756, 0.15305054187774658, 0.02459585666656494, 0.15932366251945496, -0.03667090833187103, 0.18244361877441406, 0.04598233103752136, -0.10755592584609985, 0.007981300354003906, 0.23614662885665894, 0.24393722414970398, -0.024134904146194458, -0.23966048657894135, -0.17422640323638916, -0.04381085932254791, -0.10725286602973938, 0.14890435338020325, -0.024696752429008484, 0.08668252825737, 0.08995845913887024, -0.1613565981388092, -0.07083648443222046, 0.04918265342712402, -0.2437112033367157, 0.12114143371582031, 0.18033266067504883, -0.011373668909072876, -0.2289261370897293, -0.15641340613365173, 0.07270094752311707, 0.1272071897983551, -0.10060393810272217, 0.051534414291381836, -0.1404886394739151, 0.1502353549003601, 0.00909721851348877, -0.1683504730463028, -0.1328384280204773, -0.1258813440799713, -0.13068020343780518, -0.2161581814289093, -0.031177252531051636, 0.09875375032424927], [0.14515173435211182, -0.07311101257801056, -0.181961327791214, -0.13445541262626648, 0.18262499570846558, -0.07876512408256531, -0.157448410987854, 0.22581574320793152, 0.04219883680343628, -0.02975708246231079, 0.1328602433204651, 0.07872223854064941, -0.18094560503959656, -0.07317674160003662, -0.05660301446914673, 0.12554240226745605, -0.15531685948371887, -0.06714501976966858, -0.1495698094367981, -0.22539621591567993, 0.22111564874649048, 0.23567697405815125, 0.12793010473251343, 0.013990074396133423, -0.1438010036945343, -0.04445658624172211, -0.06416395306587219, 0.13323891162872314, -0.014567926526069641, 0.0810500979423523, 0.13246533274650574, 0.07375440001487732, 0.20655837655067444, 0.07615691423416138, 0.08695939183235168, 0.13772189617156982, 0.044202178716659546, 0.24773567914962769, 0.07561987638473511, -0.0683135986328125, 0.09684470295906067, 0.05377143621444702, 0.01266777515411377, 0.1960083544254303, 0.05849951505661011, 0.24486619234085083, -0.14324986934661865, 0.23588472604751587, 0.013493597507476807, -0.031141892075538635, 0.22117862105369568, 0.1628832221031189, -0.046977147459983826, 0.19812282919883728, -0.07134559750556946, 0.18818682432174683, -0.19402620196342468, 0.04024916887283325, -0.10407896339893341, -0.1178383082151413, -0.21793462336063385, -0.03573116660118103, 0.13024872541427612, 0.007689982652664185], [0.10799998044967651, 0.11275845766067505, -0.22754749655723572, 0.20405521988868713, 0.004865050315856934, 0.16219651699066162, -0.1590244174003601, -0.14835795760154724, -0.09789320826530457, -0.11658628284931183, 0.10513561964035034, 0.04729589819908142, 0.17024356126785278, 0.021614640951156616, -0.03565944731235504, -0.026571571826934814, -0.0019160956144332886, 0.10196635127067566, -0.08284042775630951, 0.1663607954978943, 0.10344910621643066, 0.0809457004070282, -0.06175699830055237, 0.05985623598098755, 0.04645586013793945, -0.22723202407360077, -0.17361806333065033, -0.08677545189857483, -0.21720866858959198, -0.21066878736019135, 0.04695352911949158, -0.16136977076530457, 0.22827112674713135, -0.008151188492774963, -0.12712840735912323, -0.1231057196855545, -0.14203858375549316, -0.16974331438541412, -0.1656208634376526, 0.2075166404247284, -0.01565741002559662, 0.09032496809959412, -0.0014473646879196167, -0.07515019178390503, 0.07405921816825867, 0.13600745797157288, -0.18699009716510773, 0.031082570552825928, 0.02250915765762329, 0.20034325122833252, -0.14425313472747803, -0.18189680576324463, 0.053037017583847046, -0.000899970531463623, -0.10972864925861359, 0.022310525178909302, -0.2503364086151123, 0.10993549227714539, 0.24603649973869324, 0.003257542848587036, -0.19459854066371918, 0.033328354358673096, -0.007011964917182922, -0.10962618887424469], [0.2097562551498413, 0.21956953406333923, -0.21305668354034424, 0.004989445209503174, 0.13875731825828552, 0.006542325019836426, -0.17087244987487793, 0.17027592658996582, -0.1735641360282898, -0.2444249987602234, 0.2502327263355255, -0.19742880761623383, -0.008480489253997803, 0.04013577103614807, 0.18325603008270264, 0.10513988137245178, 0.22957882285118103, -0.06028147041797638, -0.051414698362350464, -0.15841799974441528, 0.011266946792602539, -0.239691823720932, -0.15656158328056335, -0.22751250863075256, -0.2232929915189743, -0.10487724840641022, 0.17848438024520874, 0.09375175833702087, -0.20610541105270386, -0.14984998106956482, 0.20080143213272095, 0.21138712763786316, -0.24288560450077057, -0.2342841476202011, 0.04183399677276611, -0.20403501391410828, -0.0002123415470123291, 0.08453589677810669, 0.21971938014030457, -0.12910310924053192, 0.029223710298538208, 0.23857921361923218, 0.010387957096099854, -0.14879381656646729, 0.009321898221969604, -0.14370153844356537, 0.15587198734283447, -0.011941567063331604, -0.18907493352890015, -0.22475683689117432, -0.02928823232650757, 0.18684545159339905, -0.09901198744773865, -0.22137323021888733, 0.09216982126235962, 0.09261825680732727, -0.03272683918476105, 0.014188945293426514, 0.2218637764453888, 0.2005712389945984, 0.1196928322315216, 0.24279657006263733, -0.1971455216407776, -0.039940670132637024], [-0.13065779209136963, -0.20110666751861572, -0.11725902557373047, -0.015787318348884583, 0.15630313754081726, 0.054937660694122314, -0.04838436841964722, -0.08278277516365051, -0.2109556794166565, -0.1580529808998108, 0.12798571586608887, 0.1823161542415619, -0.235456183552742, 0.07613468170166016, 0.007603883743286133, 0.09435787796974182, 0.2390592098236084, -0.2459833323955536, 0.0022061169147491455, 0.11745500564575195, -0.20852530002593994, 0.0646921694278717, 0.00013181567192077637, 0.19636845588684082, 0.1305752694606781, 0.18096274137496948, -0.04769255220890045, 0.23216119408607483, 0.22215598821640015, -0.17373189330101013, -0.11968478560447693, 0.060819536447525024, -0.19608156383037567, 0.21596628427505493, -0.20600636303424835, -0.18115220963954926, -0.046068668365478516, -0.13736771047115326, 0.02363303303718567, -0.11759012937545776, -0.08507810533046722, 0.1819474995136261, 0.0668073296546936, 0.06802010536193848, -0.18122825026512146, -0.19678518176078796, -0.09808889031410217, -0.03091941773891449, -0.051306188106536865, -0.0885278582572937, -0.0376548171043396, -0.05271059274673462, -0.17736458778381348, -0.08792747557163239, -0.010669693350791931, 0.14881980419158936, -0.22964639961719513, 0.04966473579406738, -0.02315482497215271, 0.24660053849220276, 0.2374924123287201, 0.2113562822341919, 0.23282024264335632, -0.08852438628673553], [0.2333051562309265, 0.002249419689178467, 0.016027450561523438, 0.01711788773536682, 0.031000137329101562, 0.12384176254272461, 0.21213886141777039, -0.021639570593833923, 0.1734313666820526, 0.010296344757080078, -0.06140504777431488, -0.06888233125209808, -0.010692223906517029, -0.2048187404870987, 0.05968150496482849, -0.12392935156822205, -0.16925816237926483, 0.13445818424224854, -0.15319660305976868, 0.11812484264373779, 0.22222304344177246, 0.07522734999656677, 0.17597779631614685, 0.011886030435562134, -0.1754247546195984, 0.09341904520988464, 0.15000683069229126, -0.011676907539367676, -0.12312327325344086, 0.24920043349266052, 0.18617761135101318, 0.08679115772247314, -0.20951387286186218, -0.23135842382907867, -0.1544075310230255, -0.03533540666103363, -0.050991252064704895, 0.029611051082611084, -0.09010854363441467, -0.0005705952644348145, 0.06929677724838257, -0.22334128618240356, 0.21063995361328125, -0.13089776039123535, -0.062161386013031006, -0.017753511667251587, 0.2096647322177887, -0.023515835404396057, 0.2300831377506256, -0.13494595885276794, 0.07116422057151794, 0.1665661334991455, -0.22734910249710083, -0.14999641478061676, -0.015745967626571655, -0.03803667426109314, 0.0462605357170105, 0.10974836349487305, -0.08158557116985321, -0.036650240421295166, 0.20011767745018005, 0.01463976502418518, 0.01907593011856079, -0.09068913757801056], [0.08751603960990906, -0.02772444486618042, 0.18064793944358826, -0.21626940369606018, 0.16914969682693481, -0.08202476799488068, 0.18841683864593506, 0.2027387022972107, -0.05960986018180847, 0.022523552179336548, 0.06534785032272339, -0.2105715423822403, -0.15296190977096558, -0.04131457209587097, 0.24784672260284424, -0.17210011184215546, 0.1920050084590912, -0.17456480860710144, -0.11873792111873627, -0.07697354257106781, -0.1179375946521759, -0.14945295453071594, 0.20660069584846497, 0.16208842396736145, 0.02140602469444275, 0.15484732389450073, 0.04614105820655823, -0.045346662402153015, 0.18393245339393616, -0.10177783668041229, 0.08080491423606873, -0.25051453709602356, 0.19878342747688293, -0.06173986196517944, -0.006600633263587952, 0.08691224455833435, 0.01527819037437439, 0.14119184017181396, 0.12205830216407776, 0.22270309925079346, -0.23181229829788208, -0.04364824295043945, 0.11855721473693848, 0.23405548930168152, 0.15994223952293396, 0.14978572726249695, 0.11906483769416809, -0.23939108848571777, -0.01915857195854187, 0.09967124462127686, -0.042177096009254456, -0.06375254690647125, 0.16227591037750244, 0.12247359752655029, -0.12393426895141602, -0.006412073969841003, -0.24114122986793518, 0.1968500018119812, -0.10004730522632599, -0.226698637008667, -0.007177039980888367, 0.15544584393501282, 0.038581132888793945, 0.026275217533111572], [0.17640471458435059, 0.06436941772699356, 0.037460654973983765, 0.16539400815963745, -0.13114574551582336, 0.31181657314300537, -0.3386639356613159, 0.0884738340973854, -0.09168320149183273, 0.1317725032567978, -0.28855377435684204, -0.23923137784004211, -0.0019456634763628244, 0.09719933569431305, 0.3767955005168915, -0.16763731837272644, -0.11227434873580933, -0.1962856501340866, 0.026283591985702515, 0.2929588556289673, 0.09753307700157166, 0.12356945127248764, -0.06105094775557518, -0.2552090883255005, -0.06516826152801514, 0.2224411517381668, 0.0062355403788387775, 0.1666804850101471, -0.3977355659008026, -0.15813709795475006, -0.09951681643724442, 0.0506526380777359, 0.057490818202495575, -0.37865114212036133, -0.270408034324646, 0.012617580592632294, 0.24877193570137024, -0.04264054074883461, 0.032571885734796524, 0.08351443707942963, 0.3605794608592987, -0.1364360749721527, 0.11750888079404831, 0.27512112259864807, 0.17534130811691284, 0.1889389604330063, -0.20368291437625885, -0.14881746470928192, -0.12599046528339386, 0.12698571383953094, 0.22639957070350647, -0.05169623717665672, -0.1654685139656067, 0.150531604886055, -0.15264102816581726, 0.18691855669021606, -0.09281240403652191, 0.06225673481822014, -0.17797286808490753, 0.14623256027698517, 0.24152721464633942, 0.2921541929244995, -0.32536008954048157, -0.0353359580039978], [-0.2508046329021454, 0.07839475572109222, 0.43248608708381653, 0.23653970658779144, -0.23803193867206573, -0.1543693244457245, -0.013946649618446827, -0.2023232877254486, -0.0902957022190094, 0.010743960738182068, 0.14859074354171753, 0.22944584488868713, 0.13268359005451202, -0.05101447552442551, 0.1884448379278183, -0.08904784917831421, -0.006818939000368118, -0.15634766221046448, 0.14965662360191345, -0.13941393792629242, -0.2907704710960388, 0.006750776432454586, -0.20130890607833862, -0.22611840069293976, -0.2001657485961914, 0.11109139770269394, 0.17512193322181702, -0.016276711598038673, 0.1740347445011139, -0.10693744570016861, -0.062279775738716125, -0.13035959005355835, 0.21438215672969818, 0.2894051969051361, 0.05729012191295624, 0.035900745540857315, -0.03552824631333351, -0.1882706880569458, -0.021423861384391785, 0.13345691561698914, 0.04717099666595459, -0.031272463500499725, -0.09131951630115509, -0.11965055763721466, 0.19884227216243744, 0.07966378331184387, 0.10951542109251022, 0.23301273584365845, -0.18768849968910217, 0.3992372155189514, -0.08210508525371552, 0.01002507470548153, 0.027992872521281242, -0.028148731216788292, 0.07388696819543839, -0.12166620790958405, 0.15686368942260742, -0.1976020783185959, -0.31236732006073, -0.08615374565124512, 0.05342997610569, -0.10470259189605713, 0.31938686966896057, 0.05149662494659424], [0.07327467203140259, -0.04235946014523506, 0.029584158211946487, 0.1587480753660202, 0.08708516508340836, 0.016127677634358406, 0.039688851684331894, -0.16424433887004852, 0.05150546506047249, -0.1141497865319252, 0.06370055675506592, -0.2981983721256256, -0.05426039546728134, -0.12574173510074615, 0.20775051414966583, -0.1714860498905182, -0.11884498596191406, -0.262484610080719, -0.04993094131350517, 0.25826728343963623, -0.07204068452119827, -0.2691607177257538, -0.15705443918704987, 0.0006537592853419483, 0.1543298214673996, 0.32286182045936584, 0.03300884738564491, -0.25096264481544495, -0.14980483055114746, 0.42954036593437195, 0.2107154279947281, -0.18463784456253052, 0.16469721496105194, 0.011637941934168339, 0.15414446592330933, -0.06712193787097931, 0.04429924860596657, 0.07927582412958145, 0.17856626212596893, 0.07752756029367447, 0.24994437396526337, 0.2078239619731903, 0.29229217767715454, -0.15395504236221313, -0.09012851119041443, 0.2817932069301605, -0.032969698309898376, -0.1594887375831604, 0.04278446361422539, 0.06899675726890564, -0.16521568596363068, -0.03251853585243225, -0.2809886634349823, -0.3285737931728363, 0.0821334719657898, -0.1970716416835785, 0.07205241918563843, -0.31165021657943726, 0.23871177434921265, 0.09085182845592499, 0.21325181424617767, 0.01034183707088232, -0.15400156378746033, 0.15353937447071075], [0.20326215028762817, -0.052199915051460266, -0.23074091970920563, 0.2127576768398285, 0.04150468111038208, 0.019309908151626587, -0.13022254407405853, 0.16873770952224731, -0.24994173645973206, 0.003908723592758179, 0.21335572004318237, 0.1378646194934845, -0.002529233694076538, 0.0406453013420105, 0.03009021282196045, 0.02390769124031067, -0.013063222169876099, -0.10524819791316986, 0.1361086666584015, -0.09963206946849823, -0.1804659068584442, -0.02265326678752899, 0.04709440469741821, 0.12116098403930664, 0.17372316122055054, -0.24971626698970795, -0.11661498248577118, 0.05474862456321716, 0.21110773086547852, -0.19938865303993225, 0.095998615026474, 0.05673867464065552, -0.11853137612342834, 0.005015283823013306, -0.11093167960643768, -0.14712102711200714, 0.19701826572418213, -0.019856855273246765, -0.24714352190494537, 0.22416478395462036, 0.17145127058029175, 0.1206129789352417, 0.005934000015258789, 0.04474174976348877, -0.21249069273471832, -0.22704988718032837, 0.19816190004348755, -0.07787583768367767, -0.07034407556056976, -0.03945054113864899, -0.019521966576576233, 0.17724290490150452, 0.02773529291152954, -0.10349614918231964, -0.055887892842292786, -0.1189516931772232, 0.20054158568382263, 0.17507824301719666, 0.0040475428104400635, -0.10659736394882202, -0.14523601531982422, -0.01531006395816803, 0.016203194856643677, -0.06562522053718567], [0.18785890936851501, -0.1825105994939804, 0.09992781281471252, 0.06688976287841797, -0.1063641607761383, 0.0479789674282074, -0.1812555193901062, 0.22743406891822815, 0.0030125975608825684, 0.17993786931037903, 0.2325972318649292, -0.13861417770385742, 0.05766332149505615, 0.009997308254241943, -0.01221323013305664, 0.013543039560317993, 0.1795632541179657, 0.06132271885871887, 0.02664688229560852, 0.06783923506736755, -0.05064679682254791, -0.17728854715824127, -0.017171889543533325, 0.16734662652015686, 0.11563926935195923, 0.22468984127044678, 0.09632894396781921, 0.1434306502342224, 0.16860026121139526, 0.22070670127868652, 0.22911733388900757, 0.09684878587722778, 0.07696309685707092, -0.1628642976284027, 0.002188354730606079, -0.12326887249946594, 0.078666090965271, 0.16390278935432434, 0.2199731469154358, -0.23413825035095215, 0.1673395335674286, -0.13639375567436218, -0.005018576979637146, 0.032384276390075684, -0.059930652379989624, 0.2198951244354248, -0.05690129101276398, 0.08285006880760193, 0.2174690067768097, -0.1967344880104065, -0.026365265250205994, -0.0505799800157547, -0.1989511251449585, 0.22362935543060303, -0.2018803209066391, 0.24019885063171387, -0.08736671507358551, -0.182958722114563, -0.20387215912342072, 0.04977032542228699, 0.19274210929870605, -0.07592491805553436, 0.09804755449295044, -0.04961070418357849], [0.10949373245239258, -0.17841236293315887, 0.23705825209617615, 0.06615400314331055, -0.21258333325386047, -0.15628769993782043, 0.03874799609184265, -0.031126856803894043, 0.11026191711425781, -0.18665330111980438, -0.0864701122045517, -0.21781030297279358, 0.007572799921035767, 0.1626073122024536, -0.042283445596694946, -0.22436442971229553, -0.1022159606218338, -0.13966681063175201, -0.15570294857025146, 0.1205994188785553, -0.06122145056724548, 0.24897709488868713, 0.21717199683189392, -0.2064383625984192, 0.15472254157066345, -0.0653844028711319, -0.17654982209205627, 0.1623179018497467, 0.10206568241119385, -0.034088462591171265, -0.13303938508033752, -0.1085672676563263, -0.22857867181301117, -0.22584523260593414, -0.00463557243347168, 0.050306349992752075, 0.03684982657432556, -0.22869916260242462, 0.20430278778076172, -0.05190086364746094, 0.040138691663742065, -0.05072373151779175, -0.20635513961315155, -0.12273195385932922, -0.050338879227638245, -0.21004073321819305, 0.05952051281929016, 0.1221705973148346, 0.07943212985992432, -0.1632370501756668, -0.08944956958293915, -0.055344268679618835, -0.24387681484222412, 0.14675158262252808, -0.07817350327968597, -0.14150525629520416, 0.09714525938034058, 0.10050836205482483, -0.006048738956451416, -0.04915976524353027, -0.04615093767642975, 0.07304510474205017, -0.1541721224784851, -0.18590757250785828], [-0.10970498621463776, -0.06241831183433533, 0.11074689030647278, -0.11471571028232574, 0.23998385667800903, -0.0213937908411026, -0.20758560299873352, -0.11868824064731598, 0.15583482384681702, 0.23305553197860718, 0.05624428391456604, 0.21717870235443115, -0.026673361659049988, 0.16929733753204346, 0.06706058979034424, 0.11386829614639282, 0.15654373168945312, 0.2215196192264557, -0.03071419894695282, 0.20244714617729187, 0.21334752440452576, -0.22593960165977478, 0.1054738461971283, 0.23049011826515198, 0.13026809692382812, 0.14126330614089966, 0.13811427354812622, 0.0649147629737854, 0.006595313549041748, -0.030323728919029236, 0.05208656191825867, -0.05648359656333923, -0.2253931611776352, -0.006722450256347656, -0.03669792413711548, 0.10518577694892883, -0.22465935349464417, -0.07237792015075684, -0.019134849309921265, 0.23059123754501343, -0.17851650714874268, -0.013595834374427795, -0.24903123080730438, 0.1830117404460907, -0.09298595786094666, 0.2449868619441986, -0.14817839860916138, 0.21839016675949097, -0.2504744529724121, -0.18383705615997314, -0.13132065534591675, 0.14631718397140503, -0.08622030913829803, -0.12042692303657532, 0.09865564107894897, -0.15524135529994965, 0.03914159536361694, 0.062099307775497437, 0.2032037079334259, 0.044922858476638794, -0.10994231700897217, -0.007785618305206299, -0.13921168446540833, -0.15654125809669495], [-0.2108055204153061, 0.17846310138702393, -0.17288348078727722, -0.10118938982486725, -0.04772479832172394, -0.20161452889442444, -0.2261306196451187, -0.08715711534023285, -0.19702447950839996, -0.001085042953491211, -0.01918637752532959, 0.23386722803115845, 0.13312280178070068, 0.0783156156539917, 0.07301533222198486, 0.23450368642807007, -0.24786421656608582, 0.004382491111755371, 0.07586771249771118, -0.06210283935070038, 0.13066941499710083, -0.15117180347442627, -0.03273096680641174, 0.02410656213760376, 0.17556393146514893, 0.1920032799243927, -0.096302330493927, 0.12878194451332092, 0.19673076272010803, -0.03918750584125519, -0.010691925883293152, -0.028337404131889343, 0.049500882625579834, 0.09434685111045837, -0.03570197522640228, 0.08282250165939331, -0.0004285275936126709, 0.14378565549850464, -0.16969335079193115, -0.1513635516166687, 0.1884465217590332, -0.149244025349617, 0.24030748009681702, -0.2348187267780304, 0.2385040819644928, 0.15650230646133423, -0.14461515843868256, -0.11876362562179565, -0.012926846742630005, 0.12290295958518982, 0.10287356376647949, 0.012513071298599243, 0.07816961407661438, 0.12486663460731506, -0.015356510877609253, -0.22556805610656738, 0.1530567705631256, 0.15960311889648438, 0.21415311098098755, 0.014661580324172974, -0.13421779870986938, -0.024065881967544556, -0.137073814868927, 0.10431480407714844], [0.16277512907981873, -0.19741083681583405, 0.21111798286437988, -0.22890186309814453, 0.1742268204689026, -0.23089921474456787, -0.0838988721370697, -0.1441258192062378, -0.061642974615097046, 0.16913771629333496, 0.016950249671936035, -0.23355111479759216, 0.17538952827453613, -0.13378483057022095, -0.1636892557144165, -0.11526131629943848, 0.11384731531143188, -0.05597914755344391, 0.1708877980709076, -0.15084311366081238, 0.18105778098106384, -0.08139580488204956, -0.06205958127975464, 0.1584966778755188, -0.19391122460365295, -0.08741848170757294, 0.01932886242866516, 0.17090901732444763, -0.22137892246246338, -0.18911698460578918, 0.06144219636917114, -0.21226438879966736, 0.11305484175682068, 0.1825070083141327, 0.21804210543632507, -0.07920989394187927, -0.06896898150444031, 0.0380558967590332, -0.09264077246189117, -0.044767558574676514, 0.001581341028213501, -0.22936773300170898, 0.13696032762527466, 0.13794243335723877, -0.1407809853553772, 0.128159761428833, -0.18636539578437805, 0.011169880628585815, 0.2294783890247345, 0.19391188025474548, 0.10281208157539368, 0.07311496138572693, 0.06776109337806702, 0.12940281629562378, 0.08967533707618713, -0.20806781947612762, -0.15654966235160828, 0.08237120509147644, 0.10963955521583557, 0.22713473439216614, 0.16572919487953186, 0.24434849619865417, 0.13380682468414307, 0.20045673847198486], [0.0043582916259765625, -0.027966201305389404, -0.18188488483428955, -0.11311094462871552, -0.2442115843296051, -0.14216813445091248, 0.2260763943195343, 0.1782786250114441, -0.14806203544139862, 0.19074225425720215, -0.24292023479938507, -0.05886802077293396, 0.14623725414276123, -0.16537430882453918, 0.1066262423992157, -0.01471981406211853, -0.03278729319572449, 0.19668403267860413, -0.030049487948417664, 0.12379807233810425, -0.21397030353546143, -0.03870654106140137, -0.17569223046302795, -0.07632559537887573, 0.2502395212650299, 0.05517980456352234, -0.19059054553508759, -0.03683370351791382, 0.11657160520553589, 0.01116114854812622, 0.12404248118400574, -0.1827636957168579, -0.13729676604270935, 0.1840066909790039, -0.17768651247024536, 0.004673808813095093, 0.046021103858947754, -0.1726473867893219, 0.16487860679626465, -0.08398598432540894, -0.15273475646972656, -0.21517932415008545, 0.14935427904129028, -0.05536332726478577, 0.15775105357170105, -0.04519112408161163, 0.12419545650482178, 0.18969160318374634, -0.11243878304958344, 0.2458823323249817, 0.24659126996994019, -0.19936677813529968, -0.04839341342449188, 0.07101604342460632, -0.05536344647407532, -0.24788746237754822, 0.05409690737724304, 0.0329439640045166, -0.0643879771232605, 0.1999587118625641, 0.14853471517562866, -0.1572599709033966, 0.021223992109298706, -0.08803017437458038]], "haggle/preprocess/bias:0": [-0.09665841609239578, 0.13706257939338684, 0.23719072341918945, 0.12755191326141357, -0.0010151742026209831, 0.16578885912895203, -0.023304393514990807, -0.021608766168355942, 0.03560328483581543, 0.0007854722207412124, -0.10825327783823013, -0.04907865822315216, -0.04311387240886688, 0.09641684591770172, 0.1953812688589096, 0.005447299685329199, -0.026410691440105438, -0.0058189150877296925, 0.10751006007194519, 0.12424882501363754, 0.025834832340478897, -0.10272708535194397, -0.09815850108861923, -0.05403611809015274, -0.05098048225045204, 0.12280949205160141, 0.11357494443655014, -0.08929479867219925, -0.0750272199511528, 0.15427324175834656, -0.04875648021697998, -0.006580553017556667, 0.18096201121807098, 0.10112173110246658, -0.12001016736030579, -0.051365479826927185, 0.06387397646903992, -0.01722339540719986, 0.11719895154237747, 0.15177743136882782, 0.08030164241790771, -0.013755646534264088, 0.16817380487918854, 0.17505797743797302, -0.002387718530371785, 0.11137869209051132, -0.05937166139483452, -0.0023548791650682688, -3.2137613743543625e-06, 0.3070489168167114, 0.10283855348825455, 0.012604240328073502, -0.20563998818397522, -0.03959260880947113, -0.0440683513879776, 0.0, 0.0406135618686676, -0.19350144267082214, -0.09961206465959549, -0.016294728964567184, 0.19716496765613556, 0.1294863522052765, -0.025905370712280273, -0.016964318230748177], "haggle/lstm/kernel:0": [[-0.0075132702477276325, 0.0163605697453022, 0.21180564165115356, 0.06192118301987648, 0.020817823708057404, 0.09762860089540482, 0.12513761222362518, 0.00251520867459476, 0.2668439745903015, -0.03532043471932411, -0.16527427732944489, -0.16868093609809875, 0.07460182160139084, -0.14478346705436707, 0.28193479776382446, 0.18667440116405487, -0.05224541202187538, -0.0016209589084610343, -0.06645817309617996, -0.049765147268772125, -0.02334204688668251, 0.14551952481269836, 0.04719877988100052, 0.05356620252132416, 0.2739783525466919, 0.00113994674757123, 0.09023849666118622, 0.08661970496177673, 0.12767541408538818, 0.21345950663089752, -0.042159371078014374, 0.034463923424482346, 0.003214730881154537, -0.03486090153455734, 0.0871480330824852, -0.03458087146282196, 0.22613480687141418, -0.08463092893362045, -0.11628853529691696, 0.228291317820549, 0.11406564712524414, 0.03726142644882202, -0.008572681806981564, 0.06385396420955658, 0.022265389561653137, 0.07590141892433167, 0.07732885330915451, 0.010441453196108341, 0.06807585060596466, 0.14874781668186188, 0.015518520027399063, 0.19505415856838226, -0.05358812212944031, 0.021463623270392418, -0.1451769471168518, 0.06441763043403625, -0.05684942007064819, 0.19132393598556519, -0.1719837784767151, -0.03569737821817398, -0.07770641148090363, 0.21444277465343475, -0.2959810495376587, -0.11077731847763062, -0.242195725440979, 0.028226010501384735, 0.10626845061779022, -0.05637981370091438, 0.11149515211582184, -0.04126488044857979, -0.02227281779050827, 0.14153170585632324, 0.07585664838552475, -0.20695964992046356, 0.17793205380439758, -0.05523541942238808, 0.10560096055269241, 0.02128402143716812, -0.19100315868854523, 0.23452289402484894, -0.04359922558069229, 0.09711935371160507, 0.02781987562775612, 0.16766270995140076, 0.11018386483192444, -0.00045781515655107796, 0.015376259572803974, 0.05350843816995621, -0.126013845205307, -0.04673122242093086, 0.18358714878559113, 0.024791007861495018, -0.04065108671784401, -0.03599172085523605, 0.11026591062545776, -0.11698748171329498, 0.1391112357378006, 0.16835220158100128, 0.10391813516616821, 0.12906673550605774, 0.1694481372833252, 0.12744222581386566, 0.08463049679994583, 0.08822012692689896, 0.08258577436208725, 0.0167728029191494, 0.0815100148320198, 0.20407381653785706, -0.07621161639690399, -0.10455863177776337, 0.11877331137657166, -0.12170827388763428, 0.10593439638614655, -0.21012893319129944, -0.06281690299510956, -0.050175610929727554, -0.018571829423308372, 0.09140794724225998, -0.08691120892763138, -0.08169620484113693, -0.02951981872320175, 0.07916207611560822, 0.10886985063552856, 0.1723097860813141, 0.08866436779499054, 0.02352270483970642, 0.10319342464208603, 0.026185734197497368, -0.029807306826114655, 0.026705576106905937, -0.045231450349092484, 0.08143589645624161, 0.01801319606602192, -0.05032367631793022, 0.03052438050508499, -0.0184030719101429, -0.04415647312998772, -0.048222336918115616, 0.0795355960726738, 0.0835428386926651, -0.05085448920726776, 0.06278872489929199, 0.03646738827228546, -0.07673722505569458, 0.09534387290477753, 0.08929026871919632, -0.003368823090568185, -0.025258544832468033, 0.00143648951780051, 0.1467568427324295, -0.07435639947652817, -0.07190282642841339, -0.08986324816942215, 0.26356470584869385, 0.09316400438547134, -0.10176434367895126, 0.053957294672727585, -0.00837610475718975, 0.08384538441896439, -0.0906246230006218, -0.04450683668255806, -0.10787934064865112, -0.053634267300367355, -0.006178448908030987, -0.00649317866191268, 0.005641075782477856, 0.14419706165790558, -0.10884004831314087, 0.0007698044646531343, -0.013643329963088036, 0.05129105597734451, 0.06436322629451752, 0.015951385721564293, -0.04412397742271423, -0.16417032480239868, -0.044370438903570175, 0.03051590546965599, 0.03389051556587219, 0.133952796459198, 0.11670764535665512, -0.0009937402792274952, -0.08853660523891449, 0.0024596541188657284, 0.013055339455604553, 0.029137039557099342, 0.04219590872526169, -0.0643279030919075, 0.09846321493387222, 0.02389109693467617, -0.19117020070552826, -0.10301592946052551, -0.01379428431391716, 0.0449049137532711, 0.10908494144678116, -0.03372907266020775, 0.03998558968305588, -0.0902596265077591, -0.025243647396564484, -0.04617881029844284, -0.11889157444238663, 0.01724889688193798, 0.057860758155584335, 0.014098272658884525, -0.011821681633591652, 0.044318120926618576, -0.05858759954571724, 0.12549424171447754, 0.09497068077325821, -0.004367993213236332, -0.11044660955667496, 0.14555294811725616, 0.12387441843748093, -0.14289839565753937, -0.06303594261407852, 0.010868323035538197, -0.004253040999174118, -0.14082781970500946, 0.056501977145671844, 0.022444624453783035, -0.20127294957637787, 0.033951789140701294, -0.08316390216350555, -0.040830932557582855, -0.09964127838611603, 0.08847615122795105, -0.05483236163854599, 0.0015085273189470172, 0.052025362849235535, 0.024852819740772247, 0.01884351298213005, -0.036924511194229126, 0.060279421508312225, 0.020334050059318542, -0.04161127656698227, 0.0855175033211708, -0.11365515738725662, 0.023621033877134323, -0.03902801126241684, 0.14833615720272064, 0.1279647946357727, 0.13163791596889496, 0.12757912278175354, 0.031145209446549416, 0.07687905430793762, -0.11419104039669037, -0.192620649933815, -0.076082743704319, -0.1376558393239975, -0.08819789439439774, 0.08607542514801025, -0.07998538762331009, 0.11772749572992325, 0.1016898900270462, 0.06863298267126083, 0.047704361379146576, -0.010440859012305737, -0.14565309882164001, -0.22217392921447754, -0.1191951259970665, -0.14378775656223297, 0.02922627329826355, 0.06295904517173767, -0.012995252385735512, -0.1674003005027771, -0.12348013371229172, 0.021542606875300407, -0.057236023247241974, -0.1671794354915619, -0.1035090759396553, -0.012655140832066536, -0.26695817708969116, 0.12610317766666412, -0.017835263162851334, -0.11317751556634903, -0.03764716908335686, -0.09758977591991425, 0.14811834692955017, -0.1572028547525406, -0.14665281772613525, -0.10977932065725327, 0.14630983769893646, 0.08324684947729111, -0.0409795418381691, -0.061594158411026, -0.13741308450698853, 0.0015103014884516597, -0.07981893420219421, -0.12152617424726486, 0.01612279750406742, 0.1035645455121994, 0.058047130703926086, -0.011506044305860996, -0.04276960343122482, -0.023017102852463722, 0.022614559158682823, -0.09370090812444687, -0.1233445331454277, -0.012342477217316628, -0.08732921630144119, -0.11526495218276978, -0.08298779278993607, -0.01437148917466402, 0.1281667947769165, -0.016509193927049637, -0.18584920465946198, 0.10426148772239685, 0.13206267356872559, -0.09346845000982285, 0.042195893824100494, -0.044094908982515335, -0.04051073268055916, 0.04694020003080368, 0.072852723300457, 0.0133595522493124, 0.019188201054930687, -0.03281708061695099, -0.1831759214401245, -0.16221533715724945, -0.10393498837947845, 0.009129999205470085, -0.052344854921102524, -0.03983713313937187, -0.11140856891870499, -0.050637442618608475, -0.15608537197113037, 0.08836738765239716, 0.048870742321014404, 0.1685551255941391, -0.21135523915290833, -0.1840006411075592, -0.18747346103191376, -0.07249410450458527, -0.08152759075164795, -0.219911128282547, -0.007242223247885704, -0.14558212459087372, 0.08446894586086273, -0.00908203050494194, 0.08232641965150833, -0.05025731772184372, -0.09732123464345932, -0.27811989188194275, -0.14481960237026215, -0.06398989260196686, 0.10824650526046753, -0.050759028643369675, -0.023446179926395416, 0.06343887746334076, -0.06651026755571365, -0.1122651919722557, 0.012796525843441486, 0.016391493380069733, -0.18899951875209808, 0.02882700227200985, 0.09760525077581406, 0.06395287811756134, -0.13093671202659607, -0.23220472037792206, -0.1048521101474762, 0.1683325618505478, -0.024216987192630768, -0.08726265281438828, 0.16245296597480774, 0.020262498408555984, -0.11407210677862167, -0.07334119826555252, -0.1842612773180008, -0.12251509726047516, -0.07401016354560852, -0.09420648962259293, -0.08100935816764832, 0.11327037960290909, 0.03969211503863335, -0.40267640352249146, -0.013447958044707775, -0.14327463507652283, -0.1732773780822754, -0.13893677294254303, -0.0124275553971529, -0.17176391184329987, -0.09667965024709702, -0.227101668715477, -0.05913979187607765, 0.11608835309743881, -0.0021534832194447517, 0.07209061086177826, 0.09520603716373444, -0.0831485316157341, -0.11291289329528809, -0.1210869625210762, 0.13656209409236908, 0.07436412572860718, 0.18927182257175446, -0.024146679788827896, -0.0602867417037487, -0.20736773312091827, -0.11591441184282303, -0.010556072928011417, 0.2646935284137726, 0.020420780405402184, -0.00967097096145153, -0.03329341486096382, -0.09768056869506836, -0.15538126230239868, -0.006625863257795572, -0.012557738460600376, -0.04825752228498459, -0.05238673463463783, 0.21094323694705963, -0.09773898124694824, 0.04355711117386818, 0.13502807915210724, 0.1298411339521408, 0.32852399349212646, 0.032855868339538574, 0.14721383154392242, 0.0355600044131279, -0.04146001487970352, -0.029285725206136703, 0.04339524358510971, -0.043983470648527145, -0.03489812836050987, -0.1777995228767395, 0.10111060738563538, 0.06643244624137878, -0.03555690497159958, 0.08086568117141724, 0.027061259374022484, 0.16528241336345673, -0.1112796813249588, -0.1699211299419403, -0.11881621927022934, -0.12915678322315216, 0.08651603013277054, -0.07135568559169769, 0.08801671862602234, 0.019779816269874573, -0.04504358768463135, 0.0868932381272316, -0.05332177132368088, -0.0707191526889801, 0.04423698037862778, 0.05858785659074783, -0.03452041372656822, -0.06583012640476227, 0.09604541957378387, -0.2556729018688202, -0.009236757643520832, -0.053932756185531616, -0.05387481302022934, -0.04044024273753166, -0.05113552138209343, 0.3285178244113922, 0.184535413980484, 0.04114804044365883, 0.1754368096590042, 0.15914498269557953, -0.16360853612422943, 0.07749959826469421, -0.021368077024817467, 0.17334622144699097, 0.062435973435640335, -0.09271935373544693, 0.15357153117656708, 0.00674794614315033, 0.04410680755972862, 0.02077091857790947, -0.039834219962358475, -0.04758109524846077, -0.02494913525879383, -0.04987507686018944, -0.07096661627292633, -0.044242460280656815, -0.1865992695093155, -0.09407727420330048, -0.0219794362783432, 0.132591113448143, -0.10202312469482422, -0.06703212857246399, -0.005004017613828182, 0.1874392181634903, 0.025476135313510895, -0.010460469871759415, 0.05769640579819679, -0.07871592044830322, -0.06053062528371811, 0.11462639272212982, 0.05002279579639435, -0.04922125115990639, -0.059173427522182465, -0.009119191206991673, -0.037492264062166214, -0.19348430633544922, -0.12192925810813904, -0.03862849250435829, -0.0690552294254303, 0.22273696959018707, -0.05559142678976059, -0.0787687823176384, -0.0039155129343271255, -0.017521671950817108, 0.04845401644706726, -0.049708932638168335, -0.010045314207673073, -0.042810335755348206, -0.024645967409014702, 0.028323449194431305, 0.027626030147075653, 0.00887997169047594, -0.04830212891101837, 0.004585980903357267, -0.05253469571471214], [-0.4130708873271942, 0.21112710237503052, 0.1625031977891922, -0.08281601965427399, 0.09314355254173279, 0.14035362005233765, 0.09403952956199646, 0.21500235795974731, 0.3327990770339966, -0.06022796034812927, 0.1283496618270874, -0.1634526252746582, 0.08414530754089355, 0.004049209877848625, 0.40621069073677063, 0.2110258787870407, 0.07403881847858429, -0.3653603196144104, -0.09489039331674576, -0.3136681318283081, 0.13336925208568573, 0.1953829973936081, 0.17462565004825592, -0.007608662359416485, 0.2342468500137329, -0.22132904827594757, 0.34996962547302246, 0.2470604032278061, 0.27941349148750305, 0.3411341607570648, 0.16507071256637573, 0.34031519293785095, 0.12051333487033844, 0.12365686893463135, 0.27223268151283264, 0.21612848341464996, 0.35441455245018005, 0.16674932837486267, -0.04660803824663162, 0.37843039631843567, 0.21311387419700623, 0.19875216484069824, 0.5310145020484924, -0.0011301888152956963, 0.2045983225107193, 0.1020694226026535, -0.12694323062896729, 0.1467979997396469, 0.03809330239892006, 0.27878087759017944, -0.288085013628006, 0.02159906178712845, 0.04963541775941849, -0.0034950128756463528, -0.4899495542049408, 0.053248580545186996, -0.20558209717273712, 0.10583630949258804, 0.16438016295433044, 0.20086213946342468, 0.012673011049628258, 0.579239547252655, -0.288129061460495, -0.015189371071755886, 0.01115509308874607, -0.032442204654216766, 0.12931141257286072, -0.26808708906173706, 0.2554568350315094, 0.06065385416150093, 0.04188552871346474, 0.3279998302459717, 0.2540309727191925, -0.3324744701385498, 0.24815133213996887, -0.21567557752132416, 0.3655097186565399, 0.1657462865114212, -0.34784018993377686, 0.5183261036872864, -0.1263098120689392, 0.12266156822443008, -0.06173861399292946, 0.23945623636245728, 0.2596343159675598, 0.02197674848139286, -0.014041157439351082, 0.15157604217529297, 0.3245737552642822, 0.0026950137689709663, 0.09385287761688232, -0.011883987113833427, -0.010994446463882923, -0.11531459540128708, 0.16177332401275635, -0.48748013377189636, 0.18121686577796936, 0.46630892157554626, 0.22969098389148712, 0.14021599292755127, 0.016400128602981567, -0.03881092742085457, 0.001109207747504115, 0.0342588871717453, 0.17681539058685303, 0.14397113025188446, 0.26479849219322205, 0.33059391379356384, -0.030119096860289574, -0.04587697237730026, 0.35962986946105957, 0.04614810645580292, 0.098514124751091, -0.43209949135780334, -0.19871336221694946, -0.20108075439929962, 0.08899375796318054, 0.12366127967834473, 0.08099127560853958, 0.10304443538188934, -0.3334440290927887, 0.17907248437404633, 0.2681209146976471, 0.39453232288360596, -0.12071572989225388, 0.24457545578479767, 0.24349918961524963, -0.048266954720020294, 0.18217293918132782, -0.11042959988117218, -0.3169619143009186, 0.09148312360048294, 0.12500832974910736, -0.0788305476307869, -0.19425880908966064, -0.22525818645954132, -0.33979958295822144, -0.057999808341264725, 0.15368905663490295, 0.026334164664149284, 0.101946622133255, -0.055785804986953735, -0.27498871088027954, -0.10598430782556534, 0.1443709135055542, 0.011457175947725773, 0.13950243592262268, -0.13798432052135468, 0.04177597165107727, 0.42165353894233704, 0.04855699837207794, -0.16641755402088165, 0.08877088874578476, 0.11991702765226364, 0.23851998150348663, -0.12111600488424301, -0.12184122204780579, -0.2041958123445511, 0.031706321984529495, -0.14975547790527344, -0.11315228790044785, -0.32378995418548584, -0.013319229707121849, 0.00012700172374024987, -0.2879372835159302, 0.04838249087333679, 0.13513362407684326, 0.06343679130077362, 0.2643240690231323, 0.049876827746629715, 0.24777154624462128, 0.01485099270939827, -0.3612048625946045, -0.13496582210063934, -0.06751276552677155, 0.2246074676513672, 0.06144504249095917, 0.2658993601799011, 0.005295167211443186, 0.2893056869506836, -0.06750305742025375, 0.022791584953665733, -0.05589247867465019, -0.1586323231458664, -0.10555369406938553, 0.06282909959554672, -0.02962763048708439, -0.08101923763751984, -0.07819432020187378, -0.26056697964668274, 0.10005618631839752, -0.03376006335020065, -0.006419789046049118, 0.0051727816462516785, -0.24889330565929413, 0.049892719835042953, 0.2570522129535675, 0.24724647402763367, -0.3269144892692566, -0.24863487482070923, -0.26255014538764954, 0.16637472808361053, -0.1796727031469345, 0.02561972662806511, -0.16593334078788757, 0.013617632910609245, 0.19907505810260773, -0.19926823675632477, -0.0973672941327095, 0.09803909808397293, -0.010287560522556305, 0.12942057847976685, -0.11363106220960617, -0.1494905650615692, 0.04107658937573433, 0.24235965311527252, -0.06766785681247711, 0.03056168742477894, 0.07717015594244003, -0.02560313604772091, 0.09665287286043167, 0.0054345340467989445, -0.1808423101902008, 0.10819312185049057, -0.2687282860279083, -0.2132505178451538, -0.10863649845123291, -0.28701621294021606, -0.09055861830711365, 0.043382205069065094, -0.15456219017505646, -0.19791685044765472, 0.3615366220474243, 0.11437710374593735, 0.09054546058177948, -0.20596502721309662, 0.11878230422735214, 0.046927597373723984, 0.36571887135505676, 0.1318378746509552, -0.23597131669521332, -0.03438708931207657, 0.05575472116470337, 0.19471216201782227, 0.05806783214211464, 0.12383197247982025, -0.15445922315120697, 0.03818412125110626, -0.2785422205924988, 0.2634473741054535, 0.14621472358703613, -0.2442997694015503, -0.019032618030905724, 0.4337563216686249, 0.36812734603881836, 0.08376915752887726, 0.028037922456860542, -0.11324261128902435, -0.3249032497406006, -0.08929083496332169, 0.15832218527793884, -0.025389058515429497, -0.3442499339580536, -0.2778080403804779, -0.4659023880958557, -0.14672479033470154, -0.07305124402046204, -0.08211836218833923, -0.046275828033685684, 0.06774447113275528, -0.1991717368364334, 0.10109816491603851, 0.07277948409318924, -0.08531820774078369, -0.004588906187564135, 0.0404805988073349, -0.03497961536049843, 0.04448588564991951, -0.08247022330760956, -0.25699806213378906, 0.19480077922344208, 0.20383672416210175, -0.4891855716705322, -0.09995018690824509, -0.21306297183036804, -0.36571797728538513, 0.01698390394449234, -0.06387348473072052, 0.04462819546461105, 0.19354021549224854, 0.11693789809942245, 0.07690675556659698, -0.203220397233963, 0.046779174357652664, 0.002895719837397337, -0.22707629203796387, -0.2065194547176361, -0.001609992003068328, -0.22009867429733276, -0.003100261790677905, -0.1959260106086731, -0.04825592413544655, 0.3231310248374939, -0.06842459738254547, -0.08600574731826782, 0.027430394664406776, -0.05746405944228172, -0.12570449709892273, -0.05625801905989647, 0.010176382958889008, 0.024760987609624863, -0.14791902899742126, -0.11139575392007828, 0.025923099368810654, -0.029495462775230408, -0.1170518547296524, -0.12730644643306732, -0.2306012213230133, -0.1944001317024231, 0.05284210294485092, 0.06663152575492859, -0.27409040927886963, 0.18050190806388855, -0.2971630394458771, -0.172562375664711, 0.33478567004203796, 0.01509090419858694, 0.21563215553760529, -0.22204378247261047, -0.20960570871829987, -0.11092841625213623, -0.13841484487056732, -0.12973140180110931, -0.02736116200685501, 0.22116659581661224, -0.3092350661754608, -0.0160070788115263, 0.1566447913646698, -0.0838574469089508, -0.008051668293774128, 0.15101788938045502, -0.04830125346779823, -0.0017857099883258343, 0.010660144500434399, 0.35324209928512573, 0.11054300516843796, -0.02852822095155716, 0.07024429738521576, -0.3116493225097656, -0.04245010390877724, 0.06715309619903564, 0.013046403415501118, -0.2551535367965698, 0.10479873418807983, -0.28745853900909424, -0.2344769984483719, 9.419002890354022e-05, 0.13137739896774292, -0.2169531136751175, 0.12682253122329712, 0.18331734836101532, -0.2133880853652954, -0.024722568690776825, 0.08830500394105911, 0.030736900866031647, -0.026719221845269203, 0.01638902723789215, -0.16065014898777008, 0.029172413051128387, 0.09357880800962448, -0.01686333306133747, 0.18620344996452332, -0.06612162292003632, -0.08158242702484131, -0.013059508986771107, -0.02795531414449215, 0.03427848964929581, -0.04402995854616165, -0.030130624771118164, -0.20271329581737518, -0.051724281162023544, 0.10959292203187943, -0.040327008813619614, -0.1723724752664566, -0.11043860763311386, 0.1800178587436676, 0.3349563181400299, -0.20581363141536713, -0.020015111193060875, 0.0164253618568182, -0.14360056817531586, 0.20688576996326447, 0.04638117924332619, -0.32606473565101624, 0.09165138006210327, -0.12781353294849396, 0.02721153013408184, 0.15017658472061157, 0.5752986073493958, -0.019741687923669815, 0.0473586842417717, -0.31040358543395996, -0.12462428212165833, -0.0907144770026207, 0.14593808352947235, 0.14620745182037354, -0.0012732389150187373, 0.04363107681274414, 0.05660603940486908, 0.05353698506951332, 0.11811179667711258, 0.35272595286369324, 0.06731446832418442, 0.16032570600509644, 0.05506841093301773, 0.3764997720718384, -0.1992684155702591, 0.2975168824195862, 0.11579351127147675, 0.2317100316286087, 0.32633861899375916, 0.17865395545959473, -0.12190380692481995, 0.2665551006793976, 0.11185218393802643, 0.12588803470134735, 0.4631364643573761, 0.07297111302614212, 0.4467102885246277, -0.001410755910910666, -0.40605878829956055, -0.03808627277612686, -0.03856517747044563, 0.23976676166057587, -0.35507890582084656, 0.08409086614847183, -0.15319672226905823, -0.0019270794000476599, -0.10745840519666672, -0.0789642333984375, -0.3873811364173889, 0.04130846634507179, 0.16164249181747437, 0.20876765251159668, 0.1664396971464157, 0.44381624460220337, -0.21388131380081177, -0.03662361949682236, 0.0006459810538217425, -0.17965497076511383, 0.13661207258701324, -0.2498563826084137, 0.21268734335899353, 0.2614692747592926, -0.05044140666723251, 0.06260796636343002, 0.18618689477443695, -0.2792295515537262, 0.3412439823150635, -0.2818024456501007, 0.30015432834625244, 0.13462302088737488, -0.22376294434070587, 0.5368298888206482, 0.030933426693081856, -0.017489910125732422, -0.169741690158844, 0.15832261741161346, 0.27204251289367676, -0.041280440986156464, 0.11811932176351547, 0.18963387608528137, 0.20848137140274048, -0.1449570506811142, 0.22585776448249817, -0.013851867988705635, 0.050158340483903885, -0.005282389931380749, 0.006242713890969753, -0.14513139426708221, 0.135842427611351, 0.23773136734962463, -0.013290110975503922, 0.03360505402088165, 0.19160209596157074, 0.007762884721159935, -0.05053608492016792, -0.017853116616606712, 0.0015564325731247663, 0.1566253900527954, -0.024977080523967743, 0.20099714398384094, -0.09961351752281189, -0.07466212660074234, 0.17278800904750824, -0.07458071410655975, 0.3091048300266266, -0.3175058960914612, -0.02955964207649231, -0.13138483464717865, 0.09822718799114227, 0.17030452191829681, 0.1426684707403183, 0.005056158173829317, -0.1397973895072937, 0.08711100369691849, 0.13637588918209076, 0.19755545258522034, -0.16798025369644165, 0.25004082918167114, 0.2979591488838196, -0.17355160415172577], [0.4392346739768982, 0.2126367688179016, 0.028644772246479988, 0.25202974677085876, 0.17783387005329132, 0.04199101775884628, -0.21126066148281097, 0.2716922461986542, -0.19359737634658813, -0.07403713464736938, -0.005897574592381716, -0.12127573788166046, -0.01740124449133873, -0.047213364392519, -0.0583115890622139, 0.2586863338947296, 0.1241362988948822, 0.3351653218269348, 0.15208037197589874, 0.16401360929012299, 0.11974357068538666, 0.32513850927352905, -0.12252571433782578, 0.33410272002220154, 0.023923518136143684, 0.05459098890423775, -0.3130538761615753, 0.08766648173332214, -0.051867395639419556, -0.17723190784454346, 0.06021007150411606, 0.027350956574082375, 0.019308272749185562, 0.11327929049730301, 0.16658218204975128, -0.06488174945116043, -0.12051962316036224, 0.020809516310691833, -0.05921032652258873, -0.23896917700767517, 0.21357126533985138, 0.030418846756219864, -0.06655579060316086, 0.008578267879784107, -0.11503477394580841, 0.1947636902332306, 0.22750164568424225, -0.00044803656055592, 0.18605050444602966, 0.12718211114406586, 0.011539925821125507, 0.352028489112854, -0.02075870893895626, 0.07876098155975342, 0.5760400295257568, 0.11967744678258896, -0.05488080158829689, 0.07474975287914276, 0.4010757505893707, 0.3328515291213989, 0.2717800438404083, 0.06603606045246124, 0.010897918604314327, -0.18651941418647766, 0.1298508495092392, -0.12760807573795319, 0.20474693179130554, -0.11836830526590347, -0.04378221929073334, 0.15099309384822845, 0.5161367654800415, -0.13419106602668762, -0.2923819124698639, -0.035204242914915085, 0.004322867374867201, 0.06911024451255798, -0.015461926348507404, 0.23905988037586212, 0.4106525480747223, -0.1847376972436905, 0.027401190251111984, 0.08325322717428207, -0.14610464870929718, 0.07287835329771042, 0.20266108214855194, 0.2650423049926758, -0.11200053244829178, -0.10285721719264984, -0.08894623816013336, 0.050845663994550705, -0.13230003416538239, 0.04791994020342827, 0.06733529269695282, -0.18214714527130127, 0.1912001371383667, 0.42278051376342773, -0.007372879423201084, -0.04009849950671196, -0.23654790222644806, 0.2864025831222534, 0.2490244060754776, 0.2514251172542572, 0.03264852240681648, 0.4773387610912323, 0.3089117705821991, -0.06420298665761948, 0.2014133334159851, 0.11211296916007996, 0.16390733420848846, -0.16997165977954865, 0.3333585560321808, -0.060186900198459625, 0.12736056745052338, 0.5714963674545288, 0.27419427037239075, 0.15498502552509308, 0.21866056323051453, 0.3817998766899109, 0.36368313431739807, -0.08143068850040436, 0.7181832790374756, -0.16387541592121124, 0.20025059580802917, 0.13548558950424194, 0.10411454737186432, 0.12912683188915253, 0.22633977234363556, -0.20199169218540192, -0.03320730850100517, -0.23458360135555267, 0.05578060820698738, -0.165066197514534, 0.16739100217819214, 0.23450613021850586, -0.25983214378356934, -0.22364933788776398, 0.10346268117427826, -0.07596409320831299, -0.09158014506101608, 0.060757655650377274, 0.07913731038570404, -0.016084499657154083, -0.1600981056690216, -0.0787530243396759, -0.02272162400186062, -0.07048669457435608, -0.22218646109104156, -0.03610103204846382, 0.006276228465139866, -0.11254129558801651, 0.06646350026130676, 0.14308421313762665, 0.04179467260837555, 0.1278228759765625, 0.09452342987060547, -0.04506446793675423, -0.23711451888084412, -0.3243241012096405, 0.10531926900148392, -0.18134886026382446, -0.2014465630054474, 0.24542886018753052, -0.12516799569129944, 0.09081846475601196, 0.15213774144649506, -0.05909892916679382, -0.032114531844854355, 0.19379064440727234, 0.28332850337028503, -0.0016211321344599128, 0.21952936053276062, 0.012591549195349216, -0.23893070220947266, 0.13061471283435822, 0.049756549298763275, 0.13382352888584137, -0.2776002287864685, 0.036163244396448135, 0.0364161841571331, -0.13129520416259766, -0.08074608445167542, 0.10682840645313263, 0.06910333037376404, -0.1765851229429245, 0.08641228079795837, 0.14547336101531982, 0.1365727335214615, -0.07490742206573486, 0.3001742660999298, 0.03144551068544388, -0.03359805792570114, -0.017535122111439705, -0.14796166121959686, -0.050431136041879654, -0.17832845449447632, 0.03195498511195183, 0.391216903924942, -0.0033150091767311096, 0.22488798201084137, -0.04533291608095169, 0.012000840157270432, 0.003763011656701565, -0.037424761801958084, 0.026566188782453537, 0.02592764049768448, 0.3360535800457001, -0.051940735429525375, -0.20792900025844574, -0.12555712461471558, 0.03151559829711914, -0.04410843551158905, 0.20768915116786957, -0.16867195069789886, 0.035554833710193634, 0.004225565120577812, 0.004403688479214907, 0.09381362795829773, 0.07813600450754166, 0.1092866063117981, -0.07153138518333435, 0.05237138643860817, 0.025674276053905487, 0.10364938527345657, 0.011074576526880264, -0.4523453712463379, 0.0830334797501564, -0.08737310022115707, 0.05217375606298447, -0.28478604555130005, -0.1586851328611374, 0.14310511946678162, 0.17139402031898499, -0.21820247173309326, -0.06987842172384262, -0.10672563314437866, 0.33022260665893555, -0.10350863635540009, -0.026688873767852783, -0.1984020322561264, -0.12991277873516083, -0.2554022967815399, -0.07567638158798218, -0.06748366355895996, -0.054591357707977295, -0.056464701890945435, 0.5180850625038147, 0.12591728568077087, -0.02847694791853428, 0.30395737290382385, 0.08304287493228912, 0.2770766317844391, -0.41246894001960754, -0.18099084496498108, -0.17212282121181488, -0.15479359030723572, 0.009837023913860321, -0.4003283381462097, 0.07505200058221817, -0.2437485307455063, -0.06443249434232712, 0.05205884575843811, -0.03425918146967888, 0.09715459495782852, 0.0994575172662735, 0.09621983766555786, -0.2631632685661316, -0.12608367204666138, -0.06574442982673645, -0.12767450511455536, 0.044921375811100006, -0.027310479432344437, 0.04183781519532204, -0.06485740095376968, -0.32770976424217224, -0.15786176919937134, -0.1399187445640564, 0.04477797448635101, -0.11912088096141815, -0.22495219111442566, -0.1723833531141281, -0.26628610491752625, 0.07899714261293411, 0.04205285757780075, 0.047518499195575714, 0.07093652337789536, -0.10854221880435944, -0.08882351219654083, -0.07568241655826569, -0.0899006724357605, -0.06212814897298813, 0.13906320929527283, -0.04102961719036102, -0.18794763088226318, 0.031597089022397995, -0.0024011454079300165, 0.06531096249818802, -0.12848389148712158, -0.08380385488271713, 0.08762787282466888, -0.16410093009471893, 0.055038001388311386, 0.058224890381097794, -0.33562472462654114, -0.024307124316692352, -0.27264848351478577, 0.046139195561409, -0.1906013935804367, 0.07322745025157928, -0.01991887204349041, -0.26073339581489563, -0.33607926964759827, -0.10397055000066757, -0.2607998847961426, -0.06107739359140396, 0.06717119365930557, 0.06254536658525467, 0.21164126694202423, 0.2227003276348114, -0.09082330763339996, -0.03387061506509781, 0.11502032727003098, -0.16265521943569183, 0.006440815050154924, -0.045248422771692276, 0.04788302630186081, -0.3846147060394287, 0.04651870205998421, -0.19631369411945343, 0.1397581845521927, 0.01078100223094225, -0.14323057234287262, -0.12407399713993073, -0.019029738381505013, 0.016544217243790627, -0.5037887096405029, -0.09155614674091339, -0.15203529596328735, -0.12602142989635468, -0.2602534294128418, -0.041292183101177216, 0.01973327063024044, -0.2636328637599945, -0.04082418233156204, -0.06215018033981323, -0.1002843901515007, 0.10858605057001114, -0.1389673501253128, 0.08759094774723053, -0.058425866067409515, -0.0582965724170208, 0.08496890962123871, -0.22180169820785522, 0.09141815453767776, 0.1064210906624794, -0.0777415931224823, -0.21038506925106049, 0.03585782274603844, 0.009836585260927677, -0.20771245658397675, 0.05055837333202362, -0.20083744823932648, -0.22911246120929718, 0.013372392393648624, -0.2090921550989151, -0.12203137576580048, -0.15594765543937683, -0.12940551340579987, 0.03406640142202377, -0.260855108499527, -0.31307166814804077, -0.3212502598762512, -0.3776591420173645, 0.07325217872858047, 0.20476756989955902, -0.11677359789609909, -0.12000560015439987, -0.24052563309669495, -0.12917092442512512, 0.019490016624331474, 0.010164957493543625, -0.20539209246635437, 0.07438080757856369, -0.29942554235458374, -0.13647578656673431, 0.3770448863506317, 0.12634791433811188, 0.15646296739578247, 0.25656428933143616, 0.09367317706346512, -0.017636660486459732, -0.09704353660345078, 0.148830845952034, -0.028731925413012505, -0.17213352024555206, 0.025456175208091736, -0.15646114945411682, 0.0297116469591856, -0.10093329101800919, -0.3629690110683441, 0.15096415579319, -0.05102471634745598, 0.17791125178337097, -0.062112241983413696, 0.1671607494354248, -0.10412514954805374, 0.405813992023468, -0.1699514091014862, 0.11617134511470795, 0.24295321106910706, 0.13479800522327423, -0.2921304404735565, -0.19160546362400055, -0.09181837737560272, -0.17927399277687073, 0.03384505212306976, -0.09489010274410248, -0.117453433573246, 0.012104671448469162, 0.10184293985366821, -0.1284659504890442, -0.17480413615703583, -0.09044487774372101, 0.09664205461740494, 0.06247714161872864, 0.17674583196640015, 0.0588388629257679, 0.010369556955993176, -0.04616521671414375, -0.11177664250135422, -0.019337700679898262, 0.19643549621105194, -0.05197357013821602, 0.024964336305856705, -0.05746302381157875, -0.11495251208543777, 0.46346724033355713, -0.15234030783176422, -0.060122426599264145, 0.4680309295654297, -0.026893341913819313, -0.20920133590698242, 0.09130759537220001, 0.06802438199520111, 0.14813446998596191, 0.3060978651046753, -0.009678846225142479, 0.1266070306301117, -0.025533607229590416, 0.14163336157798767, -0.19371387362480164, -0.11349795013666153, -0.08618619292974472, -0.23694100975990295, 0.07674768567085266, 0.48306307196617126, -0.11688684672117233, -0.18683873116970062, 0.030967993661761284, 0.0750533938407898, 0.08204048126935959, -0.21846546232700348, 0.19001026451587677, 0.49009546637535095, -0.23578254878520966, -0.07617184519767761, -0.045234184712171555, -0.11694023013114929, -0.1336085945367813, 0.024967001751065254, 0.07415446639060974, -0.05641309171915054, -0.15100502967834473, 0.05754249170422554, 0.10694485157728195, -0.12222106754779816, 0.010942632332444191, -0.08617718517780304, -0.14351388812065125, 0.1597481220960617, 0.3137403726577759, -0.08497609198093414, 0.014772612601518631, -0.1393362134695053, 0.15840230882167816, 0.3036876320838928, 0.2010466456413269, 0.057599037885665894, 0.18673984706401825, 0.3603575527667999, -0.2383841872215271, -0.14301836490631104, 0.1765802651643753, -0.08694086223840714, -0.16354428231716156, 0.2012610137462616, -0.0020482325926423073, 0.22133450210094452, 0.4048076570034027, 0.20530596375465393, 0.14328424632549286, 0.1628284752368927, 0.3036797046661377, 0.2996149957180023, -0.13689976930618286, 0.34986695647239685, 0.005221449304372072, 0.012082566507160664, 0.09704215079545975, 0.14704716205596924, 0.023588968440890312, 0.3797309994697571, -0.1513081192970276], [-0.055301591753959656, 0.001010304782539606, 0.4249328076839447, 0.0904269814491272, 0.06856612861156464, -0.057186104357242584, -0.03387855365872383, -0.10949535667896271, -0.03654514625668526, -0.34837791323661804, 0.12609745562076569, -0.09798921644687653, -0.044903676956892014, -0.04193756356835365, 0.1672431081533432, 0.17588180303573608, 0.03475285321474075, -0.1317463517189026, -0.13390856981277466, -0.22046098113059998, 0.13056278228759766, 0.20500746369361877, -0.07527823746204376, 0.10165733098983765, 0.17803232371807098, -0.16778382658958435, 0.04220353811979294, 0.19745321571826935, 0.18201729655265808, -0.14712777733802795, 0.009983133524656296, 0.23896333575248718, 0.10674125701189041, 0.08337005972862244, 0.28643175959587097, -0.00846276804804802, 0.15369661152362823, -0.021050892770290375, -0.031649235635995865, 0.17750179767608643, 0.14643904566764832, 0.042630426585674286, 0.0361325703561306, -0.0885811448097229, 0.18595536053180695, 0.21017488837242126, -0.1320650577545166, 0.07372035086154938, -0.07042301446199417, 0.11121588945388794, -0.13483555614948273, 0.2071249634027481, -0.033775392919778824, -0.11032774299383163, -0.22451166808605194, -0.1115361675620079, -0.13607460260391235, 0.04873823747038841, -0.09305879473686218, 0.1903052031993866, 0.11210040748119354, 0.08364319056272507, -0.2010136842727661, -0.07841650396585464, -0.10024429857730865, -0.1253046840429306, 0.04732370749115944, -0.09365417063236237, 0.25580403208732605, 0.17668017745018005, 0.22909408807754517, 0.08738875389099121, 0.009163452312350273, -0.20692506432533264, 0.11003419756889343, -0.09393500536680222, 0.24919669330120087, 0.062057867646217346, -0.2679527699947357, -0.0668865367770195, -0.20343461632728577, 0.19783812761306763, -0.15156559646129608, 0.22002556920051575, 0.07653563469648361, -0.03422994911670685, -0.08712524175643921, 0.10172562301158905, -0.01422166172415018, -0.00930934026837349, 0.1435995250940323, -0.18428336083889008, 0.19365240633487701, -0.1805315613746643, -0.007395724765956402, -0.09600120037794113, 0.13465562462806702, 0.23845359683036804, -0.025612620636820793, 0.18384678661823273, -0.16785374283790588, -0.07069405913352966, -0.23906256258487701, 0.00030403962591663003, 0.3035399913787842, 0.057909660041332245, 0.10520106554031372, 0.17436300218105316, 0.04980015754699707, -0.08594222366809845, 0.2482859492301941, 0.04342631250619888, 0.35506904125213623, -0.1704561561346054, -0.04505966976284981, -0.19170929491519928, 0.05767619237303734, 0.13429807126522064, 0.06708613783121109, 0.0662035271525383, -0.12334306538105011, 0.05496532842516899, 0.1988660991191864, 0.17574593424797058, -0.035760022699832916, 0.09551867097616196, 0.23208767175674438, -0.0739525631070137, 0.04499245807528496, -0.045142076909542084, -0.2154383808374405, -0.16553138196468353, 0.046219829469919205, -0.03371760994195938, -0.2634022533893585, -0.15627898275852203, -0.1417490839958191, 0.08644551038742065, 0.010558752343058586, 0.04000389948487282, 0.07745786011219025, 0.0941639244556427, -0.08222072571516037, -0.06032000854611397, 0.17425544559955597, -0.03683023154735565, -0.0250526275485754, 0.12942466139793396, 0.12054070085287094, 0.249263197183609, 0.025063196197152138, -0.14299899339675903, 0.22041985392570496, 0.09167202562093735, 0.14177873730659485, -0.18517634272575378, -0.13295745849609375, -0.12791523337364197, 0.022180980071425438, -0.21410442888736725, -0.013591126538813114, -0.22225426137447357, -0.10214877873659134, 0.13036033511161804, -0.08145911246538162, 0.12880641222000122, 0.1202290952205658, 0.20591440796852112, 0.22566616535186768, 0.03196769207715988, 0.16681143641471863, 0.044360529631376266, -0.1877288818359375, -0.11587631702423096, 0.08305136114358902, 0.09909451007843018, 0.07747749984264374, 0.05010107904672623, -0.022807125002145767, 0.2622106671333313, 0.012405631132423878, -0.10426212847232819, -0.01600775495171547, -0.12714141607284546, 0.08983034640550613, 0.03952646255493164, -0.09100602567195892, -0.16507576406002045, 0.07306116819381714, -0.1485649198293686, 0.10837047547101974, 0.07875779271125793, -0.0906386598944664, -0.12126898020505905, -0.16889190673828125, 0.023285726085305214, 0.2498837262392044, 0.22383005917072296, -0.1709335893392563, -0.018180908635258675, -0.17633947730064392, 0.1855156570672989, -0.3638207018375397, -0.006378372199833393, -0.11191122978925705, 0.018767129629850388, -0.08514978736639023, -0.17313408851623535, 0.06353067606687546, 0.2095603048801422, -0.05685640126466751, 0.18474988639354706, -0.23866985738277435, -0.007996778935194016, 0.14136090874671936, 0.05383112281560898, -0.09629189968109131, -0.007464157417416573, -0.04359852150082588, -0.15226267278194427, 0.042843934148550034, -0.06570092588663101, -0.07710747420787811, 0.03455353155732155, -0.2934304177761078, -0.167645663022995, -0.07184018194675446, -0.21298958361148834, -0.13043561577796936, -0.00635282089933753, 0.09346895664930344, -0.2188868224620819, 0.27657458186149597, 0.12513360381126404, -0.0867651030421257, -0.22312325239181519, 0.10830169916152954, -0.059661615639925, 0.32990166544914246, 0.04906736686825752, -0.25786101818084717, -0.05284617468714714, 0.07911787182092667, -0.145685076713562, 0.07513533532619476, 0.21715882420539856, -0.22146794199943542, 0.020207514986395836, -0.25555872917175293, 0.24884849786758423, 0.1417970359325409, -0.24503934383392334, -0.12147796154022217, 0.2027825564146042, 0.11744752526283264, -0.05135338753461838, -0.047143369913101196, 0.013960077427327633, -0.07366994023323059, 0.015837542712688446, -0.043849878013134, 0.12828104197978973, -0.2052830457687378, 0.009527770802378654, -0.28215935826301575, -0.09737813472747803, 0.05382733419537544, -0.1171506717801094, -0.1174098402261734, -0.0864744707942009, -0.1278102546930313, 0.07155559957027435, 0.1099419817328453, -0.0007119768997654319, 0.04185027629137039, -0.0126460837200284, 0.08092670142650604, 0.08156269788742065, 0.07066071778535843, -0.15425869822502136, -0.03856220841407776, -0.0640663132071495, -0.2738858163356781, 0.13665980100631714, -0.039635468274354935, -0.11292356997728348, 0.13518697023391724, -0.0220816507935524, -0.013948658481240273, 0.1370476335287094, 0.0651707723736763, -0.055057067424058914, -0.2835675776004791, -0.048606064170598984, 0.0934939831495285, -0.1190909594297409, -0.13258841633796692, -0.1584615558385849, 0.017027344554662704, -0.01207481324672699, -0.07440770417451859, -0.09974238276481628, 0.020202405750751495, 0.0293306615203619, -0.023774847388267517, 0.10826858878135681, -0.13629920780658722, 0.04178028926253319, 0.14751099050045013, 0.008192481473088264, -0.17417927086353302, -0.026418346911668777, -0.11157770454883575, -0.10759240388870239, -0.12111231684684753, -0.030197683721780777, 0.002189488848671317, -0.21331585943698883, -0.1377425193786621, 0.09789670258760452, 0.1968407779932022, -0.1303592175245285, 0.0006067240028642118, -0.0019756003748625517, 0.20242631435394287, 0.09235577285289764, 0.0032695329282432795, 0.14283648133277893, -0.09790906310081482, -0.0242546945810318, -0.052284859120845795, 0.0445786714553833, -0.00842993427067995, 0.10421214997768402, -0.06422403454780579, -0.10108543932437897, -0.0840563103556633, 0.19713141024112701, 0.027508210390806198, -0.19570046663284302, 0.06873733550310135, -0.21120376884937286, -0.07024916261434555, -0.07867342233657837, 0.1273573338985443, 0.033881813287734985, 0.05038706958293915, 0.04404531046748161, -0.011610726825892925, -0.1609974056482315, 0.08581378310918808, -0.1740746945142746, 0.057475194334983826, 0.16487401723861694, -0.1358618438243866, -0.10916866362094879, 0.20385554432868958, 0.05828702077269554, -0.11012270301580429, 0.16545172035694122, 0.13310451805591583, -0.05517198145389557, 0.05746354162693024, -0.06126008182764053, -0.0016205533174797893, -0.07560903578996658, -0.05614764988422394, 0.021867284551262856, -0.008474928326904774, 0.02698647975921631, 0.03677041828632355, 0.039560142904520035, 0.02137688174843788, 0.07826818525791168, 0.07735340297222137, 0.11114058643579483, -0.015504137612879276, -0.004514406435191631, 0.020828422158956528, 0.057346995919942856, -0.02569977380335331, -0.04400653392076492, 0.1721845269203186, -0.02786000818014145, -0.04902156442403793, 0.12689939141273499, 0.2981085479259491, -0.0007948346901685, -0.20757174491882324, -0.02040126360952854, 0.08372271060943604, 0.20140619575977325, -0.08563607186079025, -0.10663126409053802, 0.0005292468122206628, -0.02925051748752594, 0.0332450345158577, 0.04324506223201752, 0.059597354382276535, 0.0761762335896492, 0.10764133185148239, -0.16754934191703796, -0.08061839640140533, -0.10265716910362244, 0.030470598489046097, 0.13844114542007446, 0.051387637853622437, -0.038236379623413086, 0.13349147140979767, 0.015391325578093529, 0.016819192096590996, 0.3011612892150879, 0.10396967083215714, 0.021315021440386772, -0.013730501756072044, 0.19612175226211548, -0.04916941002011299, 0.055159639567136765, 0.1258741021156311, -0.040200136601924896, -0.006131460424512625, -0.07747415453195572, 0.019620515406131744, 0.07001370936632156, 0.23836997151374817, -0.05600318685173988, 0.20614959299564362, -0.057881396263837814, 0.2259189635515213, 0.04878596216440201, -0.1818917691707611, 0.05821070820093155, -0.09896499663591385, 0.21439968049526215, -0.08663064986467361, 0.17595040798187256, -0.1483427733182907, -0.11265899986028671, 0.0951128602027893, -0.11629776656627655, -0.2019529789686203, 0.06654038280248642, -0.1149568036198616, 0.1327284723520279, 0.010309935547411442, -0.07904992252588272, -0.04675489664077759, 0.010982822626829147, -0.019220206886529922, -0.004610532894730568, -0.06229844316840172, -0.18234559893608093, 0.19040043652057648, 0.1982376128435135, 0.0803377628326416, 0.09054413437843323, 0.00248838122934103, -0.21796098351478577, 0.18529529869556427, -0.022732790559530258, 0.21310777962207794, 0.1817970871925354, -0.05021856725215912, 0.07638842612504959, -0.10675063729286194, -0.047239530831575394, -0.138069748878479, 0.09610867500305176, 0.09996148198843002, -0.03482029587030411, 0.07123955339193344, -0.019506489858031273, 0.018231673166155815, -0.10464239120483398, -0.03701607137918472, -0.013033206574618816, 0.07732386142015457, -0.15806522965431213, 0.019935106858611107, 0.039762623608112335, 0.13897112011909485, 0.16729745268821716, 0.04747365787625313, 0.06027617305517197, 0.18987315893173218, 0.03767189756035805, -0.047703806310892105, 0.03927585110068321, 0.07204299420118332, -0.10035783052444458, -0.07627943903207779, 0.21029414236545563, -0.051782045513391495, 0.009359633550047874, 0.16975396871566772, -0.079327791929245, 0.3433588743209839, -0.035241562873125076, 0.059240736067295074, -0.16188620030879974, 0.05517951026558876, 0.1075844094157219, 0.10625903308391571, -0.09367120265960693, -0.008327559567987919, 0.05071965605020523, 0.11663009971380234, 0.22380408644676208, -0.056522659957408905, 0.22161267697811127, 0.20027652382850647, 0.03073253482580185], [-0.06212300434708595, 0.22647978365421295, 0.3905855119228363, 0.06412486732006073, -0.04834724962711334, 0.11140286922454834, -0.076846644282341, 0.17540375888347626, 0.5206003785133362, -0.013978763483464718, -0.3019811511039734, 0.07008953392505646, -0.181945338845253, 0.02945072390139103, 0.43397390842437744, 0.0930078774690628, 0.022712605074048042, 0.015286562964320183, -0.04258447512984276, 0.13881874084472656, -0.09120059013366699, -0.03507443144917488, -0.12250963598489761, -0.1304100900888443, 0.03941578418016434, 0.12457899749279022, 0.24870866537094116, 0.016894495114684105, 0.24356846511363983, 0.4087870121002197, -0.13274627923965454, 0.04127919301390648, -0.05138809606432915, -0.06893999129533768, 0.06302935630083084, 0.0735917016863823, 0.1872813105583191, 0.10873204469680786, -0.05076926201581955, 0.11770172417163849, 0.28738293051719666, -0.010949479416012764, 0.16021136939525604, -0.06613738089799881, 0.015390979126095772, 0.2170826643705368, 0.1763695478439331, 0.019373178482055664, 0.07517705857753754, 0.15811549127101898, 0.06783883273601532, -0.03962206467986107, -0.12139945477247238, 0.04213778302073479, 0.002293988596647978, -0.23809581995010376, -0.16270722448825836, 0.04704010859131813, -0.08447445183992386, 0.06133051589131355, 0.05378621444106102, 0.2964394986629486, -0.08388812839984894, -0.1509620100259781, -0.04420465603470802, -0.09019213914871216, 0.14574530720710754, -0.006885542068630457, 0.2413947582244873, 0.2956119477748871, -0.2179933786392212, 0.10259515792131424, 0.2993605136871338, -0.14918604493141174, -0.004513888154178858, 0.060184743255376816, -0.055117178708314896, 0.11832627654075623, -0.08299364894628525, 0.36295732855796814, -0.11073841154575348, 0.057409778237342834, -0.06093749403953552, 0.11068824678659439, -0.137456476688385, -0.0012586327502503991, 0.13409237563610077, 0.061987005174160004, 0.041506122797727585, 0.21441411972045898, 0.2909565269947052, 0.2332143783569336, -0.1513509452342987, -0.04420710727572441, -0.015949899330735207, 0.06604210287332535, 0.33008190989494324, 0.22880691289901733, 0.24165859818458557, -0.004818223416805267, 0.16622737050056458, 0.10254090279340744, 0.16497057676315308, -0.24620987474918365, 0.03706585243344307, 0.053294334560632706, 0.052299290895462036, 0.14484025537967682, -0.20492056012153625, -0.25821930170059204, 0.16618669033050537, 0.11558859050273895, 0.14766885340213776, 0.019680606201291084, 0.11530435085296631, 0.14773331582546234, 0.08854291588068008, 0.1564875841140747, -0.06876304000616074, 0.2385755181312561, 0.03225354477763176, -0.08922290056943893, 0.27243009209632874, 0.34880685806274414, -0.08601453900337219, -0.13409066200256348, 0.12831521034240723, -0.2320862114429474, -0.18811678886413574, 0.0871531292796135, 0.1488201767206192, 0.16728726029396057, -0.01622536964714527, -0.1719675064086914, 0.29235440492630005, -0.08783622086048126, 0.08402632921934128, -0.03879530727863312, 0.009219001047313213, 0.04258669167757034, -0.10677603632211685, 0.039743583649396896, -0.028214700520038605, -0.027912290766835213, 0.042631711810827255, 0.1998242437839508, 0.015441052615642548, -0.1711113303899765, -0.08583514392375946, -0.12120774388313293, -0.04436001554131508, 0.1504088044166565, -0.41690242290496826, -0.0693083256483078, -0.06840372830629349, -0.06834207475185394, 0.06724146008491516, -0.015006954781711102, -0.02441609837114811, 0.21723954379558563, -0.03123081661760807, -0.04270749166607857, 0.08461683243513107, 0.06063889339566231, 0.025663254782557487, 0.09720828384160995, -0.026555093005299568, -0.17942354083061218, -0.07043732702732086, 0.12977124750614166, -0.0410207137465477, -0.11163132637739182, -0.03476541116833687, 0.05114429071545601, -0.3111268877983093, 0.05766084045171738, 0.023541748523712158, 0.06834276020526886, 0.25961950421333313, -0.14891573786735535, 0.03537474572658539, -0.05772164463996887, -0.2785390615463257, -0.009864149615168571, 0.0019052316201850772, 0.1549052745103836, -0.09773919731378555, 0.267037957906723, -0.17076320946216583, 0.11244067549705505, -0.12806379795074463, -0.02828667126595974, 0.15390165150165558, -0.1210344135761261, -0.1838107705116272, 0.11800039559602737, -0.2333160638809204, -0.29155999422073364, 0.05025656521320343, -0.10103698819875717, 0.000310875300783664, -0.07179982960224152, 0.1510724425315857, 0.06424392014741898, 0.04111618548631668, -0.12078601866960526, 0.33410272002220154, 0.05080006271600723, -0.02000938542187214, -0.21488001942634583, 0.19433659315109253, -0.10954204946756363, 0.0012617034371942282, 0.04226205497980118, 0.04733344539999962, 0.16834592819213867, -0.048236578702926636, 0.08924856036901474, -0.1969124972820282, 0.024218592792749405, -0.08416438847780228, 0.06267032772302628, -0.12877194583415985, -0.17732007801532745, 0.1837536096572876, -0.01755261979997158, 0.09373573958873749, 0.1187303215265274, -0.01122330967336893, 0.04408720135688782, 0.16323481500148773, 0.11975967884063721, -0.09284233301877975, -0.046052172780036926, 0.1832537055015564, 0.010673793032765388, 0.011456433683633804, -0.052442166954278946, 0.057891808450222015, 0.16342824697494507, 0.2835703492164612, 0.3329467475414276, 0.07728473842144012, 0.29262685775756836, -0.09626200050115585, -0.16657014191150665, -0.03094983845949173, -0.1973648965358734, 0.14984267950057983, -0.059042789041996, -0.13899946212768555, 0.11347909271717072, 0.3541145324707031, -0.015262044034898281, -0.1664707213640213, 0.07592133432626724, 0.10321249067783356, -0.15578719973564148, -0.03501091152429581, 0.06387830525636673, 0.21938587725162506, -0.0960325226187706, -0.07943739742040634, -0.21720068156719208, -0.027865363284945488, -0.057223767042160034, -0.2145388275384903, 0.0690411925315857, -0.08239906281232834, -0.18820545077323914, -0.2914157211780548, 0.002844712231308222, -0.2202529013156891, -0.0865543782711029, -0.07165388017892838, 0.15744900703430176, -0.05638419836759567, -0.09133359044790268, 0.008240625262260437, 0.05953868106007576, 0.32321110367774963, 0.058985479176044464, -0.07011226564645767, -0.2800326645374298, -0.12532790005207062, -0.04868415743112564, -0.10112401843070984, -0.21114161610603333, 0.010112106800079346, -0.00871153362095356, -0.0031544254161417484, 0.13509483635425568, -0.0731399804353714, -0.028833169490098953, 0.002837282372638583, -0.06100575998425484, -0.23399905860424042, -0.0016818724106997252, -0.24864202737808228, -0.11806292831897736, -0.2364034503698349, 0.12515518069267273, 0.3899284899234772, -0.18148697912693024, -0.04100911319255829, 0.0684969574213028, 0.052130986005067825, -0.08288652449846268, 0.19412019848823547, -0.21535630524158478, 0.13630571961402893, -0.032922908663749695, 0.035183243453502655, -0.054586123675107956, 0.0053962296806275845, -0.2969677746295929, -0.17284411191940308, 0.0652981773018837, -0.12427816540002823, -0.08424939960241318, -0.1652582883834839, -0.10379316657781601, -0.06761907041072845, -0.08926929533481598, -0.26850101351737976, 0.1074526458978653, -0.21158216893672943, -0.016500234603881836, 0.06240366771817207, -0.13529124855995178, -0.2593446671962738, -0.16419601440429688, -0.12954533100128174, -0.22404323518276215, 0.003362614894285798, -0.08198168873786926, -0.12604494392871857, 0.03727792575955391, -0.09549669176340103, -0.1525001972913742, -0.11853853613138199, -0.04909992590546608, -0.07620280981063843, -0.21956482529640198, -0.05023358762264252, 0.07892825454473495, 0.03147934004664421, 0.13654562830924988, -0.15584097802639008, -0.09030792862176895, -0.09179188311100006, 0.22404927015304565, -0.294312059879303, -0.13108596205711365, -0.06043918430805206, 0.04324445128440857, -0.45922183990478516, -0.24144037067890167, -0.06999621540307999, 0.04733945056796074, -0.2807137966156006, 0.0003226855769753456, 0.18665045499801636, -0.2609407603740692, -0.09815730154514313, -0.05744503065943718, -0.2035214900970459, 0.0038916091434657574, 0.004072246141731739, -0.019291799515485764, -0.02104547806084156, 0.3358910083770752, 0.032557301223278046, -0.3275890350341797, -0.05194386467337608, 0.04453129693865776, 0.0617578849196434, -0.24770097434520721, -0.044582683593034744, -0.5277484059333801, -0.22229714691638947, -0.08524917811155319, -0.07347697019577026, -0.11208035051822662, 0.07838614284992218, 0.20476922392845154, 0.4245348870754242, 0.08691618591547012, 0.07361380010843277, -0.1074109897017479, -0.025125596672296524, 0.07106610387563705, 0.30715247988700867, -0.1734267920255661, -0.13215278089046478, -0.08861570805311203, -0.1492951661348343, -0.10081798583269119, 0.1885681301355362, -0.08933017402887344, -0.0844484269618988, -0.007223319262266159, -0.09818004816770554, 0.08578774333000183, 0.1251552551984787, 0.07115641981363297, 0.03861752524971962, -0.02365836501121521, 0.29758983850479126, 0.10861450433731079, 0.22199173271656036, 0.136333629488945, 0.03249144181609154, 0.1830134242773056, -0.02913951687514782, 0.025837590917944908, -0.03612823411822319, -0.024185560643672943, -0.20148317515850067, -0.09825195372104645, 0.08362293243408203, -0.009304095059633255, -0.1426769196987152, 0.3133229613304138, 0.15198995172977448, -0.003884661477059126, 0.10962188243865967, -0.05340445414185524, 0.009110884740948677, 0.07017654180526733, -0.009507768787443638, 0.02661299891769886, 0.17761538922786713, -0.11190486699342728, -0.08641132712364197, 0.014753610827028751, -0.023150622844696045, -0.009696824476122856, 0.08928527683019638, -0.17359104752540588, -0.037954069674015045, 0.06297661364078522, -0.031810447573661804, 0.05231625959277153, 0.10324697941541672, 0.2878402769565582, -0.23283861577510834, -0.1731887012720108, -0.04760729894042015, -0.0007330496446229517, -0.049274295568466187, -0.06380761414766312, 0.0562194362282753, 0.2385251671075821, -0.1781524121761322, -0.06663891673088074, 0.29825276136398315, 0.008870799094438553, 0.08661948889493942, -0.027790823951363564, -0.10436729341745377, 0.12386617064476013, 0.0881737694144249, 0.21210849285125732, -0.17798960208892822, -0.060506630688905716, 0.03950568288564682, -0.025229422375559807, -0.14296956360340118, 0.008979734033346176, -0.05520828440785408, -0.03762286156415939, -0.05838138610124588, 0.03923013061285019, -0.0552651584148407, 0.0558646023273468, -0.0379304438829422, -0.17724671959877014, -0.025210531428456306, 0.13853606581687927, 0.22465944290161133, -0.14270110428333282, 0.09067696332931519, 0.19679909944534302, -0.16808414459228516, -0.0028593498282134533, 0.02901593968272209, -0.054205093532800674, -0.030508680269122124, 0.15871940553188324, -0.048079896718263626, -0.2524832487106323, -0.17068161070346832, -0.14032156765460968, -0.11562120914459229, 0.10865743458271027, 0.24564829468727112, -0.014287007041275501, 0.05888334661722183, -0.00017337745521217585, -0.1049630269408226, 0.036422304809093475, -0.031719598919153214, 0.12142369151115417, 0.08379815518856049, 0.011000437662005424, -0.0076076798141002655, 0.1326352208852768, -0.11678246408700943, -0.06167871132493019, 0.12460112571716309, -0.1754378378391266], [-0.22484244406223297, 0.23705632984638214, 0.2305668443441391, -0.19750787317752838, -0.036319006234407425, 0.22655439376831055, 0.15627045929431915, 0.22563686966896057, 0.5829139947891235, -0.11341693252325058, 0.03161107003688812, 0.0009985470678657293, 0.0018880880670621991, -0.0056542083621025085, 0.37306272983551025, 0.07940035313367844, 0.04618929699063301, -0.26658883690834045, -0.06339365988969803, -0.2433474361896515, -0.11815639585256577, 0.24727998673915863, -0.14845046401023865, -0.0868178978562355, -0.060070574283599854, -0.14487306773662567, 0.1426660716533661, 0.1113886833190918, 0.14603888988494873, 0.3461579382419586, -0.23697033524513245, -0.013486159965395927, 0.07301653176546097, -0.07189173996448517, 0.07380585372447968, 0.1403036266565323, 0.10098884254693985, -0.06789686530828476, -0.045818086713552475, 0.21289977431297302, 0.3532564342021942, -0.047370072454214096, 0.3039686381816864, 