{"haggle/lstm/bias:0": [-0.16474764049053192, -0.1578177809715271, -0.08490970730781555, -0.1848333179950714, -0.10768599808216095, -0.036825940012931824, -0.1780174970626831, -0.20209123194217682, 0.13169272243976593, -0.1115032210946083, 0.18363335728645325, -0.03818536922335625, 0.04936020076274872, -0.24457795917987823, 0.06374269723892212, 0.015944238752126694, 0.25568559765815735, 0.045481592416763306, -0.09345496445894241, -0.004766675177961588, -0.00038238533306866884, -0.08327535539865494, 0.019353831186890602, 0.023043032735586166, -0.03827230632305145, -0.06026627868413925, -0.16836676001548767, -0.10025431960821152, -0.19077056646347046, -0.14617827534675598, -0.05201743543148041, -0.16064883768558502, -0.13373392820358276, -0.11043623089790344, -0.19468775391578674, -0.07794687896966934, -0.15258759260177612, -0.04641957953572273, -0.35763582587242126, -0.056986816227436066, -0.13206398487091064, -0.19651973247528076, -0.04226936027407646, -0.2332720309495926, -0.23387666046619415, 0.042211003601551056, -0.2453543245792389, 0.09188995510339737, -0.14820778369903564, 0.02987336367368698, -0.15828247368335724, -0.1281946450471878, -0.015409949235618114, -0.08511441946029663, 0.0012191026471555233, 0.01637614332139492, -0.02232505939900875, -0.04317149519920349, -0.17718380689620972, 0.020466798916459084, -0.13177275657653809, -0.012898432090878487, 0.04621744900941849, -0.0812477096915245, 0.24595405161380768, -0.048750802874565125, -0.09581036865711212, -0.020366407930850983, 0.15392637252807617, -0.030112989246845245, -0.017403792589902878, -0.1872386336326599, 0.04249710589647293, -0.22743482887744904, -0.11247279495000839, -0.20256157219409943, -0.2824990153312683, -0.06004682183265686, 0.3028043508529663, -0.10520800203084946, -0.16511276364326477, -0.324221134185791, -0.024174939841032028, 0.03663304075598717, -0.09857095032930374, 0.03526044264435768, -0.43047282099723816, -0.24619758129119873, -0.13768911361694336, -0.09383726865053177, -0.02909022755920887, -0.10153675079345703, -0.18514865636825562, -0.040595922619104385, -0.05175946280360222, -0.273901104927063, -0.03768844157457352, -0.07718579471111298, -0.03695048391819, 0.0044836257584393024, 0.1521921008825302, -0.02139950729906559, -0.11067372560501099, -0.2442646324634552, -0.11250599473714828, -0.14538073539733887, -0.1763227880001068, -0.09606093168258667, -0.08121216297149658, -0.15894967317581177, -0.005431587342172861, -0.0063003310933709145, 0.045120179653167725, -0.17100945115089417, -0.09491775929927826, -0.015997515991330147, -0.14120620489120483, -0.1705455631017685, -0.28250810503959656, -0.016505924984812737, 0.08858973532915115, 0.17581728100776672, -0.14948846399784088, -0.13714562356472015, -0.17063143849372864, 0.07860192656517029, -0.21140585839748383, -0.2222701758146286, 0.04993610084056854, 0.19592052698135376, -0.007781641557812691, 0.02417779341340065, 0.02683207578957081, 0.08569200336933136, -0.04330163449048996, -0.027699071913957596, -0.0533612035214901, -0.05867079645395279, -0.12833768129348755, 0.09633374214172363, -0.07445894926786423, -0.006984103005379438, -0.20510390400886536, -0.24411872029304504, -0.06994462758302689, 0.012136304751038551, 0.11072106659412384, 0.06219198554754257, -0.0779089629650116, -0.05955349653959274, -0.1566055715084076, -0.15210166573524475, -0.09502676129341125, -0.14089488983154297, -0.06541267037391663, -0.16163824498653412, 0.004168244078755379, 0.10199696570634842, -0.06892610341310501, -0.0057112970389425755, -0.0858607143163681, 0.21280795335769653, 0.22957757115364075, 0.22386819124221802, -0.18629272282123566, 0.12339667975902557, 0.10769306868314743, -0.09439381957054138, -0.0468113087117672, -0.08589819818735123, -0.15303947031497955, 0.06797978281974792, -0.02990768477320671, 0.048899177461862564, -0.011389120481908321, -0.15540216863155365, -0.05886288732290268, 0.09273157268762589, 0.08069279789924622, -0.08951511979103088, -0.1637667864561081, 0.07863719761371613, -0.012592455372214317, 0.25467783212661743, -0.09316999465227127, 0.04893853887915611, -0.07113311439752579, 0.22606895864009857, 0.04746800288558006, 0.013130657374858856, -0.11792714148759842, -0.2997807562351227, -0.07778294384479523, -0.20777910947799683, -0.010393606498837471, -0.035424474626779556, 0.030287127941846848, 0.0633036345243454, -0.10356441885232925, -0.1318531483411789, 0.10969383269548416, 0.006760789081454277, -0.03535807505249977, 0.015975402668118477, 0.06480919569730759, -0.1199127659201622, 0.2679580748081207, -0.1547669619321823, -0.046302299946546555, -0.09037099033594131, -0.21715131402015686, -0.07519757002592087, -0.09529785066843033, -0.07128390669822693, 0.013439693488180637, 0.03617197275161743, 0.14031240344047546, 0.08732157945632935, -0.02303420566022396, 0.10667788982391357, -0.08390381932258606, 0.22892871499061584, 0.01159518864005804, 0.1786360889673233, -0.16227568686008453, -0.1000041663646698, -0.19766728579998016, -0.10504025965929031, -0.08414669334888458, -0.25774529576301575, -0.11344482749700546, -0.13697999715805054, 0.031940702348947525, 0.10988813638687134, -0.0981595441699028, 0.02944745309650898, -0.16921165585517883, -0.034996289759874344, -0.05683715268969536, -0.1987672597169876, 0.003109797602519393, -0.03933100402355194, -0.17364585399627686, 0.12415806204080582, 0.011455606669187546, -0.1399790346622467, -0.1277252733707428, -0.10107248276472092, -0.14946703612804413, -0.23710773885250092, -0.10806325078010559, -0.11455081403255463, 0.03143918886780739, -0.13276131451129913, -0.056503113359212875, 0.08242249488830566, -0.2132331132888794, 0.15309828519821167, 0.0006289613666012883, -0.03518122807145119, 0.07255320250988007, 0.1519065648317337, 0.07182075828313828, -0.2035176306962967, -0.024728460237383842, -0.1304251104593277, 0.03937894478440285, 0.051644217222929, -0.08103398233652115, -0.15157802402973175, -0.006638659629970789, -0.06673359870910645, 0.07705733925104141, 0.046540290117263794, 0.04493292048573494, 0.05954552814364433, -0.19221995770931244, 0.044131260365247726, 0.042910099029541016, -0.18030118942260742, 0.015033066272735596, 0.08890089392662048, -0.14360691606998444, 0.07928119599819183, 0.08605766296386719, 0.09940014779567719, 0.09380429983139038, 0.011649243533611298, 0.10351435095071793, 0.09754156321287155, -0.009534300304949284, -0.26669058203697205, -0.36973246932029724, 0.06318604946136475, -0.03943156823515892, -0.06522243469953537, 0.058801792562007904, 0.04543149098753929, 0.029145969077944756, -0.01894981972873211, 0.06176476553082466, -0.08672673255205154, 0.006280049681663513, 0.033506009727716446, 0.03293471410870552, -0.05972305312752724, -0.018027354031801224, -0.09248721599578857, -0.14329297840595245, -0.027509640902280807, -0.36497828364372253, 0.10166336596012115, -0.321319043636322, 0.1314217895269394, -0.08816211670637131, -0.013463565148413181, 0.014038803055882454, 0.027266358956694603, -0.03037138283252716, -0.26971569657325745, 0.014197439886629581, -0.0731436237692833, 0.0013332839589565992, -0.04628254845738411, 0.02302718535065651, -0.0738934725522995, -0.08479509502649307, 0.016550984233617783, -0.012630157172679901, -0.0384218692779541, -0.1511641889810562, 0.14597181975841522, 0.02449065074324608, 0.10416202992200851, 0.2192249745130539, 0.1102120503783226, -0.18505634367465973, 0.28291964530944824, -0.09421467036008835, -0.053608834743499756, -0.504891037940979, -0.2830367982387543, -0.3778466582298279, 0.09581878036260605, -0.105902299284935, -0.01887695863842964, 0.017541319131851196, -0.2785421311855316, -0.01757442019879818, -0.11368990689516068, -0.09290902316570282, 0.023238040506839752, -0.07789550721645355, -0.21795916557312012, -0.02025337889790535, 0.05901448056101799, 0.03872904181480408, -0.26057907938957214, 0.000869265990331769, -0.18780076503753662, -0.06348951160907745, 0.08561543375253677, -0.014658505097031593, 0.03723942115902901, 0.1226206049323082, 0.040767211467027664, 0.020648105069994926, -0.0010879522887989879, 0.04420153796672821, -0.09421926736831665, -0.2542826533317566, 0.12369818240404129, -0.11767283827066422, -0.02492429129779339, -0.0339079350233078, -0.06988043338060379, 0.16178205609321594, -0.18078146874904633, -0.11500845104455948, 0.03495272994041443, -0.012099002487957478, -0.03218117728829384, -0.12886972725391388, 0.1128946840763092, -0.13752427697181702, 0.3786832392215729, -0.04694829136133194, 0.03559162840247154, 0.186815544962883, 0.1709991991519928, 0.03567085787653923, -0.21034583449363708, -0.01808864250779152, -0.2264242023229599, 0.08973059803247452, 0.041745200753211975, -0.06972857564687729, -0.24561235308647156, -0.11688286066055298, -0.05271005257964134, -0.06160362809896469, 0.18550817668437958, -0.07467211037874222, 0.26944106817245483, -0.31269222497940063, 0.14210031926631927, 0.14017759263515472, -0.01156663428992033, 0.04593614116311073, 0.08933350443840027, -0.2373182475566864, 0.2780637741088867, 0.05915400758385658, 0.059160053730010986, -0.04894504323601723, -0.0909854918718338, 0.041232116520404816, -0.01265319436788559, -0.14191856980323792, -0.010525996796786785, -0.10386715084314346, -0.07730591297149658, -0.08571145683526993, 0.09842921793460846, -0.12128505110740662, 0.05422908812761307, -0.0711730569601059, -0.0465664342045784, 0.04377073794603348, 0.12797941267490387, -0.0790569931268692, 0.2069995254278183, -0.0944623276591301, -0.09824919700622559, 0.08779330551624298, -0.1423703283071518, -0.08099418878555298, -0.054082904011011124, -0.16402029991149902, 0.1505645364522934, -0.09084504842758179, 0.07721207290887833, -0.024457469582557678, -0.2731553316116333, 0.0569564551115036, 0.021087968721985817, -0.07027151435613632, -0.3314843475818634, 0.02440504916012287, -0.07727930694818497, -0.090902179479599, -0.16497065126895905, -0.08054623752832413, 0.056970350444316864, -0.06688235700130463, 0.08541632443666458, -0.087933748960495, -0.1336115598678589, -0.16350020468235016, 0.18239299952983856, -0.06268307566642761, 0.09423531591892242, 0.3219565153121948, 0.00651687104254961, -0.1682865172624588, 0.02907188981771469, -0.02953154407441616, -0.058760516345500946, -0.3387974500656128, -0.1292639821767807, -0.3183995485305786, 0.07272893935441971, -0.26493173837661743, 0.06743735820055008, 0.098973348736763, -0.15670306980609894, -0.025470109656453133, 0.00701681524515152, -0.07929051667451859, -0.056790657341480255, -0.17777389287948608, -0.02605580911040306, -0.07152298837900162, 0.021940046921372414, 0.03454055264592171, -0.03325103223323822, 0.10041538625955582, -0.225179523229599, -0.07528848946094513, 0.061364371329545975, -0.03142310306429863, -0.04466487839818001, -0.1070881187915802, -0.11105997860431671, 0.09105397015810013, 0.14797565340995789, -0.21143773198127747, -0.11970570683479309, -0.2573879659175873, 0.07844284176826477, -0.20758377015590668, 0.035790327936410904, -0.05905262753367424, -0.035997431725263596, 0.2524244487285614, -0.02894446812570095, -0.0778106153011322, -0.06136645749211311, -0.15355752408504486, 0.15211687982082367, -0.0253929290920496, 0.039498165249824524], "haggle/context/kernel:0": [[-0.011111031286418438, 0.34298932552337646, -0.0027096907142549753, 0.07178995758295059, 0.29606688022613525, -0.14671474695205688, -0.9390759468078613, -0.5983147025108337, 0.2964271008968353, -0.1590302586555481, 0.08606664091348648, 0.10758926719427109, 0.05821816623210907, 0.22453229129314423, -0.06682383269071579, 0.24118106067180634, -0.04152027145028114, -0.24392710626125336, 0.014315212145447731, 0.0019623981788754463, 0.04898017272353172, -0.013428066857159138, -0.14522600173950195, -0.1827944964170456, 0.17311148345470428, -0.05825134366750717, -0.024448271840810776, -0.02145230397582054, 0.016136184334754944, -0.27295657992362976, 0.09786593914031982, 0.11642515659332275, 0.23080024123191833, -0.10639602690935135, 0.009985421784222126, 0.16833564639091492, -0.015548921190202236, 0.06231193616986275, 0.19636790454387665, -0.139591246843338, 0.15780818462371826, 0.11577831208705902, 0.024981966242194176, 0.02213331311941147, 0.09332960098981857, 0.15144340693950653, 0.23145584762096405, 0.11934754252433777, 0.19800695776939392, 0.3480534553527832, -0.0027206644881516695, 0.038011759519577026, -0.1364217847585678, -0.16896507143974304, -0.07988502830266953, -0.03373714163899422, 0.06077604368329048, 0.12638071179389954, 0.6744102835655212, 0.17414726316928864, 0.018511928617954254, 0.07421322911977768, -0.13355223834514618, -0.09368433058261871, -0.10131121426820755, 0.32448112964630127, 0.0026258465368300676, 0.1305014193058014, 0.11217613518238068, 0.08418916910886765, -0.20926165580749512, -0.33708181977272034, -0.08015123754739761, 0.05628087371587753, -0.2018425315618515, -0.041542235761880875, 0.01768912933766842, 0.1003965362906456, -0.16106657683849335, 0.6444121599197388, -0.23394683003425598, 0.11815325170755386, -0.22595208883285522, -0.08137553185224533, -0.005296869203448296, -0.000267693743808195, 0.1581430435180664, 0.04874539002776146, -0.13857705891132355, -0.028079606592655182, 0.1118089035153389, -0.09886293858289719, -0.18427599966526031, -0.10264216363430023, 0.08821123093366623, -0.058795150369405746, 0.05003328248858452, 0.04259122908115387, 0.07204322516918182, 0.19344285130500793, 0.5793125033378601, 0.04847140237689018, -0.3758234977722168, -0.0708397850394249, 0.17132511734962463, 0.17555831372737885, 0.27513155341148376, -0.3448045253753662, 0.2578051686286926, -0.03158590570092201, -0.20611491799354553, 0.2739216387271881, 0.10007791966199875, -0.03770214691758156, -0.08524679392576218, -0.2722809612751007, 0.19787196815013885, 0.038317713886499405, -0.018822185695171356, 0.17827191948890686, -0.16821788251399994, -0.0016283683944493532, -0.015726536512374878, -0.02397298254072666, -0.12474234402179718, 0.08855373412370682, -0.030873946845531464, -0.4771835505962372, 0.12956172227859497, -0.09182056784629822, 0.20839042961597443, -0.16747966408729553, -0.026854217052459717, 0.06419891864061356, -0.7083914279937744, -0.06688708811998367, 0.0030652417335659266, 0.1139954924583435, -0.7274315357208252, -0.18266016244888306, 0.03270336985588074, 0.21403321623802185, 0.3325326442718506, 0.029929421842098236, -0.10642226040363312, 0.1300903707742691, 0.29998889565467834, -0.06889741122722626, 0.05031294748187065, -0.1482701450586319, 0.16154791414737701, -0.039182595908641815, 0.30594468116760254, -0.023274078965187073, -0.43476971983909607, 0.1299121081829071, -0.46550413966178894, -0.1126452311873436, -0.02342558279633522, -0.1793489307165146, -0.0802706927061081, -0.5488207340240479, -0.9283879995346069, -0.18532150983810425, -0.13503378629684448, 0.27049723267555237, 0.19001981616020203, 0.0479385145008564, -0.7728874087333679, -0.1678619533777237, 0.07012222707271576, -0.04165581241250038, -0.00798680167645216, -0.7257863879203796, -0.015988081693649292, 0.223300963640213, -0.010245256125926971, 0.1389261782169342, 0.07394615560770035, -1.3749741315841675, 0.0014817074406892061, -0.1408105045557022, -0.5228922367095947, -0.09531097859144211, 0.009974579326808453, 0.07902824878692627, -0.46715590357780457, -0.15363164246082306, 0.09977257251739502, -0.6684671640396118, 0.031038278713822365, -0.06224233657121658, -0.006341878324747086, 0.1804640293121338, 0.16658620536327362, -0.0067405374720692635, -0.08914515376091003, 0.012073621153831482, -0.27855029702186584, -0.005660533905029297, -1.0440534353256226, 0.037655893713235855, 0.047468312084674835, 0.004694705829024315, 0.004412401467561722, -0.14655788242816925, -0.37102603912353516, 0.14336952567100525, 0.280293732881546, -0.019359009340405464, 0.18273942172527313, 0.0019125300459563732, 0.008326796814799309, -0.16593652963638306, 0.028596239164471626, -0.20196855068206787, 0.167625293135643, -0.045507512986660004, 0.051958367228507996, -0.3062547743320465, 0.1175004318356514, -0.3832137882709503, -0.13450615108013153, 0.10615769773721695, -0.191065713763237, -0.059409916400909424, 0.2903761565685272, 0.24112407863140106, 0.07806962728500366, -0.19643114507198334, 0.14943307638168335, 0.013609333895146847, 0.08338678628206253, 0.2195318341255188, -0.007792419753968716, 0.16959747672080994, 0.2513653337955475, 0.20888793468475342, 0.2826996147632599, 0.15358977019786835, 0.04892050847411156, -0.3865334987640381, -0.11810168623924255, 0.044854678213596344, -0.26362764835357666, -0.17596609890460968, -0.4010387361049652, -0.033813804388046265, 0.033269766718149185, -0.055715516209602356, -0.05695679038763046, 0.3001313805580139, -0.04125658795237541, -0.08568324893712997, 0.35155051946640015, 0.15216635167598724], [0.2347259670495987, 0.02198788896203041, 0.2220754325389862, -0.35446786880493164, -0.06350993365049362, 0.28123483061790466, 0.20599333941936493, 0.04770732671022415, 0.20336216688156128, 0.13979680836200714, 0.23586733639240265, -0.0678868517279625, 0.24723853170871735, 0.12080128490924835, 0.17371074855327606, -0.11728502064943314, 0.061955973505973816, -0.13379132747650146, -0.7092854976654053, -0.07257361710071564, 0.18801233172416687, 0.08707766979932785, -0.12534616887569427, -0.16274335980415344, -0.4788167178630829, -0.13974808156490326, -0.27891862392425537, -0.07002351433038712, -0.11620615422725677, -0.021351099014282227, 0.16164791584014893, 0.16510702669620514, 0.11553352326154709, -0.08602893352508545, 0.010042873211205006, -0.06534366309642792, -0.04554431140422821, 0.10622235387563705, 0.14527855813503265, -0.00996987521648407, 0.29386574029922485, -0.37392759323120117, -0.06628862768411636, -0.2114267647266388, 0.16827186942100525, 0.2447095364332199, -0.14555643498897552, 0.257321834564209, -0.46920517086982727, 0.10830993950366974, 0.5326763987541199, -0.17183321714401245, -0.031019043177366257, -0.07816995680332184, -0.05375860258936882, -0.08669375628232956, -0.13584689795970917, -0.27603694796562195, 0.02227620594203472, 0.2104797214269638, -0.2047719657421112, 0.1558915227651596, 0.011537416838109493, -0.06591678410768509, 0.11575233191251755, -0.0816284567117691, 0.187247171998024, 0.21751663088798523, 0.35293343663215637, 0.17720595002174377, -0.09181282669305801, -0.16634772717952728, 0.15332837402820587, 0.0727517306804657, -0.2512706518173218, -0.059974148869514465, -0.10425075143575668, 0.01502539124339819, -0.20296795666217804, 0.0974866971373558, -0.0635385736823082, 0.13532719016075134, 0.288964182138443, -0.0024833516217768192, 0.03542026877403259, -0.12951135635375977, 0.2258693426847458, 0.08503595739603043, -0.016263075172901154, -0.03938250616192818, -0.16486741602420807, 0.0026754438877105713, 0.1807803362607956, -0.0032068490982055664, -0.15557481348514557, 0.2173045575618744, 0.17328372597694397, 0.2679113447666168, -0.017262930050492287, -0.048401203006505966, -0.0022947622928768396, -0.09261283278465271, 0.17600108683109283, -0.0593247152864933, 0.008377086371183395, -0.0366392582654953, 0.06828269362449646, -0.08743449300527573, 0.16236630082130432, 0.10099352896213531, 0.01560696866363287, 0.27231669425964355, -0.32518649101257324, -0.12629325687885284, -0.06008952111005783, 0.3270760476589203, -0.06301378458738327, -0.21214863657951355, -0.013725148513913155, -0.11686907708644867, -0.11304537951946259, -0.049013324081897736, 0.11927265673875809, -0.15037304162979126, 0.057324476540088654, 0.25467371940612793, -0.0963735431432724, 0.14689019322395325, 0.2685284912586212, -0.47593027353286743, 0.11687897145748138, 0.18880070745944977, -0.1296447068452835, -0.30962514877319336, 0.02392568252980709, -0.19245490431785583, -0.7192880511283875, 0.24963988363742828, 0.15060284733772278, 0.20159196853637695, -0.08788899332284927, 0.19787155091762543, 0.0006879408610984683, -0.11409152299165726, 0.0022601187229156494, 0.21533818542957306, -0.20156973600387573, -0.08187101781368256, 0.061134062707424164, 0.060990799218416214, 0.2011309415102005, -0.2243529111146927, -0.06378014385700226, -0.0018154382705688477, -0.23546501994132996, -0.16186270117759705, 0.2736015319824219, -0.008943808265030384, 0.08818189054727554, 0.017403239384293556, -0.09948611259460449, -0.3691294193267822, 0.028292566537857056, -0.0814991146326065, -0.030729109421372414, 0.29473063349723816, 0.08345039933919907, -1.996873378753662, 0.08538918197154999, -0.1629648059606552, 0.21850939095020294, 0.2119002789258957, 0.106080561876297, 0.019997334107756615, -0.06533917784690857, 0.2345096468925476, -0.04645616561174393, -0.2190055102109909, 0.3212372064590454, 0.1366586834192276, -0.16535945236682892, -0.1593349725008011, 0.178115114569664, -0.08808071911334991, 0.01537583488970995, 0.1748153120279312, 0.19410733878612518, -0.012088971212506294, -0.16835759580135345, -0.0873478427529335, 0.09742137044668198, 0.09719322621822357, 0.0399383045732975, 0.14843016862869263, -0.11299147456884384, -0.06460307538509369, -0.12334133684635162, -0.0799550712108612, -0.15679985284805298, -0.02999601513147354, 0.03270891308784485, -1.067783236503601, -0.6409789323806763, -0.12538394331932068, -0.08152006566524506, 0.13603587448596954, 0.04953974857926369, -0.041703641414642334, 0.1973479837179184, -0.5628862380981445, 0.07774785906076431, -0.14053118228912354, 0.008862733840942383, -0.17064575850963593, -0.2710331380367279, -0.1597209870815277, -0.10793232172727585, -0.1061619371175766, 0.05570845678448677, -0.04262429103255272, 0.14990969002246857, 0.2411239594221115, 0.016207236796617508, -0.21607936918735504, 0.21330292522907257, 0.17666910588741302, 0.17925935983657837, -0.33062148094177246, 0.16422517597675323, -0.14712046086788177, 0.167204350233078, -0.09995647519826889, 0.2116858959197998, 0.15246057510375977, -0.15383301675319672, -0.23885728418827057, 0.0500936359167099, 0.001631383434869349, 0.1500011384487152, 0.1874953955411911, 0.3194967806339264, 0.2452298104763031, -0.08568952977657318, 0.15711070597171783, 0.13890571892261505, 0.10859216004610062, 0.17265425622463226, -0.0507216602563858, -0.007554902229458094, -0.06241152808070183, 0.22586888074874878, 0.1806429773569107, -0.13408619165420532, -0.056737396866083145, 0.20056825876235962, 0.20737610757350922], [-0.003203283529728651, -0.18201440572738647, 0.05877372995018959, -0.02341272309422493, 0.14329710602760315, 0.19021578133106232, 0.0478643998503685, -0.1068483293056488, 0.270868182182312, -0.1810571551322937, 0.2329225391149521, 0.15913093090057373, 0.21616771817207336, -0.02450726367533207, -0.21160921454429626, 0.3348754048347473, 0.051684897392988205, 0.0013998703798279166, 0.0755016878247261, -0.02070828154683113, 0.009671691805124283, 0.0736197829246521, -0.12474483251571655, 0.09290235489606857, 0.16804151237010956, -0.03920695558190346, 0.2982310354709625, 0.16840633749961853, -0.19256076216697693, 0.09845671057701111, -0.22382447123527527, -0.26364007592201233, 0.14176641404628754, -0.07833056896924973, -0.0025081585627049208, 0.09854323416948318, 0.11614120751619339, -0.014460096135735512, 0.06108001992106438, -0.03305274248123169, -0.017427116632461548, 0.06457123160362244, -0.19724997878074646, 0.04630289599299431, 0.32210153341293335, -0.01575726456940174, 0.05451493710279465, 0.022814057767391205, 0.02227693796157837, -0.09019561111927032, -0.09363951534032822, -0.1823318749666214, 0.032362159341573715, -0.35725176334381104, -0.03786301985383034, -0.0071727498434484005, -0.09855599701404572, -0.12429875135421753, -0.02501283586025238, 0.011852173134684563, 0.1309957653284073, 0.01331246830523014, 0.08312542736530304, -0.037783607840538025, 0.218837171792984, 0.15190185606479645, -0.113471120595932, 0.25080400705337524, 0.2719498872756958, -0.4481145143508911, 0.033098358660936356, -0.0761665627360344, 0.15385401248931885, 0.08715470880270004, 0.04136187955737114, 0.4049391746520996, 0.3322652280330658, -0.35069817304611206, 0.1850387006998062, 0.028466984629631042, 0.1326751708984375, -0.3589726388454437, 0.040049295872449875, -0.027726054191589355, -0.022256650030612946, -0.14555557072162628, 0.1038176566362381, -0.2933329641819, -0.1371360719203949, -0.14085185527801514, 0.27354031801223755, -0.20872072875499725, -0.041640859097242355, 0.02396392822265625, -0.13654778897762299, -0.05686840042471886, 0.3380265235900879, -0.33781304955482483, 0.026409169659018517, 0.13195718824863434, -0.1283501386642456, -0.0327877551317215, 0.0034581152722239494, -0.185367152094841, -0.1912865787744522, 0.29401105642318726, -0.2783653140068054, 0.13043347001075745, 0.1468232274055481, 0.03158111870288849, -0.07409248501062393, 0.25354906916618347, 0.1930951029062271, -0.013859307393431664, -0.07238709926605225, -0.054235875606536865, 0.05340226739645004, -0.2407160848379135, -0.127916157245636, -0.03694862499833107, 0.11962608247995377, -0.16018493473529816, -0.037069905549287796, -0.015242300927639008, 0.31606003642082214, 0.23528747260570526, -0.06311795860528946, 0.24624282121658325, 0.3392057716846466, 0.12846331298351288, 0.17711752653121948, 0.16845917701721191, -0.12436243891716003, 0.00898201297968626, -0.8844401836395264, -0.5893396735191345, 0.03931345418095589, 0.30070534348487854, -0.5490188598632812, 0.13407227396965027, 0.18606778979301453, 0.2572864890098572, -0.049261897802352905, -0.3687245845794678, -0.03425329923629761, 0.29838114976882935, 0.23145389556884766, -0.08747920393943787, -0.07389314472675323, -0.3302590548992157, 0.1091303899884224, -0.031122922897338867, 0.08122765272855759, -0.08606075495481491, 0.16588427126407623, 0.23093268275260925, -0.13911940157413483, -0.3055006265640259, 0.09682835638523102, -0.17043326795101166, -0.10462667047977448, 0.09235410392284393, 0.01540068443864584, 0.0883486270904541, -0.04443706199526787, 0.011065659113228321, -0.2674560248851776, 0.08284137398004532, -0.048686858266592026, 0.2181793451309204, -0.04582750424742699, -0.03419847413897514, 0.11080078035593033, 0.1138182133436203, -0.08807989209890366, 0.1804855763912201, -0.023897673934698105, -0.1820516735315323, 0.0155843710526824, 0.1609959900379181, 0.22688822448253632, -0.12589161098003387, 0.19799482822418213, 0.0018424171721562743, -1.147976040840149, -0.8459010124206543, 0.10216674953699112, 0.007777429185807705, -0.019225584343075752, -0.04817047342658043, -0.5807364583015442, 0.29849499464035034, -0.47244834899902344, -0.4485073685646057, -0.5360981225967407, 0.03389105573296547, -0.12324154376983643, -0.014224305748939514, -0.21111921966075897, -0.006410270929336548, -0.016148366034030914, 0.0014355365419760346, 0.2495160549879074, -0.12169427424669266, -0.1236150860786438, -0.2631380259990692, -0.3914206922054291, -0.3736155331134796, 0.2271440625190735, -0.08204744756221771, 0.12840287387371063, -0.18229761719703674, 0.22807779908180237, -0.11084530502557755, -0.016602467745542526, 0.07392110675573349, 0.06480252742767334, -0.02987060695886612, -0.14914214611053467, -0.2811289429664612, 0.05049749091267586, 0.03880910202860832, 0.3016884922981262, 0.28254038095474243, 0.2571938633918762, -0.20006680488586426, -0.24195507168769836, 0.10461019724607468, 0.31803250312805176, 0.08351095765829086, -1.6819212436676025, -0.3663865029811859, 0.25327926874160767, 0.17835132777690887, -0.12921124696731567, 0.18529397249221802, -0.26175981760025024, 0.09110750257968903, -0.10858851671218872, 0.1833972930908203, -0.05589351803064346, -0.036442555487155914, 0.011057031340897083, -0.3379670977592468, 0.08845563977956772, -0.10549987107515335, 0.3502958416938782, -0.1455799788236618, -0.019397055730223656, 0.21300049126148224, -0.31159085035324097, 0.23887869715690613, -0.14994513988494873, -0.1993187963962555, 0.17318880558013916, 0.06437715142965317], [-0.20821143686771393, -0.23828724026679993, -0.05313463881611824, 0.29630789160728455, 0.11611448973417282, 0.04084315896034241, 0.17026634514331818, -0.027756670489907265, -0.3229965269565582, -0.15807028114795685, 0.007679489906877279, 0.04539882391691208, 0.06289415806531906, -0.16231729090213776, 0.17401038110256195, 0.20470382273197174, 0.26789578795433044, 0.05283760279417038, -0.055520690977573395, -0.026520170271396637, 0.06683095544576645, -0.1292354315519333, 0.13808172941207886, 0.405045747756958, 0.23329055309295654, 0.39097312092781067, -0.1261770874261856, 0.12487752735614777, 0.032753754407167435, 0.4338376820087433, 0.3638765513896942, 0.013483033515512943, -0.29324549436569214, -0.040974944829940796, 0.20140281319618225, 0.023432059213519096, 0.6926499009132385, -0.026028094813227654, -0.24646833539009094, -0.019438788294792175, 0.26868322491645813, 0.06915249675512314, -0.2735481858253479, 0.22598521411418915, -0.36174026131629944, -0.14944416284561157, 0.08684515953063965, 0.1448676586151123, 0.1777871549129486, -0.26110702753067017, 0.2075217217206955, -0.10729022324085236, -0.03507643938064575, 0.18083515763282776, 0.03958452492952347, 0.035260241478681564, 0.0316341407597065, -0.21070414781570435, 0.18818354606628418, -0.29814979434013367, -0.22013407945632935, 0.07835608720779419, 0.5044155120849609, 0.03431686758995056, 0.13994616270065308, 0.060688767582178116, 0.5030766725540161, -0.369684100151062, -0.020037971436977386, 0.14781317114830017, -0.13955944776535034, 0.4113658368587494, 0.16052205860614777, 0.2619550824165344, -0.25372958183288574, -0.013242729008197784, 0.0680016279220581, -0.2858119308948517, -0.20042827725410461, -0.06694810837507248, 0.14678175747394562, 0.291291207075119, 0.12772926688194275, -0.1474720984697342, -0.10845828801393509, -0.1585257649421692, -0.2879404127597809, 0.2312830686569214, -0.16317370533943176, -0.008136644028127193, 0.06819400936365128, -0.06542623043060303, 0.05964220315217972, -0.01464824378490448, -0.25895217061042786, 0.09558022767305374, 0.2251434624195099, -0.13774186372756958, -0.15887711942195892, 0.3765674829483032, 0.024723948910832405, -0.23530732095241547, 0.11160852015018463, 0.05635659769177437, -0.12609821557998657, -0.27750155329704285, -0.015047496184706688, 0.39252281188964844, -0.11000388115644455, 0.008682429790496826, 0.42878133058547974, -0.1493372619152069, 0.06289777904748917, -0.03253619372844696, -0.08826780319213867, -0.005712452344596386, -0.42545217275619507, -0.11098098009824753, 0.0695682242512703, 0.04204787313938141, 0.2904539704322815, 0.28428298234939575, -0.07961941510438919, 0.0432816743850708, 0.016837147995829582, -0.002711786888539791, 0.028082802891731262, -0.3006472587585449, -0.402910977602005, 0.12829743325710297, -0.24406786262989044, -0.1647515445947647, 0.1082601398229599, 0.08216080814599991, -0.050097908824682236, 0.3779297173023224, -0.09316305816173553, -0.35696926712989807, 0.08706533908843994, 0.46961891651153564, 0.1542951911687851, -0.26179593801498413, 0.2239837497472763, -0.11814714223146439, -0.13950368762016296, -0.5504423379898071, 0.04099884629249573, -0.05404271185398102, 0.21897636353969574, -0.07837776094675064, 0.22414414584636688, 0.2522541284561157, 0.14442917704582214, -0.04550083726644516, -0.18845823407173157, -0.17327284812927246, -0.05724962428212166, 0.14562897384166718, -0.4983009994029999, 0.14066362380981445, 0.04412089288234711, -0.0745423436164856, 0.2061809003353119, -0.2215825766324997, 0.9687158465385437, 0.1079709529876709, -0.1255478411912918, 0.08138971030712128, 0.2142709642648697, 0.5483231544494629, 0.17380526661872864, 0.43926578760147095, -0.21780671179294586, 0.40244951844215393, -0.06065496802330017, -0.3602101802825928, 0.03384312987327576, -0.2369479089975357, -0.12814994156360626, -0.10431574285030365, 0.26094675064086914, 0.4382058382034302, -0.06534073501825333, -0.03560978174209595, 0.28325316309928894, -0.20348723232746124, 0.011711003258824348, -0.06026256084442139, -0.20385074615478516, 0.2657198905944824, -0.27355098724365234, -0.5578206181526184, -0.35348576307296753, -0.3950968384742737, -0.0641476958990097, -0.006579250562936068, -0.12461069971323013, -0.13431218266487122, 0.7883985638618469, -0.1437855362892151, 0.3953634202480316, 0.1042879968881607, -0.2558797597885132, 0.056425996124744415, 0.05541970580816269, 0.19475769996643066, -0.22503510117530823, 0.257469117641449, -0.5711297392845154, 0.4951474964618683, 0.39137372374534607, 0.43254199624061584, -0.09616011381149292, 0.19564969837665558, -0.08437574654817581, -0.20774689316749573, 0.18601083755493164, -0.038456030189991, -0.24545563757419586, 0.3122037351131439, -0.243925541639328, -0.06889910995960236, -0.08041521906852722, -0.5038529634475708, 0.30827653408050537, -0.1996874064207077, -0.20611782371997833, 0.22695103287696838, -0.5091004371643066, 0.3094936013221741, -0.22453218698501587, 0.28051140904426575, -0.2022167146205902, 0.010298075154423714, 0.03901463374495506, 0.18028923869132996, 0.4243168830871582, -0.4468488097190857, 0.32866308093070984, -0.5368978381156921, -0.2551804184913635, -0.061455100774765015, -0.16024023294448853, -0.2631974518299103, -0.17739443480968475, 0.17536024749279022, -0.012548288330435753, 0.5681677460670471, -0.08223099261522293, 0.2028031051158905, 0.11732129007577896, -0.1528700441122055, 0.044549647718667984, -0.1855342835187912, -0.19642169773578644, -0.3692573010921478], [-0.12071942538022995, 0.21477816998958588, 0.18122145533561707, 0.25894293189048767, -0.24748994410037994, -0.13227178156375885, 0.06178167834877968, 0.05878642573952675, 0.015105757862329483, -0.026963528245687485, -0.19696903228759766, -0.022443411871790886, 0.06288720667362213, -0.13928766548633575, 0.20186486840248108, -0.17704877257347107, 0.061807598918676376, 0.2672080397605896, -0.06332363188266754, 0.04520662501454353, 0.12675626575946808, 0.10622945427894592, 0.04005838930606842, -0.040970031172037125, -0.2710503935813904, 0.23855768144130707, 0.07233167439699173, 0.42146894335746765, -0.13253633677959442, -0.1673821657896042, -0.15136881172657013, 0.07494758069515228, 0.056389227509498596, 0.03461369872093201, 0.1834503561258316, -0.035703133791685104, 0.09036248922348022, 0.22648118436336517, 0.16726155579090118, 0.02477569878101349, -0.34323251247406006, 0.08388487994670868, 0.405480295419693, -0.2140900194644928, -0.1091211587190628, -0.17173708975315094, 0.29398131370544434, 0.19656039774417877, -0.13467812538146973, -0.03345157951116562, 0.031725380569696426, -0.03945114091038704, -0.11852196604013443, -0.04853615537285805, -0.05636436492204666, -0.013580923900008202, 0.13942354917526245, 0.06966394186019897, -0.08282703161239624, 0.061600212007761, 0.038147736340761185, -0.22865216434001923, -0.12819743156433105, -0.052329570055007935, 0.16294533014297485, -0.16423271596431732, 0.22681337594985962, -0.4170178174972534, 0.15841268002986908, 0.040880486369132996, 0.014320114627480507, 0.14145758748054504, 0.08771962672472, -0.3875432312488556, -0.0015480435686185956, -0.02405634894967079, -0.13854295015335083, 0.1538216769695282, 0.035641759634017944, 0.015727458521723747, 0.14963284134864807, -0.029289204627275467, 0.012429450638592243, 0.03192344307899475, -0.037728022783994675, 0.0412227101624012, 0.07419958710670471, -0.07484762370586395, 0.007232814095914364, -0.15674617886543274, 0.06620293110609055, -0.07744232565164566, -0.33065885305404663, -0.14639706909656525, -0.25411587953567505, -0.3547172546386719, -0.18524685502052307, -0.1290264129638672, 0.07130025327205658, -0.07931306958198547, -0.026923492550849915, 0.004169776104390621, -0.20703458786010742, 0.05289294570684433, 0.11134300380945206, 0.061763156205415726, 0.05335536226630211, -0.1571357250213623, -0.2141290158033371, -0.4922986626625061, 0.14694702625274658, -0.009504714980721474, 0.4012451767921448, 0.09238556027412415, -0.09297318756580353, 0.37420889735221863, 0.31192201375961304, -0.13724227249622345, -0.10890676081180573, -0.04542222246527672, 0.3753748834133148, -0.08264182507991791, 0.3638353645801544, 0.0739038735628128, -0.017860975116491318, -0.2617005705833435, -0.09312736243009567, 0.08830256015062332, -0.38723427057266235, 0.21989458799362183, -0.5176950693130493, -0.167933851480484, -0.12631230056285858, 0.5066244602203369, 0.6351038217544556, 0.40901076793670654, 0.6031487584114075, 0.039955466985702515, 0.05685732513666153, -0.4135528802871704, -0.24572083353996277, -0.607452392578125, -0.1823168694972992, 0.25793376564979553, -0.12385901063680649, -0.5341523885726929, -0.04088202491402626, -0.1250447779893875, 0.45588088035583496, -0.25593462586402893, -0.683924674987793, 0.042719803750514984, -0.09059329330921173, -0.004583984613418579, -0.017646098509430885, -0.16953766345977783, 0.031359072774648666, 0.29913395643234253, 0.21819862723350525, -0.2616378962993622, -0.07839760929346085, 0.18954727053642273, 0.3479258716106415, -0.2991514205932617, -0.30249080061912537, -0.07567070424556732, -0.13805505633354187, 0.37354472279548645, 0.08726602792739868, -0.030759796500205994, -0.1965504288673401, -0.4374517798423767, 0.6002792119979858, -0.515382707118988, 0.06040056049823761, -0.001972190337255597, -0.11965878307819366, -0.0008830350707285106, -0.170122891664505, 0.24129612743854523, -0.2659807503223419, 0.7484070658683777, 0.16099053621292114, 0.026049936190247536, 0.4384361505508423, 0.37202081084251404, -0.3090163469314575, -0.17723454535007477, -0.20127761363983154, 0.11479638516902924, -0.11924663186073303, 0.37625816464424133, 0.06908140331506729, 0.27899855375289917, -0.25310009717941284, -0.14627569913864136, 0.049709588289260864, -0.016905367374420166, -0.19235233962535858, -0.10817548632621765, 0.06345100700855255, 0.7112271189689636, 0.45550858974456787, -0.06858618557453156, -0.09715858846902847, -0.04833162948489189, 0.340957373380661, -0.02550273761153221, -0.0643317848443985, -0.18278270959854126, -0.15777632594108582, 0.12344434857368469, -0.3597875237464905, 0.3375714123249054, 0.5845728516578674, 0.2558937072753906, 0.0914810374379158, 0.08414667844772339, -0.19843725860118866, 0.0032613291405141354, 0.5111008882522583, 0.31838780641555786, 0.0517425462603569, -0.10855596512556076, -0.3801180124282837, -0.13779157400131226, -0.006997920107096434, 0.17436659336090088, -0.530690610408783, 0.5194018483161926, -0.1642266809940338, 0.0055114044807851315, -0.28079789876937866, 0.03561961278319359, -0.05068311467766762, -0.4718461334705353, -0.15404732525348663, -0.4296116828918457, -0.1812518686056137, 0.1469925343990326, 0.1323232352733612, 0.3162390887737274, 0.018246276304125786, -0.016588542610406876, 0.11048955470323563, 0.05232129991054535, -0.35652944445610046, -0.20846794545650482, -0.06933171302080154, -0.5536317229270935, 0.18277406692504883, -0.16428758203983307, 0.10028968751430511, -0.0339474081993103, -0.13107840716838837, 0.5321568846702576], [-0.10554134845733643, 0.0400354340672493, 0.11317754536867142, 0.16780272126197815, -0.23344454169273376, 0.02468392811715603, 0.10646969079971313, -0.04895404726266861, 0.0005697342567145824, -0.20313268899917603, 0.19002766907215118, -0.2173343300819397, 0.1284589022397995, -0.4222988188266754, -0.19841857254505157, 0.4439305365085602, -0.03015327826142311, 0.10801278799772263, 0.07725740224123001, -0.11688297986984253, -0.14869798719882965, 0.1412796676158905, -0.12098343670368195, 0.070582315325737, 0.25867635011672974, 0.28927940130233765, -0.11986093968153, -0.04489821940660477, -0.01924274116754532, -0.11865762621164322, 0.18428833782672882, 0.05569823831319809, 0.09943228960037231, -0.1284017562866211, 0.14762058854103088, 0.11662770062685013, -0.4547298550605774, 0.06832744181156158, 0.06971234828233719, -0.03253196179866791, 0.3458739221096039, 0.15666744112968445, 0.30586758255958557, 0.2301701009273529, -0.34417951107025146, 0.2105334997177124, 0.13275441527366638, 0.20780284702777863, 0.23199814558029175, 0.19241800904273987, 0.033583395183086395, -0.20751483738422394, -0.08770859986543655, -0.004226000048220158, 0.061198532581329346, -0.0508248545229435, 0.2727299928665161, -0.246590718626976, 0.09986370801925659, 0.11057520657777786, 0.19688080251216888, 0.5943042039871216, -0.16870854794979095, -0.05941648781299591, 0.12161161005496979, 0.12336210161447525, -0.14511549472808838, 0.18513375520706177, 0.4497867822647095, 0.19476374983787537, -0.24323637783527374, 0.19335304200649261, -0.1727699339389801, -0.011343570426106453, -0.021653151139616966, 0.34404256939888, 0.24329358339309692, 0.11535602807998657, -0.08506179600954056, -0.14118193089962006, -0.11114505678415298, -0.05665763095021248, -0.06408093124628067, 0.030315136536955833, -0.18050187826156616, -0.018077893182635307, -0.8717266321182251, 0.3162359297275543, 0.08739513158798218, 0.11059779673814774, 0.006759646814316511, 0.030867010354995728, -0.05344948545098305, -0.1052284836769104, -0.0624353289604187, 0.23897090554237366, -0.2097221165895462, 0.18010319769382477, 0.07748820632696152, 0.2399824559688568, 0.27243292331695557, -0.20239415764808655, -0.0008231804822571576, -0.026857919991016388, -0.1842624843120575, 0.04568928852677345, 0.0762421041727066, -0.0024661750067025423, 0.04022141918540001, 0.33436456322669983, 0.07215660810470581, -0.2958037257194519, 0.0858302190899849, -0.16347546875476837, -0.09225647151470184, 0.09331171959638596, 0.08848422020673752, -0.01776241697371006, -0.13171012699604034, 0.1708163619041443, 0.262915700674057, 0.23790501058101654, -0.402818888425827, -0.15554338693618774, -0.12719467282295227, -0.2520332932472229, 0.06256987154483795, -0.04614822193980217, 0.012233785353600979, -0.21690212190151215, -0.03737979009747505, 0.05858335271477699, -0.047016412019729614, -0.4896169602870941, -0.035346005111932755, 0.20366668701171875, -0.4798884391784668, -0.5874959230422974, -0.06612464785575867, -0.34158825874328613, 0.057546231895685196, 0.09789691120386124, -0.1679542362689972, 0.5618506669998169, -0.15090084075927734, 0.053037188947200775, -0.33837664127349854, 0.09947507083415985, -0.5113193988800049, -0.10238682478666306, -0.16484315693378448, 0.4736100733280182, 0.13987620174884796, -0.04504002630710602, 0.24665525555610657, 0.012644478119909763, 0.07624989748001099, 0.14585497975349426, -0.13306908309459686, -0.37216320633888245, 0.0841398686170578, 0.07999967783689499, -0.07853424549102783, -0.16839554905891418, -0.7300379872322083, -0.6913825273513794, -0.2099757194519043, 0.26989585161209106, -0.24837052822113037, 0.06315966695547104, -0.19130297005176544, 0.17798298597335815, -0.3229934275150299, 0.079742930829525, -0.14233465492725372, -0.34214287996292114, -0.006192658096551895, 0.2046707272529602, 0.010138765908777714, 0.07916705310344696, 0.4139740467071533, 0.03905794024467468, 0.1738806515932083, -0.08953273296356201, -0.06811729073524475, -0.09309884905815125, 0.054213717579841614, 0.06358262896537781, 0.4433075487613678, 0.341096431016922, 0.49068590998649597, -0.027132777497172356, 0.49327585101127625, -0.04561498761177063, 0.5653506517410278, -0.17336109280586243, 0.07405896484851837, -0.14586874842643738, 0.40688109397888184, -0.04325522482395172, -0.1252739429473877, -0.310867041349411, -0.31461137533187866, -0.055802445858716965, -0.008746218867599964, 0.25942060351371765, -0.18485161662101746, 0.2449452430009842, -0.017551496624946594, 0.42702043056488037, -0.6970719695091248, 0.5310026407241821, 0.4783713221549988, 0.5229026079177856, -0.3356474041938782, -0.0077689276076853275, -0.22086164355278015, -0.1086016595363617, 0.23415490984916687, 0.4895362854003906, -0.44987455010414124, -0.6220070719718933, -0.052560124546289444, 0.11589262634515762, -0.2262478470802307, 0.13785164058208466, -0.3266352117061615, -0.2408338338136673, 0.20506775379180908, 0.274593710899353, 0.45012304186820984, 0.24958428740501404, -0.05861802026629448, -0.6259905695915222, 0.011293585412204266, -0.08595116436481476, -0.33330991864204407, 0.342215895652771, -0.43877533078193665, -0.426630437374115, -0.05722833052277565, -0.34387537837028503, -0.09919711947441101, -0.14737200736999512, -0.013329245150089264, 0.330035537481308, -0.17289024591445923, -0.00828987080603838, -0.1569368988275528, 0.3528372347354889, 0.15512391924858093, -0.4942874610424042, -0.17482809722423553, 0.5047615170478821, -0.16828621923923492, -0.5394400954246521]], "haggle/embedding:0": [[2.0822761058807373, 0.3039906620979309, -0.13639706373214722, 0.8172920346260071, 0.6878145337104797, -1.0599795579910278, 1.0799795389175415, 0.5411868691444397, 2.164777994155884, 0.12922783195972443, 0.26511627435684204, -0.035354360938072205, 1.6453484296798706, 0.27379897236824036, -0.5655403733253479, -2.2171990871429443, -0.7627273797988892, -0.7604150176048279, 0.014108505100011826, -0.13001401722431183, -0.7769442796707153, 2.5142993927001953, -0.4063774049282074, -1.0628021955490112, 1.288038969039917, -1.3629060983657837, -0.5739452242851257, -0.28638026118278503, 0.8656370639801025, 1.318274736404419, -0.6003852486610413, -0.6195647120475769, -1.5132745504379272, 1.216496467590332, 1.1404650211334229, 2.515425205230713, 0.19126173853874207, 0.8072928786277771, -0.37309321761131287, -1.6188366413116455, -1.8226412534713745, 0.42108944058418274, -0.4117433726787567, -0.14351986348628998, -1.4413325786590576, 0.6044962406158447, 0.8769760131835938, 0.19014234840869904, -0.5738756656646729, 1.7585585117340088, -0.9194400906562805, -0.9936603307723999, -0.22812427580356598, 0.7211979627609253, -0.42084383964538574, 0.5928837656974792, -2.5034282207489014, -0.8869536519050598, -1.0656545162200928, 0.7799258828163147, 1.1213778257369995, -1.5298782587051392, 0.506592869758606, 0.329670786857605, -1.6775844097137451, -1.280463695526123, -0.5012357831001282, 1.8905245065689087, -2.7016897201538086, -0.28049224615097046, 0.2354954183101654, 1.1415845155715942, 1.42037034034729, -0.322593629360199, -0.311231791973114, 0.5337136387825012, -0.1592942476272583, -0.8459836840629578, 0.7479093074798584, 1.3164514303207397, -1.2788455486297607, 1.2923188209533691, -0.8403967618942261, 0.8610138297080994, -1.074954867362976, -0.6878752708435059, 0.03905491903424263, 0.1063942164182663, 0.2149510681629181, -0.38849830627441406, 1.3870269060134888, 2.3368303775787354, 0.08752378076314926, -0.33185991644859314, -0.2044045627117157, 1.1855494976043701, 0.38224226236343384, -1.6723271608352661, -0.1774335354566574, -1.3887555599212646, 1.8579812049865723, 0.5440924763679504, 2.1094307899475098, -0.5813891887664795, -0.34658902883529663, 0.7708466053009033, 0.47762367129325867, 1.1689990758895874, -1.1262367963790894, 1.1672279834747314, -0.654386043548584, -1.7252925634384155, -2.163364887237549, -0.73663330078125, -0.8760662078857422, 1.7588465213775635, 0.19866061210632324, -1.1102404594421387, -0.47922012209892273, -0.061629172414541245, 0.4982936680316925, -0.4036783277988434, 0.09444475173950195, 0.5053660273551941, -0.077860526740551, 1.8431600332260132, 0.18926191329956055, 0.9923763275146484], [0.6189522743225098, -0.5035905838012695, -0.5955347418785095, -1.0853450298309326, 1.3265730142593384, -0.12051822245121002, 0.8447135090827942, -0.9565412998199463, 0.21748077869415283, -1.0008360147476196, 0.017480062320828438, -1.1559724807739258, -0.4185616374015808, 0.19751615822315216, -0.3558015525341034, 1.00984525680542, -0.8381322622299194, 0.8366938829421997, -0.07640855014324188, 0.725888729095459, 0.37151533365249634, -0.728089451789856, -0.1074700802564621, -0.18181470036506653, 0.1785247027873993, 0.9532589316368103, -0.26681458950042725, -1.1814284324645996, 0.13914208114147186, -1.4957692623138428, -0.10231994092464447, 0.05593283474445343, -0.5000672936439514, -0.2019030600786209, 1.1783424615859985, -0.651330828666687, -0.7566533088684082, -0.6281305551528931, -0.20173807442188263, -0.1717441827058792, -1.0615315437316895, 0.2340049147605896, 0.18059317767620087, -0.7934305667877197, -0.15776263177394867, 0.26607605814933777, -0.21744313836097717, 0.1955936998128891, -1.1246639490127563, -0.4241905212402344, -1.6696932315826416, -0.18730957806110382, 1.2037420272827148, 0.0035125319845974445, 0.47735241055488586, -0.352640837430954, -0.8966946601867676, 0.5345009565353394, 0.34352797269821167, -1.3726533651351929, -1.3526813983917236, -1.0438621044158936, -1.0411063432693481, -0.9285184741020203, -0.7528844475746155, 0.7911938428878784, -0.7125454545021057, 0.37802669405937195, 0.013010593131184578, 0.016185693442821503, 0.6528322100639343, -0.5349913239479065, 0.04307929053902626, -0.4193134009838104, 0.1719435751438141, -0.31481996178627014, 0.09721881151199341, -0.06196865066885948, 0.9704403877258301, -0.6433457136154175, -0.9732844233512878, 0.5402015447616577, 0.46886295080184937, 0.7791125774383545, 0.0468539223074913, 0.539162278175354, -0.1636810600757599, 0.23893623054027557, 0.42690515518188477, -0.04797878488898277, 0.5166906118392944, -0.35587912797927856, 0.29303333163261414, -0.26693156361579895, 0.3490684926509857, -0.4553210437297821, -0.6555036306381226, -0.584304690361023, 0.09960304200649261, 0.3055076003074646, 0.9453191161155701, -0.29287105798721313, 1.3568832874298096, -0.904738187789917, 0.505824863910675, -0.22493554651737213, 0.002366627100855112, 0.11995168775320053, 0.12704728543758392, 0.1671459674835205, 0.6428012251853943, -0.11489073932170868, 0.9578179717063904, 0.6084669828414917, 1.3016043901443481, -0.18105816841125488, -0.09310083091259003, -0.016375668346881866, 0.3509764075279236, -0.07671470195055008, -0.2927519977092743, -0.632764458656311, -0.09076453745365143, -0.09056541323661804, 0.2564131021499634, 1.4203362464904785, 1.2374022006988525, -0.36136898398399353], [-0.6438007354736328, 0.8426274657249451, -0.12392562627792358, 0.48904651403427124, -0.2333815097808838, 0.01049090176820755, -0.3337714970111847, -0.2378166764974594, 0.1596522480249405, 0.2834516763687134, -0.08193469047546387, 0.2805880010128021, -0.45551803708076477, -0.38016605377197266, 0.3957809507846832, -0.8275489211082458, 0.42995685338974, -0.2940455973148346, -0.3323793113231659, 2.4484097957611084, -0.22218936681747437, -0.055010244250297546, 0.4365541934967041, -0.110720194876194, 0.049398139119148254, -0.3404928147792816, -0.8847837448120117, -0.18258358538150787, -0.622137188911438, -1.4880272150039673, 0.10157965123653412, -0.9899808764457703, 0.5481323599815369, -0.9501299858093262, 0.08867612481117249, -1.4157140254974365, -0.1830432265996933, -0.10192485898733139, -0.12767162919044495, -0.033056456595659256, -0.2576625645160675, 0.11592093110084534, 0.4924653172492981, -0.8028910756111145, 1.0432134866714478, 0.35178905725479126, -0.6067493557929993, -0.016099490225315094, -0.492713987827301, -0.4908445477485657, -0.9122571349143982, 0.27630409598350525, 0.7574528455734253, 0.049988485872745514, -0.08791687339544296, 0.4180428981781006, -0.19339923560619354, 0.7768032550811768, 0.4643626809120178, -0.1519763022661209, -0.3201504647731781, -1.5757066011428833, -0.41141167283058167, -0.8605307340621948, 0.12135002762079239, 0.5802772045135498, 0.020809289067983627, 0.36829012632369995, -0.3919213116168976, 0.48572105169296265, 0.26420149207115173, 1.0657932758331299, 0.13045169413089752, 0.03133320435881615, -0.12311071902513504, 0.3408401310443878, 0.3037903308868408, -0.3083379864692688, 1.6900427341461182, 0.050235819071531296, 1.5644657611846924, 0.07484336197376251, 1.0866072177886963, 0.5714991688728333, -0.8659645318984985, 1.110146164894104, 0.08750241249799728, 0.6813682913780212, 0.42686572670936584, -0.34432360529899597, 0.13195016980171204, -0.4950239658355713, 0.7229214906692505, -0.39314335584640503, 0.9899575710296631, 0.2570004165172577, 0.305826336145401, 1.0968400239944458, -0.09146285057067871, 0.03285873681306839, -0.14199376106262207, 0.029349591583013535, -0.3304891288280487, 0.08538401126861572, 1.4503434896469116, 0.5590611100196838, -0.2673669755458832, -0.25513243675231934, 0.19011516869068146, 0.8862923383712769, -0.404807984828949, 0.8204787969589233, -0.010390346869826317, -0.7518787980079651, 0.47697147727012634, 0.5485901832580566, -0.21785655617713928, -0.2653312385082245, 0.015812981873750687, 0.6578505635261536, 0.40137308835983276, -0.7394872903823853, 1.561456561088562, 0.3923102915287018, 0.1352449506521225, 0.061596520245075226, -0.43117818236351013, 0.11352153867483139], [-0.37535300850868225, -0.2838357985019684, 0.052571989595890045, 0.4226173758506775, 2.0339365005493164, 0.30395978689193726, -0.49660730361938477, -0.06072887033224106, -1.0785443782806396, 1.044157862663269, -0.666074275970459, 0.3505382835865021, -0.658042311668396, 0.0618710033595562, -0.19742922484874725, 0.19842872023582458, -0.043220486491918564, -0.7644734978675842, -0.6713708639144897, 1.1300958395004272, -0.5075086951255798, 0.4698285460472107, 1.2106283903121948, 0.4002451002597809, -0.3537063002586365, 0.23468449711799622, -0.027104081586003304, -0.3489740490913391, -0.06492993980646133, -0.36060813069343567, 0.5397666096687317, -1.5087573528289795, 0.5594366192817688, -2.77825927734375, -0.3875117301940918, 1.0501359701156616, -0.5617392063140869, 0.34558501839637756, -0.19249805808067322, 0.025257842615246773, -1.5023022890090942, 1.558474063873291, -0.12033721804618835, -0.7697428464889526, 0.11358463019132614, -0.05032467842102051, -0.8488304018974304, -0.791418194770813, 0.3310966491699219, -1.0845801830291748, -0.996615469455719, -0.41850903630256653, -1.2593433856964111, 0.23842760920524597, 0.3269224762916565, -0.7974432706832886, 0.3048606514930725, 1.3708103895187378, 0.9204710125923157, 1.7327159643173218, -0.8982287049293518, -0.4096607267856598, -0.5879608988761902, 0.1635548621416092, -0.20874176919460297, -0.22104287147521973, -0.22505684196949005, 0.09794007241725922, 0.48730915784835815, 0.9219817519187927, 0.18806663155555725, 2.216290235519409, 0.9842336773872375, 0.1327049732208252, -0.21173591911792755, 0.7388283014297485, 1.0573928356170654, 0.08965034782886505, 0.8142563104629517, -1.9408973455429077, 1.1331430673599243, 1.0937098264694214, 0.6885961890220642, -0.8714866638183594, 0.26803120970726013, 0.4672212600708008, -0.2809487581253052, -0.3385406732559204, 1.5982881784439087, -0.14479944109916687, 0.09717651456594467, -0.6963874101638794, 0.4638247787952423, -0.31654754281044006, 0.414762943983078, 0.3577781021595001, 0.3002891540527344, -0.6873677372932434, -0.6532968878746033, -0.7692068219184875, -0.318842351436615, -0.19863256812095642, 0.0385059118270874, -0.20646394789218903, 0.8785824179649353, 0.41849207878112793, 1.0434632301330566, 1.204697608947754, 0.89395672082901, -0.6932204961776733, 0.26249274611473083, 0.5560511350631714, 0.026463817805051804, -1.6742022037506104, 0.5046815872192383, 0.3962455093860626, -0.38387197256088257, 0.09807706624269485, -1.4291203022003174, -0.8816437721252441, 0.890730082988739, -0.09136718511581421, -1.9963363409042358, 0.9852409958839417, 0.3931639492511749, 0.3569886088371277, -1.1041293144226074, -0.7580538988113403], [-1.08635413646698, -0.3336976170539856, -0.02182205580174923, 1.0312749147415161, 0.01776796206831932, -0.29508912563323975, 1.2236027717590332, -0.7352718114852905, -1.316606044769287, -0.15934471786022186, 1.3438001871109009, -0.00029545181314460933, -0.7432382106781006, 0.21233540773391724, 0.0025883757043629885, 0.7461696863174438, 0.9705255627632141, -0.3441714346408844, -0.46564698219299316, 0.9607259631156921, -0.6692402362823486, 0.8221248388290405, 1.0148289203643799, 0.3957878351211548, -0.6498612761497498, -1.3683054447174072, 0.32508960366249084, -0.17782245576381683, 0.7232475280761719, 0.11926163733005524, 0.7245246767997742, -0.167842298746109, -0.3767131567001343, -0.7528449892997742, -0.007614132948219776, -0.7016627788543701, -0.2295071929693222, 0.7629675269126892, 1.889441728591919, 1.365950345993042, -1.126230001449585, 0.4690684676170349, 1.1373059749603271, -0.733975350856781, 0.707190990447998, -0.9209137558937073, -0.0798635184764862, -0.9516831040382385, 0.17134465277194977, -0.4694688618183136, -1.6701322793960571, -0.693229615688324, -1.5009764432907104, -1.1285266876220703, -1.5268820524215698, -0.7671323418617249, 0.5357712507247925, 1.2207834720611572, -1.5653095245361328, -0.3757909834384918, -0.14479638636112213, -0.7593863606452942, -1.388485312461853, -1.607972502708435, -0.9886681437492371, 1.8340014219284058, 1.8255090713500977, -0.7264531254768372, -1.303693413734436, -1.0669281482696533, -1.3118329048156738, 0.11067480593919754, 0.45821452140808105, 0.12549324333667755, 0.26514607667922974, 0.09192758053541183, 0.6197012662887573, -0.05472670495510101, 0.7393525838851929, 1.08293616771698, -2.3072946071624756, -0.5860918164253235, -0.2311418503522873, 2.3891184329986572, -1.564156174659729, -1.6141376495361328, 0.42949843406677246, -0.18175828456878662, 0.19745057821273804, -0.6287527084350586, -0.20600812137126923, -0.9322113990783691, -1.2882349491119385, -1.4872263669967651, -0.9212194085121155, 0.3590388000011444, 0.03342162072658539, 0.35477378964424133, -0.5765859484672546, 0.7151156067848206, -1.3341056108474731, 0.38795799016952515, 0.07920099049806595, -1.3269743919372559, 0.19993601739406586, 0.6529400944709778, -0.8911898732185364, 0.22329926490783691, 1.1715035438537598, -0.6406973600387573, 0.999180018901825, 0.15714842081069946, -0.44233036041259766, -2.063568115234375, -0.030624043196439743, 0.9287549257278442, -1.3170654773712158, 0.2795203924179077, -0.5796220302581787, 1.0492949485778809, 0.38072147965431213, 0.33000263571739197, -0.01678570546209812, 1.3500006198883057, 0.6316068172454834, 0.339351624250412, -0.32285651564598083, -0.8087384700775146], [-0.20203347504138947, -0.45673471689224243, 1.6092089414596558, 0.752656877040863, 0.7128374576568604, 1.4705922603607178, 0.8767704963684082, 1.3568871021270752, -0.27968138456344604, -0.8765596747398376, 0.8284933567047119, -0.4770905375480652, 0.410526841878891, 0.08523882180452347, -0.18189024925231934, 0.19305916130542755, 0.8067615032196045, 0.7899415493011475, 0.10506190359592438, 1.3778834342956543, -0.44743865728378296, -0.6414355039596558, -0.41212010383605957, -0.5716977119445801, 0.07941258698701859, -0.5713348388671875, -1.1382023096084595, 0.9397161602973938, -0.27288514375686646, 1.359998345375061, 0.6080760359764099, -0.7882473468780518, 1.0087590217590332, -1.441823124885559, 0.488161563873291, 0.39391764998435974, 0.4629550278186798, 1.0759587287902832, -1.5023698806762695, 0.3187565207481384, -0.3793245553970337, -0.14711594581604004, -2.693667411804199, 1.0565235614776611, 1.2023855447769165, 0.009616118855774403, -0.0999404564499855, -1.2978341579437256, -0.2608686685562134, -0.6539639830589294, -0.7703622579574585, -1.0319386720657349, -0.3115566670894623, -0.045068565756082535, 1.0553115606307983, -1.4552828073501587, 1.1675736904144287, 0.008653382770717144, 0.6076413989067078, -0.37345758080482483, -0.8653368949890137, 2.4155235290527344, -0.46720555424690247, -1.3009237051010132, 0.06574913114309311, 0.1934407353401184, -0.6923382878303528, -0.27911868691444397, 0.7738851308822632, 0.7548245191574097, -0.17896944284439087, 2.7955214977264404, -0.5959407687187195, 1.2346466779708862, -0.8129163980484009, 0.6986355781555176, 0.3924882709980011, -1.3864822387695312, 0.06748499721288681, -0.8865301012992859, 2.487971067428589, 0.5978352427482605, -0.9589968323707581, 0.9700720906257629, -0.9066318273544312, -2.049572229385376, -0.8223026394844055, -0.7158085107803345, 0.7026634812355042, -1.3113247156143188, 1.1568679809570312, 0.1798257976770401, -1.5444931983947754, -1.7758127450942993, 0.05892990902066231, 0.9824745655059814, -0.6976531147956848, -0.8728601932525635, -0.8103397488594055, -1.5445449352264404, -1.2850834131240845, -0.7299779653549194, -0.9651327133178711, 0.10897571593523026, -0.17367339134216309, -0.688416063785553, -2.873631000518799, 0.6210739016532898, 0.059325043112039566, 0.18421334028244019, 0.42268607020378113, -0.13347652554512024, 0.22491946816444397, -0.47376158833503723, 0.10572865605354309, -2.151188850402832, -0.8854148983955383, 1.6077913045883179, -0.3311235010623932, -0.5294378995895386, 1.0120441913604736, -0.7235513925552368, 1.1077065467834473, 0.030871210619807243, -0.14542748034000397, 0.9171580672264099, 0.8427577018737793, 1.153407335281372], [-0.8355903029441833, -0.9148356914520264, -1.53948175907135, 1.145047903060913, -0.8692325353622437, 1.723444938659668, 1.5904372930526733, -1.140992522239685, -0.34204554557800293, 0.8380374908447266, -0.19043536484241486, -0.15574513375759125, -1.969207763671875, -0.5499042868614197, -0.15640288591384888, -2.386641263961792, 0.6992489695549011, 0.6051301956176758, 0.11154019087553024, 0.5166724324226379, 1.166317343711853, -1.2333836555480957, -0.7864586710929871, -0.027139177545905113, -0.31447938084602356, -0.7344132661819458, 0.9095627069473267, 0.40395599603652954, 1.1945921182632446, -0.09383942931890488, -0.28658872842788696, 0.2736301124095917, 1.9343253374099731, -0.7891595363616943, 0.3662080764770508, 0.3901786506175995, -0.5750025510787964, -1.2953169345855713, 1.9344968795776367, 0.7524099946022034, 2.362020969390869, -0.49811241030693054, -0.9240038990974426, -0.5062316656112671, 0.21878264844417572, -0.46259593963623047, -0.20551784336566925, -0.5192158818244934, -1.2127456665039062, -1.0635932683944702, 1.0510503053665161, 1.5759552717208862, 0.5055042505264282, 1.4320865869522095, -0.830953061580658, 0.07938823103904724, -0.5180367827415466, 1.680930256843567, 0.7104685306549072, 0.264800488948822, -1.8511335849761963, -0.751462996006012, -2.0916764736175537, 1.1393840312957764, 0.46743184328079224, -0.2950511574745178, 0.2924859821796417, 0.7357589602470398, -1.5253957509994507, -1.6175912618637085, -1.5241730213165283, -1.5277094841003418, -0.39848265051841736, 0.19077619910240173, 0.7505480647087097, -1.0008788108825684, -0.8591861724853516, 0.9103370904922485, 0.7254706025123596, -0.39805173873901367, -0.34601113200187683, 0.6982555985450745, -0.20953939855098724, -0.3662154972553253, -1.0810004472732544, 1.9795441627502441, 0.049479614943265915, -0.20749014616012573, 0.11009786278009415, 1.2618799209594727, 0.3987034261226654, -1.6851876974105835, -1.88859224319458, 1.6438441276550293, -0.807519257068634, 0.15307708084583282, -0.3291565179824829, 0.3917199671268463, -0.5652236342430115, -0.0010608237935230136, -0.7794329524040222, 1.1699109077453613, -0.5968849062919617, 1.454120397567749, -0.3448375463485718, 0.6612553596496582, -0.6169863343238831, -0.07638048380613327, 0.21478235721588135, 0.45194345712661743, -0.5944251418113708, 0.23746344447135925, 2.818429946899414, 2.938405990600586, -1.1360173225402832, -0.008519387803971767, -0.4688345193862915, 0.27475711703300476, 0.23745964467525482, 1.865795373916626, -0.02182222157716751, 0.8738435506820679, 0.8460690975189209, 0.8281262516975403, 1.5898765325546265, -1.465436339378357, 0.7567846179008484, -0.6877714991569519], [-0.383645236492157, -0.5145822167396545, -0.8661127686500549, -0.18579436838626862, -1.4150035381317139, -0.30557867884635925, -2.480675458908081, -0.07614681869745255, -0.9489681124687195, 0.41811272501945496, -0.7513324618339539, -0.4716940224170685, -0.7552840709686279, 1.645667314529419, -0.16442735493183136, -0.5270160436630249, 0.13078881800174713, 0.050734743475914, -1.726334810256958, 0.1664746254682541, 0.5898625254631042, 1.8417178392410278, -0.6425039172172546, -0.1981910914182663, -0.9538131952285767, 0.5099155306816101, -0.2978147864341736, -1.20828115940094, -0.372435986995697, 0.2669874429702759, 0.0728847086429596, -1.3269357681274414, 0.1986454427242279, 1.0377132892608643, 0.22368644177913666, -0.4043726623058319, 1.1667566299438477, -0.1600446254014969, -1.1453959941864014, 0.46405094861984253, 0.4368506073951721, 0.37302738428115845, 0.32227176427841187, 0.9662012457847595, -0.890202522277832, -1.2592865228652954, 0.054653655737638474, -0.7650756239891052, -0.25283077359199524, -0.5746404528617859, 2.3205976486206055, 0.707369327545166, 1.3551926612854004, -0.01058933325111866, 0.4773533046245575, 1.271246314048767, -0.45374831557273865, 0.5464369654655457, 1.9633255004882812, 1.464323878288269, 0.5623793005943298, 1.3804603815078735, -0.0282183438539505, 1.475156545639038, 1.346886396408081, -1.0954643487930298, -0.022147051990032196, -0.20611035823822021, -1.0287317037582397, 0.40888503193855286, -0.8845414519309998, -0.4102383255958557, -0.07933758199214935, 0.089134082198143, 0.6968767642974854, 1.7899986505508423, -1.7361069917678833, 0.2571522891521454, -1.7114626169204712, -2.391038179397583, 0.2779846489429474, -0.42912739515304565, -0.22283589839935303, -0.5613024234771729, 0.12392374873161316, -1.0208625793457031, -0.5564129948616028, 1.4435516595840454, 0.795771598815918, -1.1983824968338013, 0.6217178702354431, -0.23281623423099518, -0.6055517196655273, 0.34671273827552795, 0.02933342009782791, 0.7834526300430298, 0.24652846157550812, 0.6814205646514893, -1.0900973081588745, 0.05995627120137215, 0.17057965695858002, 0.20928576588630676, 2.747791290283203, 0.8934773802757263, -1.07659912109375, -1.0226426124572754, 1.1621677875518799, 0.5702933669090271, -0.009536651894450188, 1.05605947971344, -0.2762738764286041, -0.3488503694534302, 0.1763870120048523, -0.24382852017879486, 0.768508791923523, -1.1222583055496216, 0.5686590671539307, 1.2768418788909912, 0.14143334329128265, -0.6449545621871948, -1.280497431755066, 0.3248751163482666, 0.5367926359176636, 0.10058995336294174, -0.2276468276977539, 0.16243109107017517, 1.621227502822876, -0.5862916111946106], [-0.8442084193229675, -0.28583717346191406, -1.1275447607040405, -0.4697640836238861, 0.08374442905187607, -0.012722884304821491, 0.32987239956855774, 1.0345649719238281, -0.671617329120636, 0.3452727496623993, -0.1953667849302292, 1.052493691444397, 0.6999693512916565, 0.29800936579704285, -0.0077094812877476215, 0.6140548586845398, -0.06064145639538765, -1.9269843101501465, 1.5762842893600464, 0.7636421322822571, 0.6719854474067688, 0.3756106495857239, 1.0058634281158447, 0.5110039710998535, 0.7774258255958557, 1.5159754753112793, 0.29137295484542847, -2.1838338375091553, 0.47822004556655884, 0.00878187082707882, -0.5029615759849548, -0.17139412462711334, 0.1392139494419098, -0.02938489429652691, -0.5957388877868652, -1.083256483078003, 0.1913219541311264, -0.5179546475410461, -1.0669422149658203, 0.5490358471870422, 0.4126092195510864, 0.32996097207069397, 0.5472124218940735, 0.2204577773809433, 0.23792479932308197, 0.22484955191612244, -0.3036499619483948, 0.83536696434021, 0.09528336673974991, 0.17751161754131317, 0.42783302068710327, 0.08196339756250381, 0.0072721694596111774, -0.2100655883550644, -0.44121021032333374, -0.13883717358112335, -0.064334936439991, 0.3490235507488251, -0.13121120631694794, -0.19848068058490753, 0.8156928420066833, 2.033207654953003, -0.473553329706192, -0.380470335483551, -0.3381868898868561, 0.7428309321403503, -0.44964638352394104, 0.09269636869430542, -0.08389516174793243, 0.3676556348800659, -0.2893946170806885, 0.1625969409942627, -0.24863535165786743, -1.0011255741119385, 0.5486830472946167, 0.9380577206611633, -0.736321747303009, -0.11496027559041977, 1.36256742477417, 0.054051268845796585, -1.1546505689620972, -0.18006524443626404, -0.49607983231544495, 0.7859335541725159, 0.03401084244251251, 0.4401435852050781, 0.2450295239686966, 0.6775572299957275, 0.19837071001529694, -0.5510639548301697, -0.799656867980957, -0.48872920870780945, 0.20696921646595, 0.09496334195137024, 0.0764278843998909, -1.5367929935455322, -0.4423429071903229, 0.11152438074350357, 1.3621437549591064, -0.6650315523147583, 0.2455957978963852, 0.1771833449602127, -0.29893267154693604, -0.08870811015367508, -1.1199027299880981, 0.33877021074295044, 0.9389047026634216, -0.6970998644828796, 0.2500523030757904, -0.20719319581985474, -0.6533084511756897, 1.8003787994384766, 0.459425151348114, -0.27789756655693054, -0.5111064910888672, 0.9447619915008545, 0.03777826204895973, -0.6490989923477173, 0.419192910194397, 0.022135920822620392, -0.14434732496738434, -0.29281172156333923, -0.3235216438770294, 0.15527744591236115, -0.4145711660385132, 1.479999303817749, 0.6646445989608765, -0.37270310521125793], [0.09785829484462738, -0.24561551213264465, -0.7452489733695984, -1.5084720849990845, -0.940303385257721, -0.029218468815088272, 0.329258531332016, 0.4453654885292053, 0.46319901943206787, -0.15984851121902466, -0.1250428706407547, 0.03595861792564392, -0.35780784487724304, 0.237974151968956, 0.44851258397102356, 0.04503916949033737, -0.06041952222585678, -0.017857855185866356, 0.9072984457015991, 1.0719060897827148, -0.2998768389225006, -0.4517575204372406, 0.2276001274585724, 0.5316235423088074, 0.01563623920083046, -0.04420556500554085, -0.7171383500099182, -0.9068472981452942, 0.4847205579280853, 0.48906630277633667, 0.11351408809423447, -1.485899567604065, 0.08009472489356995, 0.2073780596256256, 0.06351208686828613, -0.12444262951612473, -0.05018087103962898, 0.5973066091537476, 1.7755385637283325, 1.3495088815689087, 0.1896391361951828, 0.8749766945838928, -0.02571084164083004, -0.13231678307056427, 0.010336012579500675, 0.1514391303062439, 0.32239028811454773, 0.492933988571167, 0.3635183274745941, -0.2467489242553711, 0.136728897690773, 1.0596740245819092, 0.25189658999443054, -1.479209065437317, -0.5563464164733887, 0.08429455757141113, -0.4569086730480194, 0.9724647402763367, -0.14902324974536896, -0.19029617309570312, 0.3208623230457306, 0.7961525917053223, -0.7988610863685608, 0.5909858345985413, 0.06370675563812256, 0.3813730776309967, -1.2530308961868286, 0.46481412649154663, -0.7083772420883179, 0.15984363853931427, -0.2785225212574005, 0.48970162868499756, -1.4607114791870117, -0.6301479339599609, -1.2965335845947266, 0.23626907169818878, 0.0656137689948082, -0.3685016334056854, 1.3204265832901, -1.000547170639038, 0.9888087511062622, 1.2705707550048828, 0.054061003029346466, -1.2437851428985596, 0.6271002292633057, 1.040013074874878, -0.4178655445575714, 0.0407610647380352, -0.15377821028232574, -0.10903920233249664, -0.673430860042572, 0.05162384733557701, -1.0054278373718262, 0.7784391045570374, 0.501699686050415, -0.07178669422864914, -0.09025830030441284, 0.7229806184768677, -1.2730484008789062, -0.1539563685655594, 0.3471846878528595, -0.1358274519443512, -0.05865177884697914, -0.20138978958129883, -0.6173708438873291, 0.0664808601140976, 0.18839575350284576, 0.3748076260089874, 0.2549744248390198, 1.1344629526138306, -1.5044041872024536, 0.02971751056611538, 0.03395961970090866, -1.329111933708191, 0.8218424916267395, -0.37094417214393616, -1.599133014678955, 1.2147103548049927, -0.6536334753036499, -0.2747111916542053, 0.7575770616531372, 0.34486863017082214, 0.31914785504341125, 0.5014789700508118, 1.0534725189208984, 1.30106782913208, 0.6271889805793762, 0.08369394391775131], [-0.4767302870750427, -0.8409937620162964, -0.866057276725769, 0.807391881942749, -0.8190763592720032, -0.8440828323364258, 0.5538220405578613, -1.011155366897583, -0.05677926167845726, 1.3767492771148682, 0.6196219325065613, 0.8154488801956177, -0.5371665358543396, 0.2357715368270874, -0.08959431946277618, -0.057929590344429016, 1.0896117687225342, 0.26941370964050293, 0.3002181947231293, 1.0234328508377075, 0.903495728969574, 0.47671952843666077, 1.5888898372650146, -0.030303925275802612, -1.4065653085708618, -0.6528637409210205, 0.558998167514801, 1.1187008619308472, 1.4104079008102417, -0.7811522483825684, -0.7077736854553223, 0.40102407336235046, -0.5057498812675476, 0.8643519878387451, -0.5339137315750122, -1.0189127922058105, -0.5777958631515503, 0.832338273525238, 0.2506362199783325, 0.7883651256561279, 0.05463296175003052, 0.6738781929016113, -1.4339886903762817, -0.14453965425491333, 0.09995243698358536, 0.4908382296562195, 0.3137432336807251, -0.48490047454833984, -0.9283235669136047, -0.42811164259910583, 1.7108442783355713, 0.32994911074638367, 1.0310602188110352, -0.7867448925971985, 0.21851742267608643, -2.5067834854125977, 0.1572617143392563, 0.8970173001289368, -1.3400661945343018, -0.5357495546340942, 1.5165296792984009, 0.41988787055015564, 0.2889899015426636, 0.07834602892398834, -0.08125472068786621, -0.8155618906021118, 0.4285088777542114, 0.235423743724823, -0.49660778045654297, 1.3530380725860596, -0.8427697420120239, 0.47573232650756836, -1.1407670974731445, 0.0822349265217781, 0.18400941789150238, 1.152274489402771, 0.17367279529571533, -0.23456086218357086, 0.5664021372795105, -0.9173583388328552, -0.7690048217773438, -0.5660805702209473, -1.5954208374023438, 0.08116095513105392, 1.007109522819519, 0.6244334578514099, -0.6258613467216492, -0.008198955096304417, -0.320541650056839, 1.108669638633728, -1.7241641283035278, -0.36951038241386414, -0.9492526650428772, 0.019027074798941612, 0.8749209046363831, 1.2781565189361572, 1.200318455696106, 0.1420454978942871, 0.8314005136489868, -0.3021378517150879, -0.7844663262367249, -2.0042359828948975, 0.172208771109581, -0.2820657193660736, 0.7827972173690796, 1.00346839427948, -0.7047815322875977, 0.9257756471633911, 2.515275239944458, 0.919930636882782, -0.7226849794387817, 1.3781076669692993, 0.5361647605895996, -0.7242159843444824, -0.9220108985900879, 0.5654852986335754, -1.0988448858261108, 0.8820902705192566, 0.2516966164112091, -1.1068187952041626, 0.39849749207496643, -1.8789290189743042, -0.9569952487945557, 0.16495853662490845, 1.2681810855865479, -0.18725760281085968, 0.7378565073013306, 1.067803978919983], [-0.30433833599090576, -1.2069296836853027, 1.583057165145874, 0.3162888288497925, -0.5815149545669556, -0.3586130142211914, -1.7946475744247437, 0.8597325086593628, -2.0647120475769043, -1.6150673627853394, 1.0006834268569946, 0.6579746007919312, -0.4059944152832031, -0.8840051889419556, -0.23847119510173798, -1.3217551708221436, 1.5798407793045044, -0.27193164825439453, 1.8223439455032349, 1.0327197313308716, 0.5354434251785278, -0.3209274411201477, 2.0418896675109863, 0.4350157678127289, 0.12969942390918732, 1.1761200428009033, 0.5284231901168823, 0.386459618806839, 0.7667146921157837, 0.09899424761533737, 0.06433700770139694, -2.3206374645233154, 1.106783151626587, 1.3226771354675293, 1.6124355792999268, -0.02202621102333069, -0.08577222377061844, 0.055015768855810165, 0.7455422282218933, -0.665558934211731, -0.6663612723350525, -1.389334797859192, -0.6184412240982056, 2.151376962661743, 0.9414628744125366, 1.562660813331604, -0.49734795093536377, -1.4752614498138428, -0.9641284346580505, -0.5785132646560669, -0.5399500727653503, -1.2935442924499512, -0.5859198570251465, -1.4855353832244873, -1.8551390171051025, -0.8959922194480896, 1.1958402395248413, 0.16476887464523315, -2.5760703086853027, -1.2924009561538696, 0.15279625356197357, 0.6487176418304443, -2.0101301670074463, -0.014391648583114147, 0.01957179419696331, -0.777635931968689, 0.12913326919078827, 0.10427675396203995, -0.7138408422470093, 1.0975264310836792, -0.10515802353620529, -0.306786447763443, -0.4706936180591583, -0.22423844039440155, 0.5874456763267517, 0.3127448558807373, 0.6812242865562439, -0.2654111385345459, -0.47736790776252747, -0.7938128113746643, -2.449742078781128, -0.7306066751480103, 1.614372730255127, -1.3658250570297241, 0.644827127456665, -0.3792180120944977, 0.0921899750828743, -0.4785440266132355, -0.053490448743104935, 0.5702542066574097, -0.23696303367614746, -1.1668806076049805, -0.6833875775337219, 0.54771488904953, 0.541390061378479, 0.07499329745769501, -0.9444245100021362, -0.02192693203687668, -0.6342169046401978, -1.1658146381378174, -0.9630011916160583, 0.18756930530071259, -0.17364749312400818, 0.7780298590660095, 1.0244718790054321, -0.12580503523349762, 0.46804410219192505, 0.11060687154531479, -0.6579610109329224, 0.15251678228378296, -0.9148371815681458, -0.0695720911026001, 1.74976646900177, -1.0611767768859863, -0.04105707257986069, 0.3410654067993164, -1.3175525665283203, 1.0156017541885376, 0.6761310696601868, -0.11115562915802002, -0.42727720737457275, 1.1135098934173584, -2.356215238571167, 0.14609253406524658, 0.25949159264564514, 0.6591052412986755, -1.846673607826233, 0.7559868693351746], [0.27583134174346924, -0.861138641834259, 1.344036340713501, -0.3700900375843048, -0.9630762338638306, 0.32099199295043945, 0.7766342163085938, 0.8610532879829407, -1.1964986324310303, 1.0684850215911865, 0.22244830429553986, 1.2267259359359741, -0.8561821579933167, -0.7915281653404236, -1.363760232925415, 1.6556005477905273, 0.03393110632896423, 0.3044235110282898, -0.9075258374214172, -0.3918091058731079, 0.061673328280448914, 0.5030944347381592, -1.3380722999572754, 1.615783929824829, -1.0855236053466797, -0.6973544359207153, -1.2960039377212524, -0.17499321699142456, -2.1796622276306152, -0.6252873539924622, -1.5097541809082031, 0.49577856063842773, -0.8888799548149109, -0.5659036636352539, -0.047296956181526184, -1.2589236497879028, -1.6527858972549438, -0.4914086163043976, 1.6932361125946045, -0.11758910864591599, -0.18699204921722412, 0.12795668840408325, -0.11646782606840134, 1.8974093198776245, 1.1715112924575806, 0.5463640689849854, -0.8820978999137878, 1.402708888053894, -0.3210916519165039, 0.79133141040802, -0.761676013469696, 0.700023353099823, -1.2363612651824951, 1.3813774585723877, 0.7584839463233948, 0.495515912771225, 0.8502670526504517, 0.5697319507598877, 1.3858526945114136, -0.9767048954963684, -0.7920145392417908, 0.2569985091686249, 1.4918849468231201, -1.2778607606887817, 0.8881618976593018, -0.6523722410202026, -1.1230418682098389, -0.89698326587677, 1.4673798084259033, -0.20478305220603943, 0.19010168313980103, 1.916867971420288, -0.7869293093681335, 0.38172197341918945, -0.2628893256187439, 1.1740633249282837, 1.6641480922698975, -1.3685680627822876, -2.675264596939087, -1.1509500741958618, 1.131072759628296, 1.115762710571289, 0.22262318432331085, -0.7489762902259827, 0.6035011410713196, -1.5376310348510742, -0.46017155051231384, 0.8295822739601135, 1.1576030254364014, 0.7186394333839417, -0.42116907238960266, 0.6510815024375916, -0.9617053866386414, 1.0118504762649536, -0.36491429805755615, 0.11131793260574341, 0.32512593269348145, -1.559118628501892, 0.00867877621203661, 0.7963447570800781, -1.1464884281158447, -1.7707035541534424, 1.3444691896438599, -0.5309270024299622, -0.7497782707214355, 1.8540353775024414, 0.46594202518463135, 0.6305786967277527, 0.2781655490398407, -0.11959213018417358, -0.05049220472574234, -0.1766151338815689, -0.3839985728263855, 0.2694181203842163, 0.21069210767745972, 1.2863675355911255, -1.7278612852096558, 0.2441059648990631, 1.4905729293823242, 0.9336612820625305, 0.9853960275650024, 0.7426310181617737, 1.8532726764678955, 0.4644935429096222, 1.10822594165802, -0.5321643352508545, -0.6098888516426086, -0.5504417419433594], [-1.8025943040847778, 0.1804414838552475, -0.10426145046949387, 0.8530378937721252, -1.226210117340088, 0.29626280069351196, 0.10666272789239883, -0.8364119529724121, 2.5369694232940674, -1.0358000993728638, 1.3098478317260742, -3.078310251235962, -0.5917388200759888, -1.0500690937042236, 0.6566084623336792, 1.5410983562469482, -0.10112541913986206, 0.07880272716283798, 0.3491506576538086, -0.610091507434845, -1.1916025876998901, 1.4912104606628418, 0.5202688574790955, -0.8665934205055237, 1.264488697052002, -0.11959609389305115, 0.7964702248573303, 0.2353382110595703, 0.7303685545921326, -0.6291009187698364, 1.9286983013153076, -0.20450803637504578, 1.0543570518493652, -0.8578904867172241, 0.2798547148704529, 0.5830762982368469, 0.0745675265789032, 0.145614355802536, -0.35904696583747864, 1.8537077903747559, 1.6512796878814697, -0.7903667688369751, 1.0934937000274658, 0.13506419956684113, -0.7073991298675537, -1.182450532913208, -0.4989496171474457, -0.7398517727851868, -1.182936429977417, 0.5089638829231262, 0.22706502676010132, -0.9698361754417419, 0.6333291530609131, 0.8528501391410828, -1.2278785705566406, -0.6057884097099304, -1.0154377222061157, 0.30529579520225525, -0.49160316586494446, -0.7851531505584717, 0.4909241497516632, 0.08623490482568741, -0.3086062967777252, -1.3563450574874878, 0.8300301432609558, 0.2081020027399063, 0.11152740567922592, -0.9733790159225464, 0.3468042016029358, 0.9251686334609985, -0.05939268320798874, 0.1700427085161209, -0.08173727989196777, -0.6408824920654297, -1.38654363155365, -0.9668042659759521, 0.6052370667457581, -0.8629424571990967, 0.5451012253761292, -1.1860207319259644, -0.12769395112991333, -0.052513763308525085, -0.2888704538345337, -2.295356273651123, 0.5103732347488403, 1.4063599109649658, -0.16220633685588837, 0.3178448975086212, 0.8211884498596191, 0.43979203701019287, -0.7132657766342163, -1.1207654476165771, -0.2306113839149475, 0.442442923784256, -0.0027016291860491037, 0.2488512098789215, 0.37039676308631897, -0.3625720739364624, -1.4297494888305664, -1.951075792312622, -1.043809175491333, 0.36632397770881653, 0.9734505414962769, -0.14846742153167725, -0.24915951490402222, -1.2654049396514893, -0.4149411618709564, 0.03613178804516792, -1.2101128101348877, -0.30040442943573, 1.476293683052063, 0.14981143176555634, -0.5894594788551331, 0.3349665701389313, -0.80025315284729, 0.0831100344657898, -0.12341979146003723, 0.08823297172784805, 0.13249149918556213, 0.5956984162330627, -0.4267876446247101, 0.02105390466749668, 0.7754120826721191, 0.09766697138547897, 0.5257505774497986, 1.0433484315872192, 0.7815760970115662, 1.8758935928344727], [-0.6259421706199646, 0.0819503515958786, 0.06249334290623665, -0.316241055727005, 1.561915636062622, -0.5727407336235046, 0.20980259776115417, -0.07931159436702728, -0.8831510543823242, 0.13408851623535156, 0.23914718627929688, 0.8235417008399963, 1.1795852184295654, 0.65827476978302, 0.028169486671686172, 2.5633790493011475, 1.05320405960083, -0.6990206837654114, 0.10888803750276566, 0.5033504366874695, -0.019429020583629608, -0.16769403219223022, 1.0098625421524048, -0.0069123320281505585, 1.0151766538619995, 1.1335712671279907, -0.5829837918281555, -0.8668186068534851, 1.236334204673767, 0.00040597646147944033, 0.34296512603759766, -1.495811939239502, -0.5111364126205444, 0.3178737759590149, -0.4285949468612671, 0.03133727237582207, 1.4354541301727295, -0.07228832691907883, -0.058598726987838745, 1.4604506492614746, 0.625482439994812, 0.3281601369380951, -0.4216602146625519, 0.6465923190116882, 0.7003363370895386, -1.020012617111206, -0.4539470672607422, -0.03690854460000992, 0.4801298677921295, -0.4371618330478668, 1.126717448234558, -0.20635491609573364, 0.3178756833076477, -0.43789032101631165, 0.34229227900505066, 0.9684012532234192, 0.6383410692214966, -0.15784168243408203, -0.45268771052360535, 0.57662034034729, -1.0090463161468506, 0.7141340374946594, 0.48553401231765747, 0.09497186541557312, -0.8934009075164795, 0.6950427293777466, 1.060057520866394, -0.41377711296081543, -0.8570299744606018, -0.7227052450180054, -1.1341052055358887, 0.10334915667772293, -0.010963091626763344, 0.26820048689842224, -0.24204623699188232, 0.2984776198863983, -0.3604092001914978, 0.7223971486091614, 1.1254832744598389, 0.02722555585205555, 1.7534068822860718, 0.989524245262146, -0.21318022906780243, 0.42462798953056335, 0.566987156867981, -0.11988383531570435, -0.57328200340271, 0.21546173095703125, -0.30483853816986084, 0.06917502731084824, -0.12631095945835114, -0.08799614012241364, 0.2059171199798584, 0.17018179595470428, -0.29283407330513, 0.1738891899585724, -1.2337530851364136, -0.6376136541366577, -0.10361116379499435, -1.2164419889450073, 0.4431700110435486, 0.16571474075317383, 0.7411796450614929, 0.2065402865409851, -1.4920345544815063, 1.002411127090454, -0.5448958873748779, 0.1754985898733139, -1.4084820747375488, 0.774320125579834, -0.05976111441850662, 0.37596529722213745, 0.7876991033554077, 0.5140736103057861, -0.5127426385879517, 0.9353904724121094, 0.45216938853263855, 1.168351650238037, 0.37525027990341187, -0.35444289445877075, -0.044710058718919754, -0.1804223209619522, 0.44731706380844116, 0.16168566048145294, -0.6446000337600708, 0.9588732123374939, 0.8875660300254822, -0.009048372507095337], [0.204098641872406, 0.6920723915100098, 0.2424013465642929, -0.4473961889743805, -0.26051557064056396, 1.0500622987747192, 1.298218011856079, 1.0665099620819092, -0.8038514852523804, 0.25351682305336, -0.0078093186020851135, -0.06673745065927505, 0.4416730999946594, -0.6845273971557617, -0.7411333322525024, 0.017623664811253548, 0.1620044857263565, 2.016057014465332, 0.10177493095397949, 0.817304790019989, -0.2758590877056122, 0.8189935088157654, 0.3176652789115906, 0.7739536762237549, 0.14987511932849884, 0.24447450041770935, -0.7968644499778748, -0.5633441805839539, 2.702099084854126, 1.6702196598052979, 0.6555913686752319, 0.2440369427204132, -0.8376005291938782, -0.09262431412935257, 0.36557987332344055, 0.18369928002357483, -0.08245629817247391, 0.9331817030906677, 0.3708708882331848, 0.6058898568153381, -0.07195252925157547, -0.29009348154067993, 1.0033588409423828, -1.9983367919921875, 1.2880611419677734, -0.5634364485740662, 1.07163667678833, -1.690973162651062, 0.5037385821342468, -0.7057006359100342, 0.5335683226585388, 0.3563142716884613, 0.7448346018791199, -1.8224396705627441, 0.10366353392601013, -0.9330775737762451, 2.109276056289673, 1.4790979623794556, -0.9481410980224609, 0.5377933382987976, 0.5450311899185181, -0.33275437355041504, 0.5042450428009033, 1.57423996925354, 0.6382598280906677, 0.6431996822357178, -0.8674039244651794, -0.7910594940185547, 0.9212834239006042, 0.0051599168218672276, 1.4603214263916016, -0.15251530706882477, 0.8556153774261475, 0.06874769926071167, -0.21093705296516418, -1.5895341634750366, 1.4001442193984985, -1.1678589582443237, -0.577960193157196, -1.7896651029586792, -0.06657534092664719, 0.030849596485495567, -0.4510132968425751, -0.6559643745422363, 0.6579205989837646, 0.5926246643066406, -0.20902162790298462, 1.4670219421386719, -0.20071840286254883, -0.3135462701320648, -1.3511083126068115, 1.3089418411254883, 0.7612364292144775, 1.454414963722229, 0.4154638648033142, 0.671183705329895, 0.22045159339904785, -0.36084941029548645, -0.035728082060813904, -0.33709466457366943, 0.145511656999588, -0.6629897356033325, -0.6888720989227295, -0.1776552051305771, 1.2027778625488281, 0.5756527781486511, 0.5934897661209106, -0.18212206661701202, 0.27819862961769104, 0.28875285387039185, 0.3923768103122711, 1.4473797082901, 0.3418450653553009, -1.9755879640579224, 0.46694812178611755, 1.807836651802063, 0.8387525081634521, 0.41794660687446594, -1.1529827117919922, -0.22417967021465302, -0.4235934913158417, 0.006213742773979902, 1.0118167400360107, 1.5642672777175903, -0.8805375099182129, 0.6021361351013184, 0.4670880138874054, 1.2494831085205078], [0.36958807706832886, 0.747195303440094, 2.249824047088623, -0.2668054401874542, -0.004418917465955019, 1.6646851301193237, 0.44295865297317505, 0.9657641649246216, -0.6668093204498291, -1.3083022832870483, 0.9954783320426941, 1.179806113243103, 0.0721212849020958, -1.3047653436660767, 1.1771920919418335, 0.19007384777069092, 1.3580880165100098, 1.3176757097244263, 0.29717686772346497, 1.2491742372512817, -0.4297826290130615, 0.4869866371154785, -0.47093072533607483, -0.09808281064033508, -0.0988244116306305, 2.0468556880950928, 0.8522555828094482, -2.467052936553955, 1.64105224609375, 0.6886605024337769, -0.7568656206130981, -0.8215663433074951, 0.8601667881011963, -0.20098194479942322, 0.1822146773338318, 0.20051823556423187, 0.07825932651758194, -1.2365525960922241, -0.9226402044296265, -0.24720601737499237, -0.793830156326294, -1.8593024015426636, -0.33233463764190674, 0.822558581829071, 0.26192399859428406, 0.000210491445614025, 1.343520998954773, -1.291115164756775, -1.8308180570602417, 0.5745901465415955, 1.308134913444519, 0.8310534358024597, -0.44336438179016113, -0.13312676548957825, -0.0636233538389206, -1.26607346534729, 0.15269331634044647, -0.16608275473117828, -1.3063035011291504, -0.5160459280014038, 0.7378668785095215, 1.5908855199813843, -0.8719420433044434, 0.3539651334285736, -0.4499482214450836, 0.5279156565666199, 1.437106966972351, -0.926889955997467, 1.4389379024505615, 0.4321134388446808, 0.577051043510437, 1.0753124952316284, 0.05199241638183594, 0.6439774632453918, -0.031117483973503113, -0.46751242876052856, -0.7236436605453491, -0.6296313405036926, -0.9113622903823853, -0.23360489308834076, 1.5386195182800293, -0.20372065901756287, -1.6651248931884766, -0.01517283171415329, 0.8217415809631348, 0.5601630806922913, 1.678695559501648, -1.9977957010269165, 0.9280179738998413, 0.1797032654285431, -0.38750338554382324, 0.019838685169816017, 0.8479956984519958, 0.5672041773796082, -0.7850202322006226, -0.9136621356010437, 0.5483832955360413, 1.4135810136795044, -0.6235441565513611, 1.7563472986221313, -0.5534294843673706, -0.7353207468986511, 1.5265792608261108, -0.1716742217540741, -1.2123552560806274, -1.6061410903930664, -0.7968606948852539, 0.1587204486131668, 1.089630126953125, 0.4267946779727936, 0.989560604095459, -0.037861112505197525, -1.9108601808547974, 0.19711050391197205, 1.1033034324645996, -0.2274499237537384, 0.34016990661621094, -0.6515237092971802, -0.4591369032859802, 0.5411482453346252, -0.4692428708076477, 0.07423242181539536, 0.8555333614349365, 0.8930210471153259, 0.6878074407577515, 0.41775843501091003, -1.0378527641296387, 1.159593105316162], [0.2720504701137543, -0.1640576273202896, -0.20219890773296356, 0.05530726537108421, -1.0944470167160034, 1.4511650800704956, 0.28413572907447815, 0.7335464358329773, -0.018090106546878815, 0.26264166831970215, 0.6541063785552979, 0.9221917986869812, 0.3045142889022827, -0.4499232769012451, 0.6893826127052307, 0.4288778305053711, -0.9772799015045166, -0.4387191832065582, -1.2775236368179321, 0.06026526913046837, -0.45196840167045593, 1.3915345668792725, -0.37174728512763977, -0.8637354373931885, -1.173055648803711, 0.23630546033382416, -0.5898376107215881, 2.416886806488037, -0.717502772808075, -1.0951036214828491, -1.362070083618164, -1.2158856391906738, 0.7961922287940979, 1.6057240962982178, -0.34130072593688965, -0.021786149591207504, -0.27321988344192505, 0.5713086724281311, -1.1221648454666138, 1.6335335969924927, -0.8062912821769714, -1.777798056602478, 0.027143748477101326, 0.24321526288986206, -0.8879457116127014, 0.08476335555315018, 1.099474310874939, 0.5397350788116455, 0.17358505725860596, 0.8243959546089172, 0.844118595123291, -0.43247342109680176, -0.7996125221252441, 0.9213368892669678, 1.3817980289459229, 0.014200801961123943, 1.1094509363174438, -0.6281239986419678, -0.25944483280181885, 0.5347727537155151, -0.47719284892082214, -1.6134324073791504, 0.32271063327789307, 0.1499892920255661, 0.7196304798126221, -0.6080969572067261, -0.9756212830543518, -0.266865611076355, 0.9278430342674255, 0.03272156044840813, -0.08453262597322464, -0.547598123550415, -2.166562080383301, 0.14495211839675903, 1.3031471967697144, -0.3781486749649048, 0.5419849753379822, -0.4852216839790344, -0.9015359282493591, -0.8237051367759705, 0.6252526640892029, -1.1772284507751465, 0.6428130269050598, 1.1382379531860352, 1.4015337228775024, -0.405537873506546, -0.12543794512748718, 1.161765217781067, -0.4855292737483978, -1.68504798412323, 1.0463390350341797, 0.3857174515724182, -0.31530454754829407, -1.6766847372055054, -0.19876833260059357, -0.29222869873046875, 1.190793514251709, -0.838196873664856, -2.8056907653808594, 0.9414196610450745, -0.3924078643321991, 0.5041879415512085, 0.49757230281829834, -1.3048226833343506, 0.3868839740753174, 0.38650891184806824, -0.6344231963157654, 0.30078011751174927, 0.19124464690685272, -1.5828927755355835, 0.8781893849372864, -2.1727027893066406, -1.663068175315857, -0.29154306650161743, -0.14250200986862183, -1.4952200651168823, -1.527323842048645, 0.7526454925537109, 2.138923168182373, 1.016736388206482, 0.38628458976745605, 0.6329302191734314, 1.1383806467056274, -1.691827416419983, -1.032493233680725, -0.12997937202453613, -0.3302549719810486, 0.3754119873046875], [0.13118961453437805, 1.8844506740570068, 1.18960440158844, -0.1509752869606018, 0.19044551253318787, -0.4028436243534088, 0.1037987545132637, 0.6100243330001831, 0.7765284180641174, -0.7002548575401306, -1.1673674583435059, -0.3373264968395233, -1.0613821744918823, 1.674880862236023, -1.334669828414917, -0.2016272097826004, -0.56130051612854, -1.0362290143966675, -0.2123151272535324, 0.6680631041526794, -0.1264152079820633, 0.8446794748306274, 1.5522891283035278, 0.8824565410614014, 0.39509832859039307, -0.3303970992565155, 1.198267936706543, 2.528754949569702, 0.611262321472168, -0.9106032252311707, 0.008585100062191486, -2.9068033695220947, 1.4923428297042847, -0.9441841244697571, -0.05852449685335159, -0.40528228878974915, -0.39236509799957275, -0.3254793584346771, 0.5095018148422241, 1.1399668455123901, 0.19166962802410126, -0.11256726086139679, 1.5134588479995728, 1.3940104246139526, -1.0354998111724854, 0.7769060134887695, -0.12882889807224274, 0.4406590163707733, 0.4920492470264435, -0.7821574211120605, 1.902649998664856, -0.3117777705192566, 0.11852274090051651, 0.23286643624305725, 0.8122435212135315, -0.1626856029033661, -0.4556953012943268, -0.1885719746351242, 0.4899923801422119, 0.8751970529556274, 0.7299278974533081, -0.9809266924858093, -0.20305848121643066, 0.8372142314910889, -1.5288798809051514, 0.037857361137866974, 0.6939663887023926, 0.05525882542133331, 0.2199304699897766, 0.9171227216720581, 0.39447519183158875, 0.9792166948318481, -0.31140848994255066, 0.17550040781497955, -0.42321541905403137, -0.12945204973220825, -1.5774204730987549, 0.09763458371162415, 0.6515138745307922, -0.05381479486823082, 0.583080530166626, -0.5435119867324829, 1.3122421503067017, -1.810211420059204, 0.8478396534919739, -1.9752490520477295, -1.1897276639938354, -1.0569936037063599, 1.59817636013031, -1.7029352188110352, -1.5698497295379639, -0.9882431030273438, -0.654630720615387, 0.050450317561626434, 1.751906156539917, 0.36370179057121277, 1.731880784034729, -1.3500479459762573, -0.5689713954925537, -0.27421823143959045, 0.3223320543766022, -1.926260232925415, -1.626306176185608, 0.7380498051643372, -1.7464139461517334, 0.014671845361590385, 0.12689892947673798, 1.073792576789856, 0.14608727395534515, 0.2833784222602844, 1.5148025751113892, 0.5514899492263794, 0.4726625978946686, -1.6603608131408691, 0.28040096163749695, -0.9630873799324036, -0.776506245136261, -1.1598000526428223, 1.1943068504333496, -1.091343641281128, -0.8248515129089355, 0.10836628079414368, 1.1200287342071533, -0.1818644106388092, -0.8376901745796204, 1.1288479566574097, 0.44354090094566345, -1.4238924980163574], [-1.6434714794158936, -0.11201872676610947, -0.18991157412528992, -0.5595229864120483, 0.020998578518629074, -0.7962254881858826, -0.0017551671480759978, -0.019967956468462944, -1.2887523174285889, 0.7078457474708557, 1.194869041442871, 0.7136157155036926, -1.079554796218872, -1.2732352018356323, 0.6050954461097717, -0.4958396852016449, -0.19792884588241577, 0.11380603164434433, -0.13896851241588593, -0.2745946943759918, -1.5420236587524414, 1.2466394901275635, -0.06920672953128815, 0.14885975420475006, -1.0657459497451782, -0.6229634284973145, 0.20528756082057953, -0.7359201312065125, 1.7136714458465576, -0.06226671114563942, 1.176226019859314, -1.525420904159546, 0.05622672662138939, 1.4334867000579834, -0.3488617539405823, -1.5814003944396973, 1.191808819770813, -2.112135171890259, -1.8943251371383667, 0.6027673482894897, -0.03662443906068802, 0.9368239045143127, -2.2593255043029785, 0.422514945268631, -0.32452207803726196, -0.30020827054977417, -0.2748420536518097, -0.33585262298583984, -0.07521022856235504, -0.3287741541862488, -0.2101360410451889, 0.2058606892824173, 0.2893648147583008, 0.03894951939582825, -0.13706104457378387, 0.016502991318702698, -1.218223214149475, 0.508647084236145, -0.0720808133482933, 1.2424434423446655, -1.6438663005828857, 0.45100632309913635, 0.3463664650917053, 0.47752299904823303, -0.08826376497745514, -0.19015684723854065, 0.43644165992736816, 0.8736686706542969, 1.1948070526123047, -0.100718192756176, 0.5739551782608032, 0.1856379210948944, 0.9332235455513, -0.17440970242023468, -0.024819379672408104, -0.47841766476631165, 0.3513390123844147, -0.6501060724258423, 1.0423911809921265, 0.8976995348930359, 0.47064539790153503, -0.7038511037826538, -0.0336298793554306, 0.31514647603034973, -0.7170926332473755, -0.10712963342666626, -0.3369702100753784, 0.21320123970508575, -0.24066580832004547, 0.3043680787086487, -1.0720713138580322, -0.18210355937480927, 0.30214324593544006, 1.100164771080017, 1.490126132965088, -1.1817626953125, 0.4885363280773163, -0.327176034450531, 0.37384676933288574, -0.3742316961288452, 0.313145250082016, 0.008850724436342716, 0.3677143454551697, -0.4584387540817261, 0.3797101378440857, -1.6532907485961914, -0.30404362082481384, -0.386577308177948, 0.005075373221188784, 1.0445258617401123, -1.1160292625427246, -0.5525562763214111, -0.2986944913864136, 0.9568986296653748, -0.8143167495727539, 0.2629953622817993, 0.28609398007392883, 0.33624908328056335, 0.21750423312187195, -0.9763965010643005, -1.2071443796157837, 0.9943770170211792, -1.1985392570495605, -0.866378664970398, -0.13190476596355438, 1.4720165729522705, 0.6596521139144897, -0.981112539768219], [-0.9743242263793945, 0.240369975566864, -1.1594719886779785, 0.33592310547828674, 0.3677177429199219, 0.46983230113983154, 1.0015109777450562, -0.2676267921924591, 0.4142605662345886, -0.6181109547615051, 1.9897019863128662, -0.40507665276527405, 0.9082357287406921, -1.9978691339492798, 2.101691246032715, 0.8172791004180908, -0.4770025908946991, -0.021754829213023186, -2.4975745677948, 0.0346013605594635, 1.1056312322616577, 0.5974798202514648, 0.5371614694595337, -0.5158618092536926, -0.5127981901168823, -1.0569114685058594, -0.5056443810462952, -0.3458717465400696, -0.2219279408454895, 2.2202353477478027, -1.7360156774520874, 0.6390653848648071, 0.9813482761383057, -0.4084598422050476, 0.09564148634672165, -0.8131651878356934, 0.5288269519805908, -1.8542664051055908, 0.6313167214393616, -1.1379435062408447, -1.1967014074325562, 0.2556021213531494, -2.1550049781799316, 1.118308186531067, 1.3859474658966064, 0.4285939931869507, -0.3131389021873474, -0.6274036169052124, -0.6105760335922241, 1.3069576025009155, -0.6520871520042419, 0.2821681797504425, -0.40795081853866577, 2.1088714599609375, -0.596686840057373, -0.5642265677452087, -1.10275137424469, 1.1028152704238892, 0.33390867710113525, 1.3219692707061768, -0.5594469904899597, -1.0764968395233154, -0.7984486222267151, 0.4320664405822754, -1.1017143726348877, 0.10014428943395615, -0.16724151372909546, -0.12522411346435547, 0.33978936076164246, -0.8996997475624084, 1.6048392057418823, 0.4138217568397522, -0.847697913646698, 1.1538985967636108, 0.1378752440214157, 2.9110946655273438, -0.5076469779014587, -0.01918080262839794, -0.19012923538684845, -0.016992859542369843, 1.987945795059204, 1.2090754508972168, -2.0636303424835205, 2.1297881603240967, 0.9643656611442566, 1.0966295003890991, -0.5615342259407043, -0.4020291566848755, -1.916363000869751, 2.2778782844543457, -1.211471676826477, 0.4155481457710266, -0.16992859542369843, 1.1726094484329224, 0.7520173788070679, 1.4341517686843872, -1.7167397737503052, -3.012491226196289, 0.6245545744895935, -1.4416803121566772, -1.259765625, 0.8401284217834473, 0.5319200754165649, 0.9073810577392578, 0.4060276746749878, -0.13276343047618866, -0.6932923197746277, -0.43737146258354187, 1.273309350013733, 0.821951150894165, 0.27018630504608154, -0.677904486656189, 1.200054407119751, -0.5917075276374817, 1.469241976737976, 1.0008777379989624, 0.28662940859794617, 2.4864985942840576, -0.18308474123477936, 1.498095989227295, -0.5733423829078674, -0.025634510442614555, -0.06454043835401535, 1.348039984703064, 0.9127465486526489, -0.22099395096302032, -0.8920652270317078, 0.8767557740211487], [-0.06714703142642975, -0.20558953285217285, 1.4704152345657349, -0.5056241154670715, 0.02663622424006462, -1.1899943351745605, 0.3611108660697937, 0.32141169905662537, -0.3215608298778534, -1.1016830205917358, 1.6377789974212646, -0.3463680148124695, -0.5102364420890808, -1.4675469398498535, 0.702197253704071, -0.8277597427368164, 0.43183571100234985, -1.7815555334091187, 1.2980067729949951, -1.3349075317382812, -0.8268617987632751, 