{"haggle/context/bias:0": [-0.0776091068983078, -0.17971768975257874, 0.22828218340873718, 0.23439408838748932, -0.12060546875, -0.0987919420003891, -0.062403663992881775, 0.0, -0.018906034529209137, -0.23709653317928314, 0.0731659084558487, 0.16473530232906342, -0.17175352573394775, -0.028714129701256752, 0.11192507296800613, 0.3589416742324829, 0.19702813029289246, -0.01465404313057661, -0.44721394777297974, -0.08771385252475739, -0.01802908629179001, -0.10386772453784943, 0.027719974517822266, -0.09284552931785583, -0.011287622153759003, 0.17530067265033722, -0.025941232219338417, -0.047366686165332794, 0.17498047649860382, -0.17121529579162598, 0.08166731148958206, -0.12606044113636017, 0.23069502413272858, -0.08279505372047424, -0.012172128073871136, -0.06737825274467468, -0.09705565124750137, -0.19787780940532684, 0.15387731790542603, 0.10515959560871124, 0.26909756660461426, -0.14274930953979492, 0.07164616882801056, 0.0, -0.08646468073129654, 0.07496001571416855, 0.23948508501052856, -0.390961617231369, 0.3182394504547119, 0.5940604209899902, 0.2685702443122864, 0.17748714983463287, 0.1401524543762207, -0.04016967490315437, -0.2489352822303772, -0.04395494610071182, 0.27114176750183105, -0.1554574966430664, 0.35452356934547424, 0.008232672698795795, -0.0391373448073864, 0.12934847176074982, 0.009953890927135944, -0.04354577511548996, 0.13459588587284088, -0.16456612944602966, 0.09347785264253616, 0.04591227322816849, 0.3793945014476776, -0.024559631943702698, 0.3933551013469696, -0.08685428649187088, 0.3688516318798065, -0.11113008856773376, 0.13726086914539337, -0.1226915717124939, 0.09555604308843613, 0.15384504199028015, 0.0376957468688488, -0.07515028119087219, -0.008914127945899963, 0.0, -0.21934844553470612, 0.34998658299446106, -0.05030905082821846, 0.09582234174013138, 0.16036728024482727, 0.18802395462989807, -0.08846815675497055, -0.13897772133350372, 0.0, 0.11847781389951706, -0.06452212482690811, 0.25344347953796387, -0.10842744261026382, 0.0020575933158397675, -0.11697132140398026, 0.7358745336532593, 0.1910848170518875, -0.10049925744533539, -0.08493117243051529, -0.06889031082391739, 0.09898123145103455, -0.274950236082077, 0.0, -0.09688721597194672, 0.011749133467674255, 0.043441176414489746, 0.07542484998703003, -0.14195939898490906, 0.05810167267918587, -0.05996135249733925, 0.15632088482379913, -0.06864270567893982, -0.2708587646484375, -0.021739695221185684, 0.12834294140338898, -0.08177783340215683, -0.007845817133784294, -0.0668480321764946, -0.28338688611984253, -0.012814351357519627, 0.003402415197342634, -0.038452424108982086, 0.20947684347629547, -0.09320683777332306, -0.028710978105664253, 0.0, -0.3682003617286682, 0.34729668498039246, -0.0032730568200349808, 0.30990156531333923, -0.1572711318731308, 0.29365018010139465, -0.4018971025943756, 0.6037023067474365, -0.37075167894363403, -0.08863381296396255, 0.5147995948791504, 0.1752707064151764, -0.18299970030784607, -0.011465435847640038, -0.03867053613066673, 0.16389742493629456, -0.38150304555892944, -0.12540647387504578, -0.08273188769817352, 0.265379935503006, 0.0, -0.027649180963635445, -0.0070652831345796585, -0.2723715007305145, 0.0, 0.5089462995529175, 0.3360799252986908, -0.008422289043664932, 0.23015441000461578, 0.2429465502500534, -0.15960471332073212, -0.2174060046672821, -0.29463931918144226, 0.6277684569358826, 0.03742671757936478, 0.2527332305908203, -0.24308766424655914, 0.04114210233092308, -0.21504585444927216, 0.0, -0.17114417254924774, 0.1385643184185028, -0.1319197714328766, 0.0, -0.4120710492134094, 0.5155645608901978, -0.3027936518192291, -0.2466089278459549, 0.0, -0.06756579875946045, -0.28290462493896484, -0.2497057467699051, 0.20259787142276764, -0.31105363368988037, 0.5802559852600098, -0.22407518327236176, 0.0, -0.18846383690834045, -0.007812204770743847, -0.26343536376953125, -0.16161780059337616, -0.0502435602247715, 0.5139964818954468, 0.0, 0.0, -0.08530759811401367, -0.377118855714798, 0.2871570885181427, -0.022546708583831787, -0.006916572339832783, 0.30298835039138794, -0.07821334898471832, -0.2277241051197052, -0.09574366360902786, 0.03098578378558159, -0.02564667910337448, 0.01692795380949974, -0.0673021450638771, -0.03270411118865013, -0.03126544505357742, -0.26383256912231445, -0.2733774483203888, -0.2603607773780823, -0.05946655571460724, -0.3455962538719177, -0.17576169967651367, -0.009847179055213928, -0.31869053840637207, -0.38026440143585205, 0.0, 0.012901069596409798, -0.39489686489105225, -0.4135582149028778, 0.11253471672534943, -0.005025611724704504, -0.35124069452285767, 0.4196923077106476, 0.4222903251647949, -0.10217153280973434, -0.3959853947162628, 0.14369170367717743, 0.22028769552707672, 0.21428726613521576, -0.3524535894393921, 0.0, -0.30655401945114136, -0.15980933606624603, -0.12131241708993912, 0.0, -0.254709929227829, -0.386806458234787, -0.029670540243387222, -0.27319207787513733, -0.6844492554664612, -0.0156860314309597, -0.07741247117519379, -0.10955695062875748, -0.015269623138010502, 0.41934528946876526, -0.3739286959171295, 0.2436394840478897, -0.23181378841400146, -0.0703720971941948, 0.0, -0.1906684935092926, 0.15738551318645477, -0.16164255142211914, -0.21406514942646027], "haggle/lstm/kernel:0": [[-0.17966753244400024, 0.14377819001674652, -0.018201900646090508, 0.3812643885612488, 0.050928764045238495, 0.41593703627586365, 0.10675915330648422, 0.41271114349365234, 0.41605672240257263, -0.07705691456794739, 0.041704609990119934, 0.1790934056043625, -0.009020786732435226, 0.07727964222431183, 0.26070788502693176, 0.4455450177192688, -0.13685362040996552, -0.17675960063934326, 0.32274940609931946, 0.0843595415353775, 0.09018249064683914, 0.1899559497833252, -0.05680010840296745, -0.22667339444160461, -0.4459816515445709, -0.1521361619234085, 0.475163996219635, -0.27241256833076477, -0.0827258825302124, 0.09750302881002426, -0.20688387751579285, 0.09284746646881104, -0.2496364861726761, 0.24769064784049988, 0.05899931117892265, 0.06454862654209137, -0.1327499896287918, 0.09135621041059494, 0.10503686964511871, 0.17124418914318085, 0.16437041759490967, 0.19445642828941345, 0.22627589106559753, -0.17382250726222992, -0.2263694852590561, 0.050378892570734024, 0.24343672394752502, 0.11652455478906631, -0.5029694437980652, 0.16595372557640076, 0.17660124599933624, -0.15921492874622345, 0.8596398234367371, -0.0682525783777237, 0.0493725910782814, 0.09565093368291855, 0.024436188861727715, -0.15509916841983795, 0.02980015240609646, -0.09030880779027939, -0.24826301634311676, 0.41009268164634705, -0.21899396181106567, -0.361439973115921, -0.08854128420352936, 0.13178537786006927, 0.1857384443283081, -0.0006959118181839585, 0.41023266315460205, 0.40458109974861145, 0.14629049599170685, 0.14454865455627441, 0.2312677949666977, -0.29303261637687683, 0.010984278284013271, 0.003774374257773161, -0.6907116174697876, -0.10316842049360275, -0.3453931212425232, 0.48604342341423035, -0.2405768483877182, -0.026279352605342865, 0.28705814480781555, 0.07164435088634491, 0.23458021879196167, 0.4250800609588623, -0.16037002205848694, -0.17739976942539215, -0.44129475951194763, -0.13497582077980042, 0.17510278522968292, 0.04044603928923607, 0.02986149489879608, 0.13775821030139923, -0.13691143691539764, 0.43966934084892273, 0.09211961179971695, 0.10960398614406586, 0.10610823333263397, -0.18519453704357147, -0.03889109194278717, 0.46097633242607117, -0.10302762687206268, -0.8735986351966858, 0.48671185970306396, 0.232279971241951, 0.3051077127456665, -0.27031874656677246, -0.025125861167907715, -0.176761656999588, -0.11111562699079514, -0.1088920533657074, 0.14789116382598877, 0.36849868297576904, 0.31264960765838623, -0.09380758553743362, -0.029139723628759384, -0.29820317029953003, 0.12803690135478973, -0.0014126547612249851, -0.008869335055351257, 0.06557144224643707, -0.09211752563714981, 0.4329971969127655, 0.3705808222293854, -0.19353941082954407, -0.09648863971233368, -0.057685550302267075, 0.267245888710022, 0.11935706436634064, -0.2983960807323456, -0.030701089650392532, 0.1216978132724762, 0.021766072139143944, 0.12175591289997101, -0.4062435030937195, -0.11160539835691452, -0.18572992086410522, 0.44911670684814453, -0.10795712471008301, -0.00011826945410575718, 0.10829019546508789, -0.4513237476348877, 0.26455962657928467, 0.33712276816368103, -0.1632300317287445, -0.20814895629882812, -0.30417799949645996, 0.39546799659729004, 0.09124951809644699, -0.46111541986465454, -0.2684073746204376, 0.12463098019361496, 0.5438169240951538, 0.282734215259552, 0.007790887728333473, 0.07354182749986649, -0.1616184413433075, -0.03427722677588463, -0.037730295211076736, -0.694726288318634, 0.2094399631023407, 0.06200536713004112, -0.0027939523570239544, 0.09667276591062546, 0.12272423505783081, 0.14714325964450836, -0.22227682173252106, -0.28531649708747864, -0.3919180631637573, -0.05454748496413231, 0.10724566876888275, 0.010526235215365887, 0.4594108462333679, 0.3510150611400604, -0.48199954628944397, -0.006338926963508129, -0.1476029008626938, -0.21461308002471924, 0.6276543736457825, 0.4785163998603821, -0.2545301914215088, -0.10614047944545746, 0.08199277520179749, -0.2870721220970154, -0.23377369344234467, -0.07158114016056061, -0.1304948329925537, 0.1610478013753891, 0.3211630880832672, -0.15411703288555145, 0.5841076970100403, 0.26270464062690735, -0.09926197677850723, 0.0467313751578331, 0.007058002054691315, -0.38167741894721985, -0.3732421398162842, 0.09246128797531128, -0.036568090319633484, 0.17776744067668915, -0.027031108736991882, 0.005419718101620674, 0.017249684780836105, -0.008070307783782482, -0.555912435054779, -0.09744513034820557, 0.11878937482833862, -0.10856330394744873, -0.1127588152885437, -0.3080512583255768, 0.34682753682136536, -0.10536226630210876, -0.34531354904174805, -0.18332864344120026, -0.06133831664919853, -0.046544913202524185, 0.11260989308357239, -0.3755425214767456, 0.06360852718353271, -0.1461205631494522, -0.0007856697193346918, -0.3819585144519806, -0.14162993431091309, -0.08031830191612244, 0.21173468232154846, 0.021868349984288216, 0.131376251578331, -0.04833492636680603, -0.027641061693429947, 0.2809673249721527, 0.2099991738796234, 0.09204564988613129, -0.06299453973770142, -0.2848062813282013, 0.14681142568588257, -0.15587061643600464, -0.2322344034910202, 0.1105668917298317, 0.06399412453174591, -0.33933356404304504, -0.032183535397052765, -0.22650288045406342, 0.20945154130458832, -0.14363767206668854, -0.03405129164457321, 0.3933440148830414, 0.06902189552783966, -0.13190396130084991, -0.1981499195098877, 0.04505109041929245, -0.3149086833000183, -0.12812823057174683, -0.16512034833431244, -0.11948753148317337, 0.04673130065202713, -0.14565564692020416, -0.08613241463899612, 0.5022333860397339, -0.2730003595352173, 0.004272601567208767, 0.06769295036792755, 0.03807387873530388, -0.1774996668100357, 0.1119489073753357, -0.10660737752914429, -0.1647552102804184, -0.2549551725387573, 0.1307893544435501, -0.06900256872177124, -0.015677545219659805, -0.06062231585383415, -0.14457304775714874, -0.15500138700008392, -0.5861066579818726, 0.0065793623216450214, 0.11118823289871216, 0.44868212938308716, 0.13120955228805542, -0.1298629492521286, -0.17154492437839508, -0.3904438614845276, -0.2812943756580353, -0.39520642161369324, -0.12007614970207214, -0.04522597789764404, -0.19361945986747742, 0.01957041583955288, 0.29853394627571106, 0.14191952347755432, 0.1442250907421112, -0.2711178660392761, -0.12829597294330597, -0.34864896535873413, 0.009817846119403839, -0.11755994707345963, -0.23234589397907257, 0.44650977849960327, -0.18520596623420715, -0.4612697660923004, 0.3338710069656372, -0.2828139364719391, 0.1231597363948822, -0.0709553062915802, -0.35061514377593994, -0.1080753281712532, 0.49660125374794006, -0.006076453253626823, 0.009179707616567612, -0.0904044359922409, -0.13013949990272522, -0.20033979415893555, 0.09505972266197205, -0.1371537446975708, -0.485343337059021, -0.4007948338985443, -0.3471924662590027, 0.10468640923500061, -0.21380674839019775, 0.05598323792219162, 0.23276379704475403, -0.06450777500867844, 0.20861880481243134, 0.6672202348709106, -0.1533309519290924, -0.29021820425987244, 0.3560429811477661, 0.4676978588104248, 0.40677863359451294, -0.12315788865089417, 0.12202747911214828, -0.02027910202741623, -0.10144982486963272, 0.08497804403305054, -0.021594686433672905, 0.06946504861116409, 0.32768702507019043, -0.28661659359931946, 0.09421379864215851, 0.06795664131641388, -0.200687438249588, 0.0015143834752961993, -0.5973993539810181, -0.13433876633644104, -0.20472325384616852, -0.060957834124565125, -0.0012254243483766913, -0.09648993611335754, 0.1688264012336731, 0.4091556668281555, -1.0383661985397339, -0.020880872383713722, 0.09496188908815384, -0.23035317659378052, -0.11067124456167221, -0.24301983416080475, -0.06827205419540405, 0.08198908716440201, 0.22648881375789642, -0.3758772015571594, -0.2055702656507492, -0.13885267078876495, 0.20257823169231415, 0.0729503408074379, -0.15417829155921936, -0.03470119461417198, -0.1823190450668335, 0.2920683026313782, -0.33946478366851807, -0.02862800471484661, -0.2703392207622528, 0.3875522315502167, 0.033216603100299835, 0.20500943064689636, -0.2512267827987671, -0.19420722126960754, 0.42113205790519714, 0.1555897742509842, -0.12225167453289032, -0.3977460563182831, -0.04151410609483719, -0.030484475195407867, 0.1758028119802475, -0.33772552013397217, -0.11520637571811676, -0.10212843120098114, 0.023635562509298325, -0.12332551926374435, -0.21696271002292633, 0.08308488130569458, -0.17501024901866913, -0.0919848084449768, -0.023927543312311172, -0.1681378036737442, -0.3856712877750397, -0.016743464395403862, -0.035675715655088425, -0.2668141722679138, -0.022335896268486977, 0.27026987075805664, -0.19417613744735718, -0.16771835088729858, -0.3923409879207611, 0.23144152760505676, 0.07126196473836899, -0.1727280616760254, -0.2939688265323639, -0.08181538432836533, -0.26045656204223633, -0.5776425004005432, -0.3625063896179199, -0.022585680708289146, 0.29171308875083923, 0.3164762854576111, -0.3304808437824249, 0.16047494113445282, -0.1828688681125641, -0.017842624336481094, -0.043548472225666046, 0.4577755331993103, 0.32515788078308105, -0.3829393982887268, 0.03272753953933716, -0.3096790313720703, -0.13851165771484375, 0.012754973024129868, -0.1604062169790268, 0.34945178031921387, -0.4707195460796356, 0.16745877265930176, -0.1324906349182129, 0.3074199855327606, 0.1111902967095375, -0.1245003268122673, 0.4645296335220337, -0.10159739851951599, 0.10201174765825272, -0.4284222424030304, -0.10519435256719589, -0.22523269057273865, 0.3188198506832123, -0.3196672201156616, -0.06329645216464996, -0.1318841576576233, 0.30444276332855225, -0.22814351320266724, 0.10591345280408859, -0.16468049585819244, 0.12445325404405594, 0.31478744745254517, 0.3640616238117218, -0.06849067658185959, -0.07932820916175842, -0.2700786292552948, -0.2970397174358368, 0.27292317152023315, -0.1368098109960556, 0.35868409276008606, 0.19322171807289124, -0.03768870234489441, 0.13893377780914307, 0.029121827334165573, 0.26814791560173035, 0.26549291610717773, -0.025247327983379364, 0.08091321587562561, -0.02041742391884327, 0.18458034098148346, 0.1871010661125183, -0.670062243938446, -0.22891616821289062, -0.31931471824645996, 0.49741366505622864, 0.37661224603652954, 0.2543471157550812, 0.00039323914097622037, 0.16866645216941833, -0.11982245743274689, 0.025115586817264557, -0.507693350315094, 0.1022283136844635, 0.00063326460076496, -0.13146868348121643, 0.12766925990581512, -0.130454421043396, 0.4613913297653198, -0.3348226547241211, 0.04134470969438553, 0.011587701737880707, -0.2376793771982193, 0.010019739158451557, 0.36462336778640747, -0.08017164468765259, 0.03666149079799652, -0.4448070526123047, -0.11176300793886185, -0.34702521562576294, 0.3994946777820587, -0.1481645107269287, -0.059501636773347855, 0.0777030661702156, -0.025122109800577164, -0.122144915163517, -0.20017141103744507, 0.26994261145591736, 0.7154399156570435, -0.09002685546875, 0.16621235013008118, -0.03812175616621971, 0.2634362578392029, 0.26837873458862305, -0.270827978849411], [-0.11999579519033432, -0.1813586801290512, -0.2826249599456787, 0.352187842130661, -0.21210826933383942, 0.29056501388549805, -0.14377541840076447, 0.30003419518470764, 0.3288368582725525, 0.04929083585739136, -0.085771344602108, -0.03129580244421959, 0.22203128039836884, 0.4096367359161377, 0.23693124949932098, 0.09521473199129105, -0.32193121314048767, 0.026525264605879784, 0.005744605325162411, 0.3560194969177246, 0.31114310026168823, -0.19709563255310059, -0.016544092446565628, -0.12051720917224884, -0.37631955742836, -0.10850036144256592, 0.3246263563632965, -0.16750851273536682, -0.25626665353775024, 0.35904067754745483, 0.2696862816810608, -0.1817614883184433, -0.17022930085659027, 0.29812294244766235, -0.09975826740264893, -0.3217150866985321, -0.2151271402835846, 0.14930413663387299, 0.12819629907608032, 0.276579350233078, -0.4654228687286377, -0.04080295190215111, -0.035775117576122284, -0.4880181849002838, -0.22568713128566742, 0.0993378609418869, -0.47522321343421936, -0.07038681209087372, 0.5447945594787598, -0.37491902709007263, 0.3005131483078003, -0.2949031591415405, 0.08232615888118744, 0.0029035957995802164, 0.598041832447052, -0.3557703495025635, -0.24499191343784332, -0.12175343930721283, 0.00940303411334753, 0.05759526416659355, 0.09242800623178482, -0.07742442190647125, 0.3890605568885803, -0.2951212525367737, -0.1841452717781067, 0.23248714208602905, 0.3850095868110657, 0.14897477626800537, -0.03280528634786606, 0.042606815695762634, -0.048314355313777924, -0.3652544915676117, 0.1302282065153122, 0.252668559551239, 0.20588161051273346, 0.02177317440509796, 0.23136982321739197, -0.10041317343711853, -0.2894895672798157, 0.26244112849235535, -0.030895724892616272, -0.3552722930908203, 0.005405339878052473, 0.08915174007415771, 0.1226922944188118, -0.05315961688756943, 0.08059994131326675, 0.084537573158741, -0.43982815742492676, -0.004514686297625303, 0.3901691734790802, 0.06153900548815727, 0.01908518746495247, 0.11885038763284683, 0.2132297158241272, -0.2925047278404236, 0.13841035962104797, 0.21151961386203766, -0.30068251490592957, 0.5570015907287598, -0.49467581510543823, -0.25140494108200073, -0.3222913444042206, -0.1136564165353775, -0.20914702117443085, 0.6422140598297119, 0.30919399857521057, -0.20510134100914001, -0.3248225450515747, -0.43003684282302856, -0.4801309406757355, 0.19401313364505768, -0.07938680797815323, 0.011909673921763897, -0.27143219113349915, -0.1765412539243698, 0.12078046798706055, -0.4502718448638916, 0.2921530604362488, -0.04000125825405121, -0.1333843171596527, -0.27855682373046875, 0.16990433633327484, 0.0643930733203888, -0.08301962167024612, 0.5074396729469299, -0.16252274811267853, 0.06364530324935913, 0.051905203610658646, 0.5295581221580505, -0.299139142036438, -0.4732975661754608, -0.13667333126068115, 0.35298851132392883, 0.09625350683927536, -0.15372693538665771, 0.36395972967147827, -0.4558451175689697, 0.4648708403110504, -0.19092951714992523, 0.12564432621002197, 0.5825938582420349, -0.3123871088027954, -0.20264114439487457, -0.03753858059644699, -0.13633373379707336, -0.22196032106876373, -0.11350082606077194, -0.2972010374069214, 0.08068320155143738, -0.0050203329883515835, -0.1628195196390152, -0.17671364545822144, -0.1649508774280548, -0.024921327829360962, -0.15581314265727997, 0.06524388492107391, -0.1497878134250641, -0.0011439819354563951, -0.11553084850311279, -0.19127202033996582, -0.03631705418229103, -0.07975554466247559, 0.020204737782478333, 0.5286505222320557, -0.040755219757556915, -0.2206665277481079, 0.201756551861763, -0.2959287464618683, 0.27458587288856506, -0.1937287449836731, 0.2847409248352051, -0.20820729434490204, 0.012188519351184368, 0.034772839397192, -0.0745987594127655, -0.6294339299201965, -0.06913679093122482, 0.055375780910253525, -0.07446209341287613, 0.533930778503418, -0.2720761299133301, 0.22782106697559357, -0.033780258148908615, 0.059703171253204346, -0.04237615689635277, 0.15058580040931702, 0.1568448543548584, 0.2722039520740509, -0.08061184734106064, 0.7139058113098145, -0.10166077315807343, 0.2183050662279129, 0.015758676454424858, -0.16833963990211487, -0.40698161721229553, 0.12015397101640701, -0.5807603597640991, -0.05406026914715767, -0.05628080293536186, -0.23902592062950134, 0.35714995861053467, -0.4619799554347992, -0.08477783203125, -0.30518838763237, -0.2751186490058899, -0.24716483056545258, -0.009291175752878189, -0.032904792577028275, 0.2019207775592804, -0.14620789885520935, 0.04454297944903374, 0.3326345384120941, -0.29267677664756775, -0.084927499294281, -0.3263094127178192, 0.18736562132835388, 0.00957974512130022, 0.010271014645695686, -0.0065050809644162655, 0.011860457248985767, -0.09980791807174683, -0.2782600522041321, -0.1612139195203781, -0.09473403543233871, 0.025125058367848396, 0.0664563775062561, 0.5799627900123596, 0.028521960601210594, 0.14575347304344177, 0.012706596404314041, 0.2187928557395935, 0.24485938251018524, -0.016985801979899406, -0.25190848112106323, 0.10504879802465439, -0.10492028295993805, -0.1626284271478653, 0.07527296245098114, -0.15669484436511993, -0.058084260672330856, 0.017308702692389488, 0.06171856075525284, -0.19380652904510498, -0.046145904809236526, -0.05588997155427933, -0.16382597386837006, -0.4067259430885315, -0.210105299949646, 0.05263176187872887, 0.1865353286266327, 0.11737136542797089, -0.43967798352241516, 0.0856204703450203, -0.10648617893457413, 0.016727015376091003, 0.23569823801517487, -0.057127371430397034, 0.3862571716308594, -0.3156203627586365, 0.07163118571043015, 0.5121876001358032, 0.02399389259517193, 0.0842520147562027, 0.1325722485780716, 0.42908334732055664, -0.2785828411579132, -0.05057753622531891, 0.25790470838546753, -0.32175350189208984, -0.06461421400308609, -0.24901114404201508, -0.01931571587920189, -0.006975398398935795, -0.09803567081689835, 0.043773945420980453, -0.43523114919662476, -0.30173206329345703, -0.664766252040863, -0.11116348952054977, 0.2417164146900177, -0.45259416103363037, -0.26924633979797363, -0.7245653867721558, -0.1109221875667572, -0.10362217575311661, -0.0004466395184863359, -0.15522794425487518, 0.1525207906961441, 0.1521182805299759, -0.3433518409729004, 0.10436972230672836, 0.5806846618652344, -0.6139880418777466, 0.2111061066389084, -0.12811243534088135, -0.3801940083503723, -0.219922736287117, -0.18749839067459106, -0.217570498585701, -0.12678584456443787, 0.15950164198875427, -0.1883060783147812, -0.2633110582828522, -0.40573424100875854, -0.16965985298156738, 0.6320838332176208, 0.3971835672855377, 0.537402331829071, -0.24132579565048218, 0.40556302666664124, 0.16454623639583588, 0.13281098008155823, -0.3323019742965698, -0.5106143951416016, -0.34283703565597534, 0.19037862122058868, -0.3991408050060272, 0.31045594811439514, -0.854142427444458, 0.1304910033941269, 0.014269109815359116, 0.06501269340515137, -0.24222075939178467, -0.1099671870470047, -0.06472838670015335, 0.22352075576782227, 0.39881959557533264, 0.5521241426467896, 0.23808123171329498, -0.0030304009560495615, -0.19089016318321228, 0.23377352952957153, -0.008066350594162941, -0.36736875772476196, -0.029949704185128212, -0.04592210426926613, -0.2737782895565033, -0.6068330407142639, 0.14042624831199646, -0.2920306921005249, 0.039813362061977386, -0.37287628650665283, 0.21298320591449738, -0.203903466463089, 0.1738540679216385, 0.24969330430030823, 0.2389792501926422, 0.4182463586330414, 0.1119125559926033, -0.35047587752342224, -0.23881663382053375, 0.3396766781806946, -0.23290765285491943, -0.08404476940631866, 0.34555208683013916, 0.4633523225784302, 0.12494299560785294, -0.04297061637043953, -0.28182369470596313, 0.4814927875995636, 0.0776253268122673, -0.024921242147684097, 0.2032082974910736, -0.18930202722549438, 0.3591059446334839, -0.029310153797268867, 0.09669723361730576, 0.09075731784105301, -0.11934487521648407, -0.04165234789252281, 0.44304096698760986, -0.05509351193904877, -0.2819627821445465, -0.20413775742053986, 0.41527044773101807, 0.02630334347486496, -0.20620183646678925, -0.6652776598930359, 0.10577505081892014, -0.4767671823501587, -0.07308220863342285, 0.02462764084339142, -0.16172336041927338, -0.2266993522644043, -0.12592396140098572, -0.4065743684768677, -0.8948667049407959, -0.13886722922325134, 0.24200281500816345, -0.49406659603118896, -0.2884516417980194, -0.11130671948194504, -0.18214711546897888, -0.5919736623764038, 0.07582593709230423, -0.05665298178792, 0.29397982358932495, -0.33370620012283325, -0.1889336109161377, -0.0063612200319767, -0.2978912591934204, -0.4628685414791107, -0.1063917800784111, 0.0007112629245966673, 0.041287586092948914, -0.09044920653104782, 0.02112535387277603, -0.46604886651039124, -0.24141618609428406, -0.246061310172081, -0.05945512652397156, 0.14545132219791412, -0.07154162228107452, -0.05326547473669052, -0.12259047478437424, -0.45843860507011414, -0.5277539491653442, 0.02651495300233364, 0.17051701247692108, -0.3084833323955536, -0.2031768411397934, 0.05131828784942627, 0.07367945462465286, -0.05592461675405502, 0.08962227404117584, -0.15070436894893646, 0.229152113199234, -0.3440650999546051, -0.09143790602684021, -0.14612682163715363, -0.3011775612831116, -0.6190207004547119, -0.024929117411375046, 0.18644770979881287, -0.008140579797327518, -0.14013494551181793, -0.15886689722537994, 0.18886172771453857, -0.5459051728248596, -0.12408997863531113, -0.11581887304782867, -0.3297727108001709, -0.13556654751300812, 0.15189404785633087, 0.17356590926647186, 0.20262300968170166, 0.2979781925678253, 0.04223528131842613, 0.10649590194225311, -0.009370745159685612, 0.20826315879821777, -0.4031747877597809, -0.24112534523010254, 0.086426742374897, -0.2855845093727112, -0.3342891037464142, 0.1943216323852539, 0.6681748628616333, 0.30954650044441223, 0.16103631258010864, 0.21401859819889069, 0.03409865126013756, 0.15884184837341309, -0.021323781460523605, -0.46155720949172974, -0.025203928351402283, 0.06588487327098846, -0.7439853549003601, 0.25196266174316406, -0.3141445219516754, -0.03611370921134949, 0.3382958769798279, 0.5779346227645874, -0.7753609418869019, -0.2424018234014511, -0.3441981375217438, -0.015291103161871433, 0.05477451905608177, -0.08123626559972763, 0.25190892815589905, -0.13283474743366241, 0.05982382595539093, -0.4172022342681885, -0.5578025579452515, 0.012839648872613907, -0.41892823576927185, -0.23683995008468628, 0.005943585652858019, -0.3476129174232483, -0.027413534000515938, -0.0038687619380652905, 0.3190854489803314, 0.12021665275096893, 0.2539464235305786, -0.1795685887336731, -0.21457453072071075, -0.1060347855091095, 0.1338762491941452, -0.19767342507839203, -0.0055844830349087715, 0.08318239450454712, -0.4076850116252899, -0.46631553769111633, 0.5560636520385742, -0.2539480924606323, 0.4418051838874817, -0.17521728575229645, -0.15533573925495148, -0.3361949622631073, -0.07746066898107529, -0.2777816653251648], [-0.017907848581671715, -0.04926082864403725, 0.4994923174381256, -0.7281111478805542, 0.008110743947327137, -0.3538748025894165, 0.05387072637677193, -0.2876337468624115, 0.23960615694522858, -0.46063756942749023, -0.1050768718123436, 0.01942390762269497, -0.41225379705429077, 0.3215496242046356, -0.4020244777202606, -0.45205196738243103, 0.009062981233000755, 0.16770850121974945, -0.21256516873836517, -0.4008224308490753, -0.2808603346347809, -0.10173463076353073, 0.059626150876283646, -0.06661665439605713, 0.09734638035297394, -0.10088382661342621, 0.01811048947274685, 0.1316826343536377, 0.1022755354642868, -0.2274290919303894, 0.056382834911346436, -0.10320643335580826, -0.25024545192718506, -0.27471011877059937, 0.013094059191644192, 0.11457428336143494, -0.22058221697807312, 0.2718801498413086, -0.3661916255950928, -0.27269336581230164, 0.3185122311115265, 0.09798120707273483, 0.23934464156627655, -0.07975279539823532, 0.07412897050380707, 0.11053097248077393, -0.30753985047340393, -0.20877893269062042, -0.04938288405537605, 0.6392406821250916, -0.12946748733520508, -0.3207654058933258, -0.17796748876571655, -0.042152922600507736, -0.4815549850463867, 0.1592298448085785, -0.050368402153253555, 0.22069217264652252, -0.10978449881076813, 0.07839138805866241, -0.3088017404079437, -0.23081713914871216, -0.09846951812505722, 0.026282384991645813, 0.13684387505054474, -0.05781980976462364, 0.08858325332403183, -0.27652719616889954, -0.3722030818462372, -0.15550227463245392, -0.16087055206298828, 0.31462135910987854, -0.04204149544239044, -0.49868619441986084, 0.033349957317113876, 0.31484854221343994, -0.17441454529762268, -0.15886317193508148, 0.02243359200656414, 0.21548505127429962, 0.22657135128974915, -0.020549088716506958, -0.1790236085653305, -0.10139571875333786, -0.5462225675582886, 0.05929265171289444, 0.033559128642082214, -0.06892503052949905, 0.07799162715673447, 0.07405940443277359, -0.16296054422855377, 0.008606781251728535, 0.11281509697437286, -0.25123921036720276, -0.10384872555732727, -0.12023065984249115, 0.6708696484565735, 0.0069758533500134945, -0.017875589430332184, 0.12705524265766144, 0.006445494946092367, 0.15917886793613434, 0.35484778881073, 0.4076509177684784, 0.08497200906276703, -0.3266895115375519, 0.07319080829620361, -0.010441377758979797, -0.4685431122779846, -0.0019279994303360581, 0.14497940242290497, -0.47155624628067017, 0.13165289163589478, -0.21739865839481354, -0.08253924548625946, 0.5527517795562744, 0.6551108956336975, -0.06269506365060806, -0.16993385553359985, 0.1125292181968689, 0.2540769875049591, 0.25675418972969055, 0.3629209101200104, 0.03340395539999008, 0.3190869688987732, 0.14602288603782654, -0.005284064449369907, -0.455703467130661, -0.38993602991104126, -0.30865076184272766, 0.38331854343414307, -0.12645556032657623, -0.15051181614398956, 0.4207192659378052, 0.3615613281726837, -0.03025675006210804, -0.0011284648207947612, 0.2943907082080841, 0.09366682171821594, -0.05890791118144989, -0.26870235800743103, -0.3798534572124481, 0.26518481969833374, 0.18253159523010254, 0.30093592405319214, -0.11350207775831223, 0.30627256631851196, -0.0762447714805603, 0.26629024744033813, 0.44179201126098633, -0.23265790939331055, 0.15687300264835358, 0.037958305329084396, 0.01522244606167078, 0.09257694333791733, -0.22753064334392548, -0.4634357988834381, -0.08031802624464035, -0.33392518758773804, -0.23245114088058472, 0.1726158857345581, 0.39619800448417664, -0.016497554257512093, 0.05612839758396149, -0.15673568844795227, 0.13424192368984222, 0.25791797041893005, 0.2574783265590668, -0.2512899339199066, 0.006203377153724432, 0.2526625096797943, -0.5063560605049133, -0.16778935492038727, -0.15678785741329193, 0.18730255961418152, -0.16181860864162445, 0.10105255991220474, -0.09701068699359894, 0.37788572907447815, -0.3556762933731079, 0.15608957409858704, -0.19513371586799622, -0.19252535700798035, 0.3159049451351166, 0.13944807648658752, 0.34384140372276306, 0.16346721351146698, 0.05797294154763222, -0.31529662013053894, 0.1598208099603653, 0.22562122344970703, -0.21473559737205505, -0.013185009360313416, -0.2756134271621704, 0.272073894739151, 0.08414009213447571, -0.16670651733875275, -0.22322234511375427, 0.17773360013961792, 0.38061875104904175, -0.41879791021347046, 0.15337210893630981, 0.03046657145023346, -0.378250390291214, 0.0467035137116909, 0.23064979910850525, 0.28995048999786377, -0.004646600689738989, 0.12369111180305481, -0.33464741706848145, -0.12264147400856018, 0.09739422053098679, -0.2079634666442871, 0.1576695442199707, -0.4042474925518036, 0.24593591690063477, -0.2788200378417969, 0.23714172840118408, -0.02163216471672058, 0.3409165143966675, -0.12806063890457153, 0.1041930764913559, 0.3181439936161041, 0.4785109758377075, -0.29593050479888916, 0.16443918645381927, -0.2010190635919571, -0.013830376788973808, 0.10292371362447739, -0.6337835192680359, 0.01633669063448906, 0.6236226558685303, 0.1623668521642685, -0.278908908367157, -0.21170219779014587, 0.3835705518722534, -0.036907680332660675, 0.09162890166044235, 0.3213888704776764, -0.16159288585186005, 0.05194249749183655, 0.059374306350946426, -0.0029243514873087406, -0.05699659883975983, -0.2735764980316162, -0.15886089205741882, 0.15819980204105377, 0.456857830286026, 0.1834595650434494, 0.2830202877521515, 0.08651375770568848, -0.271899938583374, -0.0007459428161382675, 0.26535406708717346, -0.5763034224510193, -0.01473014336079359, 0.13997678458690643, -0.36983785033226013, -0.10446714609861374, -0.05253736302256584, -0.08931999653577805, 0.07891812920570374, -0.5355871915817261, 0.15548160672187805, -0.03362802043557167, -0.11495724320411682, -0.48711836338043213, 0.24811100959777832, -0.6340543031692505, -0.711962103843689, -0.07828408479690552, 0.08230229467153549, -0.017682773992419243, -0.3851589262485504, -0.04122066870331764, 0.2798590064048767, 0.034491442143917084, -0.05580155551433563, 0.06593382358551025, 0.1637818068265915, -0.015721701085567474, 0.376329243183136, 0.022208457812666893, -0.0985199511051178, 0.2756487727165222, -0.12973462045192719, -0.13225406408309937, 0.11532017588615417, -0.15757465362548828, -0.1913260668516159, 0.19838401675224304, -0.38664236664772034, 0.10344899445772171, 0.08964534103870392, -0.33779799938201904, 0.11188318580389023, -0.4217606484889984, -0.37737447023391724, -0.388449102640152, 0.11075210571289062, -0.4181801378726959, -0.02516259253025055, -0.18492381274700165, 0.06907572597265244, -0.06094242259860039, -0.15498195588588715, -0.029314398765563965, -0.5866450071334839, -0.041941553354263306, -0.28398025035858154, -0.1528635174036026, -0.4408666789531708, -0.1335623562335968, -0.4515243470668793, -0.04801684990525246, -0.011903787031769753, 0.012865455821156502, 0.1154012456536293, -0.46552520990371704, 0.23848186433315277, 0.008764301426708698, 0.07319565862417221, -0.09533066302537918, -0.38608458638191223, 0.29328587651252747, 0.058663155883550644, -0.17275983095169067, -0.799913227558136, -0.47502270340919495, 0.20274224877357483, 0.019112879410386086, -0.4203069806098938, -0.11962396651506424, 0.5362659692764282, -0.05343654751777649, -0.7077981233596802, 0.13631829619407654, 0.20000004768371582, -0.035905253142118454, 0.21078383922576904, 0.2343597561120987, -0.23885391652584076, 0.24978604912757874, -0.2532506287097931, 0.20704197883605957, -0.15134388208389282, -0.20906905829906464, 0.191249817609787, -0.2031327188014984, -0.0864076167345047, 0.09340807795524597, -0.11053384840488434, -0.19658784568309784, 0.2685644030570984, -0.014903159812092781, -0.15088105201721191, -0.01387563906610012, -0.3866290748119354, -0.021859673783183098, -0.31285032629966736, -0.48932191729545593, -0.0026515016797930002, 0.13485948741436005, 0.16599933803081512, 0.02359386533498764, -0.09744742512702942, -0.10333801060914993, -0.15047189593315125, -0.05371113121509552, 0.18036815524101257, -0.18826137483119965, -0.0638052225112915, 0.503525972366333, 0.22295325994491577, 0.24226132035255432, 0.02982379123568535, -0.3029608130455017, -0.04963601008057594, -0.36507469415664673, -0.18391400575637817, -0.23369614779949188, 0.47570908069610596, 0.15567083656787872, -0.19921305775642395, -0.07849925011396408, 0.3477219045162201, -0.11581776291131973, -0.03753082454204559, 0.07116281986236572, -0.0004530531005002558, -0.11012029647827148, 0.06706985831260681, -0.05495881661772728, -0.3284800350666046, 0.2998621463775635, -0.26975274085998535, -0.04106493666768074, -0.2381683886051178, -0.1285897195339203, -0.19022829830646515, -0.24146243929862976, -0.14345808327198029, -0.058832235634326935, -0.25724419951438904, 0.305167019367218, -0.11865775287151337, 0.14871199429035187, -0.41375821828842163, 0.14667284488677979, 0.3337993323802948, 0.005655959714204073, -0.24611370265483856, 0.3306857645511627, -0.26257336139678955, -0.23105359077453613, -0.12544073164463043, -0.1576502025127411, 0.029501816257834435, 0.05488094314932823, -0.29215261340141296, -0.04163022339344025, 0.7606448531150818, 0.12164734303951263, 0.20544371008872986, -0.21755680441856384, -0.5056286454200745, 0.09396451711654663, -0.26476141810417175, 0.04978496953845024, -0.1023298129439354, -0.4005701541900635, -0.11712624132633209, 0.006595219951122999, 0.373318076133728, 0.17174391448497772, 0.390345960855484, -0.21828661859035492, 0.12032640725374222, -0.31769806146621704, -0.1988244503736496, -0.1005673035979271, 0.21402378380298615, 0.19861392676830292, -0.045589618384838104, -0.4701313078403473, 0.09614206850528717, -0.4269663691520691, 0.21589148044586182, 0.0334891676902771, -0.40327581763267517, -0.3540826737880707, -0.3851706087589264, -0.14761166274547577, -0.041226014494895935, -0.025006696581840515, -0.563918948173523, -0.07416300475597382, -0.13325664401054382, -0.2305442988872528, -0.546039342880249, 0.08456974476575851, -0.17274850606918335, -0.1050051897764206, -0.20331226289272308, 0.24865035712718964, -0.19480599462985992, -0.16656751930713654, 0.31348153948783875, 0.14921340346336365, 0.23559486865997314, 0.07883494347333908, -0.5378028750419617, -0.1048542857170105, -0.03363681212067604, 0.18187512457370758, -0.1839294582605362, 0.0023089181631803513, -0.0689234659075737, -0.07924889028072357, 0.02685660868883133, -0.11611297726631165, -0.4626377522945404, 0.02664715051651001, 0.4722568392753601, 0.12833334505558014, -0.15059004724025726, -0.4660375118255615, 0.04796307906508446, -0.14428021013736725, -0.010302739217877388, 0.14694444835186005, -0.6404346823692322, -0.9879933595657349, -0.32283255457878113, -0.1423080861568451, 0.030373649671673775, -0.7861908674240112, -0.041421085596084595, -0.09696777909994125, 0.012966739013791084, 0.014811906963586807, -0.1331292986869812, -0.4706595242023468, 0.08638861775398254, -0.42681315541267395, -0.23701432347297668, 0.11764998733997345, 0.06067800521850586, -0.08960611373186111, -0.29767048358917236, -0.2154441922903061, 0.11638198047876358], [-0.07285372912883759, -0.5101547837257385, -0.15410898625850677, 0.08288753777742386, -0.2052815705537796, 0.06184116378426552, -0.08986562490463257, -0.22717975080013275, 0.11184360831975937, -0.07934732735157013, 0.3506985902786255, 0.3369639217853546, -0.16291014850139618, 0.09196409583091736, -0.1551610678434372, -0.30033695697784424, -0.08914770931005478, -0.09912867099046707, -0.009379875846207142, 0.33960896730422974, 0.1638307273387909, -0.2545403242111206, -0.08244814723730087, -0.2968386113643646, -0.17141583561897278, 0.094405896961689, 0.46585506200790405, -0.014408265240490437, -0.009046418592333794, -0.13381601870059967, -0.6476311683654785, 0.536037266254425, -0.007289559114724398, -0.36721065640449524, -0.13777455687522888, -0.17025895416736603, -0.12725110352039337, 0.3429957628250122, -0.05821515992283821, -0.23072203993797302, 0.03321535885334015, 0.07926357537508011, 0.3701256513595581, -0.042527589946985245, 0.1269131749868393, -0.01712658442556858, 0.28303062915802, 0.18327440321445465, -0.23373720049858093, -0.0017487071454524994, 0.26475486159324646, -0.3156287372112274, 0.19563455879688263, 0.26031598448753357, 0.14825978875160217, 0.10406869649887085, 0.19511394202709198, -0.03734791651368141, 0.0818999707698822, 0.6859239339828491, -0.5524182915687561, 0.5471049547195435, -0.23922568559646606, -0.09737326204776764, 0.20954233407974243, 0.06504927575588226, -0.40648606419563293, 0.017211683094501495, 0.010758919641375542, 0.27022066712379456, -0.10957454144954681, -0.26614296436309814, -0.1376054286956787, 0.04401443526148796, 0.0407927967607975, 0.153269425034523, 0.11872674524784088, -0.3541482985019684, 0.6632155776023865, 0.06659474968910217, 0.06204424425959587, 0.20078448951244354, 0.07437143474817276, -0.049118511378765106, 0.17373722791671753, 0.06913130730390549, 0.15489722788333893, -0.24341076612472534, -0.1802743673324585, 0.12444969266653061, 0.04715506359934807, -0.11453139036893845, -0.24213364720344543, 0.10357537120580673, -0.059245627373456955, -0.0923812985420227, 0.11213485896587372, 0.0805208683013916, 0.22514358162879944, -0.3000917136669159, 0.15885065495967865, -0.16602100431919098, 0.2977294325828552, -0.31913885474205017, -0.3305424451828003, -0.3690570294857025, 0.15114416182041168, -0.12979240715503693, -0.0878094732761383, 0.053171638399362564, 0.3153575360774994, -0.4272218346595764, -0.11306033283472061, 0.4929795265197754, -0.03523172810673714, 0.46642208099365234, 0.0344923660159111, 0.048860903829336166, -0.15324288606643677, -0.045424703508615494, 0.4733787178993225, -0.2971441149711609, 0.033373475074768066, 0.142475426197052, 0.5356777310371399, 0.24089284241199493, -0.016968902200460434, -0.1371111422777176, -0.22072544693946838, -0.19951415061950684, 0.052987970411777496, -0.03161974623799324, 0.0330103263258934, 0.1413942128419876, 0.11184637248516083, 0.17246897518634796, -0.03984059765934944, 0.4352935254573822, 0.20567730069160461, -0.23148640990257263, 0.05089779570698738, 0.4712412357330322, -0.2467922568321228, -0.07633481919765472, 0.07217308133840561, 0.1368885636329651, 0.42154747247695923, -0.35820910334587097, -0.11411097645759583, -0.27262362837791443, -0.12233651429414749, 0.06829430907964706, -0.03875461965799332, 0.33326369524002075, -0.07040608674287796, -0.43542608618736267, 0.09916847944259644, -0.3813724219799042, -0.09151432663202286, -0.08327696472406387, 0.14465464651584625, -0.07614804804325104, 0.045379411429166794, 0.08634747564792633, -0.09967248886823654, -0.049906086176633835, -0.2358967810869217, 0.18558529019355774, -0.18070514500141144, -0.4920993745326996, -0.23712292313575745, -0.048538677394390106, -0.2595159113407135, -0.19946028292179108, -0.08284755796194077, 0.04504890367388725, -0.22386649250984192, -0.27796459197998047, -0.1901797354221344, 0.5275673270225525, 0.09725981205701828, -0.8649234771728516, -0.10556112229824066, -0.13667629659175873, -0.08006636053323746, 0.08570262044668198, 0.16294455528259277, -0.6996471881866455, 0.0014191479422152042, -0.14417226612567902, -0.2102937251329422, -0.021052787080407143, -0.24552316963672638, -0.229773610830307, 0.1511354297399521, 0.0799807459115982, -0.39108356833457947, -0.24176448583602905, 0.36326345801353455, -0.08424259722232819, -0.27304527163505554, 0.21318680047988892, -0.1311633139848709, -0.05633615702390671, 0.30276814103126526, 0.06373150646686554, 0.1813041716814041, 0.13530397415161133, -0.09192197024822235, -0.01008081715553999, 0.14253740012645721, 0.047481220215559006, -0.07978084683418274, -0.0773673802614212, -0.18082109093666077, -0.2133587747812271, -0.008293848484754562, 0.12192942202091217, -0.007702299393713474, 0.37148165702819824, -0.20738565921783447, -0.47869548201560974, -0.09225507080554962, -0.2797210216522217, -0.30934974551200867, 0.2736554741859436, -0.11487151682376862, 0.01585215888917446, -0.34434109926223755, 0.31743937730789185, 0.7167233228683472, 0.21040374040603638, 0.0176988672465086, -0.019542844966053963, -0.10830459743738174, -0.3218197822570801, -0.22662889957427979, -0.10016080737113953, 0.3193649351596832, -0.10171131789684296, -0.051413215696811676, -0.42128509283065796, 0.15379779040813446, 0.10620825737714767, -0.055887844413518906, 0.1858489215373993, 0.06807281076908112, 0.2128528207540512, 0.3010890781879425, -0.13504914939403534, -0.007430960424244404, -0.145539328455925, -0.28315138816833496, -0.22256958484649658, 0.12564502656459808, 0.20691989362239838, 0.08683878928422928, 0.1409451961517334, -0.059068404138088226, -0.8559707999229431, -0.2453148514032364, 0.18862059712409973, -0.015188856981694698, 0.03539229556918144, -0.13515113294124603, -0.3231658935546875, 0.014330659061670303, -0.3967290222644806, -0.02756683900952339, 0.3133908808231354, -0.05820870399475098, -0.4000844657421112, 0.16436010599136353, 0.1863313913345337, -0.4921395480632782, -0.1332443207502365, -0.2587966024875641, 0.05460880696773529, 0.16343384981155396, 0.12676608562469482, 0.13813510537147522, 0.16347435116767883, -0.7527058124542236, -0.7170690298080444, 0.07013339549303055, -0.6681022047996521, -0.2670944333076477, -0.4419666528701782, -0.08791109174489975, 0.022212810814380646, 0.3318963050842285, -0.23195676505565643, -0.3871336281299591, -0.02042105235159397, 0.1077997237443924, -0.35376086831092834, 0.016229433938860893, 0.024751748889684677, -0.18126608431339264, -0.5223957300186157, 0.2111726999282837, -0.18570689857006073, 0.030828770250082016, -0.3461805284023285, -0.42571449279785156, -0.07011581212282181, -0.06907950341701508, -0.1673736572265625, 0.3444179892539978, -0.17358238995075226, 0.36625081300735474, -0.2826284170150757, -0.0018667281838133931, -0.15296609699726105, -0.4168788194656372, 0.22717903554439545, 0.12349501252174377, -0.03455917909741402, 0.3103172183036804, -0.15326276421546936, -0.09133820235729218, 0.0043479627929627895, 0.07067229598760605, 0.3198031485080719, -0.0269944965839386, 0.3834698796272278, -0.04634159058332443, 0.4085069000720978, -0.07883604615926743, -0.5021567940711975, 0.030862465500831604, -0.06622687727212906, 0.608644425868988, -0.6014860272407532, 0.08357305824756622, -0.15303781628608704, -0.20468232035636902, -0.4451688826084137, -0.08786144852638245, -0.20313365757465363, 0.15717622637748718, -0.2697409689426422, -0.033114898949861526, -0.07046888023614883, -0.3884184956550598, 0.1586865782737732, 0.09582250565290451, 0.2937926948070526, -0.1282883733510971, 0.08416913449764252, -0.3504006862640381, -0.13915182650089264, -0.3361760675907135, -0.19098468124866486, -0.4941891133785248, 0.23980705440044403, -0.20782043039798737, -0.04733699932694435, 0.4793988764286041, -0.3960998058319092, 0.2106291800737381, -0.30110642313957214, 0.14806275069713593, -0.5144834518432617, -0.013720445334911346, -0.28279775381088257, -0.3335944712162018, -0.2956937849521637, 0.18168680369853973, -0.41815638542175293, -0.10814183205366135, -0.28773653507232666, -0.4530600607395172, -0.2366083860397339, -0.1992115080356598, -0.2560930550098419, 0.16654324531555176, 0.09685447812080383, -0.3205302953720093, -0.33570927381515503, 0.09256923198699951, 0.22004114091396332, -0.165362149477005, -0.510869562625885, 0.5817902088165283, -0.12824617326259613, 0.4762011766433716, -0.10661444813013077, -0.057509735226631165, -0.21838021278381348, 0.11854241788387299, -0.30753833055496216, 0.41732528805732727, 0.43164631724357605, -0.4939172565937042, 0.1102362722158432, 0.031316112726926804, -0.23423612117767334, -0.23173263669013977, 0.1184103861451149, -0.3568264842033386, 0.22076255083084106, -0.5168799161911011, 0.08908583223819733, -0.3020855486392975, 0.21832849085330963, -0.21461297571659088, -0.22414371371269226, 0.13823606073856354, -0.17600904405117035, 0.06252796947956085, 0.08333375304937363, 0.1683453917503357, 0.04775341972708702, -0.07714778184890747, 0.13134855031967163, -0.3295339047908783, 0.31314975023269653, 0.13524466753005981, 0.5805649161338806, 0.15556277334690094, 0.09316805750131607, 0.15494832396507263, -0.0395684540271759, 0.08697210997343063, -0.12906038761138916, 0.10203248262405396, 0.20359860360622406, 0.16221950948238373, -0.29140013456344604, -0.15105876326560974, -0.14334645867347717, -0.08821295946836472, -0.011553491465747356, -0.18894246220588684, -0.091881163418293, -0.15988172590732574, 0.15185832977294922, -0.30147215723991394, -0.20556960999965668, 0.2174633890390396, -0.1596740484237671, 0.2452053278684616, -0.298190176486969, -0.1659826636314392, -0.06101519241929054, -0.3053531348705292, -0.49738994240760803, 0.30168846249580383, -0.03953332453966141, -0.5835521221160889, -0.020053673535585403, -0.3389953076839447, -0.4037483036518097, -0.09660392999649048, 0.14644619822502136, -0.0767136812210083, 0.031298041343688965, -0.07583874464035034, -0.008525821380317211, -0.35479629039764404, 0.10555417090654373, -0.03099183738231659, 0.10298720747232437, 0.12526100873947144, -0.3116949200630188, 0.06256502121686935, 0.08644437044858932, 0.3458370268344879, -0.2423938810825348, -0.3935159146785736, 0.20761947333812714, 0.23507177829742432, -0.03571036085486412, -0.43785661458969116, -0.2623727321624756, 0.058119967579841614, 0.000721789023373276, 0.4182352125644684, -0.13619598746299744, -0.33786606788635254, -0.3444966971874237, 0.03162559121847153, -0.45130792260169983, -0.2309482842683792, -0.2980993092060089, -0.3243626356124878, 0.051343660801649094, -0.31793010234832764, 0.13700005412101746, -0.059047721326351166, 0.2519060969352722, 0.1834792196750641, -0.0842696875333786, -0.336454838514328, 0.07911090552806854, -0.0362921804189682, -0.2467384934425354, 0.1233561560511589, 0.5301001071929932, 0.11249799281358719, -0.024572057649493217, 0.2002924233675003, -0.0467350073158741, 0.06962662190198898, 0.0645233690738678, -0.35042235255241394, 0.4764094650745392, -0.11794290691614151, -0.3252921402454376, -0.07710778713226318, -0.3714287281036377], [-0.19129739701747894, -0.05351084843277931, 0.027489393949508667, 0.1279781609773636, -0.14345793426036835, 0.02746126428246498, 0.027134830132126808, 0.2160034030675888, 0.175165057182312, 0.09086291491985321, 0.13706573843955994, -0.10553574562072754, 0.24049289524555206, 0.07958073168992996, 0.31599029898643494, -0.0969509705901146, -0.422362357378006, -0.04916266351938248, 0.12959307432174683, 0.7393392324447632, 0.00533714983612299, 0.01364589761942625, 0.07838336378335953, -0.3459800183773041, -0.17066629230976105, -0.8281891345977783, 0.054585766047239304, -0.4217604100704193, -0.0452147051692009, -0.025903547182679176, -0.0015388146275654435, -0.4355320632457733, 0.19044357538223267, 0.07176148146390915, -0.4844454526901245, 0.08614186942577362, -0.05930733308196068, -0.13756351172924042, -0.47472861409187317, 0.3962468206882477, 0.0604991614818573, 0.4541495740413666, 0.40379783511161804, -0.02852535806596279, 0.16150496900081635, -0.4787803292274475, -0.16495251655578613, 0.2628350853919983, -0.10736654698848724, -0.3697519302368164, -0.09171659499406815, 0.07756394147872925, -0.03882592171430588, -0.22624501585960388, 0.13258838653564453, -0.40525802969932556, 0.11260882765054703, -0.2463051974773407, 0.010659917257726192, 0.048844996839761734, 0.3892836272716522, -0.16410554945468903, 0.2546948790550232, -0.5640082955360413, 0.06377428025007248, -0.08955153822898865, -0.002177748829126358, 0.17813648283481598, -0.701587975025177, -0.07346966862678528, 0.11914371699094772, 0.037745628505945206, -0.2723073661327362, -0.2608254849910736, 0.16533103585243225, -0.11353159695863724, 0.2932404577732086, -0.14232145249843597, 0.2711932957172394, -0.4390350878238678, 0.20073601603507996, 0.0461650975048542, -0.08023151010274887, 0.0862499549984932, -0.027791783213615417, 0.20164752006530762, -0.23945610225200653, 0.060764312744140625, -0.21143673360347748, 0.0700356587767601, 0.026282530277967453, 0.23939721286296844, -0.23952585458755493, -0.3186480402946472, -0.22432953119277954, -0.14796936511993408, -0.09029503166675568, 0.36098983883857727, 0.6175296902656555, -0.25505366921424866, -0.12205153703689575, -0.24669428169727325, -0.01686611771583557, -0.18279944360256195, -0.2125045359134674, 0.30278390645980835, -0.13028432428836823, -0.10552852600812912, -0.16282294690608978, 0.1850026249885559, -0.02368331328034401, -0.5222264528274536, -0.027235308662056923, 0.06495126336812973, -0.011914649978280067, -0.5388044118881226, -0.06572975963354111, -0.21945396065711975, -0.04900052398443222, 0.003398463362827897, -0.15241371095180511, 0.16419701278209686, 0.15277999639511108, 0.14856059849262238, -0.12373217195272446, -0.1479816883802414, -0.4019322097301483, 0.027579203248023987, -0.35839831829071045, 0.04806884005665779, -0.038562703877687454, -0.1698521226644516, 0.4392901360988617, -0.08684523403644562, -0.35804256796836853, -0.0036053310614079237, 0.20722605288028717, 0.30478689074516296, 0.414938747882843, 0.09118562191724777, 0.2934686839580536, 0.14982323348522186, 0.3039867877960205, -0.1370834857225418, -0.017600782215595245, -0.14836998283863068, -0.4977560043334961, -0.5437909960746765, -0.005061107221990824, 0.043714284896850586, 0.2153509557247162, 0.2547754645347595, 0.14277683198451996, -0.32746997475624084, 0.019720738753676414, -0.0897204801440239, 0.1937839537858963, 0.048088088631629944, 0.3298315703868866, 0.20150303840637207, 0.2072063535451889, -0.37140190601348877, 0.16601984202861786, -0.38376733660697937, 0.05881296843290329, -0.0794626995921135, -0.26791083812713623, 0.32619231939315796, 0.02847765013575554, 0.15673765540122986, -0.09052052348852158, 0.010932201519608498, 0.044132478535175323, -0.1188763976097107, -0.22364674508571625, 0.3608779013156891, 0.07426105439662933, 0.23639102280139923, 0.05740286037325859, 0.347355455160141, -0.08202899992465973, 0.5172267556190491, 0.4988821744918823, -0.06194573640823364, -0.44694575667381287, 0.05811882019042969, 0.6301796436309814, -0.18506354093551636, -0.010969370603561401, 0.14711949229240417, 0.3328745663166046, -0.2716226279735565, 0.045264068990945816, -0.25904518365859985, -0.07473690807819366, 0.12750285863876343, 0.2289065569639206, -0.17215150594711304, 0.2708708643913269, -0.17326340079307556, -0.10976073145866394, -0.09250762313604355, -0.1597602814435959, -0.30070969462394714, 0.1405220478773117, 0.007406973280012608, -0.11211469024419785, 0.1846613734960556, 0.01355777494609356, -0.033898189663887024, -0.1679508239030838, -0.1475980132818222, 0.026668494567275047, 0.11522959172725677, 0.1126704216003418, -0.07451441138982773, 0.26292791962623596, -0.10573253780603409, 0.3654433488845825, 0.2735244035720825, 0.24538497626781464, -0.3198598623275757, 0.14062891900539398, 0.04770983010530472, 0.3053683340549469, 0.4929417371749878, -0.2915557026863098, 0.4503310024738312, -0.011380278505384922, 0.40701544284820557, -0.12222778797149658, -0.28855398297309875, 0.29769375920295715, 0.04091426357626915, 0.04546776041388512, -0.35233068466186523, 0.3436906635761261, 0.1728159636259079, 0.03049398399889469, -0.10001572221517563, 0.17663227021694183, -0.008850880898535252, 0.07756734639406204, -0.39881888031959534, 0.3813014328479767, -0.161660298705101, 0.005207955837249756, -0.17962631583213806, -0.02761841006577015, 0.11522708833217621, 0.1379542201757431, 0.055552948266267776, -0.3732348084449768, -0.10325305163860321, 0.13009540736675262, -0.17234918475151062, 0.2221093624830246, -0.5640979409217834, 0.10691436380147934, -0.03643254563212395, 0.004831122700124979, -0.274568647146225, 0.5765040516853333, 0.05038417503237724, 0.018357301130890846, 0.13255371153354645, -0.19418710470199585, -0.03572341427206993, -0.23623067140579224, 0.038271285593509674, -0.22704224288463593, 0.06308966130018234, 0.018402334302663803, -0.10122018307447433, 0.11296244710683823, -0.3378635346889496, -0.25550195574760437, -0.06885427981615067, -0.6605018377304077, -0.1186567023396492, -0.015343033708631992, -0.12391621619462967, 0.3123692572116852, 0.05913424864411354, -0.10505016893148422, -0.021564440801739693, 0.17674973607063293, 0.14385828375816345, -0.4547939598560333, -0.10128866881132126, 0.0024608741514384747, -0.08049909770488739, 0.3293055295944214, -0.8704566955566406, -0.19943827390670776, -0.45623263716697693, 0.14405055344104767, -0.11582504212856293, -0.7250692248344421, -0.2597738802433014, 0.12365330755710602, -0.5346365571022034, -0.2639501392841339, -0.4707835614681244, 0.190749853849411, 0.048311591148376465, -0.14731313288211823, -0.10307464003562927, 0.11214359104633331, -0.13271278142929077, -0.12959817051887512, 0.23828691244125366, 0.15750111639499664, -0.054446615278720856, 0.42227262258529663, -0.307895690202713, 0.5979472398757935, -0.03490003943443298, 0.15650291740894318, -0.1844676434993744, 0.27149179577827454, -0.23699113726615906, -0.4048675000667572, -0.44266945123672485, -0.035239290446043015, 0.3133566975593567, 0.12912651896476746, -0.17997199296951294, 0.026637863367795944, -0.3073573410511017, -0.30455103516578674, -0.303811252117157, -0.19380638003349304, -0.3108764588832855, -0.217271625995636, -0.6963117718696594, -0.4078914523124695, 0.3054496645927429, -0.1313650757074356, -0.10750390589237213, -0.1412632018327713, 0.03842340037226677, -0.10953594744205475, -0.12672001123428345, -1.1142023801803589, -0.2356792688369751, -0.0981382355093956, 0.1764996498823166, 0.17695243656635284, 0.1364392340183258, 0.48400890827178955, -0.15940210223197937, 0.23502041399478912, 0.1326039880514145, -0.044890519231557846, 0.10008419305086136, 0.08234654366970062, -0.22134815156459808, -0.3440905213356018, -0.18159697949886322, 0.07206973433494568, 0.2403857409954071, -0.38728705048561096, -0.09719904512166977, 0.13418002426624298, 0.23035579919815063, -0.26533761620521545, 0.05069226399064064, -0.12313562631607056, -0.9084693193435669, 0.5290912389755249, 0.34505316615104675, -0.31193307042121887, -0.14896966516971588, -0.09195184707641602, 0.13185419142246246, -0.1928802728652954, -0.2457796335220337, 0.09521766752004623, 0.15110613405704498, -0.32509714365005493, -0.15768185257911682, 0.08161100000143051, -0.406743586063385, 0.2219146192073822, 0.10968225449323654, -0.07157891988754272, -0.13445016741752625, 0.020820200443267822, 0.1355617344379425, -0.13622069358825684, -0.020450549200177193, 0.019868720322847366, 0.0034089484252035618, -0.01282306294888258, -0.15396705269813538, 0.03809705004096031, -0.0420927032828331, 0.571593165397644, -0.1565004587173462, 0.2017253190279007, 0.030234981328248978, 0.28098776936531067, -0.5873841047286987, 0.5331326127052307, -0.20243315398693085, -0.019160527735948563, 0.1461324542760849, -0.163731187582016, -0.1357896476984024, -0.2592029869556427, -0.20941351354122162, -0.4451039731502533, -0.3152647912502289, 0.12761783599853516, 0.035501476377248764, 0.1510845422744751, -0.31984055042266846, 0.43803057074546814, -0.054870981723070145, -0.15287984907627106, -0.12789353728294373, 0.000924017047509551, 0.17939548194408417, 0.15848977863788605, -0.14570912718772888, -0.17209306359291077, -0.07110856473445892, -0.033741544932127, -0.4202145040035248, 0.11851446330547333, -0.15969392657279968, -0.31259217858314514, -0.32798299193382263, -0.02459479123353958, -0.2715669274330139, -0.0782497227191925, 0.22122478485107422, 0.25315195322036743, -0.010794132016599178, 0.2281598150730133, 0.1777602732181549, -0.3580179214477539, -0.27381083369255066, -0.2874804437160492, 0.4606713354587555, -0.14860905706882477, -0.0277242548763752, -0.12010093033313751, 0.1810937076807022, -0.4972429573535919, -0.4936792850494385, -0.28052762150764465, -0.12458425760269165, 0.2090587317943573, -0.3643433153629303, 0.04779941588640213, 0.34431836009025574, 0.25190311670303345, 0.08543545007705688, -0.6502969861030579, -0.13687554001808167, -0.21960219740867615, -0.32038596272468567, 0.0004467820981517434, -0.5627294778823853, 0.0035475098993629217, 0.3404252827167511, -0.42501965165138245, 0.48456472158432007, -0.4726782441139221, 0.46202653646469116, 0.17661330103874207, -0.222416490316391, -0.6474605798721313, -0.34961310029029846, -0.11759179085493088, 0.08440390229225159, 0.3630983233451843, 0.024775078520178795, -0.3202899396419525, -0.29257479310035706, 0.23385977745056152, -1.1355552673339844, 0.2763577103614807, -0.39987707138061523, -0.1850193738937378, -0.07455724477767944, -0.3322920501232147, -0.11918848007917404, -0.36958861351013184, 0.13537216186523438, 0.37944597005844116, 0.0928841382265091, -0.21888376772403717, -0.363791286945343, 0.049043603241443634, -0.38823777437210083, 0.27815890312194824, -0.17333032190799713, -0.2972292900085449, 0.22275908291339874, -0.5191983580589294, -0.050215497612953186, -0.015957439318299294, -0.44134822487831116, 0.49396640062332153, -0.15829803049564362, -0.16009242832660675, 0.035900019109249115, -0.1506759375333786, 0.2780458927154541], [-0.1572290062904358, 0.48854032158851624, 0.09781511127948761, -0.6683927178382874, 0.004198601935058832, -0.1310836523771286, 0.5804438591003418, -0.1191709041595459, 0.17927677929401398, 0.023916194215416908, -0.2736174464225769, -0.24711599946022034, -0.3303026556968689, 0.2209785431623459, 0.3151436448097229, -0.07181990146636963, 0.11021871119737625, 0.04646829888224602, 0.01332934945821762, -0.05681457743048668, 0.23128554224967957, -0.19830110669136047, -0.1615544557571411, 0.29161176085472107, 0.16906744241714478, -0.16007037460803986, -0.08954364061355591, 0.3576761782169342, 0.420087069272995, -0.013014708645641804, 0.07303187996149063, 0.20284226536750793, 0.047164782881736755, 0.01776311919093132, -0.48560723662376404, 0.19900083541870117, 0.125886470079422, 0.20157673954963684, -0.1926574409008026, 0.39068692922592163, -0.12635135650634766, 0.23605093359947205, 0.17850016057491302, -0.19477976858615875, -0.18556536734104156, -0.09738971292972565, 0.03497270494699478, 0.2065459042787552, 0.046915214508771896, 0.21707762777805328, 0.3172260522842407, -0.1639018952846527, 0.5233893990516663, 0.2049073576927185, 0.0742884948849678, -0.0943727046251297, -0.28168985247612, 0.2764340937137604, 0.1950303018093109, -0.07911267876625061, -0.15345822274684906, -0.4174710810184479, -0.09480531513690948, 0.47212183475494385, 0.49383917450904846, -0.17289240658283234, -0.10011325031518936, 0.03259114921092987, 0.02228805422782898, -0.10964140295982361, 0.3501502275466919, 0.2021917998790741, -0.5397306680679321, 0.35745200514793396, -0.3845006823539734, 0.10310083627700806, 0.09490315616130829, -0.2629007399082184, 0.15653079748153687, -0.1076408177614212, 0.6015434861183167, 0.05707857012748718, -0.1505391150712967, 0.030962621793150902, -0.5236217379570007, -0.23282238841056824, -0.11325299739837646, 0.16618555784225464, 0.030408142134547234, -0.20176295936107635, -0.28847822546958923, 0.2358093559741974, 0.04172258451581001, 0.13700264692306519, 0.4445309340953827, -0.15094922482967377, 0.39059481024742126, -0.5047300457954407, -0.10087212175130844, 6.389727059286088e-05, 0.2925792634487152, -0.007148132659494877, 0.3095426857471466, 0.5524540543556213, -0.3995445668697357, -0.3547029197216034, 0.11353649199008942, -0.15746460855007172, -0.3053290843963623, 0.5583523511886597, -0.17440985143184662, -0.345943421125412, -0.11664087325334549, -0.5348411798477173, -0.018755782395601273, -0.1722661405801773, 0.29652926325798035, 0.24531719088554382, 0.4609743654727936, -0.24816590547561646, 0.18071794509887695, 0.12133762985467911, 0.41930702328681946, -0.2089858502149582, -0.28492483496665955, -0.4377131164073944, 0.23859983682632446, 0.05426502600312233, 0.15655308961868286, -0.0656462088227272, 0.17133142054080963, 0.3488747477531433, -0.08143438398838043, -0.05302762985229492, 0.11000309884548187, -0.007282224949449301, 0.24910040199756622, 0.4352845549583435, -0.19233107566833496, 0.010336036793887615, -0.35136300325393677, -0.7983008623123169, -0.18423675000667572, -0.19525720179080963, -0.10659857094287872, -0.13890691101551056, 0.444062739610672, 0.2597101032733917, -0.2426297962665558, -0.18375499546527863, -0.0779399499297142, -0.35950717329978943, -0.05983337387442589, -0.6428589224815369, 0.32529544830322266, -0.47989097237586975, -0.09386171400547028, 0.2786823809146881, -0.06889466941356659, -0.04436207562685013, -0.48182711005210876, -0.12074672430753708, -0.6920321583747864, -0.18424183130264282, -0.35724547505378723, -0.3202728033065796, 0.08395098894834518, -0.05185484141111374, 0.0010725402971729636, -0.1453857570886612, 0.32726845145225525, -0.29595744609832764, 0.21278131008148193, -0.19582776725292206, -0.0634663924574852, 0.2696911692619324, 0.14703740179538727, -0.17037466168403625, -0.22871094942092896, 0.11438540369272232, -0.5076111555099487, 0.025592830032110214, 0.11396156251430511, 0.17614558339118958, 0.009208128787577152, 0.19982942938804626, -0.15875454246997833, 0.009204051457345486, -0.09346455335617065, -0.2246023267507553, 0.020772913470864296, -0.2492472380399704, -0.015565590932965279, -0.36748889088630676, -0.09056414663791656, -0.11747457087039948, 0.3620072901248932, -0.5469598174095154, 0.02468029223382473, 0.21837538480758667, -0.05464394390583038, -0.10358896106481552, 0.3406921923160553, -0.41007480025291443, -0.19346942007541656, -0.07811767607927322, 0.04653109237551689, -0.4756792187690735, 0.05796438828110695, 0.014998331665992737, 0.09361206740140915, -0.5138980150222778, -0.22808073461055756, 0.35806024074554443, 0.01594744622707367, 0.1803848147392273, 0.07181147485971451, -0.3263075053691864, -0.11838782578706741, -0.0326179563999176, 0.10112503170967102, 0.02432226575911045, 0.34255170822143555, 0.06038472801446915, -0.13655315339565277, -0.07264693081378937, -0.07575561851263046, 0.06361846625804901, -0.102166548371315, -0.06594011932611465, -0.06960819661617279, 0.10335002839565277, 0.0484076589345932, -0.045464616268873215, 0.0038719484582543373, 0.46516475081443787, 0.3244306147098541, -0.07263262569904327, 0.4007175862789154, -0.39395150542259216, -0.011279170401394367, 0.3356117010116577, 0.13503879308700562, -0.10713711380958557, -0.06287086009979248, 0.10616901516914368, 0.00428019231185317, 0.3294053077697754, 0.3040770888328552, 0.39638349413871765, -0.0886676087975502, -0.03053538128733635, 0.04028591886162758, -0.30461347103118896, -0.7112871408462524, 0.2676416337490082, -0.2937997877597809, 0.13134713470935822, -0.18081191182136536, -0.10458537936210632, 0.2713675796985626, 0.25195926427841187, -0.12156202644109726, 0.1740100234746933, 0.2732372581958771, 0.43263739347457886, -0.39089566469192505, 0.5344914197921753, -0.08094937354326248, -0.2959725260734558, -0.08909709006547928, 0.12692813575267792, 0.3656882345676422, -0.17209435999393463, 0.5962510704994202, 0.2380685657262802, -0.6542632579803467, -0.14844851195812225, 0.5085874795913696, -0.00517509039491415, 0.3817930817604065, 0.2316846251487732, 0.014128303155303001, 1.0903971195220947, -0.19290299713611603, 0.26795265078544617, 0.4294721782207489, 0.22225648164749146, -0.07544328272342682, 0.010952124372124672, 0.2645151913166046, -0.08113973587751389, -0.01460156962275505, -0.0669431984424591, 0.04272760450839996, 0.6634594798088074, 0.019511964172124863, 0.4692317545413971, -0.33290693163871765, -0.25228187441825867, -0.3597027361392975, 0.13828706741333008, -0.11622007191181183, -0.25826531648635864, 0.13543224334716797, -0.027449602261185646, -0.16534171998500824, 0.1323610246181488, 0.01764632761478424, 0.024901892989873886, -0.09475890547037125, 0.03656474128365517, -0.025153055787086487, -0.27464744448661804, 0.10095024853944778, 0.2644023597240448, 0.5165064930915833, -0.1312808245420456, 0.23947007954120636, 0.4452981948852539, 0.22434258460998535, 0.06879257410764694, -0.2751515805721283, 0.15913963317871094, 0.26018476486206055, 0.13733211159706116, 0.027850551530718803, -0.49932196736335754, 0.04141436889767647, -0.2700555622577667, 0.022816922515630722, -0.22800590097904205, 0.030839547514915466, 0.057721514254808426, -0.18287894129753113, 0.5028047561645508, 0.5567100644111633, 0.07201977074146271, 0.016488397493958473, 0.034875646233558655, -0.1098380908370018, 0.2408568263053894, -0.1449619084596634, 0.22820813953876495, -0.1321014165878296, -0.010801978409290314, 0.16441044211387634, 0.10276082158088684, 0.059638265520334244, -0.057586029171943665, 0.1978173404932022, 0.06417558342218399, -0.15457476675510406, 0.4924628436565399, 0.24328164756298065, 0.36283618211746216, 0.28871843218803406, 0.20353125035762787, -0.1464773565530777, 0.036472514271736145, -0.4278741180896759, 0.1302635669708252, 0.2105850726366043, 0.1213751807808876, 0.35915058851242065, -0.16070863604545593, 0.38332635164260864, 0.07719936966896057, 0.4075620174407959, 0.29855015873908997, -0.16166822612285614, -0.025393517687916756, -0.18018245697021484, 0.14675350487232208, -0.7104655504226685, -0.14153961837291718, -0.009234149008989334, -0.15960702300071716, 0.5817829966545105, 0.2331782728433609, -0.017953263595700264, -0.3360215425491333, -0.17724332213401794, -0.015464498661458492, 0.41868969798088074, -0.3151330351829529, 0.2762868106365204, 0.08465571701526642, 0.23846933245658875, 0.023469939827919006, -0.3435642123222351, -0.013948552310466766, 0.09132162481546402, -0.41842392086982727, 0.3539440631866455, 0.08742193132638931, 0.28156769275665283, 0.16339853405952454, -0.23104535043239594, -0.06243159994482994, -0.00201166863553226, 0.31477221846580505, -0.12407925724983215, 0.05869576334953308, 0.4174327850341797, 0.1654115468263626, 0.42631644010543823, 0.29459238052368164, -0.03133682906627655, 0.894773006439209, -0.15511886775493622, -0.1777651160955429, 0.35649922490119934, 0.44120126962661743, -0.20770449936389923, -0.45606598258018494, -0.14428038895130157, 0.02408123016357422, -0.042070552706718445, -0.08203914761543274, -0.44531702995300293, 0.39558541774749756, 0.5258584022521973, -0.0698636993765831, -0.29808878898620605, 0.07258424907922745, -0.11932814121246338, -0.47044655680656433, 0.2489173263311386, 0.23811239004135132, -0.029716219753026962, 0.8999849557876587, 0.281678706407547, 0.09906787425279617, 0.178716778755188, 0.04757855087518692, -0.45420506596565247, 0.020224912092089653, -0.26691344380378723, 0.198955699801445, -0.003240027232095599, 0.33113572001457214, 0.5244961380958557, 0.1640622913837433, 0.339976966381073, -0.10185471922159195, 0.3257889151573181, -0.31923434138298035, -0.2893284559249878, -0.12720634043216705, 0.14165310561656952, -0.08617175370454788, -0.24213790893554688, 0.07008983939886093, 0.2426890730857849, 0.11290287226438522, 0.11487103998661041, 0.15993691980838776, -0.0945504754781723, -0.059369828552007675, 0.19432130455970764, -0.10485051572322845, 0.4473065733909607, -0.6857463121414185, 0.9141135811805725, 0.039179183542728424, -0.031674690544605255, 0.2631288766860962, -0.007070944178849459, 0.16684231162071228, 0.17871804535388947, 0.1740833967924118, -0.0034091901034116745, 0.06985022127628326, 0.16264678537845612, 0.465355783700943, 0.23549072444438934, -0.1674928218126297, -0.05477885529398918, -0.1824042946100235, 0.04828984662890434, -0.3384355902671814, 0.2683728039264679, 0.1521870195865631, 0.21108514070510864, 0.05703004449605942, 0.4418790340423584, 0.2645886540412903, 0.02336707152426243, 0.4262324869632721, 0.13966427743434906, -0.41580960154533386, 0.15197359025478363, 0.3452374041080475, -0.05744844675064087, 0.2397739589214325, -0.34127792716026306, 0.22405265271663666, -0.09037156403064728, 0.345032274723053, -0.19459964334964752, 0.4408997893333435, -0.1832336187362671, 0.6156825423240662, -0.30152004957199097, 0.40178316831588745, -0.2589021325111389, 0.31887000799179077, 0.11457311362028122, 0.22495031356811523, 0.3864353597164154, -0.08260396867990494], [0.501420795917511, 0.3032485544681549, -0.010357228107750416, -0.10621103644371033, 0.12453046441078186, -0.050635285675525665, -0.05145597457885742, 0.23257814347743988, 0.17723950743675232, -0.14964139461517334, 0.26821169257164, -0.09855512529611588, 0.0942062959074974, -0.4618013799190521, 0.03981013596057892, 0.5789574980735779, -0.11301815509796143, -0.2782972455024719, -0.16390611231327057, 0.016308054327964783, 0.1442413032054901, 0.1930098831653595, -0.18610134720802307, 0.044877130538225174, 0.32271459698677063, -0.03899788111448288, -0.40242084860801697, 0.008729590103030205, -0.2521468698978424, 0.14608046412467957, -0.2459651231765747, 0.49259087443351746, 0.051299918442964554, 0.3880123496055603, -0.07559783011674881, 0.09207046777009964, 0.21143725514411926, -0.15336045622825623, -0.01926514506340027, 0.09401720017194748, -0.14074034988880157, 0.06619841605424881, -0.2038000226020813, 0.38940370082855225, -0.06761069595813751, -0.05917629227042198, 0.5692676305770874, -0.5415930151939392, 0.25816890597343445, -0.42110422253608704, -0.46426448225975037, -0.13897019624710083, -0.26430103182792664, -0.039237409830093384, -0.12225766479969025, 0.12991617619991302, -0.007049328647553921, 0.02752586081624031, -0.14304517209529877, -0.12059778720140457, 0.42962512373924255, -0.08912608027458191, 0.15056654810905457, 0.5006129145622253, -0.001935728476382792, 0.12269347161054611, -0.014814594760537148, -0.3961469233036041, 0.013266192749142647, -0.16540640592575073, 0.09520958364009857, 0.25758662819862366, -0.17634199559688568, 0.4012903869152069, 0.17200709879398346, 0.01167855504900217, 0.14452196657657623, 0.20489516854286194, 0.25501924753189087, -0.4853569567203522, 0.2301574945449829, -0.14543086290359497, 0.08637677878141403, 0.3387588858604431, 0.2737300395965576, 0.047585006803274155, -0.028638198971748352, 0.5139210820198059, -0.17474058270454407, -0.14508749544620514, -0.18372438848018646, 0.21286669373512268, 0.15097618103027344, 0.04463181644678116, -0.08835253119468689, 0.01951540634036064, 0.055135246366262436, 0.031354814767837524, 0.1500348299741745, 0.18001681566238403, -0.32313644886016846, 0.3873460292816162, -0.17353412508964539, -0.3208545744419098, 0.3891461193561554, 0.04557103291153908, -0.15318240225315094, -0.21112893521785736, 0.36495956778526306, 0.35743215680122375, 0.07496637105941772, -0.11787659674882889, 0.16531820595264435, -0.1286800503730774, 0.174345001578331, -0.3272669017314911, -0.1087280660867691, 0.2797323763370514, 0.264302134513855, -0.06448756158351898, -0.17502038180828094, 0.08530532568693161, -0.1040690466761589, -0.08900433778762817, -0.20927812159061432, -0.18507716059684753, 0.22601285576820374, 0.040057603269815445, -0.09221570938825607, -0.4975109398365021, -0.088331438601017, -0.42358729243278503, -0.10539241135120392, -0.23714667558670044, -0.24177004396915436, 0.04094981774687767, 0.29543250799179077, 0.45991572737693787, -0.1730949431657791, 0.10770237445831299, -0.7066295742988586, -0.34209224581718445, 0.03238297626376152, -0.174428790807724, -0.29843926429748535, 0.10242272913455963, 0.00969167985022068, 0.015569094568490982, -0.12631915509700775, -0.11011096090078354, 0.07317356020212173, 0.24841922521591187, 0.739788830280304, -0.11303582787513733, -0.16341045498847961, -0.07837788015604019, -0.09011786431074142, 0.10477138310670853, -0.06669950485229492, 0.14204345643520355, 0.02945983223617077, -0.09152916818857193, 0.026809897273778915, 0.2332138866186142, -0.19559401273727417, 0.2264845073223114, 0.15046098828315735, -0.003241515252739191, -0.08337031304836273, 0.025013474747538567, 0.5578445196151733, 0.7724120616912842, -0.018007127568125725, -0.07602211833000183, 0.5127817988395691, 0.29456982016563416, 0.05127837508916855, 0.11428496986627579, -0.157613605260849, 0.13216838240623474, 0.1379503607749939, 0.06834375113248825, 0.2790793180465698, -0.12426328659057617, -0.2908303141593933, 0.06790241599082947, -0.007540935184806585, -0.08437877893447876, 0.17999200522899628, -0.20903688669204712, -0.2386358380317688, -0.14400115609169006, 0.031929515302181244, -0.17016103863716125, 0.0727236419916153, -0.017288416624069214, 0.33470773696899414, 0.4157690405845642, -0.12853263318538666, -0.0742788016796112, -0.060357313603162766, -0.24767395853996277, 0.07625733315944672, -0.15856891870498657, -0.2749473750591278, -0.37553834915161133, -0.3448125422000885, -0.3376889228820801, 0.05520004779100418, -0.3188912272453308, -0.3164442479610443, -0.1349756270647049, 0.23505425453186035, 0.022869950160384178, 0.2335975468158722, -0.011857422068715096, -0.08073467761278152, -0.24584437906742096, 0.5575920939445496, 0.09698348492383957, 0.09342925250530243, 0.10819367319345474, 0.177128404378891, -0.07677213847637177, -0.1257655769586563, 0.2505011558532715, -0.2811121344566345, 0.18816956877708435, 0.149326354265213, 0.05348266661167145, -0.06599529087543488, -0.1201411634683609, -0.00939928274601698, -0.14169491827487946, -0.13323207199573517, -0.10193411260843277, 0.24646084010601044, -0.24137775599956512, -0.4008612632751465, 0.20447595417499542, 0.1546088606119156, 0.12018949538469315, -0.1780765950679779, -0.17550843954086304, 0.1468145102262497, 0.1904444396495819, -0.37578755617141724, -0.14933715760707855, 0.09055104106664658, 0.27266815304756165, -0.2865920662879944, 0.5065133571624756, 0.42012453079223633, -0.24843166768550873, -0.20753046870231628, -0.052015502005815506, 0.2821096181869507, -0.23758696019649506, 0.42332300543785095, 0.5604403614997864, -0.12699922919273376, 0.012942055240273476, 0.7308325171470642, 0.1156841441988945, 0.20542798936367035, 0.2863326668739319, 0.06760989874601364, -0.08019976317882538, 0.0997408851981163, 0.047735005617141724, 0.09905250370502472, 0.18508410453796387, 0.13384446501731873, -0.0777108296751976, 0.20246663689613342, 0.4760211706161499, -0.36404281854629517, 0.04246830195188522, 0.07907918095588684, -0.12350090593099594, 0.05099146440625191, -0.1213550791144371, 0.22205261886119843, 0.0829629898071289, -0.3168543875217438, 0.2541937232017517, 0.28970327973365784, -0.25612929463386536, 0.5284768342971802, -0.16493220627307892, -0.1711093932390213, -0.021099193021655083, -0.23766273260116577, 0.061519961804151535, 0.5141813158988953, 0.20285077393054962, -0.18375389277935028, -0.015965808182954788, 0.6728183627128601, -0.7075161933898926, -0.4352973699569702, 0.03270134702324867, 0.12085124850273132, -0.3160049319267273, 0.14908407628536224, 0.24371370673179626, -0.09517884254455566, 0.10103011131286621, 0.09177771955728531, 0.08359035849571228, -0.029880018904805183, -0.009173840284347534, 0.3427991569042206, 0.0172344408929348, 0.04116731137037277, 0.0037632184103131294, 0.350886732339859, -0.0683508962392807, 0.46043944358825684, -0.02235216088593006, 0.03883112967014313, -0.06366412341594696, -0.027918405830860138, 0.0007780891610309482, -0.25463202595710754, -0.06753706187009811, 0.13454245030879974, -0.3789016008377075, 0.31957724690437317, -0.23062360286712646, 0.09524361789226532, 0.10266363620758057, -0.26687899231910706, 0.26164713501930237, 0.056896958500146866, 0.6834829449653625, 0.42003101110458374, 0.615817129611969, 0.13649483025074005, 0.11854859441518784, 0.056507837027311325, 0.12161130458116531, -0.1414167582988739, 0.15437333285808563, 0.0738179087638855, -0.17024476826190948, 0.21344588696956635, -0.4160039722919464, 0.13601911067962646, -0.15145951509475708, 0.09486081451177597, -0.24748949706554413, -0.02856653369963169, 0.0083053819835186, 0.599945604801178, -0.06457971781492233, -0.20253607630729675, 0.1580873429775238, -0.20065239071846008, 0.03438251465559006, -0.14489825069904327, 0.2689302861690521, -0.4831266403198242, 0.2636187672615051, 0.09712579846382141, 0.024097172543406487, -0.003443109570071101, -0.13286517560482025, 0.49100255966186523, 0.12165842950344086, 0.19632603228092194, -0.0394209660589695, -0.2009829580783844, -0.013714902102947235, -0.16239385306835175, 0.24346211552619934, 0.017950287088751793, -0.10831547528505325, 0.07313010096549988, 0.41370639204978943, 0.03222755342721939, 0.11911793798208237, 0.059352122247219086, -0.11276686936616898, -0.1452307403087616, -0.0993027314543724, -0.11943100392818451, 0.29649895429611206, 0.2263273447751999, -0.2098347544670105, -0.17940786480903625, -0.033749520778656006, -0.16208525002002716, 0.021847624331712723, -0.1265757828950882, 0.05041276663541794, -0.014138014987111092, -0.14649547636508942, 0.09617086499929428, -0.1066441759467125, -0.1504126340150833, 0.07801936566829681, 0.10257644206285477, 0.03906777873635292, 0.5049535632133484, 0.3059442341327667, -0.04300089180469513, 0.4599965512752533, -0.07620248943567276, 0.3581167161464691, -0.22170411050319672, -0.14048738777637482, -0.6267016530036926, -0.40833377838134766, -0.3486095666885376, 0.025834791362285614, 0.3725813925266266, 0.011328845284879208, 0.012288245372474194, 0.06039030849933624, 0.1330862045288086, -0.30876195430755615, -0.05789089947938919, -0.1111711636185646, -0.09755820780992508, 0.1066189855337143, -0.03538195788860321, -0.4606457054615021, -0.396340936422348, 0.38135865330696106, 0.44332197308540344, 0.044836413115262985, 0.016792867332696915, -0.1981082707643509, 0.2825219929218292, 0.03862294182181358, -0.28219375014305115, -0.08470755815505981, 0.14384518563747406, 0.321214884519577, -0.046787820756435394, -0.43505197763442993, -0.16422954201698303, 0.263412207365036, 0.1559271514415741, -0.2909451425075531, 0.26233187317848206, -0.007832986302673817, -0.17846068739891052, -0.05808279290795326, 0.10399577021598816, 0.1449047327041626, 0.033546287566423416, 0.11619863659143448, -0.03816988691687584, -0.010952924378216267, 0.14351657032966614, 0.100095734000206, 0.31755900382995605, 0.3976133167743683, 0.10090243816375732, -0.07985322177410126, 0.27564772963523865, -0.11698627471923828, -0.08203292638063431, -0.2100796103477478, -0.6135921478271484, -0.4129837155342102, -0.5953575968742371, 0.016185590997338295, -0.2300758808851242, -0.1320286989212036, -0.2038470357656479, 0.08599720150232315, 0.11034174263477325, 0.4488297402858734, -0.04154452309012413, -0.17636696994304657, -0.1448391079902649, 0.017387518659234047, 0.35298240184783936, -0.015744587406516075, -0.03384469449520111, 0.03862220048904419, 0.10202433168888092, 0.1886560469865799, 0.13095569610595703, -0.2932530641555786, -0.4356962740421295, -0.13505762815475464, 0.007378069683909416, -0.13592123985290527, 0.20436853170394897, 0.10697947442531586, 0.02442515455186367, -0.08253978937864304, -0.23032335937023163, -0.3257681727409363, -0.2602804899215698, -0.2809428870677948, -0.38574716448783875, 0.24326717853546143, -0.10870970785617828, -0.03573952987790108, -0.0852610170841217, 0.26717236638069153, -0.2851588726043701, -0.5348590612411499, 0.07010509818792343, 0.02982371114194393, -0.06313719600439072, 0.27006402611732483], [0.19173403084278107, 0.04829523339867592, 0.36971843242645264, -0.020375719293951988, 0.2960268557071686, -0.7158961892127991, -0.09743814170360565, -0.17172560095787048, -0.23330670595169067, -0.056874632835388184, 0.16399447619915009, -0.35754039883613586, 0.1630212664604187, -0.15211594104766846, 0.28461891412734985, -0.3156187832355499, 0.011783706024289131, -0.02662098966538906, 0.21380653977394104, 0.019848309457302094, -0.2469790130853653, 0.4721077084541321, 0.2991442382335663, 0.19262243807315826, -0.2508818209171295, 0.042235489934682846, -0.28910714387893677, -0.1685720682144165, -0.17035017907619476, -0.0009099782910197973, 0.02358490601181984, -0.16346733272075653, -0.22376836836338043, 0.05914134159684181, -0.15436656773090363, -0.29243847727775574, 0.25163501501083374, -0.151376411318779, -0.3480816185474396, -0.02615688554942608, 0.13338066637516022, 0.3628705143928528, -0.4319269061088562, 0.1676711142063141, 0.3710264563560486, 0.23581184446811676, -0.06475779414176941, -0.10853569209575653, 0.1727680265903473, 0.17987006902694702, 0.1389017254114151, 0.27128344774246216, -0.05681809037923813, -0.16150328516960144, -0.09030456840991974, -0.0834890753030777, 0.07645594328641891, -0.16804790496826172, 0.12462136894464493, -0.30960413813591003, 0.31672507524490356, 0.045422136783599854, 0.2806526720523834, 0.09540081769227982, -0.10421646386384964, -0.41198164224624634, 0.29345279932022095, 0.0389120876789093, -0.04013996571302414, -0.007967106997966766, 0.028041455894708633, 0.07369896024465561, 0.44800594449043274, -0.4176851511001587, -0.0997987613081932, -0.3509383499622345, 0.14783106744289398, 0.23474328219890594, 0.19230641424655914, 0.21947868168354034, -0.09125036746263504, -0.17943637073040009, 0.08058997988700867, -0.33593982458114624, -0.24979624152183533, 0.02483498305082321, -0.29334667325019836, -0.3772636651992798, 0.22611118853092194, 0.13240042328834534, 0.03559548780322075, -0.06834638118743896, 0.02202066034078598, -0.2757405936717987, 0.1055959016084671, -0.43713879585266113, -0.14479006826877594, -0.05556591972708702, -0.11685099452733994, -0.050303589552640915, -0.11997173726558685, 0.0974884182214737, -0.35639259219169617, 0.1690891981124878, 0.7566230297088623, 0.33882737159729004, -0.19556139409542084, 0.10320527106523514, -0.4650585651397705, -0.18632127344608307, 0.09721065312623978, 0.1433263123035431, -0.16612571477890015, 0.06249026954174042, -0.22523972392082214, -0.5904945731163025, 0.5245940089225769, -0.05527301877737045, -0.024650877341628075, -0.08729225397109985, -0.000365793879609555, 0.220411017537117, -0.13315503299236298, -0.0450877882540226, 0.16163139045238495, 0.3051649332046509, -0.11474668979644775, 0.04956187307834625, 0.3039025068283081, 0.27531182765960693, 0.4908542335033417, 0.32927244901657104, -0.0024136737920343876, -0.5081765055656433, 0.5397171974182129, 0.018202779814600945, -0.17156973481178284, -0.12088049203157425, -0.48444226384162903, 0.2520222067832947, 0.006352841388434172, -0.17489680647850037, -0.008253516629338264, -0.13127698004245758, -0.22218351066112518, 0.26767393946647644, 0.014319293200969696, 0.15025773644447327, 0.28361594676971436, 0.2436424344778061, 0.5596864819526672, 0.22938570380210876, 0.2400713860988617, -0.44071707129478455, -0.21980349719524384, 0.20451605319976807, 0.10576962679624557, 0.1348637044429779, -0.048829857259988785, 0.341058611869812, 0.1430228352546692, -0.2958604395389557, -0.21733590960502625, 0.12496647983789444, -0.33513787388801575, -0.2744787633419037, -0.31664615869522095, -0.1216406300663948, 0.24779193103313446, 0.10768748819828033, 0.1278999298810959, -0.19085131585597992, 0.153253436088562, -0.15748879313468933, 0.10575476288795471, 0.18659335374832153, 0.028362058103084564, 0.31659191846847534, 0.3735772967338562, -0.4977250099182129, -0.06057552620768547, 0.2731021046638489, -0.018292633816599846, 0.2908654808998108, 0.07002295553684235, 0.13508537411689758, 0.04437790438532829, 0.42393919825553894, 0.23241350054740906, -0.11626224964857101, 0.2057589292526245, -0.2196321338415146, -0.16793060302734375, 0.17549017071723938, -0.1050259917974472, -0.15251438319683075, 0.3434736728668213, 0.5074097514152527, -0.06603120267391205, 0.10856277495622635, 0.07788404077291489, 0.29430192708969116, 0.19875748455524445, -0.11266029626131058, -0.02766098454594612, 0.18042519688606262, -0.2710094153881073, -0.3908422887325287, 0.21987445652484894, -0.08082585036754608, 0.056921303272247314, 0.1339714080095291, -0.2729431688785553, 0.5577259659767151, 0.36650022864341736, 0.7338988184928894, -0.03444215655326843, -0.32725149393081665, -0.1530078649520874, -0.2879088222980499, 0.056345995515584946, 0.18232890963554382, -0.20835019648075104, 0.3659147620201111, 0.21449051797389984, -0.303879052400589, 0.021622857078909874, 0.09823615103960037, 0.2219492644071579, -0.28327852487564087, -0.19949527084827423, -0.018157681450247765, -0.0588952861726284, -0.19900061190128326, 0.2294241338968277, 0.41103827953338623, -0.04934827983379364, 0.31937554478645325, -0.0021288860589265823, 0.5822129845619202, -0.286403089761734, -0.2038876712322235, 0.062314845621585846, -0.3200990855693817, -0.07588072866201401, 0.27015629410743713, -0.13399912416934967, -0.12395675480365753, 0.12219080328941345, -0.1808156669139862, -0.025436051189899445, 0.13372771441936493, 0.5373603701591492, 0.4020237922668457, 0.08836966007947922, -0.14603056013584137, 0.39526915550231934, -0.030558675527572632, 0.21677765250205994, 0.5559245347976685, -0.011318105272948742, 0.23765785992145538, -0.03520740941166878, -0.1721377968788147, 0.14258861541748047, -0.1432114541530609, -0.17795896530151367, 0.46016693115234375, -0.45228099822998047, 0.20233245193958282, 0.030549518764019012, 0.26930704712867737, 0.008690872229635715, 0.04131927713751793, -0.14184574782848358, 0.08410437405109406, -0.2222777158021927, -0.03561493009328842, -0.14853647351264954, -0.04760555550456047, 0.08742117136716843, 0.2245585322380066, 0.37081554532051086, -0.5875022411346436, -0.12574777007102966, 0.08571237325668335, -0.3236180543899536, 0.2202175110578537, -0.5881129503250122, -0.2942022383213043, -0.07025448977947235, 0.06161075085401535, -0.3647894859313965, -0.24932602047920227, -0.025118514895439148, 0.28111571073532104, -0.02156469039618969, -0.14352203905582428, 0.2616637945175171, 0.2605684995651245, -0.049632832407951355, -0.3110274076461792, -0.09859684109687805, -0.04363899305462837, 0.38791775703430176, -0.14831070601940155, -0.6440523862838745, -0.2095104306936264, 0.05967490002512932, 0.06416276842355728, -0.07213196158409119, -0.4455195665359497, -0.09773620963096619, -0.3883080780506134, 0.11089856177568436, -0.16374534368515015, -0.04676578938961029, -0.14956392347812653, 0.17782853543758392, 0.12125711143016815, -0.2056242972612381, -0.1861439198255539, 0.025022203102707863, -0.3359605669975281, -0.024807095527648926, -0.18066072463989258, 0.0329667292535305, -0.575186550617218, 0.027264494448900223, 0.10617607831954956, 0.27010858058929443, -0.3770190477371216, -0.3014778196811676, 0.2805008888244629, 0.05209598317742348, 0.25338131189346313, -0.5960255861282349, -0.076496422290802, 0.514197051525116, -0.26494210958480835, -0.23454970121383667, -0.08451689034700394, -0.07668481022119522, -0.3363460302352905, 0.08445628732442856, -0.2628534436225891, 0.4316100776195526, -0.032312992960214615, -0.3344046175479889, -0.21911868453025818, 0.34383538365364075, -0.034705668687820435, 0.31719112396240234, 0.36388954520225525, -0.42714059352874756, 0.03801199793815613, 0.6408950686454773, -0.1518595814704895, -0.04948338493704796, 0.1612442284822464, 0.14576968550682068, -0.2545969784259796, 0.28034958243370056, -0.09235925227403641, 0.09094318747520447, 0.05104923993349075, 0.15393806993961334, -0.10475141555070877, -0.27440106868743896, -0.35852620005607605, -0.0006536210421472788, 0.7752048969268799, 0.2956118881702423, -0.33246126770973206, -0.3790057301521301, -0.056971658021211624, -0.010567562654614449, 0.15703094005584717, -0.08447793871164322, 0.04558783397078514, -0.10447201132774353, -0.04702934995293617, 0.3055586516857147, 0.06697563827037811, -0.12775500118732452, 0.23625057935714722, 0.18487277626991272, -0.09292208403348923, 0.4117588996887207, -0.2661258280277252, 0.08544709533452988, 0.18429476022720337, 0.41637423634529114, 0.23419970273971558, 0.043359603732824326, -0.10071945190429688, 0.14314348995685577, 0.14794088900089264, -0.34163999557495117, -0.10006159543991089, -0.05295238271355629, -0.028048986569046974, 0.15248438715934753, 0.4325203597545624, 0.3622521758079529, -0.19449898600578308, -0.46555429697036743, -0.36938557028770447, 0.4122108817100525, 0.32479289174079895, 0.2297973483800888, 0.10048648715019226, 0.21901559829711914, -0.09959683567285538, 0.18557561933994293, -0.09845029562711716, 0.070917509496212, -0.553803026676178, 0.013787757605314255, -0.11201030761003494, 0.09957028180360794, -0.46035850048065186, -0.3617766797542572, -0.0874800756573677, -0.1863897740840912, -0.32680919766426086, 0.09886077046394348, 0.014899942092597485, 0.29251495003700256, 0.1600647121667862, -0.07916593551635742, -0.019097257405519485, 0.05719825625419617, -0.09950710088014603, -0.09352222830057144, -0.2227332592010498, -0.008701210841536522, -0.33827656507492065, -0.4293019771575928, 0.08821035176515579, -0.17889457941055298, -0.060556646436452866, -0.02388237603008747, -0.050005655735731125, -0.10586385428905487, 0.48073816299438477, 0.43415921926498413, 0.3646697998046875, -0.1488717943429947, 0.14522415399551392, -0.22264672815799713, -0.11080708354711533, -0.045743923634290695, 0.5647306442260742, 0.3681868016719818, -0.02067863568663597, -0.4067460894584656, -0.2514452636241913, -0.1532023698091507, -0.36985549330711365, -0.05984632670879364, 0.11805896461009979, 0.09028312563896179, 0.1816452145576477, 0.1325187087059021, 0.07715316116809845, 0.2952831983566284, -0.08282725512981415, -0.16544055938720703, -0.003838727017864585, 0.25762924551963806, -0.3597138226032257, -0.35460370779037476, -0.20333100855350494, 0.29067254066467285, 0.12100425362586975, -0.052922096103429794, -0.0034450844395905733, -0.10021670907735825, 0.1040249913930893, -0.415611207485199, 0.09954306483268738, -0.25208061933517456, 0.12551674246788025, -0.101826012134552, -0.40827393531799316, -0.24176186323165894, 0.37344011664390564, 0.10344455391168594, -0.2705804705619812, -0.08197860419750214, -0.16989371180534363, -0.17967526614665985, -0.20584316551685333, 0.3139534890651703, 0.03162899240851402, 0.22245754301548004, 0.02147531695663929, -0.43719592690467834, 0.146208718419075, -0.4563615918159485, 0.015786785632371902, 0.08998721092939377, -0.03219788894057274, -0.33475375175476074, -0.4407690763473511, 0.32543283700942993, -0.0012809300096705556, -0.11084340512752533, 0.19818416237831116, -0.05531281232833862, -0.09271685779094696], [0.2603139877319336, -0.08371853083372116, 0.02245992422103882, -0.2493366152048111, -0.035814207047224045, -0.3493562340736389, -0.004866128787398338, -0.23657366633415222, -0.07583553344011307, -0.17708556354045868, -0.6723522543907166, 0.24718733131885529, -0.47146809101104736, 0.0782645121216774, -0.402629554271698, -0.3895212411880493, 0.2787491977214813, 0.13716375827789307, -0.36926907300949097, -0.12660689651966095, -0.41665220260620117, 0.0002595739788375795, -0.19847023487091064, -0.022713128477334976, -0.07228289544582367, -0.0029211880173534155, -0.4715714156627655, 0.21070115268230438, -0.2976249158382416, 0.3365587592124939, 0.18896669149398804, 0.10859329253435135, -0.19099488854408264, -0.1299605667591095, -0.2977426052093506, 0.22706766426563263, 0.047303587198257446, 0.19912995398044586, 0.008133658207952976, -0.38289839029312134, 0.19065739214420319, -0.36252862215042114, -0.12782606482505798, 0.3418722450733185, -0.10309331119060516, -0.7867199778556824, -0.3973392844200134, 0.27016690373420715, -0.00920221395790577, -0.14617228507995605, 0.2078131139278412, -0.3506428301334381, -0.27485039830207825, 0.07472475618124008, -0.5917360782623291, 0.1440088301897049, 0.09872748702764511, -0.05109773576259613, 0.2384839504957199, 0.2674204409122467, 0.07086832821369171, -0.4092830717563629, 0.19765353202819824, 0.4704146981239319, -0.10901430249214172, 0.23970231413841248, -0.4153301417827606, -0.35138776898384094, 0.2417570948600769, -0.06040899455547333, -0.0901261419057846, 0.08588725328445435, -0.18742617964744568, -0.00735740689560771, 0.16949568688869476, 0.30935725569725037, 0.08549672365188599, 0.1764710247516632, 0.350744366645813, -0.30564990639686584, 0.21941547095775604, 0.06884174048900604, 0.13302865624427795, 0.13870689272880554, -0.3221238851547241, 0.0662546381354332, 0.27056488394737244, 0.32425305247306824, 0.2347266674041748, 0.0737963318824768, -0.24245263636112213, -0.25219032168388367, 0.047597892582416534, -0.07804403454065323, -0.005415837746113539, -0.13769304752349854, -0.08701323717832565, 0.533051073551178, 0.2851632535457611, 0.03154200688004494, -0.32602572441101074, -0.0534789003431797, 0.1639421284198761, 0.1629011034965515, -0.4257867634296417, -0.18708470463752747, 0.16329459846019745, -0.09379222989082336, -0.1597432643175125, 0.21921874582767487, -0.1482492983341217, -0.09428421407938004, -0.08737339824438095, -0.3502116799354553, 0.022044846788048744, 0.19747799634933472, 0.46922898292541504, -0.239133819937706, -0.24593883752822876, -0.26328346133232117, 0.10507673770189285, 0.04338918253779411, 0.057668983936309814, -0.06406272202730179, -0.1344231218099594, -0.21621249616146088, 0.4173969030380249, -0.34606391191482544, -0.16002486646175385, -0.2436932623386383, 0.024648288264870644, -0.3493891954421997, -0.06428737938404083, 0.08478301018476486, 0.1329670399427414, 0.08381705731153488, 0.3896518349647522, 0.3055902123451233, 0.045521676540374756, -0.15891015529632568, -0.16379588842391968, -0.28549808263778687, 0.10960514098405838, 0.08776389807462692, -0.2605922520160675, 0.01500020269304514, -0.09668464958667755, 0.23749934136867523, -0.050023067742586136, -0.2517467141151428, -0.2542617619037628, 0.1443328708410263, 0.06996957957744598, 0.12648364901542664, -0.35763058066368103, -0.33048200607299805, 0.05259576067328453, 0.01831698603928089, -0.30843865871429443, -0.14722469449043274, 0.4120732247829437, 0.029489798471331596, -0.1469011753797531, -0.10036266595125198, -0.019843824207782745, 0.12721103429794312, 0.2639656364917755, 0.28202491998672485, -0.35761386156082153, 0.2582571506500244, 0.44244465231895447, 0.28328844904899597, -0.07902615517377853, -0.49597883224487305, -0.31702467799186707, 0.03668488934636116, 0.0009812881471589208, -0.02910352312028408, 0.24960356950759888, -0.2024320811033249, -0.09318272769451141, -0.13761496543884277, -0.04174624755978584, -0.20010283589363098, -0.0822884738445282, 0.22791887819766998, 0.371062308549881, -0.18184903264045715, -0.21038496494293213, 0.09021324664354324, -0.3048863708972931, -0.4161475896835327, 0.021706154569983482, -0.30336833000183105, 0.12444379925727844, 0.28634315729141235, -0.044679976999759674, 0.17545753717422485, -0.05995872616767883, 0.006016877479851246, -0.2997790277004242, 0.026302766054868698, 0.045316193252801895, -0.09021279215812683, 0.32185062766075134, -0.3192227780818939, 0.45540621876716614, 0.0678432509303093, -0.14855754375457764, -0.14225532114505768, -0.04322092980146408, 0.2697741389274597, 0.20918874442577362, 0.1606578528881073, -0.033550456166267395, -0.29161861538887024, -0.44773051142692566, 0.1075344905257225, 0.06319458782672882, 0.28801989555358887, -0.08728224039077759, -0.30389848351478577, 0.23312978446483612, -0.0014910816680639982, -0.17588527500629425, 0.53593909740448, -0.08045514672994614, 0.0004578967345878482, 0.08135784417390823, 0.3616003096103668, 0.11107422411441803, 0.10774683952331543, -0.03077615611255169, -0.12493731826543808, -0.20729988813400269, -0.0976063460111618, -0.052784375846385956, 0.2336266189813614, 0.2396477609872818, 0.3313503861427307, 0.4740280508995056, 0.09870865941047668, -0.11774736642837524, -0.22878965735435486, -0.21269579231739044, -0.1720162332057953, 0.12290944159030914, -0.09032301604747772, 0.21789389848709106, -0.047951191663742065, 0.32522550225257874, 0.4715764820575714, -0.049915313720703125, 0.060073431581258774, -0.4162351191043854, 0.11147245019674301, -0.21210044622421265, -0.25186941027641296, -0.2929116189479828, -0.053608182817697525, -0.1753864884376526, -0.06458193808794022, -0.33195117115974426, -0.004644529893994331, 0.1594047099351883, -0.03188474103808403, -0.10716105997562408, -0.470776230096817, -0.5031089782714844, 0.049574293196201324, -0.033454447984695435, -0.4333459138870239, 0.06784522533416748, -0.13231272995471954, 0.15882566571235657, -0.33979424834251404, 0.18952396512031555, -0.40420594811439514, -0.05408448725938797, 0.09731289744377136, -0.0069009303115308285, 0.21344757080078125, 0.471579372882843, -0.13617606461048126, -0.2870867848396301, -0.11326577514410019, -0.2640226483345032, -0.44365033507347107, 0.19063358008861542, -0.10313104838132858, 0.043832194060087204, -0.20566041767597198, -0.24238279461860657, -0.08438433706760406, -0.4065195918083191, -0.5073843598365784, -0.2690589427947998, -0.6929433941841125, 0.3540530204772949, 0.1001412570476532, -0.6663329601287842, -0.05402066186070442, -0.022284016013145447, -0.13685904443264008, -0.1340039223432541, -0.3207005262374878, -0.13800987601280212, -0.33982017636299133, -0.647430419921875, -0.42413395643234253, -0.21656203269958496, -0.1800404042005539, -0.28441286087036133, 0.03582705184817314, -0.053616102784872055, -0.04871516674757004, -0.06242940202355385, -0.1541500985622406, -0.15970097482204437, 0.13984845578670502, -0.06992609053850174, -0.04430059716105461, -0.7015862464904785, -0.9198349714279175, 0.29931703209877014, 0.0052801091223955154, -0.9060278534889221, -0.7144476771354675, -0.13308100402355194, -0.11773958802223206, -0.06302638351917267, 0.007124470546841621, -0.37727275490760803, -0.22284246981143951, 0.16908018290996552, -0.37008097767829895, 0.1505320817232132, 0.15228435397148132, -0.6446941494941711, 0.11874736100435257, 0.0986020490527153, -0.20916101336479187, -0.03334629535675049, -0.036136843264102936, 0.39149367809295654, -0.0402287095785141, -0.3306576609611511, -0.09621434658765793, -0.49038806557655334, -0.2138862907886505, 0.14230892062187195, 